tree
version=v4
num_class=1
num_tree_per_iteration=1
label_index=0
max_feature_idx=19
objective=binary sigmoid:1
feature_names=Column_0 Column_1 Column_2 Column_3 Column_4 Column_5 Column_6 Column_7 Column_8 Column_9 Column_10 Column_11 Column_12 Column_13 Column_14 Column_15 Column_16 Column_17 Column_18 Column_19
feature_infos=[438:520] [367:614] [256:768] [52:999] [438:516] [182:814] [351:653] [317:635] [346:607] [193:828] [216:829] [347:661] [263:719] [207:794] [450:505] [84:785] [265:735] [347:612] [276:677] [142:920]
tree_sizes=2301 2396 2401 2286 2397 2395 2300 2401 2505 2517 2612 2402 2307 2300 2403 2420 2517 2421 2310 2516 2515 2407 2312 2421 2311 2409 2416 2526 2312 2312 2511 2518 2317 2437 2530 2419 2639 2635 2417 2423 2525 2621 2215 2626 2514 2306 2522 2423 2520 2525 2440 2632 2419 2434 2329 2329 2632 2326 2536 2616 2538 2327 2632 2533 2543 2616 2432 2430 2434 2630 2331 2222 2631 2435 2532 2328 2313 2531 2536 2555 2431 2643 2537 2335 2439 2436 2434 2532 2545 2646 2545 2435 2426 2556 2327 2441 2549 2334 2432 2337 2544 2439 2535 2556 2655 2455 2441 2440 2533 2335 2443 2658 2742 2448 2549 2651 2450 2764 2648 2445 2547 2347 2444 2775 2661 2547 2331

Tree=0
num_leaves=21
num_cat=0
split_feature=6 7 10 11 1 14 14 11 16 14 16 16 7 3 6 16 11 10 6 2
split_gain=94.5015 63.113 57.2957 59.2844 46.9548 39.3512 30.4921 70.8774 29.8785 25.9952 22.3019 18.2264 11.0205 11.4445 13.2865 5.37468 4.00291 3.54347 2.29019 0.449331
threshold=488.50000000000006 484.50000000000006 476.50000000000006 519.50000000000011 501.50000000000006 473.50000000000006 476.50000000000006 505.50000000000006 512.50000000000011 482.50000000000006 508.50000000000006 474.50000000000006 536.50000000000011 633.50000000000011 554.50000000000011 576.50000000000011 472.50000000000006 419.50000000000006 453.50000000000006 488.50000000000006
decision_type=2 2 2 2 2 2 2 2 2 2 2 2 2 2 2 2 2 2 2 2
left_child=1 4 3 12 5 -1 7 -3 -7 11 -6 -4 13 14 -2 16 -13 19 -8 -5
right_child=2 6 9 17 10 8 18 -9 -10 -11 -12 15 -14 -15 -16 -17 -18 -19 -20 -21
leaf_value=0.17604228282841536 0.14083567861298454 -0.1544075464033485 -0.12873422248888472 0.20750350361667266 -0.14574938731196041 0.10350169661091921 -0.18380764314410533 0.13607369111272113 -0.11407071110699936 0.097356662306231453 0.017669696826509932 -0.019951428748851446 -0.036250731553061959 -0.011855146395462384 0.011421665370531187 -0.051324522868234093 0.057500897358374436 0.1443445115079155 -0.13997728125103504 0.18350308661534495
leaf_weight=22.249614074826241 20.999635756015778 20.999635756015778 17.249700799584389 20.749640092253685 19.249666109681129 12.499783188104631 22.999601066112518 13.999757170677183 12.74977885186672 17.249700799584389 14.749744161963461 12.749778851866724 15.999722480773924 15.499731153249739 12.74977885186672 16.999705135822296 13.999757170677183 18.999670445919037 24.749570712447166 12.499783188104628
leaf_count=89 84 84 69 83 77 50 92 56 51 69 59 51 64 62 51 68 56 76 99 50
internal_value=0.00833338 -0.0475999 0.0552659 0.0994165 0.0148621 0.0790802 -0.109118 -0.0382151 -0.0063616 -0.0110306 -0.0748543 -0.0416812 0.035853 0.0592776 0.0919459 -0.00735737 0.0205844 0.178795 -0.161089 0.198481
internal_weight=0 164.247 195.747 117.498 81.4986 47.4992 82.7486 34.9994 25.2496 78.2486 33.9994 60.9989 65.2489 49.2491 33.7494 43.7492 26.7495 52.2491 47.7492 33.2494
internal_count=1440 657 783 470 326 190 331 140 101 313 136 244 261 197 135 175 107 209 191 133
is_linear=0
shrinkage=1


Tree=1
num_leaves=22
num_cat=0
split_feature=18 10 5 11 11 13 8 11 8 19 13 13 16 13 18 19 8 6 10 19 10
split_gain=77.9987 53.9194 51.2142 50.666 35.7201 42.767 30.5628 25.2617 55.1972 24.4061 25.1297 24.3036 17.0072 16.2686 10.5519 8.12837 3.00457 1.68228 1.54867 1.37974 0.0631511
threshold=480.50000000000006 470.50000000000006 516.50000000000011 519.50000000000011 509.50000000000006 543.50000000000011 511.50000000000006 478.50000000000006 482.50000000000006 479.50000000000006 470.50000000000006 530.50000000000011 460.50000000000006 471.50000000000006 569.50000000000011 376.50000000000006 458.50000000000006 455.50000000000006 430.50000000000006 536.50000000000011 359.50000000000006
decision_type=2 2 2 2 2 2 2 2 2 2 2 2 2 2 2 2 2 2 2 2 2
left_child=2 3 4 9 5 -1 12 19 -9 14 -11 -6 -3 -14 -2 -15 -7 -10 20 -4 -5
right_child=1 6 7 18 11 16 -8 8 17 10 -12 -13 13 15 -16 -17 -18 -19 -20 -21 -22
leaf_value=-0.065960414378062535 0.15421113339083514 -0.14801251211569511 -0.14066871599097394 0.17380281197808128 0.036581307741156567 0.16146341215655968 0.091537084640134256 0.071803435828437082 -0.16784065032458734 -0.10166094089642286 0.076444359137686879 -0.12825440907733829 -0.10940104955505608 0.07015329573283606 0.030623127952496366 -0.033570988537313572 0.097836960830763445 -0.12086688807666504 0.13830848353538791 -0.18155133170830728 0.18267307984157197
leaf_weight=16.199297159910202 15.454416632652284 14.440444588661192 12.922039479017256 12.620681360363958 14.478617846965788 17.861257910728458 19.199375793337822 20.150966942310333 12.892571896314623 19.232330217957497 13.470653995871542 23.40267850458622 14.741179019212721 15.240970313549044 12.492932543158529 14.981810837984083 12.698098719120024 18.657080411911011 12.435115128755568 22.856706276535988 22.04700468480587
leaf_count=65 62 58 52 51 58 72 77 81 52 77 54 94 59 61 50 60 51 75 50 92 89
internal_value=0 0.0448324 -0.0485331 0.090774 0.00692251 0.0653948 -0.0181462 -0.102189 -0.057485 0.0303443 -0.0282978 -0.0652525 -0.0535956 -0.0232731 0.0989652 0.0187359 0.135025 -0.140062 0.168584 -0.166786 0.179444
internal_weight=0 186.357 172.119 107.753 84.64 46.7587 78.6038 87.4794 51.7006 60.6503 32.703 37.8813 59.4044 44.964 27.9473 30.2228 30.5594 31.5497 47.1028 35.7787 34.6677
internal_count=1440 748 692 433 340 188 315 352 208 243 131 152 238 180 112 121 123 127 190 144 140
is_linear=0
shrinkage=0.1


Tree=2
num_leaves=22
num_cat=0
split_feature=18 10 12 1 1 13 1 17 13 19 17 17 3 17 18 1 18 12 10 4 18
split_gain=64.6079 41.7292 39.969 36.0577 30.5107 35.3103 20.6498 27.921 18.3007 16.7121 18.0486 13.1233 29.1141 15.9266 8.33726 7.92634 6.56668 5.29643 3.85305 0.782263 0.75542
threshold=474.50000000000006 461.50000000000006 509.50000000000006 508.50000000000006 501.50000000000006 543.50000000000011 470.50000000000006 491.50000000000006 530.50000000000011 468.50000000000006 467.50000000000006 501.50000000000006 483.50000000000006 477.50000000000006 567.50000000000011 461.50000000000006 543.50000000000011 563.50000000000011 625.50000000000011 491.50000000000006 426.50000000000006
decision_type=2 2 2 2 2 2 2 2 2 2 2 2 2 2 2 2 2 2 2 2 2
left_child=2 3 4 9 5 -1 20 17 -6 14 -11 12 13 15 -2 -3 -14 -8 -7 -5 -4
right_child=1 11 6 19 8 18 7 -9 -10 10 -12 -13 16 -15 -16 -17 -18 -19 -20 -21 -22
leaf_value=-0.066140540852628105 0.14993651981496597 -0.13913776128900845 -0.17145434808417823 0.14234635574657992 0.021817749865178378 0.077293816924421763 -0.14674063319656486 0.05063618151727816 -0.12758340253209402 -0.065410982148757332 0.076310918074811482 -0.075010752164262784 0.14838827880358565 0.049815239981708628 0.03817751878380124 -0.028831522423533054 0.045389739022446716 -0.064064364109222102 0.14713460026846586 0.17022511703489496 -0.14107215105139392
leaf_weight=16.155429020524025 13.780564501881601 13.681100338697435 17.497402384877205 20.165616512298584 13.474850013852118 14.494122073054315 17.356208950281147 16.575828731060028 20.940651699900627 22.116272255778313 15.135919734835623 23.752035409212112 12.368689164519312 12.726087212562559 12.945931300520895 12.435770049691198 12.390952423214911 13.997784987092016 17.360889032483101 20.093766316771507 15.374513402581213
leaf_count=65 56 55 72 83 54 59 71 67 85 89 61 96 50 51 52 50 50 57 71 83 63
internal_value=0 0.039395 -0.0462221 0.0821179 0.00277189 0.0542833 -0.096201 -0.0543353 -0.0690877 0.0354625 -0.00782803 -0.0115851 0.0121008 -0.0419161 0.0958021 -0.0866145 0.0968427 -0.10983 0.115357 0.156261 -0.157244
internal_weight=0 191.593 163.228 104.238 82.4259 48.0104 80.8017 47.9298 34.4155 63.9787 37.2522 87.3546 63.6026 38.843 26.7265 26.1169 24.7596 31.354 31.855 40.2594 32.8719
internal_count=1440 776 664 424 334 195 330 195 139 258 150 352 256 156 108 105 100 128 130 166 135
is_linear=0
shrinkage=0.1


Tree=3
num_leaves=21
num_cat=0
split_feature=18 3 12 1 17 8 1 17 3 2 2 8 1 17 19 17 8 19 6 1
split_gain=53.2665 34.8214 32.8469 24.006 29.7251 20.343 42.1144 19.3411 36.0226 18.5943 16.7104 13.0852 10.1469 13.1894 26.5307 9.49284 6.99327 2.65655 1.42085 1.47276
threshold=471.50000000000006 699.50000000000011 509.50000000000006 501.50000000000006 500.50000000000006 479.50000000000006 474.50000000000006 501.50000000000006 436.50000000000006 414.50000000000006 495.50000000000006 501.50000000000006 507.50000000000006 467.50000000000006 468.50000000000006 469.50000000000006 461.50000000000006 471.50000000000006 449.50000000000006 494.50000000000006
decision_type=2 2 2 2 2 2 2 2 2 2 2 2 2 2 2 2 2 2 2 2
left_child=2 7 3 4 -1 6 -4 8 15 -9 12 -5 13 14 -10 -2 -6 -12 -7 -20
right_child=1 -3 5 11 16 18 -8 9 10 -11 17 -13 -14 -15 -16 -17 -18 -19 19 -21
leaf_value=-0.068979472213331672 -0.093499289578752295 0.15451398615900502 -0.15023611182613048 -0.11677296529610462 0.13910912013989241 -0.15260628501963666 0.082357414238012433 -0.14685811187710229 0.052815683272238956 0.01663186726556944 0.15406334100175345 0.010094600489520843 0.1017304884216135 0.07768900105787388 -0.12414330957595897 0.013393355772523666 0.042981017640492919 0.092856935055654233 -0.094207314536882428 -0.14021632381682905
leaf_weight=14.832454085350035 21.711038887500763 21.75923877954483 14.683961227536203 19.184971392154694 19.745469108223915 18.66230770945549 16.567983627319336 12.441472992300989 20.624191448092461 15.779887616634367 17.040847584605221 14.108269229531286 19.757089704275131 22.932677313685417 14.379326000809668 13.457987219095228 12.271249070763586 12.145394027233122 14.078947842121126 13.754413574934004
leaf_count=60 88 92 62 79 83 79 67 51 84 64 71 57 82 93 58 54 50 50 59 57
internal_value=0 0.0353934 -0.0430127 0.00191162 0.0480493 -0.0893209 -0.0269284 0.0201706 0.0351931 -0.0554432 0.0640801 -0.0630118 0.0398451 0.0187413 -0.0198785 -0.0525951 0.102265 0.128593 -0.131258 -0.116944
internal_weight=0 192.029 157.89 80.1424 46.8492 77.7476 31.2519 170.27 142.049 28.2214 106.88 33.2932 77.6933 57.9362 35.0035 35.169 32.0167 29.1862 46.4957 27.8334
internal_count=1440 787 653 329 193 324 129 695 580 115 438 136 317 235 142 142 133 121 195 116
is_linear=0
shrinkage=0.1


Tree=4
num_leaves=22
num_cat=0
split_feature=6 7 1 13 11 13 11 8 15 15 13 8 19 13 19 13 2 12 6 11 12
split_gain=43.9542 30.582 22.7139 27.4933 22.695 27.1006 17.8763 33.9417 15.5668 11.1966 12.4384 10.2152 8.55673 7.8296 11.4557 9.62066 2.15392 2.27532 1.86547 1.69187 0.564891
threshold=488.50000000000006 484.50000000000006 490.50000000000006 529.50000000000011 509.50000000000006 543.50000000000011 478.50000000000006 480.50000000000006 469.50000000000006 469.50000000000006 470.50000000000006 529.50000000000011 383.50000000000006 474.50000000000006 376.50000000000006 421.50000000000006 426.50000000000006 555.50000000000011 441.50000000000006 547.50000000000011 559.50000000000011
decision_type=2 2 2 2 2 2 2 2 2 2 2 2 2 2 2 2 2 2 2 2 2
left_child=1 4 9 12 5 -1 20 -8 -6 11 -11 13 -4 15 -15 -2 -14 -18 -7 -9 -3
right_child=2 6 3 -5 8 18 7 19 -10 10 -12 -13 16 14 -16 -17 17 -19 -20 -21 -22
leaf_value=-0.054285861487832682 0.02763120640824035 -0.15664797035628752 0.038800916488958503 -0.04654499422744679 0.034752857337573231 0.082975932141052477 0.059754387821434302 -0.09200868542154024 -0.10485490999898116 -0.11091754981755282 0.0098751477407898434 0.10146577082436631 0.1443968106747516 0.10485802482566903 -0.025767429769688578 -0.094746135641984169 0.071727855381957459 0.12437032856865304 0.13479858255553545 -0.14180084878975377 -0.12969901993256236
leaf_weight=15.221988111734388 12.481293246150019 14.652344748377802 18.876410335302353 16.541104465723038 12.387309357523916 12.649225831031801 18.64712381362915 14.721111163496973 22.483817026019096 15.960133239626883 18.298531144857407 13.548294007778166 18.824637934565544 13.912663683295252 12.975132286548613 13.236724719405172 14.203373238444327 19.459198102355003 15.406724423170088 12.720987662672995 16.579516485333443
leaf_count=62 51 64 78 69 50 54 76 63 94 65 75 56 82 56 53 54 60 84 66 55 73
internal_value=0 -0.0393431 0.0324986 0.0696169 0.00477297 0.053146 -0.0839315 -0.0443503 -0.0552619 3.91601e-06 -0.0463987 0.0240341 0.0965417 0.00409201 0.0418226 -0.0353548 0.117307 0.102159 0.111434 -0.11509 -0.142342
internal_weight=0 155.47 188.317 87.9047 78.1491 43.2779 77.3211 46.0892 34.8711 100.413 34.2587 66.1541 71.3636 52.6058 26.8878 25.718 52.4872 33.6626 28.056 27.4421 31.2319
internal_count=1440 657 783 373 326 182 331 194 144 410 140 270 304 214 109 105 226 144 120 118 137
is_linear=0
shrinkage=0.1


Tree=5
num_leaves=22
num_cat=0
split_feature=10 19 8 4 11 7 4 8 1 11 4 8 7 7 8 19 4 5 2 19 2
split_gain=24.7793 20.1469 25.4057 18.3711 16.7711 14.9515 21.7901 24.7945 32.4161 21.5277 17.2009 13.757 12.924 10.3313 7.54205 6.96497 6.70754 4.50654 3.07776 1.36836 1.22364
threshold=461.50000000000006 468.50000000000006 514.50000000000011 495.50000000000006 505.50000000000006 445.50000000000006 464.50000000000006 481.50000000000006 489.50000000000006 472.50000000000006 473.50000000000006 464.50000000000006 466.50000000000006 480.50000000000006 497.50000000000006 546.50000000000011 485.50000000000006 516.50000000000011 481.50000000000006 516.50000000000011 479.50000000000006
decision_type=2 2 2 2 2 2 2 2 2 2 2 2 2 2 2 2 2 2 2 2 2
left_child=1 14 4 15 -3 6 -2 8 -8 12 -9 13 -7 -11 -1 -4 -12 -13 -6 -14 -16
right_child=5 2 3 -5 18 9 7 10 -10 11 16 17 19 -15 20 -17 -18 -19 -20 -21 -22
leaf_value=0.034351771242558074 0.12010815868807352 -0.010127525341197674 -0.041738861255351867 0.047687221091077252 0.13755294339087071 -0.012484240878502452 0.02379556670537181 -0.059129882775383696 -0.16207119568528108 -0.033553395705147593 0.1067899272928346 -0.018530725703286857 -0.15130953333809649 0.080715096421212162 0.10966645522105023 -0.14312975891994331 0.014368667385697552 -0.092518505193043346 0.070074326895980629 -0.11109154126395651 0.15521397834652678
leaf_weight=11.940470725297926 14.665868774056433 20.213204860687256 12.789463937282564 13.376780286431311 16.284052267670635 13.004576370120047 18.090827539563179 13.613586530089377 19.494950369000435 12.913981571793554 21.984709665179253 16.861590787768364 15.732228398323057 20.42879781126976 12.095666706562044 14.407554060220717 12.216216772794722 16.086012154817581 11.556113570928572 18.300829812884331 11.511741548776625
leaf_count=50 63 84 54 60 73 54 77 56 82 55 90 69 68 84 51 63 52 71 50 83 51
internal_value=0 0.0355174 0.0100074 -0.0482594 0.0592049 -0.0206672 0.00750212 -0.0118358 -0.0726096 -0.04554 0.0359369 -0.00882642 -0.0972807 0.0364578 0.0991184 -0.0954504 0.073778 -0.0546538 0.109543 -0.129683 0.131877
internal_weight=0 124.175 88.6272 40.5738 48.0534 213.394 100.066 85.4003 37.5858 113.328 47.8145 66.2904 47.0376 33.3428 35.5479 27.197 34.2009 32.9476 27.8402 34.0331 23.6074
internal_count=1440 536 384 177 207 904 420 357 159 484 198 279 205 139 152 117 142 140 123 151 102
is_linear=0
shrinkage=0.1


Tree=6
num_leaves=21
num_cat=0
split_feature=18 10 11 7 11 8 8 11 0 16 19 18 16 0 8 12 10 11 19 11
split_gain=31.2587 25.3764 26.3153 23.9361 16.8541 16.5353 14.0394 13.4386 26.2005 13.4238 12.4804 10.408 9.93601 8.08019 4.45278 3.984 2.69121 2.55237 0.718946 0.220415
threshold=471.50000000000006 476.50000000000006 519.50000000000011 484.50000000000006 509.50000000000006 467.50000000000006 511.50000000000006 478.50000000000006 479.50000000000006 508.50000000000006 460.50000000000006 568.50000000000011 474.50000000000006 484.50000000000006 452.50000000000006 443.50000000000006 419.50000000000006 547.50000000000011 601.50000000000011 561.50000000000011
decision_type=2 2 2 2 2 2 2 2 2 2 2 2 2 2 2 2 2 2 2 2
left_child=3 2 10 4 5 -1 12 18 -9 -6 11 -2 -3 -12 -14 -16 19 -10 -5 -4
right_child=1 6 16 7 9 -7 -8 8 17 -11 13 -13 14 -15 15 -17 -18 -19 -20 -21
leaf_value=0.11725736198000535 0.13486822078090163 -0.10451441376967184 0.14357891539375298 -0.1116603288687998 -0.10512271042813037 -0.0093605716967321232 0.066002455239265276 0.048067223229011295 -0.077233160310094418 0.02271597940714247 0.025489899480135216 0.0058194499592560062 0.023328220392001615 -0.067299406058441993 -0.0011285054020362983 -0.080826274455188307 0.086235785468667711 -0.14057299073903612 -0.14359087069913526 0.1252507078509143
leaf_weight=18.811092689633369 12.747387975454332 16.629106149077415 16.960556209087375 13.109744831919672 18.281973674893379 22.832744270563126 16.247856587171555 19.021609827876091 13.559532999992372 14.915090993046759 19.324257120490074 12.260928347706793 18.635816439986229 18.245941564440727 12.474426582455637 12.615556180477141 17.335461094975471 11.985265791416166 15.259249866008757 10.701539754867552
leaf_count=86 56 70 81 63 80 95 68 79 61 61 79 50 76 76 51 52 77 55 73 51
internal_value=0 0.0274793 0.058802 -0.0342659 0.00546455 0.0478345 -0.0165084 -0.0750344 -0.0407871 -0.0476861 0.016862 0.071599 -0.0387207 -0.0195732 -0.0136991 -0.0412015 0.117128 -0.106951 -0.128835 0.136488
internal_weight=0 184.179 107.576 147.776 74.8409 41.6438 76.6028 72.9354 44.5664 33.1971 62.5785 25.0083 60.3549 37.5702 43.7258 25.09 44.9976 25.5448 28.369 27.6621
internal_count=1440 787 470 653 322 181 317 331 195 141 261 106 249 155 179 103 209 116 136 132
is_linear=0
shrinkage=0.1


Tree=7
num_leaves=22
num_cat=0
split_feature=18 3 5 1 17 17 4 1 18 1 8 8 17 17 17 15 18 0 7 17 18
split_gain=26.1008 23.8972 21.4367 12.4668 18.393 11.2866 22.5969 10.7274 10.0575 9.72155 20.9809 9.29984 7.63829 6.16297 5.97154 15.909 11.1355 3.39084 1.33253 0.839292 0.628523
threshold=472.50000000000006 699.50000000000011 516.50000000000011 501.50000000000006 500.50000000000006 501.50000000000006 473.50000000000006 507.50000000000006 520.50000000000011 470.50000000000006 480.50000000000006 501.50000000000006 469.50000000000006 464.50000000000006 468.50000000000006 469.50000000000006 557.50000000000011 471.50000000000006 518.50000000000011 487.50000000000006 553.50000000000011
decision_type=2 2 2 2 2 2 2 2 2 2 2 2 2 2 2 2 2 2 2 2 2
left_child=2 5 3 4 -1 6 12 14 -7 19 -11 -5 -2 20 15 16 -8 -6 -12 -4 -9
right_child=1 -3 9 11 17 8 7 13 -10 10 18 -13 -14 -15 -16 -17 -18 -19 -20 -21 -22
leaf_value=-0.05064763851995311 -0.083946342928286746 0.13177943822198343 -0.10172048302824564 -0.08995319679312741 0.11814770936171114 0.016482534367862473 0.11069719268753136 0.10507030076797103 -0.10566414038890437 0.041578573271271145 -0.12547192570553639 0.019277270580754319 0.013817373767215002 0.032691872614314721 0.067479281057480925 -0.075419207108001984 -0.018009595163972394 0.049284124116953411 -0.079725362230009478 -0.13735017757089737 0.1377557417764263
leaf_weight=14.722770437598227 20.571922957897186 18.930169075727463 13.534380570054056 17.817539885640148 15.675593987107279 13.175358936190607 14.288181915879251 11.025392860174181 13.803271457552908 17.712640583515167 11.281498581171038 13.855944722890852 13.068580433726309 11.286495327949522 21.732219725847244 16.117943435907364 12.694444909691809 13.147553846240042 14.617823600769041 12.924973815679548 12.614130765199659
leaf_count=61 86 92 68 80 75 55 64 51 59 74 54 57 53 50 90 68 53 56 68 66 60
internal_value=0 0.0255197 -0.0315074 0.00556622 0.0402868 0.0129774 0.0249074 0.0488077 -0.0460123 -0.0713049 -0.0422924 -0.042169 -0.0459673 0.0934858 0.0247392 0.00318876 0.0501449 0.0867359 -0.0996521 -0.119125 0.122511
internal_weight=0 179.308 145.291 75.2194 43.5459 160.378 133.399 99.7588 26.9786 70.0713 43.612 31.6735 33.6405 34.926 64.8328 43.1006 26.9826 28.8231 25.8993 26.4594 23.6395
internal_count=1440 781 659 329 192 689 575 436 114 330 196 137 139 161 275 185 117 131 122 134 111
is_linear=0
shrinkage=0.1


Tree=8
num_leaves=23
num_cat=0
split_feature=18 10 5 1 14 4 4 1 17 1 14 17 5 18 19 17 18 9 14 9 19 2
split_gain=21.891 20.0828 17.9001 17.1286 11.3095 18.1573 13.3632 10.1068 16.2169 9.56035 17.3583 7.68853 7.68099 7.4752 4.21513 8.84827 4.73516 3.37396 1.41538 0.937688 0.664927 0.207876
threshold=471.50000000000006 461.50000000000006 516.50000000000011 508.50000000000006 476.50000000000006 476.50000000000006 476.50000000000006 501.50000000000006 500.50000000000006 470.50000000000006 476.50000000000006 487.50000000000006 623.50000000000011 415.50000000000006 481.50000000000006 467.50000000000006 567.50000000000011 504.50000000000006 486.50000000000006 483.50000000000006 601.50000000000011 425.50000000000006
decision_type=2 2 2 2 2 2 2 2 2 2 2 2 2 2 2 2 2 2 2 2 2 2
left_child=2 3 7 12 6 -6 11 8 -1 20 -11 -3 14 -9 16 -16 -2 -10 -12 21 -4 -5
right_child=1 4 9 19 5 -7 -8 13 17 10 18 -13 -14 -15 15 -17 -18 -19 -20 -21 -22 -23
leaf_value=-0.050093923868558002 0.12042321211547713 -0.053733471349621954 -0.099411396922919393 0.11729999746425689 -0.052643627564777112 0.091334729698966735 -0.11109717653249039 -0.094786330475744113 0.12438207834371798 0.037728589435348417 -0.072330890878085183 0.046652902565103613 -0.047353444132958167 0.004634384382292368 -0.045714350350190724 0.072067767396316748 0.02971095277121957 0.053055784902071801 -0.12104640570504797 0.089335643891175445 -0.13239185194120498 0.13681606928789852
leaf_weight=14.343236505985258 10.991483226418497 15.045675829052927 11.65345472097397 11.919786155223848 15.133505985140799 20.794681698083878 18.19580489397049 13.488591551780702 10.833433106541635 17.575534924864769 14.50669212639332 15.478277519345282 12.011050820350645 17.213599428534508 12.591435819864275 12.925840780138968 12.077349960803984 17.100283399224281 10.127802371978758 10.026915878057478 12.858115553855894 10.067577153444288
leaf_count=60 52 63 62 64 63 91 79 61 50 74 71 63 51 74 54 54 50 81 50 51 70 52
internal_value=0 0.0233315 -0.029602 0.0555113 -0.0118758 0.0306888 -0.0432648 0.00462441 0.0363376 -0.0670384 -0.0381927 -0.00282892 0.0242523 -0.0390448 0.0419541 0.0139485 0.0729321 0.080718 -0.0923589 0.114679 -0.116712 0.126236
internal_weight=0 177.259 139.701 92.6114 84.6479 35.9282 48.7198 72.9791 42.277 66.7216 42.21 30.524 60.5972 30.7022 48.5861 25.5173 23.0688 27.9337 24.6345 32.0143 24.5116 21.9874
internal_count=1440 787 653 428 359 154 205 326 191 327 195 126 261 135 210 108 102 131 121 167 132 116
is_linear=0
shrinkage=0.1


Tree=9
num_leaves=23
num_cat=0
split_feature=3 18 10 7 10 3 19 14 14 7 19 3 9 19 10 7 0 1 18 14 3 3
split_gain=18.491 12.3721 9.98895 10.0089 7.18147 10.1706 14.304 34.8458 14.1816 24.13 10.266 8.4708 7.21268 5.7057 5.07987 4.9637 3.61278 3.49323 3.4885 2.36245 2.30557 1.50338
threshold=699.50000000000011 416.50000000000006 605.50000000000011 423.50000000000006 633.00000000000011 436.50000000000006 482.50000000000006 477.50000000000006 475.50000000000006 467.50000000000006 319.00000000000006 513.50000000000011 493.50000000000006 524.50000000000011 522.50000000000011 507.50000000000006 493.50000000000006 461.50000000000006 545.50000000000011 479.50000000000006 536.50000000000011 614.50000000000011
decision_type=2 2 2 2 2 2 2 2 2 2 2 2 2 2 2 2 2 2 2 2 2 2
left_child=1 2 17 -4 5 12 7 -7 9 -8 -9 -11 14 -10 -3 -14 21 -1 -2 -19 -12 -15
right_child=18 4 3 -5 -6 6 8 10 13 11 20 -13 15 16 -16 -17 -18 19 -20 -21 -22 -23
leaf_value=-0.12615812684786862 0.04916328787022918 -0.045265364529146833 -0.071497257906290398 0.050315573447318143 0.080656565983369982 -0.064613908224314162 -0.091205582681829434 0.011857940270265344 0.0044359235555526911 0.0090342954795080734 0.14592707886657386 0.11939407563658444 -0.11262091648498154 -0.072036383972117216 0.041711367566773773 -0.028030246304036555 -0.11608005627430561 -0.028895889626754812 0.13185079733870606 -0.091984648626760673 0.095761286643358645 -0.021769348225503388
leaf_weight=11.516355231404303 9.8624595701694506 12.906416326761248 11.611368358135225 16.095573827624321 11.719243869185446 19.685812905430794 11.719340324401854 11.787247076630591 14.314010202884672 11.094381809234621 17.120133280754089 18.641468271613121 14.671397268772127 12.486761629581453 13.997892290353773 13.158149778842924 11.621497452259062 12.413118571043016 10.570991620421408 11.374301731586455 19.707373067736626 11.365216270089148
leaf_count=63 51 55 54 78 53 86 55 51 65 51 78 87 64 60 59 61 56 54 57 56 95 51
internal_value=0 -0.00649294 -0.0456772 -0.000733497 0.00443214 0.000263274 0.013024 0.047632 -0.0128821 0.0303229 0.0930842 0.0782191 -0.0369328 -0.0488565 -1.27269e-05 -0.0726254 -0.0703607 -0.0809497 0.0919406 -0.0590627 0.119082 -0.0480847
internal_weight=0 289.007 63.0107 27.7069 225.996 214.277 159.543 68.3006 91.2427 41.4552 48.6148 29.7359 54.7339 49.7875 26.9043 27.8295 35.4735 35.3038 20.4335 23.7874 36.8275 23.852
internal_count=1440 1332 305 132 1027 974 735 310 425 193 224 138 239 232 114 125 167 173 108 110 173 111
is_linear=0
shrinkage=0.1


Tree=10
num_leaves=24
num_cat=0
split_feature=6 9 13 10 16 7 8 7 10 9 6 0 0 7 6 6 13 19 7 8 7 7 19
split_gain=19.203 9.09007 7.15614 7.07407 10.8617 6.91704 7.74043 6.53668 5.1541 13.5337 9.06353 5.09154 10.1623 5.35353 5.08039 4.04322 3.83984 3.42914 2.7336 7.7733 4.31728 1.77387 1.32467
threshold=450.50000000000006 656.50000000000011 361.50000000000006 633.00000000000011 576.50000000000011 484.50000000000006 516.50000000000011 536.50000000000011 473.50000000000006 350.50000000000006 502.50000000000006 489.50000000000006 471.50000000000006 445.50000000000006 501.50000000000006 510.50000000000006 430.50000000000006 460.50000000000006 462.50000000000006 503.50000000000006 516.50000000000011 427.50000000000006 675.50000000000011
decision_type=2 2 2 2 2 2 2 2 2 2 2 2 2 2 2 2 2 2 2 2 2 2 2
left_child=1 5 17 4 7 6 21 8 10 -10 -4 12 14 -14 -11 -9 -6 -2 -12 20 -20 -1 -7
right_child=2 -3 3 -5 16 22 -8 15 9 11 18 -13 13 -15 -16 -17 -18 -19 19 -21 -22 -23 -24
leaf_value=-0.030782993253014243 0.083710574486336217 0.038145887362130287 -0.023943605763225677 0.08370101848991951 -0.013746341371438304 -0.12907725950171736 -0.1013426280543047 -0.084672286648007106 -0.10001697584417511 0.092594871729753225 0.098362132752782716 0.068635062917612122 0.0020636310526248847 -0.085798940811282531 0.0049758443913447518 0.0019649294936214964 -0.08835558180556452 0.010460102876924445 0.038434171725190765 -0.017538897974000992 0.12514363990742292 0.025733982343048446 -0.079918571563378671
leaf_weight=10.405593171715738 19.577995091676716 10.449811011552809 16.521245509386063 11.322385951876639 12.379208177328112 12.160696014761927 11.593706876039503 10.315993249416353 11.093637138605116 13.21353890001774 14.352299600839613 15.887029990553854 15.317368909716608 12.671777456998823 13.256909206509588 11.273006290197371 15.579399973154066 9.4882069677114469 11.711281836032869 12.30573061108589 11.266077175736426 11.909671619534491 9.9803683012723905
leaf_count=51 97 51 81 52 55 68 50 51 51 61 70 71 65 59 56 54 69 50 56 59 54 58 51
internal_value=0 -0.0474804 0.0133153 0.00683412 0.00241951 -0.0634443 -0.0350576 0.0119613 0.0194788 0.00263641 0.0402122 0.0188248 0.00429409 -0.0377152 0.0487136 -0.0394334 -0.0553209 0.0597991 0.0615667 0.0465992 0.0809489 -0.000619846 -0.106918
internal_weight=0 66.4998 237.533 208.467 197.145 56.05 33.909 169.186 147.597 81.4403 66.1566 70.3466 54.4596 27.9891 26.4704 21.589 27.9586 29.0662 49.6354 35.2831 22.9774 22.3153 22.1411
internal_count=1440 329 1111 964 912 278 159 788 683 363 320 312 241 124 117 105 124 147 239 169 110 109 119
is_linear=0
shrinkage=0.1


Tree=11
num_leaves=22
num_cat=0
split_feature=18 10 11 5 11 9 8 16 8 11 9 5 5 9 2 17 11 11 2 10 10
split_gain=12.8349 15.344 17.9546 12.5567 10.2305 12.3535 13.8569 10.3156 8.78805 28.8337 7.32913 6.01373 4.87791 4.4086 4.4532 3.98253 5.9031 3.3057 1.52006 1.19544 0.13467
threshold=480.50000000000006 461.50000000000006 519.50000000000011 516.50000000000011 509.50000000000006 495.50000000000006 499.50000000000006 508.50000000000006 495.50000000000006 505.50000000000006 350.50000000000006 615.50000000000011 406.50000000000006 443.50000000000006 376.50000000000006 478.50000000000006 498.50000000000006 495.50000000000006 439.50000000000006 423.50000000000006 359.50000000000006
decision_type=2 2 2 2 2 2 2 2 2 2 2 2 2 2 2 2 2 2 2 2 2
left_child=3 2 11 4 5 -1 -7 -6 9 -5 -3 13 18 14 -2 16 -14 -10 -12 20 -4
right_child=1 10 19 8 7 6 -8 -9 17 -11 12 -13 15 -15 -16 -17 -18 -19 -20 -21 -22
leaf_value=0.12593946115240312 0.052918240194832517 -0.086169276674596118 0.11287217876076994 -0.10737272927266106 -0.085866556068432853 0.070777649308127646 -0.070709246262107769 0.024611044406313575 -0.055395678366767766 0.075824534957393108 0.011660709769223071 -0.048956745784462193 -0.091100897468775394 0.086017083752629869 -0.025629791384307838 0.018587619682874656 0.0052406866556098317 -0.1194662881162377 0.062659093077210307 0.079807523354389398 0.12920218308525713
leaf_weight=11.950062811374663 13.735745057463648 11.547052666544912 8.1149300336837822 17.632314950227737 17.951272740960121 14.744718730449678 13.047091230750082 15.971342116594313 14.64995004236698 16.755570352077484 11.839047566056253 11.865662083029745 13.253034174442293 10.998404189944265 15.210389733314512 16.165035530924797 12.227939024567602 17.882296904921532 11.54279677569866 9.1100635528564435 13.371396213769911
leaf_count=57 60 54 51 96 85 74 57 67 86 74 53 51 58 53 67 68 54 96 50 49 80
internal_value=0 0.0194758 0.0494232 -0.0220005 0.00648465 0.0409148 0.00435548 -0.0338518 -0.0533565 -0.0181095 -0.0127522 0.0135529 0.000284523 0.0321216 0.0116434 -0.0202375 -0.044868 -0.090614 0.0368368 0.110164 0.123035
internal_weight=0 158.981 82.4066 140.585 73.6645 39.7419 27.7918 33.9226 66.9201 34.3879 76.5749 51.8102 65.0279 39.9445 28.9461 41.646 25.481 32.5322 23.3818 30.5964 21.4863
internal_count=1440 748 411 692 340 188 131 152 352 170 337 231 283 180 127 180 112 182 103 180 131
is_linear=0
shrinkage=0.1


Tree=12
num_leaves=21
num_cat=0
split_feature=3 18 7 11 13 11 7 7 8 8 11 18 11 3 11 11 16 8 14 2
split_gain=13.6743 7.65523 5.2881 11.227 5.23833 4.64909 18.8965 9.36552 25.9372 13.8346 13.7723 8.15423 5.10249 4.61589 7.10979 4.59478 4.08754 3.60381 3.26317 1.77026
threshold=699.50000000000011 415.50000000000006 469.50000000000006 518.50000000000011 361.50000000000006 471.50000000000006 466.50000000000006 467.50000000000006 498.50000000000006 475.50000000000006 517.50000000000011 531.50000000000011 522.50000000000011 404.50000000000006 440.50000000000006 505.50000000000006 489.50000000000006 516.50000000000011 485.50000000000006 523.50000000000011
decision_type=2 2 2 2 2 2 2 2 2 2 2 2 2 2 2 2 2 2 2 2
left_child=1 2 3 -1 19 6 11 8 10 12 -7 16 -9 -8 -15 -4 -6 -11 -2 -3
right_child=18 4 15 -5 5 7 13 9 -10 17 -12 -13 -14 14 -16 -17 -18 -19 -20 -21
leaf_value=0.039034700262497793 0.12312226609445974 0.066691895364713635 -0.10583416051603876 -0.085282366398900994 0.10989021246173758 0.017039269811975653 -0.11690303823426818 0.030966030756332891 0.077413706050909623 0.01916832102000747 -0.11947232549140528 -0.02161670977656889 0.11575133543189442 -0.10014668148224026 -0.00047377025839359871 -0.021522000974907626 0.027088632831524462 -0.056883122755773279 0.038611734559506922 0.012177999903077536
leaf_weight=18.520607188344005 9.7662595212459582 15.570617139339449 15.53078915178776 11.952658161520956 11.055158644914629 11.256027922034262 13.158070325851439 11.18875463306904 17.780351310968399 13.719808772206308 21.519304051995277 19.671196207404137 19.414600566029549 13.041828140616419 15.858894273638724 11.071648880839346 12.94061106443405 11.414914950728415 8.5855546146631223 9.6479951292276365
leaf_count=90 58 81 90 58 52 49 65 48 81 66 97 87 98 66 77 56 60 61 50 50
internal_value=0 -0.00557545 -0.0381664 -0.00972671 0.00298729 -0.00264022 -0.0199667 0.0113335 -0.019834 0.0396032 -0.0725902 0.0261106 0.0847534 -0.0678057 -0.0454525 -0.0707443 0.0652364 -0.0153704 0.0835856 0.0458363
internal_weight=0 274.314 57.0757 30.4733 217.238 192.02 85.7258 106.294 50.5557 55.7381 32.7753 43.667 30.6034 42.0588 28.9007 26.6024 23.9958 25.1347 18.3518 25.2186
internal_count=1440 1332 294 148 1038 907 407 500 227 273 146 199 146 208 143 146 112 127 108 131
is_linear=0
shrinkage=0.1


Tree=13
num_leaves=21
num_cat=0
split_feature=6 3 5 9 7 5 9 16 3 9 3 16 5 14 3 3 6 14 5 9
split_gain=12.6723 10.4781 8.07749 7.68995 4.94009 6.15264 4.83109 6.4455 6.48881 9.36115 8.04767 7.85003 6.52507 13.4013 5.10266 4.14228 3.1626 2.42314 4.54453 1.20442
threshold=450.50000000000006 699.50000000000011 640.50000000000011 656.50000000000011 484.50000000000006 386.50000000000006 592.50000000000011 444.50000000000006 436.50000000000006 482.50000000000006 317.50000000000006 562.50000000000011 522.50000000000011 477.50000000000006 533.50000000000011 498.50000000000006 540.50000000000011 483.50000000000006 480.50000000000006 523.50000000000011
decision_type=2 2 2 2 2 2 2 2 2 2 2 2 2 2 2 2 2 2 2 2
left_child=3 2 6 4 5 -1 7 17 10 12 -9 -12 13 -10 19 -6 -3 18 -2 -11
right_child=1 16 -4 -5 15 -7 -8 8 9 14 11 -13 -14 -15 -16 -17 -18 -19 -20 -21
leaf_value=-0.086992943061125677 -0.040140345100836167 0.044515292134744526 -0.067646014161924159 0.040069189443049984 -0.13416069535623346 0.0030319150788508751 -0.052482012020041206 0.078920373079990627 -0.081106178771079104 0.088362497371272497 0.022199091327657027 -0.066118632622388526 0.070066417594919411 0.043440344117331026 0.029325063703330989 -0.041933982992104761 0.13061213616880102 -0.052633694077792684 0.031786316524038009 0.13609887860322809
leaf_weight=12.255670383572577 17.017027854919434 8.7833249568939227 14.308154344558714 10.061308845877646 11.358757086098196 19.948680311441422 11.557630762457846 9.6807879656553251 14.596505254507063 10.010931000113489 19.829022973775864 20.436583891510963 15.628883369266985 21.16874372959137 10.87884610891342 8.524974584579466 8.29646487534046 13.662986442446707 18.157314881682396 11.197019085288046
leaf_count=61 86 51 70 51 70 98 57 48 64 52 90 91 83 98 57 49 54 67 89 54
internal_value=0 0.0110401 0.00486108 -0.0399668 -0.0554265 -0.0312279 0.0102136 0.0141892 0.0255663 0.0426239 -0.00294398 -0.0226261 0.0161647 -0.00738955 0.0850043 -0.0946193 0.0863366 -0.0168938 -0.00301115 0.113566
internal_weight=0 225.21 208.13 62.1494 52.0881 32.2044 193.822 182.265 133.427 83.4809 49.9464 40.2656 51.3941 35.7652 32.0868 19.8837 17.0798 48.8373 35.1743 21.208
internal_count=1440 1111 1006 329 278 159 936 879 637 408 229 181 245 162 163 119 105 242 175 106
is_linear=0
shrinkage=0.1


Tree=14
num_leaves=22
num_cat=0
split_feature=6 2 8 9 2 10 10 18 0 16 8 6 8 19 2 16 10 8 15 18 8
split_gain=10.4658 6.87343 6.28107 7.34098 4.83608 4.84696 6.69804 10.0693 7.25777 6.93026 5.71113 5.70239 4.74088 12.7668 8.84746 6.31348 3.74144 4.06995 2.49132 2.24477 1.7828
threshold=450.50000000000006 630.00000000000011 520.50000000000011 553.50000000000011 597.50000000000011 574.50000000000011 476.50000000000006 499.50000000000006 489.50000000000006 451.50000000000006 451.50000000000006 518.50000000000011 462.50000000000006 548.50000000000011 472.50000000000006 463.50000000000006 411.50000000000006 515.50000000000011 415.50000000000006 508.50000000000006 480.50000000000006
decision_type=2 2 2 2 2 2 2 2 2 2 2 2 2 2 2 2 2 2 2 2 2
left_child=1 2 3 -1 5 6 7 9 10 -2 11 -8 13 -9 15 16 17 -14 -7 -12 -21
right_child=4 -3 -4 -5 -6 18 8 12 -10 -11 19 -13 14 -15 -16 -17 -18 -19 -20 20 -22
leaf_value=0.013942334177074831 -0.075784916315559336 0.025508882378384862 -0.11151458719689462 -0.079520056672246556 -0.048580719182266349 0.030527287534378906 0.055402637478500431 -0.073255783237200861 0.040292097701125365 0.023164873051656886 -0.09387392145828817 -0.04171544118158714 0.082334794596857927 0.077646783987877735 0.1258332918825272 -0.025389887956629633 0.11086614010864629 -0.01220370719964638 0.094295997718878671 -0.067571817157854694 -0.012235395669548859
leaf_weight=17.332022085785866 14.239489719271662 13.803263776004313 13.787867181003092 16.314323581755161 13.215526126325129 16.76549527049065 11.834445580840113 10.890435308218004 18.505993127822876 14.07407161593437 11.398681491613386 12.360342085361479 8.9366845488548332 11.555162206292151 14.544376879930494 12.151658423244951 9.7680465355515462 9.2850807532668096 9.6545504331588727 11.565467879176142 11.724116086959837
leaf_count=94 74 72 73 90 67 77 56 52 86 69 57 58 49 62 87 59 53 51 50 53 51
internal_value=0 -0.036597 -0.0546697 -0.0313754 0.0100879 0.0137932 0.00800775 0.024405 -0.0143341 -0.0265991 -0.0315022 0.00578812 0.0431277 0.00442999 0.0590111 0.0347995 0.0609305 0.0341618 0.05383 -0.0575119 -0.0397151
internal_weight=0 61.2375 47.4342 33.6463 222.47 209.254 182.834 105.445 77.389 28.3136 58.8831 24.1948 77.1314 22.4456 54.6858 40.1415 27.9898 18.2218 26.42 34.6883 23.2896
internal_count=1440 329 257 184 1111 1044 917 556 361 143 275 114 413 114 299 212 153 100 127 161 104
is_linear=0
shrinkage=0.1


Tree=15
num_leaves=22
num_cat=0
split_feature=6 11 2 11 12 14 12 10 18 11 2 14 11 8 15 11 14 2 2 10 8
split_gain=8.63142 6.0392 5.69645 7.89087 6.88129 4.63783 3.74919 5.27862 5.53817 5.79196 5.21572 4.2854 5.61276 6.46282 4.06081 3.97933 3.74125 3.27881 2.03542 1.13259 0.914009
threshold=450.50000000000006 561.50000000000011 630.00000000000011 536.50000000000011 488.50000000000006 479.50000000000006 600.50000000000011 460.50000000000006 493.50000000000006 519.50000000000011 383.50000000000006 470.50000000000006 441.50000000000006 520.50000000000011 443.50000000000006 469.50000000000006 480.50000000000006 489.50000000000006 498.50000000000006 512.50000000000011 501.50000000000006
decision_type=2 2 2 2 2 2 2 2 2 2 2 2 2 2 2 2 2 2 2 2 2
left_child=2 6 3 4 5 -1 7 8 -2 14 -9 17 -13 15 -10 -14 -16 -12 -3 -17 -11
right_child=1 18 -4 -5 -6 -7 -8 10 9 20 11 12 13 -15 16 19 -18 -19 -20 -21 -22
leaf_value=0.04842399203169262 -0.025319614263624182 0.080648313516219899 0.022842537136524156 -0.12662840058795563 -0.083545615834584225 -0.04295711723666059 -0.055966600465235231 -0.079015906953634113 0.061476865214702414 0.071586721997963315 0.071051799556170206 0.029687129266229347 -0.10851283891765882 0.02345859538077812 0.031537378017330399 -0.058959410432160131 -0.046697338732865239 0.0032319026086887791 0.027340828213653454 -0.015756707124338142 0.12196662284996443
leaf_weight=12.037579357624056 15.639562666416166 13.284699179232122 13.869325555860994 10.464886747300623 13.800011634826658 10.311544045805929 10.272867992520331 9.3784361779689771 16.489483654499054 7.2454284951090795 12.059166043996813 20.363571837544441 10.204362988471983 14.492731302976607 14.040734216570856 10.634416669607164 10.825059078633783 17.434854000806808 15.543010242283342 14.131674811244009 7.1595005244016647
leaf_count=63 81 80 72 59 88 47 53 46 82 49 56 99 51 69 62 50 50 86 79 65 53
internal_value=0 0.00925192 -0.0334194 -0.0501593 -0.0280222 0.00626214 0.0027928 0.00614444 0.0272681 0.0420179 -0.00773078 -0.000999627 -0.0144996 -0.0326908 0.0229965 -0.0559607 -0.00252128 0.0309613 0.0519066 -0.0343077 0.0966264
internal_weight=0 219.2 60.4833 46.614 36.1491 22.3491 190.372 180.099 71.3998 55.7602 108.699 99.3208 69.8268 49.4632 41.3553 34.9705 24.8658 29.494 28.8277 24.7661 14.4049
internal_count=1440 1111 329 257 198 110 952 899 377 296 522 476 334 235 194 166 112 142 159 115 102
is_linear=0
shrinkage=0.1


Tree=16
num_leaves=23
num_cat=0
split_feature=1 19 17 15 16 11 1 11 5 5 14 16 13 5 0 0 0 15 5 16 1 17
split_gain=6.01859 5.58369 8.7155 5.22271 7.29841 6.75479 5.54567 4.59185 15.6289 8.85074 5.89517 7.67563 4.4923 6.44418 5.74659 4.06253 7.22266 12.8945 3.38661 3.37678 4.07557 2.39174
threshold=528.50000000000011 272.50000000000006 414.50000000000006 600.50000000000011 414.50000000000006 552.50000000000011 484.50000000000006 462.50000000000006 478.50000000000006 388.50000000000006 479.50000000000006 516.50000000000011 535.50000000000011 414.50000000000006 482.50000000000006 471.50000000000006 487.50000000000006 474.50000000000006 484.50000000000006 540.50000000000011 439.50000000000006 465.50000000000006
decision_type=2 2 2 2 2 2 2 2 2 2 2 2 2 2 2 2 2 2 2 2 2 2
left_child=1 -1 -3 5 -5 7 -6 8 10 -9 11 -4 13 -2 -15 18 21 -18 -11 20 -10 -17
right_child=12 2 3 4 6 -7 -8 9 19 15 -12 -13 -14 14 -16 16 17 -19 -20 -21 -22 -23
leaf_value=-0.077259244084520728 0.12594820153288197 0.080930641788848401 0.010474440437763247 0.021153021538037994 -0.14024294448934674 -0.08047003518947321 -0.032996251700799964 -0.064845555712742781 -0.084240439088577715 0.020404538837512746 -0.016241454144139821 0.12316198651549377 -0.023529996379552033 0.086565168972342635 -0.01563081477126008 0.012737034041858653 0.12684291277658277 -0.011046526968227895 0.089088936727911405 -0.10123677748609283 0.0064613947649421778 -0.050569431266134147
leaf_weight=10.563322320580481 8.837907515466215 11.761554837226866 14.569423228502275 10.432197511196138 8.9661875963211077 10.139538735151289 10.430522866547106 11.196686938405035 9.6946849972009677 12.529221415519716 19.456678956747055 10.33035162091255 9.9713887721300107 9.1960839629173297 13.698480121791361 9.8467104285955447 11.944263383746149 15.690767072141169 16.810522146522999 14.622175171971319 10.130907788872717 15.149650290608404
leaf_count=47 44 66 73 58 55 53 52 56 50 63 90 52 51 53 87 49 63 82 82 87 50 77
internal_value=0 -0.00621294 -0.0028581 -0.00750792 -0.0462954 -0.00115475 -0.0825714 0.00352171 -0.0142457 0.0185499 0.0249999 0.0572259 0.0350192 0.0534172 0.0254184 0.0299411 0.0133195 0.0485513 0.059758 -0.06478 -0.0378917 -0.0256314
internal_weight=0 234.265 223.702 211.94 29.8289 182.112 19.3967 171.972 78.8042 93.1678 44.3565 24.8998 41.7039 31.7325 22.8946 81.9711 52.6314 27.635 29.3397 34.4478 19.8256 24.9964
internal_count=1440 1205 1158 1092 165 927 107 874 402 472 215 125 235 184 140 416 271 145 145 187 100 126
is_linear=0
shrinkage=0.1


Tree=17
num_leaves=22
num_cat=0
split_feature=3 6 10 3 16 16 9 11 9 16 18 3 18 3 11 6 16 16 6 18 11
split_gain=8.21281 4.46338 4.51663 4.54549 9.02437 5.0012 4.50726 8.00664 6.41247 4.01998 5.17201 4.18825 7.92837 6.23957 3.99181 3.81168 2.81359 2.75844 2.32556 1.95222 1.05924
threshold=699.50000000000011 450.50000000000006 633.00000000000011 436.50000000000006 563.50000000000011 561.50000000000011 627.50000000000011 533.50000000000011 550.50000000000011 444.50000000000006 565.50000000000011 551.50000000000011 499.50000000000006 479.50000000000006 443.50000000000006 540.50000000000011 431.50000000000006 503.50000000000006 482.50000000000006 542.50000000000011 536.50000000000011
decision_type=2 2 2 2 2 2 2 2 2 2 2 2 2 2 2 2 2 2 2 2 2
left_child=1 6 3 5 9 -3 7 8 -1 16 11 13 -13 -11 -7 -2 18 -15 -5 -20 -6
right_child=15 2 -4 4 20 14 -8 -9 -10 10 -12 12 -14 17 -16 -17 -18 -19 19 -21 -22
leaf_value=0.023138785385646971 0.025915609061150487 0.011056805045815757 0.067565012750693584 0.028847438878835088 0.047245079710647009 -0.00053865868884168304 0.019391012388666664 -0.12268456309179798 -0.065110773761733534 -0.0079111476342419648 -0.040337425265208421 -0.073299700333228066 0.047441325154354119 0.043656204609934288 -0.078646823014793227 0.1251997218330361 -0.070244684118997536 0.11415464365817317 -0.053780743451661422 -7.9756690481289617e-05 0.094007950515230268
leaf_weight=16.430057190358639 8.6328250393271428 20.930841937661171 10.226332679390906 10.418539069592951 9.1923733949661273 9.7742405533790606 14.530731067061422 10.146437786519526 16.50532840937376 12.49568412452936 14.267077915370463 9.9291275292634982 12.024629369378088 10.648752346634867 19.792022354900837 7.0041846781969062 10.329088404774664 11.59181162714958 13.448240965604784 13.631485022604464 10.239614911377428
leaf_count=91 54 99 52 56 48 48 78 61 96 59 70 50 66 51 93 54 56 60 67 68 63
internal_value=0 -0.00426045 0.00283764 -0.000669918 0.00871093 -0.0263464 -0.0287706 -0.0450147 -0.0210868 -0.001624 0.0134793 0.0270233 -0.00716678 0.0486319 -0.0528252 0.0703873 -0.0240314 0.0804001 -0.0113017 -0.0267486 0.0718866
internal_weight=0 256.552 198.94 188.714 138.216 50.4971 57.6126 43.0818 32.9354 118.784 70.9571 56.69 21.9538 34.7362 29.5663 15.637 47.8274 22.2406 37.4983 27.0797 19.432
internal_count=1440 1332 1006 954 714 240 326 248 187 603 356 286 116 170 141 108 247 111 191 135 111
is_linear=0
shrinkage=0.1


Tree=18
num_leaves=21
num_cat=0
split_feature=3 5 1 13 7 18 3 4 13 13 18 2 3 18 1 16 16 7 3 16
split_gain=6.95019 4.272 6.52119 5.1555 5.06746 3.08952 2.8385 4.12327 10.7605 5.56277 10.2462 7.56037 4.12096 14.9409 11.5499 7.16862 3.95834 2.55029 2.54195 2.53806
threshold=699.50000000000011 638.50000000000011 489.50000000000006 361.50000000000006 512.50000000000011 540.50000000000011 288.50000000000006 468.50000000000006 508.50000000000006 554.50000000000011 505.50000000000006 521.50000000000011 551.50000000000011 498.50000000000006 464.50000000000006 512.50000000000011 536.50000000000011 462.50000000000006 456.50000000000006 417.50000000000006
decision_type=2 2 2 2 2 2 2 2 2 2 2 2 2 2 2 2 2 2 2 2
left_child=1 3 -3 4 -1 -2 -5 8 -8 12 11 19 14 -14 15 -9 -16 -15 -18 -11
right_child=5 2 -4 6 -6 -7 7 9 -10 10 -12 -13 13 17 16 -17 18 -19 -20 -21
leaf_value=-0.0036031437183775914 0.020011868375430203 -0.11195650600050125 0.0059476311202193832 0.04155844338178661 0.098208912992449826 0.1106533995072204 -0.10435588387831488 0.026694194631105908 0.016713314190231556 -0.0023514150644074784 -0.11551269172344288 -0.055903791668587804 -0.088193012931381445 0.062037540323161271 0.10451290158594878 -0.072110829992486011 0.063271468028306813 0.0038800835991768495 0.0067866295484046756 0.063738670827877222
leaf_weight=9.4754724726080912 7.4007261693477613 8.8874673247337359 9.9349888265132886 12.508064493536947 10.099116660654543 7.6449177786707878 14.29146756231785 14.321260653436186 15.095320940017698 11.455993071198465 10.857262894511221 17.46091540902853 16.996115028858185 13.098625570535662 12.491358146071432 15.070095643401144 17.962000124156475 17.768276780843735 14.31800205260515 11.791678309440611
leaf_count=51 46 52 50 70 66 62 76 70 77 61 54 92 96 66 61 74 82 92 77 65
internal_value=0 -0.00388294 -0.0497236 -0.000212262 0.0489247 0.0660682 -0.00467582 -0.0075249 -0.0421654 -0.00166071 -0.0291983 -0.00617765 0.00997617 -0.0128991 0.0247394 -0.023967 0.056714 0.0285597 0.0382173 0.0311708
internal_weight=0 253.883 18.8225 235.061 19.5746 15.0456 215.486 202.978 29.3868 173.592 51.5658 40.7086 122.026 47.863 74.1627 29.3914 44.7714 30.8669 32.28 23.2477
internal_count=1440 1332 102 1230 117 108 1113 1043 153 890 272 218 618 254 364 144 220 158 159 126
is_linear=0
shrinkage=0.1


Tree=19
num_leaves=23
num_cat=0
split_feature=3 5 2 2 3 13 5 16 15 16 5 0 10 3 0 5 3 15 13 2 13 2
split_gain=5.88217 3.55075 4.48714 6.2239 5.66317 6.85546 5.00704 4.55922 2.77058 2.67786 2.74196 4.90959 4.02054 2.62061 2.42639 11.3909 9.49295 8.00408 4.00279 1.92423 1.46295 1.28721
threshold=699.50000000000011 638.50000000000011 586.50000000000011 630.00000000000011 332.50000000000006 361.50000000000006 566.50000000000011 576.50000000000011 578.50000000000011 552.50000000000011 389.50000000000006 480.50000000000006 574.50000000000011 388.50000000000006 476.50000000000006 480.50000000000006 509.50000000000006 543.50000000000011 443.50000000000006 424.50000000000006 500.50000000000006 534.50000000000011
decision_type=2 2 2 2 2 2 2 2 2 2 2 2 2 2 2 2 2 2 2 2 2 2
left_child=1 2 4 13 -1 6 -6 9 -2 10 11 -7 14 -4 15 -12 -17 18 -16 -20 -19 -3
right_child=8 21 3 -5 5 7 -8 -9 -10 -11 12 -13 -14 -15 17 16 -18 20 19 -21 -22 -23
leaf_value=0.070157728695422569 0.10092593156544261 -0.074867127308442569 -0.10440328585910948 0.020269895564072493 0.01088696846473414 -0.085498455714795932 0.11976516590433746 -0.05713720778581604 0.012865590953610527 0.042082849106678699 -0.060298883215017841 0.0026096441081319825 0.050140736578104084 -0.035189111973420409 -0.033783949371383556 -0.013833457979874626 0.10399341554342374 -0.10276123802280515 0.065099233358709638 0.0067130851325253376 -0.044518717005552773 -0.021777646502783705
leaf_weight=12.75667095184326 8.077291823923586 8.3452704623341578 9.6973106041550654 13.725083917379377 9.0297421514987963 10.606712073087694 7.935838170349597 15.190156310796736 6.4066462740302077 13.946066737174986 13.906492210924624 15.664162963628767 15.536646150052546 12.54964082688093 14.322026602923868 12.486907891929151 15.11412490159273 8.9869580343365687 10.505305819213392 12.199711859226225 8.2917790189385396 10.087499164044855
leaf_count=67 66 46 60 71 50 58 55 74 42 71 69 76 82 69 71 65 80 52 50 56 54 56
internal_value=0 -0.00356662 -0.000216563 -0.0326875 0.00572832 0.0012547 0.061816 -0.0049067 0.0619744 0.000327882 -0.00390344 -0.0329635 0.00295272 -0.0653591 -0.00469907 0.0135032 0.0506877 -0.0186116 0.00761418 0.0337276 -0.0748116 -0.0458134
internal_weight=0 250.884 232.451 35.972 196.479 183.723 16.9656 166.757 14.4839 151.567 137.621 26.2709 111.35 22.247 95.8133 41.5075 27.601 54.3058 37.027 22.705 17.2787 18.4328
internal_count=1440 1332 1230 200 1030 963 105 858 108 784 713 134 579 129 497 214 145 283 177 106 106 102
is_linear=0
shrinkage=0.1


Tree=20
num_leaves=23
num_cat=0
split_feature=3 8 15 8 3 8 13 13 19 3 13 2 0 3 2 15 3 19 19 2 13 2
split_gain=4.96575 3.46664 3.38193 9.52944 7.8017 17.6652 9.49326 7.97064 6.20047 6.10384 4.07638 7.41483 5.48105 6.23828 5.10956 3.97082 3.75746 5.95748 3.63737 3.33022 7.19876 2.43959
threshold=699.50000000000011 533.50000000000011 470.50000000000006 516.50000000000011 436.50000000000006 484.50000000000006 452.50000000000006 542.50000000000011 319.00000000000006 551.50000000000011 554.50000000000011 446.50000000000006 477.50000000000006 526.50000000000011 566.50000000000011 533.50000000000011 451.50000000000006 654.50000000000011 422.50000000000006 511.50000000000006 465.50000000000006 490.50000000000006
decision_type=2 2 2 2 2 2 2 2 2 2 2 2 2 2 2 2 2 2 2 2 2 2
left_child=2 -2 4 10 7 -6 8 19 -7 -5 12 -12 15 -14 16 -4 -13 -18 -10 -1 -21 -11
right_child=1 -3 3 9 5 6 -8 -9 18 21 11 14 13 -15 -16 -17 17 -19 -20 20 -22 -23
leaf_value=-0.010311517250400856 0.10113793335964515 0.00042963432297876198 0.0035576838976919809 0.0071838479780760639 -0.050406182198206285 -0.030430897388274578 0.13472678659106785 0.039822883515289315 0.10541690571278051 -0.060917401353726058 -0.1025508163191097 0.074041864343618508 -0.072588196993770407 0.0305405858744459 -0.062350369313912829 0.084389182189799974 -0.064088955777240803 0.048643201403862336 0.015984578398045537 -0.0048142567743054724 -0.11831899223628134 -0.12731938482609415
leaf_weight=19.698025397956371 7.9880005158483964 5.9745553135871887 9.9075578972697276 8.999023765325548 17.517896182835102 9.5536612719297427 14.463502302765844 17.55962210893631 11.027303472161295 12.501110300421717 8.8558664843440038 9.0464266166090983 10.214308962225916 13.776663355529307 9.9664253741502744 15.720704451203344 8.851004362106325 9.9662115201354009 7.7396997883915892 10.264187671244146 12.263952270150183 9.9262453317642194
leaf_count=89 67 41 55 52 86 46 70 91 73 66 49 54 63 69 53 87 51 51 48 51 64 64
internal_value=0 0.058045 -0.00324818 -0.0145752 0.00879981 0.034179 0.0688122 -0.0167986 0.0351494 -0.06239 0.00102776 -0.0201824 0.0209841 -0.0133671 -0.000900321 0.0531408 0.0210795 -0.00438233 0.0685341 -0.0403444 -0.0666044 -0.0903066
internal_weight=0 13.9626 247.819 127.732 120.088 60.3021 42.7842 59.7858 28.3207 31.4264 96.3052 46.6859 49.6192 23.991 37.8301 25.6283 27.8636 18.8172 18.767 42.2262 22.5281 22.4274
internal_count=1440 108 1332 714 618 323 237 295 167 182 532 258 274 132 209 142 156 102 121 204 115 130
is_linear=0
shrinkage=0.1


Tree=21
num_leaves=22
num_cat=0
split_feature=9 16 4 14 17 17 7 4 7 9 16 7 10 0 7 19 10 12 0 16 19
split_gain=4.25214 5.62842 5.55215 4.54953 5.44976 3.61018 3.71781 5.19134 3.5843 3.19499 2.96979 3.5666 3.56136 3.00652 5.70368 4.92514 3.17187 4.25736 3.76897 2.91324 2.017
threshold=555.50000000000011 565.50000000000011 468.50000000000006 482.50000000000006 517.50000000000011 421.50000000000006 536.50000000000011 481.50000000000006 511.50000000000006 295.00000000000006 576.50000000000011 416.50000000000006 574.50000000000011 471.50000000000006 480.50000000000006 600.50000000000011 473.50000000000006 490.50000000000006 488.50000000000006 446.50000000000006 539.50000000000011
decision_type=2 2 2 2 2 2 2 2 2 2 2 2 2 2 2 2 2 2 2 2 2
left_child=5 3 -3 4 -2 8 9 -8 -1 -7 11 -11 13 14 -13 16 17 -15 -18 -19 -14
right_child=1 2 -4 -5 -6 6 7 -9 -10 10 -12 12 20 15 -16 -17 18 19 -20 -21 -22
leaf_value=0.0003957826838315321 0.0326097767307411 -0.033997384668270993 0.051386259903273793 -0.11270596966538522 -0.075896797655818693 -0.049880590824759076 -0.092961731622377322 0.014980109954242453 0.085271265700662291 -0.025085638064750049 -0.027547367022741416 -0.015863147027156962 0.093190171405548625 0.097505334917481756 0.077078098797784003 -0.050028799787465397 -0.039064867888389865 -0.028761777225284932 0.037722402540528201 0.050089722853818401 0.027766154166010887
leaf_weight=9.0259958431124705 8.3663193285465294 16.225944392383102 14.351865284144877 9.392286539077757 10.361252427101133 9.2088807672262174 9.2223351225256938 8.6201239898800832 11.087431758642195 18.308640867471695 17.825869657099247 10.582317605614664 9.922897547483446 8.8948774114251155 17.55923293530941 13.818173818290232 15.745353952050211 8.7281989604234713 10.760551892220972 10.116012953221796 8.9739349335432035
leaf_count=50 53 98 75 58 56 50 51 53 80 96 86 52 50 57 95 91 78 50 55 54 52
internal_value=0 -0.0236173 0.0060779 -0.0559081 -0.0274228 0.00702149 0.00249069 -0.0408124 0.047183 0.00730626 0.0107884 0.0159107 0.0224318 0.014636 0.0421286 0.0032688 0.0168456 0.0404832 -0.00789169 0.0135675 0.0621209
internal_weight=0 58.6977 30.5778 28.1199 18.7276 198.401 178.287 17.8425 20.1134 160.445 151.236 133.41 115.102 96.2047 28.1416 68.0632 54.245 27.7391 26.5059 18.8442 18.8968
internal_count=1440 340 173 167 109 1100 970 104 130 866 816 730 634 532 147 385 294 161 133 104 102
is_linear=0
shrinkage=0.1


Tree=22
num_leaves=21
num_cat=0
split_feature=6 8 7 8 8 4 17 7 12 12 7 17 12 4 6 4 9 8 12 7
split_gain=3.88752 4.15121 5.71245 4.25943 3.4897 4.81794 4.29579 3.47243 6.15099 3.35137 2.83231 2.5085 6.23777 5.01502 5.6524 4.42333 2.47556 1.82589 1.52927 0.667848
threshold=450.50000000000006 495.50000000000006 488.50000000000006 439.50000000000006 560.50000000000011 495.50000000000006 414.50000000000006 536.50000000000011 553.50000000000011 401.50000000000006 422.50000000000006 485.50000000000006 482.50000000000006 475.50000000000006 501.50000000000006 473.50000000000006 454.50000000000006 463.50000000000006 593.50000000000011 527.50000000000011
decision_type=2 2 2 2 2 2 2 2 2 2 2 2 2 2 2 2 2 2 2 2
left_child=1 3 -3 -1 5 6 -2 8 9 -8 -11 12 15 -13 -15 -12 -14 -5 -9 -10
right_child=4 2 -4 17 -6 -7 7 18 19 10 11 13 16 14 -16 -17 -18 -19 -20 -21
leaf_value=-0.053417183641328629 0.062867506824029806 -0.016912549951016171 -0.11876501332572853 0.050846176674815148 -0.052256116490218697 0.070334854148104337 0.049067752868773483 -0.067202003141763375 0.077177098231519747 -0.050141484154501176 -0.035396370694968683 0.056991830838263639 -0.087102603764274145 0.039976037025736384 -0.05323771074543257 0.04545854959310125 -0.025513455472952702 -0.0085349546876189609 -0.010900659938115826 0.040479000553282657
leaf_weight=10.0344495177269 12.084812968969343 14.55928683280945 8.856044724583624 12.210439980030062 9.6223114132881147 12.173143126070498 11.770956158637999 9.5501723885536212 9.5373675152659434 13.414600789546965 10.488759800791742 18.150571070611477 10.668777756392958 11.814662903547289 14.476354345679281 19.063482128083706 16.807976603507996 8.9911096766591054 9.749611668288706 10.330089896917341
leaf_count=58 81 73 76 73 54 98 57 55 57 69 49 94 56 59 79 95 99 49 52 57
internal_value=0 -0.0236027 -0.0554347 0.000259426 0.00649706 0.00947127 0.00530675 0.00111186 0.00636376 -0.00175102 -0.00695783 -0.00124887 -0.0151287 0.0165622 -0.0113493 0.0167613 -0.0494275 0.0256639 -0.0387604 0.0580959
internal_weight=0 54.6513 23.4153 31.236 199.704 190.081 177.908 165.823 146.524 126.656 114.885 101.471 57.029 44.4416 26.291 29.5522 27.4768 21.2015 19.2998 19.8675
internal_count=1440 329 149 180 1111 1057 959 878 771 657 600 531 299 232 138 144 155 122 107 114
is_linear=0
shrinkage=0.1


Tree=23
num_leaves=22
num_cat=0
split_feature=3 19 1 19 13 19 9 9 3 4 7 7 3 1 0 3 0 13 1 7 15
split_gain=3.69036 3.39047 2.6671 3.13265 3.94525 6.77214 2.73006 4.24395 4.69233 5.35748 3.07861 5.08098 5.55972 7.48828 3.49983 4.12156 8.97 3.56957 3.10965 2.77719 3.10857
threshold=699.50000000000011 611.50000000000011 549.50000000000011 265.50000000000006 398.50000000000006 435.50000000000006 654.50000000000011 600.50000000000011 332.50000000000006 468.50000000000006 536.50000000000011 516.50000000000011 551.50000000000011 465.50000000000006 488.50000000000006 456.50000000000006 471.50000000000006 532.50000000000011 470.50000000000006 467.50000000000006 499.50000000000006
decision_type=2 2 2 2 2 2 2 2 2 2 2 2 2 2 2 2 2 2 2 2 2
left_child=2 -2 3 -1 5 -5 7 8 -6 -10 11 12 14 -14 15 16 -11 -17 -13 20 -15
right_child=1 -3 -4 4 6 -7 -8 -9 9 10 -12 18 13 19 -16 17 -18 -19 -20 -21 -22
leaf_value=-0.06047213731085023 0.095556155939282725 -0.0084020493047143683 0.0452424131865354 0.079637926122883507 0.055899771888437061 -0.019624005398376755 0.045864412538293139 -0.064618407795259458 -0.067276763344555277 0.077894354116344988 -0.045637373344629521 0.0060605073163720151 0.036179877929714964 -0.044641694916559352 0.058792262317363966 0.015533227490180808 -0.034449920643985117 -0.06037669800319119 0.088235807981866768 -0.024859334533559516 -0.12746104974298461
leaf_weight=9.7841119617223722 7.5090391747653467 5.388446144759655 11.025948263704775 14.541542489081623 11.378592699766157 13.033791340887545 9.0473340526223165 13.382531162351368 15.077880226075647 15.239071108400823 16.175934217870235 8.7800230532884616 10.458115145564078 8.9151106849312836 12.115226827561854 10.398797303438188 13.318384453654287 15.322440132498739 9.6842202097177488 12.084559068083761 9.2182479649782163
leaf_count=45 71 37 65 95 68 76 48 79 83 79 99 52 55 50 60 48 65 82 60 69 54
internal_value=0 0.0521234 -0.0027922 -0.00511557 -0.00263306 0.0327207 -0.007748 -0.0104197 -0.00610665 -0.0106066 -0.00457698 0.000713932 -0.00764065 -0.0367537 0.0101954 -0.000651658 0.0255002 -0.0296872 0.0491602 -0.0619952 -0.0867436
internal_weight=0 12.8975 238.982 227.956 218.172 27.5753 190.596 181.549 168.167 156.788 141.71 125.534 107.07 40.676 66.3939 54.2787 28.5575 25.7212 18.4642 30.2179 18.1334
internal_count=1440 108 1332 1267 1222 171 1051 1003 924 856 773 674 562 228 334 274 144 130 112 173 104
is_linear=0
shrinkage=0.1


Tree=24
num_leaves=21
num_cat=0
split_feature=1 19 13 19 2 7 1 1 14 2 13 2 14 14 14 3 16 7 19 16
split_gain=3.27664 3.71036 5.04013 5.00769 3.529 3.16926 17.1106 15.4303 11.8243 6.25106 6.16662 4.37379 3.90847 4.91921 3.21867 7.16586 3.13422 2.54989 1.38357 3.73864
threshold=528.50000000000011 279.50000000000006 398.50000000000006 435.50000000000006 491.50000000000006 465.50000000000006 470.50000000000006 495.50000000000006 478.50000000000006 460.50000000000006 616.50000000000011 524.50000000000011 473.50000000000006 466.50000000000006 482.50000000000006 462.50000000000006 563.50000000000011 517.50000000000011 516.50000000000011 477.50000000000006
decision_type=2 2 2 2 2 2 2 2 2 2 2 2 2 2 2 2 2 2 2 2
left_child=1 -1 3 -3 -2 7 9 10 -9 -7 11 14 13 -8 15 -4 -6 -14 -11 -20
right_child=4 2 5 -5 16 6 12 8 -10 18 -12 -13 17 -15 -16 -17 -18 -19 19 -21
leaf_value=-0.058350912881847385 0.072345097927780225 0.087755273501700148 0.063284674408688776 -0.0035439548151074522 -0.02875364487227083 -0.018493257594484284 -0.008521775470741318 -0.10997044957416346 0.026997011946140872 -0.12499204347676807 0.10332751424852665 -0.033599532958989452 -0.036128768379794653 0.080249677199411562 0.079027432736927181 -0.04821103881890311 0.042778256753333924 0.030173593080265845 -0.12779135535982528 -0.02450427484934399
leaf_weight=12.167679920792578 11.92363742366433 11.852615311741831 13.478316500782968 12.182416334748266 12.59988944232464 15.600123815238474 10.260609656572344 16.181777358055118 10.324240278452633 11.30390425398946 10.878039106726645 11.573835499584673 14.813165958970787 15.939874172210692 12.117360472679136 10.071884244680403 11.920266978442667 9.5335783548653108 7.2673535197973234 6.7682561799883842
leaf_count=56 90 77 61 75 78 77 48 90 67 71 65 65 88 87 61 52 67 54 60 51
internal_value=0 -0.00473565 -0.00147618 0.0414793 0.0277208 -0.00733855 -0.0202405 0.00660948 -0.0566209 -0.0682945 0.0354464 0.0198157 0.0186798 0.0454851 0.0371486 0.0156005 0.00602099 -0.0101664 -0.0989543 -0.0779842
internal_weight=0 212.315 200.147 24.035 36.4438 176.112 91.4869 84.6255 26.506 40.9396 58.1194 47.2414 50.5472 26.2005 35.6676 23.5502 24.5202 24.3467 25.3395 14.0356
internal_count=1440 1205 1149 152 235 997 536 461 157 259 304 239 277 135 174 113 145 142 182 111
is_linear=0
shrinkage=0.1


Tree=25
num_leaves=22
num_cat=0
split_feature=3 19 3 19 15 14 3 11 14 3 1 3 15 19 19 11 16 14 3 3 2
split_gain=2.88594 3.40517 2.2285 4.26215 2.3978 10.6835 16.2164 7.71029 7.6852 7.45356 5.63268 4.60789 11.0307 7.4025 5.97093 4.43085 3.8549 3.57171 2.22659 2.53416 1.32568
threshold=699.50000000000011 615.50000000000011 277.50000000000006 279.50000000000006 470.50000000000006 477.50000000000006 436.50000000000006 513.50000000000011 482.50000000000006 553.50000000000011 456.50000000000006 528.50000000000011 600.50000000000011 668.50000000000011 544.50000000000011 468.50000000000006 420.50000000000006 470.50000000000006 536.50000000000011 586.50000000000011 492.50000000000006
decision_type=2 2 2 2 2 2 2 2 2 2 2 2 2 2 2 2 2 2 2 2 2
left_child=2 -2 -1 -4 5 7 -7 10 11 -10 -5 12 14 16 -6 -11 -13 -16 20 -20 -8
right_child=1 -3 3 4 8 6 18 -9 9 15 -12 13 -14 -15 17 -17 -18 -19 19 -21 -22
leaf_value=0.041387721094113532 0.092195890121293284 -0.015123366466653687 -0.064097275962391925 -0.032917741950403666 -0.035221878506219627 -0.038345187092656198 0.075377064337803501 -0.07857253422908228 0.01655516158486451 -0.026024575971303743 0.064177952447662265 -0.034780064106935647 -0.095105604471668034 0.11282105820489392 0.079483377265054903 -0.11571895126984547 0.044353092487791471 -0.0015941748529928737 0.014327817993038817 0.094920786742795471 0.13032181027276343
leaf_weight=11.02972576022148 7.0964221023023111 5.0679689832031727 11.443913012742994 13.780338309705259 15.06427478790283 16.836738027632236 7.8405931815505054 17.016110897064209 11.281773608177899 8.7794383987784403 10.54789027571678 11.894161246716978 12.464175183326004 8.8434611558914167 13.221749484539034 14.77817729860544 12.760095879435537 9.2240203619003278 7.8430667072534543 7.7636471018195152 9.981488246470688
leaf_count=67 73 35 55 71 94 92 42 85 69 49 50 68 76 45 75 96 77 55 50 54 62
internal_value=0 0.0474842 -0.00248209 -0.00466795 -0.00142814 0.0107175 0.0416887 -0.0269366 -0.0108327 -0.0502829 0.00917964 0.00563301 -0.013603 0.0343307 0.0134794 -0.0822917 0.00617622 0.0461648 0.0819985 0.0544192 0.10615
internal_weight=0 12.1644 232.395 221.365 209.921 91.6099 50.2655 41.3443 118.311 34.8394 24.3282 83.4719 49.9742 33.4977 37.51 23.5576 24.6543 22.4458 33.4288 15.6067 17.8221
internal_count=1440 108 1332 1265 1210 506 300 206 704 214 121 490 300 190 224 145 145 130 208 104 104
is_linear=0
shrinkage=0.1


Tree=26
num_leaves=22
num_cat=0
split_feature=8 17 6 5 8 5 15 2 12 12 8 7 2 0 2 0 7 6 5 6 12
split_gain=2.89834 3.90903 2.05538 2.88996 5.50628 3.98256 2.43123 2.14104 2.50237 2.5025 2.59338 5.19621 4.03097 3.52941 2.18341 3.49004 3.13773 1.93045 1.78847 1.55541 1.07657
threshold=559.50000000000011 414.50000000000006 450.50000000000006 516.50000000000011 493.50000000000006 386.50000000000006 641.50000000000011 595.00000000000011 583.50000000000011 553.50000000000011 511.50000000000006 435.50000000000006 370.50000000000006 483.50000000000006 411.50000000000006 471.50000000000006 446.50000000000006 504.50000000000006 511.50000000000006 524.50000000000011 451.50000000000006
decision_type=2 2 2 2 2 2 2 2 2 2 2 2 2 2 2 2 2 2 2 2 2
left_child=1 -1 3 5 -5 -3 7 8 9 10 12 -12 -4 14 -14 17 -17 -16 -13 -11 -7
right_child=-2 2 6 4 -6 20 -8 -9 -10 19 11 18 13 -15 15 16 -18 -19 -20 -21 -22
leaf_value=0.059301446874732738 -0.045735232119554423 -0.051469931047701339 -0.063483616194438527 -0.0091349393535809387 -0.11676509017280548 0.054445008984778109 0.055598132765904897 -0.042186022415663466 -0.041394948117341179 0.012294805994188506 0.076049324547226044 0.018714215556233215 0.054364286796167088 -0.052788850346331379 0.058889042683589188 0.012621764392074138 -0.06090897812287286 0.0057031386546992887 -0.040166583570103297 0.06686157294150695 0.005389363663170145
leaf_weight=11.559526372700928 13.095027990639208 8.9361272826790827 10.850228436291216 13.693677172064783 7.2803547121584407 9.0787794440984744 8.925097890198229 10.275785900652407 10.784539692103861 10.111580148339273 12.951859574764965 13.417318873107435 9.7199221923947317 10.143036991357802 11.009067013859751 11.025051146745684 12.25304254889488 17.953760847449303 8.3808451220393163 10.806839007884262 8.8196692466735822
leaf_count=88 77 56 68 79 72 54 54 59 62 61 78 75 55 59 66 53 66 87 57 66 48
internal_value=0 0.00264296 -0.000383355 -0.0186849 -0.0464947 0.00305147 0.00480602 0.00196711 0.00500384 0.00861356 0.00294936 0.0258833 -0.00665781 0.00189336 0.0108449 0.00274768 -0.0260831 0.0259196 -0.00392397 0.040485 0.0302723
internal_weight=0 227.976 216.417 47.8086 20.974 26.8346 168.608 159.683 149.407 138.623 117.704 34.75 82.9541 72.1039 61.9608 52.2409 23.2781 28.9628 21.7982 20.9184 17.8984
internal_count=1440 1363 1275 309 151 158 966 912 853 791 664 210 454 386 327 272 119 153 132 127 102
is_linear=0
shrinkage=0.1


Tree=27
num_leaves=23
num_cat=0
split_feature=3 14 10 6 2 2 19 13 10 2 3 17 2 13 6 6 3 19 3 17 2 3
split_gain=2.46209 3.39217 2.71885 3.32319 2.55349 3.34665 2.49905 4.69764 10.7912 3.02374 8.53393 3.02143 3.06603 4.00259 8.16358 2.53358 2.17895 1.72562 3.06889 1.507 1.04561 0.879068
threshold=699.50000000000011 486.50000000000006 643.50000000000011 435.50000000000006 597.50000000000011 620.50000000000011 279.50000000000006 398.50000000000006 377.50000000000006 534.50000000000011 438.50000000000006 451.50000000000006 491.50000000000006 552.50000000000011 501.50000000000006 514.50000000000011 344.50000000000006 557.50000000000011 468.50000000000006 496.50000000000006 597.50000000000011 533.50000000000011
decision_type=2 2 2 2 2 2 2 2 2 2 2 2 2 2 2 2 2 2 2 2 2 2
left_child=2 -2 3 20 6 -6 -5 8 -8 11 -11 -9 13 15 -15 -13 -4 18 -17 -14 -1 -10
right_child=1 -3 16 4 5 -7 7 9 21 10 -12 12 19 14 -16 17 -18 -19 -20 -21 -22 -23
leaf_value=-0.064101844865825652 0.096673792946547543 -0.011471137449099091 0.067902526038610786 -0.042891065905399206 -0.0884521975867293 0.00040158107177610511 -0.047515569812403402 -0.05468576317787658 0.1188170209812684 -0.036038103353712603 0.078869519675022898 -0.023192249771341121 -0.053081818826661714 0.031740601305125585 -0.086830259312149605 0.063571694328458647 -0.00028471792920683185 0.072258850357236254 -0.0020531558042048482 -0.0034161298002220531 -0.017984410894547314 0.070921449675373366
leaf_weight=11.430065277963879 6.058436665683983 5.5643499195575714 9.478312976658346 11.444053679704664 7.4809582568705109 9.7813887968659383 7.9624122679233578 12.738333642482756 8.0218191929161531 11.444294899702074 14.849777985364197 9.2559075504541379 14.989069122821094 11.8152336999774 11.418108165264128 11.592840790748598 9.2696840316057187 9.4296212829649431 18.494003392755985 10.312815651297567 8.6268976554274541 7.3369457572698584
leaf_count=75 63 45 56 55 53 58 55 69 55 71 90 53 83 73 66 53 54 56 97 60 49 51
internal_value=0 0.0449 -0.00228806 -0.00556915 -0.00144881 -0.0381049 0.00224932 0.00548485 0.0469589 -0.00160935 0.0288569 -0.00888886 -0.00289369 0.00762855 -0.0265315 0.0239011 0.0341883 0.0349317 0.0232329 -0.0328385 -0.0442658 0.0959371
internal_weight=0 11.6228 227.173 208.425 188.368 17.2623 171.105 159.661 23.3212 136.34 26.2941 110.046 97.3076 72.0057 23.2333 48.7724 18.748 39.5165 30.0868 25.3019 20.057 15.3588
internal_count=1440 108 1332 1222 1098 111 987 932 161 771 161 610 541 398 139 259 110 206 150 143 124 106
is_linear=0
shrinkage=0.1


Tree=28
num_leaves=21
num_cat=0
split_feature=9 9 10 4 17 11 15 17 15 12 8 15 17 9 9 4 19 4 17 11
split_gain=2.44384 3.54422 2.68263 4.0036 3.43448 10.0666 3.85179 4.4317 4.47083 3.27914 8.94338 6.8612 3.02592 5.78375 4.45982 2.07387 3.6659 5.83636 10.1721 2.56746
threshold=543.50000000000011 656.50000000000011 626.50000000000011 478.50000000000006 440.50000000000006 516.50000000000011 643.50000000000011 514.50000000000011 590.50000000000011 553.50000000000011 493.50000000000006 491.50000000000006 470.50000000000006 460.50000000000006 463.50000000000006 481.50000000000006 616.50000000000011 469.50000000000006 510.50000000000006 530.50000000000011
decision_type=2 2 2 2 2 2 2 2 2 2 2 2 2 2 2 2 2 2 2 2
left_child=2 15 3 12 5 -5 7 8 9 10 -6 -12 13 -1 -14 16 17 18 -2 -19
right_child=1 -3 -4 4 6 -7 -8 -9 -10 -11 11 -13 14 -15 -16 -17 -18 19 -20 -21
leaf_value=-0.097991546637593005 -0.1016558550854913 0.034899080798483854 0.06194722436594028 -0.01221484321391215 -0.059046809690911466 0.12415957249975101 0.070920871133268212 -0.05331910336196341 -0.059117321088103497 0.075236738759866389 0.091620856585386101 -0.011012513978225218 0.035342029809252683 -0.0026623995938717775 -0.034973936533429638 -0.072353936915198022 -0.083536380848675082 0.076862582035279445 0.043914146491691994 0.0025019165895485513
leaf_weight=10.873481240123512 12.13106704875827 11.235953874886034 8.2610816434025747 11.659060075879099 12.811226855963467 10.103098522871731 8.2120486795902234 13.336831383407114 7.8648836128413668 9.3869667910039407 13.736751161515715 12.387453366070984 19.258157670497894 15.347547732293604 16.967020690441132 8.4367658570408803 7.3006691299378863 7.8875697627663639 7.943516179919242 11.288283016532658
leaf_count=52 82 60 49 67 72 90 51 81 59 60 89 76 94 88 96 55 45 50 55 69
internal_value=0 -0.0162787 0.00636212 0.00352662 0.0159829 0.0510971 0.00615268 -0.00149761 0.0108029 0.0221831 0.00939231 0.0429546 -0.0163205 -0.042194 0.00240769 -0.0267362 -0.0184686 -0.00636579 -0.0440538 0.0330886
internal_weight=0 66.2238 170.206 161.945 99.4983 21.7622 77.7362 69.5241 56.1873 48.3224 38.9354 26.1242 62.4462 26.221 36.2252 54.9879 46.5511 39.2504 20.0746 19.1759
internal_count=1440 416 1024 975 645 157 488 437 356 297 237 165 330 140 190 356 301 256 137 119
is_linear=0
shrinkage=0.1


Tree=29
num_leaves=21
num_cat=0
split_feature=1 8 11 7 13 15 8 7 7 11 13 11 19 6 6 4 8 16 16 1
split_gain=2.43883 2.80261 2.73428 2.85338 2.20799 4.18745 4.13549 2.0099 3.70235 11.4213 6.34111 4.95493 4.83506 4.1021 3.15596 3.5 3.06891 5.75321 2.99199 2.49643
threshold=528.50000000000011 559.50000000000011 548.50000000000011 548.50000000000011 535.50000000000011 474.50000000000006 509.50000000000006 422.50000000000006 466.50000000000006 473.50000000000006 402.50000000000006 513.50000000000011 516.50000000000011 500.50000000000006 473.50000000000006 481.50000000000006 465.50000000000006 504.50000000000006 524.50000000000011 445.50000000000006
decision_type=2 2 2 2 2 2 2 2 2 2 2 2 2 2 2 2 2 2 2 2
left_child=1 2 3 7 5 -2 -7 19 11 10 -10 16 -12 -14 -11 -16 18 -18 -9 -1
right_child=4 -3 -4 -5 -6 6 -8 8 9 14 12 -13 13 -15 15 -17 17 -19 -20 -21
leaf_value=0.016331080880594272 0.082524891861006089 -0.056178851483024976 -0.044050823851918559 -0.040410378442468003 -0.018845301371307712 0.053673845411757494 -0.057885897653963903 0.039560294563035323 0.034360890698687925 -0.0014734048597913455 -0.11726965500341201 -0.021242173872342757 -0.076821447181459293 0.019324997572282416 0.097571980676306541 0.022229106074411295 0.074148560291273091 -0.019602450429322561 0.12380524131130555 -0.048296112668474445
leaf_weight=10.439383797347547 12.004131078720095 9.8573013395071012 13.978948932141064 14.608882930129765 8.6463471725583059 7.052352946251629 6.2834268696606159 8.7912778332829493 8.1050825864076597 16.638008885085583 11.177107986062767 14.283275455236433 9.8399961926043051 8.0824265480041486 10.827321253716947 14.320836652070282 12.564232967793943 13.664870217442511 8.0999171957373601 13.983176339417694
leaf_count=58 82 55 93 91 51 50 52 58 53 95 75 88 83 40 60 95 66 67 48 80
internal_value=0 -0.00419301 -0.00148748 0.00190421 0.0247895 0.0396783 0.00111018 0.00574814 0.0104788 -0.00356623 -0.0438647 0.0298055 -0.0656528 -0.0334625 0.0323138 0.0546673 0.0467147 0.025306 0.0799587 -0.0206713
internal_weight=0 199.262 189.405 175.426 33.9863 25.3399 13.3358 160.817 136.394 78.9908 37.2046 57.4036 29.0995 17.9224 41.7862 25.1482 43.1203 26.2291 16.8912 24.4226
internal_count=1440 1205 1150 1057 235 184 102 966 828 501 251 327 198 123 250 155 239 133 106 138
is_linear=0
shrinkage=0.1


Tree=30
num_leaves=23
num_cat=0
split_feature=3 14 9 9 3 19 9 3 15 14 9 0 9 7 11 0 3 3 0 3 11 14
split_gain=2.02939 2.9239 2.40203 1.86849 3.57011 4.1853 2.81482 2.76228 5.161 9.60503 4.72487 4.72274 2.89259 2.52056 6.99913 2.99416 1.81701 2.78386 3.1207 2.99246 1.61658 0.548823
threshold=699.50000000000011 486.50000000000006 298.50000000000006 543.50000000000011 353.50000000000006 290.00000000000006 656.50000000000011 436.50000000000006 469.50000000000006 477.50000000000006 482.50000000000006 492.50000000000006 439.50000000000006 467.50000000000006 505.50000000000006 477.50000000000006 536.50000000000011 384.50000000000006 481.50000000000006 332.50000000000006 534.50000000000011 470.50000000000006
decision_type=2 2 2 2 2 2 2 2 2 2 2 2 2 2 2 2 2 2 2 2 2 2
left_child=2 -2 -1 4 -4 -6 16 10 9 -9 -7 13 -11 20 15 -15 17 19 -19 -5 -10 -16
right_child=1 -3 3 6 5 7 -8 8 11 12 -12 -13 -14 14 21 -17 -18 18 -20 -21 -22 -23
leaf_value=-0.055354763798563189 0.092816049316961635 -0.010675322457961793 0.06127346506434566 -0.007701976827259917 -0.056959293141446869 0.017441841126862822 0.031315865939799847 -0.021313859829141232 0.0086477337104210565 0.053044768124662633 -0.071250139165483992 -0.054599116150785089 0.12604296044200355 0.020484383499024979 0.0519903239476356 -0.061300904055823661 -0.070078873681675397 -0.02809742356769588 0.040031857033008711 -0.08860513408566599 -0.054714409829064226 0.087275432633428102
leaf_weight=8.1440708115696889 5.5704745724797231 5.3536133952438831 10.894591525197027 9.5149035826325434 11.137215517461298 13.060883849859239 11.162053927779196 13.507790736854075 8.510253347456457 12.06945211440325 11.120755262672899 13.68395660817623 9.8651973530650121 9.5947913974523562 8.2347889505326766 8.391200974583624 7.3525919765233985 14.299474325031044 12.689824517816303 8.800607677549122 7.6427148580551139 9.4858369417488557
leaf_count=45 63 45 55 74 55 67 60 69 49 72 65 85 89 57 52 50 51 81 85 63 54 54
internal_value=0 0.0420976 -0.00206476 -8.08492e-06 0.00618786 0.00178497 -0.014299 0.00701194 0.0142814 0.0450239 -0.0233462 -0.00234255 0.085876 0.0114462 0.0262743 -0.0176718 -0.0239682 -0.0164849 0.00393559 -0.046576 -0.0213318 0.0708784
internal_weight=0 10.9241 219.163 211.019 147.199 136.305 63.8195 125.168 100.986 35.4424 24.1816 65.5435 21.9346 51.8596 35.7066 17.986 52.6574 45.3048 26.9893 18.3155 16.153 17.7206
internal_count=1440 108 1332 1287 873 818 414 763 631 230 132 401 161 316 213 107 354 303 166 137 103 106
is_linear=0
shrinkage=0.1


Tree=31
num_leaves=23
num_cat=0
split_feature=0 6 2 14 7 11 19 19 2 13 11 13 6 13 0 19 2 2 2 13 11 7
split_gain=1.5731 3.1503 3.78926 2.0338 3.66934 5.72786 2.73099 2.22829 3.4098 1.51425 2.06901 4.67615 7.02033 3.05839 3.29798 5.12788 6.57111 2.16831 2.06313 1.90969 1.50987 1.36862
threshold=496.50000000000006 482.50000000000006 436.50000000000006 467.50000000000006 521.50000000000011 531.50000000000011 692.50000000000011 618.50000000000011 476.50000000000006 610.50000000000011 471.50000000000006 503.50000000000006 543.50000000000011 505.50000000000006 492.50000000000006 394.50000000000006 580.50000000000011 495.50000000000006 523.50000000000011 531.50000000000011 442.50000000000006 466.50000000000006
decision_type=2 2 2 2 2 2 2 2 2 2 2 2 2 2 2 2 2 2 2 2 2 2
left_child=3 21 -3 4 5 -1 7 9 -9 10 11 12 20 14 15 -12 17 -17 -15 -13 -5 -2
right_child=1 2 -4 6 -6 -7 -8 8 -10 -11 13 19 -14 18 -16 16 -18 -19 -20 -21 -22 -23
leaf_value=0.048038291507049032 -0.019468684441160802 -0.036665640570702762 0.049805893140395824 -0.047139962295062253 -0.066525488415898532 -0.052098312322830145 0.066790979995868971 0.021551069521340258 -0.072036148138302031 0.044458820038045022 -0.031577051446882123 0.064621711188438263 0.019083023665725635 -0.050951205920836143 0.086528348846173053 0.043884193933219476 -0.035864658505399667 0.11129326132779437 0.015888933726942629 0.0041161499329768992 -0.10613197178145016 -0.07669057999007213
leaf_weight=12.990161493420603 7.6542866751551655 9.8607005588710326 10.425699006766079 9.0361928939819389 10.817924439907072 10.195627719163893 7.657880160957574 7.0640504099428645 8.6728128120303136 11.49548754096031 13.315444231033323 8.4246224164962786 14.326203912496565 8.944114703685047 8.8556021936237794 10.239007912576204 7.3578562662005416 8.9367102608084661 9.5474815964698774 13.698148641735314 8.3457645252346975 9.2082380726933462
leaf_count=75 44 60 74 61 68 54 47 50 61 79 73 45 76 58 66 80 44 63 53 86 57 66
internal_value=0 -0.0187756 0.00777429 0.00372527 -0.0184338 0.00400462 0.00855789 0.00555005 -0.0300262 0.00977467 0.00648028 -0.00812793 -0.0327465 0.0181829 0.0313284 0.0190614 0.0444734 0.0752997 -0.0164407 0.0271574 -0.0754644 -0.0507162
internal_weight=0 37.1489 20.2864 189.921 34.0037 23.1858 155.917 148.26 15.7369 132.523 121.027 53.8309 31.7082 67.1962 48.7046 39.849 26.5336 19.1757 18.4916 22.1228 17.382 16.8625
internal_count=1440 244 134 1196 197 129 999 952 111 841 762 325 194 437 326 260 187 143 111 131 118 110
is_linear=0
shrinkage=0.1


Tree=32
num_leaves=21
num_cat=0
split_feature=1 10 18 5 11 19 13 5 11 11 13 4 10 11 3 15 15 13 3 3
split_gain=1.97608 4.16196 4.67425 2.19394 2.59638 2.49817 2.92517 2.61291 8.45196 6.30568 5.42597 5.26095 3.7812 4.12354 4.48141 2.49647 2.38824 2.58471 1.71052 0.933743
threshold=527.50000000000011 558.50000000000011 500.50000000000006 638.50000000000011 548.50000000000011 272.50000000000006 366.50000000000006 513.50000000000011 514.50000000000011 509.50000000000006 511.50000000000006 470.50000000000006 643.50000000000011 469.50000000000006 502.50000000000006 422.50000000000006 543.50000000000011 500.50000000000006 616.50000000000011 388.50000000000006
decision_type=2 2 2 2 2 2 2 2 2 2 2 2 2 2 2 2 2 2 2 2
left_child=3 2 -2 4 5 -1 -7 9 11 12 -11 -9 13 14 15 19 -13 -18 -4 -8
right_child=1 -3 18 -5 -6 6 7 8 -10 10 -12 16 -14 -15 -16 -17 17 -19 -20 -21
leaf_value=-0.047783187041289733 0.0025048249968587844 -0.035539368941636916 0.052398522743748635 -0.042730416575531262 -0.047547462867464169 0.061584583211072165 -0.019559908603074702 -0.10288356576352727 0.051469977939374946 0.022113783933851272 -0.075855330294412882 0.0097799174236392616 0.091973655888284073 0.058145124647075858 0.053880671514344725 0.021510403768422809 -0.092463626007482425 -0.014751860587257755 0.1282814612725067 -0.064691080119717859
leaf_weight=9.4377167373895627 13.419318936765196 9.2059577703475934 6.2305170558392984 13.55516993999481 11.213966485112904 8.6882174480706436 9.1319246366620117 9.3642457388341409 14.579800646752117 10.147548098117115 12.764393821358679 16.09533117711544 8.2031517401337606 18.585873737931252 11.315163962543009 9.2473126873373968 6.7069925665855434 11.827410183846949 5.6774318963289261 9.2056096419692022
leaf_count=45 81 52 49 87 78 70 53 77 96 65 80 88 57 96 63 59 44 85 68 47
internal_value=0 0.0220431 0.0429731 -0.00396062 -0.000983351 0.00217555 0.00520062 0.00187209 -0.0145154 0.0127058 -0.0324655 -0.0363833 0.0284613 0.0193981 0.000885388 -0.020853 -0.0184009 -0.0428732 0.0885777 -0.0422162
internal_weight=0 34.5332 25.3273 190.07 176.515 165.301 155.863 147.175 58.5738 88.601 22.9119 43.994 65.689 57.4859 38.9 27.5848 34.6297 18.5344 11.9079 18.3375
internal_count=1440 250 198 1190 1103 1025 980 910 390 520 145 294 375 318 222 159 217 129 117 100
is_linear=0
shrinkage=0.1


Tree=33
num_leaves=22
num_cat=0
split_feature=1 6 18 10 16 17 15 15 16 18 16 11 10 5 17 1 17 11 16 15 16
split_gain=1.83315 1.90893 2.45064 2.07174 1.90076 2.42043 1.64335 6.20641 2.21373 2.63388 2.06541 3.38781 2.60465 1.75887 3.27708 2.91388 3.47646 2.12729 1.57086 1.24139 0.896366
threshold=554.50000000000011 589.50000000000011 571.50000000000011 446.50000000000006 384.50000000000006 549.50000000000011 599.50000000000011 665.50000000000011 521.50000000000011 556.50000000000011 444.50000000000006 465.50000000000006 473.50000000000006 388.50000000000006 496.50000000000006 485.50000000000006 444.50000000000006 550.50000000000011 473.50000000000006 401.50000000000006 495.50000000000006
decision_type=2 2 2 2 2 2 2 2 2 2 2 2 2 2 2 2 2 2 2 2 2
left_child=1 2 4 -4 -1 6 8 -8 10 13 11 -6 -12 -10 15 16 -15 -17 -14 -18 -20
right_child=-2 -3 3 -5 5 -7 7 -9 9 -11 12 -13 18 14 -16 17 19 -19 20 -21 -22
leaf_value=-0.050514649603778584 0.047167067810004577 -0.04984417498082723 0.064559668207724796 0.0032229784826308229 0.032631538097644942 0.042919033279797542 -0.075347401873128897 0.035515541497546883 -0.045880796309503827 -0.063146123130511281 0.059390252251082944 -0.048776141840754406 -0.02618786697057493 0.013898846705201898 0.0469281660580999 0.036168184759326753 -0.036313368034780018 -0.021045720021226649 0.047800610794370854 -0.095476501444705555 0.0031159427048365884
leaf_weight=8.2664175741374475 7.9569058492779723 7.9354208037257186 10.233662351965906 11.922007314860819 9.2087745293974894 11.491218905895947 12.534220393747093 8.4567258767783624 9.2991417646408063 8.873189125210045 15.039622783660887 11.490694932639597 9.1630379408597964 8.3880123272538203 12.308453321456907 15.193132286891343 6.7761629745364171 11.356008749455212 8.6781937405467051 7.4411864876747131 9.3000998795032483
leaf_count=55 55 46 78 63 54 78 96 53 51 52 99 92 58 56 82 98 39 71 49 64 51
internal_value=0 -0.0017182 0.000140913 0.0315543 -0.00365679 -0.00144336 -0.00456114 -0.0306835 -0.000713612 -0.0117884 0.0133121 -0.0125595 0.0260081 -0.00534843 0.00078398 -0.0107707 -0.0371567 0.0116958 0.00751036 -0.0672786 0.0246854
internal_weight=0 213.355 205.42 22.1557 183.264 174.998 163.507 20.9909 142.516 79.6353 62.8804 20.6995 42.181 70.7621 61.463 49.1545 22.6054 26.5491 27.1413 14.2173 17.9783
internal_count=1440 1385 1339 141 1198 1143 1065 149 916 513 403 146 257 461 410 328 159 169 158 103 100
is_linear=0
shrinkage=0.1


Tree=34
num_leaves=23
num_cat=0
split_feature=3 18 5 11 12 18 3 0 18 18 11 15 1 3 13 15 3 1 15 5 18 5
split_gain=1.66265 3.6067 1.52911 4.50187 1.56011 4.26101 2.80184 2.50554 2.36339 2.6384 2.77829 2.53144 2.22695 2.08668 6.50331 3.5541 5.48952 5.2204 6.33266 4.33368 2.00794 1.78228
threshold=699.50000000000011 528.50000000000011 638.50000000000011 516.50000000000011 553.50000000000011 448.50000000000006 277.50000000000006 484.50000000000006 530.50000000000011 541.50000000000011 455.50000000000006 351.50000000000006 478.50000000000006 384.50000000000006 543.50000000000011 470.50000000000006 455.50000000000006 486.50000000000006 598.50000000000011 465.50000000000006 565.50000000000011 478.50000000000006
decision_type=2 2 2 2 2 2 2 2 2 2 2 2 2 2 2 2 2 2 2 2 2 2
left_child=2 -2 4 -4 6 -6 -1 -7 11 -10 -11 -8 -12 14 -13 16 -15 19 21 -17 -14 -19
right_child=1 -3 3 -5 5 7 8 -9 9 10 12 13 20 15 -16 17 -18 18 -20 -21 -22 -23
leaf_value=0.053225392656155314 -0.025033890005916371 0.095324090242989046 -0.083265343547380008 0.022719727852062759 -0.028036499522569005 0.070478378277760267 0.056603754700224496 0.0070593778420140101 -0.074045214684352323 -0.05120714075080577 0.038722187699196178 -0.097323707592606931 0.014558239161105466 -0.014528476567854848 0.02738538964624981 0.087423020918760766 0.090783301096645425 -0.095148234467379106 0.032493216990438042 -0.0081205832079076067 -0.047590520055853749 -0.034282969838968592
leaf_weight=8.1466898620128614 4.6202412955462915 5.3994531650096178 8.2124435678124446 7.8278892561793318 12.915214570239185 14.154098320752384 7.9583478942513457 11.12695601582527 8.6993535272777063 13.929249368607996 11.006507784128191 8.2386094219982642 10.269545126706364 9.3866923227906245 8.4914475791156274 7.9437125921249416 10.471435133367775 11.012810930609708 9.0812939889729005 11.798434074968098 10.527992710471151 8.5431271754205209
leaf_count=56 34 74 58 44 98 94 44 81 52 77 60 62 64 49 52 50 70 78 52 77 60 54
internal_value=0 0.0398251 -0.001872 -0.0315433 0.000585062 0.0186932 -0.00386278 0.0425658 -0.00701889 -0.0235659 -0.0139637 0.00267374 0.00234781 -0.00237753 -0.0340268 0.00538205 0.0410037 -0.00923947 -0.0365138 0.0303236 -0.0169023 -0.0685589
internal_weight=0 10.0197 209.742 16.0403 193.702 38.1963 155.505 25.2811 147.359 54.4326 45.7333 92.9259 31.804 84.9676 16.7301 68.2375 19.8581 48.3794 28.6372 19.7421 20.7975 19.5559
internal_count=1440 108 1332 102 1230 273 957 175 901 313 261 588 184 544 114 430 119 311 184 127 124 132
is_linear=0
shrinkage=0.1


Tree=35
num_leaves=22
num_cat=0
split_feature=8 14 8 15 4 2 18 18 15 15 11 13 5 2 2 4 15 19 15 5 18
split_gain=1.7595 2.68624 1.89378 3.84414 2.22705 1.58097 4.46498 2.52593 3.28556 1.80533 4.20614 4.50081 4.35332 3.65913 3.94084 2.53458 4.18768 1.50081 1.36213 1.30676 0.717613
threshold=559.50000000000011 490.50000000000006 535.50000000000011 454.00000000000006 494.50000000000006 385.50000000000006 572.50000000000011 530.50000000000011 356.50000000000006 542.50000000000011 505.50000000000006 602.50000000000011 519.50000000000011 595.00000000000011 630.00000000000011 464.50000000000006 422.50000000000006 449.50000000000006 470.50000000000006 539.50000000000011 436.50000000000006
decision_type=2 2 2 2 2 2 2 2 2 2 2 2 2 2 2 2 2 2 2 2 2
left_child=1 2 4 -4 5 -1 7 9 -9 13 12 -12 -11 15 -15 -7 -17 -10 -18 -20 -14
right_child=-2 -3 3 -5 -6 6 -8 8 17 10 11 -13 20 14 -16 16 18 -19 19 -21 -22
leaf_value=-0.030201571897661435 -0.037474086201309924 0.060096368962600025 0.015090121762189702 -0.079663859280894964 0.052635181703661743 0.081621326372034675 0.059541632950605231 -0.068368545588571 0.026136853471850699 0.02433442054812858 0.052238082732225334 -0.036722946041239456 -0.0550847939083896 -0.073275671877966034 0.02849624559961423 -0.025145155376055918 0.07532675474000454 -0.026800609285416561 0.0063311642245502857 0.058767015773806469 -0.10102179467551431
leaf_weight=15.31366430968046 11.828630726784466 7.7100739926099768 8.6433897130191344 8.4844303578138334 8.5910846386104804 7.8258742392063132 13.016532383859156 11.724009022116659 9.863888172432782 6.465769179165366 14.935274921357633 9.1843406260013563 7.8214710131287557 8.2790876310318691 7.0403221584856501 13.960664704442022 8.4813526999205369 11.71723737940192 11.817524664103987 7.9499522931873789 6.0166209116578102
leaf_count=90 77 56 61 60 89 56 79 61 65 40 92 53 72 65 41 81 58 75 77 49 43
internal_value=0 0.0021919 -7.28066e-05 -0.0318472 0.00295059 0.000460447 0.00346844 -0.00163263 -0.0257549 0.00568573 -0.00986864 0.0183632 -0.0434062 0.0162585 -0.0265045 0.0293513 0.0196601 -0.00260497 0.041803 0.0274195 -0.0750576
internal_weight=0 204.843 197.132 17.1278 180.005 171.414 156.1 143.083 33.3051 109.778 44.4235 24.1196 20.3039 65.3548 15.3194 50.0354 42.2095 21.5811 28.2488 19.7675 13.8381
internal_count=1440 1363 1307 121 1186 1097 1007 928 201 727 300 145 155 427 106 321 265 140 184 126 115
is_linear=0
shrinkage=0.1


Tree=36
num_leaves=24
num_cat=0
split_feature=15 15 3 3 14 3 18 18 12 18 3 15 15 18 16 5 3 7 15 1 5 18 7
split_gain=1.83826 2.86164 3.46347 3.08658 2.6727 2.48757 5.29144 2.68243 3.6348 3.62503 3.48137 5.02108 4.7667 3.97796 4.08041 3.40048 3.33276 2.57589 2.42327 1.87336 1.01853 1.01412 1.93121
threshold=680.50000000000011 600.50000000000011 533.50000000000011 689.00000000000011 477.50000000000006 551.50000000000011 499.50000000000006 530.50000000000011 427.50000000000006 572.50000000000011 429.50000000000006 454.00000000000006 486.50000000000006 449.50000000000006 485.50000000000006 459.50000000000006 339.50000000000006 509.50000000000006 358.50000000000006 522.50000000000011 493.50000000000006 580.50000000000011 492.50000000000006
decision_type=2 2 2 2 2 2 2 2 2 2 2 2 2 2 2 2 2 2 2 2 2 2 2
left_child=1 3 -3 5 -4 7 20 10 -9 18 12 -12 15 14 -13 16 -1 -14 -10 21 -7 22 -8
right_child=-2 2 4 -5 -6 6 19 8 9 -11 11 13 17 -15 -16 -17 -18 -19 -20 -21 -22 -23 -24
leaf_value=0.044105243924605991 0.047668938143873241 -0.090557852557732313 0.038554669379375711 0.063671837857931818 -0.048987119882631984 -0.045970117586797143 0.037838572369325085 -0.068928401388082011 -0.063068209816946649 0.047935011155070414 0.092776857936108265 0.032077790892626634 0.085812006712839395 0.055972844433981789 -0.074209838952896928 -0.073948585273406517 -0.032804073202969818 0.003192737606892359 0.0042591815707042216 0.046878659504627357 -0.097994580136642626 -0.040047627033179212 -0.030404287244710157
leaf_weight=9.2994104214012641 7.8010471798479548 7.6042485982179668 6.7485715337097627 7.8310136664658776 7.2173090539872646 8.7334347516298276 8.2783116959035485 9.3468281105160695 8.6695441901683825 11.238710775971411 11.992872470989822 7.2608412615954894 7.6793849542736989 12.668480943888424 7.1872096061706543 9.2789005450904352 14.296344786882399 7.419760225340724 13.944262307137249 7.4764914065599433 6.6125226207077494 7.8102873787283889 8.3090506643056852
leaf_count=66 48 55 42 93 58 56 57 49 44 62 81 52 50 71 48 71 76 60 89 68 49 41 54
internal_value=0 -0.00178082 -0.0362534 0.00223128 -0.00668531 -0.000479335 -0.020143 0.00664764 -0.0137251 0.00151676 0.0167539 0.0388986 -0.00129892 0.0150698 -0.0207952 -0.0226614 -0.00249306 0.0452127 -0.0215524 0.00308442 -0.0683873 -0.010336 0.00365391
internal_weight=0 206.904 21.5701 185.334 13.9659 177.503 47.2201 130.283 43.1993 33.8525 87.0832 39.1094 47.9738 27.1165 14.4481 32.8747 23.5958 15.0991 22.6138 31.8741 15.346 24.3976 16.5874
internal_count=1440 1392 155 1237 100 1144 325 819 244 195 575 252 323 171 100 213 142 110 133 220 105 152 111
is_linear=0
shrinkage=0.1


Tree=37
num_leaves=24
num_cat=0
split_feature=1 10 14 6 6 6 10 10 18 16 1 4 15 14 1 1 16 19 19 18 1 15 16
split_gain=1.63948 3.04234 4.2345 11.7225 1.84142 2.30016 3.5664 2.54669 4.46768 3.06729 2.76081 2.48888 5.0079 3.68955 3.09095 2.22796 2.10001 2.07795 4.32849 2.50382 2.05911 0.854489 0.809682
threshold=527.50000000000011 558.50000000000011 477.50000000000006 509.50000000000006 589.50000000000011 543.50000000000011 386.50000000000006 480.50000000000006 530.50000000000011 443.50000000000006 519.50000000000011 479.50000000000006 595.50000000000011 473.50000000000006 467.50000000000006 437.50000000000006 576.50000000000011 412.50000000000006 536.50000000000011 565.50000000000011 495.50000000000006 502.50000000000006 409.50000000000006
decision_type=2 2 2 2 2 2 2 2 2 2 2 2 2 2 2 2 2 2 2 2 2 2 2
left_child=4 2 -2 -4 5 6 -1 9 10 22 11 12 13 16 15 -15 21 19 -19 -7 -11 -9 -8
right_child=1 -3 3 -5 -6 17 7 8 -10 20 -12 -13 -14 14 -16 -17 -18 18 -20 -21 -22 -23 -24
leaf_value=-0.074392669733588504 0.088623626984690729 -0.02981229362263162 -0.075580849061320163 0.1139136291130888 -0.052417908449562262 0.078949264772622291 0.0055352032994855638 0.075882933724552293 -0.085356210497897184 0.064745429285240824 -0.064473182529807688 0.03756943506244944 -0.087648901604051574 -0.0086746085817752654 0.023931420016193212 -0.079385688138255972 -0.011641389299854116 -0.045487541816976229 0.053940580961364851 0.011915862485679137 0.00083676173625223203 0.029423167668451791 -0.04315115659189251
leaf_weight=7.6470963805913916 10.041634589433672 8.675370477139948 7.8909515552222711 5.5681796055287123 7.4414911158382884 9.2950494475662726 6.8840197511017305 7.5187056846916702 7.8121898323297492 14.01674133166671 7.3538258224725714 14.076833829283713 7.1530322916805735 8.1080562304705435 9.1172243952751142 9.8922757729887945 7.9113822206854811 11.103043086826803 7.2292422801256171 13.911919903010128 7.8733788765966883 8.3607464395463449 6.7801961712539196
leaf_count=48 71 52 55 72 41 55 48 53 44 97 49 83 55 56 56 68 59 78 51 74 56 63 56
internal_value=0 0.0207974 0.0394801 0.00281495 -0.00371536 -0.00160882 -0.0081322 -0.00400795 -0.0131958 0.018553 -0.00610414 -0.000153959 -0.00929989 0.00170876 -0.023507 -0.0475346 0.0304504 0.018886 -0.00627857 0.0387646 0.0417589 0.0514212 -0.018623
internal_weight=0 32.1761 23.5008 13.4591 179.486 172.045 130.506 122.859 87.3043 35.5543 79.4921 72.1383 58.0614 50.9084 27.1176 18.0003 23.7908 41.5393 18.3323 23.207 21.8901 15.8795 13.6642
internal_count=1440 250 198 127 1190 1149 891 843 586 257 542 493 410 355 180 124 175 258 129 129 153 116 104
is_linear=0
shrinkage=0.1


Tree=38
num_leaves=22
num_cat=0
split_feature=2 2 4 16 11 13 5 13 2 13 15 2 8 5 16 12 11 11 8 8 8
split_gain=1.76991 4.09648 3.69785 4.98593 2.95818 3.73556 5.55976 2.89895 5.4805 5.13675 2.94638 2.9042 2.8092 2.80783 2.19906 1.87567 6.40713 2.97687 2.86418 1.7861 4.43076
threshold=634.50000000000011 600.50000000000011 463.50000000000006 607.50000000000011 471.50000000000006 427.50000000000006 388.50000000000006 470.50000000000006 484.50000000000006 538.50000000000011 468.50000000000006 476.50000000000006 526.50000000000011 476.50000000000006 534.50000000000011 481.50000000000006 511.50000000000006 505.50000000000006 460.50000000000006 431.50000000000006 475.50000000000006
decision_type=2 2 2 2 2 2 2 2 2 2 2 2 2 2 2 2 2 2 2 2 2
left_child=1 2 -1 4 7 13 -7 11 9 -9 -10 -4 15 -6 -15 16 -8 -17 -18 -19 -21
right_child=-2 -3 3 -5 5 6 12 8 10 -11 -12 -13 -14 14 -16 17 18 19 -20 20 -22
leaf_value=0.064629200542883361 0.035714371148486225 -0.057162907438611715 -0.067506433426851795 -0.079066077163039705 0.099506647431895467 -0.062106257973526806 0.072857957885401531 0.06085877948724544 -0.098028398829056534 -0.02501739156966586 -0.0098211618148677585 0.0055695756756727298 -0.042414647720260303 0.059711001347099169 -0.018972248222817425 -0.0074805854688362074 -0.080989765282302728 0.01309298393726244 0.0071991160634253095 0.11618804006937467 0.012667707418984681
leaf_weight=8.8199792802333814 13.023329868912695 12.75074935145676 15.606504794210197 7.9578156955540171 7.4355961792171028 11.288406938314436 7.7303851731121567 17.515648644417528 6.5254405736923209 11.563920717686413 9.0233511459082347 8.3473023064434511 7.793239250779151 7.7736881859600526 6.5405386630445719 10.79451812058687 7.8264447674155218 6.9652159959077862 6.9558318182826042 9.9572228565812129 7.0703531727194777
leaf_count=64 76 98 90 48 53 80 42 94 45 76 86 65 62 61 66 60 49 38 60 78 49
internal_value=0 -0.00235421 0.00145443 -0.00173557 0.00195569 0.0130917 0.00268032 -0.0139783 0.00108414 0.0267089 -0.0468395 -0.0420413 0.0139156 0.0496545 0.0237586 0.0215769 -0.000913531 0.0361316 -0.0394923 0.055753 0.0732033
internal_weight=0 196.242 183.491 174.671 166.714 98.1314 76.3816 68.5822 44.6284 29.0796 15.5488 23.9538 65.0932 21.7498 14.3142 57.3 22.5127 34.7873 14.7823 23.9928 17.0276
internal_count=1440 1364 1266 1202 1154 698 518 456 301 170 131 155 438 180 127 376 151 225 109 165 127
is_linear=0
shrinkage=0.1


Tree=39
num_leaves=22
num_cat=0
split_feature=1 8 17 11 12 10 15 8 17 12 12 11 10 1 8 15 12 8 8 8 17
split_gain=1.47782 1.79455 2.03807 1.5496 10.1697 5.11917 3.8985 3.78803 3.74385 6.88709 3.71267 3.41738 3.03439 2.40267 2.4005 12.111 6.40481 7.26206 2.97598 1.31294 0.457711
threshold=554.50000000000011 559.50000000000011 414.50000000000006 471.50000000000006 481.50000000000006 625.50000000000011 424.50000000000006 496.50000000000006 518.50000000000011 439.50000000000006 577.50000000000011 486.50000000000006 474.50000000000006 446.50000000000006 511.50000000000006 471.50000000000006 502.50000000000006 474.50000000000006 473.50000000000006 433.50000000000006 486.50000000000006
decision_type=2 2 2 2 2 2 2 2 2 2 2 2 2 2 2 2 2 2 2 2 2
left_child=1 2 -1 4 5 6 7 -4 10 -10 11 -5 13 -6 16 -16 18 -18 -13 -11 -14
right_child=-2 -3 3 8 12 -7 -8 -9 9 19 -12 14 20 -15 15 -17 17 -19 -20 -21 -22
leaf_value=0.047746714428850999 0.044600999227856569 -0.042765841726779323 0.019912162680796985 0.06388014867187157 -0.065001332980531873 0.08918285852053727 0.050679257604479513 -0.067455111554207012 -0.10267288934357595 -0.019836342921547442 0.065791977920865316 -0.091437241520914203 -0.11558949120008358 0.00085727275470622716 0.10795361361859322 -0.044096983618265112 0.086538339633660089 -0.046268992194253157 -0.013727584209485902 0.033452290333926958 -0.076220565354320591
leaf_weight=8.7470729704946262 7.1786132305860511 10.046563282608984 9.9132440462708526 9.2248572967946512 10.65102042257786 8.7635493911802751 10.868576340377329 9.9374874681234342 8.2001422829926032 9.0390586033463496 12.987629521638153 10.690629582852127 5.1596468519419414 11.542692355811594 9.6215031091123837 11.499329848214982 9.4048885703086871 7.32342162169516 9.1426035109907371 9.4649029523134214 6.9055650644004345
leaf_count=81 55 66 52 53 66 72 69 57 61 51 83 59 59 77 75 98 71 52 58 57 68
internal_value=0 -0.00158187 0.000606309 -0.00168014 -0.0128252 0.0217672 0.00253493 -0.0238248 0.00602965 -0.0263859 0.0168642 0.00736668 -0.0526923 -0.030749 -0.00167124 0.025169 -0.0171763 0.0283971 -0.0556151 0.00742116 -0.0930566
internal_weight=0 199.134 189.088 180.341 73.7418 39.4829 30.7193 19.8507 106.599 26.7041 79.8949 66.9072 34.2589 22.1937 57.6824 21.1208 36.5615 16.7283 19.8332 18.504 12.0652
internal_count=1440 1385 1319 1238 520 250 178 109 718 169 549 466 270 143 413 173 240 123 117 108 127
is_linear=0
shrinkage=0.1


Tree=40
num_leaves=23
num_cat=0
split_feature=15 15 12 3 3 6 8 5 15 15 8 8 1 5 1 3 8 15 3 1 15 12
split_gain=1.48595 2.30665 3.23599 2.56652 2.15104 3.80267 1.99641 7.25515 1.78188 1.8582 2.10215 1.83659 7.31993 9.71413 5.11892 3.82461 3.76333 4.69419 5.58185 1.25291 0.884595 0.806573
threshold=686.50000000000011 600.50000000000011 547.50000000000011 689.00000000000011 551.50000000000011 510.50000000000006 493.50000000000006 488.50000000000006 478.50000000000006 502.50000000000006 450.50000000000006 481.50000000000006 495.50000000000006 503.50000000000006 497.50000000000006 401.50000000000006 503.50000000000006 364.50000000000006 439.50000000000006 461.50000000000006 534.50000000000011 523.50000000000011
decision_type=2 2 2 2 2 2 2 2 2 2 2 2 2 2 2 2 2 2 2 2 2 2
left_child=1 3 -3 4 8 20 -7 -8 11 -10 21 12 13 15 16 -1 -13 -18 -19 -12 -6 -11
right_child=-2 2 -4 -5 5 6 7 -9 9 10 19 14 -14 -15 -16 -17 17 18 -20 -21 -22 -23
leaf_value=0.081411689172596655 0.045430821405486689 0.0035491189678346379 -0.075541751288217107 0.060376904549251979 -0.038570664483549934 -0.030291874009664987 0.09160021972724551 -0.036659591190928466 0.065989724418642953 0.014861630658497891 -0.044027346376647916 0.053591039973371529 -0.079984546921922417 -0.085613115847757826 0.072596934368452368 -0.0065699337390432797 -0.078261594527777256 -0.052079243895428895 0.078575401508225118 0.010635207205809308 -0.088006617290695352 0.061704169446045211
leaf_weight=12.549197867512708 6.958253286778926 11.172625778242947 9.6337357033044082 7.2558641433715811 7.9546695351600629 11.972658164799215 8.1922827474772948 9.5531756933778507 8.2266715653240663 6.7055024877190581 6.8369706496596363 7.544241743162277 12.736354347318409 7.5698972940444937 10.64521589502692 8.1494951546192151 10.267541997134687 6.6598678901791555 6.4238135032355785 10.843588579446076 6.6417572572827339 8.1359331719577295
