tree
version=v4
num_class=1
num_tree_per_iteration=1
label_index=0
max_feature_idx=19
objective=binary sigmoid:1
feature_names=Column_0 Column_1 Column_2 Column_3 Column_4 Column_5 Column_6 Column_7 Column_8 Column_9 Column_10 Column_11 Column_12 Column_13 Column_14 Column_15 Column_16 Column_17 Column_18 Column_19
feature_infos=[438:520] [382:614] [256:768] [0:999] [435:516] [182:814] [333:653] [317:635] [346:607] [193:828] [228:829] [348:661] [263:719] [207:794] [450:505] [84:785] [296:735] [347:612] [276:677] [142:920]
tree_sizes=2397 2396 2404 2492 2395 2487 2191 2290 2404 2297 2405 2298 2187 2508 2410 2307 2412 2411 2516 2406 2521 2322 2403 2526 2515 2303 2308 2629 2425

Tree=0
num_leaves=22
num_cat=0
split_feature=6 10 7 1 11 14 3 14 11 14 3 16 7 3 16 6 11 6 6 6 3
split_gain=99.7766 70.8806 62.745 54.912 51.1649 44.0528 42.8648 36.4089 27.2884 53.9093 19.2824 19.0172 18.1499 12.7577 9.90384 5.70996 5.26012 2.34317 2.33718 0.848229 0.206528
threshold=488.50000000000006 460.50000000000006 484.50000000000006 501.50000000000006 519.50000000000011 476.50000000000006 453.50000000000006 473.50000000000006 478.50000000000006 476.50000000000006 455.50000000000006 508.50000000000006 535.50000000000011 630.50000000000011 575.50000000000011 551.50000000000011 528.50000000000011 460.50000000000006 528.50000000000011 453.50000000000006 599.50000000000011
decision_type=2 2 2 2 2 2 2 2 2 2 2 2 2 2 2 2 2 2 2 2 2
left_child=2 4 3 7 12 10 -7 -1 19 -10 14 -5 13 15 -3 -2 -8 -11 -6 -4 -20
right_child=1 5 8 11 18 6 16 -9 9 17 -12 -13 -14 -15 -16 -17 -18 -19 20 -21 -22
leaf_value=0.17604228282841536 0.16234142861417425 0.047500723607821212 -0.19250344640545597 -0.14693303437761854 0.15150253061357466 -0.071072765148738337 0.10184129040328019 -0.00066337853770039035 0.074167853609296466 -0.17314827140438518 -0.13477048454659205 0.001048303605251444 -0.045834231397342128 0.0075000286056083575 -0.074854343457771061 0.071501140609148944 0.19181695655698133 -0.115579032939662 0.1915032256157875 -0.16125290343497717 0.20750350361667266
leaf_weight=22.249614074826241 15.499731153249742 13.749761506915094 18.999670445919037 19.749657437205315 12.499783188104628 13.999757170677183 13.249770179390909 24.499575048685074 17.999687790870667 15.499731153249742 24.249579384922981 15.499731153249739 14.999739825725554 14.999739825725554 12.74977885186672 12.499783188104628 12.74977885186672 12.999774515628813 12.499783188104628 15.999722480773924 22.749605402350426
leaf_count=89 62 55 76 79 50 56 53 98 72 62 97 62 60 60 51 50 51 52 50 64 91
internal_value=0.00833338 0.0563558 -0.0493817 0.0123782 0.111994 -0.00847821 0.0700011 0.0834372 -0.11152 -0.0613184 -0.0703338 -0.0818632 0.0488801 0.0819199 -0.0113682 0.121788 0.145964 -0.146889 0.188655 -0.178217 0.20183
internal_weight=0 196.497 163.497 81.9986 105.748 90.7484 39.9993 46.7492 81.4986 46.4992 50.7491 35.2494 57.999 42.9993 26.4995 27.9995 25.9995 28.4995 47.7492 34.9994 35.2494
internal_count=1440 786 654 328 423 363 160 187 326 186 203 141 232 172 106 112 104 114 191 140 141
is_linear=0
shrinkage=1


Tree=1
num_leaves=22
num_cat=0
split_feature=18 10 5 11 1 13 8 1 19 13 11 8 13 16 13 6 8 11 10 18 10
split_gain=81.5432 57.9706 51.1186 44.0826 43.8606 48.4373 40.6855 26.1348 23.4689 33.1353 21.6857 43.2148 20.3252 14.0266 19.4417 9.18921 2.7184 2.26296 1.88768 0.809278 0.0563149
threshold=471.50000000000006 460.50000000000006 512.50000000000011 519.50000000000011 501.50000000000006 540.50000000000011 481.50000000000006 489.50000000000006 479.50000000000006 471.50000000000006 478.50000000000006 482.50000000000006 530.50000000000011 516.50000000000011 492.50000000000006 555.50000000000011 458.50000000000006 547.50000000000011 419.50000000000006 426.50000000000006 364.50000000000006
decision_type=2 2 2 2 2 2 2 2 2 2 2 2 2 2 2 2 2 2 2 2 2
left_child=2 3 4 8 5 -1 13 -8 15 -10 19 -12 -6 -3 -15 -2 -7 -13 20 -4 -5
right_child=1 6 10 18 12 16 7 -9 9 -11 11 17 -14 14 -16 -17 -18 -19 -20 -21 -22
leaf_value=-0.080541874776381639 0.16687604662828481 -0.13250226770148521 -0.18288818623990638 0.17421485106899809 0.015420082094560014 0.16235920572720117 -0.013988442169597513 0.14849898987295132 -0.1033835996392279 0.10542314642960474 0.055875212447956749 -0.11516047001237893 -0.14258942640746666 -0.11084053502876766 0.053072759742978981 0.048339947229295882 0.10238073758736151 -0.17160251719541786 0.13600660791364663 -0.15192996897602815 0.18270471116133771
leaf_weight=14.99614432454109 12.695543050765993 22.656754910945892 19.078476414084435 13.116903781890867 13.229829862713812 18.605476990342144 21.461578890681267 18.372827112674713 19.475391253829006 12.463292002677916 18.225612297654152 15.415346175432207 21.163607850670815 14.223806768655779 14.729510724544523 13.488429069519041 12.724573314189909 13.174310371279715 14.633456245064734 15.148558989167212 19.322562798857689
leaf_count=60 51 91 77 53 53 75 86 74 78 50 73 62 85 57 59 54 51 53 59 61 78
internal_value=0 0.0432671 -0.0525857 0.0938901 0.00374138 0.0672558 -0.0149684 0.0609557 0.0356332 -0.0219019 -0.108689 -0.0644581 -0.0818093 -0.0735692 -0.0274524 0.105813 0.137999 -0.141169 0.165822 -0.169186 0.179272
internal_weight=0 196.64 161.762 105.196 80.7196 46.3262 91.4445 39.8344 58.1227 31.9387 81.0423 46.8153 34.3934 51.6101 28.9533 26.184 31.3301 28.5897 47.0729 34.227 32.4395
internal_count=1440 790 650 423 324 186 367 160 233 128 326 188 138 207 116 105 126 115 190 138 131
is_linear=0
shrinkage=0.1


Tree=2
num_leaves=22
num_cat=0
split_feature=18 10 1 12 1 17 1 15 17 17 13 13 3 3 13 18 3 17 3 18 12
split_gain=66.9513 48.0754 40.9013 40.6677 41.6364 37.667 19.2487 16.9179 26.1862 16.7472 14.2765 11.3148 30.8219 14.3286 11.1624 9.76976 4.96991 1.75401 1.17645 0.976794 0.0720372
threshold=471.50000000000006 472.50000000000006 506.50000000000006 488.50000000000006 501.50000000000006 502.50000000000006 470.50000000000006 469.50000000000006 467.50000000000006 489.50000000000006 540.50000000000011 529.50000000000011 482.50000000000006 482.50000000000006 474.50000000000006 567.50000000000011 551.50000000000011 543.50000000000011 609.50000000000011 426.50000000000006 539.50000000000011
decision_type=2 2 2 2 2 2 2 2 2 2 2 2 2 2 2 2 2 2 2 2 2
left_child=3 2 7 4 5 -1 19 15 -9 16 -6 12 14 -13 -3 -2 -8 -7 -4 -5 -20
right_child=1 11 18 6 10 17 9 8 -10 -11 -12 13 -14 -15 -16 -17 -18 -19 20 -21 -22
leaf_value=-0.068772613779053055 0.1420204567099122 -0.098347148109603988 0.13415220307528203 -0.16338665725776849 0.0034385903791997515 0.11596411808135723 -0.057446651308290825 -0.092738295435691925 0.078624459466917082 0.020758484203211792 -0.13472550363809541 0.0051610652080021011 0.10806459753603122 -0.14233350987169208 0.014438510770138916 0.02999835857617103 -0.13577566349102152 0.16611102086486268 0.17163312963922064 -0.13031271015162785 0.16147796878594634
leaf_weight=12.721610128879545 15.490403935313227 19.900665760040283 17.976017385721207 20.835434809327126 12.474891319870951 15.500141456723215 15.742348402738569 19.645581960678101 16.329718574881554 18.858909457921982 18.673954397439957 12.435698911547663 19.397182777523994 14.002978861331938 15.696249067783354 15.651711374521254 16.686488837003708 12.681695103645323 15.03455524146557 15.626908928155897 13.047164872288702
leaf_count=51 63 80 74 86 50 63 64 79 66 76 76 50 79 57 63 63 68 52 62 64 54
internal_value=0 0.039397 0.0815575 -0.0479525 0.00771897 0.0740556 -0.0936648 0.0317577 -0.0149542 -0.0541744 -0.0793918 -0.0191975 0.00664809 -0.0729579 -0.048615 0.0857193 -0.0977514 0.13853 0.154128 -0.149212 0.166915
internal_weight=0 194.608 113.175 159.802 72.0523 40.9034 87.7501 67.1174 35.9753 51.2877 31.1488 81.4328 54.9941 26.4387 35.5969 31.1421 32.4288 28.1818 46.0577 36.4623 28.0817
internal_count=1440 790 461 650 292 166 358 271 145 208 126 329 222 107 143 126 132 115 190 150 116
is_linear=0
shrinkage=0.1


Tree=3
num_leaves=23
num_cat=0
split_feature=18 1 12 1 17 17 1 8 15 8 15 17 19 3 17 3 19 18 2 17 8 2
split_gain=55.4108 33.6838 33.3733 34.4051 33.5612 30.0122 16.6262 29.7966 14.3071 9.0085 17.787 7.17041 17.3977 27.6402 11.2212 8.6602 7.7781 3.72923 1.75881 1.69347 1.23392 0.210246
threshold=472.50000000000006 499.50000000000006 489.50000000000006 501.50000000000006 500.50000000000006 500.50000000000006 470.50000000000006 481.50000000000006 480.50000000000006 487.50000000000006 482.50000000000006 469.50000000000006 479.50000000000006 436.50000000000006 501.50000000000006 490.50000000000006 379.50000000000006 440.50000000000006 511.50000000000006 543.50000000000011 506.50000000000006 449.50000000000006
decision_type=2 2 2 2 2 2 2 2 2 2 2 2 2 2 2 2 2 2 2 2 2 2
left_child=2 11 3 4 -1 9 20 -8 -5 10 -3 12 13 -2 15 -13 -15 -9 21 -6 -4 -11
right_child=1 5 6 8 19 -7 7 17 -10 18 -12 14 -14 16 -16 -17 -18 -19 -20 -21 -22 -23
leaf_value=-0.068976354961717321 -0.085429903161805806 -0.021072583685039843 -0.15377007337352464 0.0096944462376198082 0.10536596568997905 -0.057088272122269537 0.045386615408640502 -0.14084972639075752 -0.12775652731801587 0.16295511287655839 0.14573253214636306 0.015815837540127348 -0.10336322680054527 0.02102488415431172 -0.040800645480163829 0.11668526402554458 0.13006534834824199 -0.069773203244782853 0.11017881984166196 0.15456878537311836 -0.11579411982086037 0.14555774861325771
leaf_weight=12.679650723934172 17.266491636633873 12.145587757229807 21.003139391541481 12.672873601317407 16.244195416569713 12.27336226403713 20.137812033295631 17.829677313566211 18.817258402705193 16.946894600987438 13.496339306235312 18.900933846831322 18.329186946153641 12.623428687453272 15.696458324789999 15.48467881977558 13.578659802675245 12.597514152526854 11.956174179911612 12.285726293921469 14.437195897102354 11.771501913666723
leaf_count=51 70 50 89 51 67 51 81 74 78 72 57 76 74 51 64 63 56 52 50 52 61 50
internal_value=0 0.0363827 -0.043621 0.00625598 0.0663918 0.0865581 -0.0857817 -0.0489723 -0.0724408 0.113143 0.0667234 0.00113714 -0.0216532 0.0128011 0.0292588 0.0612398 0.0775327 -0.111423 0.142407 0.126554 -0.1383 0.155824
internal_weight=0 190.47 158.705 72.6997 41.2096 78.5899 86.0053 50.565 31.4901 66.3165 25.6419 111.88 61.7978 43.4686 50.0821 34.3856 26.2021 30.4272 40.6746 28.5299 35.4403 28.7184
internal_count=1440 784 656 299 170 330 357 207 129 279 107 454 251 177 203 139 107 126 172 119 150 122
is_linear=0
shrinkage=0.1


Tree=4
num_leaves=22
num_cat=0
split_feature=6 7 1 13 1 13 11 8 13 7 12 12 11 13 2 8 6 2 13 12 13
split_gain=45.7237 30.4409 26.531 27.8074 25.9425 27.3166 14.9301 28.224 14.1143 6.89969 10.0134 7.04419 12.3098 5.72256 9.94464 5.29448 2.0494 1.6956 1.5215 0.804189 0.694447
threshold=488.50000000000006 484.50000000000006 499.50000000000006 527.50000000000011 501.50000000000006 547.50000000000011 478.50000000000006 482.50000000000006 530.50000000000011 536.50000000000011 546.50000000000011 481.50000000000006 462.50000000000006 537.50000000000011 410.50000000000006 479.50000000000006 455.50000000000006 512.50000000000011 613.50000000000011 559.50000000000011 429.50000000000006
decision_type=2 2 2 2 2 2 2 2 2 2 2 2 2 2 2 2 2 2 2 2 2
left_child=1 4 9 15 5 -1 19 -8 -6 10 11 13 -13 14 -2 -4 -9 20 -7 -3 -17
right_child=2 6 3 -5 8 18 7 16 -10 -11 -12 12 -14 -15 -16 17 -18 -19 -20 -21 -22
leaf_value=-0.049419030451861745 0.089155745217633336 -0.1535250901762874 0.065717160260259963 -0.041436944374640343 0.016276668322081134 0.086072868706582678 0.049517651674213556 -0.14271227705668485 -0.11517571138626599 -0.063157824885391692 0.07471019901478014 -0.11897801012254083 0.022751310900538099 -0.041905392232108984 -0.011628153548716141 0.15524693234729739 -0.087232251503472413 0.097037618245871773 0.13310442360196487 -0.12168074940103185 0.12450364040053837
leaf_weight=16.26669853925705 18.127171292901039 15.870844453573229 19.781633272767067 15.51668308675289 13.669330030679701 11.885077342391016 17.853142112493515 12.340736255049707 20.296233147382736 14.232241809368132 19.862599313259125 12.442431867122652 12.075684532523153 12.947213619947432 21.288548082113266 16.298209935426716 14.459285214543341 12.149991437792776 16.328730389475822 15.850677788257597 13.378894507884977
leaf_count=66 74 70 84 65 55 50 72 53 86 58 82 51 50 53 86 72 61 52 71 70 59
internal_value=0 -0.0402166 0.0331601 0.0782103 0.00353596 0.0537882 -0.0851557 -0.0478901 -0.0622731 0.00185139 0.0114151 -0.00493751 -0.0491734 0.0157752 0.0347221 0.108345 -0.112779 0.128505 0.113292 -0.137613 0.141387
internal_weight=0 154.821 188.101 77.1254 78.4461 44.4805 76.3747 44.6532 33.9656 110.976 96.7436 76.881 24.5181 52.3629 39.4157 61.6087 26.8 41.8271 28.2138 31.7215 29.6771
internal_count=1440 654 786 332 328 187 326 186 141 454 396 314 101 213 160 267 114 183 121 140 131
is_linear=0
shrinkage=0.1


Tree=5
num_leaves=23
num_cat=0
split_feature=10 19 8 5 1 8 4 8 11 4 10 11 19 4 19 1 8 4 9 9 2 8
split_gain=29.8681 22.4879 31.9595 19.1668 29.8572 22.76 17.4591 17.9532 34.0225 30.1005 26.7944 15.1375 14.5421 13.9126 7.33099 6.94412 5.72136 4.58483 3.91854 1.56332 1.52085 1.11664
threshold=461.50000000000006 470.50000000000006 514.50000000000011 489.50000000000006 494.50000000000006 468.50000000000006 463.50000000000006 484.50000000000006 511.50000000000006 472.50000000000006 575.50000000000011 505.50000000000006 482.50000000000006 495.50000000000006 546.50000000000011 486.50000000000006 497.50000000000006 479.50000000000006 520.50000000000011 458.50000000000006 475.50000000000006 465.50000000000006
decision_type=2 2 2 2 2 2 2 2 2 2 2 2 2 2 2 2 2 2 2 2 2 2
left_child=1 16 11 6 18 -6 -2 8 10 -9 -8 -3 15 14 -4 -11 -1 -10 -5 -18 -13 -20
right_child=3 2 13 4 5 -7 7 9 17 12 -12 20 -14 -15 -16 -17 19 -19 21 -21 -22 -23
leaf_value=0.04826902532380617 0.1015324381368876 0.0024908601121148015 -0.039428720707673295 -0.075242320574398808 0.10365286396282858 -0.080666764588766371 -0.068518783736657748 -0.090975259134359429 -0.16642387036364528 0.045022852811364575 0.11929204771331864 0.1369706072451472 -0.016986774430052042 0.032393538422635641 -0.14396362867147128 0.13811509012445153 0.10614795722855966 -0.088199067257044489 -0.15955293085335437 0.15661623346335282 0.088905799152882603 -0.11971341998948393
leaf_weight=11.989150404930113 14.795237258076666 20.750329360365868 12.514164462685587 16.213117673993111 14.509059786796572 12.445976704359053 15.789314538240435 17.187557384371758 15.353793740272524 13.500095307826994 14.639406621456144 15.253854259848596 15.515585422515867 12.431563735008238 14.461276084184645 19.7141173183918 11.747037440538408 14.633994966745375 12.275753811001779 12.853828951716421 11.58130833506584 16.480267703533173
leaf_count=50 63 87 53 69 59 54 65 70 64 55 65 68 66 56 63 85 50 63 54 57 50 74
internal_value=0 0.0391382 0.0114728 -0.0226579 -0.0646726 0.0185468 -0.0012458 -0.0132824 -0.0526585 0.0228078 0.0218379 0.0666308 0.0629403 -0.0551327 -0.0954689 0.100277 0.104912 -0.12825 -0.114555 0.132517 0.116227 -0.136721
internal_weight=0 123.583 86.9925 213.053 71.9242 26.955 141.129 126.334 60.4165 65.9174 30.4287 47.5855 48.7298 39.407 26.9754 33.2142 36.59 29.9878 44.9691 24.6009 26.8352 28.756
internal_count=1440 534 377 906 310 113 596 533 257 276 130 205 206 172 116 140 157 127 197 107 118 128
is_linear=0
shrinkage=0.1


Tree=6
num_leaves=20
num_cat=0
split_feature=18 10 11 7 11 8 8 11 19 0 16 0 11 16 16 18 11 10 0
split_gain=32.5008 30.942 26.0639 22.9195 18.6838 18.3937 15.6424 13.6342 12.6893 13.6528 12.4427 11.1898 32.6619 10.4837 6.22722 3.59617 1.37351 1.13938 0.108988
threshold=472.50000000000006 461.50000000000006 519.50000000000011 483.50000000000006 509.50000000000006 481.50000000000006 503.50000000000006 501.50000000000006 457.50000000000006 484.50000000000006 508.50000000000006 479.50000000000006 505.50000000000006 516.50000000000011 576.50000000000011 426.50000000000006 455.50000000000006 419.50000000000006 491.50000000000006
decision_type=2 2 2 2 2 2 2 2 2 2 2 2 2 2 2 2 2 2 2
left_child=3 2 8 4 6 13 16 -7 -2 -10 -6 12 -5 -3 -15 -13 -1 18 -4
right_child=1 5 17 11 10 7 -8 -9 9 -11 -12 15 -14 14 -16 -17 -18 -19 -20
leaf_value=0.13060666644108779 0.083364043677098598 -0.10860360643793419 0.14516604174484038 -0.11736747813883375 -0.10663450786624656 -0.015029682987016544 -0.018639534656389987 0.10792438068090493 0.047458978527726237 -0.078880724483759407 0.015193450578890681 -0.13922696263994611 0.085733909691211821 0.02694053322275021 -0.067604893841687497 -0.080336294527254742 0.081030845475836083 0.10400802327907746 0.13226024116641241
leaf_weight=11.372008219361307 21.441541090607643 21.037346675992012 16.744498670101169 18.415233820676804 18.193075090646744 20.777608335018158 18.188134148716927 15.935736909508703 17.37164480984211 16.850141033530235 15.547967180609701 19.875611171126366 13.890482902526854 15.588005825877191 12.595631301403044 21.679717689752579 10.988464146852492 12.806002140045164 10.740886121988295
leaf_count=53 91 89 79 85 81 85 75 73 72 70 64 94 57 63 52 97 50 58 52
internal_value=0 0.0283539 0.0673859 -0.0347382 0.00448062 -0.0152295 0.0502273 0.0383396 0.0230447 -0.0147482 -0.0504958 -0.0741846 -0.03004 -0.055186 -0.015313 -0.108503 0.106244 0.128644 0.140123
internal_weight=0 181.889 95.9547 148.151 74.2896 85.9343 40.5486 36.7133 55.6633 34.2218 33.741 73.861 32.3057 49.221 28.1836 41.5553 22.3605 40.2914 27.4854
internal_count=1440 784 422 656 323 362 178 158 233 142 145 333 142 204 115 191 103 189 131
is_linear=0
shrinkage=0.1


Tree=7
num_leaves=21
num_cat=0
split_feature=18 3 5 1 17 3 17 17 0 1 8 1 17 15 18 17 0 18 18 5
split_gain=27.1353 20.6707 19.9202 15.9186 19.2904 10.966 26.7181 20.5773 10.3254 26.4952 10.03 8.40617 6.51285 16.2101 10.4355 5.86376 3.6696 3.03604 2.81518 0.749107
threshold=472.50000000000006 699.50000000000011 512.50000000000011 501.50000000000006 500.50000000000006 436.50000000000006 500.50000000000006 478.50000000000006 479.50000000000006 496.50000000000006 501.50000000000006 506.50000000000006 469.50000000000006 469.50000000000006 557.50000000000011 464.50000000000006 474.50000000000006 426.50000000000006 415.50000000000006 563.50000000000011
decision_type=2 2 2 2 2 2 2 2 2 2 2 2 2 2 2 2 2 2 2 2
left_child=2 5 3 4 -1 7 11 16 9 -4 -5 12 13 14 -7 19 -2 -10 -6 -13
right_child=1 -3 8 10 18 6 -8 -9 17 -11 -12 15 -14 -15 -16 -17 -18 -19 -20 -21
leaf_value=-0.048319195350439326 -0.12515128480465018 0.12999623445849942 -0.10102041482559561 -0.09947778276525393 0.067913152369745974 0.11660487035673738 -0.076909858856356622 0.060082949820861799 -0.1332023982017978 0.08914313121474185 0.013139498514039966 0.098556041665226246 0.075227990939260581 -0.072173994953775605 -0.0074579429192692635 0.029493377045989623 -0.049240975193836148 -0.077764275355653292 0.13341648906463127 0.1336021990987023
leaf_weight=14.524124652147291 11.996504172682764 17.307594045996666 18.773989945650104 17.639938622713093 16.243946313858036 13.564756691455843 19.428246691823006 15.878014653921126 18.754902318120003 12.016226679086683 14.335458055138586 11.302055060863497 21.103137671947479 16.060256987810135 13.555245727300642 10.957915976643561 13.573571860790251 20.872230112552643 11.00700895488262 13.24850684404373
leaf_count=60 50 85 89 80 76 60 85 64 94 50 60 56 89 67 57 50 56 96 51 65
internal_value=0 0.0261613 -0.0322071 0.00411494 0.0447611 0.0149759 0.0303801 -0.029332 -0.0702484 -0.026807 -0.0489883 0.0512681 0.0296972 0.00744529 0.0545952 0.0903193 -0.0848552 -0.104002 0.0943708 0.117468
internal_weight=0 177.976 144.168 73.7505 41.7751 160.668 119.22 41.4481 70.4173 30.7902 31.9754 99.7919 64.2834 43.1803 27.12 35.5085 25.5701 39.6271 27.251 24.5506
internal_count=1440 784 656 327 187 699 529 170 329 139 140 444 273 184 117 171 106 190 127 121
is_linear=0
shrinkage=0.1


Tree=8
num_leaves=22
num_cat=0
split_feature=18 10 1 5 1 17 14 4 5 4 14 1 17 17 17 19 18 18 18 1 1
split_gain=22.7504 23.5254 17.1563 16.5389 12.8992 17.0949 12.7657 18.4706 9.68379 9.64109 9.5744 24.1283 9.4456 7.3409 4.82818 11.6281 3.95404 2.59203 2.56274 0.432867 0.0727047
threshold=471.50000000000006 460.50000000000006 512.50000000000011 512.50000000000011 501.50000000000006 500.50000000000006 477.50000000000006 475.50000000000006 623.50000000000011 474.50000000000006 479.50000000000006 493.50000000000006 482.50000000000006 493.50000000000006 469.50000000000006 481.50000000000006 544.50000000000011 426.50000000000006 415.50000000000006 538.50000000000011 524.50000000000011
decision_type=2 2 2 2 2 2 2 2 2 2 2 2 2 2 2 2 2 2 2 2 2
left_child=3 2 8 4 5 -1 9 -8 14 12 11 -5 -3 -6 15 -2 -11 -12 -7 20 -4
right_child=1 6 19 10 13 18 7 -9 -10 16 17 -13 -14 -15 -16 -17 -18 -19 -20 -21 -22
leaf_value=-0.048271105574814503 0.07690924677647698 -0.064685576287730986 0.12451218503648682 -0.10004675796543594 0.014674254853609042 0.062638258112988898 -0.058604701444619559 0.093527758868017508 -0.051355660814539461 -0.050772001822307289 -0.13326572584900068 0.072073844914670462 0.054427735315012694 -0.084861361732167906 0.097008324330982082 -0.039859565922173025 -0.13108981761297142 -0.077671427719754729 0.12634289513581726 0.10487468898948955 0.13667449208780363
leaf_weight=14.150894701480864 20.653251305222511 13.019893214106562 9.468721613287931 19.446670293807983 12.286355376243593 15.870738700032236 13.112853661179541 20.390438705682755 11.978214934468268 12.337683573365213 15.644986763596533 14.013301044702528 13.623659685254095 18.667274370789528 14.655036911368368 14.52643510699272 12.180883422493933 18.076201677322388 10.487878918647764 9.5431345552206022 10.220281779766081
leaf_count=59 92 55 50 96 50 76 54 96 51 54 84 60 55 88 64 63 53 86 51 50 53
internal_value=0 0.0239444 0.0592297 -0.0302375 0.00325018 0.0403882 -0.0139998 0.0339846 0.0293777 -0.0454221 -0.0658597 -0.0279613 -0.00377931 -0.0453529 0.0487826 0.0286929 -0.0906741 -0.103464 0.0879858 0.122354 0.130825
internal_weight=0 175.71 91.0451 138.644 71.4631 40.5095 84.6654 33.5033 61.8129 51.1621 67.1812 33.46 26.6436 30.9536 49.8347 35.1797 24.5186 33.7212 26.3586 29.2321 19.689
internal_count=1440 790 423 650 324 186 367 150 270 217 326 156 110 138 219 155 107 170 127 153 103
is_linear=0
shrinkage=0.1


Tree=9
num_leaves=21
num_cat=0
split_feature=18 7 1 0 3 9 3 3 1 14 10 10 14 7 0 19 18 18 7 4
split_gain=19.6563 14.1921 14.3547 13.6709 13.3811 13.1624 16.019 10.2046 7.64581 11.0037 6.79315 5.48725 18.3416 10.0179 8.16695 13.0016 4.56686 2.27896 1.41849 0.630144
threshold=448.50000000000006 466.50000000000006 501.50000000000006 485.50000000000006 434.50000000000006 479.50000000000006 699.50000000000011 551.50000000000011 471.50000000000006 478.50000000000006 555.50000000000011 461.50000000000006 477.50000000000006 533.50000000000011 484.50000000000006 456.50000000000006 534.50000000000011 517.50000000000011 498.50000000000006 469.50000000000006
decision_type=2 2 2 2 2 2 2 2 2 2 2 2 2 2 2 2 2 2 2 2
left_child=1 2 3 -1 10 6 11 17 19 -10 18 13 16 14 -6 -16 -13 -7 -2 -3
right_child=4 8 -4 -5 5 7 -8 -9 9 -11 -12 12 -14 -15 15 -17 -18 -19 -20 -21
leaf_value=0.11260159394762817 -0.078771372272147117 -0.13019213755402009 -0.058550601099903427 -0.02690398308410687 0.098786188603677466 0.14547821248952106 0.10731394896650207 0.010172578288030918 0.011279199901174042 -0.099301770281159607 0.022509328821982581 -0.030631680564968313 0.047781881244092161 -0.054430310651015293 0.083860485754470679 -0.069540086637099777 -0.11627840137269137 0.084267971239526451 -0.034639272708181755 -0.097057417365694607
leaf_weight=16.054543092846874 15.186704128980638 10.15239490568638 20.229733914136887 12.488753020763395 17.461739331483841 15.095885351300241 16.50270988047123 12.436082661151884 20.129980444908142 16.273398593068123 16.606422334909439 10.688604593276979 19.730087786912918 12.69278249144554 11.068379431962969 11.032295390963553 14.911129042506216 10.187403842806814 13.994556024670599 13.204368755221365
leaf_count=84 64 57 94 53 80 69 89 62 87 82 69 50 91 57 53 50 67 50 60 72
internal_value=0 -0.0341367 0.00589069 0.0515627 0.0188337 0.0331255 0.0161944 0.084336 -0.0668049 -0.0381538 -0.02855 0.000785039 -0.024675 0.0228708 0.0476713 0.00728543 -0.0805185 0.120815 -0.0576068 -0.11146
internal_weight=0 108.533 48.773 28.5433 197.595 151.807 114.088 37.7194 59.7601 36.4034 45.7877 97.585 45.3298 52.2552 39.5624 22.1007 25.5997 25.2833 29.1813 23.3568
internal_count=1440 529 231 137 911 718 537 181 298 169 193 448 208 240 183 103 117 119 124 129
is_linear=0
shrinkage=0.1


Tree=10
num_leaves=22
num_cat=0
split_feature=6 9 9 13 13 7 10 16 9 10 9 6 10 8 7 6 10 13 10 19 0
split_gain=18.4852 8.22021 7.52898 7.69607 6.92619 9.29716 6.29664 10.1983 5.92213 5.70399 14.3098 13.3854 5.29611 5.86982 7.04444 5.02613 4.1677 3.69416 3.93312 2.15145 1.01188
threshold=450.50000000000006 586.50000000000011 654.50000000000011 577.50000000000011 361.50000000000006 536.50000000000011 611.50000000000011 575.50000000000011 550.50000000000011 472.50000000000006 350.50000000000006 502.50000000000006 546.50000000000011 452.50000000000006 445.50000000000006 522.50000000000011 413.50000000000006 472.50000000000006 394.00000000000006 563.50000000000011 494.50000000000006
decision_type=2 2 2 2 2 2 2 2 2 2 2 2 2 2 2 2 2 2 2 2 2
left_child=2 4 3 20 16 6 7 9 -5 11 -11 -6 13 -12 -15 -7 -2 18 -13 -19 -1
right_child=1 -3 -4 8 5 15 -8 -9 -10 10 12 17 -14 14 -16 -17 -18 19 -20 -21 -22
leaf_value=-0.082604905361590653 0.095225418679822316 -0.054482434134783375 0.031325261703673633 0.015630789243389242 -0.03764451374605824 -0.099330398930923158 0.083496367827464668 -0.054885335090121182 -0.075130780876625058 -0.1033430422276857 0.062928256442431746 0.00383471834113227 0.068155729160336423 0.029967158476331801 -0.064597809329464656 -0.0018632847394450117 0.015149803457410778 0.069232412047288014 0.081301026364546711 0.13249705321214439 -0.12189001935521182
leaf_weight=14.491272494196894 17.294518068432811 16.646605029702187 10.400740668177603 15.753562346100809 14.846973448991774 10.640119776129724 14.071016669273375 19.047968611121178 13.22367215156555 10.57767830789089 12.10161681473255 12.050969213247301 18.021311774849892 15.215303540229799 16.334200963377953 10.523550450801848 10.413366526365278 10.449351310729982 14.368639022111891 11.070117160677908 11.974197268486021
leaf_count=78 91 78 53 80 70 51 67 85 65 50 54 56 81 71 74 50 51 51 70 56 58
internal_value=0 0.0132397 -0.0467479 -0.061394 0.0184342 0.0115999 0.0194616 0.0136139 -0.025788 0.0232763 0.00411717 0.0453235 0.0225481 0.00371902 -0.0189922 -0.0508653 0.0651309 0.0710191 0.0459658 0.101777 -0.100379
internal_weight=0 233.673 65.8434 55.4427 217.027 189.319 168.155 154.084 28.9772 135.036 72.2501 62.7861 61.6724 43.6511 31.5495 21.1637 27.7079 47.9391 26.4196 21.5195 26.4655
internal_count=1440 1106 334 281 1028 886 785 718 145 633 330 303 280 199 145 101 142 233 126 107 136
is_linear=0
shrinkage=0.1


Tree=11
num_leaves=21
num_cat=0
split_feature=9 9 17 11 5 5 18 18 8 8 12 9 12 10 16 5 18 11 8 11
split_gain=13.8238 10.9041 8.78903 8.19255 24.5753 8.36679 6.3311 6.05748 9.77385 8.00412 12.9412 4.78746 4.61067 5.89551 4.49762 4.08001 2.92157 2.70729 2.38848 2.30811
threshold=564.50000000000011 657.00000000000011 418.50000000000006 469.50000000000006 476.50000000000006 388.50000000000006 531.50000000000011 498.50000000000006 514.50000000000011 507.50000000000006 504.50000000000006 425.50000000000006 449.50000000000006 557.50000000000011 484.50000000000006 567.50000000000011 433.50000000000006 540.50000000000011 488.50000000000006 527.50000000000011
decision_type=2 2 2 2 2 2 2 2 2 2 2 2 2 2 2 2 2 2 2 2
left_child=2 12 15 4 6 -5 14 8 17 10 -9 -6 -2 16 -4 -1 -14 -7 -13 -12
right_child=1 -3 3 5 11 7 -8 9 -10 -11 19 18 13 -15 -16 -17 -18 -19 -20 -21
leaf_value=0.017592170645887223 -0.015429276068730706 0.043164675201936759 0.10250359492670205 -0.045611277167923805 -0.03166288435444338 0.015742165354756945 -0.014536621163605719 -0.027692399846304696 -0.058804399745601005 0.11143038734084949 0.048965095544193184 -0.12581054877882469 -0.088883044854331905 -0.13964966282556909 0.022736028957078092 0.10163063538012665 -0.01503747993296663 0.078348322766994632 -0.062201140716633463 0.11173748189062148
leaf_weight=9.6114427149295825 13.584690704941748 11.708932265639303 13.217226415872576 16.38218966126442 15.245974346995352 20.053758174180988 19.161022409796715 20.77178667485714 16.1763516664505 16.480575427412987 11.580099806189539 16.128507211804394 10.957541316747667 12.289559811353682 15.194551184773443 14.480914980173109 10.483230158686636 10.536216542124746 9.3108940571546537 11.853505000472067
leaf_count=50 65 58 64 80 68 94 86 97 79 87 52 78 63 59 67 76 51 50 50 66
internal_value=0 -0.0432367 0.0108684 0.00436683 -0.0189136 0.020959 0.0298856 0.0311083 0.00406155 0.0519513 0.0297765 -0.0759736 -0.0646183 -0.0844289 0.0598441 0.0681042 -0.0527771 0.0373058 -0.102529 0.0807175
internal_weight=0 59.024 236.185 212.093 88.2582 123.834 47.5728 107.452 46.7663 60.686 44.2054 40.6854 47.315 33.7303 28.4118 24.0924 21.4408 30.59 25.4394 23.4336
internal_count=1440 296 1144 1018 413 605 217 525 223 302 215 196 238 173 131 126 114 144 128 118
is_linear=0
shrinkage=0.1


Tree=12
num_leaves=20
num_cat=0
split_feature=18 7 11 8 3 11 14 3 2 13 13 3 0 7 7 8 7 18 8
split_gain=11.86 9.96177 11.0548 13.7204 9.30063 6.52308 8.74419 6.21393 18.3225 10.53 9.22099 7.8757 3.19711 3.19379 6.94395 4.63079 7.90663 1.55676 1.02221
threshold=448.50000000000006 466.50000000000006 510.50000000000006 504.50000000000006 699.50000000000011 479.50000000000006 478.50000000000006 434.50000000000006 495.50000000000006 491.50000000000006 551.50000000000011 551.50000000000011 477.50000000000006 533.50000000000011 516.50000000000011 484.50000000000006 440.50000000000006 515.50000000000011 506.50000000000006
decision_type=2 2 2 2 2 2 2 2 2 2 2 2 2 2 2 2 2 2 2
left_child=1 2 3 -1 7 18 -7 9 10 12 13 17 -2 14 15 -9 -17 -10 -3
right_child=4 5 -4 -5 -6 6 -8 8 11 -11 -12 -13 -14 -15 -16 16 -18 -19 -20
leaf_value=0.1129533908532169 -0.10231493346128638 -0.12016018425114317 -0.047818158575842845 -0.034020417049171622 0.090369294154134777 0.013463843274925634 -0.08789837167539219 -0.044330125305372781 0.1346749191306422 0.029947174722512911 -0.067502097956072621 0.013402810001112198 -0.030282248038003313 -0.038649593158791025 0.090220900253381017 0.070886504728543798 -0.019879210281136327 0.082709811933456778 -0.075328091361855337
leaf_weight=14.861945331096651 12.745475620031359 11.620468854904177 20.715798512101173 11.09226134419441 15.032779946923254 20.023716911673546 14.80213940143585 14.075801551342009 14.156602501869203 20.146989062428474 18.254269152879715 11.712229579687117 11.928299054503439 10.767296776175497 11.604322969913481 18.073515117168427 20.463831171393394 9.7255091220140439 9.0440382808446866
leaf_count=84 57 74 99 48 91 87 82 65 67 85 90 61 51 49 58 87 98 52 55
internal_value=0 -0.0273915 0.0066585 0.05014 0.0149108 -0.0560291 -0.0296184 0.00837855 0.019536 -0.0236927 -0.00376472 0.0805721 -0.0674914 0.0117515 0.0202022 0.00475891 0.0226887 0.113513 -0.100539
internal_weight=0 102.16 46.67 25.9542 188.687 55.4904 34.8259 173.654 128.833 44.8208 93.239 35.5943 24.6738 74.9848 64.2175 52.6131 38.5373 23.8821 20.6645
internal_count=1440 529 231 132 911 298 169 820 627 193 447 180 108 357 308 250 185 119 129
is_linear=0
shrinkage=0.1


Tree=13
num_leaves=23
num_cat=0
split_feature=6 3 7 3 9 16 3 7 7 0 18 5 16 7 0 0 5 5 4 0 3 0
split_gain=12.4625 8.24531 7.9661 7.08905 6.62944 6.62453 7.56852 7.71713 4.86985 8.47495 13.5444 10.1903 9.41704 7.20932 6.27324 4.65725 6.97863 3.3317 3.17841 2.31912 2.13234 0.787515
threshold=450.50000000000006 434.50000000000006 445.50000000000006 347.50000000000006 657.00000000000011 557.50000000000011 699.50000000000011 536.50000000000011 517.50000000000011 482.50000000000006 483.50000000000006 454.50000000000006 464.50000000000006 455.50000000000006 481.50000000000006 494.50000000000006 498.50000000000006 397.50000000000006 468.50000000000006 494.50000000000006 480.50000000000006 492.50000000000006
decision_type=2 2 2 2 2 2 2 2 2 2 2 2 2 2 2 2 2 2 2 2 2 2
left_child=4 2 3 -2 15 6 7 8 9 10 -3 21 -13 -12 -10 16 17 -1 -4 -7 -18 -11
right_child=1 5 18 -5 -6 19 -8 -9 14 11 13 12 -14 -15 -16 -17 20 -19 -20 -21 -22 -23
leaf_value=-0.044693524334926224 0.084554959633467597 0.063059328720397462 -0.081472052070719225 -0.024219622397452577 0.035773720148002772 0.090281722466935777 0.080637009517828512 -0.055942813736816248 0.11103357804063813 0.1025824603249596 -0.10905850466935506 -0.071609452861439535 0.058745993222505226 -0.002850538459384936 0.0033045380525148996 -0.11056763787232081 -0.11805386288108272 0.032525787147437445 -0.021253911519385785 0.030023916220982862 -0.049350504661386296 0.064522828505876553
leaf_weight=9.9161371290683764 10.599589288234712 11.101740151643751 17.527081206440926 13.781537979841231 9.8114056140184385 17.02313752472401 15.016588546335695 17.554047852754593 10.974035590887071 10.678586587309839 16.596963837742809 12.304587930440904 10.08326682448387 10.393510922789572 10.652267664670942 11.324008002877234 9.234270781278612 12.799701839685438 17.533196896314621 10.222366303205488 8.8442043364047986 11.075151965022085
leaf_count=52 50 57 86 60 50 89 94 87 56 51 80 58 51 50 51 60 56 68 79 54 48 53
internal_value=0 0.0110698 -0.0208298 0.0230697 -0.0396345 0.0226546 0.0136642 0.00538099 0.0157457 0.0046412 -0.0299168 0.0344632 -0.0128987 -0.0681599 0.0579705 -0.0538303 -0.0380807 -0.00118273 -0.0513577 0.0676733 -0.0844434 0.0832057
internal_weight=0 223.118 59.4414 24.3811 61.9297 163.676 136.431 121.414 103.86 82.2338 38.0922 44.1416 22.3879 26.9905 21.6263 52.1183 40.7943 22.7158 35.0603 27.2455 18.0785 21.7537
internal_count=1440 1106 275 110 334 831 688 594 507 400 187 213 109 130 107 284 224 120 165 143 104 104
is_linear=0
shrinkage=0.1


Tree=14
num_leaves=22
num_cat=0
split_feature=6 2 10 8 8 10 18 18 16 2 8 19 15 0 10 16 19 8 10 10 16
split_gain=10.3304 7.47626 5.8774 4.5528 4.4558 5.90998 9.67127 7.78855 5.30424 5.64949 3.87295 11.4698 8.21163 7.07087 4.58295 2.81322 3.71932 5.72911 6.58718 1.91035 1.12711
threshold=450.50000000000006 597.50000000000011 643.50000000000011 465.50000000000006 558.50000000000011 472.50000000000006 489.50000000000006 530.50000000000011 484.50000000000006 469.50000000000006 462.50000000000006 547.50000000000011 446.00000000000006 484.50000000000006 382.50000000000006 434.50000000000006 508.50000000000006 510.50000000000006 575.50000000000011 535.50000000000011 559.50000000000011
decision_type=2 2 2 2 2 2 2 2 2 2 2 2 2 2 2 2 2 2 2 2 2
left_child=2 4 3 -1 5 6 -2 15 -9 -10 11 -8 20 -14 -15 -7 17 18 -17 -5 -12
right_child=1 -3 -4 19 -6 7 10 8 9 -11 12 -13 13 14 -16 16 -18 -19 -20 -21 -22
leaf_value=-0.012931890878732985 -0.027882481159488343 -0.063321649760504584 0.022881670407420118 -0.1085222033088966 -0.046838335694402954 0.06950286579235003 -0.061110898199042744 -0.093361303412296759 0.025718812835866217 -0.064052023951528453 0.094312250758782537 0.082069251102549187 0.10133355674959053 -0.040332892019379257 0.054106287755034954 -0.047494328903769568 -0.029541259170262308 0.091493861846469321 0.051583551895884885 -0.056534245336947037 0.14238102157699881
leaf_weight=17.927275091409683 18.582910224795341 13.030874870717524 13.101052716374396 11.556694746017458 11.105897381901739 11.016913160681723 10.078184992074968 10.63513347506523 17.224939286708835 11.821576744318007 9.4775173068046588 12.576965093612669 11.037084110081198 11.390918537974359 9.3617035746574384 12.52607771754265 14.309970378875731 10.897711560130118 14.453029260039328 18.198537416756153 10.05132135003805
leaf_count=94 93 65 69 80 56 57 49 57 78 55 51 67 59 60 53 59 71 50 69 91 57
internal_value=0 0.0101417 -0.0364417 -0.0527412 0.0147764 0.0182776 0.0366116 0.00178418 -0.0329397 -0.0108168 0.0528132 0.0183753 0.0680161 0.0366636 0.00226951 0.0235851 0.0138916 0.0303007 0.00558287 -0.076726 0.119053
internal_weight=0 219.579 60.7836 47.6825 206.548 195.442 92.5566 102.885 39.6816 29.0465 73.9737 22.6552 51.3185 31.7897 20.7526 63.2037 52.1868 37.8768 26.9791 29.7552 19.5288
internal_count=1440 1106 334 265 1041 985 489 496 190 133 396 116 280 172 113 306 249 178 128 171 108
is_linear=0
shrinkage=0.1


Tree=15
num_leaves=21
num_cat=0
split_feature=6 11 2 11 12 2 10 11 11 12 8 8 8 11 6 8 2 2 11 2
split_gain=8.56251 7.502 5.48939 7.67983 8.31606 5.2889 3.60534 12.9249 7.58993 7.0041 8.78421 6.30493 6.26565 5.60919 5.01012 6.01671 4.5658 3.68025 2.77746 1.74448
threshold=450.50000000000006 561.50000000000011 630.00000000000011 518.50000000000011 488.50000000000006 590.50000000000011 575.50000000000011 463.50000000000006 476.50000000000006 502.50000000000006 514.50000000000011 497.50000000000006 465.50000000000006 519.50000000000011 542.50000000000011 531.50000000000011 449.50000000000006 461.50000000000006 443.50000000000006 498.50000000000006
decision_type=2 2 2 2 2 2 2 2 2 2 2 2 2 2 2 2 2 2 2 2
left_child=2 5 3 4 -1 6 8 -8 12 11 13 -10 17 -11 15 18 -13 -2 -14 -3
right_child=1 19 -4 -5 -6 -7 7 -9 9 10 -12 16 14 -15 -16 -17 -18 -19 -20 -21
leaf_value=0.022980529705274658 -0.02699412214944899 0.08726588962480869 0.023588093392947332 -0.10887854409058645 -0.080413942574430186 -0.066125273183624156 0.12736662610486482 -0.030083286589287297 -0.050313822180919114 0.033249156605339635 -0.012923659471445182 0.083114452157483781 -0.019655708671142979 0.12363800592967483 0.041931137569943794 0.035668494682952093 -0.012980499910807165 -0.10279041752447388 -0.09029299508995399 0.036149796788951159
leaf_weight=17.974733084440235 14.114382311701776 11.851330287754537 13.14685073494911 14.868683099746702 13.714074254035948 10.674002178013323 10.012093402445318 10.878436267375944 18.475792020559311 12.336137965321543 14.283125162124632 9.0774756669998187 11.488404259085657 15.481398932635782 17.761198133230209 11.310497388243673 10.859508544206617 11.729398012161253 10.798788532614706 15.290526442229746
leaf_count=93 69 76 70 83 88 55 53 50 90 56 77 54 55 90 82 55 53 60 53 78
internal_value=0 0.00930269 -0.0334734 -0.0495863 -0.0217659 0.00225244 0.00633888 0.0453769 0.00116804 0.0226494 0.0508226 -0.00822852 -0.0212346 0.0835536 -0.00102596 -0.0237349 0.0307723 -0.0613949 -0.0538815 0.0584693
internal_weight=0 216.422 59.7043 46.5575 31.6888 189.281 178.607 20.8905 157.716 80.5134 42.1007 38.4128 77.2027 27.8175 51.3589 33.5977 19.937 25.8438 22.2872 27.1419
internal_count=1440 1106 334 264 181 952 897 103 794 420 223 197 374 146 245 163 107 129 108 154
is_linear=0
shrinkage=0.1


Tree=16
num_leaves=22
num_cat=0
split_feature=1 19 5 11 17 0 11 15 16 13 0 1 5 17 1 5 17 15 11 15 5
split_gain=4.79085 3.73536 3.60782 9.36508 5.09837 3.94744 5.74602 7.51333 4.1288 3.66719 6.39813 5.433 6.38784 5.86868 4.14469 5.17081 4.80249 3.90805 2.8115 5.95887 1.92445
threshold=542.50000000000011 500.50000000000006 635.50000000000011 503.50000000000006 419.50000000000006 495.50000000000006 440.50000000000006 474.50000000000006 575.50000000000011 554.50000000000011 466.50000000000006 504.50000000000006 481.50000000000006 530.50000000000011 474.50000000000006 476.50000000000006 482.50000000000006 524.50000000000011 442.50000000000006 383.50000000000006 506.50000000000006
decision_type=2 2 2 2 2 2 2 2 2 2 2 2 2 2 2 2 2 2 2 2 2
left_child=2 -2 4 -4 -1 8 -7 -8 9 10 -6 12 13 -11 15 -12 20 -17 -10 -20 -16
right_child=1 -3 3 -5 5 6 7 -9 18 11 14 -13 -14 -15 16 17 -18 -19 19 -21 -22
leaf_value=0.051326728522505 0.093940032231331405 0.0078560688542219717 -0.10527351701759742 0.029885295615655699 0.093353669732452058 -0.09980870953492825 0.05932726464848527 -0.057863041583814834 0.015135307030034554 -0.016987521245770659 0.025617524405063805 -0.05503679499583896 -0.039702246138916285 0.087383098835308967 0.080109496621613818 -0.085062385854137557 -0.028622806490187953 0.00086896982014901753 -0.091937176684109681 0.0090328658000279789 0.028892874113063724
leaf_weight=17.766713261604309 9.1886667311191577 11.166133366525171 11.261549927294256 9.4103192463517171 10.774015896022318 9.9543939381837827 9.4486837461590785 12.994681343436239 9.6855150237679464 9.1211244016885775 20.147423937916756 18.981062397360802 15.029593721032141 13.161234252154825 14.717460051178934 11.373007178306581 9.085288964211939 9.898933954536913 13.662533536553385 10.214933060109614 14.62847777456045
leaf_count=99 52 65 61 48 54 48 48 69 52 47 91 99 79 78 83 61 49 55 63 55 84
internal_value=0 0.0467165 -0.00372451 -0.0437461 -0.000137525 -0.0044327 -0.036573 -0.00852578 0.00133674 0.00856594 0.0210178 -0.01148 0.010678 0.0446597 0.0112577 -0.0106879 0.0349096 -0.0450741 -0.0303081 -0.0487415 0.0545788
internal_weight=0 20.3548 251.317 20.6719 230.645 212.878 32.3978 22.4434 180.481 146.918 90.6246 56.293 37.312 22.2824 79.8506 41.4194 38.4312 21.2719 33.563 23.8775 29.3459
internal_count=1440 117 1323 109 1214 1115 165 117 950 780 477 303 204 125 423 207 216 116 170 118 167
is_linear=0
shrinkage=0.1


Tree=17
num_leaves=22
num_cat=0
split_feature=9 9 1 3 10 11 9 3 0 9 1 0 3 18 14 3 16 3 6 6 6
split_gain=7.91686 6.53809 5.41384 4.09554 5.59291 11.1974 5.37044 9.10908 8.02757 4.88735 5.50339 7.42506 9.15803 4.34317 5.78914 3.16411 5.4595 5.44593 3.1632 2.11496 0.316189
threshold=544.50000000000011 657.00000000000011 542.50000000000011 353.50000000000006 461.50000000000006 519.50000000000011 370.50000000000006 553.50000000000011 482.50000000000006 346.50000000000006 520.50000000000011 466.50000000000006 432.50000000000006 530.50000000000011 478.50000000000006 384.50000000000006 557.50000000000011 307.50000000000006 528.50000000000011 434.50000000000006 552.50000000000011
decision_type=2 2 2 2 2 2 2 2 2 2 2 2 2 2 2 2 2 2 2 2 2
left_child=2 15 3 -1 5 6 -5 8 -8 -6 11 -11 -13 14 -14 17 19 -2 -7 -17 -20
right_child=1 -3 -4 4 9 18 7 -9 -10 10 -12 12 13 -15 -16 16 -18 -19 20 -21 -22
leaf_value=0.060969563411669515 -0.0092023369953812932 0.041835057820503833 0.081922449916417062 0.040923595428346546 -0.081553652863402062 0.029874805230141844 -0.044805605091780429 -0.083385482529120994 0.081445620372192926 0.080636856781739999 -0.058595367364831674 -0.064922613764771639 -0.014655331466304451 -0.031868117895433222 0.079701854578421924 -0.084031097576658068 0.030964901143647784 -0.10903705854949142 0.12058660069704226 -0.026275573664358478 0.091477768980575094
leaf_weight=12.93220593780279 8.9501894265413302 11.352953270077704 10.090292461216448 18.80185778439045 9.545966371893881 7.9698548018932369 9.9692575335502642 15.292996592819689 10.178176149725912 11.229231007397173 16.160599641501904 19.069179609417915 10.889747008681299 11.419786579906939 16.138562746345997 10.480937510728838 12.546794898808001 14.027715511620043 8.4414342790842039 16.049261316657066 6.6882036700844756
leaf_count=60 55 58 65 89 52 45 48 80 55 58 87 94 58 54 80 58 66 78 64 86 50
internal_value=0 -0.027938 0.0105957 0.00669965 0.00261438 0.0225539 -0.00227655 -0.0251951 0.0189746 -0.0137129 -0.00608564 0.0062581 -0.00826304 0.0198385 0.0416852 -0.040703 -0.0233876 -0.0701502 0.0808608 -0.0490923 0.107719
internal_weight=0 73.4079 194.817 184.727 171.795 77.3418 54.2423 35.4404 20.1474 94.4531 84.9071 68.7465 57.5173 38.4481 27.0283 62.0549 39.077 22.9779 23.0995 26.5302 15.1296
internal_count=1440 401 1039 974 914 431 272 183 103 483 431 344 286 192 138 343 210 133 159 144 114
is_linear=0
shrinkage=0.1


Tree=18
num_leaves=23
num_cat=0
split_feature=18 3 5 1 3 13 19 1 13 3 2 3 13 13 1 1 2 1 19 19 4 2
split_gain=5.28897 8.74552 7.76391 7.36271 11.1407 14.1216 7.51773 5.50825 7.51532 5.85028 4.65805 11.3246 6.89643 12.9998 9.62701 5.51504 4.74998 3.34944 1.93954 1.85835 1.91546 0.613518
threshold=472.50000000000006 699.50000000000011 512.50000000000011 501.50000000000006 430.50000000000006 557.50000000000011 473.50000000000006 470.50000000000006 491.50000000000006 551.50000000000011 477.50000000000006 436.50000000000006 554.50000000000011 469.50000000000006 494.50000000000006 452.50000000000006 413.50000000000006 472.50000000000006 601.50000000000011 487.50000000000006 478.50000000000006 391.50000000000006
decision_type=2 2 2 2 2 2 2 2 2 2 2 2 2 2 2 2 2 2 2 2 2 2
left_child=2 10 3 4 5 -1 -5 18 9 -9 12 15 13 14 16 -12 -2 21 -4 20 -13 -15
right_child=1 -3 7 6 -6 -7 -8 8 -10 -11 11 19 -14 17 -16 -17 -18 -19 -20 -21 -22 -23
leaf_value=-0.08670700892750717 -0.019459391292790548 0.098754543564354577 -0.054134683861602001 0.036399609955899338 0.1194587650836634 0.069675842463595414 -0.069909314008843759 -0.0091663560366326714 0.024429088002647099 -0.12097738032021295 0.029652270575068054 0.053897872107986779 -0.072704781011590641 0.05358206503059848 0.051380282902137343 -0.066657523988759834 -0.1042711251237854 0.0034899020198624221 -0.11979244401351928 0.03725932763742229 0.11870703526008382 0.086953293443443144
leaf_weight=10.501974418759348 11.650850564241411 10.938526436686514 8.6090240627527255 10.704379811882974 11.523358114063738 12.827386721968649 17.570772171020508 9.2655937522649783 18.34232471883297 9.4546492099761945 11.115012764930727 8.1447059810161644 14.092433437705038 10.155500903725626 9.1164504811167699 12.784678593277929 15.243394926190375 10.661510363221167 9.4242254942655546 10.340881086885927 10.362583272159098 12.041192442178724
leaf_count=50 53 85 66 47 60 77 93 50 87 53 52 44 73 50 54 58 72 59 73 56 74 54
internal_value=0 0.0127383 -0.0156875 0.00825317 0.0390136 -0.000721658 -0.029663 -0.0431184 -0.0210629 -0.0656365 0.00580517 0.0290396 -0.0089676 0.00407474 -0.0374266 -0.0218668 -0.0675299 0.0495578 -0.0884476 0.0712138 0.0901858 0.0716852
internal_weight=0 146.648 118.224 63.1279 34.8527 23.3294 28.2752 55.0958 37.0626 18.7202 135.709 52.7479 82.9613 68.8689 36.0107 23.8997 26.8942 32.8582 18.0332 28.8482 18.5073 22.1967
internal_count=1440 784 656 327 187 127 140 329 190 103 699 284 415 342 179 110 125 163 139 174 118 104
is_linear=0
shrinkage=0.1


Tree=19
num_leaves=22
num_cat=0
split_feature=2 13 2 2 0 1 5 5 13 0 15 13 13 3 1 1 13 13 3 2 1
split_gain=4.79742 5.04321 4.79948 5.30025 4.74665 3.80535 10.0335 6.84552 10.9154 7.35819 6.33359 5.67293 6.22801 4.91832 3.79349 3.47473 3.15995 2.02668 6.37135 1.80783 1.13701
threshold=545.50000000000011 358.50000000000006 634.50000000000011 598.50000000000011 489.50000000000006 467.50000000000006 476.50000000000006 478.50000000000006 480.50000000000006 474.50000000000006 566.50000000000011 474.50000000000006 522.50000000000011 553.50000000000011 508.50000000000006 437.50000000000006 484.50000000000006 606.50000000000011 416.50000000000006 467.50000000000006 510.50000000000006
decision_type=2 2 2 2 2 2 2 2 2 2 2 2 2 2 2 2 2 2 2 2 2
left_child=1 14 3 4 17 6 11 8 -7 16 -11 -3 -13 -10 -1 -8 -9 18 -2 -17 -5
right_child=2 5 -4 20 -6 7 15 9 13 10 -12 12 -14 -15 -16 19 -18 -19 -20 -21 -22
leaf_value=0.0203475006216088 -0.027747960693697005 -0.04671599978270314 0.033429286173907599 -0.10493734849700408 -0.061183118273413772 0.05862126539196677 -0.092806369322446403 0.031989421597138988 -0.0013933701442389117 0.057059744687775915 -0.049946911272345594 0.09514231527905391 0.0039006275292408558 -0.083877022491354133 0.11609388489586306 0.0024826909970284399 0.10991829008279658 -0.024383443545885699 0.088143231356436619 -0.054677310648252687 -0.054573866710830733
leaf_weight=9.7894759327173251 9.8156519979238563 9.4233203828334791 13.422077894210814 8.4885115996003169 14.609811864793299 15.043898046016691 13.073615543544291 7.8204846233129528 13.288240686059 11.025448858737947 11.100073352456091 12.835300981998445 17.933719858527184 15.853779248893259 7.1679431125521651 10.434001721441748 15.548568665981291 11.889297984540461 9.1809415817260724 11.780277743935583 9.4987960755825025
leaf_count=50 58 43 70 57 81 90 69 47 66 60 65 58 98 94 63 52 83 67 50 70 49
internal_value=0 0.0088859 -0.0209006 -0.0323874 -0.014219 0.00355374 -0.0129916 0.0174793 -0.0105552 0.0447073 0.00337596 0.021171 0.0419621 -0.0462659 0.0608197 -0.0519023 0.0838393 0.00799626 0.0282616 -0.0278294 -0.0783412
internal_weight=0 182.118 76.9051 63.483 45.4957 165.161 75.4802 89.6805 44.1859 45.4946 22.1255 40.1923 30.769 29.142 16.9574 35.2879 23.3691 30.8859 18.9966 22.2143 17.9873
internal_count=1440 1008 432 362 256 895 390 505 250 255 125 199 156 160 113 191 130 175 108 122 106
is_linear=0
shrinkage=0.1


Tree=20
num_leaves=23
num_cat=0
split_feature=3 2 12 13 2 7 19 12 15 3 8 3 13 8 3 2 2 13 3 15 3 0
split_gain=4.1846 2.79727 3.9194 3.7581 11.0397 4.67571 5.18711 4.99241 5.32748 3.7169 4.75884 5.00249 2.86696 3.63099 12.9585 3.58766 3.11004 2.8896 2.57676 1.76181 1.73952 0.751903
threshold=699.50000000000011 545.50000000000011 469.50000000000006 398.50000000000006 468.50000000000006 536.50000000000011 650.50000000000011 553.50000000000011 541.50000000000011 384.50000000000006 491.50000000000006 507.50000000000006 446.50000000000006 484.50000000000006 455.50000000000006 470.50000000000006 412.50000000000006 527.50000000000011 392.50000000000006 562.50000000000011 508.50000000000006 474.50000000000006
decision_type=2 2 2 2 2 2 2 2 2 2 2 2 2 2 2 2 2 2 2 2 2 2
left_child=1 3 18 4 -1 6 7 8 12 -4 -11 -12 -5 14 17 -15 -16 -14 -3 -2 -6 -10
right_child=19 2 9 5 20 -7 -8 -9 21 10 11 -13 13 15 16 -17 -18 -19 -20 -21 -22 -23
leaf_value=-0.045629115725375091 0.092228644275564875 -0.014855999229918758 -0.079657301117641577 -0.038143554402279324 0.056450656197983784 -0.060836056817764418 0.070450743154140377 0.057223251426265526 -0.03871295998754571 0.022904077783906192 -0.0032942122752889465 -0.10578576401368772 0.0075935456876666434 0.065221397897931077 -0.11551401181009065 -0.0056103859474901131 -0.034209123051148982 0.080937398002744743 0.046998187619225695 0.017767610699522537 0.11958589630714334 -0.079486269579198021
leaf_weight=10.019097298383715 6.5229073464870435 15.933349788188936 13.869816489517687 15.647838100790976 9.3363055884838122 12.434750877320765 10.58143527060747 12.424490906298159 9.017740763723852 15.44452967494726 10.07454087585211 9.0313316956162435 11.128477960824968 17.280169785022739 8.447064012289049 12.198903456330298 10.619231835007666 10.384023949503897 11.666296623647211 6.1959581524133682 8.1941744238138181 9.0737471133470518
leaf_count=52 56 87 90 82 50 72 59 70 56 76 63 56 51 86 51 59 52 52 58 44 64 54
internal_value=0 -0.0028871 -0.0187855 0.00435924 0.0381053 -0.00231776 0.00342075 -0.00268201 -0.00985266 -0.0359285 -0.0183741 -0.0517419 0.000556133 0.00919994 -0.0102041 0.0359101 -0.0702302 0.0429964 0.0112896 0.0559552 0.0859616 -0.0591627
internal_weight=0 242.807 76.0199 166.787 27.5496 139.238 126.803 116.222 103.797 48.4202 34.5504 19.1059 85.7057 70.0579 40.5788 29.4791 19.0663 21.5125 27.5996 12.7189 17.5305 18.0915
internal_count=1440 1340 430 910 166 744 672 613 543 285 195 119 433 351 206 145 103 103 145 100 114 110
is_linear=0
shrinkage=0.1


Tree=21
num_leaves=21
num_cat=0
split_feature=9 9 17 7 19 10 17 4 17 16 9 19 7 0 9 9 9 10 7 16
split_gain=4.42773 5.19164 3.79109 4.07943 4.55431 4.07666 4.26801 6.64459 4.63821 4.14379 7.66854 4.25443 5.66376 3.70467 3.45326 3.24333 2.33791 3.96388 3.82659 0.965938
threshold=545.50000000000011 657.00000000000011 421.50000000000006 536.50000000000011 668.50000000000011 627.50000000000011 511.50000000000006 475.50000000000006 469.50000000000006 473.50000000000006 419.50000000000006 558.50000000000011 456.50000000000006 482.50000000000006 461.50000000000006 439.50000000000006 586.50000000000011 495.50000000000006 474.50000000000006 565.50000000000011
decision_type=2 2 2 2 2 2 2 2 2 2 2 2 2 2 2 2 2 2 2 2
left_child=2 16 14 4 5 6 7 8 -4 10 11 12 -9 -11 -1 -8 18 -18 -2 -19
right_child=1 -3 3 -5 -6 -7 15 9 -10 13 -12 -13 -14 -15 -16 -17 17 19 -20 -21
leaf_value=0.0014843094891516038 0.014340701755711838 0.040791252984631987 -0.071370945251341383 -0.044412285976597465 0.073198351238401779 0.068856812771723105 -0.078069138551301306 0.045391957650705056 0.0036519898660119701 0.0088411434417361521 -0.065245934610409284 0.077468527362980127 -0.057583976469398827 0.083533481395379028 0.087287957876977157 -0.0018659819587827282 0.007431453913121085 -0.10615362888355782 -0.056439916512457722 -0.060419862448324306
leaf_weight=8.2486766427755374 18.179149776697162 11.147261932492254 14.763127982616423 16.200994171202183 10.118250638246534 8.9777480363845807 11.351618304848673 13.114380203187467 18.652176335453987 10.844260327517988 11.420987293124197 11.965801097452639 9.0111307948827726 17.129828654229641 10.873564891517161 10.995213977992533 7.155066758394244 8.0697480067610758 13.172614470124243 10.797552108764647
leaf_count=51 99 58 72 96 58 50 70 85 82 58 68 73 47 93 77 65 45 47 83 63
internal_value=0 -0.0216559 0.00813089 0.00323319 0.00843665 0.00369605 -0.000830093 0.00747827 -0.0294937 0.0242899 0.00567299 0.0294317 0.0034526 0.0545787 0.0502752 -0.0405752 -0.0337889 -0.055946 -0.0153982 -0.0799807
internal_weight=0 68.5214 183.668 164.546 148.345 138.226 129.249 106.902 33.4153 73.4864 45.5123 34.0913 22.1255 27.9741 19.1222 22.3468 57.3741 26.0224 31.3518 18.8673
internal_count=1440 395 1045 917 821 763 713 578 154 424 273 205 132 151 128 135 337 155 182 110
is_linear=0
shrinkage=0.1


Tree=22
num_leaves=22
num_cat=0
split_feature=6 8 17 4 17 9 9 19 9 17 8 12 4 7 12 6 8 7 19 14 6
split_gain=4.66452 3.91709 4.13519 4.3009 8.03788 5.36508 3.84711 3.74525 3.671 5.79885 3.99957 4.246 2.82802 3.49536 3.6095 3.82972 8.29538 7.17559 6.06328 7.15115 3.55136
threshold=450.50000000000006 559.50000000000011 414.50000000000006 472.50000000000006 487.50000000000006 510.50000000000006 549.50000000000011 334.50000000000006 625.50000000000011 502.50000000000006 442.50000000000006 427.50000000000006 496.50000000000006 536.50000000000011 553.50000000000011 520.50000000000011 484.50000000000006 454.50000000000006 482.50000000000006 472.50000000000006 543.50000000000011
decision_type=2 2 2 2 2 2 2 2 2 2 2 2 2 2 2 2 2 2 2 2 2
left_child=8 2 -2 4 7 -6 12 -4 9 -1 -11 -12 13 14 15 18 17 -17 -5 -20 -18
right_child=1 -3 3 6 5 -7 -8 -9 -10 10 11 -13 -14 -15 -16 16 20 -19 19 -21 -22
leaf_value=-0.097401716840164659 0.063460247266342681 -0.056707114461898557 -0.015031118784438989 0.10137528328771556 0.08239605970042499 -0.021190920633002885 0.070346429324395734 -0.092487830048117572 0.018648950563931472 -0.072629006570174862 -0.048452282450442141 0.048023933085592482 0.062520277521784864 -0.045481902936004112 0.057018841121235134 -0.11002731618612885 -0.018538614858228369 0.0070186194243572093 0.069547148011076379 -0.039123093357188513 0.058808835796929651
leaf_weight=12.618689954280851 13.59150332957506 9.1379920393228513 11.29602897167206 8.6035450696945173 9.3343518897891062 10.767662793397902 11.655627742409704 13.954005442559717 13.724026694893835 8.4961177036166209 7.5478820949792889 11.530999422073362 9.442238971590994 11.973652467131613 14.911340884864329 12.430408217012884 10.603718645870687 9.0519165843725187 10.066773250699045 15.197411455214022 13.485523186624048
leaf_count=94 95 51 52 46 45 59 61 78 78 51 46 65 73 67 86 71 61 49 56 80 76
internal_value=0 0.00721662 0.010351 0.00617306 -0.0202732 0.0269096 0.0155858 -0.0578363 -0.0260055 -0.0412526 -0.015558 0.00985654 0.0100724 0.00541468 0.0118738 0.0033997 -0.0155286 -0.0607082 0.0288691 0.00417768 0.0247617
internal_weight=0 195.504 186.366 172.774 45.352 20.102 127.422 25.25 53.9177 40.1937 27.575 19.0789 115.767 106.324 94.3506 79.4393 45.5716 21.4823 33.8677 25.2642 24.0892
internal_count=1440 1106 1055 960 234 104 726 130 334 256 162 111 665 592 525 439 257 120 182 136 137
is_linear=0
shrinkage=0.1


Tree=23
num_leaves=23
num_cat=0
split_feature=9 9 1 3 19 13 19 3 19 0 15 7 0 1 3 15 19 3 3 15 0 0
split_gain=3.49543 4.93025 3.86388 3.33065 8.56146 6.76362 6.18584 2.58085 2.53345 2.05062 7.77315 4.18961 8.36036 6.10606 5.92103 4.90681 4.52902 2.03623 3.27119 1.63767 0.894774 1.17264
threshold=564.50000000000011 657.00000000000011 542.50000000000011 325.50000000000006 280.50000000000006 398.50000000000006 460.50000000000006 383.50000000000006 436.50000000000006 492.50000000000006 473.50000000000006 455.50000000000006 479.50000000000006 489.50000000000006 456.50000000000006 589.50000000000011 537.50000000000011 616.50000000000011 518.50000000000011 426.50000000000006 470.50000000000006 488.50000000000006
decision_type=2 2 2 2 2 2 2 2 2 2 2 2 2 2 2 2 2 2 2 2 2 2
left_child=2 8 3 -1 -5 6 -6 -7 -2 11 -11 12 14 15 -9 16 -13 18 -15 -14 -10 -22
right_child=1 -3 -4 4 5 7 -8 9 20 10 -12 13 19 17 -16 -17 -18 -19 -20 -21 21 -23
leaf_value=0.060974454255889592 -0.0034828142494598177 0.034807612239375021 0.066448531356041438 -0.092347835736498296 0.10061513296552851 -0.044414310455380697 -0.005697962214734364 0.0092459413290951527 -0.087293512435818926 0.054776252079651339 -0.065519646979385254 -0.031379752643688426 0.0058122088632740505 0.08219287532908566 -0.095217996189012 -0.061936372564200752 0.057689259200692247 0.094239039836745322 0.0032264363102834752 0.065350337929513044 -0.022811590098819556 -0.072989737065896315
leaf_weight=9.3369437903165799 12.509933792054651 11.206312134861944 10.043090656399725 9.5596210211515409 13.040351159870626 13.615219429135321 9.431269630789755 8.5438562631607073 7.5251638963818577 8.0954545587301272 15.963835820555685 9.935116648674013 10.256102859973909 9.4640035554766708 14.867425262928007 10.713462449610232 13.420529045164583 9.4417184293270093 11.770094275474547 8.4068765938281995 9.883979372680189 8.8072272166609746
leaf_count=47 67 58 74 46 90 72 55 49 48 45 95 48 54 52 93 70 70 68 64 52 62 61
internal_value=0 -0.023606 0.00603272 0.00276814 -0.000310571 0.00495903 0.0559959 -0.0029782 -0.0405093 0.00133238 -0.0250426 0.00727291 -0.0172944 0.0232379 -0.0570943 -0.00590254 0.0198007 0.0556017 0.0384217 0.0326316 -0.0581776 -0.0464553
internal_weight=0 49.9326 195.905 185.862 176.525 166.965 22.4716 144.494 38.7263 130.878 24.0593 106.819 42.0743 64.7449 23.4113 34.0691 23.3556 30.6758 21.2341 18.663 26.2164 18.6912
internal_count=1440 296 1144 1070 1023 977 145 832 238 760 140 620 248 372 142 188 118 184 116 106 171 123
is_linear=0
shrinkage=0.1


Tree=24
num_leaves=23
num_cat=0
split_feature=1 3 3 19 3 13 15 14 3 7 14 3 13 19 13 19 14 2 3 15 2 1
split_gain=3.08048 3.28274 2.62496 5.99293 4.29101 6.57893 5.22658 9.69283 10.3951 7.73505 7.452 10.7648 5.1537 5.01141 4.43402 5.05034 4.92434 4.28227 4.35989 7.7134 3.99919 1.8472
threshold=554.50000000000011 699.50000000000011 288.50000000000006 278.50000000000006 383.50000000000006 533.50000000000011 470.50000000000006 477.50000000000006 436.50000000000006 436.50000000000006 482.50000000000006 553.50000000000011 451.50000000000006 363.50000000000006 551.50000000000011 548.50000000000011 476.50000000000006 461.50000000000006 518.50000000000011 600.50000000000011 463.50000000000006 475.50000000000006
decision_type=2 2 2 2 2 2 2 2 2 2 2 2 2 2 2 2 2 2 2 2 2 2
left_child=1 2 -1 -4 5 13 7 9 -9 -6 14 -12 20 -5 15 -8 -17 -16 19 -19 -10 -13
right_child=-2 -3 3 4 6 -7 10 8 12 -11 11 21 -14 -15 17 16 -18 18 -20 -21 -22 -23
leaf_value=0.039809991666479062 0.058433708764011563 0.053232537129964966 -0.084285653349875339 -0.011795327904248571 -0.095322834001950352 0.022008684252119538 -0.02648165931891874 -0.047795187032933333 -0.0085332728372717742 0.018810214117104866 0.03362436656258367 -0.055443892816083779 0.13023105902005858 -0.1143203331813222 -0.073162166493674574 0.096123842000594165 2.3786315307707782e-05 0.041160384773886012 0.063029567202943296 -0.085384344825566061 0.083235408513846754 -0.11266237676961761
leaf_weight=12.505374953150747 8.7014836817979795 10.228245154023169 9.65944706648588 8.0235539823770576 9.486349783837797 11.653658382594584 9.5893113613128644 7.9329600483179084 7.6324529126286533 15.874954327940939 10.549817681312559 9.8226248882710951 12.513832651078699 11.748697396367787 9.748805418610571 14.204062275588514 8.5367937833070737 9.5614081546664291 8.6029230356216413 9.7068572863936406 12.569058164954184 13.256729215383528
leaf_count=72 58 89 47 38 52 67 52 38 41 82 65 55 68 77 62 83 52 62 46 56 97 81
internal_value=0 -0.00216461 -0.00470345 -0.00734571 -0.00364848 -0.0375892 0.00264094 0.0246319 0.0549 -0.023881 -0.0113735 -0.050058 0.079802 -0.0727158 0.00722434 0.0343831 0.0600484 -0.0161156 0.00383823 -0.0225896 0.0485637 -0.0883101
internal_weight=0 233.408 223.18 210.674 201.015 31.4259 169.589 66.0096 40.6483 25.3613 103.579 33.6292 32.7153 19.7723 69.9502 32.3302 22.7409 37.62 27.8712 19.2683 20.2015 23.0794
internal_count=1440 1382 1293 1221 1174 182 992 378 244 134 614 201 206 115 413 187 135 226 164 118 138 136
is_linear=0
shrinkage=0.1


Tree=25
num_leaves=21
num_cat=0
split_feature=2 1 3 3 14 3 15 0 2 11 15 16 19 4 0 15 14 2 1 11
split_gain=2.70274 4.63818 3.11752 3.1272 2.92908 2.41646 8.98775 5.71242 6.93436 4.775 3.69228 2.77037 2.30657 2.38491 5.43923 4.55754 4.15705 4.0803 1.84063 1.7359
threshold=521.50000000000011 421.50000000000006 402.50000000000006 699.50000000000011 465.50000000000006 429.50000000000006 454.00000000000006 473.50000000000006 578.50000000000011 550.50000000000011 519.50000000000011 564.50000000000011 307.50000000000006 488.50000000000006 491.50000000000006 509.50000000000006 473.50000000000006 438.50000000000006 461.50000000000006 492.50000000000006
decision_type=2 2 2 2 2 2 2 2 2 2 2 2 2 2 2 2 2 2 2 2
left_child=1 -1 -3 12 -2 7 -7 11 -9 10 -8 -6 -4 14 15 16 -14 19 -17 -15
right_child=4 2 3 -5 5 6 9 8 -10 -11 -12 -13 13 17 -16 18 -18 -19 -20 -21
leaf_value=-0.049552390552270675 -0.07002458414797659 0.061500329821138268 -0.040738838146413651 0.061956751139409051 0.058530276195727642 0.09568670721153355 0.06886935928857689 -0.11871453017458972 -0.0081756204699203628 -0.060001250231537864 -0.015479464109418879 -0.017273890632232457 -0.058775127610763624 -0.015591991186922402 0.076718417448694412 0.0046213997659528732 0.014842547980530561 -0.060538471367873742 0.063663773262151599 0.04719889340345429
leaf_weight=12.405100502073763 8.200759604573248 12.705113947391508 10.308000117540358 10.286634389311073 8.3261159211397189 9.3777841329574567 8.0182494446635264 10.46259678155184 12.402538258582352 13.976846031844614 14.710955716669558 11.452823743224142 14.429668419063093 8.8365728706121498 13.30688067153096 8.8196220844984072 16.374985601752996 11.676315966993569 13.156386218965052 8.7749773040413839
leaf_count=61 43 63 54 94 54 58 42 57 81 86 91 69 87 45 88 58 96 74 79 60
internal_value=0 0.00884424 0.014474 0.00932208 -0.0128448 -0.00755986 0.00831517 -0.0247154 -0.0587559 -0.0140068 0.0142765 0.0146365 0.00419891 0.0090557 0.0195826 0.00517775 -0.0196418 -0.0146981 0.0399683 0.0156936
internal_weight=0 141.08 128.675 115.97 96.9287 88.7279 46.0838 42.6441 22.8651 36.7061 22.7292 19.7789 105.683 95.3754 66.0875 52.7807 30.8047 29.2879 21.976 17.6116
internal_count=1440 859 798 735 581 538 277 261 138 219 133 123 641 587 408 320 183 179 137 105
is_linear=0
shrinkage=0.1


Tree=26
num_leaves=21
num_cat=0
split_feature=6 5 5 8 2 5 8 17 17 17 16 0 5 0 15 8 15 8 12 5
split_gain=2.98046 3.71538 7.69543 6.27858 3.42356 3.572 3.46361 5.67473 2.55858 1.87166 2.87073 4.36249 3.09749 3.33139 2.29104 2.17221 4.12508 2.05419 1.72956 1.5399
threshold=450.50000000000006 386.50000000000006 514.50000000000011 491.50000000000006 597.50000000000011 645.50000000000011 558.50000000000011 419.50000000000006 540.50000000000011 516.50000000000011 576.50000000000011 466.50000000000006 472.50000000000006 489.50000000000006 408.50000000000006 518.50000000000011 478.50000000000006 482.50000000000006 446.50000000000006 453.50000000000006
decision_type=2 2 2 2 2 2 2 2 2 2 2 2 2 2 2 2 2 2 2 2
left_child=1 -1 18 -4 5 6 7 -2 9 10 11 -9 13 14 -13 16 -14 -18 -3 -12
right_child=4 2 3 -5 -6 -7 -8 8 -10 -11 19 12 15 -15 -16 -17 17 -19 -20 -21
leaf_value=-0.07717656203571438 0.086143106855209359 0.069337054215363708 -0.0069159098531593882 -0.11668860158102799 -0.047292977486258818 -0.049920327907784875 -0.045805206195773933 0.071479474380205174 0.064202061235425947 -0.027094069351243179 -0.047607318091079001 -0.012174214814986359 -0.05167367097908513 0.069406962834727554 0.047075281148312546 -0.037234613304663607 0.065299269600235105 0.0029557445534263609 0.0099881066774766825 0.0088679448437016944
leaf_weight=9.6545968279242498 10.880427520722149 8.9722171425819415 13.583936579525473 8.4526150710880739 11.334423489868639 9.577204726636408 9.4639640748500806 13.530263330787418 8.5722003728151304 13.756172157824038 11.139352083206179 17.488178901374344 8.2177440449595469 14.220408871769903 10.411651622503994 16.035597294569016 9.8214821368455905 11.442792788147925 10.846230149269102 8.5215728953480703
leaf_count=58 88 54 77 82 65 55 54 78 52 87 54 88 46 89 71 94 70 63 63 52
internal_value=0 -0.021257 -0.00835811 -0.0490217 0.00595039 0.00943713 0.012914 0.0165217 0.0112302 0.00785628 0.0118353 0.0186303 0.010471 0.0300146 0.0099365 -0.00761381 0.00849727 0.0317508 0.0368566 -0.0231294
internal_weight=0 51.5096 41.855 22.0366 184.413 173.079 163.502 154.038 143.157 134.585 120.829 101.168 87.6379 42.1202 27.8998 45.5176 29.482 21.2643 19.8184 19.6609
internal_count=1440 334 276 159 1106 1041 986 932 844 792 705 599 521 248 159 273 179 133 117 106
is_linear=0
shrinkage=0.1


Tree=27
num_leaves=24
num_cat=0
split_feature=6 7 10 15 10 19 13 19 3 13 2 2 17 2 6 19 6 13 7 7 2 15 6
split_gain=2.47761 3.23959 5.84442 3.34574 2.85431 3.07636 3.74982 7.75758 4.62062 6.08793 8.26764 4.03806 3.51141 4.54092 4.52943 3.23949 3.67884 3.2215 2.72405 2.28965 1.28786 0.859354 0.657726
threshold=450.50000000000006 416.50000000000006 604.50000000000011 655.50000000000011 633.00000000000011 264.50000000000006 398.50000000000006 453.50000000000006 434.50000000000006 474.50000000000006 499.50000000000006 534.50000000000011 511.50000000000006 457.50000000000006 504.50000000000006 557.50000000000011 534.50000000000011 489.50000000000006 445.50000000000006 485.50000000000006 631.50000000000011 355.50000000000006 543.50000000000011
decision_type=2 2 2 2 2 2 2 2 2 2 2 2 2 2 2 2 2 2 2 2 2 2 2
left_child=1 -1 3 19 5 -2 7 21 9 -8 -11 12 14 -14 -10 16 -16 18 -18 -3 -21 -7 -17
right_child=4 2 -4 -5 -6 6 8 -9 11 10 -12 -13 13 -15 15 22 17 -19 -20 20 -22 -23 -24
leaf_value=-0.079968544939309952 -0.056443746567404342 -0.016501023947462553 0.038718855169641131 0.017373337152940878 0.058492291852569045 0.05878761296543044 -0.093679254268130341 -0.016149405539902989 -0.035298088928662125 0.058838487856541437 -0.058871661209859552 0.057891553412753427 -0.081952109820873767 0.018003971166884271 0.0629562734510411 0.045113998639274136 0.056886867937935043 -0.061664183698711329 -0.019667578324144272 -0.12055125201947731 -0.054103834964822767 0.10694467753886848 0.087281222782266063
leaf_weight=7.5571172535419455 8.4276714250445348 7.3658152520656648 16.082128137350082 7.8671130388975135 9.6042144671082479 6.2978308685123947 11.169317577034233 13.865548156201838 15.697652034461496 11.123400785028936 12.871868848800657 14.680013686418532 10.235352776944639 8.1748890280723554 9.6962420195341092 7.6383507512509805 8.2484881281852775 8.0897055640816671 10.648727744817732 5.901557117700575 5.7673689946532249 9.0024453215301019 7.1726534217596054
leaf_count=46 43 43 97 47 51 42 68 91 88 51 71 78 69 48 62 52 53 49 63 64 37 76 51
internal_value=0 -0.0195879 -0.0089722 -0.0374823 0.00542952 0.00248439 0.00550133 0.0380266 -0.00150236 -0.032693 -0.00430519 0.00943487 0.00112496 -0.0375676 0.0117265 0.0260617 0.0101243 -0.00885796 0.0137478 -0.0601542 -0.0877096 0.0871225 0.0655347
internal_weight=0 50.5411 42.984 26.9019 182.644 173.04 164.612 29.1658 135.447 35.1646 23.9953 100.282 85.6021 18.4102 67.1918 51.4942 36.6832 26.9869 18.8972 19.0347 11.6689 15.3003 14.811
internal_count=1440 334 288 191 1106 1055 1012 209 803 190 122 613 535 117 418 330 227 165 116 144 101 118 103
is_linear=0
shrinkage=0.1


Tree=28
num_leaves=22
num_cat=0
split_feature=4 11 8 17 19 9 10 17 17 9 17 15 12 15 11 17 12 8 19 0 15
split_gain=2.28928 3.05219 3.95536 4.26365 3.98035 3.93704 4.80113 3.29035 5.74572 7.69055 4.72486 3.18593 2.33661 4.59897 3.84799 4.00348 8.06287 9.12339 5.58785 5.83295 2.14331
threshold=459.50000000000006 473.50000000000006 558.50000000000011 531.50000000000011 641.00000000000011 570.50000000000011 555.50000000000011 427.50000000000006 462.50000000000006 433.50000000000006 494.50000000000006 436.50000000000006 575.50000000000011 580.50000000000011 502.50000000000006 471.50000000000006 481.50000000000006 470.50000000000006 482.50000000000006 486.50000000000006 451.50000000000006
decision_type=2 2 2 2 2 2 2 2 2 2 2 2 2 2 2 2 2 2 2 2 2
left_child=-1 5 3 12 -5 6 7 -2 -9 10 -10 -8 14 -14 20 18 17 -17 19 -16 -3
right_child=1 2 -4 4 -6 -7 11 8 9 -11 -12 -13 13 -15 15 16 -18 -19 -20 -21 -22
leaf_value=0.047272560432068442 0.032168525381550205 0.086626124054376821 -0.060285802108373393 -0.070257815265156009 0.015612278156813845 -0.076369012977296619 -0.0027643353678516234 -0.086609587990199591 0.058184813718909933 -0.072360657181599841 -0.036177735060142123 0.082917143709229105 0.0031709178622348791 0.10681397132119488 -0.0096581017947734802 -0.13598881151318698 0.036490449495284204 -0.0023053715482606288 -0.021289684235771145 0.1067344778087147 0.020077788555614449
leaf_weight=9.8060789555311185 9.2516507357358915 9.5186115726828593 8.1082026660442335 11.129497744143011 10.482120126485823 9.8100523278117162 9.3449240401387232 14.196474179625509 14.471780799329283 13.168720062822102 8.378274165093897 8.1024732887744886 8.7364038713276404 8.3957557044923288 6.8463685661554399 9.1041947007179278 14.347879361361263 11.621884260326622 13.408852308988569 11.602193854749201 9.8453123867511732
leaf_count=59 56 50 49 68 51 81 45 74 80 98 52 55 61 48 43 53 96 76 95 94 56
internal_value=0 -0.00211033 0.00739846 0.0117875 -0.0286089 -0.0167091 -0.00909979 -0.0226328 -0.0327294 -0.0114931 0.0235855 0.0370257 0.0202285 0.053962 0.0135314 0.00217327 -0.0211354 -0.0610275 0.0278353 0.0635405 0.0527906
internal_weight=0 219.872 133.147 125.039 21.6116 86.7243 76.9143 59.4669 50.2152 36.0188 22.8501 17.4474 103.427 17.1322 86.2953 66.9314 35.074 20.7261 31.8574 18.4486 19.3639
internal_count=1440 1381 840 791 119 541 460 360 304 230 132 100 672 109 563 457 225 129 232 137 106
is_linear=0
shrinkage=0.1


end of trees

feature_importances:
Column_3=54
Column_1=43
Column_8=42
Column_13=39
Column_17=37
Column_2=34
Column_11=34
Column_19=34
Column_0=32
Column_10=30
Column_18=30
Column_7=29
Column_9=28
Column_6=26
Column_15=26
Column_5=24
Column_16=19
Column_12=17
Column_14=15
Column_4=14

parameters:
[boosting: gbdt]
[objective: binary]
[metric: custom]
[tree_learner: serial]
[device_type: cpu]
[data: ]
[valid: ]
[num_iterations: 10000]
[learning_rate: 0.1]
[num_leaves: 95]
[num_threads: 0]
[deterministic: 0]
[force_col_wise: 0]
[force_row_wise: 0]
[histogram_pool_size: -1]
[max_depth: -1]
[min_data_in_leaf: 50]
[min_sum_hessian_in_leaf: 0.001]
[bagging_fraction: 0.8]
[pos_bagging_fraction: 1]
[neg_bagging_fraction: 1]
[bagging_freq: 0]
[bagging_seed: 11149]
[feature_fraction: 0.5]
[feature_fraction_bynode: 1]
[feature_fraction_seed: 21351]
[extra_trees: 0]
[extra_seed: 16806]
[early_stopping_round: 0]
[first_metric_only: 0]
[max_delta_step: 0]
[lambda_l1: 0]
[lambda_l2: 0]
[linear_lambda: 0]
[min_gain_to_split: 0]
[drop_rate: 0.1]
[max_drop: 50]
[skip_drop: 0.5]
[xgboost_dart_mode: 0]
[uniform_drop: 0]
[drop_seed: 2965]
[top_rate: 0.2]
[other_rate: 0.1]
[min_data_per_group: 100]
[max_cat_threshold: 32]
[cat_l2: 10]
[cat_smooth: 10]
[max_cat_to_onehot: 4]
[top_k: 20]
[monotone_constraints: ]
[monotone_constraints_method: basic]
[monotone_penalty: 0]
[feature_contri: ]
[forcedsplits_filename: ]
[refit_decay_rate: 0.9]
[cegb_tradeoff: 1]
[cegb_penalty_split: 0]
[cegb_penalty_feature_lazy: ]
[cegb_penalty_feature_coupled: ]
[path_smooth: 0]
[interaction_constraints: ]
[verbosity: -1]
[saved_feature_importance_type: 0]
[linear_tree: 0]
[max_bin: 255]
[max_bin_by_feature: ]
[min_data_in_bin: 3]
[bin_construct_sample_cnt: 200000]
[data_random_seed: 179]
[is_enable_sparse: 1]
[enable_bundle: 1]
[use_missing: 1]
[zero_as_missing: 0]
[feature_pre_filter: 1]
[pre_partition: 0]
[two_round: 0]
[header: 0]
[label_column: ]
[weight_column: ]
[group_column: ]
[ignore_column: ]
[categorical_feature: ]
[forcedbins_filename: ]
[precise_float_parser: 0]
[parser_config_file: ]
[objective_seed: 26397]
[num_class: 1]
[is_unbalance: 0]
[scale_pos_weight: 1]
[sigmoid: 1]
[boost_from_average: 1]
[reg_sqrt: 0]
[alpha: 0.9]
[fair_c: 1]
[poisson_max_delta_step: 0.7]
[tweedie_variance_power: 1.5]
[lambdarank_truncation_level: 30]
[lambdarank_norm: 1]
[label_gain: ]
[lambdarank_position_bias_regularization: 0]
[eval_at: ]
[multi_error_top_k: 1]
[auc_mu_weights: ]
[num_machines: 1]
[local_listen_port: 12400]
[time_out: 120]
[machine_list_filename: ]
[machines: ]
[gpu_platform_id: -1]
[gpu_device_id: -1]
[gpu_use_dp: 0]
[num_gpu: 1]

end of parameters

pandas_categorical:null
