tree
version=v4
num_class=1
num_tree_per_iteration=1
label_index=0
max_feature_idx=19
objective=binary sigmoid:1
feature_names=Column_0 Column_1 Column_2 Column_3 Column_4 Column_5 Column_6 Column_7 Column_8 Column_9 Column_10 Column_11 Column_12 Column_13 Column_14 Column_15 Column_16 Column_17 Column_18 Column_19
feature_infos=[438:520] [367:614] [256:768] [0:999] [435:516] [182:814] [333:653] [317:635] [358:607] [193:828] [216:797] [347:661] [263:719] [207:794] [454:505] [84:785] [265:735] [347:612] [277:677] [142:920]
tree_sizes=2401 2288 2498 2390 2494 2492 2090 2304 2402 2301 2305 2506 2503 2508 2515 2207 2523 2508 2412

Tree=0
num_leaves=22
num_cat=0
split_feature=6 10 12 11 11 14 1 14 14 3 3 16 7 3 6 2 1 1 10 1 2
split_gain=98.6609 66.8155 58.8751 63.4327 57.4198 40.2528 35.4552 63.8037 28.9349 44.9241 23.3972 21.4384 10.5877 11.4094 12.4147 6.93395 5.66186 3.66125 3.01526 0.707816 0.196927
threshold=488.50000000000006 475.50000000000006 489.50000000000006 509.50000000000006 519.50000000000011 483.50000000000006 472.50000000000006 476.50000000000006 477.50000000000006 464.00000000000006 454.50000000000006 508.50000000000006 536.50000000000011 635.50000000000011 555.50000000000011 489.50000000000006 450.50000000000006 504.50000000000006 419.50000000000006 448.50000000000006 489.50000000000006
decision_type=2 2 2 2 2 2 2 2 2 2 2 2 2 2 2 2 2 2 2 2 2
left_child=2 4 3 5 12 16 19 -8 10 -10 15 -5 13 14 -2 -3 -1 -9 20 -4 -6
right_child=1 8 6 11 18 -7 7 17 9 -11 -12 -13 -14 -15 -16 -17 -18 -19 -20 -21 -22
leaf_value=0.20750350361667261 0.14674295424622275 0.058481306549605129 -0.1649167601970333 -0.16007045045771578 0.20750350361667266 -0.049104728472994755 0.088982925832338272 -0.096501778400145052 -0.068864934580434356 0.17673373823035507 -0.13064670155667318 0.0075000286056083575 -0.032500666396604504 -0.0094494184292276007 0.022315100828650156 -0.044352724175037953 0.12000198329933202 -0.16618719969347381 0.1518063333604269 -0.19250344640545597 0.1915032256157875
leaf_weight=13.749761506915094 19.749657437205315 12.749778851866724 21.749622747302055 18.499679118394855 19.999653100967407 13.249770179390906 20.2496487647295 12.499783188104631 13.749761506915094 16.249718144536018 24.249579384922981 12.999774515628813 14.999739825725554 14.749744161963461 13.499765843152998 13.499765843152998 15.999722480773924 18.999670445919037 19.749657437205315 16.249718144536018 12.499783188104628
leaf_count=55 79 51 87 74 80 53 81 50 55 65 97 52 60 59 54 54 64 76 79 65 50
internal_value=0.00833338 0.0562876 -0.0488175 0.0168962 0.105116 0.0958737 -0.103365 -0.0495058 -0.0136184 0.0641677 -0.0598279 -0.0909144 0.0408339 0.063751 0.0962234 0.00559523 0.160444 -0.138534 0.182623 -0.176714 0.20135
internal_weight=0 195.747 164.247 74.4987 115.248 42.9993 89.7484 51.7491 80.4986 29.9995 50.4991 31.4995 62.9989 47.9992 33.2494 26.2495 29.7495 31.4995 52.2491 37.9993 32.4994
internal_count=1440 783 657 298 461 172 359 207 322 120 202 126 252 192 133 105 119 126 209 152 130
is_linear=0
shrinkage=1


Tree=1
num_leaves=21
num_cat=0
split_feature=18 10 5 11 11 13 8 11 8 11 19 13 13 16 18 13 10 13 6 19
split_gain=82.5426 56.5751 49.767 47.9557 44.029 55.7638 28.2636 56.1913 24.94 25.1566 22.734 18.8318 18.1909 17.2274 16.046 11.5839 2.80647 2.55476 1.5629 0.0522167
threshold=471.50000000000006 475.50000000000006 512.50000000000011 519.50000000000011 509.50000000000006 543.50000000000011 479.50000000000006 503.50000000000006 492.50000000000006 501.50000000000006 457.50000000000006 470.50000000000006 530.50000000000011 460.50000000000006 569.50000000000011 500.50000000000006 419.50000000000006 617.50000000000011 453.50000000000006 566.50000000000011
decision_type=2 2 2 2 2 2 2 2 2 2 2 2 2 2 2 2 2 2 2 2
left_child=2 3 4 10 5 -1 7 -4 13 -10 14 -12 -6 -3 -2 -15 19 -7 -8 -5
right_child=1 8 6 16 12 17 18 -9 9 -11 11 -13 -14 15 -16 -17 -18 -19 -20 -21
leaf_value=-0.094295104503799673 0.18433822472646308 -0.14901372021403803 -0.15070766630206747 0.18200310232592373 0.01271033327918843 0.11095093757422861 -0.17354334639748817 0.10996903993892632 -0.033112245213877671 0.16339143948720627 -0.080357748683686059 0.063051282713235554 -0.1392251797882148 -0.077468062244600164 0.024733526376222753 0.030602318445933998 0.13076962708233281 0.16775599888740469 -0.13780483820495731 0.17378229246811819
leaf_weight=14.722835049033163 12.458925470709802 15.184551402926443 18.868088841438293 18.813866481184963 12.472927793860434 14.911346763372423 24.343620508909225 14.720840618014334 13.707522392272951 12.416064471006392 21.476228162646294 15.962528511881827 21.400798305869102 19.95927569270134 12.740471944212912 19.71590881049633 19.886647045612335 16.879607155919075 24.603931218385696 13.110751226544378
leaf_count=59 50 61 76 76 50 60 98 59 55 50 86 64 86 80 51 79 80 68 99 53
internal_value=0 0.043825 -0.0525591 0.089084 0.00344328 0.0665994 -0.107103 -0.0364623 -0.0201371 0.0602824 0.0302124 -0.0192133 -0.0832797 -0.0584319 0.103644 -0.0237643 0.160258 0.141112 -0.155579 0.178627
internal_weight=0 195.433 162.924 114.449 80.3875 46.5138 82.5365 33.5889 80.9833 26.1236 62.6382 37.4388 33.8737 54.8597 25.1994 39.6752 51.8113 31.791 48.9476 31.9246
internal_count=1440 785 655 460 323 187 332 135 325 105 251 150 136 220 101 159 209 128 197 129
is_linear=0
shrinkage=0.1


Tree=2
num_leaves=23
num_cat=0
split_feature=18 10 12 1 13 1 1 17 19 17 13 3 13 17 3 3 18 1 13 10 18 15
split_gain=67.7491 47.7118 39.507 41.8696 42.3142 30.1375 25.1988 23.5535 13.8985 18.9964 12.9882 36.7882 14.3327 12.2298 11.8522 4.65808 4.42221 4.10265 1.88742 1.16796 0.842872 0.0472458
threshold=471.50000000000006 461.50000000000006 488.50000000000006 501.50000000000006 543.50000000000011 508.50000000000006 472.50000000000006 491.50000000000006 470.50000000000006 467.50000000000006 530.50000000000011 482.50000000000006 474.50000000000006 508.50000000000006 481.50000000000006 551.50000000000011 569.50000000000011 522.50000000000011 610.50000000000011 420.50000000000006 425.50000000000006 542.50000000000011
decision_type=2 2 2 2 2 2 2 2 2 2 2 2 2 2 2 2 2 2 2 2 2 2
left_child=2 5 3 4 -1 8 20 15 16 -10 11 12 -3 -5 -12 -8 -2 -13 -6 21 -4 -7
right_child=1 10 6 13 18 19 7 -9 9 -11 14 17 -14 -15 -16 -17 -18 -19 -20 -21 -22 -23
leaf_value=-0.085087403039037598 0.14012271825669451 -0.1071283246737582 -0.16832794508739024 -0.010264190527350531 0.10518673639423722 0.16840241124901517 -0.057298940633604724 0.04480369566924549 -0.059268199864761728 0.086471742222817699 0.0023639727179014663 0.066561433478212736 0.01628878929644138 -0.14121271120078524 -0.12914005394104572 -0.13216825838432497 0.056765075142333504 0.14715591130370553 0.15557296036810797 0.12830261180628011 -0.13818890080442542 0.16010445236193421
leaf_weight=12.44725815951824 13.016419634222986 20.417611479759216 20.699938341975212 12.453238055109979 13.052963048219683 15.918776258826258 15.7146098613739 18.097505837678909 20.889768674969673 15.639400333166121 12.452353268861772 13.072362557053568 17.453322738409042 16.691427439451218 15.243371382355688 17.635917320847511 12.453114956617354 12.220963925123213 17.27139712870121 12.743904769420622 16.817885339260101 12.059610113501547
leaf_count=50 53 82 85 50 53 66 64 73 84 63 50 53 70 68 62 72 50 50 71 52 69 50
internal_value=0 0.0398701 -0.0479415 0.0071749 0.07016 0.0865617 -0.0924953 -0.0470475 0.0426632 0.00312811 -0.0129166 0.0121191 -0.0502499 -0.0852597 -0.0700142 -0.0968902 0.0993657 0.105502 0.133884 0.153396 -0.154818 0.164826
internal_weight=0 193.581 160.882 71.9163 42.7716 102.721 88.9659 51.448 61.9987 36.5292 90.86 63.1643 37.8709 29.1447 27.6957 33.3505 25.4695 25.2933 30.3244 40.7223 37.5178 27.9784
internal_count=1440 785 655 292 174 418 363 209 250 147 367 255 152 118 112 136 103 103 124 168 154 116
is_linear=0
shrinkage=0.1


Tree=3
num_leaves=22
num_cat=0
split_feature=18 3 12 1 17 17 3 2 1 8 2 8 3 19 8 6 17 6 8 8 2
split_gain=55.8928 33.1714 32.7214 34.5488 34.535 22.3834 40.7045 21.8146 21.6427 39.8649 15.3119 11.5313 6.4081 8.23233 31.1847 8.441 6.36504 3.21653 2.04171 0.844741 0.792968
threshold=471.50000000000006 696.50000000000011 488.50000000000006 501.50000000000006 502.50000000000006 500.50000000000006 435.50000000000006 429.50000000000006 472.50000000000006 480.50000000000006 502.50000000000006 501.50000000000006 489.50000000000006 470.50000000000006 488.50000000000006 557.50000000000011 469.50000000000006 460.50000000000006 458.50000000000006 512.50000000000011 579.50000000000011
decision_type=2 2 2 2 2 2 2 2 2 2 2 2 2 2 2 2 2 2 2 2 2
left_child=2 5 3 4 -1 6 16 -7 20 -10 12 -5 -8 15 -15 -14 -2 -11 -6 -12 -4
right_child=1 -3 8 11 18 7 10 -9 9 17 19 -13 13 14 -16 -17 -18 -19 -20 -21 -22
leaf_value=-0.074099149173193421 -0.092276824003081417 0.15043924610198114 -0.13152845914386363 -0.13376342676899927 0.14618222778320208 -0.13431219029676283 -0.011024398939271821 0.041555035112432075 0.0669057444880614 -0.1444921586636656 0.15283928363420415 -0.0061342266164706978 0.14719498182775267 0.13838307596364657 -0.065262762151406778 0.046604714472359886 -0.0054534299227875938 -0.079811508706237766 0.092773512192532978 0.11650154884559963 -0.16155777253996531
leaf_weight=12.599457815289496 20.263409689068794 22.508350297808647 21.572716280817986 16.160094588994983 17.068624526262287 16.484315454959873 15.332754060626028 12.327573612332342 20.068243384361267 16.385056629776958 13.688881874084474 12.597637996077536 16.162177085876465 13.325653329491617 17.258111551403999 17.241593867540359 14.475348591804503 14.485603258013724 12.326801791787146 12.010566309094427 14.844575002789496
leaf_count=51 82 95 91 67 72 68 62 50 81 68 57 51 67 55 70 71 58 60 51 50 63
internal_value=0 0.0364157 -0.0439597 0.00658936 0.0644155 0.0211907 0.0377358 -0.0590649 -0.084901 -0.042815 0.0687745 -0.0778541 0.04704 0.0609535 0.0234678 0.0952746 -0.0560982 -0.114142 0.123786 0.135857 -0.143769
internal_weight=0 191.079 158.109 70.7526 41.9949 168.57 139.758 28.8119 87.3562 50.9389 105.02 28.7577 79.3203 63.9875 30.5838 33.4038 34.7388 30.8707 29.3954 25.6994 36.4173
internal_count=1440 785 655 292 174 690 572 118 363 209 432 118 325 263 125 138 140 128 123 107 154
is_linear=0
shrinkage=0.1


Tree=4
num_leaves=23
num_cat=0
split_feature=6 12 11 13 11 12 8 1 8 19 11 8 15 15 11 19 1 6 6 13 11 1
split_gain=45.3772 28.2803 30.9084 24.9093 23.385 23.281 47.1308 16.9264 31.6176 13.0211 11.4498 9.14386 13.296 9.68695 8.06091 7.92653 6.08768 2.00401 1.49503 1.24707 0.679498 0.0780512
threshold=483.50000000000006 488.50000000000006 509.50000000000006 550.50000000000011 473.50000000000006 502.50000000000006 485.50000000000006 472.50000000000006 480.50000000000006 500.50000000000006 519.50000000000011 480.50000000000006 469.50000000000006 370.50000000000006 544.50000000000011 373.50000000000006 514.50000000000011 460.50000000000006 527.50000000000011 618.50000000000011 446.50000000000006 531.50000000000011
decision_type=2 2 2 2 2 2 2 2 2 2 2 2 2 2 2 2 2 2 2 2 2 2
left_child=1 2 3 -1 11 6 16 20 -9 -4 -7 15 13 -13 -8 -2 -6 -10 -12 -5 -3 -20
right_child=4 7 9 19 5 10 14 8 17 -11 18 12 -14 -15 -16 -17 -18 -19 21 -21 -22 -23
leaf_value=-0.050495324590853034 0.013971256919635262 -0.1240425025517375 0.0064302537461681511 0.096064578216594393 -0.030158773003368135 0.037485600004388338 0.052580910561879184 0.055566614646182191 -0.13446230148896729 -0.12859637523023534 0.10873482315226174 -0.0043454527355927556 -0.060568410497385088 0.11330858642056929 0.15077732807170646 -0.084468300382735839 -0.12584983976727704 -0.08041737413554105 0.15460339885592414 0.1399377344674084 -0.15293949541045471 0.14354489056402897
leaf_weight=12.7263106405735 12.899085715413092 18.968758761882782 12.332754850387575 11.832720026373865 12.239632204174997 16.926521316170692 19.274479016661644 19.1982381939888 15.872773051261904 16.96783085167408 13.441836193203924 12.832144483923914 13.592674195766447 15.391999781131743 14.762590542435644 22.357790514826775 14.553275913000105 12.08471520245075 14.732400804758074 14.31861427426338 14.250729888677595 11.260955482721327
leaf_count=52 52 83 50 50 50 69 80 78 68 72 57 52 55 64 64 92 60 51 65 63 63 50
internal_value=0 -0.0415787 0.00579513 0.0642477 0.0318409 0.0599778 0.017075 -0.0817635 -0.0432467 -0.071763 0.106282 -0.0109416 0.0206854 0.059817 0.0951708 -0.0484532 -0.0821359 -0.111101 0.135811 0.120086 -0.136439 0.149813
internal_weight=0 148.553 68.1782 38.8776 194.265 117.192 60.83 80.3752 47.1557 29.3006 56.3617 77.0737 41.8168 28.2241 34.0371 35.2569 26.7929 27.9575 39.4352 26.1513 33.2195 25.9934
internal_count=1440 630 287 165 810 495 254 343 197 122 241 315 171 116 144 144 110 119 172 113 146 115
is_linear=0
shrinkage=0.1


Tree=5
num_leaves=23
num_cat=0
split_feature=10 19 8 7 11 4 8 1 4 8 4 7 11 7 4 19 19 8 4 19 9 2
split_gain=26.5267 20.6718 29.2774 18.5778 21.1705 19.7905 21.3832 33.9206 21.9419 15.3452 14.4034 14.1145 13.5036 8.48458 7.7665 6.70766 6.38131 6.12845 2.70605 1.27184 0.929169 0.856917
threshold=461.50000000000006 470.50000000000006 514.50000000000011 445.50000000000006 472.50000000000006 464.50000000000006 481.50000000000006 489.50000000000006 472.50000000000006 464.50000000000006 495.50000000000006 466.50000000000006 505.50000000000006 484.50000000000006 486.50000000000006 547.50000000000011 485.50000000000006 496.50000000000006 491.50000000000006 482.50000000000006 555.50000000000011 485.50000000000006
decision_type=2 2 2 2 2 2 2 2 2 2 2 2 2 2 2 2 2 2 2 2 2 2
left_child=1 17 12 5 11 -2 7 -7 -8 13 15 -5 -3 -6 -10 -4 -11 -1 -14 -13 -21 -19
right_child=3 2 10 4 9 6 8 -9 14 16 -12 19 18 -15 -16 -17 -18 21 -20 20 -22 -23
leaf_value=0.04475200602050719 0.11734736890410691 0.0023468478919403874 -0.041885573712304558 -0.012532962301507217 -0.02166798174700213 0.037618342376697027 -0.07859773459163491 -0.1519272313212375 0.11080878647060849 -0.0013428954342924733 0.034451217049487136 -0.15929333011678082 0.082202427256526461 0.08144913854869551 0.010380474786560741 -0.14060839727510802 -0.092055026890234593 0.1138351077027055 0.14600821797352664 -0.09899211177497684 -0.1398166407127652 0.15259335087583409
leaf_weight=12.141571924090384 14.730311289429663 19.429184913635254 13.61281241476536 13.461536929011343 14.050011247396467 17.609051719307899 12.16839563846588 20.355199322104454 23.185746431350708 12.112455993890761 13.451787889003752 12.163176313042639 14.273618325591089 18.467631757259369 11.529565662145613 13.919946804642676 21.556250661611557 11.732409179210665 12.439710035920141 11.321321636438372 10.984160289168356 11.10259699821472
leaf_count=51 63 80 57 56 60 76 50 87 97 50 60 52 63 76 51 61 93 50 56 50 51 50
internal_value=0 0.0372169 0.0111471 -0.0212109 -0.0487537 0.010353 -0.00822209 -0.0640098 0.0369522 -0.0121005 -0.0503607 -0.0993678 0.0657793 0.036895 0.0774548 -0.0917976 -0.059421 0.102157 0.111915 -0.133281 -0.119096 0.13268
internal_weight=0 122.104 87.1271 213.695 114.117 99.5783 84.848 37.9643 46.8837 66.1863 40.9845 47.9302 46.1425 32.5176 34.7153 27.5328 33.6687 34.9766 26.7133 34.4687 22.3055 22.835
internal_count=1440 528 377 912 488 424 361 163 198 279 178 209 199 136 148 118 143 151 119 153 101 100
is_linear=0
shrinkage=0.1


Tree=6
num_leaves=19
num_cat=0
split_feature=18 10 7 11 11 16 8 11 0 11 16 19 0 10 7 10 18 11
split_gain=32.6102 27.3915 22.8527 22.1889 20.783 17.5485 16.5395 18.5749 16.5048 35.6366 12.2791 11.7907 11.3238 9.5346 8.19862 2.68427 1.8852 0.0767901
threshold=471.50000000000006 461.50000000000006 483.50000000000006 509.50000000000006 519.50000000000011 512.50000000000011 481.50000000000006 501.50000000000006 479.50000000000006 505.50000000000006 508.50000000000006 457.50000000000006 484.50000000000006 555.50000000000011 455.50000000000006 419.50000000000006 426.50000000000006 561.50000000000011
decision_type=2 2 2 2 2 2 2 2 2 2 2 2 2 2 2 2 2 2
left_child=2 4 3 5 11 -1 13 -8 9 -4 -5 -2 -13 14 -3 17 -10 -6
right_child=1 6 8 10 15 -7 7 -9 16 -11 -12 12 -14 -15 -16 -17 -18 -19
leaf_value=0.1154795536887807 0.085282151838937892 -0.1244462578565099 -0.11491641838576183 -0.11550310357076277 0.1429112116506005 -0.013556771592316996 -0.027259748507509615 0.11365931697680039 -0.13900583675433673 0.09182160070098698 0.011964979240023564 0.043079793910988692 -0.072022143899565516 0.018320085733224144 -0.027865006121971209 0.083706003917398353 -0.095994322016673295 0.13199891856444826
leaf_weight=21.405543878674507 20.589965805411339 18.323469132184982 18.572663083672523 17.291931554675106 15.784567356109621 20.761997327208519 20.246235758066177 17.386185988783836 19.611475989222527 15.130456969141958 13.424041405320166 18.390572249889374 15.969073012471197 14.461866497993467 16.891964703798294 13.479139506816862 21.212702423334122 10.903146669268606
leaf_count=95 88 78 86 77 76 91 83 77 93 63 55 75 65 59 70 61 95 53
internal_value=0 0.0282828 -0.034961 0.0048541 0.0654079 0.051946 -0.0121618 0.0378449 -0.0738979 -0.0221048 -0.0597947 0.0254432 -0.0104153 -0.0500438 -0.0781186 0.120081 -0.116657 0.138453
internal_weight=0 182.426 147.411 72.8835 95.1165 42.1675 87.3097 37.6324 74.5273 33.7031 30.716 54.9496 34.3596 49.6773 35.2154 40.1669 40.8242 26.6877
internal_count=1440 785 655 318 418 186 367 160 337 149 132 228 140 207 148 190 188 129
is_linear=0
shrinkage=0.1


Tree=7
num_leaves=21
num_cat=0
split_feature=18 3 5 1 17 0 1 17 3 17 1 17 15 18 18 17 17 8 18 18
split_gain=27.2154 21.7885 20.7089 16.6143 24.6606 13.3076 27.3998 12.4945 25.978 9.51124 7.49579 8.97746 16.0916 7.68716 6.48159 6.12631 5.1982 3.06123 1.85265 0.217362
threshold=471.50000000000006 696.50000000000011 512.50000000000011 501.50000000000006 500.50000000000006 479.50000000000006 498.50000000000006 500.50000000000006 435.50000000000006 498.50000000000006 508.50000000000006 468.50000000000006 469.50000000000006 563.50000000000011 524.50000000000011 469.50000000000006 463.50000000000006 462.50000000000006 426.50000000000006 562.50000000000011
decision_type=2 2 2 2 2 2 2 2 2 2 2 2 2 2 2 2 2 2 2 2
left_child=2 7 3 4 -1 6 -4 8 15 -5 11 12 13 -10 -9 -2 19 -6 -7 -12
right_child=1 -3 5 9 17 18 -8 14 10 -11 16 -13 -14 -15 -16 -17 -18 -19 -20 -21
leaf_value=-0.063517811546870043 -0.084599786443429054 0.12595693328840865 -0.098123590063906169 0.014264277482966964 0.12246887749010238 -0.13301096632497805 0.092505526972085472 -0.00061592449304496077 0.10159193615599678 -0.10117073461811965 0.11059115396309478 0.083988374511144048 -0.076173861315589647 -0.0055759041693702986 -0.098024124579401309 0.0012059471220992228 0.036376366479402338 0.056006171183278566 -0.089384222070427954 0.13058798502111399
leaf_weight=14.281863093376158 19.778671532869339 19.453871458768845 19.061800539493564 12.223356485366823 17.944776013493541 18.503010019659996 12.474123761057852 14.145654872059824 14.553589314222338 17.15577095746994 11.514973014593126 22.538288429379463 15.27422910928726 12.392707571387289 13.210681363940237 14.363488376140593 11.264177262783049 11.290296971797941 20.538899153470993 10.296222656965254
leaf_count=60 82 95 91 50 84 93 53 60 65 79 56 94 63 52 58 58 51 50 95 51
internal_value=0 0.0260499 -0.0324233 0.00495974 0.0441862 -0.0710343 -0.0227197 0.0138517 0.026601 -0.0531433 0.0528103 0.0330285 0.00582489 0.052305 -0.0476554 -0.0485016 0.0915414 0.0968016 -0.11006 0.120031
internal_weight=0 178.787 143.474 72.8961 43.5169 70.5778 31.5359 159.333 131.976 29.3791 97.8342 64.7588 42.2205 26.9463 27.3563 34.1422 33.0754 29.2351 39.0419 21.8112
internal_count=1440 785 655 323 194 332 144 690 572 129 432 274 180 117 118 140 158 134 188 107
is_linear=0
shrinkage=0.1


Tree=8
num_leaves=22
num_cat=0
split_feature=18 10 5 1 1 17 14 4 1 14 4 17 5 17 5 5 14 14 19 17 17
split_gain=22.7485 21.1478 17.6298 15.44 13.839 20.663 11.5893 20.3724 11.5723 21.1178 8.4958 8.09947 7.8025 7.06462 3.27239 4.8448 2.48179 1.2318 0.950146 0.559427 0.0941842
threshold=471.50000000000006 461.50000000000006 512.50000000000011 512.50000000000011 501.50000000000006 500.50000000000006 477.50000000000006 476.50000000000006 472.50000000000006 476.50000000000006 476.50000000000006 498.50000000000006 615.50000000000011 478.50000000000006 582.50000000000011 480.50000000000006 472.50000000000006 485.50000000000006 580.50000000000011 464.50000000000006 419.50000000000006
decision_type=2 2 2 2 2 2 2 2 2 2 2 2 2 2 2 2 2 2 2 2 2
left_child=2 3 4 12 5 -1 10 -8 18 -10 13 -6 14 -3 15 -2 -7 -11 -4 20 -5
right_child=1 6 8 19 11 16 7 -9 9 17 -12 -13 -14 -15 -16 -17 -18 -19 -20 -21 -22
leaf_value=-0.057969378778404461 0.080356009594871672 -0.069497452821526848 -0.095761482313981294 0.12073106180809126 0.012825711804824128 0.11489454941274635 -0.054188403475968816 0.10211175683723279 0.051383675382314947 -0.071845760774079823 -0.093731885218163141 -0.094451895875735659 -0.036834841609811445 0.02752269199089737 0.085127134658013817 -0.00084549637985004925 0.054647194367347052 -0.11682025080744114 -0.13432015319735932 0.099008495982990788 0.13491248257691035
leaf_weight=14.094013944268225 11.769704833626749 12.208972856402399 10.871369689702989 9.0940269976854378 12.23430320620537 16.709809094667438 14.850440129637716 19.019412934780121 17.12761615216732 12.657919824123384 19.51172311604023 16.569485902786255 13.842396467924116 19.480583727359772 16.107272639870644 19.556346535682678 11.572697117924688 11.736419498920439 15.505458503961561 10.281428933143614 9.6554075777530652
leaf_count=60 51 51 59 50 50 82 61 89 73 61 87 79 59 79 69 85 52 57 82 53 51
internal_value=0 0.023978 -0.030177 0.0576816 0.00459614 0.0409486 -0.0117998 0.033581 -0.0666307 -0.0337265 -0.0418194 -0.0488861 0.0292206 -0.00985607 0.0484975 0.0296632 0.0902424 -0.0934835 -0.118428 0.117755 0.128034
internal_weight=0 175.378 139.079 90.3066 71.1803 42.3765 85.0711 33.8699 67.8988 41.522 51.2013 28.8038 61.2757 31.6896 47.4333 31.3261 28.2825 24.3943 26.3768 29.0309 18.7494
internal_count=1440 785 655 418 323 194 367 150 332 191 217 129 264 130 205 136 134 118 141 154 101
is_linear=0
shrinkage=0.1


Tree=9
num_leaves=21
num_cat=0
split_feature=18 7 1 0 3 1 0 3 9 10 3 18 10 14 1 10 10 10 18 9
split_gain=20.2162 14.4006 15.6625 14.8829 13.8636 8.12009 11.9717 6.87768 17.6186 11.199 9.65288 6.62869 9.97906 20.5881 5.27933 5.82483 2.95098 1.42521 1.10932 0.422154
threshold=448.50000000000006 466.50000000000006 501.50000000000006 485.50000000000006 696.50000000000011 471.50000000000006 479.50000000000006 435.50000000000006 481.50000000000006 555.50000000000011 551.50000000000011 498.50000000000006 475.50000000000006 477.50000000000006 496.50000000000006 386.50000000000006 495.50000000000006 466.50000000000006 546.50000000000011 555.50000000000011
decision_type=2 2 2 2 2 2 2 2 2 2 2 2 2 2 2 2 2 2 2 2
left_child=1 2 3 -1 7 19 -7 9 11 16 17 -9 14 -14 15 -13 -2 -10 -6 -3
right_child=4 5 -4 -5 18 6 -8 8 10 -11 -12 12 13 -15 -16 -17 -18 -19 -20 -21
leaf_value=0.11184317795318835 -0.030152347928392581 -0.098355706184229008 -0.065315920098092409 -0.031509144792987727 0.074166737421569484 0.020249136379468874 -0.095797680693451071 -0.059095852971265107 0.093570741815491174 0.038359880966985928 -0.00060660787489593727 -0.027534557078472435 -0.099372969214674728 0.064087427542495037 0.090483553800089836 0.054413889291452293 -0.094320986225704007 0.14124118554777235 0.12191208601386042 -0.12602711858754576
leaf_weight=16.98701956868172 14.568783178925516 9.2374361157417315 19.1558518409729 12.624912098050116 9.3691798299551028 17.549276128411293 18.015866130590439 15.941688254475592 13.800282433629038 18.328602612018585 10.051589533686636 15.404837593436239 18.773077383637432 13.06970255076885 14.389463558793066 19.850279331207275 14.105614885687826 11.496100232005118 10.125170961022375 13.675036415457724
leaf_count=87 61 50 90 55 50 76 91 73 69 76 51 65 85 60 72 87 60 50 54 78
internal_value=0 -0.0349815 0.00514479 0.0507256 0.0188659 -0.068445 -0.0385355 0.0101804 0.0218177 -0.0226933 0.0822941 -0.00012363 0.0114133 -0.0322815 0.0394399 0.0186063 -0.0617184 0.115235 0.0989652 -0.114871
internal_weight=0 107.245 48.7678 29.6119 199.274 58.4776 35.5651 179.78 132.777 47.003 35.348 97.429 81.4874 31.8428 49.6446 35.2551 28.6744 25.2964 19.4944 22.9125
internal_count=1440 527 232 142 913 295 167 809 612 197 170 442 369 145 224 152 121 119 104 128
is_linear=0
shrinkage=0.1


Tree=10
num_leaves=21
num_cat=0
split_feature=6 9 10 19 13 16 7 9 13 9 19 13 9 9 7 7 9 13 8 6
split_gain=21.4048 7.69072 8.61403 9.6789 14.5646 9.62041 7.04888 6.59018 7.18833 6.22155 4.28137 3.69713 16.6708 8.59116 10.414 9.31876 5.98164 3.46484 2.22913 0.943255
threshold=450.50000000000006 600.50000000000011 625.50000000000011 287.50000000000006 366.50000000000006 574.50000000000011 536.50000000000011 654.50000000000011 575.50000000000011 551.50000000000011 444.50000000000006 554.50000000000011 413.50000000000006 413.50000000000006 445.50000000000006 499.50000000000006 493.50000000000006 447.50000000000006 493.50000000000006 435.50000000000006
decision_type=2 2 2 2 2 2 2 2 2 2 2 2 2 2 2 2 2 2 2 2
left_child=7 2 3 -2 10 6 11 8 19 -10 -5 13 -13 17 -15 -16 -17 -6 -19 -1
right_child=1 -3 -4 4 5 -7 -8 -9 9 -11 -12 12 -14 14 15 16 -18 18 -20 -21
leaf_value=-0.12603926318779898 -0.063134919521409136 -0.058148783768704373 0.10097981736563484 0.13096745547561175 0.017337317635722823 -0.062078965409539111 -0.037942766532411777 0.022336384516523825 0.014400166427239012 -0.082667355300107034 0.043620341956010222 -0.087282074308788746 0.058394670187382848 0.090514467749717234 -0.075994143629403321 -0.027285834645771369 0.076740918685019921 0.055196347171386433 0.1022128696095477 -0.087395877742549907
leaf_weight=10.307889580726625 15.207309529185293 13.949082165956495 11.951844096183775 13.384447887539865 12.734863385558127 16.846884489059448 19.987713769078255 10.148159191012381 14.789488911628725 11.929265230894087 9.6628351211547834 13.734499618411062 18.352103441953659 11.089292407035826 16.613295510411263 11.411961480975153 10.719777226448057 21.609729006886482 18.906813785433769 16.312763020396233
leaf_count=52 67 66 56 69 60 75 97 51 77 60 50 67 87 49 74 56 51 99 91 86
internal_value=0 0.0138774 0.0183987 0.0137046 0.0196954 0.00969285 0.0174857 -0.0515279 -0.0655811 -0.0289381 0.0943462 0.0256818 -0.00396148 0.0349086 0.00506657 -0.0193896 0.0231008 0.0628356 0.0771363 -0.102359
internal_weight=0 236.162 222.213 210.262 195.054 172.007 155.16 63.4876 53.3394 26.7188 23.0473 135.172 32.0866 103.086 49.8343 38.745 22.1317 53.2514 40.5165 26.6207
internal_count=1440 1114 1048 992 925 806 731 326 275 137 119 634 154 480 230 181 107 250 190 138
is_linear=0
shrinkage=0.1


Tree=11
num_leaves=23
num_cat=0
split_feature=18 5 5 11 5 8 10 17 2 8 18 8 11 10 17 11 9 11 18 9 11 11
split_gain=14.284 13.3009 13.2145 10.0292 10.6817 25.7601 10.6244 8.787 17.2695 8.282 13.3229 6.68773 8.28723 8.54383 5.48643 4.45095 3.74553 2.9114 2.02764 1.95233 1.39704 1.24147
threshold=448.50000000000006 453.50000000000006 385.50000000000006 473.50000000000006 476.50000000000006 485.50000000000006 556.50000000000011 425.50000000000006 407.50000000000006 475.50000000000006 489.50000000000006 493.50000000000006 469.50000000000006 557.50000000000011 468.50000000000006 536.50000000000011 404.50000000000006 536.50000000000011 519.50000000000011 315.50000000000006 486.50000000000006 502.50000000000006
decision_type=2 2 2 2 2 2 2 2 2 2 2 2 2 2 2 2 2 2 2 2 2 2
left_child=1 2 -1 6 5 17 7 -2 19 18 -11 12 -3 -14 -10 -12 -7 -5 -6 -9 -4 -13
right_child=3 11 20 4 9 16 -8 8 14 10 15 21 13 -15 -16 -17 -18 -19 -20 -21 -22 -23
leaf_value=-0.058771586735282988 0.051993549213622814 -0.10843700367692077 0.077438466109765985 -0.040699857522525605 0.13765290019254525 0.10780639903790511 0.075304059119417538 -0.0079277686456216793 -0.13622838321431185 -0.050743557488111629 0.036018666642974317 -0.076555170226632593 0.058104500306294306 -0.061041954932356673 -0.052505088443209426 0.12508550319205855 0.03308154305761786 -0.11131871521099501 0.082108225791635098 0.048815289447509944 0.030062707433744357 -0.11918490766790801
leaf_weight=15.638642743229864 11.705488815903662 9.6156789213418943 15.048711568117143 11.55411632359028 10.413050383329393 12.272067710757257 12.019338577985762 12.302748113870623 14.91966672241688 12.969111219048498 12.386009916663172 14.674180969595911 12.634818390011789 11.493289664387701 16.46450999379158 10.25712329149246 14.794366851449011 11.800285533070562 17.817656725645065 11.956454053521155 10.614815935492514 12.781940340995787
leaf_count=77 53 57 78 50 48 65 51 55 65 60 59 86 57 52 75 65 71 55 89 52 50 70
internal_value=0 -0.0301611 0.0136882 0.016004 0.0349717 0.000566916 -0.0113032 -0.0267594 -0.0433264 0.0621433 0.0300752 -0.0597538 -0.0299352 0.00134975 -0.0923062 0.0763651 0.0669622 -0.0763815 0.102596 0.0200388 0.0578431 -0.096401
internal_weight=0 102.502 41.3022 193.632 114.264 50.4208 79.3682 67.3489 55.6434 63.843 35.6122 61.1999 33.7438 24.1281 31.3842 22.6431 27.0664 23.3544 28.2307 24.2592 25.6635 27.4561
internal_count=1440 527 205 913 562 241 351 300 247 321 184 322 166 109 140 124 136 105 137 107 128 156
is_linear=0
shrinkage=0.1


Tree=12
num_leaves=23
num_cat=0
split_feature=18 7 11 8 3 11 14 2 3 3 16 13 2 18 3 13 13 11 2 3 18 2
split_gain=11.8902 10.3037 14.0096 13.7409 10.2572 6.95851 8.75931 5.27482 16.5524 5.18068 4.80036 4.31852 8.71987 7.3915 8.37678 6.7463 3.32579 11.3802 2.61473 1.89397 1.02803 0.54049
threshold=448.50000000000006 470.50000000000006 510.50000000000006 507.50000000000006 696.50000000000011 479.50000000000006 478.50000000000006 502.50000000000006 424.50000000000006 547.50000000000011 492.50000000000006 552.50000000000011 427.50000000000006 508.50000000000006 540.50000000000011 474.50000000000006 465.50000000000006 516.50000000000011 472.50000000000006 493.50000000000006 546.50000000000011 579.50000000000011
decision_type=2 2 2 2 2 2 2 2 2 2 2 2 2 2 2 2 2 2 2 2 2 2
left_child=1 2 3 -1 7 21 -7 11 -9 19 -4 13 -13 -2 15 18 17 -16 -15 -10 -6 -3
right_child=4 5 10 -5 20 6 -8 8 9 -11 -12 12 -14 14 16 -17 -18 -19 -20 -21 -22 -23
leaf_value=0.10988037513271827 -0.068219738201998933 -0.089986730595423933 -0.10774244147332163 -0.032832495996143893 0.06306163529145821 0.015468103603580178 -0.091686894925176912 -0.041253033076553612 0.075704904839695025 0.012834501862510533 -0.011886086925806614 -0.10503658007073838 0.020185746535535443 -0.079406343409176655 -0.034063544574501337 0.029489213319150373 0.081625229203909355 0.10536492150644708 -0.013390629588633055 0.13175706323305597 0.11166952593435915 -0.12293504256686656
leaf_weight=16.475444644689563 12.137927442789076 10.830171540379526 9.8138817548751849 11.425347477197645 8.5219621956348437 18.111039400100712 13.180320426821707 19.17855829000473 14.67025735974312 9.7766625732183439 11.17131634056568 11.43516279757023 10.825214028358458 13.595116317272188 14.112591832876207 18.794107899069786 16.899843886494637 10.003375023603438 10.73907497525215 10.233193546533583 8.8899418860673887 9.2150162607431394
leaf_count=91 55 66 51 50 50 80 77 84 68 51 50 57 50 59 63 80 81 57 50 54 54 62
internal_value=0 -0.0278449 0.00501269 0.0514396 0.014732 -0.0591341 -0.029667 0.00734441 0.0332947 0.0745206 -0.056714 -0.00444589 -0.044141 0.00473161 0.015255 -0.0155146 0.0476093 0.0237718 -0.0502725 0.0987376 0.0878792 -0.105133
internal_weight=0 100.223 48.886 27.9008 189.813 51.3365 31.2914 172.401 53.8587 34.6801 20.9852 118.542 22.2604 96.282 84.1441 43.1283 41.0158 24.116 24.3342 24.9035 17.4119 20.0452
internal_count=1440 527 242 141 913 285 157 809 257 173 101 552 107 445 390 189 201 120 109 122 104 128
is_linear=0
shrinkage=0.1


Tree=13
num_leaves=23
num_cat=0
split_feature=6 3 9 5 9 7 5 16 7 4 16 0 3 16 0 16 5 7 3 6 18 6
split_gain=14.4684 9.19605 7.05822 6.32839 5.08134 4.98336 8.43104 3.75776 6.44201 6.08189 9.55724 9.22 5.51494 5.44495 4.6414 4.32723 4.21509 3.37009 2.63309 2.33679 2.14316 1.94229
threshold=450.50000000000006 696.50000000000011 656.50000000000011 638.50000000000011 594.50000000000011 469.50000000000006 386.50000000000006 443.50000000000006 499.50000000000006 464.50000000000006 581.50000000000011 489.50000000000006 430.50000000000006 539.50000000000011 492.50000000000006 557.50000000000011 590.50000000000011 450.50000000000006 513.50000000000011 509.50000000000006 526.50000000000011 540.50000000000011
decision_type=2 2 2 2 2 2 2 2 2 2 2 2 2 2 2 2 2 2 2 2 2 2
left_child=2 3 5 4 7 6 -1 14 9 -9 11 13 -10 19 17 16 -14 -2 -7 -11 -19 -3
right_child=1 21 -4 -5 -6 18 -8 8 12 10 -12 -13 15 -15 -16 -17 -18 20 -20 -21 -22 -23
leaf_value=-0.099777393242203846 -0.041302302924057531 0.050500903484670213 0.036473133362872022 -0.058403019094185396 -0.05365032525064424 -0.11956053400841771 0.014021669184681835 0.076826433828505181 -0.0076189660529205729 0.0067266176171341015 -0.071725145376191859 0.073025475827987782 0.0910673788380576 0.043872795946216736 -0.068073598903443652 0.1285953706117216 0.0048216162859300244 -0.00011919304276953884 -0.048293478842421037 -0.050957437389213926 0.058116416441930156 0.11781566349889352
leaf_weight=10.655439317226412 10.189004629850386 9.2199839800596255 9.1953447461128217 14.308305054903029 11.598908036947249 14.339208260178568 16.73556612432003 11.24261426925659 10.75858950614929 10.46649916470051 15.685968875885008 19.370489530265331 12.036495789885523 13.471975713968275 10.6046786904335 10.297840557992457 10.70797176659107 13.689690738916399 8.1200214475393278 21.344307869672775 11.737835735082625 8.0105302408337575
leaf_count=55 56 55 48 71 58 87 88 53 50 51 72 95 58 59 51 60 54 67 48 97 55 52
internal_value=0 0.0115968 -0.0440283 0.00576794 0.0105203 -0.0588775 -0.0302476 0.0146189 0.0230239 0.00793822 -0.00170195 0.0152869 0.0545662 -0.00941183 -0.00999971 0.0748137 0.0504633 0.00729155 -0.0937943 -0.031978 0.0267635 0.0817958
internal_weight=0 224.742 59.0456 207.511 193.203 49.8502 27.391 181.604 135.383 91.5819 80.3392 64.6533 43.8009 45.2828 46.2212 33.0423 22.7445 35.6165 22.4592 31.8108 25.4275 17.2305
internal_count=1440 1114 326 1007 936 278 143 878 649 427 374 302 222 207 229 172 112 178 135 148 122 107
is_linear=0
shrinkage=0.1


Tree=14
num_leaves=23
num_cat=0
split_feature=6 9 10 19 2 8 19 19 16 8 18 18 0 10 0 9 6 15 10 16 0 2
split_gain=11.97 5.86524 5.05481 6.18119 6.05528 6.18635 20.4658 13.1324 9.61474 7.1576 6.6771 5.6926 7.95571 4.55482 4.31755 6.3914 3.52957 2.9523 2.29604 1.00842 0.588457 0.581019
threshold=450.50000000000006 656.50000000000011 633.00000000000011 279.50000000000006 597.50000000000011 492.50000000000006 470.50000000000006 547.50000000000011 460.50000000000006 514.50000000000011 572.50000000000011 509.50000000000006 467.50000000000006 488.50000000000006 494.50000000000006 550.50000000000011 517.50000000000011 496.50000000000006 616.50000000000011 442.50000000000006 469.50000000000006 463.50000000000006
decision_type=2 2 2 2 2 2 2 2 2 2 2 2 2 2 2 2 2 2 2 2 2 2
left_child=1 14 3 -2 5 7 13 8 -5 -8 16 12 -9 21 15 -1 -10 -11 -17 -19 -18 -7
right_child=2 -3 -4 4 -6 6 9 11 10 17 -12 -13 -14 -15 -16 18 20 19 -20 -21 -22 -23
leaf_value=0.0089442629955831573 -0.061095964476084945 0.032648449012257386 0.075742799519335657 -0.11255892528192263 -0.057977851999906016 0.1016913864004706 0.054701144889354951 0.061511139389549642 0.011139601651642525 0.01358859533806351 0.050246153696536226 0.084661935523478865 -0.059526171115781727 0.051420465326163192 -0.10827090954871443 -0.10414228399623565 -0.041570827141652326 -0.069347608311276079 -0.037769416835722568 -0.029261797694079272 -0.074002424260998526 0.13450871522449123
leaf_weight=16.402286596596241 12.499850749969481 9.2426359653472883 11.305918827652929 11.767909735441206 11.827477067708967 10.372349664568903 12.874680027365683 12.449046701192858 11.179610580205916 9.9846044182777387 12.757348433136938 17.843365833163261 9.6322926580905897 18.764233082532883 11.346445634961126 11.595454446971418 11.273123517632486 13.459934026002886 9.4672803208231908 11.757559292018412 11.106986574828623 11.242290288209913
leaf_count=94 57 48 55 62 62 54 67 62 53 47 59 94 50 88 62 71 50 72 51 61 51 70
internal_value=0 -0.0403964 0.0106018 0.00710794 0.0114073 0.0158084 0.0349814 -0.00149557 -0.0318433 -0.00910055 -0.0113356 0.0426562 0.0087124 0.0874673 -0.0542277 -0.0378605 -0.0347452 -0.0324351 -0.074309 -0.0506578 -0.0576662 0.11876
internal_weight=0 58.0541 222.099 210.793 198.293 186.465 88.4557 98.0097 58.085 48.0768 46.3171 39.9247 22.0813 40.3789 48.8115 37.465 33.5597 35.2021 21.0627 25.2175 22.3801 21.6146
internal_count=1440 326 1114 1059 1002 940 459 481 275 247 213 206 112 212 278 216 154 180 122 133 101 124
is_linear=0
shrinkage=0.1


Tree=15
num_leaves=20
num_cat=0
split_feature=6 11 12 11 8 10 11 11 8 15 10 6 8 12 8 8 11 16 15
split_gain=9.90471 6.50675 3.97474 9.66181 5.1918 3.21183 16.6196 8.40943 8.05729 6.81881 10.9811 6.66453 5.16612 5.06333 11.4108 5.98284 4.44186 2.61546 1.65591
threshold=450.50000000000006 561.50000000000011 500.50000000000006 510.50000000000006 491.50000000000006 579.50000000000011 448.50000000000006 473.50000000000006 480.50000000000006 496.50000000000006 481.50000000000006 528.50000000000011 543.50000000000011 502.50000000000006 508.50000000000006 503.50000000000006 519.50000000000011 482.50000000000006 414.50000000000006
decision_type=2 2 2 2 2 2 2 2 2 2 2 2 2 2 2 2 2 2 2
left_child=2 5 3 -1 -4 7 -7 8 11 10 -10 -2 13 14 18 16 -15 -3 -9
right_child=1 17 4 -5 -6 6 -8 12 9 -11 -12 -13 -14 15 -16 -17 -18 -19 -20
leaf_value=0.031624934775943539 -0.11797351536616962 0.092765871654489296 -0.029216802379383185 -0.084086450799169848 -0.11951025425061906 0.13744390539671084 -0.03023564051816828 -0.01698459246057582 0.081151900607134259 -0.063823099580561454 -0.034569411743172469 -0.025780812390424734 -0.046445854104861566 0.033390865405818621 0.070517893379614852 -0.0019321430583058429 0.11308471697169475 0.029832269774148476 -0.07118176358191157
leaf_weight=18.930688470602039 13.424788288772104 11.085851147770883 15.900802396237852 11.661329627037047 10.621982790529726 9.8585811406373995 14.761935293674467 11.449611447751524 16.865516021847725 11.772288367152212 15.960004456341265 18.852192237973213 10.643160752952097 12.556402817368509 14.29976089298725 14.099924013018606 15.787211179733275 16.332704320549965 11.105428189039229
leaf_count=99 69 70 84 62 81 52 68 52 82 57 74 86 55 57 76 78 89 91 58
internal_value=0 0.00971648 -0.0370462 -0.0124829 -0.065378 0.00319099 0.0369068 -0.00178515 -0.0260709 0.00147085 0.0248874 -0.064126 0.0189724 0.0277526 0.000635414 0.0512992 0.0777798 0.0552775 -0.0436697
internal_weight=0 218.855 57.1148 30.592 26.5228 191.437 24.6205 166.816 76.8748 44.5978 32.8255 32.277 89.9415 79.2983 36.8548 42.4435 28.3436 27.4186 22.555
internal_count=1440 1114 326 161 165 953 120 833 368 213 156 155 465 410 186 224 146 161 110
is_linear=0
shrinkage=0.1


Tree=16
num_leaves=23
num_cat=0
split_feature=1 5 19 17 14 13 5 15 14 5 11 14 11 19 0 13 11 11 13 13 17 16
split_gain=5.43032 6.47211 5.2752 9.40322 6.04016 5.24003 4.1542 4.06719 6.18125 3.73078 19.6475 21.9591 17.2577 5.32894 4.96912 4.9153 2.58266 3.59298 2.3737 2.02404 1.17336 0.430868
threshold=528.50000000000011 635.50000000000011 263.50000000000006 423.50000000000006 487.50000000000006 536.50000000000011 456.50000000000006 474.50000000000006 482.50000000000006 473.50000000000006 509.50000000000006 479.50000000000006 473.50000000000006 544.50000000000011 476.50000000000006 618.50000000000011 470.50000000000006 432.50000000000006 552.50000000000011 531.50000000000011 461.50000000000006 563.50000000000011
decision_type=2 2 2 2 2 2 2 2 2 2 2 2 2 2 2 2 2 2 2 2 2 2
left_child=1 2 -1 -4 9 7 -6 -2 -9 10 15 -12 13 21 18 16 17 -5 -14 -19 -16 -11
right_child=5 -3 3 4 6 -7 -8 8 -10 12 11 -13 14 -15 20 -17 -18 19 -20 -21 -22 -23
leaf_value=-0.073786104505920463 0.093665625352202686 -0.064681216063095112 0.076288436238893906 0.068524312210625771 -0.00722759709705054 -0.025771324487858752 -0.095207991393967378 0.077463265119075267 -0.045468723012782403 -0.08662215950104897 -0.12485478769891334 0.059869011713631876 0.086580829236197032 -0.024387363893616416 0.015742237553982501 0.11250728635966772 0.078183366777032373 0.029769661218283224 0.025635826160287541 -0.030257168654361129 -0.031802581427269071 -0.11696179797719586
leaf_weight=9.5593221932649595 14.219020552933218 17.373121172189713 15.807416498661039 11.513401478528975 10.130060687661173 11.068538978695868 11.413629800081251 8.8495102971792239 7.6054348647594443 9.4461901634931582 16.453121006488804 10.569204621016977 13.217012152075769 17.054988004267216 10.091358736157419 10.60967670381069 11.356237456202505 11.260015204548838 12.373608022928236 11.20937357842922 10.688625551760195 9.2786640003323537
leaf_count=42 84 92 88 53 48 59 62 54 51 49 87 58 68 98 55 65 51 50 56 57 59 54
internal_value=0 -0.00600214 -0.00119419 0.00223308 -0.00403817 0.0332104 -0.0538387 0.0544936 0.0206444 0.0024594 0.0174162 -0.052604 -0.0126468 -0.0648249 0.0276141 0.0512349 0.0368967 0.0230997 0.0571126 -0.000176109 -0.00871345 -0.101656
internal_weight=0 229.405 212.032 202.473 186.665 41.7425 21.5437 30.674 16.4549 165.121 82.971 27.0223 82.1504 35.7798 46.3706 55.9487 45.339 33.9828 25.5906 22.4694 20.78 18.7249
internal_count=1440 1192 1100 1058 970 248 110 189 105 860 421 145 439 201 238 276 211 160 124 107 114 103
is_linear=0
shrinkage=0.1


Tree=17
num_leaves=23
num_cat=0
split_feature=6 3 9 11 9 10 3 16 9 11 11 11 6 9 0 6 18 10 14 3 10 9
split_gain=8.40799 7.56692 5.22723 5.02833 5.76288 4.57602 5.05604 5.68773 4.90419 6.26703 2.84478 2.66015 2.35065 2.16069 3.19214 1.66576 1.47156 2.52762 3.36207 5.23987 4.58468 6.3027
threshold=450.50000000000006 696.50000000000011 656.50000000000011 518.50000000000011 551.50000000000011 633.00000000000011 435.50000000000006 562.50000000000011 452.50000000000006 442.50000000000006 421.50000000000006 473.50000000000006 535.50000000000011 304.50000000000006 499.50000000000006 540.50000000000011 571.50000000000011 409.50000000000006 479.50000000000006 554.50000000000011 477.50000000000006 433.50000000000006
decision_type=2 2 2 2 2 2 2 2 2 2 2 2 2 2 2 2 2 2 2 2 2 2
left_child=2 5 3 4 -1 6 8 10 -2 -10 -8 -11 -9 -12 16 -3 17 -15 20 -20 -19 -22
right_child=1 15 -4 -5 -6 -7 7 12 9 11 13 -13 -14 14 -16 -17 -18 18 19 -21 21 -23
leaf_value=0.020993490514784042 0.027926628638337937 0.046545603992942844 0.03472795900834641 -0.094723614297405612 -0.066951755082691675 0.067279575876988421 -0.049395087389516756 0.0968056912714714 0.010252205441605853 -0.11403506074806975 -0.039509968967060986 -0.047004746458777502 0.028819498891220621 -0.027855621229606622 -0.042004047344536811 0.11214801988502054 0.051590494078953213 0.050640512143159157 0.10252975515690506 0.0070016091218117861 -0.073797852130164016 0.025678525949560011
leaf_weight=14.33521516621113 12.141534484922884 8.634488567709921 8.9748134538531286 15.633740760385988 15.515466652810572 10.702915266156195 10.088452249765394 8.96520644426346 13.19503031671047 10.267956033349039 9.4182529523968679 13.983651772141455 11.752407431602476 13.102143853902815 10.266184389591215 7.0152705982327452 10.75765113532543 13.046569027006624 10.570500239729883 12.56998375803232 12.288290724158289 13.22287394851446
leaf_count=85 54 55 48 95 98 55 46 51 69 52 46 62 70 66 54 52 55 70 51 71 67 68
internal_value=0 0.00903351 -0.0350179 -0.0487799 -0.0247177 0.00369952 3.38032e-05 0.00999739 -0.027302 -0.045209 0.00133137 -0.0753849 0.0582394 0.00619397 0.0106861 0.075953 0.0170084 0.0120349 0.0205059 0.0506386 0.00242181 -0.0222375
internal_weight=0 211.989 54.4592 45.4844 29.8507 196.34 185.637 136.049 49.5882 37.4466 115.331 24.2516 20.7176 105.242 95.8242 15.6498 85.558 74.8004 61.6982 23.1405 38.5577 25.5112
internal_count=1440 1114 326 278 183 1007 952 715 237 183 594 114 121 548 502 107 448 393 327 122 205 135
is_linear=0
shrinkage=0.1


Tree=18
num_leaves=22
num_cat=0
split_feature=3 19 3 18 13 13 19 1 19 18 13 1 13 19 2 2 1 2 19 7 18
split_gain=6.55954 4.08041 9.22869 13.5145 9.22323 6.99979 8.94659 5.36588 4.77968 7.45421 6.53386 7.52268 5.8779 4.31988 4.31423 4.06618 3.96392 3.94174 3.36212 1.80809 1.35294
threshold=696.50000000000011 483.50000000000006 435.50000000000006 530.50000000000011 541.50000000000011 480.50000000000006 311.00000000000006 436.50000000000006 544.50000000000011 526.50000000000011 522.50000000000011 512.50000000000011 597.50000000000011 383.50000000000006 521.50000000000011 524.50000000000011 495.50000000000006 472.50000000000006 596.50000000000011 446.50000000000006 451.50000000000006
decision_type=2 2 2 2 2 2 2 2 2 2 2 2 2 2 2 2 2 2 2 2 2
left_child=1 2 4 19 13 6 -5 -3 16 10 11 -10 -12 15 -14 -1 -9 -8 -2 -4 -18
right_child=18 7 3 5 -6 -7 17 8 9 -11 12 -13 14 -15 -16 -17 20 -19 -20 -21 -22
leaf_value=0.0070868099054395882 0.10386049129468962 -0.078074308673150988 0.1345337021285708 -0.049979933954305306 0.043875034586556838 -0.059923549397469515 0.032377977625117023 -0.0061419012056097722 -0.10197137941618364 0.071969993952521558 0.061077211494190015 0.01209155711299169 0.023289799997883318 -0.087903530041804664 -0.061176645937779078 -0.068881110278989841 -0.10053055450257323 0.12390368068069574 0.010848839634190029 0.073959653212245763 -0.045419956281320617
leaf_weight=19.070711910724643 8.7625058442354185 12.770473837852476 10.017909057438375 9.3149496614933032 17.230240404605865 12.08579511195421 11.740307040512564 17.275914125144482 13.186828598380091 13.421589627861975 16.164832659065723 10.297051802277563 12.750621795654299 14.161327071487902 11.501459911465643 11.174013383686541 9.0363098904490489 7.8528189286589614 6.9837199077010146 9.6981977596878988 8.7855428457260114
leaf_count=85 67 76 48 44 90 61 60 93 79 70 85 60 75 73 62 51 53 60 45 54 49
internal_value=0 -0.00395585 0.00903155 0.036705 -0.018226 0.00398441 0.0307028 -0.0166482 -0.00967042 0.00422157 -0.0100082 -0.0519578 0.0143663 -0.0423221 -0.0167681 -0.0209798 -0.0402752 0.069061 0.0626082 0.104738 -0.073363
internal_weight=0 247.537 122.346 60.71 61.6363 40.9939 28.9081 125.191 112.42 77.3224 63.9008 23.4839 40.4169 44.4061 24.2521 30.2447 35.0978 19.5931 15.7462 19.7161 17.8219
internal_count=1440 1328 626 327 299 225 164 702 626 431 361 139 222 209 137 136 195 120 112 102 102
is_linear=0
shrinkage=0.1


end of trees

feature_importances:
Column_11=40
Column_18=30
Column_8=28
Column_1=27
Column_3=27
Column_10=27
Column_13=26
Column_19=24
Column_17=21
Column_6=20
Column_9=20
Column_2=16
Column_5=15
Column_7=15
Column_16=15
Column_14=13
Column_0=12
Column_4=8
Column_15=8
Column_12=7

parameters:
[boosting: gbdt]
[objective: binary]
[metric: custom]
[tree_learner: serial]
[device_type: cpu]
[data: ]
[valid: ]
[num_iterations: 10000]
[learning_rate: 0.1]
[num_leaves: 95]
[num_threads: 0]
[deterministic: 0]
[force_col_wise: 0]
[force_row_wise: 0]
[histogram_pool_size: -1]
[max_depth: -1]
[min_data_in_leaf: 50]
[min_sum_hessian_in_leaf: 0.001]
[bagging_fraction: 0.8]
[pos_bagging_fraction: 1]
[neg_bagging_fraction: 1]
[bagging_freq: 0]
[bagging_seed: 11149]
[feature_fraction: 0.5]
[feature_fraction_bynode: 1]
[feature_fraction_seed: 21351]
[extra_trees: 0]
[extra_seed: 16806]
[early_stopping_round: 0]
[first_metric_only: 0]
[max_delta_step: 0]
[lambda_l1: 0]
[lambda_l2: 0]
[linear_lambda: 0]
[min_gain_to_split: 0]
[drop_rate: 0.1]
[max_drop: 50]
[skip_drop: 0.5]
[xgboost_dart_mode: 0]
[uniform_drop: 0]
[drop_seed: 2965]
[top_rate: 0.2]
[other_rate: 0.1]
[min_data_per_group: 100]
[max_cat_threshold: 32]
[cat_l2: 10]
[cat_smooth: 10]
[max_cat_to_onehot: 4]
[top_k: 20]
[monotone_constraints: ]
[monotone_constraints_method: basic]
[monotone_penalty: 0]
[feature_contri: ]
[forcedsplits_filename: ]
[refit_decay_rate: 0.9]
[cegb_tradeoff: 1]
[cegb_penalty_split: 0]
[cegb_penalty_feature_lazy: ]
[cegb_penalty_feature_coupled: ]
[path_smooth: 0]
[interaction_constraints: ]
[verbosity: -1]
[saved_feature_importance_type: 0]
[linear_tree: 0]
[max_bin: 255]
[max_bin_by_feature: ]
[min_data_in_bin: 3]
[bin_construct_sample_cnt: 200000]
[data_random_seed: 179]
[is_enable_sparse: 1]
[enable_bundle: 1]
[use_missing: 1]
[zero_as_missing: 0]
[feature_pre_filter: 1]
[pre_partition: 0]
[two_round: 0]
[header: 0]
[label_column: ]
[weight_column: ]
[group_column: ]
[ignore_column: ]
[categorical_feature: ]
[forcedbins_filename: ]
[precise_float_parser: 0]
[parser_config_file: ]
[objective_seed: 26397]
[num_class: 1]
[is_unbalance: 0]
[scale_pos_weight: 1]
[sigmoid: 1]
[boost_from_average: 1]
[reg_sqrt: 0]
[alpha: 0.9]
[fair_c: 1]
[poisson_max_delta_step: 0.7]
[tweedie_variance_power: 1.5]
[lambdarank_truncation_level: 30]
[lambdarank_norm: 1]
[label_gain: ]
[lambdarank_position_bias_regularization: 0]
[eval_at: ]
[multi_error_top_k: 1]
[auc_mu_weights: ]
[num_machines: 1]
[local_listen_port: 12400]
[time_out: 120]
[machine_list_filename: ]
[machines: ]
[gpu_platform_id: -1]
[gpu_device_id: -1]
[gpu_use_dp: 0]
[num_gpu: 1]

end of parameters

pandas_categorical:null
