{"learner":{"attributes":{"best_iteration":"53","best_score":"-0.82069"},"feature_names":[],"feature_types":[],"gradient_booster":{"model":{"gbtree_model_param":{"num_parallel_tree":"1","num_trees":"104"},"iteration_indptr":[0,1,2,3,4,5,6,7,8,9,10,11,12,13,14,15,16,17,18,19,20,21,22,23,24,25,26,27,28,29,30,31,32,33,34,35,36,37,38,39,40,41,42,43,44,45,46,47,48,49,50,51,52,53,54,55,56,57,58,59,60,61,62,63,64,65,66,67,68,69,70,71,72,73,74,75,76,77,78,79,80,81,82,83,84,85,86,87,88,89,90,91,92,93,94,95,96,97,98,99,100,101,102,103,104],"tree_info":[0,0,0,0,0,0,0,0,0,0,0,0,0,0,0,0,0,0,0,0,0,0,0,0,0,0,0,0,0,0,0,0,0,0,0,0,0,0,0,0,0,0,0,0,0,0,0,0,0,0,0,0,0,0,0,0,0,0,0,0,0,0,0,0,0,0,0,0,0,0,0,0,0,0,0,0,0,0,0,0,0,0,0,0,0,0,0,0,0,0,0,0,0,0,0,0,0,0,0,0,0,0,0,0],"trees":[{"base_weights":[-1.426069E-7,5.117022E-1,-2.9896522E-1,-3.6231693E-2,1.1863669E0,2.3759453E-2,-9.03697E-1,1.9473426E-1,-1.3227253E-1,1.4701031E0,1.167101E-1,1.3412109E-1,-1.08449556E-1,-1.5749778E0,6.0625434E-2,-4.7560245E-1,8.414273E-1,1.6077307E-1,5.1319864E-2,1.2254908E-1,-9.6829526E-2,-4.7769782E-1,2.6106006E-1,-1.735402E-1,-8.477049E-2,1.0211241E0,-1.3657625E-1,1.0716434E-1,-8.8771003E-1,1.244152E0,3.3901158E-1,5.6306416E-1,-1.4706341E0,-9.2901516E-1,7.915898E-1,1.465933E-1,-8.525082E-3,5.0875425E-2,-1.6187648E-1,1.613407E-1,4.5625366E-2,-5.6525476E-2,9.1335244E-2,-6.954806E-1,1.5883297E-1,-7.483994E-2,-1.672672E-1,-1.4343243E0,-6.609918E-3,1.0361893E0,-2.9125264E-2,-1.4500128E-1,4.5625366E-2,-8.8525735E-2,-1.7196575E-1,1.2760268E-1,-7.43542E-3],"categories":[],"categories_nodes":[],"categories_segments":[],"categories_sizes":[],"default_left":[0,0,0,0,0,0,0,0,0,0,0,0,0,0,0,0,0,0,0,0,0,0,0,0,0,0,0,0,0,0,0,0,0,0,0,0,0,0,0,0,0,0,0,0,0,0,0,0,0,0,0,0,0,0,0,0,0],"id":0,"left_children":[1,3,5,7,9,11,13,15,-1,17,19,-1,21,23,25,27,29,-1,-1,-1,-1,31,33,-1,-1,35,-1,-1,37,39,41,43,45,47,49,-1,-1,-1,-1,-1,-1,-1,-1,51,-1,-1,-1,53,-1,55,-1,-1,-1,-1,-1,-1,-1],"loss_changes":[4.9259445E1,4.394107E1,3.9687737E1,2.0016947E1,1.598967E1,2.3398117E1,4.5893707E1,2.5217943E1,0E0,4.7061005E0,1.5923658E1,0E0,1.6804432E1,3.3999252E0,4.2495537E1,1.9283049E1,5.5470467E0,0E0,0E0,0E0,0E0,6.4382195E1,3.9722137E1,0E0,0E0,9.229206E0,0E0,0E0,2.455907E1,3.9188023E0,8.046886E0,4.078231E1,3.3810425E0,8.407879E0,1.1756994E1,0E0,0E0,0E0,0E0,0E0,0E0,0E0,0E0,1.3262257E1,0E0,0E0,0E0,3.9681625E-1,0E0,9.5502205E0,0E0,0E0,0E0,0E0,0E0,0E0,0E0],"parents":[2147483647,0,0,1,1,2,2,3,3,4,4,5,5,6,6,7,7,9,9,10,10,12,12,13,13,14,14,15,15,16,16,21,21,22,22,25,25,28,28,29,29,30,30,31,31,32,32,33,33,34,34,43,43,47,47,49,49],"right_children":[2,4,6,8,10,12,14,16,-1,18,20,-1,22,24,26,28,30,-1,-1,-1,-1,32,34,-1,-1,36,-1,-1,38,40,42,44,46,48,50,-1,-1,-1,-1,-1,-1,-1,-1,52,-1,-1,-1,54,-1,56,-1,-1,-1,-1,-1,-1,-1],"split_conditions":[4.62E2,5.2E2,4.89E2,6.41E2,4.88E2,2.87E2,5.04E2,4.44E2,-1.3227253E-1,5.85E2,3.77E2,1.3412109E-1,4.78E2,4.73E2,4.81E2,4.72E2,3.99E2,1.6077307E-1,5.1319864E-2,1.2254908E-1,-9.6829526E-2,5.02E2,4.36E2,-1.735402E-1,-8.477049E-2,5.58E2,-1.3657625E-1,1.0716434E-1,4.99E2,4.71E2,4.48E2,5.76E2,4.32E2,4.59E2,5.46E2,1.465933E-1,-8.525082E-3,5.0875425E-2,-1.6187648E-1,1.613407E-1,4.5625366E-2,-5.6525476E-2,9.1335244E-2,5.07E2,1.5883297E-1,-7.483994E-2,-1.672672E-1,3.95E2,-6.609918E-3,5.63E2,-2.9125264E-2,-1.4500128E-1,4.5625366E-2,-8.8525735E-2,-1.7196575E-1,1.2760268E-1,-7.43542E-3],"split_indices":[10,11,5,5,14,3,11,16,0,11,10,0,14,11,8,5,13,0,0,0,0,11,3,0,0,10,0,0,8,11,17,10,16,11,8,0,0,0,0,0,0,0,0,16,0,0,0,5,0,13,0,0,0,0,0,0,0],"split_type":[0,0,0,0,0,0,0,0,0,0,0,0,0,0,0,0,0,0,0,0,0,0,0,0,0,0,0,0,0,0,0,0,0,0,0,0,0,0,0,0,0,0,0,0,0,0,0,0,0,0,0,0,0,0,0,0,0],"sum_hessian":[3.199969E2,1.1774885E2,2.0224802E2,6.549936E1,5.224949E1,1.324987E2,6.974932E1,5.624945E1,9.249909E0,4.09996E1,1.124989E1,1.124989E1,1.2124882E2,4.0749603E1,2.8999716E1,2.774973E1,2.8499722E1,3.5249657E1,5.7499437E0,5.499946E0,5.7499437E0,6.049941E1,6.0749405E1,3.2249683E1,8.499917E0,1.7499828E1,1.1499887E1,5.499946E0,2.2249783E1,1.4999853E1,1.3499868E1,2.974971E1,3.0749699E1,1.8499819E1,4.2249588E1,1.224988E1,5.2499485E0,7.749924E0,1.4499858E1,9.4999075E0,5.499946E0,5.2499485E0,8.249919E0,1.3499868E1,1.6249842E1,7.749924E0,2.2999775E1,1.124989E1,7.249929E0,3.4499664E1,7.749924E0,7.999922E0,5.499946E0,5.2499485E0,5.9999413E0,2.8249723E1,6.249939E0],"tree_param":{"num_deleted":"0","num_feature":"20","num_nodes":"57","size_leaf_vector":"1"}},{"base_weights":[-4.194929E-4,1.9438085E-1,-6.799503E-1,1.1586707E0,6.644094E-2,9.696267E-2,-9.820553E-1,-1.0629597E-2,1.4735819E0,4.1172007E-1,-1.8122584E-1,1.1584818E-1,-5.4679006E-1,-4.516614E-1,-1.4701526E0,8.027575E-2,1.7094307E-1,8.095184E-1,-5.774424E-1,-6.5209046E-3,-1.248802E0,4.260651E-2,-1.1991155E-1,-1.6257164E-1,5.877579E-2,-1.6016486E-1,-7.8660294E-2,1.7917532E-1,1.0301583E0,-9.5856935E-1,2.6750788E-2,-1.6149436E-1,9.7624534E-1,-6.55E-2,-1.7265846E-1,6.020281E-1,-1.1660212E-1,-8.286803E-2,6.988006E-1,1.1541299E0,3.7501592E-3,-1.6538225E-2,-1.3579331E-1,-6.782358E-1,7.831564E-2,1.3203835E-1,2.5602296E-2,-2.3761341E-2,1.1331382E-1,8.763211E-2,3.7335213E-2,8.4572405E-2,1.601081E-1,-1.223076E-1,4.365936E-2,7.64341E-2,-4.5923293E-2],"categories":[],"categories_nodes":[],"categories_segments":[],"categories_sizes":[],"default_left":[0,0,0,0,0,0,0,0,0,0,0,0,0,0,0,0,0,0,0,0,0,0,0,0,0,0,0,0,0,0,0,0,0,0,0,0,0,0,0,0,0,0,0,0,0,0,0,0,0,0,0,0,0,0,0,0,0],"id":1,"left_children":[1,3,5,7,9,11,13,-1,15,17,19,-1,21,23,25,-1,-1,27,29,31,33,-1,-1,-1,35,-1,-1,37,39,41,-1,43,45,-1,-1,47,-1,-1,49,51,-1,-1,-1,53,55,-1,-1,-1,-1,-1,-1,-1,-1,-1,-1,-1,-1],"loss_changes":[4.2435238E1,3.0661156E1,1.6858974E1,1.1758209E1,1.8975626E1,1.4920624E1,1.2672657E1,0E0,2.3277206E0,3.691478E1,2.4126614E1,0E0,9.201388E0,1.5755848E1,1.1116638E0,0E0,0E0,9.060867E0,8.999673E0,1.7247328E1,4.030525E0,0E0,0E0,0E0,1.3462787E1,0E0,0E0,1.0239545E1,5.9904137E0,5.7714634E0,0E0,1.2170306E1,3.4853954E0,0E0,0E0,6.4879694E0,0E0,0E0,4.0733957E-1,4.649372E0,0E0,0E0,0E0,1.9423275E1,2.5311018E1,0E0,0E0,0E0,0E0,0E0,0E0,0E0,0E0,0E0,0E0,0E0,0E0],"parents":[2147483647,0,0,1,1,2,2,3,3,4,4,5,5,6,6,8,8,9,9,10,10,12,12,13,13,14,14,17,17,18,18,19,19,20,20,24,24,27,27,28,28,29,29,31,31,32,32,35,35,38,38,39,39,43,43,44,44],"right_children":[2,4,6,8,10,12,14,-1,16,18,20,-1,22,24,26,-1,-1,28,30,32,34,-1,-1,-1,36,-1,-1,38,40,42,-1,44,46,-1,-1,48,-1,-1,50,52,-1,-1,-1,54,56,-1,-1,-1,-1,-1,-1,-1,-1,-1,-1,-1,-1],"split_conditions":[5.61E2,3.66E2,4.66E2,3.14E2,4.25E2,4.64E2,4.91E2,-1.0629597E-2,5.25E2,5.38E2,4.95E2,1.1584818E-1,4.8E2,4.66E2,5.98E2,8.027575E-2,1.7094307E-1,4.84E2,3.99E2,6.26E2,4.87E2,4.260651E-2,-1.1991155E-1,-1.6257164E-1,5.69E2,-1.6016486E-1,-7.8660294E-2,4.55E2,5.49E2,3.99E2,2.6750788E-2,4.74E2,4.72E2,-6.55E-2,-1.7265846E-1,5.34E2,-1.1660212E-1,-8.286803E-2,3.71E2,4.95E2,3.7501592E-3,-1.6538225E-2,-1.3579331E-1,5.2E2,5.44E2,1.3203835E-1,2.5602296E-2,-2.3761341E-2,1.1331382E-1,8.763211E-2,3.7335213E-2,8.4572405E-2,1.601081E-1,-1.223076E-1,4.365936E-2,7.64341E-2,-4.5923293E-2],"split_indices":[9,13,12,15,9,4,8,0,16,13,0,0,13,4,16,0,0,4,9,10,4,0,0,0,13,0,0,13,8,16,0,4,4,0,0,15,0,0,15,4,0,0,0,13,15,0,0,0,0,0,0,0,0,0,0,0,0],"split_type":[0,0,0,0,0,0,0,0,0,0,0,0,0,0,0,0,0,0,0,0,0,0,0,0,0,0,0,0,0,0,0,0,0,0,0,0,0,0,0,0,0,0,0,0,0,0,0,0,0,0,0,0,0,0,0,0,0],"sum_hessian":[3.185752E2,2.4815175E2,7.042344E1,2.8123917E1,2.2002783E2,1.9907377E1,5.051606E1,5.7378807E0,2.2386036E1,9.162646E1,1.2840137E2,7.213336E0,1.2694041E1,2.5131794E1,2.5384268E1,6.968693E0,1.5417344E1,6.547632E1,2.6150133E1,1.112086E2,1.7192774E1,5.2344375E0,7.4596033E0,6.953386E0,1.817841E1,2.016244E1,5.2218285E0,1.7446299E1,4.803002E1,1.7928677E1,8.221456E0,9.678253E1,1.4426067E1,8.722774E0,8.469999E0,1.2945131E1,5.233278E0,5.73263E0,1.1713668E1,4.255297E1,5.477052E0,6.477553E0,1.1451124E1,3.0098404E1,6.668413E1,9.197837E0,5.22823E0,5.2298217E0,7.715309E0,6.4841433E0,5.229525E0,2.6890297E1,1.5662674E1,2.015241E1,9.945994E0,2.9110758E1,3.757337E1],"tree_param":{"num_deleted":"0","num_feature":"20","num_nodes":"57","size_leaf_vector":"1"}},{"base_weights":[-7.325232E-4,-1.0381452E-1,1.1661224E0,2.3582453E-1,-3.9383936E-1,1.4726664E0,8.4763806E-4,-1.2961465E-1,9.8601073E-1,1.1413534E-1,-9.481245E-1,8.994529E-2,1.6571903E-1,9.3878716E-1,-2.8371468E-1,-5.738134E-2,1.3922542E0,7.590499E-1,-3.1498715E-1,-1.7353365E-1,-1.2204565E0,1.2263437E-1,4.753168E-2,-5.9680223E-1,2.1047014E-1,6.9779836E-2,1.5011322E-1,-7.817326E-2,1.1486442E0,4.7852767E-1,-5.4203904E-1,8.427496E-1,-1.3743925E-1,-1.4257339E0,-8.265007E-1,-9.033023E-1,3.566605E-1,-4.143607E-1,1.1535497E-1,2.755821E-3,1.4121264E0,1.11272275E-1,-2.8230801E-2,-1.1428524E0,-1.4083315E-1,1.5049492E-1,-1.1036105E-3,-1.049405E0,-1.6936174E-1,-1.2953906E-2,-1.3823394E-1,-1.1190783E-1,9.471593E-3,-2.9696828E-2,1.10717E-1,-1.22128986E-1,2.1091012E-2,1.7091814E-1,8.319038E-2,-3.549285E-2,-1.4932671E-1,-1.250241E-1,4.6962824E-2,-1.3194565E-1,-5.635869E-2],"categories":[],"categories_nodes":[],"categories_segments":[],"categories_sizes":[],"default_left":[0,0,0,0,0,0,0,0,0,0,0,0,0,0,0,0,0,0,0,0,0,0,0,0,0,0,0,0,0,0,0,0,0,0,0,0,0,0,0,0,0,0,0,0,0,0,0,0,0,0,0,0,0,0,0,0,0,0,0,0,0,0,0,0,0],"id":2,"left_children":[1,3,5,7,9,11,-1,13,15,17,19,-1,-1,21,23,-1,25,27,29,31,33,-1,-1,35,37,-1,-1,-1,39,41,43,45,-1,47,49,51,53,55,-1,-1,57,-1,-1,59,61,-1,-1,63,-1,-1,-1,-1,-1,-1,-1,-1,-1,-1,-1,-1,-1,-1,-1,-1,-1],"loss_changes":[3.8314365E1,2.8922554E1,9.163063E0,3.7256344E1,4.4663605E1,6.710968E-1,0E0,1.5405661E1,2.8983917E1,2.33374E1,1.5773605E1,0E0,0E0,9.9281025E-1,1.2678377E1,0E0,1.6427765E0,2.1091608E1,9.416129E0,2.6638063E1,3.3424072E0,0E0,0E0,1.4912386E1,1.9454945E1,0E0,0E0,0E0,8.012127E0,6.026206E0,9.47744E0,6.7603874E0,0E0,1.7886734E0,8.1613455E0,8.30303E0,6.6383104E0,1.0402208E1,0E0,0E0,2.378498E0,0E0,0E0,3.85153E0,1.7596767E1,0E0,0E0,1.5310307E0,0E0,0E0,0E0,0E0,0E0,0E0,0E0,0E0,0E0,0E0,0E0,0E0,0E0,0E0,0E0,0E0,0E0],"parents":[2147483647,0,0,1,1,2,2,3,3,4,4,5,5,7,7,8,8,9,9,10,10,13,13,14,14,16,16,17,17,18,18,19,19,20,20,23,23,24,24,28,28,29,29,30,30,31,31,33,33,34,34,35,35,36,36,37,37,40,40,43,43,44,44,47,47],"right_children":[2,4,6,8,10,12,-1,14,16,18,20,-1,-1,22,24,-1,26,28,30,32,34,-1,-1,36,38,-1,-1,-1,40,42,44,46,-1,48,50,52,54,56,-1,-1,58,-1,-1,60,62,-1,-1,64,-1,-1,-1,-1,-1,-1,-1,-1,-1,-1,-1,-1,-1,-1,-1,-1,-1],"split_conditions":[6.99E2,4.84E2,6.33E2,4.93E2,4.78E2,3.96E2,8.4763806E-4,2.73E2,4.81E2,5.56E2,4.84E2,8.994529E-2,1.6571903E-1,5.74E2,4.24E2,-5.738134E-2,4.43E2,3.96E2,4.19E2,5.1E2,5.15E2,1.2263437E-1,4.753168E-2,5.43E2,4.61E2,6.9779836E-2,1.5011322E-1,-7.817326E-2,5.44E2,4.66E2,6E2,4.58E2,-1.3743925E-1,5.63E2,4.84E2,6.3E2,4.27E2,4.79E2,1.1535497E-1,2.755821E-3,5.37E2,1.11272275E-1,-2.8230801E-2,5.25E2,4.83E2,1.5049492E-1,-1.1036105E-3,4.94E2,-1.6936174E-1,-1.2953906E-2,-1.3823394E-1,-1.1190783E-1,9.471593E-3,-2.9696828E-2,1.10717E-1,-1.22128986E-1,2.1091012E-2,1.7091814E-1,8.319038E-2,-3.549285E-2,-1.4932671E-1,-1.250241E-1,4.6962824E-2,-1.3194565E-1,-5.635869E-2],"split_indices":[3,19,19,3,0,16,0,3,0,13,7,0,0,2,3,0,11,3,3,11,11,0,0,13,7,0,0,0,19,7,19,7,0,19,14,16,7,0,0,0,7,0,0,11,11,0,0,0,0,0,0,0,0,0,0,0,0,0,0,0,0,0,0,0,0],"split_type":[0,0,0,0,0,0,0,0,0,0,0,0,0,0,0,0,0,0,0,0,0,0,0,0,0,0,0,0,0,0,0,0,0,0,0,0,0,0,0,0,0,0,0,0,0,0,0,0,0,0,0,0,0,0,0,0,0,0,0,0,0,0,0,0,0],"sum_hessian":[3.1653204E2,2.916759E2,2.4856125E1,1.3443277E2,1.5724313E2,1.9437078E1,5.4190464E0,9.095363E1,4.3479137E1,8.2463524E1,7.477962E1,6.163854E0,1.3273225E1,1.0823108E1,8.013052E1,8.898752E0,3.4580383E1,3.2640427E1,4.9823097E1,1.9878014E1,5.4901604E1,5.663334E0,5.1597743E0,4.8926075E1,3.1204445E1,5.690932E0,2.8889452E1,6.3844466E0,2.625598E1,1.0838049E1,3.898505E1,1.092794E1,8.950072E0,3.4372303E1,2.0529299E1,3.706407E1,1.1862006E1,1.9106316E1,1.2098128E1,5.2066936E0,2.1049286E1,5.658719E0,5.1793303E0,1.4869358E1,2.411569E1,5.7249603E0,5.20298E0,1.6337868E1,1.8034437E1,9.655455E0,1.0873844E1,3.037546E1,6.68861E0,6.663225E0,5.1987805E0,7.925292E0,1.1181025E1,1.2634899E1,8.414386E0,5.1968575E0,9.672501E0,8.187784E0,1.5927906E1,9.397909E0,6.939959E0],"tree_param":{"num_deleted":"0","num_feature":"20","num_nodes":"65","size_leaf_vector":"1"}},{"base_weights":[-3.243659E-4,-4.5806468E-1,4.018952E-1,5.52455E-2,-9.358951E-1,8.411497E-1,-1.14726216E-1,6.003975E-1,-7.160784E-1,-1.5106107E0,-4.901946E-1,3.6624613E-1,1.5265529E-1,-1.1915894E-1,2.2628747E-2,-7.441266E-1,1.2317729E0,9.9517666E-2,-1.1117966E0,-1.6006571E-1,-8.5304685E-2,-1.090066E0,4.6873894E-1,9.9757814E-1,-3.0594405E-2,-2.970433E-1,6.1442345E-1,-1.3432804E-1,8.55664E-3,7.530914E-1,1.4879724E-1,-1.5944634E-1,-5.2597374E-1,-2.6692737E-2,-1.2766039E0,-6.780464E-3,1.1490544E-1,1.345348E0,-7.017476E-3,-6.0610944E-1,7.01719E-1,-8.173299E-1,2.9421508E-1,1.1139421E0,-8.529294E-2,2.081618E-2,1.1201014E-1,-7.686351E-2,-1.8393865E-2,-6.2459685E-2,-1.4599721E-1,1.5658467E-1,7.3508285E-2,-1.0981104E0,5.4745078E-2,1.2289893E-2,9.725544E-2,-1.2224942E-1,-5.1421756E-1,1.2607361E-1,-2.3884676E-1,6.070724E-2,1.414902E-1,-1.2686287E-1,-6.651143E-2,-1.1268234E-1,1.7276285E-2,2.9518848E-2,-6.30386E-2],"categories":[],"categories_nodes":[],"categories_segments":[],"categories_sizes":[],"default_left":[0,0,0,0,0,0,0,0,0,0,0,0,0,0,0,0,0,0,0,0,0,0,0,0,0,0,0,0,0,0,0,0,0,0,0,0,0,0,0,0,0,0,0,0,0,0,0,0,0,0,0,0,0,0,0,0,0,0,0,0,0,0,0,0,0,0,0,0,0],"id":3,"left_children":[1,3,5,7,9,11,13,15,17,19,21,23,-1,-1,25,27,29,-1,31,-1,-1,33,35,37,39,41,43,-1,-1,45,-1,-1,47,-1,49,-1,-1,51,-1,53,55,57,59,61,-1,-1,-1,-1,-1,-1,-1,-1,-1,63,-1,-1,-1,-1,65,-1,67,-1,-1,-1,-1,-1,-1,-1,-1],"loss_changes":[5.803236E1,3.6211464E1,3.816964E1,3.0712782E1,1.883126E1,2.8995628E1,1.15609255E1,3.719808E1,2.161045E1,5.8219147E-1,2.6117123E1,1.3797764E1,0E0,0E0,1.3451339E1,7.2138624E0,2.4922333E0,0E0,6.248476E0,0E0,0E0,3.9101143E0,6.5860415E0,7.9811E0,1.5054856E1,1.4456836E1,1.9219454E1,0E0,0E0,2.2257805E0,0E0,0E0,9.222071E-1,0E0,1.7548866E0,0E0,0E0,1.0114555E0,0E0,1.1937052E1,2.3477197E0,2.4228153E0,1.1824789E1,2.0438156E0,0E0,0E0,0E0,0E0,0E0,0E0,0E0,0E0,0E0,2.1456337E-1,0E0,0E0,0E0,0E0,6.902754E0,0E0,3.3761835E0,0E0,0E0,0E0,0E0,0E0,0E0,0E0,0E0],"parents":[2147483647,0,0,1,1,2,2,3,3,4,4,5,5,6,6,7,7,8,8,9,9,10,10,11,11,14,14,15,15,16,16,18,18,21,21,22,22,23,23,24,24,25,25,26,26,29,29,32,32,34,34,37,37,39,39,40,40,41,41,42,42,43,43,53,53,58,58,60,60],"right_children":[2,4,6,8,10,12,14,16,18,20,22,24,-1,-1,26,28,30,-1,32,-1,-1,34,36,38,40,42,44,-1,-1,46,-1,-1,48,-1,50,-1,-1,52,-1,54,56,58,60,62,-1,-1,-1,-1,-1,-1,-1,-1,-1,64,-1,-1,-1,-1,66,-1,68,-1,-1,-1,-1,-1,-1,-1,-1],"split_conditions":[4.9E2,4.84E2,4.62E2,4.96E2,4.73E2,5.09E2,3.72E2,5E2,4.71E2,4.77E2,4.9E2,4.58E2,1.5265529E-1,-1.1915894E-1,4.79E2,4.69E2,5.31E2,9.9517666E-2,4.51E2,-1.6006571E-1,-8.5304685E-2,4.76E2,4.5E2,5.79E2,4.68E2,4.78E2,5E2,-1.3432804E-1,8.55664E-3,4.54E2,1.4879724E-1,-1.5944634E-1,5.24E2,-2.6692737E-2,4.97E2,-6.780464E-3,1.1490544E-1,4.4E2,-7.017476E-3,4.86E2,4.48E2,2.91E2,3.51E2,5.22E2,-8.529294E-2,2.081618E-2,1.1201014E-1,-7.686351E-2,-1.8393865E-2,-6.2459685E-2,-1.4599721E-1,1.5658467E-1,7.3508285E-2,4.36E2,5.4745078E-2,1.2289893E-2,9.725544E-2,-1.2224942E-1,4.65E2,1.2607361E-1,5.23E2,6.070724E-2,1.414902E-1,-1.2686287E-1,-6.651143E-2,-1.1268234E-1,1.7276285E-2,2.9518848E-2,-6.30386E-2],"split_indices":[6,7,10,1,1,1,2,17,17,6,17,19,0,0,4,4,17,0,6,0,0,4,6,6,17,17,17,0,0,6,0,0,2,0,1,0,0,17,0,1,1,19,19,1,0,0,0,0,0,0,0,0,0,9,0,0,0,0,1,0,10,0,0,0,0,0,0,0,0],"split_type":[0,0,0,0,0,0,0,0,0,0,0,0,0,0,0,0,0,0,0,0,0,0,0,0,0,0,0,0,0,0,0,0,0,0,0,0,0,0,0,0,0,0,0,0,0,0,0,0,0,0,0,0,0,0,0,0,0,0,0,0,0,0,0,0,0,0,0,0,0],"sum_hessian":[3.1320132E2,1.4642526E2,1.6677606E2,7.101821E1,7.540706E1,8.97978E1,7.6978264E1,4.173944E1,2.9278769E1,3.1892923E1,4.3514133E1,5.3950684E1,3.584711E1,7.839705E0,6.913856E1,1.3280282E1,2.845916E1,5.2144384E0,2.4064331E1,2.6790081E1,5.102842E0,2.6684565E1,1.6829569E1,2.0238901E1,3.3711784E1,4.5213478E1,2.3925077E1,7.352062E0,5.92822E0,1.1295047E1,1.7164112E1,1.2249809E1,1.1814521E1,5.379101E0,2.1305464E1,9.912346E0,6.917224E0,1.5070438E1,5.168462E0,1.897328E1,1.4738503E1,2.3846788E1,2.1366692E1,1.8028599E1,5.896477E0,5.176403E0,6.1186438E0,6.181636E0,5.6328855E0,5.6438217E0,1.5661643E1,9.920247E0,5.1501913E0,1.3334217E1,5.639063E0,5.1614366E0,9.577067E0,8.907358E0,1.493943E1,7.110039E0,1.4256651E1,7.8406606E0,1.018794E1,8.18213E0,5.1520877E0,7.558754E0,7.3806763E0,6.134989E0,8.121663E0],"tree_param":{"num_deleted":"0","num_feature":"20","num_nodes":"69","size_leaf_vector":"1"}},{"base_weights":[-7.489819E-4,-4.2549276E-1,3.7297687E-1,5.678383E-2,-8.906614E-1,7.8458774E-1,-1.06058806E-1,5.2782756E-1,-6.5647393E-1,-3.1544402E-1,-1.3251519E0,3.373501E-1,1.4460479E-1,-5.026888E-1,3.8122436E-1,1.2700695E0,-9.4641104E-2,8.2651906E-2,-1.0105475E0,-1.4079766E-1,6.5450895E-1,-1.4086797E0,-5.9245665E-2,5.2341866E-1,-9.601118E-2,-3.1345025E-2,-1.0216795E0,-5.7922435E-1,1.0419923E0,1.4232805E-1,6.867309E-2,-8.9090234E-1,9.0178025E-1,-1.5311056E-1,-4.908175E-1,-3.7908684E-2,1.0982114E-1,-1.5307389E-1,-1.031988E0,8.038337E-1,-9.828898E-2,2.1891358E-1,-6.424345E-2,-2.3267398E-2,-1.2877614E0,1.2917794E-2,-1.0880952E-1,1.3080631E-1,3.894715E-2,-1.2383324E-1,-2.590004E-2,1.2512852E-1,3.9115872E-2,-1.3503641E-2,-7.265978E-2,-3.0653624E-2,-1.5068035E-1,1.4348837E-2,9.681749E-1,-1.1297981E-1,5.369867E-2,8.388151E-1,-9.592935E-2,-1.4939304E-1,-8.041791E-2,1.24233805E-1,3.873668E-2,3.633603E-2,1.1773562E-1],"categories":[],"categories_nodes":[],"categories_segments":[],"categories_sizes":[],"default_left":[0,0,0,0,0,0,0,0,0,0,0,0,0,0,0,0,0,0,0,0,0,0,0,0,0,0,0,0,0,0,0,0,0,0,0,0,0,0,0,0,0,0,0,0,0,0,0,0,0,0,0,0,0,0,0,0,0,0,0,0,0,0,0,0,0,0,0,0,0],"id":4,"left_children":[1,3,5,7,9,11,13,15,17,19,21,23,-1,25,27,29,31,-1,33,-1,35,37,-1,39,-1,41,43,45,47,-1,-1,49,51,-1,53,-1,-1,-1,55,57,59,61,-1,-1,63,-1,-1,-1,-1,-1,-1,-1,-1,-1,-1,-1,-1,-1,65,-1,-1,67,-1,-1,-1,-1,-1,-1,-1],"loss_changes":[4.9256336E1,3.2632805E1,3.2629993E1,2.4619665E1,1.8073853E1,2.5811222E1,1.5105435E1,2.0479534E1,1.6157902E1,3.6051743E1,1.7259293E0,1.3621717E1,0E0,1.0479636E1,2.293904E1,8.2512665E-1,2.0557129E1,0E0,5.7435074E0,0E0,8.782838E0,1.13731384E-1,0E0,8.477453E0,0E0,3.742268E0,3.9873638E0,5.54317E0,3.1724815E0,0E0,0E0,2.8278456E0,1.5728207E0,0E0,1.0330639E0,0E0,0E0,0E0,3.7000866E0,3.4757767E0,1.1003141E1,1.3552673E1,0E0,0E0,2.9907608E-1,0E0,0E0,0E0,0E0,0E0,0E0,0E0,0E0,0E0,0E0,0E0,0E0,0E0,3.7380219E0,0E0,0E0,1.4989424E0,0E0,0E0,0E0,0E0,0E0,0E0,0E0],"parents":[2147483647,0,0,1,1,2,2,3,3,4,4,5,5,6,6,7,7,8,8,9,9,10,10,11,11,13,13,14,14,15,15,16,16,18,18,20,20,21,21,23,23,25,25,26,26,27,27,28,28,31,31,32,32,34,34,38,38,39,39,40,40,41,41,44,44,58,58,61,61],"right_children":[2,4,6,8,10,12,14,16,18,20,22,24,-1,26,28,30,32,-1,34,-1,36,38,-1,40,-1,42,44,46,48,-1,-1,50,52,-1,54,-1,-1,-1,56,58,60,62,-1,-1,64,-1,-1,-1,-1,-1,-1,-1,-1,-1,-1,-1,-1,-1,66,-1,-1,68,-1,-1,-1,-1,-1,-1,-1],"split_conditions":[4.76E2,5.13E2,4.62E2,5.01E2,4.8E2,5.09E2,4.79E2,4.74E2,4.11E2,4.73E2,7.03E2,6.46E2,1.4460479E-1,4.53E2,4.78E2,4.71E2,4.22E2,8.2651906E-2,4.16E2,-1.4079766E-1,3.83E2,4.5E2,-5.9245665E-2,6.34E2,-9.601118E-2,4.88E2,5.08E2,4.17E2,5.58E2,1.4232805E-1,6.867309E-2,6.23E2,4.41E2,-1.5311056E-1,5.33E2,-3.7908684E-2,1.0982114E-1,-1.5307389E-1,4.93E2,4.36E2,5.53E2,4.95E2,-6.424345E-2,-2.3267398E-2,4.61E2,1.2917794E-2,-1.0880952E-1,1.3080631E-1,3.894715E-2,-1.2383324E-1,-2.590004E-2,1.2512852E-1,3.9115872E-2,-1.3503641E-2,-7.265978E-2,-3.0653624E-2,-1.5068035E-1,1.4348837E-2,5.67E2,-1.1297981E-1,5.369867E-2,5.76E2,-9.592935E-2,-1.4939304E-1,-8.041791E-2,1.24233805E-1,3.873668E-2,3.633603E-2,1.1773562E-1],"split_indices":[18,5,10,1,0,1,0,0,19,1,19,5,0,3,3,1,3,0,18,0,18,18,0,3,0,1,18,5,18,0,0,10,5,0,3,0,0,0,1,1,18,5,0,0,16,0,0,0,0,0,0,0,0,0,0,0,0,0,18,0,0,10,0,0,0,0,0,0,0],"split_type":[0,0,0,0,0,0,0,0,0,0,0,0,0,0,0,0,0,0,0,0,0,0,0,0,0,0,0,0,0,0,0,0,0,0,0,0,0,0,0,0,0,0,0,0,0,0,0,0,0,0,0,0,0,0,0,0,0,0,0,0,0,0,0,0,0,0,0,0,0],"sum_hessian":[3.0830035E2,1.4423598E2,1.6406438E2,7.1246796E1,7.298918E1,8.789922E1,7.616516E1,4.306569E1,2.8181105E1,3.2150925E1,4.0838257E1,5.3342434E1,3.455679E1,4.1970856E1,3.4194305E1,1.916849E1,2.3897202E1,5.174412E0,2.3006693E1,1.4907673E1,1.7243252E1,3.583091E1,5.007345E0,4.7173836E1,6.1686E0,2.2550783E1,1.9420074E1,1.3987053E1,2.020725E1,1.4040844E1,5.1276445E0,1.334157E1,1.0555631E1,1.0521981E1,1.2484713E1,5.222702E0,1.2020549E1,2.4748146E1,1.1082763E1,3.230847E1,1.4865361E1,1.6454117E1,6.0966663E0,5.370255E0,1.404982E1,6.159092E0,7.8279614E0,1.3640565E1,6.5666857E0,7.9892554E0,5.3523145E0,5.405332E0,5.1502986E0,5.602912E0,6.8818E0,5.0352273E0,6.047536E0,6.8116083E0,2.5496864E1,5.3690677E0,9.496294E0,1.0970276E1,5.4838405E0,8.385484E0,5.6643357E0,1.6547052E1,8.949811E0,5.424831E0,5.5454454E0],"tree_param":{"num_deleted":"0","num_feature":"20","num_nodes":"69","size_leaf_vector":"1"}},{"base_weights":[-2.067344E-3,-3.949891E-1,3.370471E-1,5.2654848E-2,-8.380456E-1,7.065239E-1,-9.3400255E-2,2.1271907E-1,-7.130723E-1,-2.9910395E-1,-1.2495377E0,8.2253337E-1,-1.9802304E-2,-4.4348866E-1,4.1258103E-1,3.4198847E-1,-5.1908392E-2,-3.131641E-2,-9.460214E-2,-4.6769446E-1,3.185664E-2,-1.3333119E0,-5.7343222E-2,1.1008674E0,6.244218E-1,-1.1002669E0,-1.2620352E-1,6.979791E-1,-4.2265672E-2,-2.5922117E-1,5.5602217E-1,-8.556439E-2,-1.7224912E-1,-1.4469956E-1,-9.3103014E-2,1.2766752E0,1.6114816E-2,8.576224E-1,-8.418215E-2,-5.8222312E-2,-1.3325241E-1,3.2998914E-1,-3.600531E-1,1.262837E-1,2.5598076E-1,-7.919846E-2,1.42221125E-2,9.0474623E-1,1.3971008E-1,4.8894092E-2,-7.037437E-2,4.1543793E-2,1.4869028E-1,2.739642E-2,1.0293709E0,-7.0412055E-2,4.3656215E-2,4.6666068E-4,6.085493E-2,7.056274E-2,-7.962345E-2,-3.1060118E-2,7.832078E-2,1.2075507E-1,2.427491E-2,9.122537E-2,-4.449598E-2,1.1999484E-1,6.1894108E-2,-3.2673802E-2,4.872982E-2],"categories":[],"categories_nodes":[],"categories_segments":[],"categories_sizes":[],"default_left":[0,0,0,0,0,0,0,0,0,0,0,0,0,0,0,0,0,0,0,0,0,0,0,0,0,0,0,0,0,0,0,0,0,0,0,0,0,0,0,0,0,0,0,0,0,0,0,0,0,0,0,0,0,0,0,0,0,0,0,0,0,0,0,0,0,0,0,0,0,0,0],"id":5,"left_children":[1,3,5,7,9,11,13,15,17,19,21,23,-1,25,27,29,-1,-1,-1,31,-1,33,-1,35,37,39,41,43,-1,45,47,-1,49,-1,-1,51,-1,53,55,-1,-1,57,59,-1,61,-1,-1,63,65,-1,-1,-1,-1,-1,67,-1,-1,-1,-1,69,-1,-1,-1,-1,-1,-1,-1,-1,-1,-1,-1],"loss_changes":[4.052772E1,2.798873E1,2.603105E1,8.857176E0,1.5343372E1,9.394009E0,1.369716E1,5.8078394E0,8.6914825E-1,3.4811044E0,1.4938354E0,3.6226158E0,0E0,9.358191E0,7.855662E0,6.7305746E0,0E0,0E0,0E0,2.7802472E0,0E0,2.4074554E-1,0E0,4.9472847E0,7.999546E0,9.947357E-1,3.5175245E0,5.672965E0,0E0,3.1325607E0,5.399782E0,0E0,5.8796515E0,0E0,0E0,4.113373E0,0E0,3.3451195E0,4.4361134E0,0E0,0E0,1.0228609E0,4.1020327E0,0E0,4.6427836E0,0E0,0E0,3.8224773E0,8.777234E0,0E0,0E0,0E0,0E0,0E0,1.1891804E0,0E0,0E0,0E0,0E0,2.1059682E0,0E0,0E0,0E0,0E0,0E0,0E0,0E0,0E0,0E0,0E0,0E0],"parents":[2147483647,0,0,1,1,2,2,3,3,4,4,5,5,6,6,7,7,8,8,9,9,10,10,11,11,13,13,14,14,15,15,19,19,21,21,23,23,24,24,25,25,26,26,27,27,29,29,30,30,32,32,35,35,37,37,38,38,41,41,42,42,44,44,47,47,48,48,54,54,59,59],"right_children":[2,4,6,8,10,12,14,16,18,20,22,24,-1,26,28,30,-1,-1,-1,32,-1,34,-1,36,38,40,42,44,-1,46,48,-1,50,-1,-1,52,-1,54,56,-1,-1,58,60,-1,62,-1,-1,64,66,-1,-1,-1,-1,-1,68,-1,-1,-1,-1,70,-1,-1,-1,-1,-1,-1,-1,-1,-1,-1,-1],"split_conditions":[4.89E2,5.13E2,4.62E2,4.88E2,4.8E2,6.46E2,4.78E2,5.97E2,5.65E2,6.38E2,6.55E2,4.7E2,-1.9802304E-2,4.74E2,4.54E2,3.86E2,-5.1908392E-2,-3.131641E-2,-9.460214E-2,4.5E2,3.185664E-2,4.75E2,-5.7343222E-2,5.87E2,4.87E2,5.23E2,5.19E2,5.1E2,-4.2265672E-2,4.43E2,5.22E2,-8.556439E-2,4.67E2,-1.4469956E-1,-9.3103014E-2,4.78E2,1.6114816E-2,5.21E2,4.9E2,-5.8222312E-2,-1.3325241E-1,4.1E2,4.68E2,1.262837E-1,4.61E2,-7.919846E-2,1.42221125E-2,4.54E2,4.37E2,4.8894092E-2,-7.037437E-2,4.1543793E-2,1.4869028E-1,2.739642E-2,4.82E2,-7.0412055E-2,4.3656215E-2,4.6666068E-4,6.085493E-2,4.48E2,-7.962345E-2,-3.1060118E-2,7.832078E-2,1.2075507E-1,2.427491E-2,9.122537E-2,-4.449598E-2,1.1999484E-1,6.1894108E-2,-3.2673802E-2,4.872982E-2],"split_indices":[6,5,10,14,0,5,14,2,10,2,15,15,0,16,12,5,0,0,0,6,0,6,0,6,14,6,6,16,0,6,15,0,0,0,0,0,0,15,14,0,0,15,2,0,2,0,0,12,16,0,0,0,0,0,0,0,0,0,0,12,0,0,0,0,0,0,0,0,0,0,0],"split_type":[0,0,0,0,0,0,0,0,0,0,0,0,0,0,0,0,0,0,0,0,0,0,0,0,0,0,0,0,0,0,0,0,0,0,0,0,0,0,0,0,0,0,0,0,0,0,0,0,0,0,0,0,0,0,0,0,0,0,0,0,0,0,0,0,0,0,0,0,0,0,0],"sum_hessian":[3.021593E2,1.398984E2,1.6226088E2,7.002725E1,6.987116E1,8.69691E1,7.529177E1,5.851726E1,1.150999E1,3.099851E1,3.8872654E1,7.7163445E1,9.805656E0,4.4574314E1,3.0717457E1,5.0185E1,8.332259E0,5.0996566E0,6.410333E0,2.4542538E1,6.4559727E0,3.3722195E1,5.1504583E0,3.0190683E1,4.6972763E1,1.371552E1,3.0858795E1,2.3016968E1,7.70049E0,1.3120125E1,3.7064877E1,9.790504E0,1.4752032E1,2.4267342E1,9.454853E0,2.5130548E1,5.0601344E0,3.518359E1,1.1789174E1,5.331205E0,8.384315E0,1.0318465E1,2.054033E1,9.288935E0,1.3728032E1,5.219868E0,7.900256E0,1.9531265E1,1.7533613E1,6.6096087E0,8.142424E0,5.514692E0,1.9615856E1,8.589336E0,2.6594254E1,5.2212324E0,6.5679417E0,5.228731E0,5.0897346E0,1.0757913E1,9.782417E0,6.815098E0,6.912935E0,1.2835891E1,6.6953735E0,7.3118873E0,1.0221726E1,1.742759E1,9.166665E0,5.617933E0,5.1399794E0],"tree_param":{"num_deleted":"0","num_feature":"20","num_nodes":"71","size_leaf_vector":"1"}},{"base_weights":[-2.2268372E-3,-3.6517587E-1,3.159247E-1,4.1958813E-2,-7.52825E-1,-1.683575E-2,7.7445906E-1,5.232526E-1,-6.310572E-1,-2.4285077E-1,-1.1691126E0,2.0621504E-1,-3.4441486E-1,1.0135058E0,-4.0923548E-1,-6.317801E-1,1.1049925E0,9.314888E-2,-1.0035161E0,-1.1222512E0,9.014681E-1,-1.2484696E0,-5.31613E-2,-5.296227E-2,3.6562166E-1,-7.7608585E-1,6.663424E-2,-2.0439299E-2,1.1683872E0,-1.07318774E-1,2.8956616E-2,-1.2333327E-1,3.723395E-2,5.888615E-2,1.2059824E0,-1.4375912E-1,-5.473664E-1,-1.285364E-1,-5.541544E-2,2.094996E-2,1.2452742E-1,-9.3357295E-1,-1.4359596E-1,2.3513896E-2,1.1778786E-1,-8.716903E-3,-1.0289931E0,4.2180637E-1,-8.300399E-2,3.2842975E-2,1.2581813E0,1.3554667E-1,6.1793286E-2,-1.0232482E-1,1.4090168E-2,-1.2228924E-1,-3.210194E-2,1.5214474E-1,-5.6037884E-2,-5.3534407E-2,-1.348022E-1,-5.7346452E-2,9.887413E-2,1.3829695E-1,9.835387E-1,-1.3392033E-2,9.052857E-2,3.69819E-2,1.21281005E-1],"categories":[],"categories_nodes":[],"categories_segments":[],"categories_sizes":[],"default_left":[0,0,0,0,0,0,0,0,0,0,0,0,0,0,0,0,0,0,0,0,0,0,0,0,0,0,0,0,0,0,0,0,0,0,0,0,0,0,0,0,0,0,0,0,0,0,0,0,0,0,0,0,0,0,0,0,0,0,0,0,0,0,0,0,0,0,0,0,0],"id":6,"left_children":[1,3,5,7,9,11,13,15,17,19,21,23,25,27,29,31,33,-1,35,37,39,41,-1,-1,43,45,47,-1,49,-1,-1,-1,-1,-1,51,-1,53,-1,-1,-1,-1,55,-1,57,-1,-1,59,61,-1,-1,63,-1,-1,-1,-1,-1,-1,65,-1,-1,-1,-1,-1,-1,67,-1,-1,-1,-1],"loss_changes":[3.4573845E1,2.210446E1,2.4358395E1,2.27327E1,1.4936714E1,6.8981695E0,1.9406567E1,2.8160316E1,1.7981201E1,3.470715E1,1.3199997E0,6.787257E0,6.8341527E0,1.0826447E1,5.8735576E0,9.112604E0,7.255821E-1,0E0,3.9916592E0,1.0834541E0,3.3326225E0,6.743965E-1,0E0,0E0,1.2975719E1,3.1725426E0,6.8790665E0,0E0,3.3538132E0,0E0,0E0,0E0,0E0,0E0,1.1035843E0,0E0,4.527401E0,0E0,0E0,0E0,0E0,2.3712578E0,0E0,2.6349275E0,0E0,0E0,1.420682E0,9.226814E0,0E0,0E0,1.7411041E-1,0E0,0E0,0E0,0E0,0E0,0E0,6.2841783E0,0E0,0E0,0E0,0E0,0E0,0E0,2.0066566E0,0E0,0E0,0E0,0E0],"parents":[2147483647,0,0,1,1,2,2,3,3,4,4,5,5,6,6,7,7,8,8,9,9,10,10,11,11,12,12,13,13,14,14,15,15,16,16,18,18,19,19,20,20,21,21,24,24,25,25,26,26,28,28,34,34,36,36,41,41,43,43,46,46,47,47,50,50,57,57,64,64],"right_children":[2,4,6,8,10,12,14,16,18,20,22,24,26,28,30,32,34,-1,36,38,40,42,-1,-1,44,46,48,-1,50,-1,-1,-1,-1,-1,52,-1,54,-1,-1,-1,-1,56,-1,58,-1,-1,60,62,-1,-1,64,-1,-1,-1,-1,-1,-1,66,-1,-1,-1,-1,-1,-1,68,-1,-1,-1,-1],"split_conditions":[4.76E2,4.84E2,5.01E2,5.1E2,4.8E2,4.48E2,5.37E2,5.41E2,4.74E2,5.06E2,6.55E2,2.79E2,4.71E2,4.81E2,5.32E2,3.93E2,4.19E2,9.314888E-2,4.19E2,4.65E2,3.98E2,5.3E2,-5.31613E-2,-5.296227E-2,4.9E2,4.85E2,5.53E2,-2.0439299E-2,5.08E2,-1.07318774E-1,2.8956616E-2,-1.2333327E-1,3.723395E-2,5.888615E-2,4.56E2,-1.4375912E-1,5.46E2,-1.285364E-1,-5.541544E-2,2.094996E-2,1.2452742E-1,4.48E2,-1.4359596E-1,4.97E2,1.1778786E-1,-8.716903E-3,5.28E2,4.93E2,-8.300399E-2,3.2842975E-2,4.6E2,1.3554667E-1,6.1793286E-2,-1.0232482E-1,1.4090168E-2,-1.2228924E-1,-3.210194E-2,4.69E2,-5.6037884E-2,-5.3534407E-2,-1.348022E-1,-5.7346452E-2,9.887413E-2,1.3829695E-1,6.06E2,-1.3392033E-2,9.052857E-2,3.69819E-2,1.21281005E-1],"split_indices":[18,7,1,11,0,15,13,13,13,11,15,19,13,3,15,3,7,0,18,1,18,15,0,0,0,0,13,0,1,0,0,0,0,0,7,0,11,0,0,0,0,18,0,11,0,0,18,3,0,0,13,0,0,0,0,0,0,11,0,0,0,0,0,0,3,0,0,0,0],"split_type":[0,0,0,0,0,0,0,0,0,0,0,0,0,0,0,0,0,0,0,0,0,0,0,0,0,0,0,0,0,0,0,0,0,0,0,0,0,0,0,0,0,0,0,0,0,0,0,0,0,0,0,0,0,0,0,0,0,0,0,0,0,0,0,0,0,0,0,0,0],"sum_hessian":[2.9741208E2,1.3885626E2,1.585558E2,6.816093E1,7.069534E1,9.243708E1,6.611873E1,3.9870716E1,2.829021E1,3.2484043E1,3.8211296E1,5.52128E1,3.7224277E1,5.512918E1,1.0989544E1,1.3326067E1,2.654465E1,5.1565294E0,2.313368E1,1.8379116E1,1.4104928E1,3.3128963E1,5.0823345E0,9.417619E0,4.579518E1,1.7723522E1,1.9500755E1,6.1837807E0,4.89454E1,5.360561E0,5.6289825E0,8.190807E0,5.1352596E0,5.461802E0,2.1082848E1,1.0751193E1,1.2382487E1,1.32983055E1,5.0808105E0,5.2160635E0,8.8888645E0,1.4595153E1,1.853381E1,3.2947323E1,1.284786E1,5.1203656E0,1.2603155E1,1.4347361E1,5.1533937E0,5.1769047E0,4.3768497E1,1.5769233E1,5.3136144E0,7.033021E0,5.3494663E0,9.236304E0,5.3588486E0,2.7605331E1,5.34199E0,5.9988637E0,6.604292E0,5.2025733E0,9.144788E0,2.7319809E1,1.6448687E1,2.0602196E1,7.0031357E0,5.184282E0,1.1264405E1],"tree_param":{"num_deleted":"0","num_feature":"20","num_nodes":"69","size_leaf_vector":"1"}},{"base_weights":[-2.9694575E-3,-3.452674E-1,2.8853685E-1,4.3435857E-2,-7.348798E-1,6.2968534E-1,-9.4698794E-2,4.6786293E-1,-5.3249794E-1,-1.2466863E0,-3.6416912E-1,1.5776591E-1,1.2222544E0,-4.0120053E-1,3.5532644E-1,-5.09851E-1,1.0606582E0,8.6003184E-2,-8.6035126E-1,-7.6645344E-2,-1.3257968E-1,5.329235E-1,-1.0270933E0,3.3248988E-1,-9.386538E-2,1.3536525E-1,8.89375E-1,-7.3969923E-4,-8.092394E-1,-5.8636016E-1,1.0071602E0,-9.992496E-2,3.6687106E-2,1.1703076E0,5.1771026E-2,-1.3472645E-1,-4.393519E-1,1.0352933E-1,-1.6909992E-2,-5.3813465E-2,-1.180974E0,1.0044327E-1,1.4971572E-1,5.4080915E-2,1.0668556E-1,-6.9175124E-2,5.1338565E-1,9.034819E-3,-1.1283202E0,-9.144635E-3,-1.0795083E-1,4.3857567E-2,1.1909963E-1,6.058188E-2,1.3243495E-1,-8.049745E-2,1.9902343E-2,-6.691911E-2,-1.3393682E-1,-3.0468673E-1,7.0073295E-1,8.804369E-2,1.6681544E-2,-1.3383357E-1,-6.788612E-2,-8.82523E-2,3.7114616E-2,4.456703E-3,1.0093369E-1],"categories":[],"categories_nodes":[],"categories_segments":[],"categories_sizes":[],"default_left":[0,0,0,0,0,0,0,0,0,0,0,0,0,0,0,0,0,0,0,0,0,0,0,0,0,0,0,0,0,0,0,0,0,0,0,0,0,0,0,0,0,0,0,0,0,0,0,0,0,0,0,0,0,0,0,0,0,0,0,0,0,0,0,0,0,0,0,0,0],"id":7,"left_children":[1,3,5,7,9,11,13,15,17,19,21,23,25,27,29,31,33,-1,35,-1,-1,37,39,41,-1,-1,43,45,47,49,51,-1,-1,53,-1,-1,55,-1,-1,-1,57,-1,59,-1,-1,-1,61,-1,63,-1,-1,-1,-1,-1,-1,-1,-1,-1,-1,65,67,-1,-1,-1,-1,-1,-1,-1,-1],"loss_changes":[2.9193766E1,2.0410263E1,2.071874E1,1.6945272E1,1.2306911E1,2.322166E1,1.0527166E1,2.3640785E1,1.4183788E1,4.1503906E-2,2.4584087E1,9.461104E0,4.1321945E-1,7.394182E0,1.9638937E1,7.111195E0,8.906174E-1,0E0,4.3965397E0,0E0,0E0,6.464629E0,1.1389751E0,4.9994206E0,0E0,0E0,2.5071812E-1,8.824814E0,6.535783E0,3.1536808E0,1.4329739E0,0E0,0E0,9.472313E-1,0E0,0E0,3.5527036E0,0E0,0E0,0E0,4.9001122E-1,0E0,8.761643E0,0E0,0E0,0E0,1.6650674E0,0E0,6.6025543E-1,0E0,0E0,0E0,0E0,0E0,0E0,0E0,0E0,0E0,0E0,7.9065285E0,3.1408377E0,0E0,0E0,0E0,0E0,0E0,0E0,0E0,0E0],"parents":[2147483647,0,0,1,1,2,2,3,3,4,4,5,5,6,6,7,7,8,8,9,9,10,10,11,11,12,12,13,13,14,14,15,15,16,16,18,18,21,21,22,22,23,23,26,26,27,27,28,28,29,29,30,30,33,33,36,36,40,40,42,42,46,46,48,48,59,59,60,60],"right_children":[2,4,6,8,10,12,14,16,18,20,22,24,26,28,30,32,34,-1,36,-1,-1,38,40,42,-1,-1,44,46,48,50,52,-1,-1,54,-1,-1,56,-1,-1,-1,58,-1,60,-1,-1,-1,62,-1,64,-1,-1,-1,-1,-1,-1,-1,-1,-1,-1,66,68,-1,-1,-1,-1,-1,-1,-1,-1],"split_conditions":[4.72E2,5.13E2,4.62E2,5.1E2,4.79E2,5.2E2,4.78E2,5.06E2,4.71E2,4.19E2,4.8E2,6.46E2,4.2E2,4.75E2,4.77E2,4.71E2,4.54E2,8.6003184E-2,4.16E2,-7.6645344E-2,-1.3257968E-1,5.27E2,5.12E2,4.19E2,-9.386538E-2,1.3536525E-1,5.47E2,4.79E2,5.06E2,4.83E2,4.95E2,-9.992496E-2,3.6687106E-2,3.86E2,5.1771026E-2,-1.3472645E-1,5.47E2,1.0352933E-1,-1.6909992E-2,-5.3813465E-2,4.83E2,1.0044327E-1,4.19E2,5.4080915E-2,1.0668556E-1,-6.9175124E-2,4.67E2,9.034819E-3,4.36E2,-9.144635E-3,-1.0795083E-1,4.3857567E-2,1.1909963E-1,6.058188E-2,1.3243495E-1,-8.049745E-2,1.9902343E-2,-6.691911E-2,-1.3393682E-1,5.6E2,4.77E2,8.804369E-2,1.6681544E-2,-1.3383357E-1,-6.788612E-2,-8.82523E-2,3.7114616E-2,4.456703E-3,1.0093369E-1],"split_indices":[18,5,10,11,11,11,14,17,17,11,0,5,10,4,4,4,5,0,18,0,0,17,11,17,0,0,11,17,18,14,11,0,0,5,0,0,11,0,0,0,14,0,10,0,0,0,4,0,5,0,0,0,0,0,0,0,0,0,0,18,4,0,0,0,0,0,0,0,0],"split_type":[0,0,0,0,0,0,0,0,0,0,0,0,0,0,0,0,0,0,0,0,0,0,0,0,0,0,0,0,0,0,0,0,0,0,0,0,0,0,0,0,0,0,0,0,0,0,0,0,0,0,0,0,0,0,0,0,0,0,0,0,0,0,0,0,0,0,0,0,0],"sum_hessian":[2.9057706E2,1.3356062E2,1.5701643E2,6.730309E1,6.625752E1,8.272938E1,7.428706E1,3.8856174E1,2.844692E1,2.6839586E1,3.9417934E1,4.6757862E1,3.5971516E1,4.4254704E1,3.0032358E1,1.4719239E1,2.4136934E1,5.1117907E0,2.3335129E1,5.3077583E0,2.1531828E1,1.6833858E1,2.2584078E1,4.0931778E1,5.8260837E0,2.3592367E1,1.2379148E1,2.2840353E1,2.1414352E1,1.2325904E1,1.7706453E1,9.356534E0,5.362705E0,1.9120121E1,5.016815E0,9.800291E0,1.3534838E1,9.535502E0,7.298356E0,6.482599E0,1.6101479E1,7.7916007E0,3.314018E1,5.5419974E0,6.83715E0,9.596568E0,1.3243785E1,5.794555E0,1.5619797E1,6.7435966E0,5.582307E0,5.1533628E0,1.2553091E1,5.156578E0,1.3963542E1,8.439965E0,5.0948725E0,5.040408E0,1.10610695E1,1.8407377E1,1.47328005E1,5.6837335E0,7.5600514E0,9.297677E0,6.3221197E0,9.758253E0,8.649124E0,5.0786953E0,9.654105E0],"tree_param":{"num_deleted":"0","num_feature":"20","num_nodes":"69","size_leaf_vector":"1"}},{"base_weights":[-2.941556E-3,1.23822756E-1,-4.5172915E-1,2.6236719E-2,6.003083E-1,-7.0940834E-1,-5.5816926E-2,1.1199981E-1,-4.1882318E-1,8.843857E-1,-1.5062696E-1,5.2764248E-2,-1.0832766E0,-6.501744E-1,4.9778062E-1,-6.0715813E-2,1.5544306E-1,3.4202534E-1,-8.579286E-1,1.1886559E-1,3.151974E-2,-6.84465E-2,4.0977575E-2,-8.035906E-2,7.0859745E-2,-5.3216826E-2,-1.21277906E-1,-1.1058225E-1,-1.1399853E-2,8.879881E-2,-1.07432185E-2,8.192197E-1,8.111618E-2,-2.454783E-2,8.690372E-2,-1.2628202E-1,-3.1443816E-2,2.4728829E-2,1.09122574E-1,1.3959353E-1,-3.9217395E-1,-1.9621333E-2,2.0355254E-2,-7.0408836E-2,1.3721578E-2],"categories":[],"categories_nodes":[],"categories_segments":[],"categories_sizes":[],"default_left":[0,0,0,0,0,0,0,0,0,0,0,0,0,0,0,0,0,0,0,0,0,0,0,0,0,0,0,0,0,0,0,0,0,0,0,0,0,0,0,0,0,0,0,0,0],"id":8,"left_children":[1,3,5,7,9,11,13,15,17,19,21,23,25,27,29,-1,31,33,35,-1,-1,-1,-1,-1,-1,-1,-1,-1,-1,-1,-1,37,39,-1,-1,-1,-1,-1,-1,41,43,-1,-1,-1,-1],"loss_changes":[1.6210985E1,1.0316643E1,6.3629484E0,7.1267147E0,8.181409E0,1.0865576E1,8.821994E0,4.9777036E0,1.0375912E1,4.391123E0,3.6339517E0,8.11567E0,1.1741161E0,3.0228539E0,3.3872051E0,0E0,7.244994E0,3.8539853E0,3.876442E0,0E0,0E0,0E0,0E0,0E0,0E0,0E0,0E0,0E0,0E0,0E0,0E0,2.0346508E0,3.7740097E0,0E0,0E0,0E0,0E0,0E0,0E0,2.624631E0,2.5801215E0,0E0,0E0,0E0,0E0],"parents":[2147483647,0,0,1,1,2,2,3,3,4,4,5,5,6,6,7,7,8,8,9,9,10,10,11,11,12,12,13,13,14,14,16,16,17,17,18,18,31,31,32,32,39,39,40,40],"right_children":[2,4,6,8,10,12,14,16,18,20,22,24,26,28,30,-1,32,34,36,-1,-1,-1,-1,-1,-1,-1,-1,-1,-1,-1,-1,38,40,-1,-1,-1,-1,-1,-1,42,44,-1,-1,-1,-1],"split_conditions":[5.59E2,5.27E2,5.11E2,6.2E2,5.37E2,4.71E2,5.63E2,2.64E2,5.38E2,4.85E2,5.86E2,5.43E2,4.46E2,5.71E2,4.75E2,-6.0715813E-2,3.68E2,6.56E2,4.75E2,1.1886559E-1,3.151974E-2,-6.84465E-2,4.0977575E-2,-8.035906E-2,7.0859745E-2,-5.3216826E-2,-1.21277906E-1,-1.1058225E-1,-1.1399853E-2,8.879881E-2,-1.07432185E-2,4.87E2,5.75E2,-2.454783E-2,8.690372E-2,-1.2628202E-1,-3.1443816E-2,2.4728829E-2,1.09122574E-1,4.21E2,4.74E2,-1.9621333E-2,2.0355254E-2,-7.0408836E-2,1.3721578E-2],"split_indices":[9,1,1,19,13,12,16,19,12,9,19,13,17,19,4,0,13,19,1,0,0,0,0,0,0,0,0,0,0,0,0,2,16,0,0,0,0,0,0,7,13,0,0,0,0],"split_type":[0,0,0,0,0,0,0,0,0,0,0,0,0,0,0,0,0,0,0,0,0,0,0,0,0,0,0,0,0,0,0,0,0,0,0,0,0,0,0,0,0,0,0,0,0],"sum_hessian":[2.829687E2,2.2120995E2,6.175875E1,1.8448233E2,3.6727615E1,3.6930637E1,2.4828114E1,1.5530365E2,2.917868E1,2.651814E1,1.0209475E1,1.2436435E1,2.4494204E1,1.1889148E1,1.2938967E1,8.108011E0,1.4719563E2,1.075841E1,1.842027E1,1.6571306E1,9.946834E0,5.1152864E0,5.0941887E0,5.295948E0,7.1404867E0,5.632778E0,1.8861425E1,5.8528805E0,6.036267E0,7.5827804E0,5.356187E0,1.3813372E1,1.3338226E2,5.339848E0,5.4185624E0,9.7976465E0,8.622624E0,5.067454E0,8.745917E0,1.1934202E2,1.4040243E1,1.8762842E1,1.0057918E2,8.627156E0,5.413087E0],"tree_param":{"num_deleted":"0","num_feature":"20","num_nodes":"45","size_leaf_vector":"1"}},{"base_weights":[-3.4181227E-3,-7.275203E-2,8.4208506E-1,1.5335596E-1,-2.709128E-1,1.1300875E-1,-6.901001E-3,-2.2197154E-1,5.140149E-1,1.5513696E-1,-6.3343126E-1,-5.4550344E-1,5.202312E-1,-3.9483044E-1,8.842151E-1,6.4333695E-1,-1.4030176E-1,-4.7913274E-1,-9.824249E-1,8.449459E-3,-6.7850345E-1,8.884182E-1,-3.9857186E-2,-1.0303513E-1,7.104626E-2,-2.186227E-2,1.0573096E0,-2.4795847E-2,1.0870848E0,1.5561882E-1,-8.279468E-1,-7.456008E-2,-6.4582014E-1,-3.147312E-2,-1.1608437E0,2.8242609E-2,-8.535021E-1,5.0968915E-2,1.2476535E-1,8.101111E-1,1.3647969E-1,5.5699717E-2,1.2746418E-1,6.41451E-1,-4.0402576E-1,-1.2198003E-1,-2.0945862E-2,7.612099E-2,-7.4949324E-2,-1.0063707E0,-1.7281906E-1,-8.246708E-2,-1.429827E-1,-1.0799924E-1,-3.1642266E-2,9.652298E-2,2.2021199E-2,9.686857E-2,1.3629036E-2,-1.1328005E-1,7.354405E-2,-1.19399585E-1,-6.334664E-2,-5.4948002E-2,5.2949734E-2],"categories":[],"categories_nodes":[],"categories_segments":[],"categories_sizes":[],"default_left":[0,0,0,0,0,0,0,0,0,0,0,0,0,0,0,0,0,0,0,0,0,0,0,0,0,0,0,0,0,0,0,0,0,0,0,0,0,0,0,0,0,0,0,0,0,0,0,0,0,0,0,0,0,0,0,0,0,0,0,0,0,0,0,0,0],"id":9,"left_children":[1,3,5,7,9,-1,-1,11,13,15,17,19,21,23,25,27,29,31,33,-1,35,37,-1,-1,-1,-1,39,-1,41,43,45,47,49,-1,51,-1,53,-1,-1,55,-1,-1,-1,57,59,-1,-1,-1,-1,61,63,-1,-1,-1,-1,-1,-1,-1,-1,-1,-1,-1,-1,-1,-1],"loss_changes":[1.6499626E1,1.1694674E1,5.6753263E0,1.664397E1,2.1562004E1,0E0,0E0,1.4820573E1,2.1402794E1,9.4206E0,3.5829887E0,3.6308203E0,6.7443533E0,1.393974E1,8.777981E0,9.986239E0,8.496652E0,3.6037006E0,2.2705975E0,0E0,6.1813354E0,1.2409906E0,0E0,0E0,0E0,0E0,1.8488731E0,0E0,9.3916893E-1,8.304885E0,2.781313E0,1.0121363E1,6.344227E0,0E0,3.6613464E-1,0E0,3.323557E0,0E0,0E0,1.9842625E0,0E0,0E0,0E0,2.550364E0,1.276174E1,0E0,0E0,0E0,0E0,7.4658775E-1,4.983666E0,0E0,0E0,0E0,0E0,0E0,0E0,0E0,0E0,0E0,0E0,0E0,0E0,0E0,0E0],"parents":[2147483647,0,0,1,1,2,2,3,3,4,4,7,7,8,8,9,9,10,10,11,11,12,12,13,13,14,14,15,15,16,16,17,17,18,18,20,20,21,21,26,26,28,28,29,29,30,30,31,31,32,32,34,34,36,36,39,39,43,43,44,44,49,49,50,50],"right_children":[2,4,6,8,10,-1,-1,12,14,16,18,20,22,24,26,28,30,32,34,-1,36,38,-1,-1,-1,-1,40,-1,42,44,46,48,50,-1,52,-1,54,-1,-1,56,-1,-1,-1,58,60,-1,-1,-1,-1,62,64,-1,-1,-1,-1,-1,-1,-1,-1,-1,-1,-1,-1,-1,-1],"split_conditions":[6.99E2,4.71E2,5.94E2,4.36E2,4.65E2,1.1300875E-1,-6.901001E-3,5.43E2,4.85E2,5.56E2,5.31E2,2.91E2,4.74E2,4.71E2,2.95E2,4.71E2,5.44E2,5.13E2,5.54E2,8.449459E-3,3.93E2,6.02E2,-3.9857186E-2,-1.0303513E-1,7.104626E-2,-2.186227E-2,4.52E2,-2.4795847E-2,5.33E2,5.32E2,4.75E2,4.76E2,5.06E2,-3.147312E-2,6.34E2,2.8242609E-2,4.69E2,5.0968915E-2,1.2476535E-1,4.34E2,1.3647969E-1,5.5699717E-2,1.2746418E-1,4.66E2,4.65E2,-1.2198003E-1,-2.0945862E-2,7.612099E-2,-7.4949324E-2,5.66E2,5.79E2,-8.246708E-2,-1.429827E-1,-1.0799924E-1,-3.1642266E-2,9.652298E-2,2.2021199E-2,9.686857E-2,1.3629036E-2,-1.1328005E-1,7.354405E-2,-1.19399585E-1,-6.334664E-2,-5.4948002E-2,5.2949734E-2],"split_indices":[3,15,15,3,8,0,0,13,8,13,8,15,1,12,15,1,12,5,3,0,13,13,0,0,0,0,13,0,15,11,1,1,11,0,3,0,11,0,0,15,0,0,0,3,7,0,0,0,0,12,12,0,0,0,0,0,0,0,0,0,0,0,0,0,0],"split_type":[0,0,0,0,0,0,0,0,0,0,0,0,0,0,0,0,0,0,0,0,0,0,0,0,0,0,0,0,0,0,0,0,0,0,0,0,0,0,0,0,0,0,0,0,0,0,0,0,0,0,0,0,0,0,0,0,0,0,0,0,0,0,0,0,0],"sum_hessian":[2.794127E2,2.5908118E2,2.0331514E1,1.2111316E2,1.3796802E2,1.5265607E1,5.0659075E0,5.9538097E1,6.1575066E1,6.368927E1,7.427875E1,4.16483E1,1.7889795E1,1.7802708E1,4.3772358E1,2.3567465E1,4.0121803E1,5.315191E1,2.112684E1,7.323388E0,3.4324913E1,1.27954235E1,5.094372E0,1.1346504E1,6.4562044E0,5.902527E0,3.786983E1,7.9801164E0,1.5587349E1,2.8591469E1,1.1530335E1,1.5931449E1,3.722046E1,5.037835E0,1.6089005E1,5.193449E0,2.9131464E1,7.406173E0,5.38925E0,2.3007782E1,1.486205E1,5.1112633E0,1.0476086E1,1.5226789E1,1.3364679E1,6.4632235E0,5.0671124E0,7.060544E0,8.870905E0,2.0480972E1,1.6739485E1,8.958559E0,7.130446E0,1.9779459E1,9.352005E0,1.7713589E1,5.2941923E0,8.683914E0,6.5428753E0,8.154872E0,5.2098064E0,1.2160558E1,8.320415E0,1.1037537E1,5.7019496E0],"tree_param":{"num_deleted":"0","num_feature":"20","num_nodes":"65","size_leaf_vector":"1"}},{"base_weights":[-3.1025147E-3,-2.9665557E-1,2.4307828E-1,1.6562866E-1,-5.523383E-1,5.4602134E-1,-8.871056E-2,3.774683E-1,-7.631309E-2,-6.185505E-2,-8.519829E-1,6.4561045E-1,-1.9952549E-2,-3.0553958E-1,3.0350888E-1,1.05949596E-1,1.4868847E-1,-3.0727217E-1,8.136185E-2,-9.302346E-1,-2.1823261E-2,1.0240222E0,5.092038E-1,-9.212402E-1,-4.1528966E-2,-5.9950984E-1,9.413023E-1,-2.9103297E-1,6.376909E-1,1.42732E-1,-7.268222E-1,-1.0909559E0,-5.377559E-1,1.1761258E-1,5.5652615E-2,6.543877E-1,-1.418889E-2,-5.1596235E-2,-1.1580431E-1,-5.309491E-1,4.0038192E-1,-1.39701115E-2,-9.642171E-2,4.628741E-2,1.1249775E-1,-5.6014072E-2,1.2497703E-2,2.4518514E-2,8.583779E-2,-3.7944485E-2,5.1483225E-2,-1.7854964E-2,-1.05301E-1,-1.1624988E-1,-6.1211776E-2,8.368234E-3,-9.552721E-2,4.4355235E-1,1.01082936E-1,-9.902571E-2,-8.236996E-3,6.964501E-2,3.0713475E-3,-1.7386867E-2,6.1573397E-2],"categories":[],"categories_nodes":[],"categories_segments":[],"categories_sizes":[],"default_left":[0,0,0,0,0,0,0,0,0,0,0,0,0,0,0,0,0,0,0,0,0,0,0,0,0,0,0,0,0,0,0,0,0,0,0,0,0,0,0,0,0,0,0,0,0,0,0,0,0,0,0,0,0,0,0,0,0,0,0,0,0,0,0,0,0],"id":10,"left_children":[1,3,5,7,9,11,13,15,-1,17,19,21,-1,23,25,-1,27,29,-1,31,-1,33,35,37,39,41,43,45,47,49,51,53,55,-1,-1,57,-1,-1,-1,59,61,-1,-1,-1,-1,-1,-1,-1,-1,-1,-1,-1,-1,-1,-1,-1,-1,63,-1,-1,-1,-1,-1,-1,-1],"loss_changes":[1.9873026E1,1.4916385E1,1.5082386E1,9.227392E0,1.1850271E1,5.9442806E0,6.236994E0,5.7196374E0,0E0,7.0807323E0,2.2863464E0,3.0572815E0,0E0,7.6056986E0,1.5667014E1,0E0,6.5004635E0,4.9289103E0,0E0,2.212391E0,0E0,5.813713E-1,5.0981245E0,7.52367E-1,7.5573225E0,1.7879891E0,8.639593E-1,1.8780078E0,1.0211358E0,2.753705E0,2.2066965E0,3.3359528E-1,3.9365296E0,0E0,0E0,2.8187332E0,0E0,0E0,0E0,3.326974E0,1.9941835E0,0E0,0E0,0E0,0E0,0E0,0E0,0E0,0E0,0E0,0E0,0E0,0E0,0E0,0E0,0E0,0E0,3.200448E0,0E0,0E0,0E0,0E0,0E0,0E0,0E0],"parents":[2147483647,0,0,1,1,2,2,3,3,4,4,5,5,6,6,7,7,9,9,10,10,11,11,13,13,14,14,16,16,17,17,19,19,21,21,22,22,23,23,24,24,25,25,26,26,27,27,28,28,29,29,30,30,31,31,32,32,35,35,39,39,40,40,57,57],"right_children":[2,4,6,8,10,12,14,16,-1,18,20,22,-1,24,26,-1,28,30,-1,32,-1,34,36,38,40,42,44,46,48,50,52,54,56,-1,-1,58,-1,-1,-1,60,62,-1,-1,-1,-1,-1,-1,-1,-1,-1,-1,-1,-1,-1,-1,-1,-1,64,-1,-1,-1,-1,-1,-1,-1],"split_conditions":[4.72E2,4.54E2,4.62E2,4.82E2,4.75E2,6.46E2,4.83E2,4.62E2,-7.631309E-2,4.82E2,6.55E2,3.73E2,-1.9952549E-2,4.74E2,4.77E2,1.05949596E-1,4.01E2,5.87E2,8.136185E-2,4.5E2,-2.1823261E-2,5.75E2,4.95E2,5.25E2,4.93E2,5.43E2,4.77E2,4.17E2,4.06E2,5.28E2,5.36E2,5.17E2,4.83E2,1.1761258E-1,5.5652615E-2,4.93E2,-1.418889E-2,-5.1596235E-2,-1.1580431E-1,4.71E2,3.78E2,-1.39701115E-2,-9.642171E-2,4.628741E-2,1.1249775E-1,-5.6014072E-2,1.2497703E-2,2.4518514E-2,8.583779E-2,-3.7944485E-2,5.1483225E-2,-1.7854964E-2,-1.05301E-1,-1.1624988E-1,-6.1211776E-2,8.368234E-3,-9.552721E-2,4.23E2,1.01082936E-1,-9.902571E-2,-8.236996E-3,6.964501E-2,3.0713475E-3,-1.7386867E-2,6.1573397E-2],"split_indices":[18,5,10,4,0,5,0,16,0,4,15,13,0,16,4,0,5,13,0,18,0,18,0,18,13,18,10,18,18,15,5,13,4,0,0,4,0,0,0,4,19,0,0,0,0,0,0,0,0,0,0,0,0,0,0,0,0,16,0,0,0,0,0,0,0],"split_type":[0,0,0,0,0,0,0,0,0,0,0,0,0,0,0,0,0,0,0,0,0,0,0,0,0,0,0,0,0,0,0,0,0,0,0,0,0,0,0,0,0,0,0,0,0,0,0,0,0,0,0,0,0,0,0,0,0,0,0,0,0,0,0,0,0],"sum_hessian":[2.729962E2,1.24424194E2,1.48572E2,4.4435436E1,7.9988754E1,7.732446E1,7.124754E1,3.6665928E1,7.7695084E0,3.07921E1,4.9196655E1,6.833095E1,8.99351E0,4.602483E1,2.5222715E1,8.297811E0,2.8368116E1,2.4557142E1,6.2349586E0,4.337335E1,5.823306E0,1.6380884E1,5.1950066E1,1.3065439E1,3.2959393E1,1.0465367E1,1.4757347E1,1.5149872E1,1.3218245E1,1.2166887E1,1.2390255E1,2.9509468E1,1.386388E1,1.1215903E1,5.1649814E0,4.247395E1,9.476116E0,5.9909883E0,7.074451E0,1.5543427E1,1.7415966E1,5.240897E0,5.22447E0,5.0703673E0,9.68698E0,8.988771E0,6.1611004E0,5.5169706E0,7.7012734E0,5.054314E0,7.1125727E0,5.198964E0,7.1912913E0,2.443143E1,5.0780373E0,5.8926826E0,7.9711976E0,2.8098223E1,1.4375727E1,7.083237E0,8.46019E0,9.179832E0,8.236133E0,6.124994E0,2.1973228E1],"tree_param":{"num_deleted":"0","num_feature":"20","num_nodes":"65","size_leaf_vector":"1"}},{"base_weights":[-3.1950593E-3,-2.724108E-1,2.2699873E-1,-5.7004124E-1,5.4074757E-2,-2.5496315E-2,6.125335E-1,8.485334E-2,-7.587431E-1,3.1820482E-1,-4.4428933E-1,-1.15570016E-1,1.0488355E-1,9.3115085E-1,-6.246686E-1,-6.408411E-2,7.9749696E-2,-8.005067E-3,-8.579745E-1,9.8609585E-1,-5.8254504E-1,-1.2245039E-1,7.5520456E-2,-8.59082E-2,-3.580413E-2,1.1091218E-1,3.3472335E-1,-2.3865286E-2,-9.511538E-2,-9.9507827E-1,-5.144123E-1,3.7131455E-2,1.1508415E-1,-1.0064075E0,1.826722E-2,5.5383194E-2,-8.765974E-2,-2.9087758E-2,8.2406454E-2,-1.0999274E-1,-5.1928367E-2,-1.3712682E-2,-1.0062295E-1,-6.4279236E-2,-1.2031021E-1,-1.750951E-1,4.9498466E-1,-9.2680834E-2,6.159343E-4,-1.7090285E-2,7.643944E-2],"categories":[],"categories_nodes":[],"categories_segments":[],"categories_sizes":[],"default_left":[0,0,0,0,0,0,0,0,0,0,0,0,0,0,0,0,0,0,0,0,0,0,0,0,0,0,0,0,0,0,0,0,0,0,0,0,0,0,0,0,0,0,0,0,0,0,0,0,0,0,0],"id":11,"left_children":[1,3,5,7,9,11,13,15,17,19,21,23,-1,25,27,-1,-1,-1,29,31,33,-1,-1,-1,35,-1,37,-1,-1,39,41,-1,-1,43,-1,45,-1,-1,-1,-1,-1,-1,-1,-1,-1,47,49,-1,-1,-1,-1],"loss_changes":[1.6700308E1,1.2100334E1,1.4157692E1,8.104702E0,8.058556E0,8.708965E0,2.3260473E1,8.502716E0,3.3397007E0,2.4574707E1,2.0813725E1,4.878703E0,0E0,4.5275993E0,1.3333039E0,0E0,0E0,0E0,1.5630493E0,1.9304657E0,5.897058E0,0E0,0E0,0E0,5.860391E0,0E0,3.9251404E0,0E0,0E0,9.46146E-1,2.5776215E0,0E0,0E0,4.8377037E-2,0E0,7.110825E0,0E0,0E0,0E0,0E0,0E0,0E0,0E0,0E0,0E0,6.3033123E0,4.455335E0,0E0,0E0,0E0,0E0],"parents":[2147483647,0,0,1,1,2,2,3,3,4,4,5,5,6,6,7,7,8,8,9,9,10,10,11,11,13,13,14,14,18,18,19,19,20,20,24,24,26,26,29,29,30,30,33,33,35,35,45,45,46,46],"right_children":[2,4,6,8,10,12,14,16,18,20,22,24,-1,26,28,-1,-1,-1,30,32,34,-1,-1,-1,36,-1,38,-1,-1,40,42,-1,-1,44,-1,46,-1,-1,-1,-1,-1,-1,-1,-1,-1,48,50,-1,-1,-1,-1],"split_conditions":[4.76E2,5.43E2,5.2E2,4.66E2,5.01E2,5.86E2,5.14E2,4.76E2,4.75E2,4.7E2,4.65E2,4.07E2,1.0488355E-1,4.74E2,5.34E2,-6.408411E-2,7.9749696E-2,-8.005067E-3,4.5E2,4.19E2,4.73E2,-1.2245039E-1,7.5520456E-2,-8.59082E-2,5.56E2,1.1091218E-1,4.82E2,-2.3865286E-2,-9.511538E-2,5.79E2,4.66E2,3.7131455E-2,1.1508415E-1,5.95E2,1.826722E-2,4.74E2,-8.765974E-2,-2.9087758E-2,8.2406454E-2,-1.0999274E-1,-5.1928367E-2,-1.3712682E-2,-1.0062295E-1,-6.4279236E-2,-1.2031021E-1,4.75E2,5.27E2,-9.2680834E-2,6.159343E-4,-1.7090285E-2,7.643944E-2],"split_indices":[18,13,11,12,1,10,10,1,0,7,7,11,0,10,6,0,0,0,18,7,1,0,0,0,13,0,0,0,0,12,13,0,0,13,0,13,0,0,0,0,0,0,0,0,0,0,6,0,0,0,0],"split_type":[0,0,0,0,0,0,0,0,0,0,0,0,0,0,0,0,0,0,0,0,0,0,0,0,0,0,0,0,0,0,0,0,0,0,0,0,0,0,0,0,0,0,0,0,0,0,0,0,0,0,0],"sum_hessian":[2.6748456E2,1.23207634E2,1.4427693E2,6.4061745E1,5.9145893E1,8.774482E1,5.653211E1,1.4452905E1,4.9608837E1,3.889387E1,2.0252024E1,8.178063E1,5.9641924E0,4.5151573E1,1.1380535E1,7.210803E0,7.2421017E0,6.558528E0,4.3050312E1,2.2279352E1,1.661452E1,1.2257951E1,7.994073E0,6.976974E0,7.480366E1,3.4112858E1,1.1038713E1,6.008012E0,5.372523E0,2.9415321E1,1.363499E1,5.396204E0,1.6883148E1,1.0489225E1,6.125293E0,6.832741E1,6.476246E0,5.022826E0,6.015887E0,2.302878E1,6.3865404E0,8.439587E0,5.1954036E0,5.180457E0,5.3087683E0,4.522049E1,2.3106918E1,7.9861946E0,3.7234295E1,6.7612047E0,1.6345715E1],"tree_param":{"num_deleted":"0","num_feature":"20","num_nodes":"51","size_leaf_vector":"1"}},{"base_weights":[-4.352843E-3,-2.5885308E-1,2.0687088E-1,3.8936727E-2,-5.6986666E-1,-5.828323E-2,5.175232E-1,3.9856413E-1,-4.3969288E-1,-1.0672293E0,-2.4183951E-1,-1.9849655E-1,8.5076556E-2,8.0081195E-1,-6.190556E-1,8.6316144E-1,-1.391216E-1,5.959585E-2,-7.2064525E-1,-6.151079E-2,-1.1593925E-1,5.011992E-1,-8.390423E-1,-1.24598265E-1,-8.644101E-2,-1.7183347E-3,8.882654E-1,-9.242993E-2,-8.402843E-3,1.0311221E-1,3.3234157E-2,7.323653E-2,-8.8167794E-2,-1.2224942E-1,-2.9534572E-1,-3.006799E-2,8.7070726E-2,-2.7438452E-2,-1.0212044E0,2.6297948E-1,-4.2702731E-1,5.385112E-1,1.1455154E-1,-5.289618E-2,-3.094447E-3,-1.20214574E-1,-5.5096895E-2,8.626853E-1,-2.745036E-1,-2.1061695E-1,-1.0735073E-1,-3.3967447E-2,8.283566E-1,3.4032058E-2,1.1499386E-1,-5.6300413E-2,3.4843255E-2,-5.6510635E-2,4.4558655E-2,1.0668396E-1,3.403916E-2],"categories":[],"categories_nodes":[],"categories_segments":[],"categories_sizes":[],"default_left":[0,0,0,0,0,0,0,0,0,0,0,0,0,0,0,0,0,0,0,0,0,0,0,0,0,0,0,0,0,0,0,0,0,0,0,0,0,0,0,0,0,0,0,0,0,0,0,0,0,0,0,0,0,0,0,0,0,0,0,0,0],"id":12,"left_children":[1,3,5,7,9,11,13,15,17,19,21,23,-1,25,27,29,31,-1,33,-1,-1,35,37,-1,39,-1,41,-1,-1,-1,-1,-1,-1,-1,43,-1,-1,-1,45,47,49,51,-1,-1,-1,-1,-1,53,55,57,-1,-1,59,-1,-1,-1,-1,-1,-1,-1,-1],"loss_changes":[1.4140485E1,1.1070835E1,1.1871495E1,1.0826342E1,9.272305E0,1.0169014E1,2.1842995E1,9.07723E0,8.292206E0,2.4200821E-1,1.6614098E1,7.965842E0,0E0,3.8430328E0,2.174756E0,1.3846655E0,1.1958773E1,0E0,4.2723913E0,0E0,0E0,5.265455E0,1.8393068E0,0E0,7.6348724E0,0E0,3.7341728E0,0E0,0E0,0E0,0E0,0E0,0E0,0E0,7.908926E-1,0E0,0E0,0E0,6.31999E-1,1.0493276E1,4.3055825E0,5.9783792E0,0E0,0E0,0E0,0E0,0E0,1.9015312E0,3.3482218E0,6.186245E0,0E0,0E0,1.6289644E0,0E0,0E0,0E0,0E0,0E0,0E0,0E0,0E0],"parents":[2147483647,0,0,1,1,2,2,3,3,4,4,5,5,6,6,7,7,8,8,9,9,10,10,11,11,13,13,14,14,15,15,16,16,18,18,21,21,22,22,24,24,26,26,34,34,38,38,39,39,40,40,41,41,47,47,48,48,49,49,52,52],"right_children":[2,4,6,8,10,12,14,16,18,20,22,24,-1,26,28,30,32,-1,34,-1,-1,36,38,-1,40,-1,42,-1,-1,-1,-1,-1,-1,-1,44,-1,-1,-1,46,48,50,52,-1,-1,-1,-1,-1,54,56,58,-1,-1,60,-1,-1,-1,-1,-1,-1,-1,-1],"split_conditions":[4.72E2,5.13E2,4.91E2,5.1E2,4.73E2,5.52E2,5.14E2,5.12E2,4.11E2,4.3E2,4.8E2,2.79E2,8.5076556E-2,4.63E2,4.74E2,4.54E2,4.79E2,5.959585E-2,4.16E2,-6.151079E-2,-1.1593925E-1,3.83E2,4.96E2,-1.24598265E-1,4.58E2,-1.7183347E-3,5.14E2,-9.242993E-2,-8.402843E-3,1.0311221E-1,3.3234157E-2,7.323653E-2,-8.8167794E-2,-1.2224942E-1,5.44E2,-3.006799E-2,8.7070726E-2,-2.7438452E-2,6.49E2,4.75E2,5.84E2,4.84E2,1.1455154E-1,-5.289618E-2,-3.094447E-3,-1.20214574E-1,-5.5096895E-2,4.85E2,5.73E2,5.53E2,-1.0735073E-1,-3.3967447E-2,4.37E2,3.4032058E-2,1.1499386E-1,-5.6300413E-2,3.4843255E-2,-5.6510635E-2,4.4558655E-2,1.0668396E-1,3.403916E-2],"split_indices":[18,5,1,11,1,10,10,16,19,1,0,19,0,0,0,5,0,0,18,0,0,18,1,0,19,0,12,0,0,0,0,0,0,0,11,0,0,0,19,10,12,0,0,0,0,0,0,0,18,12,0,0,5,0,0,0,0,0,0,0,0],"split_type":[0,0,0,0,0,0,0,0,0,0,0,0,0,0,0,0,0,0,0,0,0,0,0,0,0,0,0,0,0,0,0,0,0,0,0,0,0,0,0,0,0,0,0,0,0,0,0,0,0,0,0,0,0,0,0,0,0,0,0,0,0],"sum_hessian":[2.6105087E2,1.1829435E2,1.4275653E2,6.0878815E1,5.7415535E1,7.745662E1,6.529992E1,3.4856216E1,2.6022596E1,2.1922558E1,3.549298E1,6.778325E1,9.6733675E0,5.2507908E1,1.2792013E1,1.8374266E1,1.6481953E1,5.313751E0,2.0708845E1,5.0115795E0,1.6910978E1,1.588707E1,1.9605911E1,5.5725136E0,6.2210735E1,5.149121E0,4.7358784E1,7.681813E0,5.1102004E0,1.3241816E1,5.1324496E0,7.5889964E0,8.892956E0,8.639683E0,1.2069163E1,5.070252E0,1.0816817E1,5.3935366E0,1.4212374E1,3.0819597E1,3.1391138E1,2.1381748E1,2.5977037E1,5.8763847E0,6.1927786E0,9.139226E0,5.073148E0,1.4280662E1,1.6538935E1,2.4511618E1,6.87952E0,5.2631917E0,1.6118555E1,5.841941E0,8.43872E0,1.1369557E1,5.1693773E0,1.6004572E1,8.507046E0,1.0030198E1,6.0883574E0],"tree_param":{"num_deleted":"0","num_feature":"20","num_nodes":"61","size_leaf_vector":"1"}},{"base_weights":[-4.935085E-3,-2.5357577E-1,1.8514568E-1,7.368662E-2,-5.2608985E-1,8.969932E-2,9.938142E-1,5.3050405E-1,-5.243562E-1,-1.026938E0,-2.1236992E-1,-4.199936E-2,4.4985363E-1,6.185924E-2,1.1188271E-1,8.0330896E-1,-5.3410828E-2,1.928823E-2,-1.0353936E0,-6.1143845E-2,-1.13616005E-1,4.0167397E-1,-7.5709206E-1,-3.982885E-1,6.767756E-2,-3.771377E-1,9.84969E-1,1.0885501E-1,3.8223934E-1,-1.21464096E-1,-6.6908866E-2,7.541184E-1,-4.137605E-2,-2.9782688E-2,-1.01514794E-1,6.952977E-2,-9.418751E-2,2.8874132E-1,-1.3674921E-1,5.8909167E-2,-1.0141235E-1,1.1708504E0,3.1010164E-2,-1.0327296E-2,8.005256E-2,1.2089753E-2,1.181638E-1,4.0636193E-2,-3.952537E-2,1.2380522E-1,8.18003E-2,4.8752353E-2,-3.072415E-1,1.356201E-1,6.256832E-2,5.0327715E-2,-1.70201E-2,-6.3950874E-2,2.8683772E-2],"categories":[],"categories_nodes":[],"categories_segments":[],"categories_sizes":[],"default_left":[0,0,0,0,0,0,0,0,0,0,0,0,0,0,0,0,0,0,0,0,0,0,0,0,0,0,0,0,0,0,0,0,0,0,0,0,0,0,0,0,0,0,0,0,0,0,0,0,0,0,0,0,0,0,0,0,0,0,0],"id":13,"left_children":[1,3,5,7,9,11,13,15,17,19,21,23,25,-1,-1,27,-1,-1,29,-1,-1,31,33,35,37,39,41,-1,43,-1,-1,45,-1,-1,-1,47,-1,49,51,-1,-1,53,-1,-1,-1,-1,-1,-1,-1,55,-1,-1,57,-1,-1,-1,-1,-1,-1],"loss_changes":[1.2095956E1,9.92729E0,1.1107502E1,1.4281049E1,9.307287E0,6.2252803E0,2.159977E-2,9.013054E0,8.5199585E0,3.530445E-1,1.3193517E1,3.80673E0,1.5913956E1,0E0,0E0,2.4576483E0,0E0,0E0,6.793785E-2,0E0,0E0,5.7059593E0,2.1588783E0,5.89211E0,3.4204612E0,9.534637E0,2.3466034E0,0E0,2.357983E0,0E0,0E0,3.5006022E0,0E0,0E0,0E0,2.2342823E0,0E0,3.0645504E0,4.359091E0,0E0,0E0,8.263588E-1,0E0,0E0,0E0,0E0,0E0,0E0,0E0,3.301901E0,0E0,0E0,6.4364686E0,0E0,0E0,0E0,0E0,0E0,0E0],"parents":[2147483647,0,0,1,1,2,2,3,3,4,4,5,5,6,6,7,7,8,8,9,9,10,10,11,11,12,12,15,15,18,18,21,21,22,22,23,23,24,24,25,25,26,26,28,28,31,31,35,35,37,37,38,38,41,41,49,49,52,52],"right_children":[2,4,6,8,10,12,14,16,18,20,22,24,26,-1,-1,28,-1,-1,30,-1,-1,32,34,36,38,40,42,-1,44,-1,-1,46,-1,-1,-1,48,-1,50,52,-1,-1,54,-1,-1,-1,-1,-1,-1,-1,56,-1,-1,58,-1,-1,-1,-1,-1,-1],"split_conditions":[4.84E2,4.83E2,6.99E2,5.1E2,4.79E2,5.03E2,5.45E2,4.95E2,4.81E2,4.99E2,4.8E2,4.37E2,4.27E2,6.185924E-2,1.1188271E-1,4.74E2,-5.3410828E-2,1.928823E-2,5.48E2,-6.1143845E-2,-1.13616005E-1,5.67E2,5.16E2,4.74E2,4.61E2,4.41E2,6.24E2,1.0885501E-1,4.53E2,-1.21464096E-1,-6.6908866E-2,4.5E2,-4.137605E-2,-2.9782688E-2,-1.01514794E-1,4.23E2,-9.418751E-2,5.31E2,4.26E2,5.8909167E-2,-1.0141235E-1,5.3E2,3.1010164E-2,-1.0327296E-2,8.005256E-2,1.2089753E-2,1.181638E-1,4.0636193E-2,-3.952537E-2,4.08E2,8.18003E-2,4.8752353E-2,4.83E2,1.356201E-1,6.256832E-2,5.0327715E-2,-1.70201E-2,-6.3950874E-2,2.8683772E-2],"split_indices":[6,5,3,11,11,2,11,0,15,15,0,11,3,0,0,0,0,0,11,0,0,10,11,5,10,11,5,0,15,0,0,6,0,0,0,11,0,11,3,0,0,6,0,0,0,0,0,0,0,2,0,0,0,0,0,0,0,0,0],"split_type":[0,0,0,0,0,0,0,0,0,0,0,0,0,0,0,0,0,0,0,0,0,0,0,0,0,0,0,0,0,0,0,0,0,0,0,0,0,0,0,0,0,0,0,0,0,0,0,0,0,0,0,0,0,0,0,0,0,0,0],"sum_hessian":[2.5394174E2,1.0987825E2,1.4406349E2,5.025572E1,5.962253E1,1.2984851E2,1.42149725E1,2.855602E1,2.1699697E1,2.2087236E1,3.7535297E1,9.57271E1,3.4121418E1,5.0389566E0,9.176016E0,2.2926573E1,5.629447E0,9.287418E0,1.2412279E1,5.9709253E0,1.611631E1,1.7768345E1,1.976695E1,2.1912415E1,7.381468E1,1.3520874E1,2.0600544E1,1.27227335E1,1.0203839E1,6.7790813E0,5.6331973E0,1.2458687E1,5.309658E0,7.8860927E0,1.1880858E1,1.2245692E1,9.666722E0,3.526608E1,3.85486E1,5.401956E0,8.118918E0,1.5575569E1,5.024976E0,5.0709743E0,5.1328654E0,5.5383487E0,6.920338E0,7.1730347E0,5.0726576E0,2.7827877E1,7.4382005E0,7.8705125E0,3.0678087E1,1.0513442E1,5.062127E0,1.1837502E1,1.5990376E1,1.9625256E1,1.1052833E1],"tree_param":{"num_deleted":"0","num_feature":"20","num_nodes":"59","size_leaf_vector":"1"}},{"base_weights":[-4.0078717E-3,-3.98344E-1,1.048806E-1,-7.027988E-2,-6.693317E-1,-3.9127953E-2,3.3402342E-1,3.8641393E-1,-7.916369E-2,-9.911546E-1,-2.8346804E-1,1.9938056E-1,-2.4283777E-1,-2.6363559E-2,7.23162E-1,1.0098678E-1,-8.022787E-2,-1.20191194E-1,-5.7754397E-2,2.855579E-2,-1.0731844E-1,5.5984974E-1,-2.4667276E-2,-7.297742E-1,-9.9995896E-2,-7.685281E-1,8.602223E-1,3.154174E-2,1.0899019E-1,1.294834E-1,1.6069376E-1,1.5995346E-1,-5.2412547E-2,-1.8593298E-2,-1.11659884E-1,8.953124E-2,-2.9678464E-1,-1.17144406E-1,-2.905763E-1,1.1693795E-1,2.579689E-2,8.330545E-2,-7.800373E-2,-1.275929E-2,3.9761417E-2,3.4960797E-1,-4.0453937E-2,2.3011887E-1,-5.873667E-1,-5.1956594E-2,-6.7849696E-4,-4.2132087E-2,6.724886E-2,6.353273E-2,-4.4543575E-2,-8.333527E-2,8.688726E-3],"categories":[],"categories_nodes":[],"categories_segments":[],"categories_sizes":[],"default_left":[0,0,0,0,0,0,0,0,0,0,0,0,0,0,0,0,0,0,0,0,0,0,0,0,0,0,0,0,0,0,0,0,0,0,0,0,0,0,0,0,0,0,0,0,0,0,0,0,0,0,0,0,0,0,0,0,0],"id":14,"left_children":[1,3,5,7,9,11,13,15,-1,17,19,21,23,25,27,-1,-1,-1,-1,-1,-1,29,31,33,35,37,39,41,-1,-1,43,45,-1,-1,-1,-1,47,-1,49,-1,-1,-1,-1,-1,-1,51,-1,53,55,-1,-1,-1,-1,-1,-1,-1,-1],"loss_changes":[1.0722521E1,4.756482E0,6.4712825E0,8.726141E0,3.3789558E0,5.9311285E0,1.0626171E1,1.2906902E1,0E0,6.7176247E-1,6.9586396E0,4.5626507E0,4.5004845E0,2.7134161E1,9.198818E0,0E0,0E0,0E0,0E0,0E0,0E0,6.1379895E0,3.3750477E0,2.8963938E0,1.0450391E1,3.9787436E0,3.1995945E0,9.524943E0,0E0,0E0,1.0861737E0,3.0133698E0,0E0,0E0,0E0,0E0,6.8973017E0,0E0,7.495768E-1,0E0,0E0,0E0,0E0,0E0,0E0,5.4150414E0,0E0,4.77714E0,4.840473E0,0E0,0E0,0E0,0E0,0E0,0E0,0E0,0E0],"parents":[2147483647,0,0,1,1,2,2,3,3,4,4,5,5,6,6,7,7,9,9,10,10,11,11,12,12,13,13,14,14,21,21,22,22,23,23,24,24,25,25,26,26,27,27,30,30,31,31,36,36,38,38,45,45,47,47,48,48],"right_children":[2,4,6,8,10,12,14,16,-1,18,20,22,24,26,28,-1,-1,-1,-1,-1,-1,30,32,34,36,38,40,42,-1,-1,44,46,-1,-1,-1,-1,48,-1,50,-1,-1,-1,-1,-1,-1,52,-1,54,56,-1,-1,-1,-1,-1,-1,-1,-1],"split_conditions":[4.51E2,4.82E2,5.2E2,5.1E2,5.06E2,4.83E2,5.07E2,5.21E2,-7.916369E-2,4.75E2,4.91E2,4.42E2,4.71E2,4.94E2,4.95E2,1.0098678E-1,-8.022787E-2,-1.20191194E-1,-5.7754397E-2,2.855579E-2,-1.0731844E-1,5.01E2,5.78E2,4.34E2,4.48E2,4.53E2,4.54E2,4.94E2,1.0899019E-1,1.294834E-1,4.32E2,4.62E2,-5.2412547E-2,-1.8593298E-2,-1.11659884E-1,8.953124E-2,4.74E2,-1.17144406E-1,5.5E2,1.1693795E-1,2.579689E-2,8.330545E-2,-7.800373E-2,-1.275929E-2,3.9761417E-2,4.56E2,-4.0453937E-2,6.18E2,5.04E2,-5.1956594E-2,-6.7849696E-4,-4.2132087E-2,6.724886E-2,6.353273E-2,-4.4543575E-2,-8.333527E-2,8.688726E-3],"split_indices":[6,12,11,11,11,12,12,8,0,4,8,11,4,8,6,0,0,0,0,0,0,6,16,11,15,15,12,8,0,0,12,15,0,0,0,0,8,0,11,0,0,0,0,0,0,11,0,19,16,0,0,0,0,0,0,0,0],"split_type":[0,0,0,0,0,0,0,0,0,0,0,0,0,0,0,0,0,0,0,0,0,0,0,0,0,0,0,0,0,0,0,0,0,0,0,0,0,0,0,0,0,0,0,0,0,0,0,0,0,0,0,0,0,0,0,0,0],"sum_hessian":[2.4774419E2,5.3032047E1,1.9471214E2,2.4559315E1,2.8472734E1,1.2007701E2,7.4635124E1,1.5322748E1,9.236566E0,1.4669353E1,1.3803383E1,5.532379E1,6.475322E1,3.9233063E1,3.5402065E1,1.0149766E1,5.172982E0,8.455109E0,6.2142444E0,8.39373E0,5.4096527E0,2.063135E1,3.4692444E1,1.3754903E1,5.0998318E1,2.1428411E1,1.780465E1,1.2643741E1,2.2758324E1,6.4713764E0,1.4159973E1,2.5825863E1,8.866579E0,6.332556E0,7.422347E0,7.8327274E0,4.3165592E1,1.08396015E1,1.058881E1,1.1142929E1,6.6617203E0,6.348008E0,6.295733E0,6.5957108E0,7.564262E0,1.961606E1,6.2098036E0,1.5417533E1,2.7748058E1,5.40043E0,5.1883802E0,5.7004495E0,1.3915611E1,9.674289E0,5.7432446E0,2.015794E1,7.5901194E0],"tree_param":{"num_deleted":"0","num_feature":"20","num_nodes":"57","size_leaf_vector":"1"}},{"base_weights":[-4.4898875E-3,-2.1715167E-1,1.6708165E-1,3.6842622E-2,-4.9014306E-1,-2.186575E-2,4.866975E-1,3.449118E-1,-3.6453265E-1,-9.654673E-1,-2.0263799E-1,-2.3897567E-1,2.557866E-1,-8.12944E-2,8.8743E-1,-3.0734125E-1,7.782596E-1,6.4285725E-2,-6.927894E-1,-6.2237144E-2,-1.1204922E-1,4.0437412E-1,-6.9863653E-1,-9.7359784E-2,-9.624045E-2,7.416008E-1,-4.033129E-2,-8.994727E-1,9.598107E-2,4.4746324E-2,1.0079434E0,4.083617E-2,-8.604346E-2,9.192925E-2,3.21822E-2,-1.1129552E-1,-3.6725348E-1,9.322838E-2,-3.6117192E-2,-3.9789584E-2,-9.660336E-2,3.244766E-1,-6.104546E-1,3.6819216E-2,1.076798E-1,1.7862023E-1,-7.107106E-2,-1.19413875E-1,-5.297493E-2,1.0980957E-1,5.9178818E-2,-8.594958E-2,1.6627235E-2,-4.0180393E-2,7.381218E-1,-1.4618899E-2,-7.93366E-1,-5.4281097E-2,5.0593317E-1,2.5216097E-2,1.0168052E-1,-1.9303823E-2,-1.1603391E-1,1.2281982E-2,9.598984E-2],"categories":[],"categories_nodes":[],"categories_segments":[],"categories_sizes":[],"default_left":[0,0,0,0,0,0,0,0,0,0,0,0,0,0,0,0,0,0,0,0,0,0,0,0,0,0,0,0,0,0,0,0,0,0,0,0,0,0,0,0,0,0,0,0,0,0,0,0,0,0,0,0,0,0,0,0,0,0,0,0,0,0,0,0,0],"id":15,"left_children":[1,3,5,7,9,11,13,15,17,19,21,23,25,27,29,31,33,-1,35,-1,-1,37,39,-1,41,43,45,47,-1,-1,49,-1,-1,-1,-1,-1,51,-1,-1,-1,-1,53,55,-1,-1,57,-1,-1,-1,-1,-1,-1,-1,-1,59,-1,61,-1,63,-1,-1,-1,-1,-1,-1],"loss_changes":[8.872351E0,7.546245E0,8.139235E0,7.195248E0,6.9650984E0,5.218115E0,1.1464458E1,9.527151E0,8.815922E0,3.3891678E-1,1.0493776E1,4.9945316E0,5.4998827E0,1.9280142E1,1.1094418E0,5.8275175E0,9.932871E-1,0E0,2.268468E0,0E0,0E0,6.7562776E0,1.1460571E0,0E0,9.228238E0,1.4123034E0,3.7336867E0,7.425947E-1,0E0,0E0,1.8694878E-1,0E0,0E0,0E0,0E0,0E0,3.4312305E0,0E0,0E0,0E0,0E0,7.3897038E0,1.5085578E0,0E0,0E0,4.8371587E0,0E0,0E0,0E0,0E0,0E0,0E0,0E0,0E0,1.8285933E0,0E0,2.7496004E0,0E0,2.2837791E0,0E0,0E0,0E0,0E0,0E0,0E0],"parents":[2147483647,0,0,1,1,2,2,3,3,4,4,5,5,6,6,7,7,8,8,9,9,10,10,11,11,12,12,13,13,14,14,15,15,16,16,18,18,21,21,22,22,24,24,25,25,26,26,27,27,30,30,36,36,41,41,42,42,45,45,54,54,56,56,58,58],"right_children":[2,4,6,8,10,12,14,16,18,20,22,24,26,28,30,32,34,-1,36,-1,-1,38,40,-1,42,44,46,48,-1,-1,50,-1,-1,-1,-1,-1,52,-1,-1,-1,-1,54,56,-1,-1,58,-1,-1,-1,-1,-1,-1,-1,-1,60,-1,62,-1,64,-1,-1,-1,-1,-1,-1],"split_conditions":[4.72E2,5.13E2,5.2E2,5.1E2,4.79E2,4.74E2,4.55E2,5.06E2,4.84E2,5.78E2,4.77E2,2.79E2,3.84E2,4.79E2,5.33E2,5.33E2,5.68E2,6.4285725E-2,4.16E2,-6.2237144E-2,-1.1204922E-1,6.1E2,5.21E2,-9.7359784E-2,4.58E2,4.5E2,5.11E2,3.89E2,9.598107E-2,4.4746324E-2,5.75E2,4.083617E-2,-8.604346E-2,9.192925E-2,3.21822E-2,-1.1129552E-1,5.44E2,9.322838E-2,-3.6117192E-2,-3.9789584E-2,-9.660336E-2,4.74E2,4.23E2,3.6819216E-2,1.076798E-1,4.77E2,-7.107106E-2,-1.19413875E-1,-5.297493E-2,1.0980957E-1,5.9178818E-2,-8.594958E-2,1.6627235E-2,-4.0180393E-2,3.53E2,-1.4618899E-2,3.93E2,-5.4281097E-2,5.59E2,2.5216097E-2,1.0168052E-1,-1.9303823E-2,-1.1603391E-1,1.2281982E-2,9.598984E-2],"split_indices":[18,5,11,11,11,13,5,17,13,19,14,19,19,14,5,16,2,0,18,0,0,13,16,0,19,11,17,19,0,0,11,0,0,0,0,0,11,0,0,0,0,4,16,0,0,4,0,0,0,0,0,0,0,0,19,0,13,0,5,0,0,0,0,0,0],"split_type":[0,0,0,0,0,0,0,0,0,0,0,0,0,0,0,0,0,0,0,0,0,0,0,0,0,0,0,0,0,0,0,0,0,0,0,0,0,0,0,0,0,0,0,0,0,0,0,0,0,0,0,0,0,0,0,0,0,0,0,0,0,0,0,0,0],"sum_hessian":[2.4117224E2,1.0757191E2,1.3360033E2,5.6172977E1,5.1398933E1,8.454904E1,4.9051296E1,3.1860008E1,2.4312967E1,1.8483156E1,3.291578E1,4.7525684E1,3.7023354E1,2.0620815E1,2.843048E1,1.28338785E1,1.902613E1,5.7397633E0,1.8573206E1,7.312978E0,1.1170177E1,1.4884537E1,1.803124E1,6.7848363E0,4.074085E1,1.3451034E1,2.3572323E1,1.1622794E1,8.998021E0,7.1264415E0,2.1304039E1,5.708611E0,7.125268E0,1.3760322E1,5.265808E0,7.052184E0,1.1521021E1,8.680669E0,6.203868E0,9.657504E0,8.373736E0,2.2610497E1,1.813035E1,7.355483E0,6.09555E0,1.8321815E1,5.250506E0,5.2270613E0,6.3957324E0,1.6163786E1,5.140252E0,5.6745696E0,5.8464513E0,8.215066E0,1.4395431E1,5.6326904E0,1.2497661E1,5.5127544E0,1.2809061E1,5.9408174E0,8.454613E0,5.3202844E0,7.177376E0,7.6356673E0,5.173394E0],"tree_param":{"num_deleted":"0","num_feature":"20","num_nodes":"65","size_leaf_vector":"1"}},{"base_weights":[-4.9281158E-3,-3.7304273E-1,9.4385564E-2,-5.070433E-1,3.6443394E-2,6.274659E-2,8.395979E-2,-1.7256077E-1,-8.614088E-1,2.4797384E-2,6.2488616E-1,-7.73161E-2,2.2589056E-1,-1.1238634E-1,-3.6502324E-2,-2.7122584E-1,1.2237832E-1,1.06407955E-1,6.7936345E-3,5.8509577E-2,-2.927404E-2,7.1998745E-2,-5.095142E-1,3.8642344E-1,-5.090369E-2,5.4796714E-1,-6.685852E-2,-6.8793136E-1,1.37280105E-2,-2.807965E-1,6.837168E-1,1.4630711E-1,-4.487931E-1,8.015265E-2,1.9259168E-2,-1.9334523E-2,-9.370485E-2,-7.667275E-2,5.7732638E-2,-4.167926E-2,8.9876704E-2,-6.158774E-2,4.2483594E-2,3.823469E-2,-6.693899E-2],"categories":[],"categories_nodes":[],"categories_segments":[],"categories_sizes":[],"default_left":[0,0,0,0,0,0,0,0,0,0,0,0,0,0,0,0,0,0,0,0,0,0,0,0,0,0,0,0,0,0,0,0,0,0,0,0,0,0,0,0,0,0,0,0,0],"id":16,"left_children":[1,3,5,7,-1,9,-1,11,13,15,17,-1,19,-1,-1,21,23,-1,-1,-1,-1,25,27,29,31,33,-1,35,-1,37,39,41,43,-1,-1,-1,-1,-1,-1,-1,-1,-1,-1,-1,-1],"loss_changes":[8.634522E0,5.143529E0,4.333726E0,4.934004E0,0E0,3.8146734E0,0E0,5.752936E0,2.269744E0,4.9216404E0,2.6949482E0,0E0,2.9260437E0,0E0,0E0,3.4934764E0,5.8746166E0,0E0,0E0,0E0,0E0,6.7802467E0,2.987543E0,1.02726345E1,6.197557E0,8.9326596E-1,0E0,2.260395E0,0E0,7.2700787E0,8.763603E0,1.1513599E1,5.049068E0,0E0,0E0,0E0,0E0,0E0,0E0,0E0,0E0,0E0,0E0,0E0,0E0],"parents":[2147483647,0,0,1,1,2,2,3,3,5,5,7,7,8,8,9,9,10,10,12,12,15,15,16,16,21,21,22,22,23,23,24,24,25,25,27,27,29,29,30,30,31,31,32,32],"right_children":[2,4,6,8,-1,10,-1,12,14,16,18,-1,20,-1,-1,22,24,-1,-1,-1,-1,26,28,30,32,34,-1,36,-1,38,40,42,44,-1,-1,-1,-1,-1,-1,-1,-1,-1,-1,-1,-1],"split_conditions":[4.51E2,6.58E2,5E2,4.83E2,3.6443394E-2,6.26E2,8.395979E-2,3.86E2,4.81E2,4.74E2,5.54E2,-7.73161E-2,5.01E2,-1.1238634E-1,-3.6502324E-2,5.62E2,4.79E2,1.06407955E-1,6.7936345E-3,5.8509577E-2,-2.927404E-2,4.74E2,5.9E2,4.85E2,5.15E2,5.03E2,-6.685852E-2,4.41E2,1.37280105E-2,4.66E2,2.91E2,4.79E2,4.84E2,8.015265E-2,1.9259168E-2,-1.9334523E-2,-9.370485E-2,-7.667275E-2,5.7732638E-2,-4.167926E-2,8.9876704E-2,-6.158774E-2,4.2483594E-2,3.823469E-2,-6.693899E-2],"split_indices":[6,9,4,5,0,10,0,5,4,4,9,0,8,0,0,16,19,0,0,0,0,0,5,8,8,5,0,5,0,5,19,5,4,0,0,0,0,0,0,0,0,0,0,0,0],"split_type":[0,0,0,0,0,0,0,0,0,0,0,0,0,0,0,0,0,0,0,0,0,0,0,0,0,0,0,0,0,0,0,0,0,0,0,0,0,0,0,0,0,0,0,0,0],"sum_hessian":[2.3421857E2,4.9178406E1,1.8504016E2,4.1881027E1,7.2973804E0,1.7854404E2,6.4961224E0,2.230988E1,1.9571146E1,1.6823112E2,1.03129225E1,8.522775E0,1.3787105E1,1.1975326E1,7.5958204E0,4.126609E1,1.2696503E2,5.2569256E0,5.0559964E0,8.069792E0,5.7173133E0,1.7195694E1,2.4070398E1,4.9819946E1,7.714508E1,1.0626317E1,6.5693755E0,1.881634E1,5.254058E0,1.5373179E1,3.4446766E1,5.200266E1,2.5142422E1,5.468863E0,5.1574545E0,6.8978252E0,1.1918514E1,9.883141E0,5.4900393E0,5.477551E0,2.8969215E1,1.3593454E1,3.8409206E1,5.11971E0,2.0022713E1],"tree_param":{"num_deleted":"0","num_feature":"20","num_nodes":"45","size_leaf_vector":"1"}},{"base_weights":[-4.71989E-3,-2.2605388E-1,1.2597208E-1,1.02123454E-1,-4.3441132E-1,-2.586451E-2,3.9429304E-1,-3.671655E-1,4.3112922E-1,-8.402212E-1,-2.0996551E-1,5.1646847E-2,-8.504495E-2,-2.2224711E-2,7.276337E-1,8.286524E-3,-6.664066E-2,6.560541E-1,-1.1969181E-2,-3.0351425E-2,-1.01693355E-1,1.988212E-1,-6.9141465E-1,8.391369E-2,-6.8390374E-3,-9.349031E-1,9.227629E-2,-8.182084E-3,9.1548836E-1,1.7333701E-2,9.7212784E-2,-4.691439E-2,4.8071712E-1,-3.8331386E-2,-1.0861751E-1,-1.2370557E-1,3.2600242E-1,-1.2526223E-1,-5.2834947E-2,4.7340535E-2,1.0099947E0,8.881014E-2,-1.6451215E-2,-4.3079963E-1,1.4549077E-1,9.228882E-2,-3.405148E-3,5.7324566E-2,1.13018654E-1,-1.6090943E-2,-8.5763924E-2,4.503008E-2,-3.9506927E-2,-4.1168813E-2,5.6737658E-2],"categories":[],"categories_nodes":[],"categories_segments":[],"categories_sizes":[],"default_left":[0,0,0,0,0,0,0,0,0,0,0,0,0,0,0,0,0,0,0,0,0,0,0,0,0,0,0,0,0,0,0,0,0,0,0,0,0,0,0,0,0,0,0,0,0,0,0,0,0,0,0,0,0,0,0],"id":17,"left_children":[1,3,5,7,9,11,13,15,17,19,21,23,-1,25,27,-1,-1,29,-1,-1,-1,31,33,-1,35,37,-1,-1,39,-1,-1,-1,41,-1,-1,43,45,-1,-1,-1,47,-1,-1,49,51,-1,53,-1,-1,-1,-1,-1,-1,-1,-1],"loss_changes":[6.709119E0,5.9317393E0,5.952327E0,5.4457955E0,4.6376915E0,6.0571537E0,7.3427963E0,2.0286362E0,2.6297085E0,1.4449215E0,7.0976825E0,4.009985E0,0E0,2.1931425E1,4.536496E0,0E0,0E0,2.085864E0,0E0,0E0,0E0,3.973103E0,1.5859389E0,0E0,3.2269442E0,1.0074854E0,0E0,0E0,5.202446E-1,0E0,0E0,0E0,3.9548478E0,0E0,0E0,5.1350493E0,4.243106E0,0E0,0E0,0E0,3.392887E-1,0E0,0E0,3.1928759E0,5.688403E0,0E0,3.7040231E0,0E0,0E0,0E0,0E0,0E0,0E0,0E0,0E0],"parents":[2147483647,0,0,1,1,2,2,3,3,4,4,5,5,6,6,7,7,8,8,9,9,10,10,11,11,13,13,14,14,17,17,21,21,22,22,24,24,25,25,28,28,32,32,35,35,36,36,40,40,43,43,44,44,46,46],"right_children":[2,4,6,8,10,12,14,16,18,20,22,24,-1,26,28,-1,-1,30,-1,-1,-1,32,34,-1,36,38,-1,-1,40,-1,-1,-1,42,-1,-1,44,46,-1,-1,-1,48,-1,-1,50,52,-1,54,-1,-1,-1,-1,-1,-1,-1,-1],"split_conditions":[4.53E2,4.54E2,5.2E2,3.88E2,4.77E2,6.41E2,4.77E2,4.69E2,5.23E2,5.18E2,4.8E2,4.27E2,-8.504495E-2,4.88E2,4.79E2,8.286524E-3,-6.664066E-2,5.18E2,-1.1969181E-2,-3.0351425E-2,-1.01693355E-1,4.88E2,5.33E2,8.391369E-2,4.96E2,4.07E2,9.227629E-2,-8.182084E-3,4.99E2,1.7333701E-2,9.7212784E-2,-4.691439E-2,5.35E2,-3.8331386E-2,-1.0861751E-1,4.68E2,4.38E2,-1.2526223E-1,-5.2834947E-2,4.7340535E-2,4.67E2,8.881014E-2,-1.6451215E-2,4.67E2,4.99E2,9.228882E-2,5.11E2,5.7324566E-2,1.13018654E-1,-1.6090943E-2,-8.5763924E-2,4.503008E-2,-3.9506927E-2,-4.1168813E-2,5.6737658E-2],"split_indices":[18,5,11,5,11,5,5,11,11,5,0,8,0,8,18,0,0,17,0,0,0,7,16,0,2,19,0,0,7,0,0,0,17,0,0,17,11,0,0,0,0,0,0,19,17,0,8,0,0,0,0,0,0,0,0],"split_type":[0,0,0,0,0,0,0,0,0,0,0,0,0,0,0,0,0,0,0,0,0,0,0,0,0,0,0,0,0,0,0,0,0,0,0,0,0,0,0,0,0,0,0,0,0,0,0,0,0,0,0,0,0,0,0],"sum_hessian":[2.2995172E2,8.5100204E1,1.4485152E2,3.3245735E1,5.185447E1,9.3082115E1,5.1769398E1,1.3653954E1,1.9591784E1,1.7489315E1,3.436515E1,8.594099E1,7.141125E0,2.3428371E1,2.8341026E1,5.7418413E0,7.9121127E0,1.3775559E1,5.816224E0,5.005196E0,1.248412E1,1.890252E1,1.5462632E1,5.0186815E0,8.092231E1,1.1923352E1,1.150502E1,5.4446793E0,2.2896347E1,6.0635443E0,7.7120147E0,5.4126816E0,1.3489838E1,9.791562E0,5.67107E0,6.035791E1,2.0564398E1,5.5247326E0,6.398619E0,5.0909743E0,1.7805374E1,8.038245E0,5.4515924E0,2.7913921E1,3.244399E1,6.672386E0,1.3892011E1,5.087608E0,1.2717765E1,1.7944569E1,9.969353E0,2.0852623E1,1.1591365E1,8.2613535E0,5.630657E0],"tree_param":{"num_deleted":"0","num_feature":"20","num_nodes":"55","size_leaf_vector":"1"}},{"base_weights":[-4.616379E-3,-3.418773E-1,8.55429E-2,-4.695684E-1,3.4273986E-2,-5.37621E-3,3.4592962E-1,-9.5075655E-1,-1.5543431E-1,-7.58042E-2,4.7469577E-1,6.5507096E-1,6.395416E-3,-1.1140627E-1,-5.9643935E-2,1.3188379E-1,-7.6042585E-2,-2.5487047E-1,1.3533127E-1,1.19468965E-1,-1.9218488E-2,-3.043586E-2,9.921867E-2,-3.339494E-1,5.7997413E-2,6.337687E-2,-5.5192262E-2,6.501412E-2,-3.701506E-1,2.1285184E-1,-5.265258E-2,-8.329143E-2,4.8379797E-2,-4.0744305E-2,-7.8747034E-1,6.364499E-1,4.657406E-2,-9.045117E-2,2.4832025E-2,-1.625625E-2,-9.402103E-2,1.1956864E-2,9.2922986E-2,1.9852508E-2,-5.112753E-2],"categories":[],"categories_nodes":[],"categories_segments":[],"categories_sizes":[],"default_left":[0,0,0,0,0,0,0,0,0,0,0,0,0,0,0,0,0,0,0,0,0,0,0,0,0,0,0,0,0,0,0,0,0,0,0,0,0,0,0,0,0,0,0,0,0],"id":18,"left_children":[1,3,5,7,-1,9,11,13,15,17,19,21,23,-1,-1,25,-1,27,29,-1,-1,-1,-1,31,-1,-1,-1,-1,33,35,-1,-1,-1,37,39,41,43,-1,-1,-1,-1,-1,-1,-1,-1],"loss_changes":[6.891481E0,4.339965E0,4.236539E0,6.0060854E0,0E0,4.551894E0,4.8565307E0,2.5465298E-1,4.589645E0,4.4707932E0,8.500339E0,8.138644E0,4.6990786E0,0E0,0E0,6.651821E0,0E0,6.900929E0,2.9084E0,0E0,0E0,0E0,0E0,6.571973E0,0E0,0E0,0E0,0E0,7.8397202E0,3.4568307E0,0E0,0E0,0E0,8.478395E0,2.2530336E0,1.9885073E0,3.206049E0,0E0,0E0,0E0,0E0,0E0,0E0,0E0,0E0],"parents":[2147483647,0,0,1,1,2,2,3,3,5,5,6,6,7,7,8,8,9,9,10,10,11,11,12,12,15,15,17,17,18,18,23,23,28,28,29,29,33,33,34,34,35,35,36,36],"right_children":[2,4,6,8,-1,10,12,14,16,18,20,22,24,-1,-1,26,-1,28,30,-1,-1,-1,-1,32,-1,-1,-1,-1,34,36,-1,-1,-1,38,40,42,44,-1,-1,-1,-1,-1,-1,-1,-1],"split_conditions":[4.51E2,6.58E2,5.38E2,5.02E2,3.4273986E-2,5.86E2,4.83E2,5.55E2,5.18E2,4.74E2,4.5E2,4.95E2,4.84E2,-1.1140627E-1,-5.9643935E-2,4.67E2,-7.6042585E-2,4.19E2,5.48E2,1.19468965E-1,-1.9218488E-2,-3.043586E-2,9.921867E-2,4.64E2,5.7997413E-2,6.337687E-2,-5.5192262E-2,6.501412E-2,4.33E2,4.52E2,-5.265258E-2,-8.329143E-2,4.8379797E-2,4.6E2,4.14E2,4.23E2,4.76E2,-9.045117E-2,2.4832025E-2,-1.625625E-2,-9.402103E-2,1.1956864E-2,9.2922986E-2,1.9852508E-2,-5.112753E-2],"split_indices":[6,9,11,17,0,10,10,10,11,11,11,6,8,0,0,7,0,17,7,0,0,0,0,7,0,0,0,0,9,8,0,0,0,17,11,9,17,0,0,0,0,0,0,0,0],"split_type":[0,0,0,0,0,0,0,0,0,0,0,0,0,0,0,0,0,0,0,0,0,0,0,0,0,0,0,0,0,0,0,0,0,0,0,0,0,0,0,0,0,0,0,0,0],"sum_hessian":[2.2467798E2,4.680426E1,1.7787372E2,3.9711586E1,7.0926747E0,1.325653E2,4.5308414E1,1.488471E1,2.4826874E1,1.1633998E2,1.622532E1,2.3229208E1,2.2079206E1,8.720942E0,6.1637683E0,1.7362982E1,7.463892E0,6.2838673E1,5.350131E1,7.4213953E0,8.803926E0,6.065109E0,1.71641E1,1.4119116E1,7.9600906E0,1.00557E1,7.307282E0,6.575754E0,5.626292E1,4.84992E1,5.0021076E0,8.757193E0,5.361923E0,3.2056858E1,2.420606E1,1.287418E1,3.562502E1,7.504176E0,2.4552683E1,5.1598363E0,1.9046225E1,5.164692E0,7.7094874E0,2.85048E1,7.1202183E0],"tree_param":{"num_deleted":"0","num_feature":"20","num_nodes":"45","size_leaf_vector":"1"}},{"base_weights":[-4.7215214E-3,-3.2231104E-1,7.936402E-2,-6.059176E-2,-5.5428666E-1,3.0592158E-2,6.7136484E-1,3.636451E-1,-7.18082E-2,-9.042411E-1,-1.6655481E-1,7.123589E-2,-6.917501E-2,9.0691164E-2,2.4066342E-2,-3.493818E-2,1.0641878E-1,-1.0972261E-1,-5.3466674E-2,3.0474124E-2,-7.367467E-2,7.523441E-2,3.5311516E-2,-8.6467326E-2,7.6470464E-2,-9.398755E-2,1.9801292E-1,-1.8442946E-2,6.3945234E-2,-5.4057795E-3,3.8531277E-2],"categories":[],"categories_nodes":[],"categories_segments":[],"categories_sizes":[],"default_left":[0,0,0,0,0,0,0,0,0,0,0,0,0,0,0,0,0,0,0,0,0,0,0,0,0,0,0,0,0,0,0],"id":19,"left_children":[1,3,5,7,9,11,13,15,-1,17,19,21,-1,-1,-1,-1,-1,-1,-1,-1,-1,-1,23,-1,25,27,29,-1,-1,-1,-1],"loss_changes":[5.9200077E0,2.7837062E0,5.041545E0,6.656133E0,3.1706452E0,4.835498E0,1.1307034E0,7.6641335E0,0E0,3.14826E-1,3.6743422E0,3.772104E0,0E0,0E0,0E0,0E0,0E0,0E0,0E0,0E0,0E0,0E0,5.5676336E0,0E0,2.9800828E0,4.1096773E0,3.9756598E0,0E0,0E0,0E0,0E0],"parents":[2147483647,0,0,1,1,2,2,3,3,4,4,5,5,6,6,7,7,9,9,10,10,11,11,22,22,24,24,25,25,26,26],"right_children":[2,4,6,8,10,12,14,16,-1,18,20,22,-1,-1,-1,-1,-1,-1,-1,-1,-1,-1,24,-1,26,28,30,-1,-1,-1,-1],"split_conditions":[4.51E2,4.7E2,5.43E2,4.95E2,5.06E2,5.97E2,5.18E2,4.7E2,-7.18082E-2,4.74E2,4.81E2,4.63E2,-6.917501E-2,9.0691164E-2,2.4066342E-2,-3.493818E-2,1.0641878E-1,-1.0972261E-1,-5.3466674E-2,3.0474124E-2,-7.367467E-2,7.523441E-2,2.64E2,-8.6467326E-2,4.73E2,5.79E2,4.67E2,-1.8442946E-2,6.3945234E-2,-5.4057795E-3,3.8531277E-2],"split_indices":[6,7,1,1,11,2,7,19,0,4,8,4,0,0,0,0,0,0,0,0,0,0,19,0,11,10,7,0,0,0,0],"split_type":[0,0,0,0,0,0,0,0,0,0,0,0,0,0,0,0,0,0,0,0,0,0,0,0,0,0,0,0,0,0,0],"sum_hessian":[2.1972633E2,4.540382E1,1.7432251E2,2.1926794E1,2.3477026E1,1.6202573E2,1.229678E1,1.3599084E1,8.32771E0,1.1639475E1,1.1837551E1,1.5424811E2,7.7776303E0,7.2345862E0,5.0621934E0,6.987912E0,6.611172E0,6.353108E0,5.286367E0,6.7356772E0,5.101874E0,6.728907E0,1.475192E2,5.576429E0,1.4194276E2,5.917671E1,8.276605E1,5.3346935E1,5.829773E0,3.5585705E1,4.7180347E1],"tree_param":{"num_deleted":"0","num_feature":"20","num_nodes":"31","size_leaf_vector":"1"}},{"base_weights":[-4.7811647E-3,-4.8172515E-2,6.173361E-1,9.1296636E-2,-1.7721249E-1,9.100922E-2,1.2222877E-2,-1.7916363E-1,3.6070162E-1,9.398115E-2,-4.226866E-1,4.3462325E-2,-3.261015E-1,-3.5217926E-1,6.5247446E-1,5.257936E-1,-1.4988713E-1,-2.6623464E-1,-7.872679E-1,-5.0338966E-1,-3.720475E-2,-7.9705864E-2,4.012355E-2,3.215554E-1,1.1909018E-1,-3.910358E-3,8.574849E-1,2.2614965E-2,-5.3373534E-2,1.8567571E-1,-4.778723E-1,-1.5305163E-2,-1.0811019E-1,-6.956354E-1,9.818213E-3,-4.6653885E-2,6.832086E-2,-5.1352415E-2,7.647217E-2,5.3870942E-2,1.01879E-1,-2.0569098E-1,6.303469E-2,6.756141E-2,-4.879007E-2,-1.7227104E-1,-8.1844664E-1,-1.5886558E-2,-9.1192216E-2,-6.626991E-2,4.4805534E-2,3.660099E-2,-6.930456E-2,1.5382009E-2,-7.060856E-2,-1.13135815E-1,-2.8114328E-2],"categories":[],"categories_nodes":[],"categories_segments":[],"categories_sizes":[],"default_left":[0,0,0,0,0,0,0,0,0,0,0,0,0,0,0,0,0,0,0,0,0,0,0,0,0,0,0,0,0,0,0,0,0,0,0,0,0,0,0,0,0,0,0,0,0,0,0,0,0,0,0,0,0,0,0,0,0],"id":20,"left_children":[1,3,5,7,9,-1,-1,11,13,15,17,-1,19,21,23,25,27,29,31,33,35,-1,-1,37,-1,-1,39,41,-1,43,45,-1,-1,47,-1,-1,-1,49,-1,-1,-1,51,-1,-1,-1,53,55,-1,-1,-1,-1,-1,-1,-1,-1,-1,-1],"loss_changes":[5.9154315E0,3.70099E0,1.9597735E0,7.282186E0,7.142097E0,0E0,0E0,4.660122E0,1.0620752E1,5.5027695E0,2.994976E0,0E0,2.0808887E0,5.4004307E0,5.9955397E0,3.5583344E0,2.24318E0,3.9930773E0,2.8830748E0,2.9970326E0,5.4746056E0,0E0,0E0,3.9297864E0,0E0,0E0,6.28643E-2,3.4883428E0,0E0,4.864168E0,2.7818065E0,0E0,0E0,2.0975142E0,0E0,0E0,0E0,4.4862084E0,0E0,0E0,0E0,5.3664885E0,0E0,0E0,0E0,2.905548E0,1.8700485E0,0E0,0E0,0E0,0E0,0E0,0E0,0E0,0E0,0E0,0E0],"parents":[2147483647,0,0,1,1,2,2,3,3,4,4,7,7,8,8,9,9,10,10,12,12,13,13,14,14,15,15,16,16,17,17,18,18,19,19,20,20,23,23,26,26,27,27,29,29,30,30,33,33,37,37,41,41,45,45,46,46],"right_children":[2,4,6,8,10,-1,-1,12,14,16,18,-1,20,22,24,26,28,30,32,34,36,-1,-1,38,-1,-1,40,42,-1,44,46,-1,-1,48,-1,-1,-1,50,-1,-1,-1,52,-1,-1,-1,54,56,-1,-1,-1,-1,-1,-1,-1,-1,-1,-1],"split_conditions":[6.99E2,4.71E2,5.82E2,4.36E2,4.74E2,9.100922E-2,1.2222877E-2,2.87E2,4.84E2,5.09E2,6.34E2,4.3462325E-2,4.83E2,4.71E2,4.63E2,4.71E2,5.44E2,4.85E2,5.1E2,4.86E2,4.31E2,-7.9705864E-2,4.012355E-2,4.97E2,1.1909018E-1,-3.910358E-3,4.8E2,6.19E2,-5.3373534E-2,4.96E2,4.62E2,-1.5305163E-2,-1.0811019E-1,4.88E2,9.818213E-3,-4.6653885E-2,6.832086E-2,3.65E2,7.647217E-2,5.3870942E-2,1.01879E-1,4.66E2,6.303469E-2,6.756141E-2,-4.879007E-2,5.54E2,5.62E2,-1.5886558E-2,-9.1192216E-2,-6.626991E-2,4.4805534E-2,3.660099E-2,-6.930456E-2,1.5382009E-2,-7.060856E-2,-1.13135815E-1,-2.8114328E-2],"split_indices":[3,15,15,3,14,0,0,3,8,17,3,0,17,12,17,1,12,7,8,1,7,0,0,1,0,0,17,15,0,1,17,0,0,10,0,0,0,15,0,0,0,3,0,0,0,3,12,0,0,0,0,0,0,0,0,0,0],"split_type":[0,0,0,0,0,0,0,0,0,0,0,0,0,0,0,0,0,0,0,0,0,0,0,0,0,0,0,0,0,0,0,0,0,0,0,0,0,0,0,0,0,0,0,0,0,0,0,0,0,0,0,0,0,0,0,0,0],"sum_hessian":[2.1703297E2,2.0374477E2,1.3288196E1,9.805612E1,1.0568865E2,7.823816E0,5.46438E0,4.9099384E1,4.895674E1,5.0506966E1,5.5181683E1,9.105625E0,3.999376E1,1.4157952E1,3.479879E1,1.7811848E1,3.269512E1,3.982284E1,1.5358841E1,2.4324198E1,1.56695595E1,8.865241E0,5.2927113E0,2.2541765E1,1.2257024E1,6.9157944E0,1.0896052E1,2.3206955E1,9.488166E0,1.2740563E1,2.7082277E1,5.3443594E0,1.0014482E1,1.83149E1,6.009299E0,1.0039104E1,5.630455E0,1.272135E1,9.8204155E0,5.1191473E0,5.776905E0,1.7350468E1,5.856487E0,7.373955E0,5.3666086E0,1.5067691E1,1.2014586E1,5.758429E0,1.2556471E1,5.5726533E0,7.1486964E0,8.098892E0,9.251576E0,9.795664E0,5.272027E0,6.8940487E0,5.1205378E0],"tree_param":{"num_deleted":"0","num_feature":"20","num_nodes":"57","size_leaf_vector":"1"}},{"base_weights":[-4.22778E-3,-4.4720687E-2,5.80627E-1,2.419714E-2,-2.852355E-1,-6.7210343E-4,9.165818E-2,7.845943E-2,-5.557248E-1,-4.35295E-1,3.5335526E-2,1.4091085E-1,-3.3000618E-1,-9.313968E-2,-1.0615219E-3,-6.9642085E-1,-1.7850609E-1,4.3968417E-2,3.7889645E-1,-1.01131655E-1,1.0437649E-1,-2.445574E-2,-8.5920155E-1,-4.4467303E-1,1.46298185E-2,2.9407972E-1,-1.2779672E-1,3.1371042E-2,7.5913996E-1,-4.1903686E-2,7.189756E-2,-1.0276403E-1,-5.3631216E-2,-1.3729282E-2,-6.755879E-2,8.35324E-2,-1.691662E-3,7.347832E-3,-7.300257E-2,8.1207E-2,-3.7397675E-2,9.3609296E-2,3.590971E-2],"categories":[],"categories_nodes":[],"categories_segments":[],"categories_sizes":[],"default_left":[0,0,0,0,0,0,0,0,0,0,0,0,0,0,0,0,0,0,0,0,0,0,0,0,0,0,0,0,0,0,0,0,0,0,0,0,0,0,0,0,0,0,0],"id":21,"left_children":[1,3,5,7,9,-1,-1,11,13,15,-1,17,19,-1,-1,21,23,25,27,-1,29,-1,31,33,-1,35,37,39,41,-1,-1,-1,-1,-1,-1,-1,-1,-1,-1,-1,-1,-1,-1],"loss_changes":[5.076807E0,3.3285487E0,2.745296E0,4.9740453E0,4.4382324E0,0E0,0E0,3.723711E0,2.7607732E0,2.3332887E0,0E0,2.8841789E0,5.851763E0,0E0,0E0,1.1011629E0,1.7788492E0,3.9243722E0,4.768002E0,0E0,4.4070463E0,0E0,1.4002228E-1,6.9815016E-1,0E0,6.2655406E0,6.6397667E0,6.629376E0,8.8657284E-1,0E0,0E0,0E0,0E0,0E0,0E0,0E0,0E0,0E0,0E0,0E0,0E0,0E0,0E0],"parents":[2147483647,0,0,1,1,2,2,3,3,4,4,7,7,8,8,9,9,11,11,12,12,15,15,16,16,17,17,18,18,20,20,22,22,23,23,25,25,26,26,27,27,28,28],"right_children":[2,4,6,8,10,-1,-1,12,14,16,-1,18,20,-1,-1,22,24,26,28,-1,30,-1,32,34,-1,36,38,40,42,-1,-1,-1,-1,-1,-1,-1,-1,-1,-1,-1,-1,-1,-1],"split_conditions":[6.99E2,5.59E2,5.25E2,6.32E2,6.58E2,-6.7210343E-4,9.165818E-2,6.34E2,4.82E2,4.51E2,3.5335526E-2,5.4E2,5.02E2,-9.313968E-2,-1.0615219E-3,4.19E2,4.23E2,5E2,4.75E2,-1.01131655E-1,4.91E2,-2.445574E-2,4.36E2,4.61E2,1.46298185E-2,4.77E2,5.33E2,3.93E2,5.55E2,-4.1903686E-2,7.189756E-2,-1.0276403E-1,-5.3631216E-2,-1.3729282E-2,-6.755879E-2,8.35324E-2,-1.691662E-3,7.347832E-3,-7.300257E-2,8.1207E-2,-3.7397675E-2,9.3609296E-2,3.590971E-2],"split_indices":[3,9,6,5,9,0,0,3,1,6,0,5,6,0,0,5,3,6,1,0,1,0,6,1,0,9,13,13,3,0,0,0,0,0,0,0,0,0,0,0,0,0,0],"split_type":[0,0,0,0,0,0,0,0,0,0,0,0,0,0,0,0,0,0,0,0,0,0,0,0,0,0,0,0,0,0,0,0,0,0,0,0,0,0,0,0,0,0,0],"sum_hessian":[2.1227338E2,1.9939185E2,1.2881524E1,1.5568173E2,4.3710114E1,5.043679E0,7.837845E0,1.4315196E2,1.2529774E1,3.5650997E1,8.0591135E0,1.2473579E2,1.8416172E1,6.998198E0,5.531575E0,1.6827381E1,1.8823618E1,8.947378E1,3.5262012E1,6.6530232E0,1.1763149E1,5.119239E0,1.1708141E1,1.0142834E1,8.680784E0,3.6138924E1,5.333485E1,1.8989222E1,1.627279E1,6.5246944E0,5.238455E0,6.2599373E0,5.4482045E0,5.0350423E0,5.1077914E0,1.2572442E1,2.356648E1,4.063271E1,1.2702145E1,6.146905E0,1.2842318E1,1.0353218E1,5.919573E0],"tree_param":{"num_deleted":"0","num_feature":"20","num_nodes":"43","size_leaf_vector":"1"}},{"base_weights":[-4.3200813E-3,-4.1781586E-2,5.4785496E-1,2.2198016E-2,-2.646848E-1,8.608923E-2,8.780061E-3,6.137522E-2,-6.8364285E-2,-4.0446293E-1,3.2110862E-2,1.1843749E-1,-3.024326E-1,-5.3064245E-1,9.913702E-3,4.3642002E-1,6.1931375E-2,4.0402975E-2,-6.967637E-2,-1.442348E-1,-7.7474916E-1,-4.912232E-2,9.100821E-1,1.5560342E-1,-2.0600219E-1,-4.5916673E-2,5.8799244E-2,-5.1187005E-2,2.284609E-2,-9.534237E-2,-4.0906128E-2,5.6852486E-2,1.0628257E-1,-3.8707468E-3,4.4168226E-2,-5.7773855E-2,3.833386E-2],"categories":[],"categories_nodes":[],"categories_segments":[],"categories_sizes":[],"default_left":[0,0,0,0,0,0,0,0,0,0,0,0,0,0,0,0,0,0,0,0,0,0,0,0,0,0,0,0,0,0,0,0,0,0,0,0,0],"id":22,"left_children":[1,3,5,7,9,-1,-1,11,-1,13,-1,15,17,19,-1,21,23,25,-1,27,29,-1,31,33,35,-1,-1,-1,-1,-1,-1,-1,-1,-1,-1,-1,-1],"loss_changes":[4.3768272E0,2.8301873E0,1.8604846E0,4.3225427E0,3.7526047E0,0E0,0E0,3.0994244E0,0E0,2.3505454E0,0E0,2.277988E0,2.7711482E0,2.6307392E0,0E0,8.879531E0,2.7951674E0,3.497652E0,0E0,1.8276238E0,7.592859E-1,0E0,7.684326E-2,4.5833364E0,6.5636973E0,0E0,0E0,0E0,0E0,0E0,0E0,0E0,0E0,0E0,0E0,0E0,0E0],"parents":[2147483647,0,0,1,1,2,2,3,3,4,4,7,7,9,9,11,11,12,12,13,13,15,15,16,16,17,17,19,19,20,20,22,22,23,23,24,24],"right_children":[2,4,6,8,10,-1,-1,12,-1,14,-1,16,18,20,-1,22,24,26,-1,28,30,-1,32,34,36,-1,-1,-1,-1,-1,-1,-1,-1,-1,-1,-1,-1],"split_conditions":[6.99E2,5.59E2,5.98E2,6.46E2,6.58E2,8.608923E-2,8.780061E-3,6.34E2,-6.8364285E-2,5.77E2,3.2110862E-2,3.99E2,4.31E2,4.6E2,9.913702E-3,2.91E2,5.25E2,4.93E2,-6.967637E-2,3.98E2,5.28E2,-4.912232E-2,4.82E2,4.68E2,4.77E2,-4.5916673E-2,5.8799244E-2,-5.1187005E-2,2.284609E-2,-9.534237E-2,-4.0906128E-2,5.6852486E-2,1.0628257E-1,-3.8707468E-3,4.4168226E-2,-5.7773855E-2,3.833386E-2],"split_indices":[3,9,19,5,9,0,0,3,0,12,0,13,2,5,0,19,11,11,0,5,11,0,9,11,5,0,0,0,0,0,0,0,0,0,0,0,0],"split_type":[0,0,0,0,0,0,0,0,0,0,0,0,0,0,0,0,0,0,0,0,0,0,0,0,0,0,0,0,0,0,0,0,0,0,0,0,0],"sum_hessian":[2.0948448E2,1.9704086E2,1.2443615E1,1.537971E2,4.324376E1,6.8865075E0,5.557108E0,1.4657463E2,7.222476E0,3.5162956E1,8.080805E0,1.27284805E2,1.9289827E1,2.807494E1,7.0880156E0,1.8191355E1,1.0909345E2,1.0798789E1,8.491038E0,1.1485263E1,1.6589678E1,6.136417E0,1.2054937E1,8.1144005E1,2.7949446E1,5.731436E0,5.067353E0,5.5938954E0,5.8913674E0,1.0064817E1,6.5248594E0,5.184258E0,6.87068E0,4.8837334E1,3.230667E1,1.7150913E1,1.07985325E1],"tree_param":{"num_deleted":"0","num_feature":"20","num_nodes":"37","size_leaf_vector":"1"}},{"base_weights":[-4.000969E-3,-2.8082716E-1,6.752525E-2,-3.979809E-1,2.8841728E-2,2.2682216E-2,6.269436E-1,-7.8053856E-1,-1.6612217E-1,5.86459E-2,-1.8521024E-2,3.1766493E-2,8.166121E-2,-9.862288E-2,-5.1779408E-2,1.2684616E-1,-6.378916E-2,-5.013395E-2,5.1878102E-2,6.280672E-2,-5.9182953E-2,-1.0950367E-2,-6.4200364E-2,5.8437206E-2,-4.499113E-2,-4.577936E-2,5.7002914E-4],"categories":[],"categories_nodes":[],"categories_segments":[],"categories_sizes":[],"default_left":[0,0,0,0,0,0,0,0,0,0,0,0,0,0,0,0,0,0,0,0,0,0,0,0,0,0,0],"id":23,"left_children":[1,3,5,7,-1,9,11,13,15,-1,17,-1,-1,-1,-1,19,-1,21,-1,-1,-1,23,-1,-1,25,-1,-1],"loss_changes":[4.139072E0,2.9770079E0,4.1541705E0,3.0647306E0,0E0,3.6084087E0,4.617448E-1,2.09198E-1,3.35572E0,0E0,2.4938912E0,0E0,0E0,0E0,0E0,5.9373713E0,0E0,3.1964293E0,0E0,0E0,0E0,2.6723392E0,0E0,0E0,2.6065228E0,0E0,0E0],"parents":[2147483647,0,0,1,1,2,2,3,3,5,5,6,6,7,7,8,8,10,10,15,15,17,17,21,21,24,24],"right_children":[2,4,6,8,-1,10,12,14,16,-1,18,-1,-1,-1,-1,20,-1,22,-1,-1,-1,24,-1,-1,26,-1,-1],"split_conditions":[4.51E2,6.58E2,6.99E2,5.43E2,2.8841728E-2,4.02E2,5.35E2,4.68E2,4.94E2,5.86459E-2,5.44E2,3.1766493E-2,8.166121E-2,-9.862288E-2,-5.1779408E-2,4.67E2,-6.378916E-2,5.97E2,5.1878102E-2,6.280672E-2,-5.9182953E-2,3.09E2,-6.4200364E-2,5.8437206E-2,4.25E2,-4.577936E-2,5.7002914E-4],"split_indices":[6,9,3,13,0,12,6,1,1,0,1,0,0,0,0,7,0,2,0,0,0,3,0,0,12,0,0],"split_type":[0,0,0,0,0,0,0,0,0,0,0,0,0,0,0,0,0,0,0,0,0,0,0,0,0,0,0],"sum_hessian":[2.0708281E2,4.1918903E1,1.6516391E2,3.501374E1,6.9051647E0,1.5387021E2,1.1293708E1,1.2319921E1,2.2693819E1,9.578324E0,1.4429189E2,5.309969E0,5.983739E0,5.365756E0,6.9541645E0,1.4450932E1,8.242887E0,1.3713031E2,7.161564E0,8.5877285E0,5.863203E0,1.2957083E2,7.559484E0,6.133753E0,1.2343708E2,1.2621739E1,1.1081534E2],"tree_param":{"num_deleted":"0","num_feature":"20","num_nodes":"27","size_leaf_vector":"1"}},{"base_weights":[-3.7288726E-3,-1.4082268E-1,1.0735429E-1,-5.857383E-2,-6.682003E-1,1.5932543E-2,6.137721E-1,4.3060526E-1,-1.6423711E-1,-1.0184448E-1,-1.3141105E-2,8.4565155E-2,-4.5952716E-1,9.745583E-3,8.64378E-2,9.365665E-2,7.87373E-4,-4.564473E-1,-5.8790473E-3,-6.877864E-2,1.6523343E-1,-1.0253888E-1,1.4455216E-2,2.1243853E-2,-8.7290615E-1,1.585168E-1,-4.090427E-1,-9.9882E-3,4.574705E-1,-1.1244775E-1,-4.599073E-2,6.563954E-2,-2.990435E-2,1.918473E-2,-8.091315E-2,-5.47299E-1,1.6296996E-1,-5.358604E-3,5.7826024E-1,6.0816266E-2,-3.1788785E-2,-6.0497085E-3,-9.183739E-2,-9.959385E-3,4.8878785E-2,7.5618446E-2,1.6944268E-3],"categories":[],"categories_nodes":[],"categories_segments":[],"categories_sizes":[],"default_left":[0,0,0,0,0,0,0,0,0,0,0,0,0,0,0,0,0,0,0,0,0,0,0,0,0,0,0,0,0,0,0,0,0,0,0,0,0,0,0,0,0,0,0,0,0,0,0],"id":24,"left_children":[1,3,5,7,9,11,13,15,17,-1,-1,19,21,-1,-1,-1,-1,23,25,-1,27,-1,-1,-1,29,31,33,35,37,-1,-1,-1,39,-1,-1,41,43,-1,45,-1,-1,-1,-1,-1,-1,-1,-1],"loss_changes":[3.1556015E0,3.983391E0,5.290555E0,4.274029E0,2.2003794E0,3.2369213E0,2.1775656E0,3.1412868E0,3.1253862E0,0E0,0E0,5.50209E0,4.427109E0,0E0,0E0,0E0,0E0,6.8000765E0,3.0376642E0,0E0,4.0556736E0,0E0,0E0,0E0,1.0236454E0,3.0761988E0,3.3457754E0,4.7764473E0,1.8629069E0,0E0,0E0,0E0,4.7124224E0,0E0,0E0,2.204513E0,3.378707E0,0E0,2.3928747E0,0E0,0E0,0E0,0E0,0E0,0E0,0E0,0E0],"parents":[2147483647,0,0,1,1,2,2,3,3,4,4,5,5,6,6,7,7,8,8,11,11,12,12,17,17,18,18,20,20,24,24,25,25,26,26,27,27,28,28,32,32,35,35,36,36,38,38],"right_children":[2,4,6,8,10,12,14,16,18,-1,-1,20,22,-1,-1,-1,-1,24,26,-1,28,-1,-1,-1,30,32,34,36,38,-1,-1,-1,40,-1,-1,42,44,-1,46,-1,-1,-1,-1,-1,-1,-1,-1],"split_conditions":[4.76E2,4.89E2,5.27E2,4.9E2,6.23E2,5.56E2,4.71E2,5.45E2,4.68E2,-1.0184448E-1,-1.3141105E-2,4.21E2,3.92E2,9.745583E-3,8.64378E-2,9.365665E-2,7.87373E-4,4.74E2,5.99E2,-6.877864E-2,4.74E2,-1.0253888E-1,1.4455216E-2,2.1243853E-2,4.64E2,4.66E2,5.45E2,4.74E2,5.08E2,-1.1244775E-1,-4.599073E-2,6.563954E-2,4.75E2,1.918473E-2,-8.091315E-2,4.22E2,4.91E2,-5.358604E-3,4.95E2,6.0816266E-2,-3.1788785E-2,-6.0497085E-3,-9.183739E-2,-9.959385E-3,4.8878785E-2,7.5618446E-2,1.6944268E-3],"split_indices":[18,4,1,9,15,13,0,15,1,0,0,1,9,0,0,0,0,0,13,0,13,0,0,0,15,12,9,4,18,0,0,0,0,0,0,13,1,0,1,0,0,0,0,0,0,0,0],"split_type":[0,0,0,0,0,0,0,0,0,0,0,0,0,0,0,0,0,0,0,0,0,0,0,0,0,0,0,0,0,0,0,0,0,0,0,0,0,0,0,0,0,0,0,0,0,0,0],"sum_hessian":[2.0521985E2,9.173587E1,1.13483986E2,8.032033E1,1.1415544E1,9.7003716E1,1.6480263E1,1.3721228E1,6.6599106E1,6.3651314E0,5.0504127E0,8.548596E1,1.1517758E1,5.839071E0,1.0641192E1,5.6924753E0,8.028752E0,2.2745535E1,4.3853565E1,7.372498E0,7.8113464E1,5.586889E0,5.9308696E0,8.915693E0,1.3829843E1,3.1582258E1,1.2271308E1,4.9437305E1,2.8676157E1,7.524005E0,6.3058376E0,7.9889164E0,2.3593342E1,5.1128497E0,7.158458E0,1.1511476E1,3.7925827E1,5.5883665E0,2.3087791E1,6.991318E0,1.6602024E1,5.482362E0,6.029114E0,2.1386011E1,1.6539816E1,1.7267294E1,5.8204975E0],"tree_param":{"num_deleted":"0","num_feature":"20","num_nodes":"47","size_leaf_vector":"1"}},{"base_weights":[-4.3446845E-3,6.327704E-2,-1.9562612E-1,2.9296275E-2,6.676176E-2,-2.844296E-1,2.7303562E-2,-4.4037823E-2,5.2894488E-2,-1.8049926E-1,-7.567574E-2,7.799622E-2,-4.9876243E-2,2.2112729E-2,-5.726911E-1,2.7074236E-1,1.0614363E-2,-2.935517E-1,2.3438664E-1,-7.761192E-2,-3.0308707E-2,-5.291077E-2,4.606795E-1,-4.3130517E-2,5.860256E-2,-4.6139907E-2,-7.6864026E-3,4.9400326E-2,-3.3515529E-3,7.507451E-2,2.2388687E-2,6.40875E-2,1.3194882E-3],"categories":[],"categories_nodes":[],"categories_segments":[],"categories_sizes":[],"default_left":[0,0,0,0,0,0,0,0,0,0,0,0,0,0,0,0,0,0,0,0,0,0,0,0,0,0,0,0,0,0,0,0,0],"id":25,"left_children":[1,3,5,7,-1,9,-1,-1,11,13,-1,15,-1,17,19,21,23,25,27,-1,-1,-1,29,-1,31,-1,-1,-1,-1,-1,-1,-1,-1],"loss_changes":[2.635609E0,3.0729594E0,2.2923596E0,1.6150995E0,0E0,2.0835533E0,0E0,0E0,1.9449006E0,3.0627003E0,0E0,1.7181902E0,0E0,1.8291745E0,4.838915E-1,5.4524097E0,2.1296544E0,3.6487043E-1,1.1477586E0,0E0,0E0,0E0,1.771635E0,0E0,2.381452E0,0E0,0E0,0E0,0E0,0E0,0E0,0E0,0E0],"parents":[2147483647,0,0,1,1,2,2,3,3,5,5,8,8,9,9,11,11,13,13,14,14,15,15,16,16,17,17,18,18,22,22,24,24],"right_children":[2,4,6,8,-1,10,-1,-1,12,14,-1,16,-1,18,20,22,24,26,28,-1,-1,-1,30,-1,32,-1,-1,-1,-1,-1,-1,-1,-1],"split_conditions":[5.46E2,5.43E2,6.58E2,4.01E2,6.676176E-2,5.35E2,2.7303562E-2,-4.4037823E-2,5.62E2,6.01E2,-7.567574E-2,4.18E2,-4.9876243E-2,4.09E2,5.28E2,4.24E2,4.29E2,4.59E2,4.45E2,-7.761192E-2,-3.0308707E-2,-5.291077E-2,4.75E2,-4.3130517E-2,4.17E2,-4.6139907E-2,-7.6864026E-3,4.9400326E-2,-3.3515529E-3,7.507451E-2,2.2388687E-2,6.40875E-2,1.3194882E-3],"split_indices":[9,1,9,11,0,8,0,0,8,2,0,2,0,18,11,12,2,8,18,0,0,0,15,0,11,0,0,0,0,0,0,0,0],"split_type":[0,0,0,0,0,0,0,0,0,0,0,0,0,0,0,0,0,0,0,0,0,0,0,0,0,0,0,0,0,0,0,0,0],"sum_hessian":[2.0180438E2,1.4959044E2,5.2213947E1,1.426197E2,6.970722E0,4.4226814E1,7.9871306E0,5.9780116E0,1.366417E2,3.7383213E1,6.843601E0,1.3151602E2,5.125683E0,2.5271307E1,1.2111907E1,3.3285275E1,9.823074E1,1.0007156E1,1.5264152E1,5.8323803E0,6.2795267E0,6.0446725E0,2.7240604E1,8.839622E0,8.939112E1,5.002707E0,5.004449E0,7.323338E0,7.9408135E0,1.1267589E1,1.5973015E1,5.5180593E0,8.387306E1],"tree_param":{"num_deleted":"0","num_feature":"20","num_nodes":"33","size_leaf_vector":"1"}},{"base_weights":[-4.5752944E-3,4.89595E-2,-2.1121486E-1,7.00223E-2,-5.06117E-2,-3.27714E-1,2.4839414E-2,5.613112E-2,3.4999747E-2,-4.5177993E-1,1.4241154E-2,-1.3139898E-1,1.4884304E-1,-1.168649E-1,-6.7407066E-1,1.7439614E-1,-5.128909E-1,-3.083192E-2,3.1057158E-1,1.8872034E-2,-4.38946E-2,-8.622319E-2,-3.379402E-2,-6.425195E-2,3.54432E-1,-7.825314E-1,-9.754365E-2,-3.0244792E-1,4.9496278E-1,6.034231E-1,-2.7071195E-2,8.194898E-2,1.42271565E-2,-1.0155578E-1,-4.1098807E-2,3.7030023E-2,-5.2590974E-2,5.9423786E-2,-7.231976E-2,8.7140866E-2,-1.9909045E-2,4.8645204E-3,7.971299E-2,3.315411E-2,-4.9789693E-2],"categories":[],"categories_nodes":[],"categories_segments":[],"categories_sizes":[],"default_left":[0,0,0,0,0,0,0,0,0,0,0,0,0,0,0,0,0,0,0,0,0,0,0,0,0,0,0,0,0,0,0,0,0,0,0,0,0,0,0,0,0,0,0,0,0],"id":26,"left_children":[1,3,5,7,-1,9,-1,-1,11,13,-1,15,17,19,21,23,25,27,29,-1,-1,-1,-1,-1,31,33,35,37,39,41,43,-1,-1,-1,-1,-1,-1,-1,-1,-1,-1,-1,-1,-1,-1],"loss_changes":[2.241769E0,1.9179891E0,2.3138475E0,2.6647086E0,0E0,2.0295703E0,0E0,0E0,2.7984748E0,1.923749E0,0E0,7.103382E0,2.5542996E0,1.258053E0,7.178893E-1,5.2457633E0,2.948039E0,6.2041845E0,4.5823903E0,0E0,0E0,0E0,0E0,0E0,2.7054915E0,9.879799E-1,2.5540698E0,1.1210323E1,4.045478E0,2.6233568E0,3.9481628E0,0E0,0E0,0E0,0E0,0E0,0E0,0E0,0E0,0E0,0E0,0E0,0E0,0E0,0E0],"parents":[2147483647,0,0,1,1,2,2,3,3,5,5,8,8,9,9,11,11,12,12,13,13,14,14,15,15,16,16,17,17,18,18,24,24,25,25,26,26,27,27,28,28,29,29,30,30],"right_children":[2,4,6,8,-1,10,-1,-1,12,14,-1,16,18,20,22,24,26,28,30,-1,-1,-1,-1,-1,32,34,36,38,40,42,44,-1,-1,-1,-1,-1,-1,-1,-1,-1,-1,-1,-1,-1,-1],"split_conditions":[5.59E2,5.67E2,6.58E2,4.15E2,-5.06117E-2,5.77E2,2.4839414E-2,5.613112E-2,4.7E2,4.71E2,1.4241154E-2,4.82E2,4.81E2,4.86E2,5.28E2,4.68E2,4.81E2,5.03E2,4.76E2,1.8872034E-2,-4.38946E-2,-8.622319E-2,-3.379402E-2,-6.425195E-2,4.23E2,4.87E2,4.9E2,5.02E2,4.69E2,4.25E2,5.91E2,8.194898E-2,1.42271565E-2,-1.0155578E-1,-4.1098807E-2,3.7030023E-2,-5.2590974E-2,5.9423786E-2,-7.231976E-2,8.7140866E-2,-1.9909045E-2,4.8645204E-3,7.971299E-2,3.315411E-2,-4.9789693E-2],"split_indices":[9,8,9,17,0,12,0,0,11,12,0,12,12,11,11,17,4,8,0,0,0,0,0,0,11,17,0,11,15,8,19,0,0,0,0,0,0,0,0,0,0,0,0,0,0],"split_type":[0,0,0,0,0,0,0,0,0,0,0,0,0,0,0,0,0,0,0,0,0,0,0,0,0,0,0,0,0,0,0,0,0,0,0,0,0,0,0,0,0,0,0,0,0],"sum_hessian":[2.0071274E2,1.6001912E2,4.0693615E1,1.5501096E2,5.0081587E0,3.2693596E1,8.00002E0,9.3150015E0,1.4569595E2,2.5898117E1,6.7954783E0,5.9123726E1,8.6572235E1,1.0940423E1,1.4957694E1,3.3119087E1,2.600464E1,4.139412E1,4.5178112E1,5.8264465E0,5.1139765E0,8.586126E0,6.3715677E0,5.5169573E0,2.7602129E1,1.5232055E1,1.0772586E1,2.7574444E1,1.3819676E1,2.3772274E1,2.140584E1,7.750456E0,1.9851673E1,8.295741E0,6.936313E0,5.2138186E0,5.5587673E0,8.67477E0,1.8899673E1,8.794249E0,5.025428E0,6.476021E0,1.7296253E1,1.2318828E1,9.087012E0],"tree_param":{"num_deleted":"0","num_feature":"20","num_nodes":"45","size_leaf_vector":"1"}},{"base_weights":[-4.7596274E-3,5.9691172E-2,-2.3625435E-2,9.341575E-2,-1.260391E-1,-1.3255832E-1,2.8662664E-1,1.0817283E-1,-3.1977874E-1,1.263363E-1,-4.990462E-1,8.815232E-3,8.819696E-1,3.9484212E-1,-1.9923182E-1,-2.6354343E-2,-4.8703358E-1,4.501854E-1,-8.904125E-2,-8.185811E-1,7.838187E-3,6.7528605E-1,-2.9809135E-1,6.0254585E-2,1.1223414E-1,-3.600034E-2,6.3696295E-1,5.341332E-2,-8.8333026E-2,-6.61564E-2,2.1965471E-1,-8.0060804E-1,-2.865537E-1,3.5329584E-2,9.016642E-2,-5.0916713E-2,-9.882727E-2,8.817011E-2,3.5278585E-2,-6.45436E-1,4.323394E-3,-2.1467465E-3,9.3712026E-1,-2.4427481E-1,6.9499165E-2,6.5036274E-2,-4.540495E-2,-4.13741E-2,-1.0562986E-1,-8.625756E-2,-7.8555726E-2,6.473758E-2,-6.044939E-2,-8.424156E-2,-3.545595E-2,-6.377469E-2,4.6003282E-2,1.1917645E-1,4.3299425E-2,3.8804494E-2,-8.073475E-2,2.4593145E-2,-4.639468E-2],"categories":[],"categories_nodes":[],"categories_segments":[],"categories_sizes":[],"default_left":[0,0,0,0,0,0,0,0,0,0,0,0,0,0,0,0,0,0,0,0,0,0,0,0,0,0,0,0,0,0,0,0,0,0,0,0,0,0,0,0,0,0,0,0,0,0,0,0,0,0,0,0,0,0,0,0,0,0,0,0,0,0,0],"id":27,"left_children":[1,-1,3,5,7,9,11,13,15,17,19,21,23,25,27,29,31,33,-1,35,-1,37,39,-1,-1,-1,41,43,-1,-1,45,47,49,51,-1,-1,-1,-1,-1,53,55,-1,57,59,-1,-1,-1,-1,-1,61,-1,-1,-1,-1,-1,-1,-1,-1,-1,-1,-1,-1,-1],"loss_changes":[2.265838E0,0E0,2.3288348E0,4.001687E0,4.731923E0,4.0981784E0,8.13884E0,4.2744107E0,2.7800064E0,8.869865E0,3.3498278E0,7.277377E0,3.756647E-1,4.7933493E0,4.1329427E0,3.5391629E0,2.0456514E0,3.7461896E0,0E0,1.03301525E-1,0E0,4.3544388E-1,2.56377E0,0E0,0E0,0E0,3.8282485E0,3.647123E0,0E0,0E0,5.0557923E0,9.0394115E-1,2.2943373E0,4.9154115E0,0E0,0E0,0E0,0E0,0E0,3.518591E-1,4.3975124E0,0E0,1.1858883E0,5.004654E0,0E0,0E0,0E0,0E0,0E0,2.370874E0,0E0,0E0,0E0,0E0,0E0,0E0,0E0,0E0,0E0,0E0,0E0,0E0,0E0],"parents":[2147483647,0,0,2,2,3,3,4,4,5,5,6,6,7,7,8,8,9,9,10,10,11,11,12,12,13,13,14,14,15,15,16,16,17,17,19,19,21,21,22,22,26,26,27,27,30,30,31,31,32,32,33,33,39,39,40,40,42,42,43,43,49,49],"right_children":[2,-1,4,6,8,10,12,14,16,18,20,22,24,26,28,30,32,34,-1,36,-1,38,40,-1,-1,-1,42,44,-1,-1,46,48,50,52,-1,-1,-1,-1,-1,54,56,-1,58,60,-1,-1,-1,-1,-1,62,-1,-1,-1,-1,-1,-1,-1,-1,-1,-1,-1,-1,-1],"split_conditions":[3.28E2,5.9691172E-2,4.71E2,4.78E2,4.74E2,4.79E2,4.97E2,5.91E2,5.2E2,4.99E2,4.18E2,4.68E2,4.31E2,5.22E2,5.38E2,4.79E2,4.73E2,5.76E2,-8.904125E-2,5.61E2,7.838187E-3,5.58E2,4.65E2,6.0254585E-2,1.1223414E-1,-3.600034E-2,4.71E2,6.19E2,-8.8333026E-2,-6.61564E-2,4.95E2,4.51E2,4.87E2,5.24E2,9.016642E-2,-5.0916713E-2,-9.882727E-2,8.817011E-2,3.5278585E-2,4.55E2,4.36E2,-2.1467465E-3,5.19E2,4.89E2,6.9499165E-2,6.5036274E-2,-4.540495E-2,-4.13741E-2,-1.0562986E-1,4.62E2,-7.8555726E-2,6.473758E-2,-6.044939E-2,-8.424156E-2,-3.545595E-2,-6.377469E-2,4.6003282E-2,1.1917645E-1,4.3299425E-2,3.8804494E-2,-8.073475E-2,2.4593145E-2,-4.639468E-2],"split_indices":[10,0,15,14,14,1,1,13,5,12,15,10,13,15,12,14,1,10,0,10,0,18,13,0,0,0,1,15,0,0,0,13,14,13,0,0,0,0,0,1,18,0,18,1,0,0,0,0,0,17,0,0,0,0,0,0,0,0,0,0,0,0,0],"split_type":[0,0,0,0,0,0,0,0,0,0,0,0,0,0,0,0,0,0,0,0,0,0,0,0,0,0,0,0,0,0,0,0,0,0,0,0,0,0,0,0,0,0,0,0,0,0,0,0,0,0,0,0,0,0,0,0,0,0,0,0,0,0,0],"sum_hessian":[1.9737305E2,5.0690856E0,1.9230396E2,8.978408E1,1.0251988E2,4.1528004E1,4.8256077E1,4.661212E1,5.5907757E1,2.472033E1,1.6807674E1,3.359437E1,1.4661703E1,2.3972345E1,2.2639778E1,2.0718214E1,3.518954E1,1.9171244E1,5.549086E0,1.0551238E1,6.256437E0,1.0213875E1,2.3380499E1,8.401723E0,6.25998E0,5.703624E0,1.8268723E1,1.7206974E1,5.4328046E0,5.3123174E0,1.5405897E1,1.2556391E1,2.2633152E1,1.0552756E1,8.618487E0,5.15401E0,5.397228E0,5.1705365E0,5.043338E0,1.0353965E1,1.3026533E1,6.011115E0,1.22576065E1,1.2176443E1,5.0305305E0,9.41891E0,5.986987E0,6.0383425E0,6.5180483E0,1.69874E1,5.6457515E0,5.3874216E0,5.165335E0,5.0428514E0,5.311114E0,5.2417407E0,7.7847924E0,7.2376857E0,5.019921E0,5.88196E0,6.294483E0,9.223717E0,7.7636833E0],"tree_param":{"num_deleted":"0","num_feature":"20","num_nodes":"63","size_leaf_vector":"1"}},{"base_weights":[-5.110687E-3,-3.626516E-2,4.8355234E-1,-1.3247558E-2,-5.7084437E-2,7.7828035E-2,7.818622E-3,1.24612756E-1,-1.3412057E-1,6.922231E-1,-6.772736E-3,8.463365E-2,-3.293286E-1,8.8570796E-2,2.503419E-2,-1.6507511E-1,2.724647E-1,-4.2248834E-2,2.274415E-1,-1.9693282E-1,-6.488086E-1,3.918536E-2,-2.8445834E-1,-6.036545E-2,6.644432E-1,7.8729026E-2,1.0507567E-2,4.197787E-2,-3.0781496E-1,-1.0995487E-2,-1.0268318E-1,2.0314641E-3,-4.7923576E-2,1.4645146E-2,1.15122095E-1,-7.412124E-2,2.2448925E-2,-1.8279937E-3,-4.968206E-2],"categories":[],"categories_nodes":[],"categories_segments":[],"categories_sizes":[],"default_left":[0,0,0,0,0,0,0,0,0,0,0,0,0,0,0,0,0,0,0,0,0,0,0,0,0,0,0,0,0,0,0,0,0,0,0,0,0,0,0],"id":28,"left_children":[1,3,5,7,-1,-1,-1,9,11,13,15,17,19,-1,-1,21,23,-1,25,27,29,-1,31,-1,33,-1,35,-1,37,-1,-1,-1,-1,-1,-1,-1,-1,-1,-1],"loss_changes":[2.9632628E0,2.2420552E0,1.3329666E0,2.95454E0,0E0,0E0,0E0,6.185663E0,4.059863E0,1.1110387E0,3.063815E0,3.3782394E0,1.9913449E0,0E0,0E0,3.050732E0,9.016093E0,0E0,4.3654256E0,2.6495712E0,2.7883897E0,0E0,2.2051737E0,0E0,4.3215566E0,0E0,4.504405E0,0E0,1.7320628E0,0E0,0E0,0E0,0E0,0E0,0E0,0E0,0E0,0E0,0E0],"parents":[2147483647,0,0,1,1,2,2,3,3,7,7,8,8,9,9,10,10,11,11,12,12,15,15,16,16,18,18,19,19,20,20,22,22,24,24,26,26,28,28],"right_children":[2,4,6,8,-1,-1,-1,10,12,14,16,18,20,-1,-1,22,24,-1,26,28,30,-1,32,-1,34,-1,36,-1,38,-1,-1,-1,-1,-1,-1,-1,-1,-1,-1],"split_conditions":[6.99E2,5.9E2,5.98E2,4.71E2,-5.7084437E-2,7.7828035E-2,7.818622E-3,4.62E2,4.74E2,4.36E2,4.52E2,5.45E2,6.34E2,8.8570796E-2,2.503419E-2,2.83E2,4.8E2,-4.2248834E-2,5.8E2,4.52E2,4.84E2,3.918536E-2,4.98E2,-6.036545E-2,5.09E2,7.8729026E-2,4.67E2,4.197787E-2,5.17E2,-1.0995487E-2,-1.0268318E-1,2.0314641E-3,-4.7923576E-2,1.4645146E-2,1.15122095E-1,-7.412124E-2,2.2448925E-2,