tree
version=v4
num_class=1
num_tree_per_iteration=1
label_index=0
max_feature_idx=94
objective=binary sigmoid:1
feature_names=Column_0 Column_1 Column_2 Column_3 Column_4 Column_5 Column_6 Column_7 Column_8 Column_9 Column_10 Column_11 Column_12 Column_13 Column_14 Column_15 Column_16 Column_17 Column_18 Column_19 Column_20 Column_21 Column_22 Column_23 Column_24 Column_25 Column_26 Column_27 Column_28 Column_29 Column_30 Column_31 Column_32 Column_33 Column_34 Column_35 Column_36 Column_37 Column_38 Column_39 Column_40 Column_41 Column_42 Column_43 Column_44 Column_45 Column_46 Column_47 Column_48 Column_49 Column_50 Column_51 Column_52 Column_53 Column_54 Column_55 Column_56 Column_57 Column_58 Column_59 Column_60 Column_61 Column_62 Column_63 Column_64 Column_65 Column_66 Column_67 Column_68 Column_69 Column_70 Column_71 Column_72 Column_73 Column_74 Column_75 Column_76 Column_77 Column_78 Column_79 Column_80 Column_81 Column_82 Column_83 Column_84 Column_85 Column_86 Column_87 Column_88 Column_89 Column_90 Column_91 Column_92 Column_93 Column_94
feature_infos=[438:516] [367:607] [256:768] [0:896] [435:510] [182:814] [333:653] [317:635] [346:607] [193:828] [216:829] [347:642] [263:697] [207:763] [450:503] [84:785] [265:686] [352:611] [276:677] [142:920] [0.037272845482987545:0.96766747736085645] [0.0044666200003674258:0.99787880111499716] [0:1] [0:1] [0:1] [0:1] [0:1] [0:1] [0:1] [0:1] [0.0035183431936774497:0.99927152305782485] [0.0010537458846836959:0.99953182301714061] [0.0027346193397830114:0.99924284082774473] [0.00064629110965295404:0.99962422321897948] [0.0052507666320513206:0.99688156133314298] [0:1] [0.0075081843676843363:0.99620532174494258] [0.0039794414873805016:0.99810177464091465] [0.014379508170872498:0.98912631305491061] [0.040842301819286088:0.97481719971729752] [0:1] [0.0010472890541547493:0.99967310971025936] [4.3259336796308814e-08:0.9999998357798795] [5.589991074188034e-06:0.99999126834184104] [1.2468564927256678e-06:0.99999496696152523] [0.00087983474795224747:0.9989068722441159] [5.1339252598136488e-07:0.9999973278808163] [2.0196197674703874e-05:0.99993678396153796] [0.00071790984018298425:0.99936361248370897] [2.1048213150605147e-06:0.99999825678240561] [1.9391933392006245e-05:0.99999828112579969] [0.0001011096901493147:0.99980884790420532] [0.00080827460624277592:0.99949741363525391] [5.7012174320804543e-18:0.99999999999996159] [3.9359829937481265e-27:1] [0.0020392274018377066:0.9979020357131958] [2.4696424864579662e-09:0.9999999989164261] [1.3814889179523418e-12:1] [0.0046482039615511894:0.99649733304977417] [6.0524124603321399e-11:1] [0.00029035125044174492:0.99958306550979614] [3.5098515122704958e-20:1] [0.043028905561432594:0.99999999994842792] [0.009519270621240139:0.99195462465286255] [4.7506450347173669e-10:0.99999999819032981] [3.5411367094322405e-13:1] [0.001087893033400178:0.99934655427932739] [0.005268558394163847:0.98955976963043213] [0.033568662847345616:0.98430728257373179] [8.3861588999935378e-11:0.99999999995580868] [0.0058258059434592724:0.99632120132446289] [0.02068827531012405:0.97212998751660573] [0.068002792971203804:0.96800734936334942] [0.0024096385542168677:0.99897119341563789] [0.0021036411635577679:0.99766832590103149] [0.006329692766707965:1] [0.0032938076416337285:0.99920842349138472] [0.0038140454001189014:0.99940191387559807] [0.032093951309124999:0.97207870429805088] [0.048180871996975183:0.96486569191385296] [0.0092002688172043018:0.9935334636220271] [0.016898548948590924:0.99565127748860616] [0.064149231800819356:0.95197851365475783] [0.013601286828334657:1] [0:1] [0.0093853918738711368:0.99521060159426433] [0.065182105230655707:0.96557779219768303] [0.087266349045332481:0.98666666666666669] [0.044305260187613126:0.96005550299512477] [0.058361572203976218:0.97439663288968925] [0.080158215135502614:0.93242444790033308] [0:1] [0.19366197183098591:0.94117647058823528] [0.19366197183098591:0.76262626262626265] [0.11289310481353662:0.89825319488256195]
tree_sizes=4160 6365 6697 6687 6672 6693 6654 6673 6708 6677 6705 6705 6743 6738 6748 6741 6739 6774 6782 6785 6818 6819 6814 6801 6812 6840 6853 6825 6861 6859 6878 6883 6892 6913 6914 6953 6940 6951 6953 6995 6996 6969 7000 6999 7036 7019 7038 7039 7046 7072

Tree=0
num_leaves=39
num_cat=0
split_feature=20 27 23 53 68 60 33 33 27 52 73 39 36 33 51 52 54 2 38 64 48 76 33 6 3 48 3 59 6 34 42 2 44 15 65 0 1 27
split_gain=835.297 36.2658 29.226 10.6472 10.4099 10.3531 9.68642 9.62688 9.3079 16.2504 8.64186 7.20542 7.7568 6.96725 7.40212 6.00548 5.49631 5.39669 4.50598 2.80652 2.62985 5.45467 2.89075 1.51195 1.48034 3.93592 1.32859 1.21907 1.12944 0.984637 0.530929 0.960021 0.388645 0.3707 0.297598 5.68434e-14 1.42109e-14 1.42109e-14
threshold=0.48360023162082116 0.59451882725921101 0.32581710978115735 0.31241284482631471 0.33012477313386518 0.76202943921089183 0.45827593765883562 0.90918206103618004 0.42530511518056874 0.80390042066574108 0.52919204795458341 0.50059545421923057 0.24191590872782301 0.9296832544121435 0.92397671937942516 0.94249561429023754 0.068245027116087834 513.50000000000011 0.50425542993177308 0.66035940293002859 0.50730039605965405 0.51810693690109899 0.90918206103618004 422.50000000000006 673.50000000000011 0.072618438718296902 335.00000000000006 0.049024561882484614 539.50000000000011 0.52707167691596502 0.27277487884067025 520.50000000000011 0.99997312173104358 269.50000000000006 2.7721964936699806e-09 494.50000000000006 546.50000000000011 0.83997214113917007
decision_type=2 2 2 2 2 2 2 2 2 2 2 2 2 2 2 2 2 2 2 2 2 2 2 2 2 2 2 2 2 2 2 2 2 2 2 2 2 2
left_child=2 5 3 18 -5 8 11 -7 29 -10 27 12 17 14 16 -16 -3 -4 19 24 21 -18 26 -15 30 -26 -22 -6 -14 -2 33 -32 35 -1 -35 -25 -37 -28
right_child=1 13 6 4 10 7 -8 -9 9 -11 -12 -13 28 23 15 -17 20 -19 -20 -21 22 -23 -24 32 25 -27 37 -29 -30 -31 31 -33 -34 34 -36 36 -38 -39
leaf_value=-0.31250702753533799 0.24750530612902669 0.074168155232914007 -0.24705104048365831 0.14083629019295729 -0.23250526558328594 -0.33917428151935536 0.1941707981609922 0.16750354417697474 -0.24250548582729234 0.4075088300331311 0.043864457523803344 0.087501782224922706 -0.39250878948739021 0.24750530612902696 -0.084809705056420381 0.32750706808107899 0.40750883003313126 0.1408362901929574 -0.12583624964721635 -0.17432216598179343 0.26205108102939978 0.007500020272870553 0.21926939014594973 0.40750883003313126 -0.39250878948739021 -0.10159329147992777 0.40750883003313126 -0.3925087894873901 -0.2325052655832858 0.40750883003313115 -0.3925087894873901 -0.2325052655832858 0.32750706808107916 -0.33096897260119618 -0.3925087894873901 0.40750883003313115 0.40750883003313126 0.40750883003313115
leaf_weight=2.4999450147151938 2.4999450147151965 2.9999340176582328 2.7499395161867204 2.9999340176582363 2.4999450147151929 3.7499175220727912 3.7499175220727912 2.4999450147151947 3.9999120235443115 2.4999450147151947 2.7499395161867133 3.7499175220727912 5.9998680353164655 2.4999450147151938 3.2499285191297522 2.4999450147151947 2.9999340176582328 2.9999340176582336 2.9999340176582328 2.7499395161867133 2.7499395161867168 2.4999450147151947 4.2499065250158301 65.99854838848114 5.749873533844946 2.7499395161867142 16.499637097120285 7.999824047088623 2.4999450147151947 3.9999120235443115 3.7499175220727912 2.4999450147151947 2.4999450147151938 3.2499285191297522 95.747894063591957 16.499637097120289 2.9999340176582328 12.499725073575975
leaf_count=10 10 12 11 12 10 15 15 10 16 10 11 15 24 10 13 10 12 12 12 11 11 10 17 264 23 11 66 32 10 16 15 10 10 13 383 66 12 50
internal_value=0.00937507 0.332507 -0.313757 -0.347662 -0.195581 0.075034 -0.0982494 -0.136503 0.176735 0.00750002 -0.271751 -0.15917 -0.224084 0.367721 0.308004 0.0944585 0.335597 -0.044675 -0.367918 -0.374021 0.354496 0.225687 0.374175 0.400879 -0.378745 -0.298389 0.39491 -0.354413 -0.345449 0.345969 -0.385084 -0.328507 0.405236 -0.388568 -0.390489 0.407509 0.407509 0.407509
internal_weight=0 159.996 159.996 138.247 16.2496 19.2496 21.7495 6.24986 12.9997 6.49986 13.2497 17.9996 14.2497 140.747 50.2489 5.74987 44.499 5.74987 121.997 118.997 41.4991 5.49988 35.9992 90.498 116.247 8.49981 31.7493 10.4998 8.49981 6.49986 107.748 6.24986 87.9981 101.498 98.9978 85.4981 19.4996 28.9994
internal_count=1280 640 640 553 65 77 87 25 52 26 53 72 57 563 201 23 178 23 488 476 166 22 144 362 465 34 127 42 34 26 431 25 352 406 396 342 78 116
is_linear=0
shrinkage=1


Tree=1
num_leaves=60
num_cat=0
split_feature=20 27 23 77 90 33 39 64 23 36 54 84 65 71 39 57 57 88 11 64 61 11 93 71 15 60 33 61 70 40 64 15 1 64 56 56 13 62 53 65 56 47 33 51 3 33 18 6 45 86 65 42 15 3 4 73 0 0 1
split_gain=556.032 24.5716 20.0075 7.83025 7.77511 11.386 8.25117 7.47357 7.35809 6.24231 5.36416 5.15146 5.81533 4.61503 6.49258 4.20667 4.10257 3.83175 2.92304 5.28552 2.28536 4.50678 2.04638 1.73848 1.35715 1.28804 1.27195 1.18515 1.22361 0.777925 2.38813 0.527787 1.00357 0.36463 0.378805 0.279384 0.27283 0.225104 0.0715443 0.037096 0.0357212 0.029452 0.0247677 0.0417417 0.0236984 0.0201639 0.0150952 0.0140919 0.0130988 0.01139 0.00393748 0.00384324 0.00353525 0.00353111 0.00189519 0.00110761 2.84217e-14 2.84217e-14 3.55271e-15
threshold=0.48360023162082116 0.59451882725921101 0.32581710978115735 0.56401180201220569 0.54318253227517665 0.44644219898886828 0.50059545421923057 0.27859658932756043 0.62856293156167953 0.24191590872782301 0.89635349959373278 0.644528605107904 0.68150831874359119 0.58250439215603167 0.63906085255013534 0.91339088155736525 0.055463206084479667 0.31668609552481958 527.50000000000011 0.71126668305160412 0.26440322739767147 543.50000000000011 0.51726598173516003 0.45500531426851404 701.50000000000011 0.16252597421407702 0.62485258247157693 0.40735680475529806 0.53253090381622326 0.29987116679955256 0.0041236933278687446 615.50000000000011 526.50000000000011 1.4394328777680095e-06 6.1585403092967245e-07 0.10338041718493444 510.50000000000006 0.76892610424367547 0.37257960729792822 0.032841448845992806 0.80118072638626447 0.57291411701095596 0.9296832544121435 0.93236795067787182 684.50000000000011 0.90683695520305641 379.50000000000006 483.50000000000006 0.48596907450982113 0.45356777780082214 2.7721964936699806e-09 0.99999909104138773 286.50000000000006 470.50000000000006 470.50000000000006 0.49039005866846885 495.50000000000006 478.50000000000006 501.50000000000006
decision_type=2 2 2 2 2 2 2 2 2 2 2 2 2 2 2 2 2 2 2 2 2 2 2 2 2 2 2 2 2 2 2 2 2 2 2 2 2 2 2 2 2 2 2 2 2 2 2 2 2 2 2 2 2 2 2 2 2 2 2
left_child=2 3 7 8 5 6 9 20 22 16 13 12 17 26 -15 -5 -4 -9 19 -16 24 35 40 -12 29 -19 -3 -25 -29 33 -31 37 -33 -1 -35 -22 -11 -30 44 -27 -2 -28 43 45 48 54 -44 -43 50 -41 -36 56 -52 -32 -39 57 -48 -54 -56
right_child=1 10 4 15 -6 -7 -8 11 -10 36 23 -13 -14 14 18 -17 -18 25 -20 -21 21 -23 -24 27 -26 39 41 28 31 30 53 32 -34 34 38 -37 -38 42 -40 49 -42 47 46 -45 -46 -47 51 -49 -50 -51 52 -53 55 -55 58 -57 -58 -59 -60
leaf_value=-0.25696133357132017 0.33777537137025249 0.21862539795044975 0.17224632631746886 -0.22965094598333335 -0.3409414653052632 0.30928055358079037 0.22293699373006248 -0.055153642988550633 -0.1070991101395086 -0.33929313144520901 0.18221095998640613 0.070692929362575818 0.044487841725455446 -0.13785109553571859 0.34847038018423687 0.047339015984631194 -0.18342106068790454 -0.18741309886372043 0.3352569595388552 -0.0087548684524255578 -0.25696133357132028 -0.0039703592968692676 0.13009381589862451 0.18496325013102843 -0.17693051508632038 -0.3709507155603804 0.36709841744256871 0.18591795458434032 0.2860833666376178 -0.10288530134099377 -0.33507207969448194 0.17243236229409681 0.33900411452165519 -0.26123220079325327 -0.34364547902950077 -0.34263884884781787 -0.25455564628992366 0.33941708609048399 -0.36630686771953924 -0.35040474455341364 0.37210601381051933 0.352215163282451 0.34934797648137472 0.3665976739996446 -0.35447190871995266 0.35456062864517834 0.33306112247134689 0.33306112247134678 -0.35059851707217859 -0.33507207969448194 -0.34297997260117652 0.34048518521670124 -0.33507207969448205 -0.34508511245316686 0.33306112247134689 -0.3390596053493703 0.33306112247134689 -0.33507207969448205 0.33306112247134673
leaf_weight=2.4148731529712668 2.4116335511207598 4.6098812222480801 2.4749412387609535 4.1525282412767393 3.9569037705659857 3.2185514718294135 2.4952207505702964 2.678289055824286 2.6904362738132477 4.1085368245840073 3.6295339018106452 2.720026656985282 2.7278387546539298 2.7239454686641684 2.6654399037361127 4.6480036079883575 2.7262462228536606 2.4235482960939398 4.3288600444793701 4.378087192773819 2.4148731529712659 2.7042371928691864 2.4275945425033569 2.4299258142709723 2.4209116846323004 2.4665171653032285 2.4487053453922254 2.4250692874193183 3.8585164844989768 2.4260626435279828 3.3685821890830994 2.4124424606561652 3.6144750118255615 2.6520707309246054 2.4327680468559256 4.1193045824766159 2.4121686667203903 2.4165819287300101 3.4204187393188468 3.9024227261543274 2.4378418624401093 2.6811553090810776 2.4431755095720282 2.4525526612997046 2.9310712516307822 2.4546929299831381 54.217778950929642 3.5985251516103745 2.441045567393302 3.8498082160949707 2.4297984838485709 2.906920611858367 37.054404079914093 2.4214354306459427 5.2778368890285474 2.8994332253932944 14.634002283215521 34.407660931348801 3.1187217980623245
leaf_count=10 10 19 10 17 16 13 10 11 11 17 15 11 11 11 11 19 11 10 18 18 10 11 10 10 10 10 10 10 16 10 14 10 15 11 10 17 10 10 14 16 10 11 10 10 12 10 226 15 10 16 10 12 154 10 22 12 61 143 13
internal_value=0 0.268617 -0.267427 0.0541238 -0.0878408 -0.0304014 -0.107301 -0.296155 0.17551 -0.177598 0.298276 -0.185889 -0.224558 0.219282 0.139489 -0.0833586 -0.0141797 -0.272461 0.205918 0.126428 -0.316428 -0.221109 0.279995 0.318289 -0.324919 -0.318498 0.30361 0.323008 0.326289 -0.328455 -0.269462 0.329699 0.272329 -0.333662 -0.335705 -0.310975 -0.307947 0.333386 -0.337949 -0.349588 0.355033 0.348494 0.335416 0.342627 -0.336803 0.338196 0.333888 0.341239 -0.336168 -0.34279 -0.335724 0.333362 -0.335473 -0.33926 0.334482 -0.335228 0.333061 -0.335072 0.333061
internal_weight=0 154.495 155.12 18.768 21.3926 17.4357 14.2171 133.727 9.96751 11.7219 135.727 20.7685 18.0484 27.4346 14.0963 8.80053 5.20119 15.3206 11.3724 7.04353 112.959 9.23841 7.27707 108.292 103.721 12.6423 13.3383 104.663 102.233 101.3 8.21608 99.8077 6.02692 93.0835 90.6687 6.53418 6.52071 93.7808 88.0166 10.2187 4.84948 8.72839 89.9223 15.7204 84.5962 13.2678 74.2019 6.27968 81.6651 7.75223 79.2241 71.7587 76.7913 5.79002 10.8131 74.3615 68.8518 71.4621 8.39656
internal_count=1280 640 640 77 87 71 58 553 41 48 563 85 74 113 58 36 21 63 47 29 468 38 30 450 430 52 55 435 425 420 34 415 25 386 376 27 27 390 365 42 20 36 374 65 351 55 309 26 339 32 329 299 319 24 45 309 287 297 35
is_linear=0
shrinkage=0.2


Tree=2
num_leaves=63
num_cat=0
split_feature=20 27 23 53 44 9 68 90 54 76 73 33 51 50 89 52 52 33 50 31 38 2 73 15 55 13 6 16 92 51 13 38 66 65 17 44 87 64 32 61 54 52 3 72 17 43 65 13 62 64 33 19 69 15 61 64 90 39 61 2 65 56
split_gain=389.652 18.4613 15.1704 7.19524 6.51009 6.82345 6.38298 5.5327 6.79402 5.23356 4.97346 4.80166 5.35163 4.44065 4.20514 5.02652 3.7474 3.55079 3.46085 3.418 6.4876 2.05125 3.28267 1.28504 3.27439 1.34595 1.18001 1.0831 1.02555 0.992365 0.985895 0.947565 0.861108 0.384896 0.394049 0.333881 0.106903 0.101753 0.0348916 0.0269896 0.022543 0.0201817 0.0110018 0.00907645 0.00899944 0.00736147 0.00700642 0.00628589 0.003082 0.00303958 0.002469 0.00181417 0.00151004 0.0012129 0.00113 0.000790334 0.000745133 0.000306327 0.000226042 0.000144526 0.000121488 0.000105368
threshold=0.48360023162082116 0.59451882725921101 0.32750036324821979 0.31241284482631471 0.77567240839027629 505.50000000000006 0.33012477313386518 0.54318253227517665 0.17182047925873004 0.36166449431318043 0.52919204795458341 0.9296832544121435 0.92397671937942516 0.49338951483327409 0.36331890669854916 0.21997095644474032 0.94249561429023754 0.5080241587319746 0.82323104312888618 0.50895930791180433 0.55610145409400846 424.50000000000006 0.58165413682013434 672.50000000000011 0.10500004887580873 668.50000000000011 422.50000000000006 599.50000000000011 0.74949389112029563 0.12683580815792087 496.50000000000006 0.47940168828962287 0.52917101979255687 4.5956225891416539e-10 414.50000000000006 0.99997312173104358 0.46727880667796856 0.3567521813273869 0.59496729104111967 0.34230295004264838 0.88431793526991698 0.94249561429023754 676.50000000000011 0.48311822454372971 458.50000000000006 0.44247838986619037 0.14155854269301746 612.50000000000011 0.76892610424367547 3.3073169597639054e-06 0.89797500631274907 285.50000000000006 0.91813007104446187 616.50000000000011 0.99898813087578053 0.21551652411297134 0.15052145946443021 0.37645619998118313 0.17041760348177321 627.50000000000011 2.8451318655962057e-08 2.051490542191039e-05
decision_type=2 2 2 2 2 2 2 2 2 2 2 2 2 2 2 2 2 2 2 2 2 2 2 2 2 2 2 2 2 2 2 2 2 2 2 2 2 2 2 2 2 2 2 2 2 2 2 2 2 2 2 2 2 2 2 2 2 2 2 2 2 2
left_child=2 4 3 17 13 -6 -5 8 14 -10 29 12 19 -2 30 -16 -14 23 36 20 -3 22 -21 25 -25 31 -13 38 -24 -8 -4 32 33 -1 -35 40 -15 39 -23 42 41 -28 45 -40 -44 49 -31 50 -42 -36 52 -51 -45 59 -54 56 -53 60 -48 -50 -58 -62
right_child=1 11 7 6 5 -7 10 -9 9 -11 -12 26 16 18 15 -17 -18 -19 -20 21 -22 27 28 24 -26 -27 35 -29 -30 46 -32 -33 -34 34 37 -37 -38 -39 43 -41 48 -43 44 47 -46 -47 58 -49 53 51 -52 55 54 -55 -56 -57 57 -59 -60 -61 61 -63
leaf_value=-0.21494544320096348 -0.02503452479833565 0.30951584873114851 -0.34041282322050925 0.1342910793231766 0.047131421311520559 -0.3569917336286757 -0.15364570872675984 -0.28451515478044115 -0.011404710243096954 0.35931211582217071 0.045190204528174661 0.15002705545103165 -0.1149189360906005 0.30646171406768974 0.21423505754736005 -0.19872418549171716 0.22070075015475241 -0.044394957446884861 0.040403132331416569 -0.026660205696205103 -0.070957453015270844 0.32399875103617326 0.30840726528388629 -0.30739354439647576 -0.019412338082753108 -0.13377899053480566 0.29482105967199662 0.17300451561960292 0.14188404309738539 -0.30995871747782261 -0.15909990522090298 -0.16488043053953325 -0.1907433323832739 -0.21590131570109225 -0.30406492906234273 0.21875385314227996 0.36717849312880912 -0.33023188086878824 0.31324000272476027 -0.31460262094432362 0.30246343118367425 0.32007525113251045 -0.29884614805474879 0.294958737152405 -0.31669873075200472 -0.30903268708093667 -0.29505172596091644 0.30991677346697211 0.29533990532081483 -0.30282532168177739 0.30380876983044491 -0.30032705966461076 0.3031842090014486 0.30015243071060715 0.29679940707163599 -0.30041331601902566 -0.29806718353168155 -0.29907700697081457 -0.2978565662198211 0.29699015542060225 -0.29797875924158196 -0.29656945627565917
leaf_weight=2.2488335072994223 4.0690874159336108 3.4049274921417227 2.5084780454635638 2.9778466224670401 4.4760582447051993 2.667016789317131 2.4950429946184141 3.8070683181285849 3.5748805701732627 2.6542188823223114 2.726488769054412 2.3301161229610434 3.221463367342948 2.2433203458786011 2.4083763360977173 2.3096770793199539 2.2673716694116592 2.5996192991733542 2.3592778593301773 2.300615116953848 3.7858499735593796 3.7150661051273408 4.2942701429128647 4.0770478993654242 2.5778529196977615 2.2539460211992255 2.181749925017356 2.7460738271474829 2.2567784339189529 2.2756162583827972 2.2990110367536545 2.3595235943794242 3.1743761748075476 2.2417219430208197 2.6972349584102622 2.2606881707906714 2.4018374085426331 4.4645190984010688 2.760648429393771 4.339823141694068 2.6846133917570105 3.0148486495018005 2.2058343440294257 5.0201927721500379 2.3146526515483856 2.2740459591150275 2.401900127530098 2.5054133385419837 62.73958133161068 2.2379655092954627 3.1379512697458258 2.4416907578706732 2.2396121770143509 2.2174795269966117 2.195907399058342 2.6651783138513556 2.4277745932340613 2.2127519696950904 2.2038166970014572 2.1971198618412009 2.2059960514307013 55.776322692632675
leaf_count=10 17 15 11 12 19 11 11 16 15 11 11 10 13 10 10 10 10 11 10 10 16 16 19 18 11 10 10 12 10 10 10 10 14 10 12 10 10 19 12 19 12 13 10 23 10 10 11 11 287 10 14 11 10 10 10 12 11 10 10 10 10 254
internal_value=0 0.233252 -0.231908 -0.257561 0.0451077 -0.103756 -0.128024 -0.0681416 -0.0158555 0.146558 -0.192566 0.260566 0.209009 0.141134 -0.122063 0.0120749 0.0237215 -0.275354 0.237666 0.234206 0.109202 0.261303 0.178865 -0.280955 -0.195841 -0.286588 0.290255 0.291306 0.251041 -0.261701 -0.253706 -0.290092 -0.293172 -0.296678 -0.298709 0.294482 0.337856 -0.300812 0.306364 -0.299244 0.296764 0.309472 -0.298405 0.302696 -0.307987 -0.297827 -0.30088 0.300768 0.295818 -0.297477 0.298948 -0.297223 0.297334 0.295553 0.300023 -0.297038 -0.296899 -0.296766 -0.296394 0.295396 -0.296681 -0.296623
internal_weight=0 143.695 144.439 124.877 18.2166 7.14308 15.0807 19.5617 15.7546 6.2291 12.1029 125.478 45.8521 11.0735 9.52554 4.71805 5.48884 109.797 7.00444 40.3633 7.19078 33.1725 8.85166 107.197 6.6549 100.542 79.6262 24.3209 6.55105 9.37638 4.80749 98.2882 95.9287 92.7543 90.5055 77.2961 4.64516 88.2638 21.5748 83.7993 75.0354 5.1966 79.4594 17.8597 4.52049 74.939 6.88133 15.0991 69.8388 72.6649 12.5937 69.9677 9.45571 67.1542 4.43552 67.7297 65.0645 62.6228 4.60572 64.9367 60.4101 57.9823
internal_count=1280 640 640 557 77 30 65 83 67 26 53 563 201 47 41 20 23 492 30 178 31 147 39 481 29 452 362 108 29 42 21 442 432 418 408 352 20 398 96 379 342 23 360 80 20 340 31 68 319 330 57 318 43 307 20 308 296 285 21 297 275 264
is_linear=0
shrinkage=0.2


Tree=3
num_leaves=63
num_cat=0
split_feature=20 27 53 40 61 53 31 76 60 53 27 52 33 60 27 16 16 21 54 3 20 51 21 55 16 4 50 16 52 6 42 38 57 51 36 30 65 2 61 6 15 84 21 64 46 59 54 11 23 13 46 6 61 67 61 70 42 64 62 13 41 31
split_gain=281.309 14.7126 12.1547 7.08357 5.6479 5.06081 9.78 6.76459 4.95955 6.35842 4.85165 8.94061 4.40126 4.33465 3.62118 3.53527 3.98641 6.78981 2.81555 1.91532 1.82514 1.81325 3.26104 1.78686 1.68456 1.47723 1.13001 2.1557 1.12813 1.11506 0.608335 2.86707 0.392181 0.370696 1.44103 0.0947699 0.0417397 0.037234 0.0345169 0.0284924 0.0148761 0.0137239 0.010865 0.00967451 0.00947708 0.00873598 0.00819431 0.00784807 0.00562644 0.00422579 0.00324483 0.00264656 0.00233542 0.00191346 0.00167524 0.00153029 0.00110962 0.00107534 0.000845151 0.00041143 0.000355667 0.000301636
threshold=0.48360023162082116 0.59451882725921101 0.30369195990317388 0.29046777727943168 0.54316374776394372 0.80764823996290624 0.39374116497622647 0.29622254645055301 0.76202943921089183 0.97457089614553472 0.42530511518056874 0.69060203433036815 0.9296832544121435 0.90218022465705883 0.3808360169516139 612.50000000000011 518.50000000000011 0.36700853543491591 0.068245027116087834 603.50000000000011 0.43760460625066461 0.5158660113811494 0.60551708056289977 0.15915848314762118 394.50000000000006 496.50000000000006 0.93411258345088355 512.00000000000011 0.57284933328628551 422.50000000000006 0.20034943793079429 0.24459990024890171 0.59123588437416241 0.0077651909086853274 0.043626307137297461 0.23890195636410541 0.058423558934644175 396.50000000000006 0.48832823943203812 511.50000000000006 697.50000000000011 0.54395279946578301 0.15511153743305969 0.27859658932756043 0.97726000866686702 0.88161012728199506 0.88431793526991698 526.50000000000011 0.3330833516366738 665.50000000000011 0.99997745572434404 555.50000000000011 0.25918834274439034 0.25082981586456304 5.161313019460519e-06 0.39434966444969183 0.94137353993724782 0.87961668574370566 0.76892610424367547 400.50000000000006 0.099224486915062929 0.76447855232023498
decision_type=2 2 2 2 2 2 2 2 2 2 2 2 2 2 2 2 2 2 2 2 2 2 2 2 2 2 2 2 2 2 2 2 2 2 2 2 2 2 2 2 2 2 2 2 2 2 2 2 2 2 2 2 2 2 2 2 2 2 2 2 2 2
left_child=2 8 3 25 15 6 7 -4 10 -10 28 -12 13 18 -8 16 17 23 -3 36 -7 22 -20 -5 -23 30 37 44 -2 -14 33 -32 -31 34 54 42 -9 -26 40 -33 43 45 -18 49 -28 -39 47 -34 -25 52 58 56 55 -54 -1 59 57 -43 -48 60 -35 -60
right_child=1 12 5 4 -6 20 14 19 9 -11 11 -13 29 -15 -16 -17 35 -19 21 -21 -22 24 -24 48 26 -27 27 -29 -30 32 31 39 46 38 -36 -37 -38 41 -40 -41 -42 51 -44 -45 -46 -47 50 -49 -50 -51 -52 -53 53 -55 -56 -57 -58 -59 61 -61 -62 -63
leaf_value=-0.27871814264681166 0.31285938705115218 0.012437786747866541 0.094795029140904485 -0.070961040283267149 0.1617282059741694 -0.10256722632975063 0.037841949753081472 -0.31209363510147914 -0.28421939829677367 0.14084815907654352 -0.26875878896716737 0.22034260472443046 0.1258459682566184 -0.018724607859248271 0.35193558231230143 0.070775992003548019 -0.29576753808071571 0.18915734720051869 0.28962003741679471 -0.074499638087310846 -0.34230449130433782 0.09239540710976224 0.0027201358530278882 -0.2779935623356028 0.30705240169624948 -0.14060329468121688 0.29468649400811869 0.071587647154942258 0.12990682766582404 0.18276793061394181 -0.015345897042522597 -0.31354789539857691 0.2884525680339054 -0.2725879882879973 -0.082829568731937919 -0.33151749110438167 -0.27765252543072733 0.29465783121046679 -0.29495008933297129 -0.28167038493062491 -0.29077693710949504 0.27285888455482094 -0.27615110564437262 -0.28366850526502912 0.27590634069424663 0.27812372247709949 0.27508360285091737 0.27118482041333769 -0.29240682527130163 -0.28163735937172818 0.27868087650069234 0.28178869840592397 -0.2731853794360955 -0.28172401057305513 -0.27213212992729729 -0.27785791307336805 0.27041421178581343 0.27800393785804617 0.27350993394592771 -0.27202667618738635 -0.27600644094712024 0.2709861984341741
leaf_weight=2.2230300903320295 3.584051191806795 2.8520573526620856 3.726325184106833 2.4026484191417783 2.3484072983264914 2.1254792064428321 3.0750634968280783 2.4093681871891004 3.4888317435979834 2.3597297668457031 2.8610009998083115 3.1310056895017624 2.2334226369857779 3.8575803935527793 2.8097871989011765 2.2069765031337729 2.3304608315229407 2.2875005751848221 2.7361226081848136 2.2484977394342422 3.1568563729524612 2.787203416228297 3.7658766061067581 2.0092617720365524 2.1722650378942552 3.9869288802146903 2.1201275885105124 3.3731503635644913 2.161041259765625 2.0261748135089865 2.120403826236724 2.2371717840433121 2.3123810440301886 3.1248511523008338 2.0090930610895157 3.1333020776510239 3.3849820345640182 3.0198712050914791 3.4277452379465094 2.2490686774253845 2.1316950470209113 3.5166317969560605 2.1914353668689728 3.7225272357463828 2.1799927204847336 2.2163621932268143 2.1802008152008048 1.9328129440546034 2.3509111106395721 2.2561886161565772 2.4251026511192313 2.039565995335578 2.1559057235717765 2.046126052737236 5.0641339421272278 2.004638507962226 2.6961434185504913 3.0206173956394196 1.9610523879528035 44.572431728243828 1.9944723695516584 55.677669793367386
leaf_count=11 16 12 16 11 10 10 14 11 15 10 12 14 10 17 12 10 11 10 13 10 14 13 17 10 10 19 10 16 10 10 10 10 11 16 10 14 17 14 16 11 10 18 11 18 11 11 11 10 11 11 12 10 11 10 26 10 14 15 10 229 10 288
internal_value=0 0.207928 -0.206384 -0.234328 -0.130802 -0.0740943 -0.0227054 -0.127968 0.0377457 -0.112717 0.112721 -0.0131884 0.234388 0.183397 0.187809 -0.167126 -0.198555 -0.108701 0.203651 -0.231176 -0.24584 0.218951 0.123451 -0.209451 0.240258 -0.259532 0.255896 0.191277 0.244041 0.264914 -0.265222 -0.206988 0.269447 -0.270236 -0.232795 -0.304785 -0.291974 0.282437 -0.275397 -0.297567 -0.27435 0.279198 -0.286261 -0.273784 0.285166 0.287659 0.272089 0.280591 -0.285765 -0.273151 0.271509 0.275268 -0.272809 -0.277343 -0.274141 -0.27244 0.273828 0.275236 0.271218 -0.272222 -0.27392 0.271072
internal_weight=0 130.688 131.524 108.587 21.2609 22.9364 17.654 11.7692 17.5857 5.84856 11.7371 5.99201 113.102 42.3536 5.88485 18.9125 16.7055 9.05032 38.496 8.04285 5.28234 35.6439 6.502 6.76282 29.1419 87.3264 26.3547 7.67327 5.74509 70.7488 83.3395 6.60664 68.5154 76.7328 9.29626 7.6552 5.79435 18.6815 67.4366 4.48624 64.0088 16.5092 4.5219 61.8771 4.30012 5.23623 66.4892 4.24519 4.36017 58.1546 62.244 11.273 55.8984 4.20203 7.28716 51.6964 9.23339 6.53725 59.8189 49.6918 5.11932 57.6387
internal_count=1280 640 640 536 98 104 80 54 77 25 52 26 563 201 26 88 78 42 184 38 24 172 30 32 142 438 129 37 26 362 419 31 352 388 47 36 28 92 341 21 325 82 22 315 21 25 342 21 21 297 321 57 286 21 37 265 47 33 309 255 26 298
is_linear=0
shrinkage=0.2


Tree=4
num_leaves=63
num_cat=0
split_feature=20 27 23 64 11 0 23 60 31 30 32 53 90 33 33 67 49 40 23 19 62 61 34 61 65 1 15 16 55 80 59 64 53 10 40 33 56 19 3 53 40 33 62 18 51 61 6 27 53 75 40 42 19 54 54 27 33 65 53 44 13 13
split_gain=206.852 11.6734 10.1325 6.1259 5.27968 4.66986 4.50792 8.47018 5.19311 6.28122 3.89207 5.48658 3.43909 4.38789 4.46682 4.75154 3.00673 2.98522 3.97851 8.36438 3.42339 2.67061 2.63639 2.29819 2.75452 4.66964 1.96212 1.51973 1.47792 1.3931 1.38643 0.710469 1.50708 0.704759 0.599286 0.549356 0.390512 0.384225 0.379004 0.142364 0.100764 0.0338019 0.0320331 0.0240047 0.0203094 0.0165915 0.0162173 0.0126474 0.0104563 0.00965051 0.00754212 0.00614358 0.00612676 0.00528506 0.00487834 0.00373941 0.00307572 0.0020087 0.0016176 0.00152393 0.00140603 0.00117319
threshold=0.48360023162082116 0.83260781280666774 0.32750036324821979 0.27859658932756043 518.50000000000011 492.50000000000006 0.38101675355147813 0.75347056984901439 0.49947617035438135 0.65037386703229993 0.106776112147314 0.37257960729792822 0.54318253227517665 0.44644219898886828 0.22894398211902203 0.21657277643680575 0.53835868963254041 0.69412570951692565 0.70847740701211104 491.50000000000006 0.66016261554817268 0.40735680475529806 0.5198147827315166 0.15224753314297707 0.23005082479000918 472.50000000000006 615.50000000000011 372.50000000000006 0.36029377579689031 0.41867362715032141 0.19474141256466773 0.74616049996263467 0.8368414552881126 492.50000000000006 0.32340482852953562 0.33678401497568095 6.1585403092967245e-07 639.50000000000011 598.50000000000011 0.37257960729792822 0.58938771545450996 0.9296832544121435 0.91563123311498174 379.50000000000006 0.91992875933647167 0.38209731230160732 457.50000000000006 0.61096931513528696 0.2935794387717956 0.50662401499526444 0.28604618077491034 0.19706249342476392 742.50000000000011 0.88431793526991698 0.87081865718766693 0.79419673325112317 0.93150454622557566 2.7721964936699806e-09 0.79109167381966183 0.99996054040111082 663.50000000000011 461.50000000000006
decision_type=2 2 2 2 2 2 2 2 2 2 2 2 2 2 2 2 2 2 2 2 2 2 2 2 2 2 2 2 2 2 2 2 2 2 2 2 2 2 2 2 2 2 2 2 2 2 2 2 2 2 2 2 2 2 2 2 2 2 2 2 2 2
left_child=2 6 3 23 5 10 7 22 9 16 -5 28 13 14 15 -4 -8 31 19 -19 -20 -3 -2 27 30 -26 37 -1 -12 -17 45 32 -10 -6 36 -16 -29 41 42 48 -33 44 -22 -43 49 61 -35 -42 50 -23 51 52 57 -45 -51 -49 -44 -38 -56 -55 -59 -25
right_child=1 21 12 4 33 -7 8 -9 17 -11 11 -13 -14 -15 35 29 -18 18 20 -21 38 26 -24 24 25 -27 -28 34 -30 -31 -32 40 -34 46 -36 -37 39 -39 -40 -41 47 43 56 53 -46 -47 -48 55 -50 54 -52 -53 -54 59 58 -57 -58 60 -60 -61 -62 -63
leaf_value=-0.073373741852348906 -0.013793954696855685 0.014390373032934632 -0.15965446419607199 0.27313344760997577 -0.14400911965640892 -0.29360201782005585 -0.073380538908798087 -0.23429300929318575 0.27076901504239492 -0.28446697570465157 -0.26884775354980511 0.2199370191434088 -0.23051441994879263 0.23237244657934683 -0.28948444624152464 0.26606372447845289 0.22588263604528783 -0.28141403970054257 -0.034674523728258827 0.2232101340275123 0.29070798603424564 0.27641971728339237 0.27916867760920677 -0.26174148759579569 -0.25439949389372835 0.17614805957274482 0.098134427126476548 -0.1741178008812756 -0.036005087333421386 0.0408028759315993 -0.076031613070256202 0.31385211378547018 0.066181062964484449 -0.29462741834249306 -0.1667256294848862 -0.14275310765833013 -0.26245667700381076 0.16446217975258245 0.16668674123204885 -0.30535572107032688 0.27886928998206517 0.27755139025895698 0.26516002983585418 0.2642403582638912 0.28507699447509521 -0.28040790840396301 -0.27138940902272679 0.25542807502041975 -0.27307233010512416 0.26975105975191543 -0.26658775906707882 -0.26665028678351743 -0.26707403498644566 0.254263760790713 0.26326922557469368 0.26651208393166753 0.2547840825748548 -0.25544175547492393 0.25621959463653871 0.25975610647537906 -0.26090483583245672 -0.25528918398407757
leaf_weight=1.9417306929826725 2.1119558364152891 2.0199672728776923 2.952797934412958 2.2300935685634631 2.1531159132719031 2.0029773712158194 2.1913673132657996 3.9515043497085571 3.5799570083618173 2.2589505314826965 2.389524981379509 2.2766336500644684 3.2642566561698905 2.5923916846513739 2.2419012933969498 2.5074048340320587 3.4684552103281021 2.5765264332294473 2.1766309738159171 2.6810936331748962 1.9673420935869197 1.9690292924642552 2.9379258006811142 2.1461252719163877 1.8474031090736378 2.2166663408279419 3.3306224942207328 2.2036777883768073 2.0056052654981613 1.9539513885974882 2.0428455322980881 2.2361662536859495 2.4096736907958984 2.0738032311201096 3.0890126824378958 1.8735799044370649 1.8031110018491734 1.7983810901641835 1.842761158943176 2.6260235011577597 1.9307068586349485 1.9662996530532826 2.3876735270023346 2.3543196320533744 2.180871754884719 1.954134330153465 2.8551538735628128 3.0507340878248215 1.7389162182807911 1.8998787999153117 3.3247098922729483 2.4127681106328955 2.0415983349084845 43.135367378592491 1.8155065029859541 2.0260773599147797 2.1917166262865067 47.184038102626801 4.6028042584657669 2.12005591392517 1.9628205448389042 2.3741613477468491
leaf_count=10 10 10 13 10 10 10 10 18 19 10 13 10 16 12 11 11 17 12 10 14 10 10 15 12 11 10 18 12 10 10 11 10 12 10 16 10 10 10 10 13 10 10 13 13 11 10 15 18 9 10 18 13 11 257 10 11 13 278 27 12 11 14
internal_value=0 0.188408 -0.186515 -0.210814 -0.10501 -0.0176875 0.112597 -0.0149716 0.142059 -0.00251765 0.0443951 -0.0320626 -0.0455005 -0.00273513 -0.0555981 0.0371491 0.110014 0.178922 0.118083 -0.0240838 0.188824 0.240975 0.156646 -0.233767 -0.155041 -0.0195658 0.247788 -0.247851 -0.162596 0.167406 -0.219684 0.242119 0.188462 -0.239467 -0.252805 -0.222685 -0.256877 0.255596 0.246811 -0.259768 0.276887 0.258237 0.269364 0.255896 0.267546 -0.265009 -0.281167 0.265091 -0.257788 0.263829 -0.257336 -0.25678 -0.256331 0.255002 0.260849 0.259852 0.260194 -0.2559 0.258214 0.254521 -0.25566 -0.258353
internal_weight=0 117.17 118.283 100.897 17.9869 10.9048 47.9772 9.00139 38.9758 7.91877 8.90186 6.67176 17.3863 14.122 11.5296 7.41415 5.65982 31.0571 15.8237 5.25762 10.5661 69.1931 5.04988 82.9097 12.5813 4.06407 67.1731 70.3284 4.39513 4.46136 8.51727 15.2333 5.98963 7.08207 68.3867 4.11548 65.2977 63.8425 8.38949 63.094 9.24368 62.0441 6.54673 49.576 12.4681 6.47442 4.92896 7.00752 60.468 10.2872 58.729 55.4043 52.9916 47.6097 8.31819 5.07681 4.57939 50.95 6.41831 45.2554 49.1469 4.52029
internal_count=1280 640 640 557 88 53 242 43 199 37 43 33 83 67 55 34 27 162 82 26 56 398 25 469 68 21 388 401 23 21 47 80 31 35 391 21 375 370 46 363 49 360 36 292 68 36 25 39 350 57 341 323 310 282 47 29 26 299 37 269 289 26
is_linear=0
shrinkage=0.2


Tree=5
num_leaves=63
num_cat=0
split_feature=20 27 23 61 53 60 42 53 72 56 13 53 65 15 63 46 49 59 56 60 27 61 15 57 3 30 64 6 62 18 7 65 90 48 53 40 84 70 9 51 21 64 50 20 74 6 36 69 19 53 50 40 54 13 82 52 19 3 33 74 46 44
split_gain=154.005 10.1399 8.51629 4.2385 4.64139 4.10371 4.9182 4.07201 6.61046 8.22467 4.41175 4.24038 3.62321 4.27322 3.50825 5.42306 4.85562 2.25551 4.36737 2.21415 1.9816 1.87092 1.90147 1.34758 1.07151 1.03104 0.736119 2.14777 0.536549 0.486199 0.477675 0.41227 0.344545 0.143417 0.0838104 0.0703153 0.0166388 0.0151575 0.0141195 0.0104908 0.00867566 0.00858964 0.00697848 0.0086887 0.00586309 0.00559166 0.00468124 0.00335234 0.00707445 0.00321381 0.00317278 0.00316215 0.00266518 0.00250404 0.00198326 0.00160453 0.00122084 0.00104838 0.000954746 0.00124086 0.000742491 0.000615895
threshold=0.48360023162082116 0.83260781280666774 0.26329390475988018 0.10933753688869027 0.58377175945300974 0.62211748957633983 0.0011213516067466731 0.97669740507913427 0.61984543284041915 0.9547951129709239 466.50000000000006 0.93544008098454368 0.23005082479000918 540.50000000000011 0.74573683738708507 0.33506297720058237 0.96354290242530105 0.1274136783354253 0.047425201043098379 0.40011481940746313 0.57651955584365655 0.45629851655071568 615.50000000000011 0.95567436361080715 688.50000000000011 0.13667855674641594 0.27859658932756043 526.50000000000011 0.99999997729641199 565.50000000000011 545.50000000000011 2.7721964936699806e-09 0.3791059522025349 0.51720399142719919 0.37257960729792822 0.63546991909496431 0.44688307786882869 0.73373800516128551 520.50000000000011 0.19503207504749301 0.87332239060692596 0.32140442033324718 0.91810767647569247 0.73346432171471021 0.51770013570785534 426.50000000000006 0.72559057775545133 0.95282348271887851 392.50000000000006 0.24990815112224826 0.12136960486369509 0.28401344385914418 0.86266182810590464 668.50000000000011 0.27877390889392611 0.8397086262702943 680.50000000000011 520.50000000000011 0.9296832544121435 0.92761769890785228 0.32090756722534147 0.99996054040111082
decision_type=2 2 2 2 2 2 2 2 2 2 2 2 2 2 2 2 2 2 2 2 2 2 2 2 2 2 2 2 2 2 2 2 2 2 2 2 2 2 2 2 2 2 2 2 2 2 2 2 2 2 2 2 2 2 2 2 2 2 2 2 2 2
left_child=2 7 3 24 17 6 -4 8 11 10 -10 14 20 19 15 -2 -16 30 -19 -14 29 -3 28 -9 26 -20 31 -28 37 38 39 -1 -17 -34 44 -25 -35 42 41 54 -37 -8 43 -23 49 -39 -47 48 -38 51 -40 53 -48 56 -5 -44 60 -42 59 -54 -33 -60
right_child=1 21 5 4 -6 -7 12 23 9 -11 -12 -13 13 -15 16 32 -18 18 25 -21 -22 22 -24 35 -26 -27 27 -29 -30 -31 -32 34 33 36 -36 40 47 45 50 -41 57 -43 55 -45 -46 46 52 -49 -50 -51 -52 -53 58 -55 -56 -57 -58 -59 61 -61 -62 -63
leaf_value=-0.1557135316285165 -0.056570433873696924 0.055416609837740993 0.12238487384808334 -0.25341935682387473 0.145839121689012 0.14276961408030131 -0.26157389782754786 0.10892956281827292 -0.0079613091460995263 0.21767218008145292 -0.31105629710315014 -0.13168593114136712 -0.046431920742498925 0.13724377762685605 -0.14705246230131988 0.17786956673887286 0.21122437918154602 0.12820895568393673 -0.069119937456833216 -0.30194174200308305 -0.022801293632657718 0.25051132682516303 0.082773909359026093 0.29837933560487073 -0.10046130580171247 -0.26044938487769642 -0.26073735296161649 0.017601900035430308 0.11974033203463944 -0.14718524227748203 -0.12588172829938399 -0.24287752465511009 0.31073768800092427 0.27527256443804859 -0.28603715672838581 0.26350100419362449 0.26052993473384717 0.25474944819148065 -0.25920488824762711 -0.26548009942686551 0.24185070534633912 -0.27888362085660306 0.25130780096424704 0.26941834659832836 -0.25632107196840154 0.25307428199804577 0.25098462651642078 0.26113789311279195 0.24394482690590502 -0.25351818027169398 -0.24784411071365159 -0.25268235097736497 0.24200942847496518 -0.25139097996902349 -0.2449429753119334 0.24233102314170987 -0.24731702919376006 0.24934898817948803 0.2422000048103343 0.24993633386561834 -0.24700202386569936 0.24630685415524139
leaf_weight=2.0885788500308982 2.6194721311330857 2.4700262546539298 3.3619385212659898 1.6290998011827484 2.2976146042346945 3.0619029700756064 2.7390964329242724 3.3231268078088743 3.5488583296537382 3.0089180171489716 4.1876363009214401 2.2997518628835669 3.4422218650579435 3.3659427911043167 3.1426809281110755 1.7722609341144551 2.9180421233177185 2.6395333707332602 1.7661294341087339 2.2390089333057404 1.9584441781043995 2.0544732362031932 3.1770893931388846 1.8394828885793684 2.4380422234535208 3.1112343817949295 3.0985475629568091 1.7269715964794157 1.4000487178564061 1.7980859875679005 1.4474132508039472 36.882697835564613 2.9357035607099515 1.9058576077222822 2.047170713543891 1.7469355612993238 1.7500318735837934 1.8080678582191456 1.7135564833879469 1.7930395305156706 1.4307269901037218 1.9724871665239332 1.6008459031581881 1.8456252813339231 1.6804868429899205 1.9145942479372013 1.5942655354738224 1.7713851779699323 2.4961213320493698 1.4635426402091969 2.3072934001684189 1.6154145002365101 1.5741869658231729 1.6173086613416661 3.4263228923082352 1.5850875824689863 2.915016531944274 1.5581250190734861 35.949883371591568 1.5854890048503874 1.8326036781072605 1.5225193798542012
leaf_count=13 12 13 16 10 11 14 16 19 19 19 19 11 18 17 16 10 17 13 10 11 10 13 18 9 14 18 18 9 9 10 9 254 14 10 11 10 10 11 10 10 10 10 10 10 10 12 10 10 17 9 15 10 11 10 23 11 19 10 250 10 12 10
internal_value=0 0.172354 -0.170348 -0.204479 -0.119778 -0.0757231 -0.102593 0.0997068 0.0671435 -0.0629 -0.172022 0.126326 -0.137713 -0.0413305 0.154168 0.205322 0.0254462 -0.158372 -0.0790196 -0.14713 -0.207534 0.225864 0.233172 0.212732 -0.230301 -0.191168 -0.235857 -0.161124 0.24195 -0.241891 -0.230273 -0.242774 0.259633 0.272978 -0.246406 0.265194 0.258987 0.245176 -0.261391 -0.252336 0.252304 -0.268821 0.253786 0.259459 -0.244716 0.243848 0.243402 0.253829 0.25078 -0.244295 -0.252686 -0.243994 0.242963 -0.24367 -0.247674 0.246842 -0.24337 0.24576 0.242648 0.245987 -0.243073 0.242367
internal_weight=0 104.337 105.477 77.5168 18.1104 27.96 24.8981 44.2551 34.3567 10.7454 7.73649 23.6113 21.5361 9.04717 21.3116 15.2508 6.06072 15.8128 7.5169 5.68123 12.489 60.0822 57.6122 9.8984 59.4064 4.87736 56.9683 4.82552 54.4351 10.5305 8.29588 52.1428 12.6314 10.8591 50.0542 6.57527 7.9234 53.035 8.73243 6.84846 4.73579 4.71158 7.08603 3.9001 48.0071 45.949 44.1409 6.01754 4.24615 46.3266 4.02085 44.863 42.2263 43.2476 5.05542 3.18593 41.6303 2.98885 40.6321 3.15968 38.7153 37.4724
internal_count=1280 640 640 493 104 147 133 242 184 57 38 127 117 46 116 83 33 93 41 29 71 398 385 58 389 28 375 27 367 61 52 348 71 61 335 39 47 358 51 43 30 26 44 23 324 314 303 37 27 314 25 305 291 295 33 21 285 20 281 21 266 260
is_linear=0
shrinkage=0.2


Tree=6
num_leaves=63
num_cat=0
split_feature=23 31 64 3 7 57 37 72 61 2 61 65 64 49 91 64 65 4 54 74 0 66 11 1 5 41 19 64 40 4 56 54 37 13 57 5 59 21 52 45 16 62 53 92 27 67 40 23 21 34 32 41 15 5 6 0 53 33 36 61 65 15
split_gain=116.017 12.5519 8.59529 5.76492 4.46667 3.88173 4.30581 3.63596 3.51856 3.19463 3.07879 3.93251 5.64798 3.03789 3.4949 3.12334 2.26851 2.11853 4.01383 6.43603 3.2699 1.88152 1.87599 3.10607 1.67462 2.01257 1.63174 1.55104 1.21575 1.02755 0.905167 1.16276 0.895111 0.701579 0.573183 0.500711 0.462791 0.342274 0.178218 0.128655 0.0528042 0.0512635 0.0506789 0.0430302 0.0405924 0.0312204 0.0199957 0.0112006 0.00906942 0.00789673 0.00743638 0.00728514 0.00452779 0.00439357 0.00270434 0.00215935 0.00206 0.00202372 0.00278558 0.00192118 0.00132864 0.00120654
threshold=0.35985496549283652 0.49947617035438135 0.25316245099062673 374.50000000000006 455.50000000000006 0.22973133520698044 0.61968970055100381 0.53952223209143424 0.97184779183856485 449.50000000000006 0.15224753314297707 0.23005082479000918 0.080064692422741487 0.52048628973619648 0.44778742762613738 0.75733142461406022 0.23005082479000918 474.50000000000006 0.99888616753481563 0.5649906098842622 476.50000000000006 0.26140761375427252 465.50000000000006 484.50000000000006 586.50000000000011 0.91179637184083351 717.50000000000011 0.0035993897016371652 0.57742985676903935 496.50000000000006 9.6538661488909021e-06 0.00022931566735568396 0.451114123172357 674.50000000000011 0.93795469175353996 652.50000000000011 0.66703735684093857 0.40402399203754263 0.18491569161415103 0.48596907450982113 579.50000000000011 0.7415404729172278 0.24990815112224826 0.54795204795204799 0.62186529152157688 0.18453175574541095 0.74229692938070235 0.26932472162784343 0.80224329881409795 0.70272752381590331 0.13569578553188441 0.8986370459988785 613.50000000000011 498.50000000000006 428.50000000000006 483.50000000000006 0.99700902483471066 0.93507434638850506 0.83994350441518273 0.36478107735882426 2.7721964936699806e-09 437.50000000000006
decision_type=2 2 2 2 2 2 2 2 2 2 2 2 2 2 2 2 2 2 2 2 2 2 2 2 2 2 2 2 2 2 2 2 2 2 2 2 2 2 2 2 2 2 2 2 2 2 2 2 2 2 2 2 2 2 2 2 2 2 2 2 2 2
left_child=2 7 10 -4 32 9 16 13 17 -6 28 27 -13 14 21 39 -7 18 19 -3 -21 -2 41 -24 36 -26 33 -12 29 30 31 -1 43 35 -18 46 -25 42 -11 -15 59 -19 47 50 -38 -44 48 60 -10 -46 -5 -43 54 -49 -48 -50 -20 58 -56 -29 -32 -51
right_child=1 8 3 4 5 6 -8 -9 26 38 11 12 -14 15 -16 -17 34 22 56 20 -22 -23 23 24 25 -27 -28 40 -30 -31 37 -33 -34 -35 -36 -37 44 -39 -40 -41 -42 51 45 -45 49 -47 52 53 55 61 -52 -53 -54 -55 57 -57 -58 -59 -60 -61 -62 -63
leaf_value=-0.23895695360524782 0.16988100230666819 0.27075445807284454 0.22045819143090128 -0.25772314004803315 0.079410466012883804 -0.027686906759009783 -0.1394386948063738 -0.25073486690388747 0.25631959150447592 -0.18062792407507167 -0.040320347612354972 0.21916083892241375 -0.18059944480734569 0.20442673612431297 -0.25909319730896624 -0.068618075180148383 0.30755071303231613 0.27903241319343486 0.24386147522532453 0.029264317232365514 -0.31023951797315147 -0.10263511788286526 -0.039194236668411722 0.12760742874989289 -0.061746008572312251 0.24577919309179072 0.002494007375627055 -0.23633892275966947 -0.023076987272832722 -0.094499085200945743 -0.2407403120298709 0.017729785569068186 -0.10941706168617692 0.079123172724962471 0.15480368604037725 0.11727689243792441 0.28037454554012475 -0.16284565360452688 -0.26648661290365605 0.28098987743340992 -0.28262678131927294 0.24981429678745637 -0.27720734644461265 -0.28969685799683964 0.25434929914491794 -0.2388107821530551 0.24300510998696581 -0.25398496035723483 0.23506549400611643 0.23389282949869672 -0.23945175684193673 0.23531504114234034 0.24560969393702803 -0.23989908065012477 0.23522953906633279 0.24583293249790839 0.23390724158139992 0.23381337355520304 0.24552822709669747 -0.24482685039740401 -0.23446274033248293 0.24116188956986045
leaf_weight=1.4881057739257806 2.2340228855609876 1.983869343996046 2.6542238518595722 2.2036356180906327 1.7534584552049626 1.8272033631801585 2.9546132907271385 2.2328760325908652 2.7373787760734549 1.4172891005873678 1.8181719779968242 2.801493726670742 2.8537416383624077 1.5617644041776659 2.3673645108938217 1.92560638487339 2.2648822069168091 2.0329920947551754 1.7238977849483492 2.0334225744009018 2.5676572248339653 1.854784160852432 3.3677365332841864 1.4917268604040126 2.090018585324287 1.4361696094274519 1.308309718966483 2.446046493947506 1.2713039517402638 2.450973153114318 1.3997202366590489 1.3429436832666395 2.1624776497483253 1.2157643735408772 1.7357730269432066 1.4442836642265309 1.4524832665920255 2.5890131145715705 3.0439885705709457 2.0049014315009117 1.5920983999967573 2.5528689920902252 1.9893874600529664 1.5877413153648374 1.592161104083061 1.4751677587628362 1.551569141447543 1.6482244879007333 1.5109254792332651 1.8547509685158732 1.4958066046237943 3.0329463258385658 1.6323219835758198 1.9146904721856115 3.7916746065020552 1.4696619510650633 1.6066050156950948 28.959931187331676 1.4531590119004247 1.8914793431758878 36.92945060133934 1.799547530710697
leaf_count=11 11 11 14 13 9 10 15 12 17 10 12 14 16 10 12 10 11 11 12 12 12 10 19 10 11 10 7 19 7 15 10 9 12 9 10 10 8 17 17 11 9 17 11 8 10 11 11 10 12 15 11 24 11 14 30 10 13 235 10 13 296 13
internal_value=0 0.156894 -0.158277 -0.0582755 -0.0912343 -0.0283551 0.0572382 -0.0164712 0.187744 -0.149313 -0.195244 -0.109368 0.017434 0.027307 -0.065707 0.136645 0.15695 0.13726 0.0601332 -0.0303633 -0.160198 0.0462609 0.170944 0.130086 0.178741 0.0635049 0.222726 -0.201923 -0.216364 -0.22098 -0.227086 -0.117194 -0.217819 0.229022 0.241278 0.233112 0.228352 -0.233574 -0.23921 0.247465 -0.251475 0.251839 -0.237612 -0.262156 0.250786 -0.260859 0.236993 -0.235689 0.248008 0.242594 -0.250335 0.241942 0.235309 -0.246415 0.234839 0.240375 0.23906 0.234468 0.238083 -0.24004 -0.234692 0.237472
internal_weight=0 93.8752 93.0031 25.1011 22.4469 14.9972 8.78247 14.1813 79.6938 6.21474 67.902 13.403 5.65524 11.9484 6.45617 5.49227 5.82786 32.6189 9.91545 6.58495 4.60108 4.08881 22.7034 15.0846 11.7169 3.52619 47.075 7.7478 54.499 53.2277 50.7767 2.83105 7.44966 45.7667 4.00066 44.5509 8.19067 47.9457 4.46128 3.56667 5.92962 7.61881 45.3566 5.28718 6.69894 3.46456 43.1066 41.8921 5.71797 5.24646 3.69944 5.58582 37.3887 3.56291 35.7563 2.98059 3.3305 34.2048 5.24483 4.33753 38.3292 3.6543
internal_count=1280 646 634 140 126 82 46 76 570 36 494 83 30 64 33 31 31 208 60 35 24 21 148 96 77 21 362 53 411 404 389 20 44 355 21 346 56 369 27 21 41 52 352 32 46 22 336 330 39 38 24 41 297 24 286 22 25 275 40 32 306 28
is_linear=0
shrinkage=0.2


Tree=7
num_leaves=63
num_cat=0
split_feature=23 51 53 38 90 50 40 5 56 54 92 88 87 44 90 33 88 64 66 49 45 15 62 70 37 10 40 91 63 74 16 57 64 90 13 89 91 94 38 23 40 51 39 59 61 61 40 4 33 40 27 20 15 61 14 47 61 64 61 78 1 48
split_gain=87.3141 10.2465 7.49679 5.24254 5.24088 3.46549 3.69625 3.28161 3.12286 3.04595 3.00523 3.04947 3.39837 2.73242 2.65437 2.42113 2.17684 2.01646 1.78201 3.27106 5.40801 3.03234 2.25909 1.77002 5.1387 1.36453 1.3246 1.16568 2.05583 2.56075 1.07496 1.05019 0.697735 0.688197 1.49651 0.560924 0.514314 0.0841453 0.0442259 0.0314523 0.0280291 0.0168775 0.0150057 0.00811626 0.00707293 0.00642819 0.00612173 0.00390893 0.00357705 0.00297278 0.0029155 0.00258204 0.00248328 0.00282506 0.00217887 0.00167455 0.00158618 0.00155724 0.00151433 0.00126081 0.00118587 0.00115767
threshold=0.35985496549283652 0.62670549750328075 0.30369195990317388 0.50425542993177308 0.29687353409567668 0.82935528457260455 0.35093955276449074 493.50000000000006 0.46210171212814866 0.017824034498404483 0.76207193890120728 0.50036042195624397 0.55354129893794479 0.5620118276007372 0.44713638507899983 0.1448658170330076 0.67772119294607358 0.95728050388719688 0.7693210542201997 0.99372218296561432 0.93041902361839168 615.50000000000011 0.76892610424367547 0.19056546688079837 0.058885636042751037 656.50000000000011 0.70591134821884405 0.39928525016244315 0.23735248297452929 0.28896646201610571 596.50000000000011 0.32918118303168875 0.32140442033324718 0.15777600126456384 502.50000000000006 0.46129300473891638 0.27382445141065831 0.54853006266983362 0.45287183698593403 0.32698272123599603 0.89483717307037647 0.37302134931087499 0.56507274702945198 0.41276243233958237 0.28801121877698188 0.15606234473620997 0.7102280529754007 495.50000000000006 0.32393880182307566 0.2963937124545219 0.83862594410466962 0.85953223003906287 573.50000000000011 0.88074948783966833 486.50000000000006 0.018797314355605225 0.0043154746942625664 0.21551652411297134 0.1349555104738194 0.57456133849934699 531.50000000000011 0.9393233503486097
decision_type=2 2 2 2 2 2 2 2 2 2 2 2 2 2 2 2 2 2 2 2 2 2 2 2 2 2 2 2 2 2 2 2 2 2 2 2 2 2 2 2 2 2 2 2 2 2 2 2 2 2 2 2 2 2 2 2 2 2 2 2 2 2
left_child=2 5 3 23 -4 6 -2 30 32 -3 11 14 -13 -10 15 -6 -14 18 31 20 21 22 -20 33 -25 27 -21 28 45 -30 41 -11 -9 34 55 -19 -31 -16 43 44 -28 -8 -33 48 47 56 -24 49 58 57 -42 54 53 59 60 -1 -26 -35 -29 -44 -37 -48
right_child=1 9 4 -5 10 -7 7 8 13 17 -12 12 16 -15 37 -17 -18 35 19 26 -22 -23 46 24 25 -27 40 38 29 36 -32 42 -34 39 -36 51 -38 -39 -40 -41 50 -43 52 -45 -46 -47 61 -49 -50 -51 -52 -53 -54 -55 -56 -57 -58 -59 -60 -61 -62 -63
leaf_value=-0.227432072956154 -0.17634189899384312 -0.14670049027125973 0.30456751502460422 0.061325923313436129 -0.17336089087879542 -0.23409613092090456 0.27512511716775673 0.22390001066907367 -0.2321140267915531 0.089559363929994945 -0.27628043271040287 0.20879510654863301 -0.21776892664774772 0.13385761951914049 -0.26060681873165292 0.11958477158980621 0.083645187145172217 0.093443329418749166 -0.0043824330643547965 0.026914902787714197 -0.29234424007736204 -0.12675397464495516 0.24524832811729544 0.12272463321303313 -0.2355258696597777 0.02871658094119639 0.26422507290609026 -0.22874400241156306 0.11403187251835573 -0.25139191461212224 0.063509595267106839 0.25297816622384711 0.047402205351036529 -0.22747813240978379 0.034682277007657858 0.22896393783612845 -0.078959285280746583 -0.19928914784604615 -0.27608423468204663 -0.26233997069796955 0.2396766034676984 0.24860332369297444 0.23374589967156992 -0.24798700096082232 -0.24180472760114391 -0.24672563873985737 0.23425464909734287 -0.23982147344721036 -0.24309792450700549 -0.23731924849663805 0.22863992670414884 0.22732262629491995 0.24266267482944792 0.22953955945610521 0.23936685327888563 -0.23812612883700934 -0.22719182708942634 -0.23451017979642735 -0.23546763470548462 0.24255187912016618 0.23508111241355512 0.22678809221304791
leaf_weight=1.0556362569332121 2.5861877724528339 1.1112972795963276 1.6406349614262605 3.4275286793708792 2.0747948065400141 2.0631277710199347 1.8321819379925712 1.7773307189345362 2.7501660659909253 2.2682426646351805 2.4179543629288665 3.2920349463820449 1.9319353476166727 1.1603458821773527 2.5165889561176304 2.4743206799030304 1.9020027443766592 1.2810397148132349 2.3389488458633441 1.4412920773029307 1.6474134698510159 1.8698241412639616 1.2625185996294019 2.4610301628708866 1.4697082713246401 1.1586990728974331 1.161534324288368 3.370348855853079 2.0930816531181335 1.6208287179470064 1.5400989055633543 2.7249131426215154 1.806609623134136 24.921291157603282 1.2843903079628942 6.5112144425511378 1.2072805315256117 1.3894501999020574 1.3219650387763966 1.2170506417751301 1.1588675305247305 2.0156058818101883 1.2111811190843584 2.0335856825113297 1.7764993906021107 1.2723869085311887 1.2223996892571452 1.2328079789876927 1.2905644550919531 1.3916234299540509 5.5072930008172989 21.217695698142052 1.5521232485771177 3.0849325209856033 1.1764731854200352 1.3156645148992536 2.4136812388896942 1.326719507575034 2.224104106426239 1.4045630991458891 1.5740864947438238 2.591635599732399
leaf_count=10 15 6 8 19 14 10 10 10 15 13 13 17 13 10 16 15 10 10 14 10 8 10 9 17 12 8 7 31 13 12 9 18 10 236 9 60 9 10 8 7 9 14 10 14 13 9 10 9 9 11 51 202 11 28 9 10 23 11 18 10 13 25
internal_value=0 0.145145 -0.145501 -0.179188 -0.0376355 0.00938325 0.0418575 0.085662 7.34763e-05 0.181584 -0.0688277 -0.0366341 0.0597446 -0.123521 -0.117862 -0.0140241 -0.0682385 0.187266 0.1522 0.115708 0.0416058 0.100856 0.158248 -0.193052 -0.151017 -0.182385 0.203112 -0.194424 -0.146132 -0.0536682 0.204714 0.212399 0.13493 -0.221379 -0.13919 0.22309 -0.177783 -0.238795 -0.241946 -0.230808 0.235554 0.261232 0.240324 -0.236886 -0.229556 -0.234388 0.233177 -0.228803 -0.233607 -0.228311 0.230559 0.228539 0.23557 0.233639 0.231325 -0.233365 -0.230346 -0.227834 -0.231417 0.238474 0.230155 0.229181
internal_weight=0 82.8511 82.5262 62.8865 19.6397 17.5317 15.4685 12.8823 7.49445 65.3195 17.9991 15.5811 7.12597 3.91051 8.45515 4.54912 3.83394 64.2082 32.4477 20.2017 10.9327 9.28533 7.4155 59.4589 23.9373 21.4762 9.26899 20.3175 10.077 4.92119 5.38789 12.246 3.58394 35.5217 3.65569 31.7605 2.82811 3.90604 10.2406 31.866 7.82769 3.84779 9.97771 8.9186 30.6489 5.15578 5.07655 28.8724 6.88502 27.6396 6.66616 30.4795 7.2528 5.70068 9.26177 2.3713 3.88339 26.248 5.59445 2.61574 8.0853 3.81404
internal_count=1280 646 634 518 116 103 93 78 45 543 108 95 40 25 55 29 23 537 243 153 76 68 58 499 183 166 77 158 78 34 33 90 20 316 29 294 21 26 80 287 67 24 77 72 280 44 44 267 58 258 60 284 59 48 82 20 35 247 49 20 73 35
is_linear=0
shrinkage=0.2


Tree=8
num_leaves=63
num_cat=0
split_feature=27 53 33 33 36 54 92 57 94 94 58 31 32 53 46 19 40 46 87 6 84 90 88 10 94 19 6 33 1 34 44 56 10 38 2 27 40 20 32 48 2 61 31 37 62 27 15 48 33 61 6 16 62 3 1 17 47 70 45 23 61 54
split_gain=66.3103 8.13507 6.45199 5.40083 4.04701 3.47304 3.27873 2.92715 2.85758 4.22333 2.7285 3.24057 3.48211 2.69867 2.36936 2.16602 2.16013 3.58223 2.57127 2.11898 2.06237 3.00217 2.02249 1.63787 1.52961 1.38875 1.37646 1.188 0.923559 0.585929 0.564078 0.560966 0.541121 0.395304 0.127777 0.0325321 0.0241552 0.0218496 0.0111079 0.0100569 0.00983879 0.00772185 0.00759188 0.00719283 0.00431652 0.00391792 0.00306033 0.00296986 0.00265626 0.00160464 0.00142058 0.00134252 0.00135301 0.0012471 0.00116943 0.000435154 0.000392108 0.000362996 0.000426096 0.000306882 0.000247569 0.000225244
threshold=0.56760372194228614 0.30369195990317388 0.9296832544121435 0.5080241587319746 0.92462587679134323 0.022527208768043174 0.76207193890120728 0.98178265317461977 0.55175083661546609 0.60696824588635956 0.78212541341781627 0.38530952597812568 0.081389436722565975 0.8368414552881126 0.34558902027432731 285.50000000000006 0.29046777727943168 0.074757314969898819 0.4324603081650556 479.50000000000006 0.54791549956742103 0.45329311906097475 0.30870237918389648 428.50000000000006 0.56110167767845731 760.00000000000011 430.50000000000006 0.91400162451606082 554.50000000000011 0.42155455058067015 0.99997312173104358 6.1585403092967245e-07 686.50000000000011 0.47136261461336276 651.00000000000011 0.63423677197049344 0.32653768757600243 0.69617364425352612 0.82228438236343049 0.6032390466576637 553.50000000000011 0.27359776495673133 0.22947871636157444 0.85428208299610431 0.84886250099164839 0.15421915465785083 615.50000000000011 0.077089406521622064 0.10097228805802765 0.95371793107173419 573.50000000000011 437.50000000000006 0.10776618793436597 676.50000000000011 498.50000000000006 557.50000000000011 0.24049811849332275 0.2038528770208359 0.11019415344908125 0.70567274510257516 0.99949817899477156 0.88431793526991698
decision_type=2 2 2 2 2 2 2 2 2 2 2 2 2 2 2 2 2 2 2 2 2 2 2 2 2 2 2 2 2 2 2 2 2 2 2 2 2 2 2 2 2 2 2 2 2 2 2 2 2 2 2 2 2 2 2 2 2 2 2 2 2 2
left_child=1 3 4 16 5 -2 7 10 14 13 11 12 -3 -10 19 -11 25 18 22 -7 21 -13 -18 -16 36 28 -4 39 31 42 35 -1 33 41 37 -28 -14 38 40 -17 -25 47 48 49 54 -43 55 53 -19 -39 -41 -49 56 57 -37 59 -53 -33 -59 -46 -51 -61
right_child=2 6 26 -5 -6 8 -8 -9 9 15 -12 20 24 -15 23 27 17 29 -20 -21 -22 -23 -24 34 -26 -27 30 -29 -30 -31 -32 32 -34 -35 -36 44 -38 43 -40 50 -42 45 -44 -45 46 -47 -48 51 -50 60 -52 52 -54 -55 -56 -57 -58 58 -60 61 -62 -63
leaf_value=-0.084491959969915126 -0.16825273714634936 0.099384049042343103 0.048049151089067821 0.095629253093828304 -0.25504817431655263 -0.13454866416478392 -0.24382800314731232 0.20434596256663379 0.054080987383967931 -0.057423230131220859 -0.2331432546204357 0.1215400127789301 -0.23589685881993799 -0.24986575214870432 0.035647913730095036 0.24852143696704054 -0.051911101866546031 -0.23829501856615312 -0.17672876794906089 0.18310730472966863 0.21190188098283025 -0.25308691837706976 0.2599574474734212 0.23536832449542572 -0.03185806554129203 -0.0097954923462224945 0.26269217204409284 0.0025228488539449931 -0.075221548574200242 -0.083071025630887765 0.079074032580115167 -0.22195980737325427 -0.061670796559644109 -0.10304295118914558 0.16980460101560876 0.22705282378154143 -0.26963927714485358 0.23139288686075457 0.26383804906448971 0.22422739526688923 0.25606271667655828 -0.22821936723842257 -0.24865320057538814 0.24524496167943588 0.22466076027705426 -0.2428621771907849 0.23181252860783197 -0.23227324363849103 -0.22590164116462763 0.22550436460557866 0.2322648423433317 -0.22257248875499658 -0.23077372394105589 -0.22841752385529662 0.23561658310353342 0.22528041055751161 -0.22654733725951576 -0.22666104776104887 -0.22198893319339416 0.22419155437173643 0.22107658763263657 0.22117927058498466
leaf_weight=1.3184197843074787 1.8345617800951028 2.8668391257524579 2.0054657086729994 3.0361825674772254 1.3488788977265347 1.7463649213314121 2.4101787060499182 2.5267779976129523 2.2011578828096372 1.8276294767856596 2.219881445169448 2.6497019156813617 2.317271932959557 2.4905344769358635 1.9459034502506245 1.3415328487753866 1.4721868559718116 1.3861693516373637 1.7078573629260061 1.618455223739147 3.4979183077812195 1.2637481838464735 1.9120679050683973 2.2672409266233431 2.0331751629710197 1.4980370923876751 0.84344835579395905 1.0872238501906393 2.0568005740642539 1.2231862768530843 1.1138926222920407 20.613222070038326 0.87393546104431052 1.1041780859231938 1.1288603395223606 1.5384941324591666 1.3389980718493459 2.0410856157541275 1.5495355203747747 1.792906239628792 1.5453009381890295 1.7842343971133225 1.8525623753666876 1.1665294915437696 1.1478628739714718 1.2381081059575079 1.2424381002783764 1.5982544496655453 1.3808517828583715 1.0901722162961962 1.7267711609601972 2.8783416152000427 1.5762090384960172 1.3949496597051609 1.0895352289080618 1.2580930367112149 1.5153414458036421 1.527639985084533 1.5971060097217558 1.0386847034096742 0.941186062991619 22.543811373412609
leaf_count=11 10 17 17 18 7 10 15 16 17 12 12 17 19 13 15 9 10 11 11 10 19 9 10 19 14 10 6 7 16 9 10 233 8 8 9 15 8 18 9 19 10 17 13 9 12 9 11 14 14 11 15 32 14 13 9 13 15 15 18 11 11 261
internal_value=0 -0.122986 0.147514 -0.163856 0.0841557 0.0987537 -0.0230491 0.00263924 0.115354 0.0425917 -0.0253837 0.0034998 -0.0803548 -0.107266 0.16859 0.133008 -0.178579 -0.0992882 0.0233314 0.0182417 0.100308 0.000563869 0.124291 0.205582 -0.170923 -0.198944 0.208755 0.191518 -0.205842 -0.206154 0.218884 -0.212727 -0.217212 -0.220903 0.233773 0.223957 -0.248254 0.240584 0.249559 0.233787 0.243756 -0.224546 -0.238744 0.231399 0.222863 -0.234218 0.222116 -0.223652 -0.23211 0.227432 0.228171 -0.227125 -0.225747 -0.222606 0.230603 0.221652 -0.223943 -0.222264 -0.224273 0.221467 0.223453 0.221312
internal_weight=0 79.6703 66.5136 56.5458 32.6918 31.343 23.1245 20.7143 29.5084 12.4678 18.1875 15.9677 8.55628 4.69169 17.0406 7.77606 53.5097 10.9349 5.09211 3.36482 7.41137 3.91345 3.38425 13.6758 5.68945 42.5748 33.8217 5.94843 41.0767 5.84277 31.8163 39.0199 37.7015 36.8276 11.7299 30.7024 3.65627 10.6011 5.36208 4.86121 3.81254 35.7234 4.61958 5.23897 29.8589 3.02234 27.2309 32.7011 2.76702 4.07244 3.51968 7.56815 5.96989 25.1329 2.62803 25.9885 4.39368 23.738 3.12475 24.7304 2.03136 23.5825
internal_count=1280 675 605 529 240 233 146 131 223 92 115 103 58 30 131 62 511 78 31 20 45 26 20 111 41 433 365 50 423 47 348 407 396 388 96 338 27 87 38 43 29 380 38 49 332 26 308 354 25 40 34 75 61 279 24 297 47 266 33 284 22 272
is_linear=0
shrinkage=0.2


Tree=9
num_leaves=63
num_cat=0
split_feature=27 61 54 59 62 92 3 42 71 90 89 7 8 0 55 1 82 54 88 82 16 48 16 4 49 68 73 78 64 54 4 34 14 0 56 23 69 17 54 13 53 31 33 73 33 87 53 92 64 19 40 64 18 15 54 4 67 33 6 32 38 41
split_gain=50.1748 8.24141 4.53611 3.57011 3.54797 3.44273 2.67327 2.31416 2.89637 2.64339 3.31828 2.23887 2.11401 3.46476 5.05773 1.99568 3.11531 2.29916 1.95117 2.90893 1.88241 1.76332 2.39451 1.55394 1.52493 1.19094 2.02776 1.05558 1.04105 0.955543 0.943844 0.871102 0.832251 1.44978 0.54381 0.363838 0.333122 0.30971 0.243559 0.235916 0.0315608 0.0202179 0.0185864 0.00958264 0.00918141 0.00714551 0.00594808 0.00409107 0.00394946 0.0038968 0.00371583 0.00198065 0.00187807 0.00178797 0.00155106 0.00120099 0.00105587 0.000925462 0.000923537 0.000893584 0.000658943 0.000960359
threshold=0.59451882725921101 0.1349555104738194 0.89635349959373278 0.14048832031466194 0.079037604022237098 0.76207193890120728 623.50000000000011 0.016161951764613967 0.50006312307218159 0.35791870135305887 0.25171786490083842 537.50000000000011 443.50000000000006 465.50000000000006 0.92700114846229564 497.50000000000006 0.62378042820353252 0.18210897612497171 0.49167311400929364 0.53454354556032835 453.50000000000006 0.16169725137925142 520.50000000000011 471.50000000000006 0.90817467169311417 0.50678828974816714 0.45406890994212379 0.47814196993389635 0.44715634369934165 0.20934163850245674 486.50000000000006 0.62077033099893886 491.50000000000006 504.50000000000006 6.1585403092967245e-07 0.3452114957980123 0.43935513220845479 539.50000000000011 0.7694685628426009 412.50000000000006 0.37257960729792822 0.21191085779769728 0.41056843341939503 0.52221075244835247 0.9296832544121435 0.52780599911205228 0.25593597577722382 0.52265442890442904 0.25316245099062673 613.50000000000011 0.3088972389104398 0.79425261029422589 446.50000000000006 560.50000000000011 0.99953016800045491 496.50000000000006 0.21657277643680575 0.93945886386323074 430.50000000000006 0.72903481207504639 0.16692007133697773 0.052992303402137626
decision_type=2 2 2 2 2 2 2 2 2 2 2 2 2 2 2 2 2 2 2 2 2 2 2 2 2 2 2 2 2 2 2 2 2 2 2 2 2 2 2 2 2 2 2 2 2 2 2 2 2 2 2 2 2 2 2 2 2 2 2 2 2 2
left_child=1 4 11 21 28 7 18 -5 9 10 -9 15 13 30 -15 16 17 -2 23 -20 -10 36 -23 -6 39 26 29 -19 32 -11 49 -14 34 -34 -1 42 41 40 45 -22 48 60 46 -29 47 -17 50 54 -25 57 55 -49 53 58 -33 -36 -48 -4 -46 -45 61 -3
right_child=2 3 12 5 6 -7 -8 8 20 25 -12 -13 31 14 -16 38 -18 27 19 -21 24 22 -24 37 -26 -27 -28 43 -30 -31 -32 44 33 -35 35 -37 -38 -39 -40 -41 -42 -43 -44 59 52 -47 56 51 -50 -51 -52 -53 -54 -55 -56 -57 -58 -59 -60 -61 -62 -63
leaf_value=-0.086753772329388038 -0.060952009122098416 -0.22095228255983185 0.22350447692455175 0.23636837624190413 0.027055123360667507 -0.21692145990857387 0.18299639243857291 -0.10493924507238067 -0.036499083517762036 -0.24535762463135224 0.29153288872079919 -0.12596277618114274 0.078151891509240304 -0.30174511369754237 0.21917069151204599 0.24522732769666736 -0.15194137340749955 0.041862572471035898 0.14846985898856532 -0.23354412651561446 0.17727578172574673 0.099914910866565371 -0.25316562663198533 -0.22032471673929666 0.007484324131695478 -0.26539729412428148 0.14043096252332557 0.24645191794487148 0.01799459977199112 -0.019396048085795044 0.032699873666872596 0.21948328520354521 0.11461900932792167 -0.22268468547217748 -0.2185788220944839 -0.11981808240815531 -0.10161691304852867 -0.10868452260475672 0.11974374755672859 0.27903844923071791 -0.26270221655840409 -0.25480852558103767 -0.25066896485155193 0.22964514474731157 0.22515683500820904 0.22581965586614641 -0.23458311418440847 0.23795151015586444 -0.23564197349995389 0.2329156256175908 -0.22886481838657247 0.2278831087252563 0.21740410483891784 0.23027935729411417 0.22953923470323559 -0.22648117165342946 -0.22570164493237541 0.217336571435085 0.21816742873527045 0.2215870295950253 -0.2185969190256789 -0.22912371592657932
leaf_weight=1.3643227517604888 2.3553512319922465 1.2424344122409845 1.6320566311478595 2.1931334361434045 1.2939871996641139 2.279365971684455 1.4979635477066029 1.7369536980986615 2.4782623425126067 1.9787038490176203 1.6432384923100469 2.2683889791369429 1.8373930230736757 1.7061307132244112 1.3242272883653639 1.3658480271697038 2.5243683457374573 1.6364492923021314 2.3024162724614148 1.2197067961096761 1.4578743875026705 2.2172116935253148 1.1756910681724546 1.529682517051697 1.5726021155714986 1.8674749508500097 1.2536742091178892 1.5407792925834658 0.88887192308902641 1.2041346058249471 1.3068064451217649 2.3648486509919198 0.88628067821264211 1.1996042504906652 21.340295404195803 1.4889710620045651 0.98275171220302571 0.86222437769174565 0.97556928545236576 2.4303925558924675 1.5627077668905256 1.0427924171090124 0.84050139039754768 1.1879184395074847 1.0501370355486899 1.707453556358814 1.1664502397179597 1.3731127679347994 1.2027932181954382 1.1741983741521833 1.5929203554987896 1.8140051811933515 15.62404754757881 0.85068366676568974 0.82848158478736866 0.79805535078048606 0.98974773287773121 2.4099086746573448 2.7015830427408218 1.0258057266473768 1.0022954717278478 1.0714188292622564
leaf_count=12 14 15 18 12 10 16 11 12 17 16 11 16 15 10 17 10 16 10 15 11 10 16 9 19 11 11 10 11 7 9 11 30 7 14 280 10 9 9 10 13 10 7 6 11 11 18 10 11 10 11 15 18 214 8 8 8 10 33 36 12 13 10
internal_value=0 -0.106241 0.145907 -0.0269392 -0.161773 0.0158513 -0.0661273 0.0426258 0.0185155 -0.0548968 0.0878008 0.0586466 0.184 0.1026 -0.0741116 0.0878909 0.0410119 0.103892 -0.103544 0.0161789 0.108064 -0.135186 -0.0224327 -0.168907 0.17367 -0.131411 -0.0750118 0.175913 -0.195474 -0.159872 0.184694 0.211339 -0.201466 -0.0793663 -0.210076 -0.216039 -0.206804 -0.218073 0.206808 0.240883 -0.240032 -0.230519 -0.221399 0.234341 0.220537 0.234445 -0.220449 0.227152 -0.227067 0.222773 -0.219535 0.232221 0.21845 0.222001 0.222092 -0.218864 -0.230506 0.219827 0.220124 0.225911 -0.222881 -0.224736
internal_weight=0 74.8579 54.5856 30.8304 44.0275 22.0958 11.4715 19.8164 17.6233 9.68418 3.38019 16.5879 37.9976 9.55333 3.03036 14.3195 10.2707 7.7463 9.97352 3.52212 7.93913 8.7346 3.3929 6.4514 5.46087 6.30399 4.43651 5.39095 32.556 3.18284 6.52297 28.4443 31.6671 2.08588 29.5813 28.2169 5.34169 5.15741 4.04887 3.88827 4.29518 4.35894 26.728 3.7545 26.6069 3.0733 25.8875 6.38045 2.73248 5.21616 23.7313 3.18712 20.2265 4.6024 3.19333 22.1384 2.1562 4.04197 3.75172 2.21372 3.31615 2.31385
internal_count=1280 701 579 227 474 148 95 132 120 69 23 128 451 100 27 112 74 58 84 26 51 79 25 58 34 46 35 44 379 25 73 351 372 21 351 339 54 48 38 23 39 45 329 34 336 28 323 67 29 62 303 29 269 55 38 288 20 51 47 23 38 25
is_linear=0
shrinkage=0.2


Tree=10
num_leaves=63
num_cat=0
split_feature=40 57 64 54 59 3 19 61 64 65 9 13 57 68 69 53 53 15 71 23 82 9 34 70 41 52 42 53 38 68 56 38 32 38 21 56 23 16 16 47 42 94 43 34 64 20 18 53 23 38 46 3 32 80 75 40 15 43 62 12 84 6
split_gain=38.5262 6.58631 4.85133 3.10905 2.91004 2.56805 2.46666 2.1333 2.2711 2.0357 2.02618 2.23712 2.04304 2.16224 1.75038 2.24757 2.33217 2.10952 2.02867 1.97257 1.74856 3.03059 1.50336 1.41122 1.39045 1.33294 1.22913 1.10774 0.992958 2.77241 1.33745 0.846872 0.805249 0.995732 0.338447 0.319064 0.253001 0.23543 0.191632 0.142362 0.0652136 0.00929896 0.00905661 0.00732546 0.00666788 0.00446792 0.00378333 0.00357303 0.00326577 0.00320859 0.00263626 0.00191762 0.00145732 0.00144733 0.00126153 0.00095153 0.000785667 0.000765641 0.000718428 0.000535401 0.000531309 0.000510465
threshold=0.36087976817227946 0.99025401987611017 0.27859658932756043 0.021257092274333412 0.98680484025789217 374.50000000000006 760.00000000000011 0.26440322739767147 0.080064692422741487 0.3140292727103498 395.50000000000006 556.50000000000011 0.18910491677858976 0.39954127529749078 0.96707307815932653 0.88806843509556888 0.92004621801582831 623.50000000000011 0.49645568191586048 0.35985496549283652 0.64005467663511439 515.50000000000011 0.56764101030868119 0.57233110070228588 0.48006029931765465 0.93016615509986889 0.33765882065875058 0.70223461004389554 0.067105951089586877 0.33012477313386518 9.6538661488909021e-06 0.60773614159964651 0.29578614538411413 0.80974316599496909 0.88905285950057633 0.7041024434081059 0.3452114957980123 534.50000000000011 590.50000000000011 0.067527653654338479 0.35521047423205149 0.44579291443160723 0.13799321907787371 0.40077607014074418 0.72918952039906004 0.75729801234266814 548.50000000000011 0.25593597577722382 0.69075907434914019 0.71906109631477422 0.0075979801759882741 684.50000000000011 0.10502401354016337 0.70966629317111873 0.53444026421410717 0.32296903295540341 615.50000000000011 0.103930823033862 0.96605567838307238 569.50000000000011 0.69892671446463084 428.50000000000006
decision_type=2 2 2 2 2 2 2 2 2 2 2 2 2 2 2 2 2 2 2 2 2 2 2 2 2 2 2 2 2 2 2 2 2 2 2 2 2 2 2 2 2 2 2 2 2 2 2 2 2 2 2 2 2 2 2 2 2 2 2 2 2 2
left_child=2 3 4 27 6 -4 7 28 9 -9 11 24 39 26 15 17 -17 19 -18 -5 34 25 37 -3 -7 -22 -14 -2 29 30 -1 -19 -21 38 49 -25 43 -15 40 -12 -34 -42 -10 47 -41 58 -27 51 -16 -20 -32 55 -49 54 -43 57 59 -30 -37 61 -50 -47
right_child=1 23 5 14 -6 10 -8 8 42 -11 12 -13 13 22 48 16 18 31 20 32 21 -23 -24 35 -26 46 -28 -29 36 -31 50 -33 33 -35 -36 45 -38 -39 -40 44 41 53 -44 -45 -46 56 -48 52 60 -51 -52 -53 -54 -55 -56 -57 -58 -59 -60 -61 -62 -63
leaf_value=0.0099965172770317846 -0.24225033781588956 0.026586045835246347 0.17666802882158941 -0.037585318641177722 0.21490171908538921 0.23031866630770714 0.17352829509744416 -0.092165820567522483 -0.21825747264094675 0.21890720097009886 -0.15119238065149196 -0.22471263608894546 -0.023544887136985243 -0.26874065859682666 0.23206361960884353 -0.18213427625344736 -0.11922372039235703 0.073755200083998537 0.23367685144984512 0.049188600504377789 -0.044349576620316779 -0.29548537975276323 0.020664270746536654 0.1032213670636784 -0.014323150593675019 0.23443668634264325 0.24397760322401083 0.0049136240178257106 -0.21479013866898683 0.24264157686933682 -0.21531665757998378 -0.13981365690771039 0.27541167302444391 0.06256033535304803 0.07843536605120488 0.22895382528729 -0.10989882731709946 -0.14701313959109827 0.15798569602176124 -0.22862089593336374 0.24274911933551505 0.22698534425135539 -0.24593332401773826 -0.23233817467016343 -0.24711692227402726 0.21952908356669409 0.2148551439104267 -0.22957876069144367 0.22077194051333604 0.21916272766246842 -0.22605122628856689 -0.22342373986436731 -0.21891640241636556 0.2300291141725842 0.21799175080543309 -0.22246258932758511 0.22178923747742424 -0.2185159816121213 0.22097921549521465 0.2176919178273948 0.21454664743022908 0.2142232978521712
leaf_weight=1.2973448894917989 1.7002343796193593 1.8077474012970949 2.0727250874042538 2.0665642432868543 0.81682521849870582 2.0575077384710343 0.83329368382692237 1.9982182085514062 0.87450506165623654 1.4536519721150396 1.0391499437391738 0.94336611032485951 1.5130311623215678 1.6292955204844477 0.75542840361595098 2.3535009436309329 2.4291696064174157 1.3629828989505761 1.7589477375149734 1.7494243159890164 1.3306550160050399 1.0250352770090101 1.6697029918432233 1.0532461106777216 1.6947364062070844 0.92372136563062646 1.2582675144076345 1.2649354860186575 15.065581604838391 0.72275788709521283 3.7917948737740517 1.6318815760314462 1.5893137007951716 1.8202206157147873 0.77211178094148625 1.0431381165981317 0.90175703912973304 1.0419955551624296 1.371304780244827 1.8546779155731203 1.4431883692741392 0.9959227070212372 1.0300313085317609 1.3210220225155342 1.3450334891676901 0.76280445232988014 0.68910948559641838 1.164847940206527 0.88752451166510615 0.93209709227085102 1.2062374912202356 1.358775921165942 0.91594105213880528 1.0804275870323179 1.6699727103114126 0.782579205930232 0.69050444662570853 2.5846416093409053 0.79724097624421109 2.4034684039652339 1.4351375810801981 14.757815871387718
leaf_count=11 14 16 12 16 5 12 6 17 12 8 11 10 11 11 7 17 18 11 16 12 10 6 12 13 11 9 10 8 239 6 59 10 9 17 9 10 7 10 14 18 11 10 8 13 9 10 11 11 11 12 14 15 12 10 23 9 8 35 10 34 23 241
internal_value=0 0.113938 -0.118032 0.0591272 -0.15853 -0.032831 -0.166707 -0.174481 -0.0579005 0.0388333 -0.0598915 0.0506052 -0.1056 -0.0400963 0.0772414 0.0620185 -0.00324902 0.109524 0.0394457 0.142574 0.0913095 0.000684378 -0.128206 0.196306 0.119824 0.103822 0.0979198 -0.136811 -0.194551 -0.128349 -0.170941 -0.042617 0.174342 0.196302 0.195159 0.210571 -0.213834 -0.221258 0.226171 -0.215508 0.239965 0.229109 -0.233225 -0.217875 -0.236396 0.216099 0.22607 -0.217002 0.220641 0.22865 -0.217907 -0.216173 -0.224885 0.223854 0.221352 -0.215638 0.215169 -0.215336 0.225499 0.214914 0.216925 0.214484
internal_weight=0 58.3548 56.2393 35.0388 38.1198 18.1195 37.303 36.4697 5.35641 3.45187 16.0468 4.69561 11.3512 7.11229 32.0736 28.9956 12.2143 16.7812 9.86085 13.7863 7.43168 3.96852 4.34099 23.316 3.75224 2.94349 2.7713 2.96517 31.1133 7.01814 6.29538 2.99486 11.7198 9.97035 3.46316 21.5082 24.0951 2.67129 8.15013 4.23886 6.77883 5.18951 1.90454 23.1934 3.19971 20.455 1.61283 21.8724 3.07809 2.69104 4.99803 19.7916 2.08079 3.74632 2.6659 18.4328 18.6146 17.6502 1.84038 17.9241 2.32266 15.5206
internal_count=1280 656 624 314 487 137 482 476 45 25 125 33 92 54 292 251 108 143 91 122 73 36 33 342 23 30 21 22 431 90 84 21 106 94 37 326 341 21 77 38 63 54 20 334 27 313 20 321 41 28 73 298 23 43 33 283 293 274 20 285 34 251
is_linear=0
shrinkage=0.2


Tree=11
num_leaves=63
num_cat=0
split_feature=31 65 20 15 79 85 7 60 33 31 57 54 27 5 2 66 57 53 3 83 16 78 80 56 63 13 68 43 37 90 3 78 42 41 71 42 16 36 51 20 8 34 20 40 23 40 40 42 44 18 33 57 64 23 85 76 64 43 10 59 73 71
split_gain=29.587 5.4781 5.15226 3.71848 2.97077 2.64813 2.3511 2.28161 2.32917 2.31866 2.13736 2.07266 2.02837 1.99233 1.92556 1.86331 1.84235 1.82421 1.7838 3.75188 1.50659 1.34121 1.25515 1.08254 1.04379 0.984478 0.86305 1.83433 0.849356 1.79998 1.77542 0.742483 1.43573 0.642287 1.82157 0.551737 0.472579 0.292121 0.180617 0.107502 0.0399778 0.023874 0.0108784 0.00747773 0.00694281 0.00656842 0.00610701 0.00575095 0.00462267 0.0041696 0.00375809 0.00307926 0.00269972 0.00190201 0.00169001 0.0014545 0.000945134 0.00088391 0.000659313 0.000512403 0.000501063 0.000443749
threshold=0.49947617035438135 0.23005082479000918 0.8017189800924025 656.50000000000011 0.63555076986486692 0.72319176528919493 528.50000000000011 0.87561771273612987 0.63319874488374794 0.57052253218423654 0.060617757663810966 0.20934163850245674 0.56760372194228614 660.50000000000011 532.50000000000011 0.73412844538688671 0.36874727148709868 0.64960272110448603 688.50000000000011 0.23800974417660972 634.50000000000011 0.64087758767468739 0.63206188034362654 0.5233039404804426 0.38146577775478369 699.00000000000011 0.481518378378262 0.098883659289293338 0.15877652382020763 0.2956498101451564 465.50000000000006 0.48111916824677675 0.96961316787574614 0.22315025919723538 0.44153215917855509 0.33765882065875058 647.50000000000011 0.14266568581470709 0.25429967045784002 0.52491378244710685 476.50000000000006 0.52707167691596502 0.59683007474789151 0.35847864046785388 0.34734677982122225 0.31026632200627469 0.33172835125978756 0.99730673724636409 0.066225688698543131 386.50000000000006 0.9296832544121435 0.97890800749553131 0.30109992940242669 0.65918530734500991 0.45764204528882596 0.30653602715183498 0.062865116187751674 0.97305206369529273 507.50000000000006 0.29461371158431088 0.62054750981574081 0.69645390172212729
decision_type=2 2 2 2 2 2 2 2 2 2 2 2 2 2 2 2 2 2 2 2 2 2 2 2 2 2 2 2 2 2 2 2 2 2 2 2 2 2 2 2 2 2 2 2 2 2 2 2 2 2 2 2 2 2 2 2 2 2 2 2 2 2
left_child=1 17 4 6 7 22 10 8 9 -2 23 -11 -7 25 16 -13 24 18 20 -20 28 31 -6 45 -12 36 27 -18 48 30 -30 32 40 34 38 43 50 -32 46 -33 -10 44 -41 55 52 -3 -31 -14 54 -50 51 -4 59 -44 -1 -8 58 60 -51 -35 -55 -52
right_child=2 3 13 -5 5 12 35 -9 21 11 14 15 47 -15 -16 -17 26 -19 19 -21 -22 -23 -24 -25 -26 -27 -28 -29 29 33 37 39 -34 41 -36 -37 -38 -39 -40 42 -42 -43 53 -45 -46 -47 -48 -49 49 56 61 -53 -54 57 -56 -57 -58 -59 -60 -61 -62 -63
leaf_value=-0.21213535552569771 0.19130870060062799 -0.21703996005369458 0.2285333330740815 0.2432070333519438 -0.052791068704405288 -0.11179584909622015 -0.22603286862975006 -0.10162478082826094 0.23475629042135615 -0.20835777282480353 -0.021167710696383762 0.17747750258617967 0.21877976578970301 -0.13215155705398146 0.20077362674295862 -0.15113310197551202 -0.17421040198430093 0.061905946465076411 -0.22102955797780741 0.31725728244820967 0.0067794393604285116 0.0044589284445003662 -0.27786169478463912 0.034726563939608907 0.22225747746832739 -0.042451297625338315 -0.232057539559864 0.20571213950843689 0.15330919313347846 -0.21427125394585206 -0.21981683337082175 0.30048579011340443 -0.10399235659112221 -0.21458178004756828 0.046329082960705023 -0.060843126940513997 0.027836503952246069 -0.03829522587992798 -0.10101349147549893 0.24074204431820267 0.17315451333349727 -0.26012385438205371 0.22742901425057072 -0.24245010750647716 -0.23857771413868939 -0.24069749730229179 -0.23498099270097308 0.2424416963418469 -0.23114975658481704 -0.21856119789687725 0.21385593611015052 0.21451082486383313 -0.22686085813798568 0.21739926251531899 -0.22183461167284541 -0.2137487227799203 -0.22223591770020842 0.21414082684979061 -0.21186442006842438 -0.22078006759867802 0.22293741176790161 0.21161043863391829
leaf_weight=9.5478662922978437 2.3431782275438406 1.4032559581100974 1.1035818010568754 2.0178895704448214 2.0050589814782138 1.1944072693586352 0.9709334075450895 2.14703270420432 1.0948047302663311 1.9846957996487615 1.3013441190123543 1.8640713691711428 0.99026937410235383 0.74967492371797462 2.418644905090332 1.0960479639470575 1.3176905289292342 1.5701595991849888 1.1560643911361688 0.93833913654088963 1.809072759002446 1.6432623639702786 1.959857292473316 0.92328680306673039 1.5365566089749334 0.64861790835857291 1.3436801470816133 0.82759867981076229 1.4199133515357965 3.1523819752037512 1.0086189955472944 0.82472765445709217 0.85736262053251255 2.0405882522463803 1.6081115305423734 1.0775595381855962 0.5652083270251741 0.54691098630428303 0.61168237403035153 1.2278560474514959 0.68509703874588002 0.81963232159614552 1.05030757561326 1.1171108633279798 0.97760677337646473 0.70543758571147908 0.69515837728977192 0.70221661031246185 1.1162501871585835 1.0699367634952075 5.1466628387570408 1.4487048126757143 1.4491061642765997 1.312760975211859 0.77705877274274904 0.63949033617973328 0.98997898772358883 1.5605350211262701 1.305690564215183 0.72234129905700672 1.3011553660035131 11.139432162046431
leaf_count=181 17 21 11 14 14 8 11 18 10 16 11 19 14 6 18 9 14 13 14 6 18 14 11 6 11 8 10 9 14 54 14 5 7 34 16 9 7 8 8 11 10 5 11 8 8 6 6 7 11 15 90 24 15 19 10 11 12 26 25 9 15 218
internal_value=0 -0.103413 0.112657 -0.0122523 0.0563992 -0.0579483 -0.0453333 0.0937208 0.115976 0.0274321 -0.00117611 -0.0502234 0.0877648 0.187962 0.0489903 0.0558023 -0.00903364 -0.148823 -0.158624 0.0201349 -0.170446 0.171808 -0.164043 -0.145877 0.110633 0.19993 -0.106369 -0.0276458 -0.181184 -0.147728 -0.00839194 0.199545 0.108628 -0.182058 -0.136155 -0.182008 0.208032 -0.155995 -0.201964 0.232493 0.211045 -0.228403 0.223802 -0.229877 -0.223393 -0.224954 -0.218013 0.228597 -0.215194 -0.220557 0.213438 0.220574 -0.219869 0.219821 -0.212865 -0.221155 -0.217044 0.217907 -0.214881 -0.216202 0.220156 0.21232
internal_weight=0 52.9329 48.6466 17.6005 27.8447 6.85181 15.5826 20.9929 18.8459 7.28799 11.7775 4.94482 2.88689 20.8019 8.74551 2.96012 6.32687 35.3325 33.7623 2.0944 31.6679 11.5579 3.96492 3.03198 2.8379 20.0522 3.48897 2.14529 29.8588 15.0521 2.97544 9.91461 2.63726 12.0766 6.06733 3.80509 19.4036 1.55553 4.45922 7.27734 1.7799 6.00927 6.45261 2.72753 5.18964 2.10869 3.84754 1.69249 14.8068 4.48186 18.8384 2.55229 4.21204 5.22476 10.3249 1.61042 3.36561 4.17445 2.37563 2.76293 2.61392 16.2861
internal_count=1280 655 625 159 261 54 145 207 189 61 106 44 29 364 73 28 55 496 483 20 463 128 25 33 22 358 33 23 445 191 36 114 27 155 84 39 350 22 68 87 20 71 82 30 66 27 60 21 254 63 343 35 58 71 191 22 52 60 40 43 34 308
is_linear=0
shrinkage=0.2


Tree=12
num_leaves=63
num_cat=0
split_feature=27 20 57 94 73 77 42 61 31 6 66 17 73 72 61 27 86 6 94 89 85 86 48 41 16 16 2 56 65 83 90 51 68 23 16 56 84 84 56 40 69 16 85 7 54 3 56 31 15 79 5 34 44 19 6 33 92 60 23 69 69 21
split_gain=22.849 4.62398 3.4053 2.14253 2.33791 2.45226 2.03811 2.39727 2.20463 1.85979 1.37906 2.2498 1.73329 1.35062 2.44639 2.00661 1.25424 1.21092 1.81864 1.17312 1.10841 1.3105 1.14002 1.06082 1.02089 1.18121 0.97649 0.913701 0.815026 0.710594 0.681189 0.674322 0.581716 0.410269 0.3558 0.247606 0.161985 0.135064 0.0132661 0.00536952 0.00261535 0.00215215 0.00171131 0.0016293 0.00160924 0.000964224 0.00105972 0.000920457 0.000876293 0.000768956 0.000661427 0.000540357 0.000343018 0.000375303 0.000292454 0.00029154 0.000278727 0.000213142 0.000202855 0.000177112 0.000176674 0.000170653
threshold=0.59451882725921101 0.19408878605935059 0.99025401987611017 0.31541883604974752 0.49741469638870656 0.44910796356631805 0.0011213516067466731 0.22261133528349034 0.50895930791180433 399.50000000000006 0.89764201641082775 444.50000000000006 0.68622961781000824 0.6037914748391574 0.96947200180179893 0.83015828072889375 0.72266834694847015 541.50000000000011 0.43563014118849813 0.42370395704516045 0.53713351107993812 0.45356777780082214 0.27269644869835435 0.49917738392375138 634.50000000000011 385.50000000000006 426.50000000000006 0.51085894717664393 2.7721964936699806e-09 0.46939010809134951 0.40314344898221083 0.32673723995685583 0.27491787360802128 0.32347342222628522 553.50000000000011 0.67260542865288864 0.44179532110529235 0.6208323559583494 0.26088984198047238 0.59963414117331959 0.19890231264127542 483.00000000000006 0.52046546702964036 565.50000000000011 0.88431793526991698 695.50000000000011 0.29355039911563879 0.25765909378261775 573.50000000000011 0.62002163081983686 652.50000000000011 0.41470238348903127 0.040354968092851405 680.50000000000011 429.50000000000006 0.93945886386323074 0.52265442890442904 0.76202943921089183 0.22196482727597869 0.14592009129214653 0.89059854475148981 0.069117854354319122
decision_type=2 2 2 2 2 2 2 2 2 2 2 2 2 2 2 2 2 2 2 2 2 2 2 2 2 2 2 2 2 2 2 2 2 2 2 2 2 2 2 2 2 2 2 2 2 2 2 2 2 2 2 2 2 2 2 2 2 2 2 2 2 2
left_child=1 9 3 -2 5 27 30 8 23 -1 11 34 17 29 15 26 41 18 31 -4 21 22 -20 32 25 -11 -15 -5 -27 -6 -3 -13 -8 43 -9 -21 -23 39 -31 40 51 -17 -40 45 -37 46 52 -42 60 56 54 58 -30 59 -46 -56 57 -44 -34 -54 -16 -61
right_child=2 6 19 4 13 -7 7 10 -10 24 -12 12 -14 14 48 16 -18 -19 20 35 -22 36 -24 -25 -26 28 -28 -29 33 38 -32 -33 37 -35 -36 44 -38 -39 42 -41 47 -43 49 -45 50 -47 -48 -49 -50 -51 -52 -53 53 -55 55 -57 -58 -59 -60 61 -62 -63
leaf_value=0.20369271940251693 -0.17842206600456942 0.2235480026739014 0.0002323220406762043 0.21015024934408977 0.04645421192683083 -0.20812528776247993 -0.036062113703867256 -0.24496266138952436 0.050951182661926775 -0.013024462543698441 0.19708623786030185 0.22670959234243646 -0.1495430969544122 -0.23246037512968015 0.21369365702627344 0.22839958148333719 -0.11035997714100035 0.19084161790080878 -0.13018951645422874 0.10962590373464663 0.13325475680392213 -0.13735780196245367 0.1428084529941302 -0.018249724552217066 0.016891219553442176 -0.016836357943947621 -0.0027698801585572287 -0.024729320195734629 -0.20972610742896083 0.24363528124202546 0.027694648451990978 0.047483916592969577 -0.21088591382030383 -0.013497426932016034 -0.10767955465273012 0.21828101967876423 -0.24640215292422318 -0.12644013429456111 0.22499169068078337 -0.23492458456998172 -0.21752227303354099 0.21381761001351915 0.21286667527184244 -0.21946002533090231 0.21371082837464384 -0.21897140887956909 -0.21818047405787586 -0.22499228866746052 0.21998581061594238 0.22182273267073704 0.21763280074939328 -0.21927036304062672 -0.21056622386614487 -0.21679046047334527 0.21201391763903366 0.2093736403359138 0.21129844839150225 0.21754173786506492 -0.2145994384152824 -0.21537993752448359 0.21015437906591294 -0.21114728623943077
leaf_weight=0.5483789779245879 1.3354623727500463 1.3976009674370282 1.2205638401210332 1.2490842565894156 1.1049459576606739 1.9864062890410421 0.84771755710244345 1.5262819938361709 2.3929240368306628 1.5383558236062587 1.2450481355190266 1.6028814800083622 2.1613649427890769 1.5320347622036918 0.9101237282156952 0.86983712017536186 0.63206895440816868 1.9161900989711274 1.2087863422930243 1.0345342978835095 1.054518327116966 0.90647394582629237 1.2390409633517263 1.6773205548524845 1.1065756119787682 0.95813376456499355 1.4327233694493768 1.4106557257473467 7.1036994382739014 1.0013131089508531 1.4445272982120512 1.763614412397146 1.5067300572991378 0.42784255743026811 1.4946369528770445 1.1176938079297531 1.3661599643528459 0.68355825915932644 1.0626129172742365 0.82387351989746083 1.0773303210735323 0.75735698640346527 0.64541514590382643 1.0919491238892085 0.83322427421807965 0.65116564929485399 0.79633839428424913 1.7025282122194765 0.61094262450933445 0.65592416375875462 0.48314820975065309 0.54941061884164799 3.9098513349890709 0.54390906170010556 2.0245141163468352 9.6307647451758367 0.89397305995225895 0.98602071404457092 0.96540447324514378 0.70817794650793053 1.4841329753398893 0.82477400079369545
leaf_count=4 10 8 14 11 10 13 8 13 18 19 10 11 17 9 16 10 7 15 13 15 10 12 11 17 12 14 14 14 164 9 12 18 32 4 15 17 12 9 12 7 16 13 12 16 15 9 12 19 9 8 7 7 85 8 40 229 18 14 16 11 33 17
internal_value=0 -0.0844473 0.120704 0.0665379 0.0835535 -0.0399924 -0.037798 -0.0532754 -0.121211 -0.159592 -0.00576956 -0.0213217 0.0142644 0.122925 0.0694512 -0.0132569 0.128737 0.0462827 0.015981 0.188843 -0.0521287 -0.0935421 0.00799657 -0.163105 -0.169725 -0.180855 -0.121462 0.0855763 -0.196028 0.192221 0.124004 0.132818 -0.192893 -0.20672 -0.17704 0.204065 -0.202908 -0.211083 0.222928 -0.219816 -0.21767 0.221613 0.218043 -0.212009 0.210999 -0.21145 -0.211097 -0.222097 0.213225 0.215722 0.210372 -0.213597 -0.210666 -0.211781 0.210091 0.209832 0.214137 0.215692 -0.212336 -0.211281 0.2115 -0.213103
internal_weight=0 52.7631 36.9055 20.561 19.2256 4.64615 32.5539 29.7118 12.2268 20.2092 17.485 16.2399 13.219 14.5794 8.22922 5.22402 2.25926 11.0577 9.14148 16.3444 5.77498 4.72046 2.44783 9.83387 19.6608 18.5542 2.96476 2.65974 17.0158 6.35021 2.84213 3.3665 8.15655 16.0577 3.02092 15.1239 2.27263 7.30884 5.24526 6.62528 5.8014 1.62719 4.24395 15.6299 14.0893 14.5379 13.8868 2.77986 3.0052 3.18133 12.9717 3.02155 13.0904 5.98671 12.4885 11.6553 2.52541 1.63144 2.47213 5.4428 2.39426 1.53295
internal_count=1280 701 579 242 232 38 326 306 149 375 157 147 119 194 111 53 30 102 87 337 58 48 24 131 371 359 23 25 340 83 20 29 114 326 28 323 24 106 73 97 90 23 64 322 308 306 297 35 58 52 291 55 285 121 284 269 44 26 48 113 49 28
is_linear=0
shrinkage=0.2


Tree=13
num_leaves=63
num_cat=0
split_feature=27 62 33 61 73 83 51 31 60 53 81 8 51 51 54 43 5 52 48 41 59 67 39 84 40 61 64 65 45 50 10 13 36 90 17 57 5 5 8 30 40 54 75 65 23 23 56 32 61 53 83 48 20 20 3 39 54 33 16 69 64 69
split_gain=17.3271 3.81735 3.04609 2.33144 1.98543 1.83331 2.1887 2.73643 1.95393 1.70854 1.54385 1.50568 1.61285 1.93787 1.38765 1.3365 2.37705 1.27867 1.26585 2.26782 1.21129 1.75884 1.13414 1.11358 1.35914 1.48107 1.05111 0.984792 0.962214 2.0072 0.936914 0.919885 0.82032 0.669307 0.599041 0.574786 0.522396 0.448479 0.431545 0.189745 0.0180969 0.00936226 0.00661951 0.00645983 0.00587099 0.00355316 0.00127983 0.00105843 0.00103113 0.000972802 0.000876755 0.000595858 0.000583065 0.000571027 0.000558322 0.000459791 0.000401774 0.000383043 0.000250946 0.00024649 0.000202274 0.00019482
threshold=0.59451882725921101 0.079037604022237098 0.94307715875936349 0.1349555104738194 0.3291262882866634 0.20455509103178934 0.060618154704570777 0.38530952597812568 0.76202943921089183 0.98132235757900454 0.17238905622334796 526.50000000000011 0.92397671937942516 0.62670549750328075 0.93512576506154377 0.87857407928159936 489.50000000000006 0.92302697896957409 0.89985645693223992 0.76739289753399009 0.66703735684093857 0.79078334569931041 0.2719787867567402 0.58190355284601003 0.33830384365038818 0.73930499268259464 0.5325415180657368 4.5956225891416539e-10 0.39935414493501081 0.090965782816129229 587.50000000000011 699.00000000000011 0.54676054071808078 0.24209813932389773 540.50000000000011 0.60138718103100353 577.50000000000011 581.50000000000011 572.50000000000011 0.41173957544445033 0.63915404414150279 0.48407161964987128 0.38829587611185429 0.69041801637142386 0.39516690926791859 0.68770554697190567 4.3958380444320663e-06 0.72903481207504639 0.25918834274439034 0.25593597577722382 0.50502494300831235 0.061601085071024353 0.260770480646078 0.79761314634181968 693.50000000000011 0.44434212759511965 0.83405474390111556 0.29316453313588609 634.50000000000011 0.95282348271887851 0.22154332324003603 0.90182187990711493
decision_type=2 2 2 2 2 2 2 2 2 2 2 2 2 2 2 2 2 2 2 2 2 2 2 2 2 2 2 2 2 2 2 2 2 2 2 2 2 2 2 2 2 2 2 2 2 2 2 2 2 2 2 2 2 2 2 2 2 2 2 2 2 2
left_child=1 3 11 26 10 33 -7 22 14 -10 -5 12 13 15 23 16 -2 -14 19 50 -21 -22 -8 24 25 -9 27 -1 38 -30 39 35 34 -3 40 -4 -12 42 44 43 48 51 -13 52 46 -20 -29 -44 55 54 -15 -35 -6 -37 57 -24 -47 58 60 -58 -48 -49
right_child=2 5 31 4 30 6 7 8 9 -11 36 37 17 18 -16 -17 -18 -19 45 20 21 -23 32 -25 -26 -27 -28 28 29 -31 -32 -33 -34 41 -36 53 -38 -39 -40 -41 -42 -43 47 -45 -46 56 49 61 -50 -51 -52 -53 -54 -55 -56 -57 59 -59 -60 -61 -62 -63
leaf_value=0.054093962383642072 0.20543178481308222 0.04164282369829133 -0.001828297012686074 -0.12970599421713361 -0.21136396289892284 0.19147955553890761 0.066773480862481929 -0.17913132996496825 -0.20522893064550624 0.10361031759652679 0.074403152121261432 0.23706639346150654 -0.21257497635491471 0.2212948367823776 -0.050532660210706654 -0.22228767573522346 -0.10803878079560184 0.061625201469855631 0.22846739086595769 -0.26792782125749731 0.21341903946287821 -0.1850032558116968 -0.21177047672886676 0.25481467731567692 0.20761164097860224 0.15389816550274438 0.1116618199221811 -0.21737775171527091 0.18449471296724729 -0.22120626649783312 0.040833094095566513 -0.05991456957394236 0.037960201794905474 -0.20926070397033281 -0.0090735568912987587 0.21282192537492459 0.2607055212358253 0.044743230713937772 -0.0074262883963574005 -0.11288395396591888 -0.25183209704935483 -0.24203392092611173 0.22135306763471144 -0.23852638653882186 -0.23208930299314276 0.21739631424888362 -0.20836351006704268 0.21432925418210558 -0.22106077524101597 -0.21542518944006175 0.21285743793709014 -0.21737115588617126 -0.22001219596008031 0.20818198165454721 -0.21514777205622748 -0.21838293079043117 0.21339982031366717 -0.21523726420731917 -0.21361597423628684 0.20912563242971013 -0.21306680782907647 0.20894000060861742
leaf_weight=0.70459112897516263 1.6742824241519039 0.46820735931396784 0.54282762110233029 1.0297731459140771 0.7310669068247091 2.2132632359862354 1.0279574468731905 1.1940863989293564 2.0066972300410266 1.1144145987927911 1.2692057974636557 0.83404929190874089 1.6610252521932118 0.85169714316725587 2.0595047287642956 1.1299257352948187 2.2925557903945446 1.1521259434521196 0.73611043579876456 0.81603632122278247 0.94396596401929833 0.83544695377349854 1.5083522778004419 2.1568587720394135 1.7330138646066187 0.96651821583509434 0.51778910309076209 0.96662095934152503 0.8152663111686701 1.2144192568957803 0.93066299147903908 0.57247174531221467 0.70396915450692166 0.69529261067509673 0.60687113180756558 1.1783196367323387 1.1453011967241762 0.72437090799212445 0.42844732850790102 0.89146200194954861 0.69457591325044621 0.67235173285007466 0.74226291850209225 0.74182249605655659 0.51620364189148027 0.61503581702709231 9.822675332427016 0.51714774593710877 1.1544025391340254 1.1320385914295901 1.1685044318437574 0.75664738565683365 0.54377931356430054 10.650306943804024 0.61483413353562433 0.58328080549836148 1.2960310839116576 0.37490175664424974 0.40482518449425775 0.92481884919106949 0.37990485876798707 0.55761424824595451
leaf_count=9 18 6 7 16 16 16 9 15 17 10 15 7 11 11 17 8 19 18 8 5 18 6 31 16 18 8 5 15 7 18 9 7 7 17 8 23 7 9 6 8 5 5 9 6 5 9 265 9 14 19 23 11 7 293 10 8 24 6 7 23 7 14
internal_value=0 -0.0769248 0.112743 -0.13031 -0.0349141 -0.0166993 0.00408335 -0.0196028 0.0395153 -0.0949557 0.0753282 0.0627593 0.037293 0.0664252 0.0912663 -0.0303924 0.0242677 -0.100276 0.126694 0.0575135 -0.0661693 0.026357 -0.125339 0.139533 0.0756728 -0.0301549 -0.169141 -0.177509 -0.187298 -0.0582479 -0.133827 0.18794 -0.162945 -0.174814 -0.194046 0.199409 0.162774 0.184209 -0.205189 -0.189722 -0.222532 -0.222522 0.222316 -0.223687 -0.211151 0.216086 -0.210362 0.215545 -0.216263 -0.209829 0.216415 -0.213487 -0.215053 0.208644 -0.209283 -0.213614 0.212873 -0.208954 -0.208732 0.21162 -0.208539 0.211533
internal_weight=0 47.4919 32.4169 25.1756 7.28307 22.3163 19.7238 17.5105 11.2311 3.12111 3.44428 19.473 16.0976 13.2844 8.10998 5.09676 3.96684 2.81315 8.18765 4.61565 2.59545 1.77941 6.27941 6.05048 3.89362 2.1606 17.8925 17.3747 16.6701 2.02969 3.83879 12.9439 5.25145 2.5925 4.54748 12.3715 2.41451 3.37545 14.6405 2.90813 3.94061 2.12429 2.65107 2.01667 14.212 3.572 13.6958 1.81702 3.24604 12.7292 2.0202 1.45194 1.27485 11.8286 11.5971 2.09163 2.83589 10.9823 10.6074 2.22085 10.2026 1.07476
internal_count=1280 701 579 463 84 238 199 183 101 27 38 249 201 172 74 45 37 29 127 63 29 24 82 57 41 23 379 374 365 25 46 330 73 39 66 323 22 48 340 37 58 33 39 29 334 64 329 32 53 314 34 28 23 316 295 39 56 285 279 47 272 23
is_linear=0
shrinkage=0.2


Tree=14
num_leaves=63
num_cat=0
split_feature=31 57 65 15 70 84 4 37 67 27 46 51 40 53 49 42 65 58 10 61 14 59 37 83 76 70 51 16 27 1 23 64 64 54 53 53 56 84 66 64 72 56 20 43 36 21 23 27 23 56 88 23 64 33 42 43 16 90 33 13 21 61
split_gain=13.5065 3.27372 3.09283 2.24715 1.57638 1.51012 3.03747 1.44962 1.78183 1.69199 1.69675 1.44384 3.03114 1.55091 1.29705 1.53904 1.55969 1.36475 1.14389 1.1136 1.61252 1.42261 1.19208 1.26551 0.954632 0.931835 1.07675 0.903825 0.882698 0.829282 0.69132 0.590235 0.576769 0.390296 0.373541 0.361567 0.338407 0.31239 0.279692 0.15383 0.0377393 0.0370906 0.0220306 0.0164797 0.00717813 0.00487849 0.00404542 0.00332957 0.00220028 0.00146186 0.00116314 0.00108389 0.00107797 0.000896282 0.000774953 0.000636266 0.00042369 0.000351425 0.000329142 0.000360896 0.000269727 0.000242739
threshold=0.49947617035438135 0.99025401987611017 0.23005082479000918 656.50000000000011 0.57233110070228588 0.2615337414558272 496.50000000000006 0.35512692520298195 0.55961251258850109 0.56277857281202326 0.64401671613762312 0.050121568143367774 0.29987116679955256 0.75253400408603655 0.50987140461108404 0.00095647205081369048 0.26682360268119759 0.55063170194625866 691.50000000000011 0.985637789070548 465.50000000000006 0.99910366692665387 0.87149294736313065 0.56742466139595982 0.039132592074911321 0.79721003770828258 0.93491953611373912 582.50000000000011 0.53294023464436757 544.50000000000011 0.70628566195411346 0.77487931491322637 0.18455390355738849 0.7694685628426009 0.00021112782811074892 0.37257960729792822 0.67260542865288864 0.2984953006462287 0.8565259873867036 0.85338426872844853 0.60633638389422273 0.44548141033359223 0.52191614707061984 0.66627382860072182 0.54676054071808078 0.36700853543491591 0.65686291947996478 0.59451882725921101 0.33995434866356822 4.3958380444320663e-06 0.52879515280839262 0.32347342222628522 0.22154332324003603 0.93507434638850506 0.077029484506334872 0.043828448692910797 622.50000000000011 0.2338254624216918 0.94907801424539384 710.50000000000011 0.2202709821226693 0.080176243173151793
decision_type=2 2 2 2 2 2 2 2 2 2 2 2 2 2 2 2 2 2 2 2 2 2 2 2 2 2 2 2 2 2 2 2 2 2 2 2 2 2 2 2 2 2 2 2 2 2 2 2 2 2 2 2 2 2 2 2 2 2 2 2 2 2
left_child=2 7 5 14 -3 24 11 -2 27 10 -10 12 32 18 15 -4 -17 41 34 21 -21 22 23 39 -1 30 -27 37 35 33 -25 -19 -7 42 -13 45 -6 -9 -12 -11 43 -16 54 -39 48 49 -22 -38 52 -26 -48 55 56 -24 -18 -51 -36 -57 -49 -60 -56 -54
right_child=1 4 3 -5 36 6 -8 8 9 19 38 13 -14 -15 17 16 29 31 -20 20 46 -23 53 25 28 26 -28 -29 -30 -31 -32 -33 -34 -35 44 -37 47 40 -40 -41 -42 -43 -44 -45 -46 -47 50 58 -50 51 -52 -53 61 -55 60 57 -58 -59 59 -61 -62 -63
leaf_value=0.039757712681040641 -0.18196337483683764 -0.027775708151165996 0.12102023753512746 0.21064765058181778 0.064826133071416867 -0.20910251912378125 0.29277915765256812 0.073252222751667664 0.10858368554202194 0.22097342500805608 -0.24783696973652916 -0.082397348733381157 0.27673419498988877 0.12515115239433824 0.22455320995985584 0.13859283328741895 -0.21134415413677499 0.056775952677787435 0.093816287653405689 -0.1576641598924334 0.23063614445605826 -0.17350879154193352 0.21957051565131003 0.007889738964855347 -0.2179020280209584 0.22502330351090383 -0.11225100687206915 -0.041446013306960627 0.10484013779696211 0.039798974344633066 -0.20235675844062789 -0.15456087083768277 0.074360226429777049 -0.094730568602594073 -0.20839709404945497 -0.023372004292231217 0.22501331928579194 0.22841129214741077 -0.11624883250774903 0.084920677765310926 0.26580114105209307 0.16248714387225671 -0.25704965001472241 0.19498285885375255 -0.23829077507885127 -0.23390730596628295 0.21797243834940253 0.20930198349152787 -0.22238395004158951 -0.20732978122749804 0.20836597256885103 -0.21638643787580736 -0.21248822019196922 0.2096654361150638 -0.21475099054101954 -0.2155405746794064 -0.21515244678640388 -0.20973418833806129 0.20638910658155837 0.21366950259543926 -0.22001563906766003 -0.21776215244752339
