tree
version=v4
num_class=1
num_tree_per_iteration=1
label_index=0
max_feature_idx=19
objective=binary sigmoid:1
feature_names=Column_0 Column_1 Column_2 Column_3 Column_4 Column_5 Column_6 Column_7 Column_8 Column_9 Column_10 Column_11 Column_12 Column_13 Column_14 Column_15 Column_16 Column_17 Column_18 Column_19
feature_infos=[438:520] [367:614] [256:768] [52:999] [438:516] [182:814] [351:653] [317:635] [346:607] [193:828] [216:829] [347:661] [263:719] [207:794] [450:505] [84:785] [265:735] [347:612] [276:677] [142:920]
tree_sizes=1678 1673 1671 1680 1676 1671 1672 1685 1677 1672 1672 1682 1686 1674 1681 1673 1683 1674 1677

Tree=0
num_leaves=15
num_cat=0
split_feature=6 7 10 11 1 13 0 11 19 0 15 14 0 17
split_gain=94.5015 63.113 57.2957 59.2844 46.9548 54.4715 30.6861 71.295 28.0244 29.3866 26.981 28.3428 26.0724 26.0038
threshold=488.50000000000006 484.50000000000006 476.50000000000006 519.50000000000011 501.50000000000006 543.50000000000011 479.50000000000006 505.50000000000006 473.50000000000006 483.50000000000006 469.50000000000006 472.50000000000006 489.50000000000006 467.50000000000006
decision_type=2 2 2 2 2 2 2 2 2 2 2 2 2 2
left_child=1 4 3 10 5 -1 7 -3 9 -6 11 -2 -4 -12
right_child=2 6 12 -5 8 -7 -8 -9 -10 -11 13 -13 -14 -15
leaf_value=-0.069424384860185609 -0.11250205640103013 -0.15529349756618818 -0.039141097977999528 0.17879487083996487 -0.192503446405456 0.15630261401384019 -0.16255640201877253 0.13164011654351035 -0.13658849640236273 0.16750280861445979 -0.10302820758471666 0.14809653084110899 0.10750176611114053 0.070001114546565948
leaf_weight=16.249718144536018 4.9999132752418545 21.499627083539963 63.248902931809425 52.249093726277351 3.2499436289072019 31.249457970261574 46.749189123511314 14.499748498201368 23.249596729874611 7.4998699128627777 18.999670445919037 25.249562039971352 14.999739825725554 15.999722480773924
leaf_count=65 20 86 253 209 13 125 187 58 93 30 76 101 60 64
internal_value=0.00833338 -0.0475999 0.0552659 0.0994165 0.0148621 0.0790802 -0.109118 -0.039723 -0.0748543 0.0586637 0.035853 0.105022 -0.0110306 -0.0239291
internal_weight=0 164.247 195.747 117.498 81.4986 47.4992 82.7486 35.9994 33.9994 10.7498 65.2489 30.2495 78.2486 34.9994
internal_count=1440 657 783 470 326 190 331 144 136 43 261 121 313 140
is_linear=0
shrinkage=1


Tree=1
num_leaves=15
num_cat=0
split_feature=18 5 10 11 11 13 3 14 3 14 11 15 17 16
split_gain=78.0578 53.227 50.5125 45.8573 35.9799 42.9359 31.1105 27.6341 27.3361 24.4522 56.4968 22.0108 22.124 20.8576
threshold=474.50000000000006 516.50000000000011 461.50000000000006 519.50000000000011 509.50000000000006 543.50000000000011 453.50000000000006 482.50000000000006 496.50000000000006 476.50000000000006 505.50000000000006 467.50000000000006 467.50000000000006 508.50000000000006
decision_type=2 2 2 2 2 2 2 2 2 2 2 2 2 2
left_child=1 4 3 11 5 6 -1 -4 -9 10 -3 -2 -13 -6
right_child=2 9 7 -5 13 -7 -8 8 -10 -11 -12 12 -14 -15
leaf_value=-0.15769465200425856 0.099330428693852446 -0.14709339723744302 -0.04616818384119481 0.1642221465617576 -0.13492149288086219 0.13384099121843215 0.16007354727522069 -0.0753669205415715 0.15756208653806048 -0.15289367737395135 0.11492608259188244 -0.094632765677111513 0.07166189415632622 0.017866168613518432
leaf_weight=11.236455515027044 26.365024819970131 20.62659415602684 64.954998761415482 46.378359422087669 20.405618071556091 30.564416855573654 4.2448831945657721 7.4789975881576565 15.439425021409987 48.431710079312325 13.691587150096892 18.698923990130424 13.982863426208494 15.894391685724257
leaf_count=45 106 83 260 187 82 123 17 30 62 195 55 75 56 64
internal_value=0 -0.0504935 0.0431346 0.089805 0.00642598 0.0651165 -0.0705647 -0.0128578 0.0815501 -0.107135 -0.0425581 0.0313541 -0.0234838 -0.0680216
internal_weight=0 165.096 193.299 105.425 82.3458 46.0458 15.4813 87.8734 22.9184 82.7499 34.3182 59.0468 32.6818 36.3
internal_count=1440 664 776 424 331 185 62 352 92 333 138 237 131 146
is_linear=0
shrinkage=0.1


Tree=2
num_leaves=15
num_cat=0
split_feature=6 5 10 1 1 13 8 3 3 1 8 15 6 0
split_gain=63.2937 43.5456 38.8765 34.6223 29.1333 35.1004 23.6447 22.4715 21.9624 21.2885 44.6115 19.5251 18.7392 17.3282
threshold=488.50000000000006 516.50000000000011 461.50000000000006 508.50000000000006 501.50000000000006 543.50000000000011 511.50000000000006 453.50000000000006 496.50000000000006 470.50000000000006 480.50000000000006 413.00000000000006 501.50000000000006 483.50000000000006
decision_type=2 2 2 2 2 2 2 2 2 2 2 2 2 2
left_child=1 4 3 -2 5 7 12 -1 -8 -3 -11 13 -4 -6
right_child=2 9 6 -5 11 -7 8 -9 -10 10 -12 -13 -14 -15
leaf_value=-0.13725916734777202 0.033985932495559347 -0.16107331831220134 0.093972511559108629 0.15168052443714028 -0.18397615127257178 0.11812332942700948 -0.06311998553724299 0.12622647321688193 0.1495782028888889 0.067028347097736654 -0.13239541941341934 -0.10269188017715643 -0.061415595309882998 0.18307977304680062
leaf_weight=11.605829030275347 64.513007059693336 32.466660857200623 8.9809237122535688 40.802731871604919 1.7367246001958836 31.123462840914726 7.2427680939435986 4.4886892139911643 14.722827866673468 18.184300512075424 29.278617024421692 27.35383552312851 57.134142175316811 4.9572926759719849
leaf_count=47 261 133 36 168 7 127 29 18 60 74 120 111 229 20
internal_value=0 -0.0462666 0.0385819 0.0795846 0.00527946 0.0561225 -0.010444 -0.0637742 0.0794447 -0.0986744 -0.0559909 -0.0652303 -0.040308 0.0878492
internal_weight=0 161.195 193.396 105.316 81.2658 47.218 88.0807 16.0945 21.9656 79.9296 47.4629 34.0479 66.1151 6.69402
internal_count=1440 657 783 429 330 192 354 65 89 327 194 138 265 27
is_linear=0
shrinkage=0.1


Tree=3
num_leaves=15
num_cat=0
split_feature=18 10 11 5 11 13 8 3 3 11 0 13 3 15
split_gain=54.1316 37.2372 38.8787 36.0225 24.3426 28.4823 21.3576 20.9003 18.9388 18.7319 40.7668 18.5687 19.7454 16.8395
threshold=480.50000000000006 470.50000000000006 519.50000000000011 516.50000000000011 509.50000000000006 548.50000000000011 511.50000000000006 453.50000000000006 481.50000000000006 478.50000000000006 479.50000000000006 530.50000000000011 551.50000000000011 467.50000000000006
decision_type=2 2 2 2 2 2 2 2 2 2 2 2 2 2
left_child=3 2 13 4 5 7 -3 -1 -8 -5 -11 12 -6 -2
right_child=1 6 -4 9 11 -7 8 -9 -10 10 -12 -13 -14 -15
leaf_value=-0.11774230566338331 0.08140269418304065 -0.044220589833703527 0.14686147237204158 -0.14423590018468513 0.11792334231672628 0.11497763745221844 -0.072852844153076954 0.13573294777304987 0.14530050581347664 0.06097477425607413 -0.12276307216244567 -0.11008269333692532 -0.13387920693956454 -0.024878260816657768
leaf_weight=12.104276403784754 27.524208649992943 59.205921933054924 44.893023952841759 34.192348763346672 9.5309074521064741 28.810838013887405 5.7416032403707531 4.4484960287809363 12.966822922229765 20.318570420145988 29.765894800424576 22.865966007113457 4.6255797445774069 32.523967027664185
leaf_count=50 112 238 190 144 39 120 23 18 54 83 125 94 19 131
internal_value=0 0.0375823 0.0764663 -0.0412106 0.00581075 0.0549168 -0.0147897 -0.0496218 0.0783494 -0.087177 -0.0482232 -0.0543589 0.0356478 0.0238376
internal_weight=0 182.856 104.941 166.663 82.3861 45.3636 77.9143 16.5528 18.7084 84.2768 50.0845 37.0225 14.1565 60.0482
internal_count=1440 748 433 692 340 188 315 68 77 352 208 152 58 243
is_linear=0
shrinkage=0.1


Tree=4
num_leaves=15
num_cat=0
split_feature=18 10 11 5 11 17 8 2 11 8 4 13 5 15
split_gain=44.8934 31.0865 30.6459 30.0979 20.1891 24.1841 17.9223 16.6783 16.1919 34.2302 15.9394 15.3556 15.3387 14.721
threshold=480.50000000000006 461.50000000000006 519.50000000000011 516.50000000000011 509.50000000000006 505.50000000000006 511.50000000000006 370.50000000000006 478.50000000000006 495.50000000000006 474.50000000000006 530.50000000000011 480.50000000000006 446.00000000000006
decision_type=2 2 2 2 2 2 2 2 2 2 2 2 2 2
left_child=3 2 13 4 5 10 7 -3 -5 -10 -1 -6 -13 -2
right_child=1 6 -4 8 11 -7 -8 -9 9 -11 -12 12 -14 -15
leaf_value=-0.10275947218895065 0.089988612706795895 -0.17084964044057901 0.13870199744528017 -0.1348503267346598 0.032547558879561858 0.10937348664721974 0.069404302421249203 -0.017514522615092672 0.041444377965098783 -0.12546745296701997 0.11168120641696729 -0.1358175260077272 0.095579241845858851 -0.014842074055589217
leaf_weight=12.30505581200123 21.644521072506905 8.1770730316638929 40.822810232639313 32.977396100759506 13.951174259185789 27.162371307611465 20.851097002625465 53.538896352052689 23.921814277768135 25.261444792151451 4.8255328685045233 19.068761855363849 3.3710977286100379 35.148611560463905
leaf_count=52 89 33 180 144 58 116 88 216 99 109 20 80 14 142
internal_value=0 0.0344133 0.072614 -0.0380323 0.00535069 0.0506921 -0.0107501 -0.0378307 -0.0806356 -0.0442847 -0.0423535 -0.0498361 -0.101055 0.0251101
internal_weight=0 180.183 97.6159 162.845 80.684 44.293 82.5671 61.716 82.1607 49.1833 17.1306 36.391 22.4399 56.7931
internal_count=1440 748 411 692 340 188 337 249 352 208 72 152 94 231
is_linear=0
shrinkage=0.1


Tree=5
num_leaves=15
num_cat=0
split_feature=6 3 5 13 3 17 9 2 1 0 11 3 11 14
split_gain=37.0716 28.3222 25.8449 17.4588 22.4852 25.7421 19.1084 18.8308 17.0184 22.6284 16.7853 16.0088 14.555 26.5111
threshold=488.50000000000006 699.50000000000011 516.50000000000011 554.50000000000011 436.50000000000006 478.50000000000006 413.50000000000006 474.50000000000006 501.50000000000006 473.50000000000006 531.50000000000011 429.50000000000006 478.50000000000006 476.50000000000006
decision_type=2 2 2 2 2 2 2 2 2 2 2 2 2 2
left_child=2 3 8 4 5 -2 -5 -6 9 -1 -8 -11 -4 -14
right_child=1 -3 12 6 7 -7 10 -9 -10 11 -12 -13 13 -15
leaf_value=0.12266697235376865 -0.092443943779013688 0.14113483092943332 -0.13368580585106746 -0.14139425800717423 0.019597627843615014 0.093848506828448947 0.15733065698769982 0.10629018569869747 -0.051291903525509899 -0.089638480437829959 -0.11991252235644843 0.075724942512052862 0.050960329805891547 -0.10662260702055455
leaf_weight=20.048440173268318 25.85086016356945 20.369145721197128 29.424739003181458 13.438759028911592 66.726377844810486 10.402130290865896 5.4527197927236539 40.120906054973602 32.3698890209198 14.123794957995417 3.642624631524086 9.9989869594573957 17.910315543413162 26.431143015623093
leaf_count=88 105 92 135 55 279 42 22 173 138 61 15 43 74 118
internal_value=0 0.0298614 -0.0369177 0.0161774 0.0290608 -0.0389907 -0.0656374 0.0521505 0.00379019 0.0441559 0.0462966 -0.0210947 -0.079157 -0.042972
internal_weight=0 186.004 150.307 165.634 143.1 36.253 22.5341 106.847 76.5411 44.1712 9.09534 24.1228 73.7662 44.3415
internal_count=1440 783 657 691 599 147 92 452 330 192 37 104 327 192
is_linear=0
shrinkage=0.1


Tree=6
num_leaves=15
num_cat=0
split_feature=6 4 6 10 1 13 5 13 8 1 17 6 9 5
split_gain=31.3766 14.974 12.5591 12.1229 13.0917 16.243 19.9391 15.3014 11.2818 10.4555 10.1861 21.3243 10.642 10.1447
threshold=450.50000000000006 497.50000000000006 515.50000000000011 633.00000000000011 468.50000000000006 357.50000000000006 473.50000000000006 443.50000000000006 464.50000000000006 479.50000000000006 498.50000000000006 501.50000000000006 478.50000000000006 478.50000000000006
decision_type=2 2 2 2 2 2 2 2 2 2 2 2 2 2
left_child=8 3 -3 4 5 -2 7 -7 -1 -5 12 -12 -9 -6
right_child=1 2 -4 9 13 6 -8 10 -10 -11 11 -13 -14 -15
leaf_value=-0.010598081458147326 0.10579329299119281 -0.070753247073363418 0.14704223697148905 0.17256723727020595 -0.0071285873207397087 -0.12927269895335985 -0.077884682371468922 0.11054947317764748 -0.090385649060797546 -0.024084998827429385 0.11443666479346909 -0.13351060780323998 -0.15822929388428927 0.049722487757856287
leaf_weight=30.014638096094131 8.9503726065158826 3.2596494406461742 14.101913943886755 8.1296054571866971 54.246944576501846 6.0691825896501532 49.57191276550293 18.361903727054599 43.2699855864048 4.0507749170064917 6.2933329790830594 7.7279265522956848 1.6015992462635029 74.487452268600464
leaf_count=134 38 15 67 35 230 25 212 76 195 17 28 32 7 329
internal_value=0 0.0164749 0.106151 0.00997391 0.00476582 -0.0226594 -0.0354871 0.0169853 -0.0577076 0.107167 0.0431048 -0.0222214 0.0889863 0.0257662
internal_weight=0 256.853 17.3616 239.491 227.311 98.5762 89.6259 40.0539 73.2846 12.1804 33.9848 14.0213 19.9635 128.734
internal_count=1440 1111 82 1029 977 418 380 168 329 52 143 60 83 559
is_linear=0
shrinkage=0.1


Tree=7
num_leaves=15
num_cat=0
split_feature=18 3 5 17 3 3 2 13 13 11 15 19 11 13
split_gain=28.6591 22.0613 21.4439 14.7826 22.9524 21.9063 17.1046 16.8373 13.4879 16.2334 18.5757 16.7739 13.4497 16.4941
threshold=480.50000000000006 696.50000000000011 516.50000000000011 501.50000000000006 436.50000000000006 432.50000000000006 470.50000000000006 490.50000000000006 469.50000000000006 516.50000000000011 446.00000000000006 265.50000000000006 509.50000000000006 543.50000000000011
decision_type=2 2 2 2 2 2 2 2 2 2 2 2 2 2
left_child=2 3 12 4 7 -5 8 -2 9 10 11 -6 13 -1
right_child=1 -3 -4 5 6 -7 -8 -9 -10 -11 -12 -13 -14 -15
leaf_value=-0.041622110317237587 -0.083696679076372432 0.12940082944116052 -0.069055082531377196 0.090861761033336486 -0.19462801040782152 -0.11364117048401208 0.11023117692187732 0.081329498571571818 0.074218252100439489 0.099364797663089408 -0.15171513410288043 0.078047627240777698 -0.039480335905370013 0.090714111662807698
leaf_weight=14.478152453899382 24.883299812674522 19.046781167387962 76.305199757218361 7.3776325583457973 2.8658711016178158 18.061815738677979 34.484433367848396 8.2264908254146558 27.487461060285568 8.5108588635921461 11.831171184778212 10.60156302154064 35.391875520348549 26.94912077486515
leaf_count=65 102 94 352 30 12 76 155 33 115 38 48 45 152 123
internal_value=0 0.0278615 -0.031507 0.0153299 0.0290796 -0.0543338 0.0538904 -0.0426941 0.0221941 -0.0201021 -0.0602926 0.0200222 0.00578985 0.0444648
internal_weight=0 173.377 153.124 154.331 128.891 25.4394 95.7814 33.1098 61.2969 33.8095 25.2986 13.4674 76.8191 41.4273
internal_count=1440 748 692 654 548 106 413 135 258 143 105 57 340 188
is_linear=0
shrinkage=0.1


Tree=8
num_leaves=15
num_cat=0
split_feature=6 3 5 11 0 13 8 10 16 4 10 12 6 1
split_gain=23.8145 16.0092 11.4076 12.1532 11.8793 11.5159 14.5598 10.3569 10.3807 9.98385 9.13284 10.6562 8.64279 8.30756
threshold=450.50000000000006 699.50000000000011 640.50000000000011 525.50000000000011 488.50000000000006 361.50000000000006 584.50000000000011 633.00000000000011 579.50000000000011 473.50000000000006 605.50000000000011 399.50000000000006 506.50000000000006 479.50000000000006
decision_type=2 2 2 2 2 2 2 2 2 2 2 2 2 2
left_child=10 2 5 -4 -5 6 -2 8 -7 -10 -1 -12 -3 -9
right_child=1 12 3 4 -6 7 -8 13 9 -11 11 -13 -14 -15
leaf_value=-0.080973425577601565 0.096403476391294179 -0.051637574539631005 -0.14310444150928756 0.12939309477774316 -0.18433893268854218 0.0083723209520398245 -0.2117408209554423 0.15725028188345946 -0.091661539678837639 0.071137661391210263 -0.1324266021615334 0.02110108454438963 0.12760200410139122 -0.020086143654766089
leaf_weight=41.838237136602402 23.665299579501156 3.1894545108079937 9.8425327241420728 4.1740125864744178 1.6978253573179243 151.50087559223175 1.6396116614341725 7.626575291156767 20.230692207813266 4.6288860440254203 5.5859799832105663 23.711507648229599 17.186495617032051 4.0415686964988708
leaf_count=196 109 15 42 20 8 661 7 35 87 20 25 108 90 17
internal_value=0 0.0146041 0.00704776 -0.0751794 0.0386784 0.0131047 0.0764375 0.00458136 -0.0014554 -0.0613481 -0.0509896 -0.00817114 0.0995456 0.0958251
internal_weight=0 249.424 229.048 15.7144 5.87184 213.334 25.3049 188.029 176.36 24.8596 71.1357 29.2975 20.376 11.6681
internal_count=1440 1111 1006 70 28 936 116 820 768 107 329 133 105 52
is_linear=0
shrinkage=0.1


Tree=9
num_leaves=15
num_cat=0
split_feature=9 13 9 4 11 12 13 5 13 8 12 13 2 4
split_gain=13.7965 13.791 10.993 9.71676 10.577 18.9872 14.0278 10.9842 16.2901 9.17208 8.03462 8.86998 8.023 8.9766
threshold=564.50000000000011 361.50000000000006 724.50000000000011 463.50000000000006 469.50000000000006 481.50000000000006 444.50000000000006 388.50000000000006 527.50000000000011 588.50000000000011 471.50000000000006 606.50000000000011 632.50000000000011 463.50000000000006
decision_type=2 2 2 2 2 2 2 2 2 2 2 2 2 2
left_child=1 9 10 -3 5 6 -5 8 -6 -1 12 -12 13 -2
right_child=2 3 -4 4 7 -7 -8 -9 -10 -11 11 -13 -14 -15
leaf_value=0.092322904170953971 0.075392910793575962 0.1126372344870345 0.13946852118356062 -0.14365023501503102 0.066335335080065339 -0.075870512106038679 0.038114144501487812 0.028052912000595145 -0.13061822410889146 -0.17016507748539358 -0.060899798290376908 -0.22578452596503495 0.14909435845624805 -0.080404507980107731
leaf_weight=25.349721059203151 5.7179141640663209 7.7472320795059195 3.207970216870307 4.7716965526342383 6.7442861199378994 42.730828911066055 38.534305348992348 113.18450818955898 11.129618316888807 1.4050001502037037 38.87318417429924 3.5614975541830054 3.148411199450492 10.4698598831892
leaf_count=124 28 34 14 20 29 190 170 514 50 6 186 15 13 47
internal_value=0 0.0106676 -0.0410197 0.00259147 -0.00133561 -0.028578 0.0180863 0.0165484 -0.0563026 0.0785386 -0.0503931 -0.0747384 0.00303455 -0.0253731
internal_weight=0 251.597 64.9788 224.842 217.095 86.0368 43.306 131.058 17.8739 26.7547 61.7709 42.4347 19.3362 16.1878
internal_count=1440 1137 303 1007 973 380 190 593 79 130 289 201 88 75
is_linear=0
shrinkage=0.1


Tree=10
num_leaves=15
num_cat=0
split_feature=18 10 1 0 15 4 3 0 3 16 5 19 1 15
split_gain=18.9606 22.3865 15.0218 14.9596 15.2269 13.4821 13.0899 12.6964 12.5411 11.7956 9.80665 10.1258 11.088 8.9549
threshold=499.50000000000006 470.50000000000006 507.50000000000006 474.50000000000006 515.50000000000011 472.50000000000006 551.50000000000011 490.50000000000006 450.50000000000006 460.50000000000006 645.50000000000011 272.50000000000006 420.50000000000006 459.50000000000006
decision_type=2 2 2 2 2 2 2 2 2 2 2 2 2 2
left_child=3 2 10 -1 5 -5 -7 9 -9 -3 11 -2 -13 -11
right_child=1 7 -4 4 -6 6 -8 8 -10 13 -12 12 -14 -15
leaf_value=0.012768795215572622 -0.21443443461000303 -0.12644455061835377 0.11811542161980448 -0.068012883054412027 -0.090635202517615754 0.076633301079650301 -0.08296845026343827 -0.11849680663013513 0.1154587312313422 -0.024090394382449781 -0.096745969861171829 -0.11806955415123643 0.064914115921548651 0.20793154988309415
leaf_weight=66.351445078849792 1.4782811701297749 12.152405202388762 29.019333049654961 22.536160528659821 45.819321066141129 20.4320332556963 6.865530014038085 2.887280046939849 11.098863139748572 39.12611049413681 5.5576273798942557 3.5780833661556235 44.450668558478355 1.7372812926769245
leaf_count=307 6 52 162 107 220 91 31 12 52 162 23 15 193 7
internal_value=0 0.0255309 0.0598922 -0.0237167 -0.0490255 -0.0107678 0.0364923 -0.0175906 0.0671613 -0.0399491 0.0292082 0.0433478 0.0512821 -0.0142261
internal_weight=0 151.086 84.084 162.004 95.653 49.8337 27.2976 67.0019 13.9861 53.0158 55.0647 49.507 48.0288 40.8634
internal_count=1440 684 399 756 449 229 122 285 64 221 237 214 208 169
is_linear=0
shrinkage=0.1


Tree=11
num_leaves=15
num_cat=0
split_feature=6 3 9 18 10 7 1 13 2 3 3 13 19 15
split_gain=16.1248 12.3793 8.85014 8.36306 7.58965 7.47908 14.8354 14.4124 12.4882 8.01295 7.29863 14.4919 17.4358 15.5627
threshold=450.50000000000006 699.50000000000011 724.50000000000011 501.50000000000006 633.00000000000011 484.50000000000006 501.50000000000006 610.50000000000011 621.50000000000011 416.50000000000006 434.50000000000006 538.50000000000011 650.50000000000011 468.50000000000006
decision_type=2 2 2 2 2 2 2 2 2 2 2 2 2 2
left_child=2 4 5 -3 10 6 7 9 -8 -1 -2 13 -13 -12
right_child=1 3 -4 -5 -6 -7 8 -9 -10 -11 11 12 -14 -15
leaf_value=-0.097585471319277153 -0.030342870406133506 -0.047034226209748883 0.12524785773556218 0.12505482982600141 0.086882038090463479 -0.087770683338603078 -0.1450997804719788 0.11191252875803517 0.10632821299167852 0.10580150547998379 0.064514093942948381 -0.087050966559256135 0.069842934397189707 -0.0069655173731541613
leaf_weight=8.3432008326053637 53.544773191213608 3.5011388510465649 2.9940524548292151 14.600385069847105 10.964331120252607 29.556632712483406 11.327652201056479 11.027133375406263 2.3927727937698355 2.5228026062250128 60.930095642805099 25.7140873670578 9.7761042565107328 60.907477736473083
leaf_count=40 236 17 13 88 52 149 54 52 10 11 282 115 44 277
internal_value=0 0.0122533 -0.0428614 0.0917699 0.00576484 -0.0505846 -0.019723 0.0313713 -0.101252 -0.0503643 0.00154715 0.0124006 -0.0438331 0.0287809
internal_weight=0 239.938 68.1642 18.1015 221.837 65.1702 35.6136 21.8931 13.7204 10.866 210.873 157.328 35.4902 121.838
internal_count=1440 1111 329 105 1006 316 167 103 64 51 954 718 159 559
is_linear=0
shrinkage=0.1


Tree=12
num_leaves=15
num_cat=0
split_feature=6 3 5 14 18 2 3 13 19 15 16 3 10 3
split_gain=13.52 10.8239 7.99374 7.72588 7.42521 7.24171 8.90454 9.1681 13.3354 16.0686 9.42937 8.4814 8.42454 6.82843
threshold=450.50000000000006 699.50000000000011 640.50000000000011 479.50000000000006 501.50000000000006 595.00000000000011 288.50000000000006 398.50000000000006 290.00000000000006 513.50000000000011 607.50000000000011 519.50000000000011 574.50000000000011 382.50000000000006
decision_type=2 2 2 2 2 2 2 2 2 2 2 2 2 2
left_child=3 2 5 -1 -3 6 -2 8 11 -10 12 -8 13 -9
right_child=1 4 -4 -5 -6 -7 7 10 9 -11 -12 -13 -14 -15
leaf_value=-0.010413764145341658 0.12551214426954421 -0.042763107579716464 -0.065542823775014289 -0.079635376589145906 0.12114851146026691 -0.063179398430407527 -0.13207923589821041 -0.084803966701831671 0.11916206810490484 -0.12102989093237156 -0.14330685845161162 0.081200703487738071 0.064864427096206628 0.0018379989190506719
leaf_weight=37.704013928771019 7.0467860400676718 3.4675734788179424 14.874998420476912 28.170474484562874 13.614922657608984 12.564539715647696 5.1866044700145704 9.8693447560071927 23.733602806925777 3.1555517315864554 4.4395996630191794 2.9109856933355331 20.033453390002251 116.12943457067013
leaf_count=180 34 17 70 149 88 59 22 44 120 14 19 15 91 518
internal_value=0 0.0111975 0.00524208 -0.0400156 0.0878761 0.0103765 0.0151774 0.0109851 0.0570948 0.0909746 0.000263967 -0.0554077 0.00462874 -0.00494857
internal_weight=0 237.027 219.945 65.8745 17.0825 205.07 192.505 185.459 34.9867 26.8892 150.472 8.09759 146.032 125.999
internal_count=1440 1111 1006 329 105 936 877 843 171 134 672 37 653 562
is_linear=0
shrinkage=0.1


Tree=13
num_leaves=15
num_cat=0
split_feature=18 17 4 11 9 1 17 14 15 19 4 17 4 0
split_gain=11.3184 14.6797 16.8981 12.417 12.3513 15.9308 12.0995 11.5152 11.7063 11.6744 9.24569 9.00502 8.48962 8.41697
threshold=499.50000000000006 501.50000000000006 473.50000000000006 410.50000000000006 408.50000000000006 514.50000000000011 477.50000000000006 473.50000000000006 515.50000000000011 714.50000000000011 472.50000000000006 414.50000000000006 482.50000000000006 478.50000000000006
decision_type=2 2 2 2 2 2 2 2 2 2 2 2 2 2
left_child=7 2 6 -4 -3 -6 11 -1 10 -10 -9 -2 13 -12
right_child=1 4 3 -5 5 -7 -8 8 9 -11 12 -13 -14 -15
leaf_value=0.014315980237222373 0.072312194278964112 -0.11385577010761627 -0.1152629979690134 0.061394930786731985 0.18271948759925921 -0.13857635191532333 0.087130919579510788 -0.05554150512252487 -0.093324596391777384 0.097085060511909918 -0.13637042894346738 -0.097692329369138575 -0.057162256791054335 0.089532492944649447
leaf_weight=63.238848000764847 3.74847841262818 13.449953928589823 4.1619049310684195 90.423924341797829 3.8696340322494498 2.566914439201355 6.3925940990447989 21.681222468614578 40.68794085085392 3.4967484027147284 1.8235971033573211 18.458905160427094 7.5773669034242621 17.261144861578941
leaf_count=300 16 63 18 454 16 11 26 109 207 18 8 80 35 79
internal_value=0 0.0203855 0.0332556 0.0536217 -0.0593373 0.0545858 -0.0340993 -0.0185725 -0.0410503 -0.0782557 -0.00704541 -0.0689965 0.0323909 0.0679469
internal_weight=0 143.072 123.186 94.5858 19.8865 6.43655 28.6 155.767 92.528 44.1847 48.3433 22.2074 26.6621 19.0847
internal_count=1440 684 594 472 90 27 122 756 456 225 231 96 122 87
is_linear=0
shrinkage=0.1


Tree=14
num_leaves=15
num_cat=0
split_feature=3 18 15 3 9 17 6 19 9 2 17 6 2 7
split_gain=10.1693 7.86536 7.44913 9.44459 16.3065 10.504 10.4779 7.72364 6.88211 6.0505 10.1005 9.43772 8.17484 8.23357
threshold=699.50000000000011 501.50000000000006 470.50000000000006 436.50000000000006 448.50000000000006 522.50000000000011 555.50000000000011 490.50000000000006 724.50000000000011 511.50000000000006 469.50000000000006 534.50000000000011 635.50000000000011 537.50000000000011
decision_type=2 2 2 2 2 2 2 2 2 2 2 2 2 2
left_child=2 -2 3 5 6 9 -5 -4 -9 10 -1 -12 13 -11
right_child=1 -3 7 4 -6 -7 -8 8 -10 12 11 -13 -14 -15
leaf_value=-0.061928791521502879 -0.046472171917049832 0.11640090670367859 -0.12424675807293134 0.051666188277528828 0.095989477379556598 0.090632455492717909 -0.05384689567422301 -0.017730451789063333 0.14694944708721791 -0.096507204647460959 -0.019530550637893454 0.14720323713092467 0.077732205606252935 0.13792170156611466
leaf_weight=11.982608065009119 3.9082727581262615 12.284357666969298 6.7458986937999716 17.875050574541092 28.828526347875595 8.2332218885421735 19.877558201551437 139.40396639704704 2.5847526937723151 23.867339134216316 6.773378446698187 6.8060779869556427 3.6761058419942847 1.5985292047262181
leaf_count=53 20 88 32 83 149 43 91 671 11 117 29 28 18 7
internal_value=0 0.0770897 -0.00443131 0.0131024 0.0393569 -0.0146722 -0.00388871 -0.0196997 -0.0147326 -0.0305211 0.00498866 0.0640371 -0.0616687 -0.0817918
internal_weight=0 16.1926 278.253 129.518 66.5811 62.9373 37.7526 148.735 141.989 54.704 25.5621 13.5795 29.142 25.4659
internal_count=1440 108 1332 618 323 295 174 714 682 252 110 57 142 124
is_linear=0
shrinkage=0.1


Tree=15
num_leaves=15
num_cat=0
split_feature=3 18 19 8 8 3 11 7 10 10 11 11 8 3
split_gain=8.7905 6.98922 6.09787 18.2391 11.3791 22.6532 16.9437 19.8426 18.7617 12.4207 13.9544 10.5117 10.0421 9.75541
threshold=699.50000000000011 501.50000000000006 471.50000000000006 514.50000000000011 484.50000000000006 453.50000000000006 509.50000000000006 485.50000000000006 574.50000000000011 476.50000000000006 501.50000000000006 469.50000000000006 588.50000000000011 476.50000000000006
decision_type=2 2 2 2 2 2 2 2 2 2 2 2 2 2
left_child=2 -2 4 -4 6 9 8 -8 11 -6 -11 -1 -7 -13
right_child=1 -3 3 -5 5 12 7 -9 -10 10 -12 13 -14 -15
leaf_value=-0.085091634627249696 -0.04241324761249568 0.11331408583502932 0.0031616859214944094 -0.074959063573091456 0.15892464596702191 0.098450148629952161 -0.15388650089365352 0.12139550973073127 0.11160488420492459 -0.087296512205451329 0.10173000605784675 0.12484973534828103 -0.19029266659581559 -0.20089375987836769
leaf_weight=15.104877531528475 3.8568644672632209 11.402593806385992 115.43095022439957 40.327430367469788 3.1630808413028744 37.964006274938583 14.135570481419565 3.2137421518564215 13.268474549055098 20.482459917664531 4.8254614472389212 5.2668435722589484 1.2439526319503773 1.1138025969266889
leaf_count=67 20 88 548 203 15 197 62 18 67 102 21 22 5 5
internal_value=0 0.0739536 -0.00401889 -0.0170646 0.012945 0.0399886 -0.0221829 -0.102894 0.0181083 -0.0279042 -0.0512548 -0.0396309 0.0892892 0.0679881
internal_weight=0 15.2595 275.541 155.758 119.782 67.679 52.1033 17.3493 34.754 28.471 25.3079 21.4855 39.208 6.38065
internal_count=1440 108 1332 751 581 340 241 80 161 138 123 94 202 27
is_linear=0
shrinkage=0.1


Tree=16
num_leaves=15
num_cat=0
split_feature=6 1 9 10 11 10 18 11 9 9 17 1 15 1
split_gain=9.33815 7.11795 6.27926 5.64851 12.3975 7.39049 10.8301 10.0191 7.75095 7.04704 7.02706 8.46555 10.2039 8.61063
threshold=450.50000000000006 527.50000000000011 741.50000000000011 574.50000000000011 504.50000000000006 461.50000000000006 489.50000000000006 399.50000000000006 350.50000000000006 603.50000000000011 467.50000000000006 507.50000000000006 470.50000000000006 490.50000000000006
decision_type=2 2 2 2 2 2 2 2 2 2 2 2 2 2
left_child=2 3 -1 5 9 6 -2 -8 -7 -5 11 12 -9 -14
right_child=1 -3 -4 4 -6 8 7 10 -10 -11 -12 -13 13 -15
leaf_value=-0.039780858995514173 -0.053265068374779789 0.051281395110554795 0.13777464057707153 0.10747995539142247 -0.069502007050255568 -0.10610380304442338 -0.17960804617400983 0.045687487060101152 -0.014004286080584996 -0.15016716464334789 0.092389812719806869 0.12308213381101728 -0.11240455121741566 0.061024107916482051
leaf_weight=60.749854490160942 17.265089064836502 34.744625262916088 2.0592928528785697 16.490649864077575 6.6322093605995169 10.453530684113501 2.0823024213314048 20.298456534743309 72.598337009549141 1.1346309334039677 19.823609419167042 6.6740230098366728 10.372187405824659 3.9542100131511679
leaf_count=320 86 199 9 84 31 50 9 103 336 6 96 48 45 18
internal_value=0 0.00970286 -0.0339594 0.00200962 0.0470402 -0.0046704 0.0169273 0.0361011 -0.0255966 0.0908939 0.0434498 0.0199584 8.10556e-05 -0.0645367
internal_weight=0 222.524 62.8091 187.779 24.2575 163.522 80.4699 63.2048 83.0519 17.6253 61.1225 41.2989 34.6249 14.3264
internal_count=1440 1111 329 912 121 791 405 319 386 90 310 214 166 63
is_linear=0
shrinkage=0.1


Tree=17
num_leaves=15
num_cat=0
split_feature=6 3 5 11 0 1 2 12 3 16 2 2 5 11
split_gain=7.65682 6.52918 6.1579 9.1307 8.57902 6.80913 6.93072 6.41638 8.12469 7.54509 6.18376 5.33395 11.6407 8.65387
threshold=450.50000000000006 699.50000000000011 640.50000000000011 525.50000000000011 488.50000000000006 555.50000000000011 595.00000000000011 553.50000000000011 288.50000000000006 607.50000000000011 329.50000000000006 630.00000000000011 529.50000000000011 536.50000000000011
decision_type=2 2 2 2 2 2 2 2 2 2 2 2 2 2
left_child=11 2 5 -4 -5 6 7 8 -2 10 -10 13 -13 -1
right_child=1 -3 3 4 -6 -7 -8 -9 9 -11 -12 12 -14 -15
leaf_value=-0.023746426668413874 0.11828268566929911 0.07645564431140911 -0.12028931358449202 0.12626887243341853 -0.1594470124192251 0.12738422363177679 -0.073898280974670855 0.04746688733888238 -0.10968680949534433 -0.096969363525214985 0.006440347205521924 0.18281732344762336 -0.028349924711701203 -0.12501654187107841
leaf_weight=37.162035539746284 5.6559230312705031 13.427624821662901 8.9660212844610196 3.7490449100732794 1.4602501243352888 4.7533328384160987 10.215794324874876 37.595359571278095 4.7673480957746497 8.2072612792253476 120.19974885880947 3.4507193863391867 10.7214288264513 10.91701880097389
leaf_count=198 32 105 42 20 8 26 52 191 23 39 573 16 56 59
internal_value=0 0.00889561 0.00448266 -0.0591141 0.0461781 0.00919285 0.00618278 0.0108198 0.000895754 -0.00408968 0.00201023 -0.0308488 0.0230663 -0.0467412
internal_weight=0 218.998 205.57 14.1753 5.2093 191.395 186.641 176.426 138.83 133.174 124.967 62.2512 14.1721 48.0791
internal_count=1440 1111 1006 70 28 936 910 858 667 635 596 329 72 257
is_linear=0
shrinkage=0.1


Tree=18
num_leaves=15
num_cat=0
split_feature=6 8 5 11 3 13 3 16 10 13 10 18 15 1
split_gain=6.30372 5.6199 6.48745 10.5227 10.4436 5.53276 5.83875 5.67827 6.01062 5.32124 8.88835 6.17547 6.67327 8.42321
threshold=450.50000000000006 495.50000000000006 519.50000000000011 454.50000000000006 554.50000000000011 668.50000000000011 699.50000000000011 444.50000000000006 327.50000000000006 470.50000000000006 395.50000000000006 580.50000000000011 499.50000000000006 460.50000000000006
decision_type=2 2 2 2 2 2 2 2 2 2 2 2 2 2
left_child=1 -1 3 -3 -5 6 7 8 -2 -10 -11 12 13 -12
right_child=5 2 -4 4 -6 -7 -8 -9 9 10 11 -13 -14 -15
leaf_value=-0.003328341104604809 0.16217353170639709 -0.13157205465618313 -0.12209564054945987 0.12864778402938246 -0.10408641487492805 0.15501456485347154 0.071396527175807509 0.011967629297843152 -0.10142827986605385 0.11711771551448634 0.13809427527292242 -0.18195766552806367 -0.04530960346688015 -0.094924487185336318
leaf_weight=36.650510683655739 1.6331256181001652 5.1850109100341824 11.03333595395088 5.629702076315878 2.9324072301387787 2.5330080389976493 12.966006539762018 150.24849677085876 9.2026426494121534 4.3929212242364875 4.8608874380588523 2.6014580577611914 26.25016725063324 2.2784409523010254
leaf_count=180 7 29 76 26 18 13 105 750 43 19 23 13 126 12
internal_value=0 -0.0281989 -0.0649827 -0.0191442 0.0489395 0.00808726 0.00635168 0.00216555 -0.026588 -0.0328049 -0.017167 -0.0335573 -0.0219951 0.0637288
internal_weight=0 61.431 24.7805 13.7471 8.56211 216.967 214.434 201.468 51.2196 49.5865 40.3839 35.991 33.3895 7.13933
internal_count=1440 329 149 73 44 1111 1098 993 243 236 193 174 161 35
is_linear=0
shrinkage=0.1


end of trees

feature_importances:
Column_3=32
Column_11=26
Column_13=22
Column_1=17
Column_10=17
Column_5=16
Column_6=16
Column_15=14
Column_8=12
Column_17=12
Column_18=12
Column_0=11
Column_2=11
Column_9=11
Column_4=9
Column_19=8
Column_14=6
Column_16=6
Column_7=4
Column_12=4

parameters:
[boosting: gbdt]
[objective: binary]
[metric: custom]
[tree_learner: serial]
[device_type: cpu]
[data: ]
[valid: ]
[num_iterations: 10000]
[learning_rate: 0.1]
[num_leaves: 15]
[num_threads: 0]
[deterministic: 0]
[force_col_wise: 0]
[force_row_wise: 0]
[histogram_pool_size: -1]
[max_depth: -1]
[min_data_in_leaf: 5]
[min_sum_hessian_in_leaf: 0.001]
[bagging_fraction: 0.5]
[pos_bagging_fraction: 1]
[neg_bagging_fraction: 1]
[bagging_freq: 0]
[bagging_seed: 21897]
[feature_fraction: 0.8]
[feature_fraction_bynode: 1]
[feature_fraction_seed: 12646]
[extra_trees: 0]
[extra_seed: 20733]
[early_stopping_round: 0]
[first_metric_only: 0]
[max_delta_step: 0]
[lambda_l1: 0]
[lambda_l2: 0]
[linear_lambda: 0]
[min_gain_to_split: 0]
[drop_rate: 0.1]
[max_drop: 50]
[skip_drop: 0.5]
[xgboost_dart_mode: 0]
[uniform_drop: 0]
[drop_seed: 20829]
[top_rate: 0.2]
[other_rate: 0.1]
[min_data_per_group: 100]
[max_cat_threshold: 32]
[cat_l2: 10]
[cat_smooth: 10]
[max_cat_to_onehot: 4]
[top_k: 20]
[monotone_constraints: ]
[monotone_constraints_method: basic]
[monotone_penalty: 0]
[feature_contri: ]
[forcedsplits_filename: ]
[refit_decay_rate: 0.9]
[cegb_tradeoff: 1]
[cegb_penalty_split: 0]
[cegb_penalty_feature_lazy: ]
[cegb_penalty_feature_coupled: ]
[path_smooth: 0]
[interaction_constraints: ]
[verbosity: -1]
[saved_feature_importance_type: 0]
[linear_tree: 0]
[max_bin: 255]
[max_bin_by_feature: ]
[min_data_in_bin: 3]
[bin_construct_sample_cnt: 200000]
[data_random_seed: 182]
[is_enable_sparse: 1]
[enable_bundle: 1]
[use_missing: 1]
[zero_as_missing: 0]
[feature_pre_filter: 1]
[pre_partition: 0]
[two_round: 0]
[header: 0]
[label_column: ]
[weight_column: ]
[group_column: ]
[ignore_column: ]
[categorical_feature: ]
[forcedbins_filename: ]
[precise_float_parser: 0]
[parser_config_file: ]
[objective_seed: 3944]
[num_class: 1]
[is_unbalance: 0]
[scale_pos_weight: 1]
[sigmoid: 1]
[boost_from_average: 1]
[reg_sqrt: 0]
[alpha: 0.9]
[fair_c: 1]
[poisson_max_delta_step: 0.7]
[tweedie_variance_power: 1.5]
[lambdarank_truncation_level: 30]
[lambdarank_norm: 1]
[label_gain: ]
[lambdarank_position_bias_regularization: 0]
[eval_at: ]
[multi_error_top_k: 1]
[auc_mu_weights: ]
[num_machines: 1]
[local_listen_port: 12400]
[time_out: 120]
[machine_list_filename: ]
[machines: ]
[gpu_platform_id: -1]
[gpu_device_id: -1]
[gpu_use_dp: 0]
[num_gpu: 1]

end of parameters

pandas_categorical:null
