tree
version=v4
num_class=1
num_tree_per_iteration=1
label_index=0
max_feature_idx=19
objective=binary sigmoid:1
feature_names=Column_0 Column_1 Column_2 Column_3 Column_4 Column_5 Column_6 Column_7 Column_8 Column_9 Column_10 Column_11 Column_12 Column_13 Column_14 Column_15 Column_16 Column_17 Column_18 Column_19
feature_infos=[438:520] [367:614] [256:768] [0:999] [435:516] [182:814] [333:653] [317:635] [346:607] [193:828] [216:829] [347:661] [263:719] [207:794] [450:505] [84:773] [265:735] [347:612] [276:677] [142:848]
tree_sizes=1687 1682 1670 1680 1666 1669 1684 1679 1684 1680 1666 1685 1673 1683 1677 1680 1688 1674 1678 1675 1680 1681 1680 1683 1682 1681 1679 1670 1673

Tree=0
num_leaves=15
num_cat=0
split_feature=6 10 7 11 13 11 11 0 0 4 16 15 17 19
split_gain=107.84 67.5776 54.5707 52.1585 59.1048 44.822 33.3275 66.3239 31.787 27.3413 24.3371 23.9235 25.1732 22.886
threshold=495.50000000000006 478.50000000000006 484.50000000000006 509.50000000000006 540.50000000000011 519.50000000000011 478.50000000000006 479.50000000000006 478.50000000000006 476.50000000000006 495.50000000000006 448.50000000000006 467.50000000000006 473.50000000000006
decision_type=2 2 2 2 2 2 2 2 2 2 2 2 2 2
left_child=2 5 3 4 -1 11 -4 -8 10 -10 -3 -2 -13 -5
right_child=1 8 6 13 -6 -7 7 -9 9 -11 -12 12 -14 -15
leaf_value=-0.082824121399388426 0.12750211361224695 -0.16710617973738431 -0.17420247483581611 0.031500445606936073 0.15478940942770997 0.17837678395486717 0.088982925832338272 -0.14728526944643272 -0.035357858896762559 0.15670897028052932 -0.011969336218477551 -0.078215746399133493 0.08750141861003409 -0.1336788949316135
leaf_weight=15.499731153249739 24.999566376209259 15.749726817011831 38.249336555600166 12.499783188104628 32.249440625309944 51.499106734991074 20.2496487647295 28.749501332640648 13.999757170677187 15.749726817011831 28.249510005116463 19.249666109681129 17.499696463346481 25.499557703733444
leaf_count=62 100 63 153 50 129 206 81 115 56 63 113 77 70 102
internal_value=0.00833338 0.0609769 -0.0485703 0.00808313 0.0776583 0.109489 -0.10425 -0.0496438 -0.0135173 0.0663246 -0.0675013 0.0520352 0.000697189 -0.0793436
internal_weight=0 186.997 172.997 85.7485 47.7492 113.248 87.2485 48.9992 73.7487 29.7495 43.9992 61.7489 36.7494 37.9993
internal_count=1440 748 692 343 191 453 349 196 295 119 176 247 147 152
is_linear=0
shrinkage=1


Tree=1
num_leaves=15
num_cat=0
split_feature=18 10 5 11 11 13 11 14 3 14 3 3 13 9
split_gain=89.3107 55.6435 46.7168 45.1304 41.1332 47.5098 26.5271 53.0128 25.7161 24.3272 35.6739 27.2829 24.3074 20.457
threshold=480.50000000000006 473.50000000000006 512.50000000000011 519.50000000000011 509.50000000000006 543.50000000000011 478.50000000000006 476.50000000000006 453.50000000000006 478.50000000000006 453.50000000000006 455.50000000000006 492.50000000000006 656.50000000000011
decision_type=2 2 2 2 2 2 2 2 2 2 2 2 2 2
left_child=2 3 4 -2 5 8 -4 -8 -1 11 -11 12 -3 -6
right_child=1 9 6 -5 13 -7 7 -9 -10 10 -12 -13 -14 -15
leaf_value=-0.15096415802585805 0.036849551581211774 -0.10069663789757383 -0.16594198204602037 0.1671176707807501 -0.096334486716286347 0.13482482894917872 0.073773022407372796 -0.13803569182633491 0.13556021205158336 -0.094921706539126627 0.14285689901063112 -0.13669815252733172 0.09245885341351863 0.19982772302425669
leaf_weight=11.978800266981127 59.839834898710251 11.246299475431444 37.965052857995033 47.868845418095589 35.387710362672806 31.311671435832977 19.458744019269943 30.088083282113075 4.2416068762540808 9.7441178560256976 17.901378631591797 23.381421193480492 15.487005949020384 2.4968446195125571
leaf_count=48 240 45 153 193 142 126 78 121 17 39 72 94 62 10
internal_value=0 0.0482046 -0.0516953 0.0947445 0.000914298 0.0628673 -0.103045 -0.0548511 -0.0760386 -0.0162595 0.0590479 -0.0578024 0.0112012 -0.0768154
internal_weight=0 185.469 172.929 107.709 85.4166 47.5321 87.5119 49.5468 16.2204 77.7602 27.6455 50.1147 26.7333 37.8846
internal_count=1440 745 695 433 343 191 352 199 65 312 111 201 107 152
is_linear=0
shrinkage=0.1


Tree=2
num_leaves=15
num_cat=0
split_feature=6 10 5 1 13 1 0 1 8 3 3 3 13 7
split_gain=72.1952 44.045 38.676 35.4045 41.2278 31.4165 21.3518 61.8264 21.2845 20.8977 20.5509 17.9531 17.7485 18.3379
threshold=491.50000000000006 479.50000000000006 512.50000000000011 501.50000000000006 543.50000000000011 512.50000000000011 479.50000000000006 498.50000000000006 480.50000000000006 479.50000000000006 455.50000000000006 453.50000000000006 530.50000000000011 440.50000000000006
decision_type=2 2 2 2 2 2 2 2 2 2 2 2 2 2
left_child=2 5 3 4 11 -2 7 -4 10 -10 -3 -1 13 -5
right_child=1 8 6 12 -6 -7 -8 -9 9 -11 -12 -13 -14 -15
leaf_value=-0.13866939512393725 0.041031021049253449 0.00099112240281099039 -0.13978426209606487 0.1377832469980986 0.12070507896506653 0.14936154619527492 -0.14284982005345467 0.12831755039027015 -0.036699540443167776 0.13124158485007173 -0.13453987957778302 0.10114496917911751 -0.13491058427886651 -0.098671037261467032
leaf_weight=11.844088241457941 72.952091932296753 24.429744452238083 23.208268091082573 6.2251595556735975 32.090287372469902 42.288728818297386 45.413698732852936 13.666685372591017 14.686940699815752 14.953199356794356 20.64082182943821 4.2389205396175376 21.008977979421616 6.9323087334632874
leaf_count=48 294 98 95 25 131 174 186 55 59 61 84 17 85 28
internal_value=0 0.0420122 -0.0484646 -1.01444e-05 0.055213 0.080784 -0.0969491 -0.0404197 -0.0177929 0.0480253 -0.0610776 -0.0754627 -0.0778726 0.013202
internal_weight=0 189.952 164.628 82.3397 48.1733 115.241 82.2887 36.875 74.7107 29.6401 45.0706 16.083 34.1664 13.1575
internal_count=1440 770 670 334 196 468 336 150 302 120 182 65 138 53
is_linear=0
shrinkage=0.1


Tree=3
num_leaves=15
num_cat=0
split_feature=18 10 11 5 11 13 15 0 17 11 0 3 8 3
split_gain=61.0544 38.3526 34.5859 32.469 28.0008 32.3828 20.6047 20.6012 20.3089 19.7814 38.1836 17.781 17.6883 21.7041
threshold=480.50000000000006 473.50000000000006 519.50000000000011 512.50000000000011 509.50000000000006 543.50000000000011 448.50000000000006 472.50000000000006 469.50000000000006 478.50000000000006 479.50000000000006 453.50000000000006 481.50000000000006 479.50000000000006
decision_type=2 2 2 2 2 2 2 2 2 2 2 2 2 2
left_child=3 2 6 4 5 11 7 -2 -8 -5 -11 -1 -3 -14
right_child=1 12 -4 9 -6 -7 8 -9 -10 10 -12 -13 13 -15
leaf_value=-0.12680779059215194 -0.11500401007264703 -0.053803416666899063 0.14484698650615291 -0.14311628761530948 -0.063744630163801649 0.11361276597083353 -0.082022347530334022 0.14150931197045666 0.070646933826753355 0.059436329762988398 -0.12086625839688098 0.11299305055870401 -0.043081913400813389 0.12388956051545374
leaf_weight=11.612562015652655 3.7107306718826321 45.146189793944359 45.621238052845001 36.175446301698685 37.181463345885277 30.220305621623993 20.989209398627281 20.037945628166199 14.897899031639097 20.220176994800568 28.024351581931114 4.2142392247915259 14.908123061060907 16.293278783559799
leaf_count=48 15 184 193 153 152 126 84 81 60 82 117 17 60 68
internal_value=0 0.0401702 0.0793088 -0.0435182 0.000803934 0.0529247 0.0291723 0.101429 -0.0186444 -0.0872149 -0.0452981 -0.0629555 -0.0137885 0.0441101
internal_weight=0 181.605 105.257 167.649 83.2286 46.0471 59.6358 23.7487 35.8871 84.42 48.2445 15.8268 76.3476 31.2014
internal_count=1440 745 433 695 343 191 240 96 144 352 199 65 312 128
is_linear=0
shrinkage=0.1


Tree=4
num_leaves=15
num_cat=0
split_feature=18 10 11 5 11 13 11 0 15 0 17 17 6 1
split_gain=50.6359 31.9249 30.0662 27.2649 23.0763 27.1845 17.1447 31.8072 16.9922 17.0019 16.5994 16.51 16.4238 15.671
threshold=480.50000000000006 473.50000000000006 519.50000000000011 512.50000000000011 509.50000000000006 548.50000000000011 478.50000000000006 479.50000000000006 448.50000000000006 472.50000000000006 531.50000000000011 469.50000000000006 576.50000000000011 542.50000000000011
decision_type=2 2 2 2 2 2 2 2 2 2 2 2 2 2
left_child=3 2 8 4 5 -1 -5 10 9 -2 -8 12 -10 -6
right_child=1 -3 -4 6 13 -7 7 -9 11 -11 -12 -13 -14 -15
leaf_value=-0.054835013691588212 -0.10257423927521073 -0.01250183361937208 0.13575532147658426 -0.13404901724886972 -0.085503705758044751 0.10723759086903653 0.12146400952846011 -0.11196550954590555 -0.10645596219995462 0.12998154793680541 -0.068380677505886403 0.064056667878461523 0.16685818228779681 0.095756754164306485
leaf_weight=16.1706622838974 3.7423525750637081 75.621110990643501 43.897553041577339 34.829467862844467 31.261345908045769 28.746706008911133 12.93472181260586 27.2663344591856 18.467010557651523 19.652821585536003 7.1525040268898001 14.793013036251066 2.4957551807165137 5.628443017601966
leaf_count=68 15 312 193 153 129 123 53 117 74 81 29 60 10 23
internal_value=0 0.0368427 0.0730536 -0.0401105 0.000757996 0.04889 -0.080792 -0.0416205 0.026521 0.0927813 0.0538656 -0.0168335 -0.0739161 -0.057848
internal_weight=0 178.67 103.049 163.99 81.8072 44.9174 82.183 47.3536 59.151 23.3952 20.0872 35.7558 20.9628 36.8898
internal_count=1440 745 433 695 343 191 352 199 240 96 82 144 84 152
is_linear=0
shrinkage=0.1


Tree=5
num_leaves=15
num_cat=0
split_feature=6 13 4 5 13 1 17 9 1 19 13 3 0 11
split_gain=41.9667 27.4294 26.7638 22.9478 20.9991 20.5327 24.8822 17.3044 16.6124 16.6702 14.7138 14.7044 20.4989 14.3722
threshold=491.50000000000006 554.50000000000011 473.50000000000006 512.50000000000011 492.50000000000006 501.50000000000006 500.50000000000006 414.50000000000006 508.50000000000006 263.50000000000006 530.50000000000011 551.50000000000011 483.50000000000006 478.50000000000006
decision_type=2 2 2 2 2 2 2 2 2 2 2 2 2 2
left_child=3 2 4 5 -2 6 -1 -3 9 -4 11 12 -7 -5
right_child=1 7 8 13 -6 10 -8 -9 -10 -11 -12 -13 -14 -15
leaf_value=-0.06510442542992434 -0.081425770908553574 -0.13377350428601853 -0.17189475642301663 -0.12831190515516952 0.088008249800653193 -0.18070963194235432 0.094138338664839144 0.05357561008414842 0.11166785622310081 0.048667261786645634 -0.11383190013949802 -0.12207880436300389 0.1881630908921556 -0.040207670217444237
leaf_weight=14.40041860938072 24.351151764392853 14.843440964818003 3.6053988933563224 32.169294819235802 10.455441966652868 1.9694278091192225 30.79682220518589 7.3818444460630408 52.200861424207687 69.149048954248428 20.106438919901848 4.53536432981491 6.409587636590004 43.622655615210533
leaf_count=61 99 63 15 148 42 8 135 30 234 287 85 19 26 188
internal_value=0 0.0325401 0.0470203 -0.0383891 -0.03053 -0.000391752 0.0434016 -0.0715479 0.0686222 0.0377372 -0.0603338 0.0229575 0.101462 -0.0776028
internal_weight=0 181.987 159.762 154.01 34.8066 78.2181 45.1972 22.2253 124.955 72.7544 33.0208 12.9144 8.37902 75.792
internal_count=1440 770 677 670 141 334 196 93 536 302 138 53 34 336
is_linear=0
shrinkage=0.1


Tree=6
num_leaves=15
num_cat=0
split_feature=6 13 4 5 9 11 17 11 9 13 11 8 15 0
split_gain=35.2502 20.6554 25.078 19.0579 17.5327 16.6575 20.0162 15.2775 14.9767 14.2798 13.6285 36.1757 13.2386 25.6387
threshold=483.50000000000006 552.50000000000011 473.50000000000006 510.50000000000006 414.50000000000006 509.50000000000006 505.50000000000006 519.50000000000011 656.50000000000011 492.50000000000006 506.50000000000006 482.50000000000006 469.50000000000006 484.50000000000006
decision_type=2 2 2 2 2 2 2 2 2 2 2 2 2 2
left_child=3 2 9 5 -3 6 -1 12 -7 -2 -5 -12 -4 -14
right_child=1 4 7 10 -6 8 -8 -9 -10 -11 11 -13 13 -15
leaf_value=-0.049897248967942023 -0.07488274149447538 -0.11960264174392284 0.071892024716577976 -0.11422151078598382 0.053824961130331861 -0.075190052869465243 0.094743929604002131 0.099319849324725651 0.18419372969834225 0.062725510729314732 0.10139371054790812 -0.11793759971447795 0.077574152249785422 -0.10177362603107142
leaf_weight=15.288111522793768 24.617490157485008 15.875293403863909 35.405753880739212 38.871343299746513 9.2116663604974729 29.623492419719696 25.568798184394836 59.447426319122314 2.4068960994482032 10.871225401759146 13.031299889087679 17.780560165643692 15.135706737637522 16.838251531124115
leaf_count=66 101 69 149 182 38 127 116 273 10 44 54 80 62 69
internal_value=0 0.0285253 0.0415771 -0.0374555 -0.0559219 -0.00170679 0.0406211 0.0623695 -0.0556989 -0.0327293 -0.074848 -0.0251755 0.0297692 -0.0168747
internal_weight=0 187.403 162.316 142.571 25.087 72.8873 40.8569 126.827 32.0304 35.4887 69.6832 30.8119 67.3797 31.974
internal_count=1440 805 698 635 107 319 182 553 137 145 316 134 280 131
is_linear=0
shrinkage=0.1


Tree=7
num_leaves=15
num_cat=0
split_feature=6 3 13 15 10 11 11 3 13 5 6 9 19 18
split_gain=31.4649 18.3578 12.4974 14.8144 10.7191 15.9222 15.4556 11.3752 17.3484 12.9677 12.5848 11.7973 10.4706 9.99485
threshold=450.50000000000006 699.00000000000011 362.00000000000006 482.50000000000006 611.50000000000011 496.50000000000006 577.50000000000011 422.50000000000006 557.50000000000011 481.50000000000006 501.50000000000006 498.50000000000006 288.50000000000006 501.50000000000006
decision_type=2 2 2 2 2 2 2 2 2 2 2 2 2 2
left_child=-1 2 3 12 7 -6 -7 9 -9 11 -10 -4 -2 -3
right_child=1 13 4 -5 5 6 -8 8 10 -11 -12 -13 -14 -15
leaf_value=-0.058214951590593846 -0.021512718522672655 -0.048479076916057913 0.070681747891649216 -0.1071090484132248 0.12929104609466566 -0.1534504464606754 0.19756242272964147 0.022598204098554755 -0.0066735906986769627 -0.10536114106098103 -0.14055824399142025 -0.11303504509735081 0.13575620470608046 0.13639167428510554
leaf_weight=72.086128816008568 5.4662536829710069 3.5039075016975429 10.991119340062143 4.0147410184144965 13.822891294956209 4.7565341740846625 1.7037206143140791 113.80724948644638 16.252735868096355 22.405089125037193 12.359929412603377 5.1251705288887015 18.769797965884209 17.682699933648109
leaf_count=331 24 16 45 18 61 20 7 497 74 99 55 22 86 85
internal_value=0 0.0167528 0.00852985 0.0708124 -0.000214277 0.0687208 -0.0608801 -0.00794176 0.0050982 -0.0561527 -0.0645083 0.0122576 0.100285 0.105817
internal_weight=0 250.662 229.475 28.2508 201.224 20.2831 6.46025 180.941 142.42 38.5214 28.6127 16.1163 24.2361 21.1866
internal_count=1440 1109 1008 128 880 88 27 792 626 166 129 67 110 101
is_linear=0
shrinkage=0.1


Tree=8
num_leaves=15
num_cat=0
split_feature=6 3 13 15 8 10 1 1 1 7 13 13 2 12
split_gain=25.7506 15.8295 10.5166 12.4035 10.3968 8.95031 13.4248 11.521 10.9003 18.996 14.8048 13.5615 16.1129 13.0325
threshold=450.50000000000006 699.00000000000011 362.00000000000006 482.50000000000006 480.50000000000006 611.50000000000011 479.50000000000006 531.50000000000011 470.50000000000006 466.50000000000006 443.50000000000006 540.50000000000011 431.50000000000006 502.50000000000006
decision_type=2 2 2 2 2 2 2 2 2 2 2 2 2 2
left_child=4 2 3 -2 -1 8 -7 -8 9 10 -4 -12 -13 -10
right_child=1 -3 5 -5 -6 6 7 -9 13 -11 11 12 -14 -15
leaf_value=-0.014173041892256908 0.093338756250220936 0.10011282497351637 -0.12659889589899145 -0.098651580504994826 -0.090412487482604539 0.12494374701846744 -0.11976152765203925 0.18111673547157536 -0.020915491152924418 -0.074476018690603982 0.093981015241180021 -0.1394038574883377 0.12522619358211215 0.053321854592399826
leaf_weight=35.305778190493584 23.490429982542995 20.217020645737648 5.7460530996322623 3.9276258498430243 36.255420178174973 12.716639190912248 5.308730259537696 1.6739328950643537 47.387701362371445 48.262961819767952 20.980401366949085 6.5858340710401517 3.5363906174898148 47.202242597937584
leaf_count=160 110 101 24 18 171 58 23 7 207 215 88 30 16 212
internal_value=0 0.0153247 0.00776732 0.0658362 -0.0527986 -0.000217278 0.0637718 -0.0476329 -0.00723191 -0.0331959 0.0208711 0.0481155 -0.0469503 0.0161304
internal_weight=0 247.036 226.819 27.4181 71.5612 199.401 19.6993 6.98266 179.702 85.1116 36.8487 31.1026 10.1222 94.5899
internal_count=1440 1109 1008 128 331 880 88 30 792 373 158 134 46 419
is_linear=0
shrinkage=0.1


Tree=9
num_leaves=15
num_cat=0
split_feature=10 15 0 12 1 8 11 8 15 13 11 9 9 2
split_gain=14.8578 13.3373 25.0041 13.1195 25.1454 21.8792 13.9747 43.0994 27.3293 13.6804 13.0455 14.6804 12.6584 12.3718
threshold=443.50000000000006 469.50000000000006 484.50000000000006 488.50000000000006 467.50000000000006 480.50000000000006 517.50000000000011 492.50000000000006 482.50000000000006 606.50000000000011 517.50000000000011 464.50000000000006 293.50000000000006 570.50000000000011
decision_type=2 2 2 2 2 2 2 2 2 2 2 2 2 2
left_child=1 -1 -3 6 -5 9 12 -8 -9 -6 -4 -12 -2 -11
right_child=3 2 10 4 5 -7 7 8 -10 13 11 -13 -14 -15
leaf_value=0.092223229593533629 -0.16072452494529843 0.078555138369381383 -0.10046403486375743 -0.10543905485346863 0.11168275685065127 -0.080475052394487503 -0.11379472777638121 0.12247397714426561 -0.10887325221262829 0.037469932628143549 0.12219259950336914 -0.072582134479751009 0.039794227874216874 -0.20533223842942602
leaf_weight=27.476452216506004 3.2807833701372138 28.583634912967682 20.002975150942802 37.903123393654823 18.085257217288021 18.459297940135002 30.504103854298592 19.24322305619717 6.9505610018968573 7.1960451155900937 7.5055655837059003 7.9881470203399658 77.930936932563782 2.9625654667615891
leaf_count=131 15 131 87 187 78 87 135 88 33 30 41 38 347 12
internal_value=0 0.0339364 0.00894408 -0.013923 -0.0449239 0.00418866 0.00509578 -0.033002 0.0610856 0.0595222 -0.0471101 0.0217719 0.0316937 -0.0333387
internal_weight=0 91.5568 64.0803 222.516 84.6063 46.7032 137.91 56.6979 26.1938 28.2439 35.4967 15.4937 81.2117 10.1586
internal_count=1440 428 297 1012 394 207 618 256 121 120 166 79 362 42
is_linear=0
shrinkage=0.1


Tree=10
num_leaves=15
num_cat=0
split_feature=6 7 1 17 3 15 0 1 0 2 1 5 2 4
split_gain=19.6368 13.6576 16.3535 18.9282 12.7036 12.3584 16.0508 10.9485 14.8686 10.8151 10.9527 9.11612 10.0948 23.6421
threshold=473.50000000000006 469.50000000000006 501.50000000000006 510.50000000000006 699.00000000000011 461.50000000000006 485.50000000000006 471.50000000000006 479.50000000000006 495.50000000000006 474.50000000000006 640.50000000000011 502.50000000000006 473.50000000000006
decision_type=2 2 2 2 2 2 2 2 2 2 2 2 2 2
left_child=1 2 3 9 11 6 -4 -3 -9 -1 -11 12 -2 -14
right_child=4 7 5 -5 -6 -7 -8 8 -10 10 -12 -13 13 -15
leaf_value=0.1679730750264643 0.0018982553857948585 -0.11622115950299304 -0.14690401490655522 0.10742595298793488 0.10001881189732863 -0.11563846803353801 0.14316147991554859 0.032557289008866189 -0.096589700299169468 -0.15925228226057486 0.11433857529175234 -0.073953917056537713 -0.026391997682506746 0.11900651981084176
leaf_weight=1.7789740413427377 117.37368454039097 24.914375454187393 3.0001779496669787 20.420592486858368 17.788813725113869 14.603883698582647 5.2388134300708771 18.450366586446762 17.248440563678741 7.0168180316686612 1.8487848490476606 11.69839498400688 19.436751887202263 26.335885629057884
leaf_count=8 528 137 14 98 96 70 22 78 85 32 8 54 85 125
internal_value=0 -0.0327795 0.00383898 0.0510689 0.0195088 -0.0603914 0.0375359 -0.0653473 -0.0298421 -0.0570466 -0.102199 0.0113176 0.017432 0.0572649
internal_weight=0 114.521 53.908 31.0652 192.634 22.8429 8.23899 60.6132 35.6988 10.6446 8.8656 174.845 163.146 45.7726
internal_count=1440 552 252 146 888 106 36 300 163 48 40 792 738 210
is_linear=0
shrinkage=0.1


Tree=11
num_leaves=15
num_cat=0
split_feature=6 3 9 18 8 9 13 15 19 3 10 1 3 13
split_gain=16.7443 10.7587 8.2864 8.23825 6.7644 8.37085 6.73623 8.68029 9.44704 7.73077 7.31233 10.2371 6.93827 12.3349
threshold=450.50000000000006 699.00000000000011 741.50000000000011 501.50000000000006 464.50000000000006 504.50000000000006 362.00000000000006 482.50000000000006 288.50000000000006 522.50000000000011 625.50000000000011 479.50000000000006 433.50000000000006 538.50000000000011
decision_type=2 2 2 2 2 2 2 2 2 2 2 2 2 2
left_child=2 6 4 -3 5 -1 7 8 9 -2 12 -12 -8 -14
right_child=1 3 -4 -5 -6 -7 10 -9 -10 -11 11 -13 13 -15
leaf_value=0.14719683403591252 -0.14816891948215669 -0.052599482197996331 0.13807145119708994 0.11945611514058448 -0.07836519821173453 -0.03225135284285742 -0.038761259627683405 -0.08640047281088567 0.11590352504590684 0.096232382196407826 0.13604445428805279 -0.044332446049916423 0.023977486427627585 -0.046572403989704338
leaf_weight=2.9259924441576031 2.8792607337236467 3.4375101923942593 2.3991226702928534 14.613580793142317 37.694804415106773 23.297160819172859 46.338304132223129 3.7246750593185416 16.517236784100533 2.3510516732931137 8.6685701608657819 4.9392011165618888 98.525389343500137 33.110703468322754
leaf_count=14 12 16 11 85 194 112 211 18 86 12 43 23 445 158
internal_value=0 0.0125121 -0.0443834 0.0866912 -0.0512318 -0.0122284 0.00634303 0.0546565 0.0788151 -0.0383093 -8.05966e-05 0.0705732 -0.00548273 0.00623192
internal_weight=0 235.105 66.3171 18.0511 63.918 26.2232 217.054 25.4722 21.7475 5.23031 191.582 13.6078 177.974 131.636
internal_count=1440 1109 331 101 320 126 1008 128 110 24 880 66 814 603
is_linear=0
shrinkage=0.1


Tree=12
num_leaves=15
num_cat=0
split_feature=6 3 18 2 13 5 5 3 5 16 3 13 6 2
split_gain=13.8319 9.35444 7.23855 7.13149 10.7804 9.26338 7.36275 10.0612 9.82985 6.8045 9.33123 15.4764 9.87061 8.08008
threshold=450.50000000000006 699.00000000000011 501.50000000000006 630.00000000000011 576.00000000000011 530.50000000000011 480.50000000000006 541.50000000000011 385.50000000000006 444.50000000000006 435.50000000000006 507.50000000000006 600.50000000000011 528.50000000000011
decision_type=2 2 2 2 2 2 2 2 2 2 2 2 2 2
left_child=3 9 -3 4 -1 -5 8 -8 -6 -2 11 -11 -12 -13
right_child=1 2 -4 5 6 -7 7 -9 -10 10 12 13 -14 -15
leaf_value=-0.10876156027697673 -0.02514367274820551 -0.047751198398124729 0.11508309552850522 0.15123494202811452 -0.070110407965575466 -0.029191043061437973 -0.12734309197881899 0.18009450500601382 0.077796716811325869 -0.058148718273581028 0.039283884241376139 0.096867563768656309 -0.1873901174002075 -0.014302164772113586
leaf_weight=22.970556378364563 53.391837373375893 3.4093982279300716 13.69939076900482 4.0061009973287574 7.4035248309373918 9.8229354619979841 8.3390847593545896 1.2202442735433567 11.431030988693236 35.061126545071602 98.165244325995445 13.607312902808191 1.9594027698039997 12.584477022290228
leaf_count=125 250 16 85 18 37 51 39 5 56 159 465 60 9 65
internal_value=0 0.0114707 0.0826339 -0.0406655 -0.0578269 0.0230761 -0.0166209 -0.0880988 0.0196571 0.00580173 0.01604 -0.0147036 0.034848 0.0434534
internal_weight=0 231.878 17.1088 65.1935 51.3644 13.829 28.3939 9.55933 18.8346 214.769 161.378 61.2529 100.125 26.1918
internal_count=1440 1109 101 331 262 69 137 44 93 1008 758 284 474 125
is_linear=0
shrinkage=0.1


Tree=13
num_leaves=15
num_cat=0
split_feature=18 5 8 1 11 17 9 11 17 9 11 4 5 17
split_gain=11.6902 10.1511 9.6199 24.7006 9.55745 11.9552 10.3794 9.41099 9.29802 12.0136 11.5615 10.5177 9.85939 9.79113
threshold=463.50000000000006 510.50000000000006 480.50000000000006 501.50000000000006 509.50000000000006 505.50000000000006 656.50000000000011 488.50000000000006 502.50000000000006 414.50000000000006 519.50000000000011 474.50000000000006 640.50000000000011 478.50000000000006
decision_type=2 2 2 2 2 2 2 2 2 2 2 2 2 2
left_child=1 4 3 -3 5 7 -6 -1 10 -10 12 -12 13 -2
right_child=8 2 -4 -5 6 -7 -8 -9 9 -11 11 -13 -14 -15
leaf_value=-0.062832835063673945 -0.0044041997734043468 -0.093252391131089574 -0.091974100029806438 0.10036874264976614 -0.058275820984256523 0.081385237163947632 0.16456525831673144 0.23177291946513759 -0.08994723692571463 0.045442646112673415 -0.085420911509156261 0.07915881196292493 -0.10942863692876424 0.073235085770635186
leaf_weight=12.376278087496756 63.978724882006645 15.365479916334154 30.96836756169796 11.534880369901655 25.773257672786716 22.960920825600624 2.2746285647153845 1.1884289830923069 16.580442205071453 10.83796690404415 4.2360111624002448 46.598009452223778 6.8424240797758094 21.77021898329258
leaf_count=60 281 85 175 50 126 116 10 5 81 47 18 263 30 93
internal_value=0 -0.0235585 -0.0539741 -0.0102276 0.00369898 0.0374118 -0.0402038 -0.0370219 0.0169263 -0.0364302 0.0271264 0.0654443 0.00608925 0.0153071
internal_weight=0 122.442 57.8687 26.9004 64.5735 36.5256 28.0479 13.5647 170.844 27.4184 143.425 50.834 92.5914 85.7489
internal_count=1440 627 310 135 317 181 136 65 813 128 685 281 404 374
is_linear=0
shrinkage=0.1


Tree=14
num_leaves=15
num_cat=0
split_feature=6 3 1 2 3 19 17 15 16 7 11 12 3 9
split_gain=11.1162 7.8683 5.98144 8.0934 9.7354 10.3368 10.0937 9.53203 7.37324 8.32057 17.9946 8.22326 8.28318 8.87841
threshold=450.50000000000006 699.00000000000011 555.50000000000011 597.50000000000011 285.50000000000006 210.00000000000003 421.50000000000006 482.50000000000006 576.50000000000011 536.50000000000011 503.50000000000006 553.50000000000011 551.50000000000011 310.50000000000006
decision_type=2 2 2 2 2 2 2 2 2 2 2 2 2 2
left_child=-1 2 3 4 -2 -6 7 -7 9 11 -11 12 13 -8
right_child=1 -3 -4 -5 5 6 8 -9 -10 10 -12 -13 -14 -15
leaf_value=-0.037737035874363806 0.12264713032034309 0.078628480116315902 0.10246394847662499 -0.08445549240748311 -0.19726334113143401 0.1007383252687913 -0.14264149601306358 -0.11843897934187897 -0.059515394268491686 -0.15419677607792356 0.048204747507084263 0.073576818678359565 -0.0293373547564608 0.035186019174109871
leaf_weight=61.318273723125458 6.9953985959291449 15.672640070319174 6.1350355297327033 10.225801721215246 2.5552034080028525 16.611362218856815 2.9462629407644263 2.2534119784831992 20.038335978984833 9.3572106659412402 8.2788267284631711 19.661332741379738 45.254631251096725 59.66142064332962
leaf_count=331 34 101 32 54 11 90 15 11 92 46 41 93 213 276
internal_value=0 0.0102786 0.0051769 0.00224881 0.00682814 0.00248665 0.00525963 0.0745574 -0.00265383 0.00519554 -0.0591841 0.014099 0.00325728 0.0268176
internal_weight=0 225.647 209.974 203.839 193.613 186.618 184.063 18.8648 165.198 145.16 17.636 127.524 107.862 62.6077
internal_count=1440 1109 1008 976 922 888 877 101 776 684 87 597 504 291
is_linear=0
shrinkage=0.1


Tree=15
num_leaves=15
num_cat=0
split_feature=18 10 11 5 0 1 0 3 3 2 17 10 11 7
split_gain=8.35067 13.5429 13.5795 10.2843 9.95067 18.4849 9.40392 16.3422 14.9848 10.3196 9.84212 9.23988 8.79817 9.24947
threshold=480.50000000000006 461.50000000000006 407.50000000000006 512.50000000000011 484.50000000000006 498.50000000000006 482.50000000000006 463.50000000000006 455.50000000000006 508.50000000000006 482.50000000000006 556.50000000000011 519.50000000000011 544.50000000000011
decision_type=2 2 2 2 2 2 2 2 2 2 2 2 2 2
left_child=3 2 -2 -1 5 -5 8 11 10 -10 -3 -8 13 -4
right_child=1 6 12 4 -6 -7 7 -9 9 -11 -12 -13 -14 -15
leaf_value=0.0085356584924766426 -0.15296996993712067 -0.054030690749656454 0.047428275188069663 -0.075514910703468135 -0.091966060517218576 0.069974557020347841 -0.10140594286312046 0.096560411624169395 -0.12335424398926814 0.15228261207633301 0.069199400167759662 0.1720331155102599 0.099851803725837365 -0.07203275741959772
leaf_weight=68.363842651247978 3.3170247822999945 12.620390668511392 40.38693031668663 20.077106699347496 27.974744141101837 15.455297857522963 9.0567522495985049 15.977760836482046 19.613541156053547 1.4593451321125019 13.323455989360808 1.4310600012540806 26.685850344598293 7.7202974855899802
leaf_count=343 14 55 180 117 164 71 38 84 93 7 57 6 177 34
internal_value=0 0.0160305 0.045021 -0.0183804 -0.0473548 -0.0122323 -0.0147858 0.0328956 -0.0416255 -0.104266 0.00925409 -0.0640952 0.0538017 0.028257
internal_weight=0 151.592 78.1101 131.871 63.5071 35.5324 73.4823 26.4656 47.0167 21.0729 25.9438 10.4878 74.7931 48.1072
internal_count=1440 745 405 695 352 188 340 128 212 100 112 44 391 214
is_linear=0
shrinkage=0.1


Tree=16
num_leaves=15
num_cat=0
split_feature=6 11 2 3 19 13 16 10 17 11 2 3 3 12
split_gain=8.53944 6.43153 5.9668 7.81189 8.41561 8.1084 5.75023 6.11659 9.12255 8.90805 8.22313 9.99876 11.5082 8.58245
threshold=450.50000000000006 561.50000000000011 595.00000000000011 285.50000000000006 210.00000000000003 366.50000000000006 574.50000000000011 579.50000000000011 511.50000000000006 407.50000000000006 446.50000000000006 551.50000000000011 480.50000000000006 531.50000000000011
decision_type=2 2 2 2 2 2 2 2 2 2 2 2 2 2
left_child=-1 2 3 -2 -5 -6 7 8 9 -7 -11 12 13 -12
right_child=1 -3 -4 4 5 6 -8 -9 -10 10 11 -13 -14 -15
leaf_value=-0.033417998217322213 0.11242238141570254 0.054219537828465759 -0.086132009697837714 -0.17901036291960443 0.071774283466022187 -0.10313224724470674 -0.053928095151831695 0.072056433797932917 -0.065593400607092581 0.044572962900940261 -0.1075795260063484 -0.07083851664536342 0.096598769135008547 0.033821212621169626
leaf_weight=59.889881424605846 6.6698095053434363 27.719806551933289 7.2789687514305106 2.5269534289836875 16.372947297990322 6.5713981240987769 18.887633576989174 12.34973920881748 18.971788465976715 52.116236515343189 7.7770359069109025 18.341356500983238 12.401840195059775 9.5801837444305402
leaf_count=331 34 161 42 11 93 30 88 63 101 252 35 91 62 46
internal_value=0 0.00922419 0.00265433 0.00619425 0.00216621 0.00480694 -0.00217696 0.00490044 -0.00169434 0.00965786 0.0170537 -0.0127631 0.0230305 -0.0295345
internal_weight=0 217.566 189.846 182.567 175.897 173.37 156.997 138.11 125.76 106.788 100.217 48.1004 29.7591 17.3572
internal_count=1440 1109 948 906 872 861 768 680 617 516 486 234 143 81
is_linear=0
shrinkage=0.1


Tree=17
num_leaves=15
num_cat=0
split_feature=6 8 3 2 13 1 12 3 5 1 13 15 6 13
split_gain=6.98163 6.14564 6.34549 5.54418 8.70292 14.4928 13.4745 8.58304 6.45147 5.30898 4.93914 8.03834 6.02353 5.26903
threshold=450.50000000000006 585.50000000000011 699.00000000000011 630.00000000000011 576.00000000000011 486.50000000000006 487.50000000000006 517.50000000000011 530.50000000000011 512.50000000000011 368.50000000000006 503.50000000000006 595.00000000000011 668.50000000000011
decision_type=2 2 2 2 2 2 2 2 2 2 2 2 2 2
left_child=3 2 10 4 -1 6 -6 -8 -5 -10 11 12 -2 -12
right_child=1 -3 -4 8 5 -7 7 -9 9 -11 13 -13 -14 -15
leaf_value=-0.096558895994942467 0.08693657440248434 -0.19163163868099964 0.0756549549850246 0.13512395334223451 0.11316185429521278 -0.10128293216845136 -0.14237379459957675 0.17149101863862148 -0.1061581506174093 0.04919050176495688 -0.002365646580916661 -0.099770126909766735 -0.13055960316696544 0.15066697047119959
leaf_weight=19.816214114427567 18.656841494143016 1.5244116485118855 13.717945650219916 3.9055124819278708 10.977046400308614 10.443218529224394 4.3423552662134162 1.089975833892822 3.9189465641975385 5.0149879902601242 173.55197171866894 3.149546615779399 1.3666231334209431 2.2794479876756659
leaf_count=125 112 7 99 18 54 54 24 5 26 25 856 16 7 12
internal_value=0 0.00843833 0.00987207 -0.0302798 -0.0462897 -0.00919291 0.0494148 -0.0793981 0.0279132 -0.0189545 0.00533747 0.0487337 0.0720922 -0.000381758
internal_weight=0 214.247 212.722 59.5083 46.6688 26.8526 16.4094 5.43233 12.8394 8.93393 199.004 23.173 20.0235 175.831
internal_count=1440 1109 1102 331 262 137 83 29 69 51 1003 135 119 868
is_linear=0
shrinkage=0.1


Tree=18
num_leaves=15
num_cat=0
split_feature=6 11 8 2 4 5 10 18 16 1 15 8 3 13
split_gain=5.88344 5.16317 5.56429 5.19233 6.57773 5.13808 6.09581 8.39981 9.23665 9.18856 8.68727 7.32821 9.87735 8.29768
threshold=450.50000000000006 561.50000000000011 585.50000000000011 595.00000000000011 459.50000000000006 648.00000000000011 477.50000000000006 493.50000000000006 557.50000000000011 420.50000000000006 660.00000000000011 511.50000000000006 525.00000000000011 646.50000000000011
decision_type=2 2 2 2 2 2 2 2 2 2 2 2 2 2
left_child=-1 2 3 4 -2 6 7 8 10 -9 -6 12 13 -8
right_child=1 -3 -4 -5 5 -7 11 9 -10 -11 -12 -13 -14 -15
leaf_value=-0.028466530102588899 0.12029227852918419 0.048475091100180591 -0.19591598358325105 -0.081132842683396267 -0.070628826724440499 -0.07343640915581201 -0.019179160552250673 -0.1141200064529333 0.2421150006730477 0.05474876454368454 0.13927571767095923 0.043382184417853936 -0.1114012052690397 0.15195059496291977
leaf_weight=57.168939493596554 4.9446684122085562 27.06032831966877 1.4136686474084843 7.0168690755963317 16.795033589005477 8.3027186095714551 49.970708258450031 3.4137474596500388 1.1819347888231266 57.417252011597157 2.2339560240507117 18.658917412161827 11.587407454848288 3.0036990493535987
leaf_count=331 27 161 6 42 83 43 240 15 6 306 12 90 61 17
internal_value=0 0.00766307 0.00172361 0.00323774 0.00657286 0.00331435 0.00719375 0.026715 -0.0291384 0.0452721 -0.0459866 -0.0118164 -0.0277693 -0.00947594
internal_weight=0 213.001 185.941 184.527 177.51 172.565 164.263 81.0419 20.2109 60.831 19.029 83.2207 64.5618 52.9744
internal_count=1440 1109 948 942 900 873 830 422 101 321 95 408 318 257
is_linear=0
shrinkage=0.1


Tree=19
num_leaves=15
num_cat=0
split_feature=3 6 15 8 10 7 1 9 8 6 3 6 6 7
split_gain=4.94663 5.79506 3.92332 13.9325 9.33942 6.9326 8.23076 7.2252 7.01742 6.68353 6.12552 7.18705 6.70322 6.45501
threshold=699.00000000000011 482.50000000000006 470.50000000000006 514.50000000000011 461.50000000000006 467.50000000000006 467.50000000000006 310.50000000000006 460.50000000000006 555.50000000000011 553.50000000000011 471.50000000000006 496.50000000000006 480.50000000000006
decision_type=2 2 2 2 2 2 2 2 2 2 2 2 2 2
left_child=2 -2 4 -4 9 7 -7 -6 -8 -1 11 -5 -13 -12
right_child=1 -3 3 10 5 6 8 -9 -10 -11 13 12 -14 -15
leaf_value=0.11278886812246161 -0.076234318188183436 0.090041397518822952 0.0045654494502764568 -0.067170569290664839 -0.12933957955090972 -0.12779561741188525 0.13909302546166927 0.013931730988974607 -0.072603145791331147 0.014021076030975835 -0.019260476211677032 0.23714738349010756 -0.055282262496185841 -0.12450474781823029
leaf_weight=13.11538551002741 2.5846940577030173 11.086923226714132 97.878402262926102 5.2342749610543233 3.6979977563023558 9.0401512756943685 2.8007687926292411 73.091483220458031 3.5513380989432335 14.345019809901713 8.4717676639556903 1.984201565384865 1.2957542091608045 18.672731325030327
leaf_count=76 14 90 524 37 20 53 12 360 17 80 41 9 6 101
internal_value=0 0.0586061 -0.00314795 -0.0149309 0.0100034 -0.00524582 -0.0664985 0.00703213 0.0207379 0.0611936 -0.0684457 0.00555855 0.121622 -0.0916581
internal_weight=0 13.6716 253.179 133.537 119.642 92.1817 15.3923 76.7895 6.35211 27.4604 35.6587 8.51423 3.27996 27.1445
internal_count=1440 104 1336 718 618 462 82 380 29 156 194 52 15 142
is_linear=0
shrinkage=0.1


Tree=20
num_leaves=15
num_cat=0
split_feature=6 9 1 8 5 2 4 19 17 4 3 16 12 10
split_gain=4.50943 5.13568 4.29962 4.41014 4.46049 4.31687 5.68022 5.72154 5.36181 6.10558 5.34445 5.20852 4.20977 8.29567
threshold=450.50000000000006 741.50000000000011 530.50000000000011 585.50000000000011 704.00000000000011 595.00000000000011 462.50000000000006 263.50000000000006 421.50000000000006 483.50000000000006 522.50000000000011 608.50000000000011 399.50000000000006 643.50000000000011
decision_type=2 2 2 2 2 2 2 2 2 2 2 2 2 2
left_child=1 12 3 4 5 6 -2 10 9 -9 -8 -10 -1 -14
right_child=2 -3 -4 -5 -6 -7 7 8 11 -11 -12 -13 13 -15
leaf_value=-0.12451237781315867 0.092879867427921994 0.12252518992707713 0.044034161650958782 -0.18972841654060102 -0.19059934382401472 -0.072652191337707978 -0.12982895938960023 0.1237933438746173 0.0038753139753270418 -0.022201177228423435 0.13332529432478726 -0.14601242183462657 -0.042405104349313938 0.062752422749611764
leaf_weight=4.4428215473890296 7.3672470152378073 2.2625783979892722 26.996858134865761 1.2012137323617924 1.188030719757079 7.088761366903781 5.2714586257934561 7.7953454852104169 142.47700950503349 4.5286664515733719 0.90412762761116017 2.3567132353782645 40.467161014676094 9.2090982273220998
leaf_count=25 41 11 170 5 5 44 23 48 726 31 5 11 246 49
internal_value=0 -0.0250806 0.0068172 0.00124083 0.00252253 0.00381302 0.00698842 0.00311424 0.00682438 0.0701452 -0.0913022 0.00143636 -0.0312516 -0.0229108
internal_weight=0 56.3817 207.175 180.179 178.977 177.789 170.701 163.333 157.158 12.324 6.17559 144.834 54.1191 49.6763
internal_count=1440 331 1109 939 934 929 885 844 816 79 28 737 320 295
is_linear=0
shrinkage=0.1


Tree=21
num_leaves=15
num_cat=0
split_feature=3 18 12 5 13 15 15 3 18 2 10 8 1 8
split_gain=4.10749 6.09236 3.86662 3.79591 4.09404 7.8438 10.1477 6.32294 4.80156 4.02474 4.76138 3.83754 3.46867 2.97246
threshold=699.00000000000011 501.50000000000006 656.00000000000011 658.50000000000011 397.50000000000006 513.50000000000011 294.50000000000006 522.50000000000011 452.50000000000006 470.50000000000006 371.50000000000006 398.00000000000006 492.50000000000006 406.50000000000006
decision_type=2 2 2 2 2 2 2 2 2 2 2 2 2 2
left_child=2 -2 3 4 5 6 7 -1 -8 10 -10 -6 -5 -13
right_child=1 -3 -4 12 11 -7 8 -9 9 -11 -12 13 -14 -15
leaf_value=-0.1219944919791276 -0.056328056859323239 0.097792139115592161 0.17770230008763527 -0.13329347924021404 0.10491675946207638 -0.097579661589392491 -0.080789250214731295 0.087690052221263554 -0.10087696405445579 0.1199832822419144 0.10851023802208865 -0.10414345180310652 -0.0033067672780515995 -0.0067781999989175029
leaf_weight=4.6574663519859341 3.5448916405439368 9.2776300907134992 1.1803738325834263 4.251641742885111 3.0383493304252616 4.1181617230176917 1.6519771143794084 2.0804821997880936 2.0225612670183208 15.82816259562969 2.3453158885240555 3.1854922845959655 3.9695755988359451 199.84806314110756
leaf_count=21 19 85 6 27 14 22 12 14 10 104 13 16 20 1057
internal_value=0 0.0551843 -0.00285745 -0.00372032 -0.00142002 0.0314492 0.0500374 -0.05725 0.0831249 0.0965326 0.0115527 -0.00663644 -0.07053 -0.00830581
internal_weight=0 12.8225 248.178 246.997 238.776 32.7041 28.586 6.73795 21.848 20.196 4.36788 206.072 8.22122 203.034
internal_count=1440 104 1336 1330 1283 196 174 35 139 127 23 1087 47 1073
is_linear=0
shrinkage=0.1


Tree=22
num_leaves=15
num_cat=0
split_feature=3 18 9 6 1 2 3 6 9 5 17 12 2 5
split_gain=3.53126 5.31599 3.29976 3.90552 3.93459 4.7908 5.07856 3.96617 4.024 4.87607 3.93178 6.29568 5.61742 7.34045
threshold=699.00000000000011 501.50000000000006 724.50000000000011 450.50000000000006 555.50000000000011 597.50000000000011 285.50000000000006 589.50000000000011 357.50000000000006 488.50000000000006 501.50000000000006 399.50000000000006 621.50000000000011 535.50000000000011
decision_type=2 2 2 2 2 2 2 2 2 2 2 2 2 2
left_child=2 -2 3 10 5 6 -5 -8 9 -9 12 -12 -1 -14
right_child=1 -3 -4 4 -6 -7 7 8 -10 -11 11 -13 13 -15
leaf_value=-0.10578963781159428 -0.051443420358149028 0.094657694497392891 0.096071034789507417 0.095433823972338794 0.088663266304886107 -0.072626706573069313 0.0037903119664052299 -0.10540702989537709 -0.17182450865617815 0.10909926575411344 -0.14041714748474818 0.0073660086826420907 0.13747400664474332 -0.072487460677813267
leaf_weight=12.064562745392324 3.495997041463851 8.6585517451167089 3.3446104153990737 5.848101094365119 5.17474391311407 8.6009269878268224 164.74295236170292 2.4995698481798163 2.5980653613805771 1.8396568298339842 3.1968007683753958 29.334588587284088 2.6653455048799506 4.4370694905519485
leaf_count=92 19 85 18 34 32 53 854 14 12 8 19 156 13 31
internal_value=0 0.0526348 -0.0025797 -0.00393749 0.00265289 0.000261638 0.00379295 0.000671299 -0.0733973 -0.014465 -0.0283245 -0.00715637 -0.0642523 0.00630544
internal_weight=0 12.1545 246.347 243.002 191.304 186.129 177.528 171.68 6.93729 4.33923 51.6984 32.5314 19.167 7.10241
internal_count=1440 104 1336 1318 1007 975 922 888 34 22 311 175 136 44
is_linear=0
shrinkage=0.1


Tree=23
num_leaves=15
num_cat=0
split_feature=10 4 13 15 14 13 1 3 15 9 10 4 13 9
split_gain=3.47322 4.70449 3.36922 3.44132 12.2951 12.3666 7.67595 6.02333 10.3671 6.67323 5.06824 5.92332 7.39978 5.85197
threshold=326.50000000000006 488.50000000000006 702.50000000000011 541.50000000000011 476.50000000000006 569.50000000000011 468.50000000000006 541.50000000000011 598.50000000000011 442.50000000000006 473.50000000000006 472.50000000000006 399.50000000000006 310.50000000000006
decision_type=2 2 2 2 2 2 2 2 2 2 2 2 2 2
left_child=1 -1 3 10 5 6 -5 -7 -9 -10 11 12 -2 -12
right_child=2 -3 -4 4 -6 7 -8 8 9 -11 13 -13 -14 -15
leaf_value=-0.096808342450094634 0.084716481108548986 0.11059528619691038 0.12338576875246288 -0.032022481386941574 -0.070332530691275597 -0.063444703063482127 0.11823418862263697 -0.13591423118160706 -0.0082525182264025065 0.20001736767729783 -0.1355446469544612 0.041012328606845477 -0.15158470502523858 -0.0031211703199473979
leaf_weight=1.3610652908682812 2.0737392008304587 5.5664803609251976 2.1268183812499037 4.6349827200174358 30.070632912218571 17.883979164063934 12.758891917765139 2.4551141858100873 2.7859470844268799 3.4357046633958817 3.4373520687222472 49.198635458946228 3.6714409589767456 114.44712895900011
leaf_count=7 12 40 12 24 186 99 71 14 14 15 21 292 18 615
internal_value=0 0.0698464 -0.00193894 -0.0030187 -0.0210597 0.0126493 0.078195 -0.0302747 0.0380931 0.106758 0.00470856 0.0297922 -0.0662911 -0.00698246
internal_weight=0 6.92755 248.98 246.854 74.0253 43.9546 17.3939 26.5607 8.67677 6.22165 172.828 54.9438 5.74518 117.884
internal_count=1440 47 1393 1381 423 237 95 142 43 29 958 322 30 636
is_linear=0
shrinkage=0.1


Tree=24
num_leaves=15
num_cat=0
split_feature=8 4 9 12 5 9 4 13 9 9 1 7 1 12
split_gain=3.32131 3.82458 4.303 3.05348 3.4324 3.34359 5.14951 4.68263 4.65118 4.48852 5.70224 3.74416 12.2174 5.46669
threshold=585.50000000000011 499.50000000000006 464.50000000000006 656.00000000000011 704.00000000000011 565.50000000000011 459.50000000000006 366.50000000000006 443.50000000000006 656.50000000000011 475.50000000000006 536.50000000000011 487.50000000000006 567.50000000000011
decision_type=2 2 2 2 2 2 2 2 2 2 2 2 2 2
left_child=1 3 -3 4 5 6 -1 8 -8 -7 -11 13 -13 -9
right_child=-2 2 -4 -5 -6 9 7 11 -10 10 -12 12 -14 -15
leaf_value=0.1315065889932524 -0.14610620577351754 0.13029829820341449 -0.12593028017306901 0.16066660982177003 -0.17617190085738074 -0.041263704457728131 -0.038978273394595309 -0.0013182308389947867 0.086701410457024994 -0.11787313510674874 0.073959457719087643 -0.11715501549370627 0.048883995018438549 0.080792807064844957
leaf_weight=3.1583087593317023 1.5462658405303944 4.0593110620975486 0.78161443769931782 1.1652871668338765 1.121049940586089 36.231148406863213 3.9296400099992743 152.85817735642195 11.747634738683699 1.9386421740055064 7.7201399132609367 10.19825365394354 7.8371573090553275 8.5623196288943273
leaf_count=18 8 43 5 6 5 226 24 803 92 17 41 62 46 44
internal_value=0 0.000903115 0.0889277 -0.000825795 -0.00159295 -0.000791449 0.00483788 0.0027877 0.0551987 -0.0251159 0.0354562 -0.00179093 -0.045004 0.00303723
internal_weight=0 251.309 4.84093 246.468 245.302 244.181 198.291 195.133 15.6773 45.8899 9.65878 179.456 18.0354 161.42
internal_count=1440 1432 48 1384 1378 1373 1089 1071 116 284 58 955 108 847
is_linear=0
shrinkage=0.1


Tree=25
num_leaves=15
num_cat=0
split_feature=8 3 2 13 15 8 8 3 1 7 5 2 9 10
split_gain=2.79802 3.12954 5.70265 2.82606 3.03668 11.053 9.31413 20.3751 12.7823 18.2559 14.888 11.2911 8.26307 7.81254
threshold=585.50000000000011 739.50000000000011 483.50000000000006 702.50000000000011 470.50000000000006 514.50000000000011 484.50000000000006 453.50000000000006 495.50000000000006 484.50000000000006 473.50000000000006 370.50000000000006 605.00000000000011 473.50000000000006
decision_type=2 2 2 2 2 2 2 2 2 2 2 2 2 2
left_child=1 3 -3 4 6 -6 8 12 10 -10 11 -1 13 -8
right_child=-2 2 -4 -5 5 -7 7 -9 9 -11 -12 -13 -14 -15
leaf_value=-0.14109736543054899 -0.13651665232355426 0.13098176547971668 -0.12600016885612325 0.11678407518451202 0.0055566971505653642 -0.06018385258232687 0.12688541892999683 0.085533989218007367 -0.13478455891959476 0.12118222466081773 -0.080304531266627233 0.088785325830272488 0.097758936200229352 -0.076865552391588057
leaf_weight=2.3991000652313259 1.4922168850898732 4.1387950628995887 1.0911825671792028 2.0264743566513053 94.549469608813524 35.057641759514809 2.0865971520543161 35.545139759778976 15.104188814759256 3.4166397005319586 10.689592927694319 19.526793569326401 4.1260273680090895 19.181569740176201
leaf_count=16 8 46 7 12 537 207 14 216 74 22 53 102 26 100
internal_value=0 0.000826606 0.0773651 -0.000815902 -0.00180196 -0.0122256 0.0102522 0.0366599 -0.021218 -0.087565 0.0164573 0.0636319 -0.0317508 -0.0568758
internal_weight=0 248.939 5.22998 243.709 241.683 129.607 112.076 60.9393 51.1363 18.5208 32.6155 21.9259 25.3942 21.2682
internal_count=1440 1432 53 1379 1367 744 623 356 267 96 171 118 140 114
is_linear=0
shrinkage=0.1


Tree=26
num_leaves=15
num_cat=0
split_feature=10 4 8 9 2 10 3 3 11 7 11 18 14 17
split_gain=2.61908 3.69579 2.82709 2.49015 3.68698 2.98745 2.87801 4.87044 4.5007 6.6564 7.71671 6.32451 8.84197 7.64337
threshold=326.50000000000006 488.50000000000006 585.50000000000011 300.50000000000006 353.50000000000006 487.50000000000006 580.50000000000011 573.50000000000011 528.50000000000011 492.50000000000006 511.50000000000006 499.50000000000006 482.50000000000006 494.50000000000006
decision_type=2 2 2 2 2 2 2 2 2 2 2 2 2 2
left_child=1 -1 3 -2 5 -5 7 -6 9 10 -8 12 -10 -13
right_child=2 -3 -4 4 6 -7 8 -9 11 -11 -12 13 -14 -15
leaf_value=-0.088418770095825605 -0.053442319360662099 0.10245309000357801 -0.14700807738504088 0.13889028560815653 0.0036938283198105618 -0.072996568961014863 0.073743441434687237 0.14932402215160837 0.044812513212727813 -0.1027698845599125 -0.11755933141136531 0.10400289482042063 -0.10515473350908947 -0.051234957353707394
leaf_weight=1.2722284495830525 8.6718660779297334 5.0062342509627342 1.330626681447028 3.2406878732144824 170.79717918485403 0.83734801411628712 6.1720291525125521 2.3277919590473166 7.0079361498355892 12.665126122534273 3.2027485817670822 9.5205692835152131 8.9556314423680288 4.7561452314257613
leaf_count=7 49 40 7 19 970 5 29 13 37 70 19 87 56 32
internal_value=0 0.063776 -0.00165249 -0.000840357 0.0011474 0.0953833 -0.000557516 0.00565193 -0.02112 -0.0554884 0.00838779 0.0039286 -0.0393198 0.052287
internal_weight=0 6.27846 239.486 238.155 229.483 4.07804 225.405 173.125 52.2802 22.0399 9.37478 30.2403 15.9636 14.2767
internal_count=1440 47 1393 1386 1337 24 1313 983 330 118 48 212 93 119
is_linear=0
shrinkage=0.1


Tree=27
num_leaves=15
num_cat=0
split_feature=4 2 13 12 9 2 7 1 0 4 0 7 2 8
split_gain=2.55153 2.86123 2.48971 2.48216 2.5764 4.31761 5.39719 5.69478 4.41002 3.86253 3.7486 3.32275 4.31231 4.51642
threshold=499.50000000000006 483.50000000000006 702.50000000000011 656.00000000000011 557.50000000000011 632.50000000000011 491.50000000000006 512.50000000000011 483.50000000000006 460.50000000000006 497.50000000000006 418.50000000000006 524.50000000000011 480.50000000000006
decision_type=2 2 2 2 2 2 2 2 2 2 2 2 2 2
left_child=2 -2 3 4 9 10 -7 -8 -9 -1 -6 12 13 -11
right_child=1 -3 -4 -5 5 6 7 8 -10 11 -12 -13 -14 -15
leaf_value=0.12632407376597807 0.11078509834494442 -0.11919375620441396 0.11238451285170498 0.1439779800068007 -0.026835543726973273 0.13816131115121441 -0.12266445314561054 0.098980505311127745 -0.12176567374737135 -0.076445735435884593 -0.11905738669761506 0.0056870847933826584 -0.14391296598897854 0.025185160237338647
leaf_weight=2.4854399263858786 3.639535676687955 0.63542311638593663 1.9096374437212933 1.1550934389233578 34.285669602453709 3.3332437574863425 2.9950364679098112 4.089524045586586 1.1622099578380582 7.5365953519940438 5.0577920153737059 161.84355090186 3.1747834682464591 10.415674798190592
leaf_count=16 45 5 12 6 219 17 25 20 8 41 36 913 17 60
internal_value=0 0.0766014 -0.0013416 -0.00225589 -0.00297047 -0.0228939 0.0307777 -0.0126254 0.0501293 0.00250019 -0.0386911 0.000818193 -0.0364799 -0.0174808
internal_weight=0 4.27496 239.444 237.535 236.38 50.9235 11.58 8.24677 5.25173 185.456 39.3435 182.971 21.1271 17.9523
internal_count=1440 50 1390 1378 1372 325 70 53 28 1047 255 1031 118 101
is_linear=0
shrinkage=0.1


Tree=28
num_leaves=15
num_cat=0
split_feature=15 8 15 11 0 19 7 18 3 11 3 16 19 15
split_gain=2.34623 7.23124 3.73904 6.3077 5.9065 5.47714 4.70493 5.73847 4.27779 5.69409 3.79601 4.52537 3.51149 2.87324
threshold=687.50000000000011 438.50000000000006 600.50000000000011 540.50000000000011 489.50000000000006 668.50000000000011 499.50000000000006 552.50000000000011 497.50000000000006 518.50000000000011 739.50000000000011 372.50000000000006 740.50000000000011 591.50000000000011
decision_type=2 2 2 2 2 2 2 2 2 2 2 2 2 2
left_child=2 12 10 6 5 -5 8 -8 -4 -10 11 -1 -2 -13
right_child=1 -3 3 4 -6 -7 7 -9 9 -11 -12 13 -14 -15
leaf_value=-0.12143667343325233 0.097429020301695868 0.14014400315271489 -0.10754717989543024 -0.03360776169098794 -0.11921494032980987 0.14528817272043043 -0.12512835805838859 0.14721355123812674 0.14952241927811058 -0.14013241313650479 0.11521381835009173 0.0011511439353484247 -0.1376075740482231 0.079300439944827647
leaf_weight=2.9646105021238318 0.92656598240137045 4.2299114018678665 2.1245240271091523 2.8565123565494996 2.0453189536929131 4.2691568583250046 11.319484367966648 0.83045259863138277 2.5538597851991658 0.92430700361728657 2.963279962539672 196.95785997062922 2.024576835334301 4.8197211623191825
leaf_count=16 5 23 11 16 17 23 80 5 12 5 43 1144 12 28
internal_value=0 0.0563252 -0.00170282 -0.0367656 0.0305773 0.073573 -0.0715549 -0.106514 0.00425641 0.072548 0.00284216 0.00121577 -0.0638135 0.00301784
internal_weight=0 7.18105 234.629 26.9236 9.17099 7.12567 17.7526 12.1499 5.60269 3.47817 207.705 204.742 2.95114 201.778
internal_count=1440 40 1400 169 56 39 113 85 28 17 1231 1188 17 1172
is_linear=0
shrinkage=0.1


end of trees

feature_importances:
Column_3=44
Column_13=34
Column_11=33
Column_1=29
Column_9=25
Column_6=24
Column_8=23
Column_2=22
Column_5=22
Column_15=22
Column_10=21
Column_0=17
Column_17=16
Column_4=15
Column_7=14
Column_18=14
Column_12=11
Column_19=9
Column_16=7
Column_14=4

parameters:
[boosting: gbdt]
[objective: binary]
[metric: custom]
[tree_learner: serial]
[device_type: cpu]
[data: ]
[valid: ]
[num_iterations: 10000]
[learning_rate: 0.1]
[num_leaves: 15]
[num_threads: 0]
[deterministic: 0]
[force_col_wise: 0]
[force_row_wise: 0]
[histogram_pool_size: -1]
[max_depth: -1]
[min_data_in_leaf: 5]
[min_sum_hessian_in_leaf: 0.001]
[bagging_fraction: 0.5]
[pos_bagging_fraction: 1]
[neg_bagging_fraction: 1]
[bagging_freq: 0]
[bagging_seed: 21897]
[feature_fraction: 0.8]
[feature_fraction_bynode: 1]
[feature_fraction_seed: 12646]
[extra_trees: 0]
[extra_seed: 20733]
[early_stopping_round: 0]
[first_metric_only: 0]
[max_delta_step: 0]
[lambda_l1: 0]
[lambda_l2: 0]
[linear_lambda: 0]
[min_gain_to_split: 0]
[drop_rate: 0.1]
[max_drop: 50]
[skip_drop: 0.5]
[xgboost_dart_mode: 0]
[uniform_drop: 0]
[drop_seed: 20829]
[top_rate: 0.2]
[other_rate: 0.1]
[min_data_per_group: 100]
[max_cat_threshold: 32]
[cat_l2: 10]
[cat_smooth: 10]
[max_cat_to_onehot: 4]
[top_k: 20]
[monotone_constraints: ]
[monotone_constraints_method: basic]
[monotone_penalty: 0]
[feature_contri: ]
[forcedsplits_filename: ]
[refit_decay_rate: 0.9]
[cegb_tradeoff: 1]
[cegb_penalty_split: 0]
[cegb_penalty_feature_lazy: ]
[cegb_penalty_feature_coupled: ]
[path_smooth: 0]
[interaction_constraints: ]
[verbosity: -1]
[saved_feature_importance_type: 0]
[linear_tree: 0]
[max_bin: 255]
[max_bin_by_feature: ]
[min_data_in_bin: 3]
[bin_construct_sample_cnt: 200000]
[data_random_seed: 182]
[is_enable_sparse: 1]
[enable_bundle: 1]
[use_missing: 1]
[zero_as_missing: 0]
[feature_pre_filter: 1]
[pre_partition: 0]
[two_round: 0]
[header: 0]
[label_column: ]
[weight_column: ]
[group_column: ]
[ignore_column: ]
[categorical_feature: ]
[forcedbins_filename: ]
[precise_float_parser: 0]
[parser_config_file: ]
[objective_seed: 3944]
[num_class: 1]
[is_unbalance: 0]
[scale_pos_weight: 1]
[sigmoid: 1]
[boost_from_average: 1]
[reg_sqrt: 0]
[alpha: 0.9]
[fair_c: 1]
[poisson_max_delta_step: 0.7]
[tweedie_variance_power: 1.5]
[lambdarank_truncation_level: 30]
[lambdarank_norm: 1]
[label_gain: ]
[lambdarank_position_bias_regularization: 0]
[eval_at: ]
[multi_error_top_k: 1]
[auc_mu_weights: ]
[num_machines: 1]
[local_listen_port: 12400]
[time_out: 120]
[machine_list_filename: ]
[machines: ]
[gpu_platform_id: -1]
[gpu_device_id: -1]
[gpu_use_dp: 0]
[num_gpu: 1]

end of parameters

pandas_categorical:null
