tree
version=v4
num_class=1
num_tree_per_iteration=1
label_index=0
max_feature_idx=19
objective=binary sigmoid:1
feature_names=Column_0 Column_1 Column_2 Column_3 Column_4 Column_5 Column_6 Column_7 Column_8 Column_9 Column_10 Column_11 Column_12 Column_13 Column_14 Column_15 Column_16 Column_17 Column_18 Column_19
feature_infos=[438:520] [367:614] [256:768] [0:999] [435:516] [272:814] [333:653] [353:635] [358:607] [193:828] [216:797] [347:661] [338:719] [207:794] [454:505] [84:785] [265:735] [347:612] [277:675] [168:920]
tree_sizes=3408 3810 3498 3604 3622 3818 3522 3503 3723 3612 3403 3631 3625 3422

Tree=0
num_leaves=32
num_cat=0
split_feature=18 7 11 17 11 17 8 1 17 3 17 11 17 0 17 17 18 6 3 6 3 8 7 8 6 6 1 8 17 0 0
split_gain=91.7167 53.2364 45.8749 44.0652 43.3426 56.9163 31.0727 57.5436 28.3614 26.6856 8.51829 12.6409 23.4924 18.7626 8.47551 8.19812 11.6699 6.58458 7.76889 6.29189 5.42084 4.69081 12.4367 3.79653 1.61063 1.32206 1.06814 0.910557 0.731609 0.31712 1.42109e-14
threshold=471.50000000000006 483.50000000000006 519.50000000000011 506.50000000000006 509.50000000000006 500.50000000000006 479.50000000000006 472.50000000000006 487.50000000000006 491.00000000000006 418.50000000000006 473.50000000000006 467.50000000000006 482.50000000000006 526.50000000000011 500.50000000000006 534.50000000000011 548.50000000000011 508.50000000000006 450.50000000000006 462.50000000000006 487.50000000000006 514.50000000000011 467.50000000000006 521.50000000000011 449.50000000000006 473.50000000000006 527.50000000000011 541.50000000000011 487.50000000000006 495.50000000000006
decision_type=2 2 2 2 2 2 2 2 2 2 2 2 2 2 2 2 2 2 2 2 2 2 2 2 2 2 2 2 2 2 2
left_child=1 4 10 9 5 -1 7 -3 -6 -4 -2 12 20 15 -9 16 -14 18 -13 -10 -12 22 -11 28 -23 29 -27 -28 -7 -8 -26
right_child=2 6 3 -5 8 23 25 14 19 21 11 17 13 -15 -16 -17 -18 -19 -20 -21 -22 24 -24 -25 30 26 27 -29 -30 -31 -32
leaf_value=-0.19877555549317091 0.16970750276538088 -0.36741740716646565 -0.042059266860316975 -0.16936065828773078 0.13071552613588724 0.30803327147711584 -0.34167002981223005 0.29973972972852853 -0.39500388290314664 0.058333868369643459 -0.30989667052402459 0.15500147709692957 -0.12000120290310851 0.29389171952119131 0.017903366832980987 -0.1803676448543364 0.22435699170104481 0.21300204233330133 -0.1283346174485642 -0.17277949502432796 -0.11674030155923457 0.30177710102656874 0.38798247098477623 0.19987370926476802 0.40500391346060061 -0.35500349308495921 -0.22530525943204865 -0.32000315199404539 0.38682191808869731 -0.3950038829031467 0.40500391346060066
leaf_weight=13.249870479106901 12.749875366687773 14.499858260154726 8.4999169111251813 9.7499046921730024 8.7499144673347491 8.2499193549156242 7.4999266862869289 9.4999071359634417 11.74988514184952 7.4999266862869289 11.74988514184952 7.9999217987060565 7.9999217987060565 8.9999120235443097 7.7499242424964896 10.249899804592131 7.7499242424964905 12.499877810478209 7.4999266862869263 8.9999120235443097 11.499887585639952 7.7499242424964896 11.749885141849516 9.7499046921730024 18.749816715717319 9.9999022483825701 8.2499193549156207 7.9999217987060538 10.999892473220823 10.999892473220823 8.7499144673347455
leaf_count=53 51 58 34 39 35 33 30 38 47 30 47 32 32 36 31 41 31 50 30 36 46 31 47 39 75 40 33 32 44 44 35
internal_value=0.00625002 -0.108998 0.105729 0.226308 0.0147562 0.144646 -0.225068 -0.0737409 -0.171273 0.287542 0.0171213 -0.00543487 -0.0585199 0.0450004 0.173118 -0.0411543 0.0494449 0.105001 0.0179034 -0.298617 -0.214357 0.338948 0.259548 0.301555 0.382309 -0.332433 -0.303574 -0.271926 0.353055 -0.373382 0.405004
internal_weight=0 148.249 171.748 72.7493 71.7493 42.2496 76.4993 31.7497 29.4997 62.9994 98.999 86.2492 58.2494 34.9997 17.2498 25.9997 15.7498 27.9997 15.4998 20.7498 23.2498 54.4995 19.2498 28.9997 35.2497 44.7496 26.2497 16.2498 19.2498 18.4998 27.4997
internal_count=1280 593 687 291 287 169 306 127 118 252 396 345 233 140 69 104 63 112 62 83 93 218 77 116 141 179 105 65 77 74 110
is_linear=0
shrinkage=1


Tree=1
num_leaves=36
num_cat=0
split_feature=18 13 11 13 1 15 15 1 15 8 15 13 1 15 4 1 13 18 15 13 18 15 13 1 18 8 14 14 4 9 18 4 15 15 13
split_gain=60.2184 31.784 30.5398 29.7088 15.0215 27.9271 14.7597 14.1302 17.88 13.4979 12.5252 16.8793 11.7771 10.8847 11.5435 10.1441 8.46759 7.25124 6.86414 5.96789 7.30972 4.90155 9.35373 7.43034 3.7568 3.12005 2.4187 1.77618 1.29003 1.18201 1.46281 0.535264 0.0555612 0.0482803 0.0112325
threshold=471.50000000000006 543.50000000000011 519.50000000000011 536.50000000000011 501.50000000000006 580.50000000000011 597.50000000000011 471.50000000000006 461.50000000000006 486.50000000000006 383.50000000000006 403.50000000000006 467.50000000000006 447.50000000000006 482.50000000000006 495.50000000000006 470.50000000000006 513.50000000000011 524.50000000000011 615.50000000000011 426.50000000000006 310.50000000000006 416.50000000000006 454.50000000000006 440.50000000000006 515.50000000000011 485.50000000000006 471.50000000000006 495.50000000000006 500.50000000000006 560.50000000000011 472.50000000000006 535.50000000000011 440.50000000000006 458.50000000000006
decision_type=2 2 2 2 2 2 2 2 2 2 2 2 2 2 2 2 2 2 2 2 2 2 2 2 2 2 2 2 2 2 2 2 2 2 2
left_child=1 7 13 10 5 19 27 24 -9 -10 11 -4 -7 14 17 -11 26 -2 -18 20 -3 -19 -23 -24 31 -17 -15 -6 29 30 -12 33 -27 -1 -30
right_child=2 4 3 -5 6 12 -8 8 9 15 28 -13 -14 16 -16 25 18 21 -20 -21 -22 22 23 -25 -26 32 -28 -29 34 -31 -32 -33 -34 -35 -36
leaf_value=-0.3618827227822603 0.17835365544956663 -0.02112832868430313 0.29303121331733833 -0.10374262275640887 -0.17792550567155907 -0.25958511197093437 0.094810829798355853 0.13639142202869292 0.063814283705954752 -0.034921493372476624 0.19225243469280254 -0.13270929253558936 0.053497944085575101 -0.0990054198084655 0.27019442595880244 -0.19565957651671706 -0.10571358199997845 -0.11765079068107878 0.12315856924794769 0.31179390045899402 0.26099518529759674 0.22102269560876853 -0.15472204691046521 0.096442682544267799 -0.16711242908995938 -0.36648605430942371 -0.24225947714931603 -0.31755747878504559 0.3338965138817318 0.32871997786117069 0.30363992330164102 -0.28508271692183945 -0.34222704127625359 -0.33947009948418572 0.34452337728131432
leaf_weight=7.8875755369663292 9.89984582364559 7.3382907658815402 7.4943939149379712 12.141891673207281 7.2922485619783419 10.188842445611956 7.6863222122192374 9.1936796307563764 7.5782431364059439 7.5882246196270016 10.985559657216077 7.4060392528772354 9.0967547893524152 9.664302662014963 9.1543369442224485 7.367187753319743 9.8864331245422381 12.320304274559019 11.156449586153029 11.644478410482405 7.355794683098793 7.6866085380315807 10.355433061718943 8.6443246454000455 7.572353482246398 7.5868617296218854 9.2045496553182584 7.2837141305208206 8.1659243404865247 8.7515768557786924 8.263463228940962 7.2622003704309455 7.5192867368459702 7.5003205090761185 7.7587440460920325
leaf_count=32 40 30 31 49 30 42 31 37 31 31 45 30 37 39 37 30 40 50 45 48 30 31 42 35 31 31 37 30 34 36 34 30 31 31 32
internal_value=0 -0.0945441 0.081173 0.181085 0.00523692 0.0709546 -0.129444 -0.182451 -0.113652 -0.174726 0.239875 0.0814232 -0.111908 0.0088003 0.0640709 -0.234859 -0.0716036 0.0254887 0.0156291 0.20485 0.120101 -0.0133083 0.0348636 -0.0404496 -0.289066 -0.302369 -0.168887 -0.247701 0.293625 0.267778 0.24007 -0.329837 -0.354411 -0.350958 0.339074
internal_weight=0 144.942 168.94 70.9676 67.8864 45.6242 22.2623 77.0559 46.8335 37.6398 58.8257 14.9004 19.2856 97.9726 58.0609 30.0616 39.9117 48.9065 21.0429 26.3386 14.6941 39.0067 26.6864 18.9998 30.2224 22.4733 18.8689 14.576 43.9253 28.0006 19.249 22.6501 15.1061 15.3879 15.9247
internal_count=1280 593 687 291 278 187 91 315 191 154 242 61 79 396 235 123 161 198 85 108 60 158 108 77 124 92 76 60 181 115 79 93 62 63 66
is_linear=0
shrinkage=0.2


Tree=2
num_leaves=33
num_cat=0
split_feature=18 5 8 15 16 0 5 15 15 17 0 18 6 6 2 5 2 15 15 17 5 5 5 6 16 16 18 16 16 5 15 6
split_gain=40.5915 29.4272 17.0557 26.4384 20.1758 15.8928 12.2576 12.233 11.2189 8.84172 8.45058 7.00804 7.55195 6.69966 5.3165 8.78746 6.50054 4.96067 4.1052 6.4175 3.96812 2.58537 2.77609 2.03139 1.94484 5.86794 1.71028 0.847383 1.74887 0.831766 0.48317 0.199538
threshold=475.00000000000006 458.00000000000006 492.50000000000006 524.50000000000011 460.50000000000006 474.50000000000006 389.50000000000006 296.00000000000006 469.50000000000006 508.50000000000006 489.50000000000006 587.50000000000011 509.50000000000006 442.50000000000006 575.50000000000011 569.50000000000011 620.50000000000011 370.50000000000006 543.50000000000011 491.50000000000006 621.50000000000011 510.50000000000006 623.50000000000011 536.50000000000011 553.50000000000011 574.50000000000011 562.50000000000011 451.50000000000006 522.50000000000011 577.50000000000011 475.50000000000006 528.50000000000011
decision_type=2 2 2 2 2 2 2 2 2 2 2 2 2 2 2 2 2 2 2 2 2 2 2 2 2 2 2 2 2 2 2 2
left_child=1 6 3 4 -2 14 13 -4 17 20 -10 12 -6 -1 15 -3 -16 -9 19 -8 -5 -7 27 -12 -14 -26 31 -23 -29 -30 -21 -19
right_child=2 5 7 9 11 21 18 8 10 -11 23 -13 24 -15 16 -17 -18 26 -20 30 -22 22 -24 -25 25 -27 -28 28 29 -31 -32 -33
leaf_value=-0.20367446621538998 -0.32758970952537741 0.16998244399740109 -0.07149643131967387 0.29936341014980627 0.12857290023417708 -0.12459383537923574 0.012761280971100101 0.1452057851759134 0.23516573376563377 -0.019820237911757393 -0.047746180513220847 0.13907887603037947 -0.1606685791632024 0.025968254744358502 -0.25002918272467384 -0.10454985908447299 0.010970916069069865 0.35317966550973734 -0.0018537119549441039 0.27086321211148912 0.11339756571610012 -0.30126036074106349 -0.13096742032035169 0.081537605106824729 0.080995734362983435 -0.14355477817773352 0.21213000379041499 -0.1526930647611533 -0.32092875327636294 -0.23219849058435427 0.19961322069905485 0.30931880662327893
leaf_weight=9.2644548267126101 10.04347315430641 9.2380989640951174 9.8673814535140973 13.367851495742803 7.3819888532161704 10.475558385252951 7.46491406857968 14.030346006155012 9.0676715970039385 7.3953845947980872 12.367002978920938 9.3871394544839841 11.735414847731592 11.255432114005087 8.1366632580757123 9.4187009781599027 7.1900066733360282 7.9245595186948838 7.9622443020343772 8.4514309465885145 6.9893047958612433 12.385285392403601 8.3595682233571988 8.0102895200252515 7.528706535696986 12.195284783840178 6.958512842655181 7.002310827374461 7.5574135929346111 9.5862202197313291 6.9277849644422522 8.707898020744322
leaf_count=40 41 38 41 56 30 43 31 59 39 30 52 39 48 48 34 40 30 33 34 36 30 54 36 35 31 50 30 30 33 42 30 37
internal_value=0 -0.0786469 0.0680006 0.0068116 -0.0697054 -0.147976 0.042043 0.13642 0.167011 0.167474 0.0745482 -0.0160016 -0.0534813 -0.0777124 -0.0403117 0.0313875 -0.12759 0.239378 0.121811 0.164914 0.235515 -0.21406 -0.234937 0.00307512 -0.0962005 -0.0578432 0.295385 -0.258729 -0.236914 -0.271313 0.238768 0.330216
internal_weight=0 140.676 162.958 86.0245 58.272 89.3498 51.3263 76.9337 67.0663 27.7525 29.445 48.2285 38.8414 20.5199 33.9835 18.6568 15.3267 37.6213 30.8064 22.8441 20.3572 55.3664 44.8908 20.3773 31.4594 19.724 23.591 36.5312 24.1459 17.1436 15.3792 16.6325
internal_count=1280 599 681 355 239 380 219 326 285 116 126 198 159 88 142 78 64 159 131 97 86 238 195 87 129 81 100 159 105 75 66 70
is_linear=0
shrinkage=0.2


Tree=3
num_leaves=34
num_cat=0
split_feature=10 1 15 5 1 14 2 1 14 14 16 15 9 7 14 14 15 15 16 1 9 2 2 5 9 14 1 16 14 2 5 7 10
split_gain=22.8679 19.5647 22.0456 14.6121 33.9238 20.139 13.2392 14.6218 45.2088 29.4954 32.0095 24.4718 13.0085 10.7452 12.2187 8.92184 7.35458 5.44112 4.44971 3.123 2.96352 2.83607 4.46523 2.75267 2.5733 2.51534 1.80239 1.77833 1.13404 0.766825 0.696452 0.114599 0.0343271
threshold=461.50000000000006 499.50000000000006 447.50000000000006 489.50000000000006 494.50000000000006 477.50000000000006 372.50000000000006 482.50000000000006 479.50000000000006 473.50000000000006 512.50000000000011 475.50000000000006 537.50000000000011 536.50000000000011 474.50000000000006 481.50000000000006 516.50000000000011 599.50000000000011 541.50000000000011 467.50000000000006 439.50000000000006 555.50000000000011 477.50000000000006 422.50000000000006 422.50000000000006 482.50000000000006 512.50000000000011 465.50000000000006 479.50000000000006 559.50000000000011 545.50000000000011 523.50000000000011 414.50000000000006
decision_type=2 2 2 2 2 2 2 2 2 2 2 2 2 2 2 2 2 2 2 2 2 2 2 2 2 2 2 2 2 2 2 2 2
left_child=1 2 25 6 19 18 -2 9 21 20 27 23 17 14 -4 -12 -16 26 -6 28 -8 22 -9 -10 -18 -1 -3 -11 30 -22 -5 32 -28
right_child=3 12 13 4 5 -7 7 8 11 10 15 -13 -14 -15 16 -17 24 -19 -20 -21 29 -23 -24 -25 -26 -27 31 -29 -30 -31 -32 -33 -34
leaf_value=0.096726763851800568 -0.25510349326195619 0.16830211107217546 0.21642009358746767 -0.3468754621202878 0.089741568420164952 -0.18946662935529057 0.14556368618241486 -0.28758529732767157 0.31390063672848312 0.26274714468067928 -0.022570597555991442 -0.17606107923967115 -0.053521332750066333 -0.23396788484546419 0.060301711104510242 -0.29732054390638135 -0.094788714005248409 0.068359132297167655 0.29852575731664527 -0.14289644399798976 0.33335249287997104 -0.32143685748933831 -0.11061523550919435 0.15649856557668984 -0.26698027742716474 0.24979222081918975 0.28799690421132146 0.12285136125023258 -0.21016755811517551 0.24641064582282454 -0.26876355637568672 0.26912342460557603 0.30792450733826487
leaf_weight=7.3346454799175289 7.7511132508516303 6.7144087255001095 7.0370348989963558 7.155109152197844 8.2808157801628166 8.3278350830078107 7.0439446866512325 9.6820074468851143 12.024397253990179 7.3418317139148694 7.5146207660436657 7.2444590032100669 8.3544898182153684 12.637020319700239 8.5715762525796908 12.746880710124968 7.4440331459045392 7.3878977596759787 8.0549360662698728 10.483353197574614 10.48467192053795 7.9585186988115302 13.87699221074581 7.0497843623161307 6.5054387599229813 10.360274329781531 7.3250945359468478 7.1982207447290421 8.6386371850967389 6.6200127601623526 12.616769716143606 9.7663013935089094 6.5491122901439667
leaf_count=31 33 30 30 31 34 39 30 40 52 31 31 32 39 54 36 54 31 33 33 44 46 34 58 30 30 46 35 30 41 30 56 46 30
internal_value=0 0.0743545 -0.00103326 -0.041807 -0.119837 0.0636522 -0.00198425 0.0148153 -0.0566305 0.0849109 -0.0329342 0.136872 0.172299 -0.0796124 -0.0136206 -0.195421 -0.0855002 0.222285 0.19269 -0.236193 0.254742 -0.218214 -0.183344 0.255725 -0.175092 0.186346 0.259748 0.19349 -0.270619 0.299703 -0.297031 0.28572 0.297403
internal_weight=0 105.987 59.89 188.095 63.5575 24.6636 124.537 116.786 57.8362 58.9502 34.8016 26.3186 46.0973 42.1951 29.5581 20.2615 22.521 37.7428 16.3358 38.8939 24.1486 31.5175 23.559 19.0742 13.9495 17.6949 30.3549 14.5401 28.4105 17.1047 19.7719 23.6405 13.8742
internal_count=1280 471 258 809 278 106 531 498 246 252 146 114 213 181 127 85 97 174 67 172 106 132 98 82 61 77 141 61 128 76 87 111 65
is_linear=0
shrinkage=0.2


Tree=4
num_leaves=34
num_cat=0
split_feature=18 11 12 0 5 11 17 11 0 17 5 13 12 12 18 11 17 13 18 17 11 4 19 11 11 17 11 19 18 19 11 18 0
split_gain=20.1712 17.5552 20.134 41.2641 15.6527 15.4793 17.6041 12.4002 21.527 11.416 9.17023 6.91516 5.86845 6.51838 5.57107 5.50171 4.71429 9.74131 3.94711 3.08996 3.04549 2.87121 1.98345 1.83114 1.46413 1.45831 1.37563 0.995196 0.776974 0.757422 0.301034 0.156527 0.0165705
threshold=471.50000000000006 519.50000000000011 504.50000000000006 479.50000000000006 512.50000000000011 509.50000000000006 505.50000000000006 479.50000000000006 479.50000000000006 487.50000000000006 635.50000000000011 587.50000000000011 551.50000000000011 482.50000000000006 430.50000000000006 473.50000000000006 461.50000000000006 531.50000000000011 415.50000000000006 439.50000000000006 480.50000000000006 477.50000000000006 455.50000000000006 515.50000000000011 574.50000000000011 543.50000000000011 546.50000000000011 580.50000000000011 409.50000000000006 587.50000000000011 537.50000000000011 545.50000000000011 474.50000000000006
decision_type=2 2 2 2 2 2 2 2 2 2 2 2 2 2 2 2 2 2 2 2 2 2 2 2 2 2 2 2 2 2 2 2 2
left_child=4 10 3 -3 5 6 14 27 11 -7 12 -9 13 16 -1 22 20 21 -11 -14 -2 -18 -15 -10 30 28 -5 -6 -8 -25 -4 -32 -29
right_child=1 2 24 26 7 9 25 8 23 18 -12 -13 19 15 -16 -17 17 -19 -20 -21 -22 -23 -24 29 -26 -27 -28 32 -30 -31 31 -33 -34
leaf_value=-0.20459698188916484 -0.16216620351320621 -0.24322890664913574 0.24601653265163798 0.15207145033427716 -0.19014820876583252 0.093496044931045644 0.1179782346728111 0.22428914854616436 -0.11481145238985535 -0.28501468201069552 -0.21612359405026133 -0.034386084171663348 0.20996223151560753 -0.10281808438635959 0.047814567120934855 0.035909248471701967 0.096640925190929761 -0.075774256093048165 -0.10256566876868174 0.044059144822630299 0.026031991627482699 0.25423598115138274 -0.25280485610106851 -0.28003311657409341 0.16816509973133986 0.26705612615987001 0.269896799564733 -0.27958659216967374 0.21479976560061723 -0.18472978075382815 0.31463152986122178 0.27156549832066779 -0.26629863050360553
leaf_weight=7.0887602269649488 6.9155424386262876 13.46455390751362 9.6240365803241783 6.3283986598253277 9.5568132847547549 8.2447874248027819 7.0662291198968905 9.4261013418436068 7.7454119622707394 8.9403146803379077 7.6118284314870825 7.3627832680940619 7.6455177813768413 6.991539731621744 6.9043819606304169 7.2480280250310889 11.873341023921972 11.254205644130705 10.102796643972395 10.882352292537687 6.8425492495298386 7.5740545541048041 7.1166071891784668 7.3645629137754423 6.9135334193706504 9.1693619787693006 10.606542602181433 7.2290817648172361 6.2455609887838364 6.0973557829856873 6.5086714476346952 7.0134337395429611 7.8086990714073181
leaf_count=33 30 58 46 31 50 35 32 40 36 44 32 30 34 31 30 31 49 49 43 47 30 33 30 37 35 45 53 36 30 30 31 37 42
internal_value=0 0.0491532 0.132863 0.0180948 -0.0589182 0.0108256 0.0960603 -0.129967 -0.0583466 -0.103103 -0.00588469 0.110847 0.0130889 -0.0149018 -0.0800541 -0.105716 0.028721 0.0723177 -0.188221 0.112519 -0.0685663 0.158018 -0.178476 -0.192289 0.248929 0.205681 0.225867 -0.240614 0.163404 -0.236867 0.273053 0.292295 -0.272687
internal_weight=0 152.415 60.4592 30.3995 126.353 63.7622 36.4743 62.5908 37.9962 27.2879 91.9556 16.7889 84.3437 65.8159 13.9931 21.3562 44.4597 30.7016 19.0431 18.5279 13.7581 19.4474 14.1081 21.2073 30.0597 22.4812 16.9349 24.5946 13.3118 13.4619 23.1461 13.5221 15.0378
internal_count=1280 687 291 142 593 292 170 301 173 122 396 70 364 283 63 92 191 131 87 81 60 82 61 103 149 107 84 128 62 67 114 68 78
is_linear=0
shrinkage=0.2


Tree=5
num_leaves=36
num_cat=0
split_feature=3 9 3 13 5 11 8 5 11 0 18 5 5 18 3 13 13 9 5 11 18 9 11 18 9 11 5 8 5 9 18 0 5 14 13
split_gain=16.8188 9.9707 7.44717 7.83474 6.12598 8.98368 7.69798 5.96324 5.9475 4.35654 5.80783 7.81047 4.17865 3.74918 3.54321 24.7961 6.8769 14.7897 7.83936 15.5913 7.17212 7.82194 5.3145 4.62248 4.57679 3.55839 2.67462 3.84724 2.47431 1.54625 1.48209 1.20281 1.02588 0.423413 0.402641
threshold=698.50000000000011 564.50000000000011 291.50000000000006 361.50000000000006 459.50000000000006 528.50000000000011 488.50000000000006 631.50000000000011 485.50000000000006 494.50000000000006 441.50000000000006 466.50000000000006 556.50000000000011 518.50000000000011 435.50000000000006 512.50000000000011 536.50000000000011 402.50000000000006 478.50000000000006 511.50000000000006 448.50000000000006 493.50000000000006 503.50000000000006 521.50000000000011 484.50000000000006 451.50000000000006 564.50000000000011 485.50000000000006 593.50000000000011 490.50000000000006 541.50000000000011 467.50000000000006 398.50000000000006 479.50000000000006 459.50000000000006
decision_type=2 2 2 2 2 2 2 2 2 2 2 2 2 2 2 2 2 2 2 2 2 2 2 2 2 2 2 2 2 2 2 2 2 2 2
left_child=1 2 -1 12 32 28 -7 9 -9 14 -11 -12 -4 -2 15 30 20 31 19 -19 -16 23 -20 -22 -17 -25 27 -27 33 -14 -5 -18 -3 -6 -15
right_child=13 4 3 7 5 6 -8 8 -10 10 11 -13 29 34 16 24 17 18 22 -21 21 -23 -24 25 -26 26 -28 -29 -30 -31 -32 -33 -34 -35 -36
leaf_value=0.22684990821004899 0.054527909561311677 -0.043126483546917796 -0.0090655795690546947 -0.27727563337897748 -0.31929328523013356 0.096843443814980848 -0.17477019780609729 -0.27230668345717507 -0.004106469586884395 -0.23133997419473229 0.13661700934490459 -0.15074693538406669 0.11911474305784403 0.27914444846373937 -0.12447129323146609 0.22906368946472111 -0.14635919281736154 0.17991249547671068 0.023306219888709866 -0.22666840195942456 -0.094132998990387018 0.26559631368211373 0.27701485351806604 0.20842722020314719 0.031666639309577978 -0.065150272520873784 0.17118736001737483 0.11420080222720708 -0.13910132740614184 0.26245773531263766 -0.15956289428490128 -0.26834323895503087 0.066006844548949603 -0.24449720307400702 0.20633289507004393
leaf_weight=5.9744045287370673 5.9567020088434246 5.9783933460712424 6.1855987757444408 8.3970842063426989 6.1293042004108447 9.1344158649444598 7.6856479346752158 6.8205552250146848 6.4207915365695953 7.2467109113931683 7.2336556166410428 7.9317443668842316 5.8285364657640439 7.0217872709035856 6.2541750222444525 7.9878567010164288 6.418680325150488 6.737336918711665 6.0400841385126096 8.5734916776418668 6.2436774075031272 9.5319172888994199 7.2868300080299377 8.1323072612285596 11.408553913235663 10.123530045151716 6.1474919319152823 9.070673003792761 8.015082433819769 6.2250665128231049 8.7229363918304426 6.5153475701808929 8.1319025009870511 5.9819968938827515 5.3545312285423279
leaf_count=27 30 31 30 37 29 41 41 33 30 39 35 36 29 40 33 37 30 32 30 41 30 46 30 36 57 45 32 43 43 34 38 30 41 33 31
internal_value=0 -0.0137175 0.00703022 2.54257e-05 -0.0923329 -0.135146 -0.0272659 -0.0133962 -0.142255 -0.00245884 -0.0840572 -0.0136789 0.124567 0.184897 0.0112305 -0.0418761 0.0312074 -0.0303008 0.0498686 -0.0477576 0.0772765 0.102896 0.162028 0.0638496 0.112959 0.093317 0.0563775 0.0196063 -0.225303 0.193144 -0.217299 -0.207807 0.0197681 -0.28235 0.247643
internal_weight=0 244.516 193.459 187.485 51.0567 36.9464 16.8201 169.245 13.2413 156.004 22.4121 15.1654 18.2392 18.333 133.592 36.5164 97.0755 41.5718 28.6377 15.3108 55.5038 49.2496 13.3269 39.7177 19.3964 33.474 25.3417 19.1942 20.1264 12.0536 17.12 12.934 14.1103 12.1113 12.3763
internal_count=1280 1179 920 893 259 187 82 800 63 737 110 71 93 101 627 169 458 193 133 73 265 232 60 186 94 156 120 88 105 63 75 60 72 62 71
is_linear=0
shrinkage=0.2


Tree=6
num_leaves=33
num_cat=0
split_feature=3 6 17 9 11 9 1 6 6 13 3 3 13 19 14 14 17 19 9 15 17 17 1 19 15 15 9 3 19 17 6 13
split_gain=12.0111 7.93953 5.01599 6.64459 5.62991 4.94472 4.79665 4.49222 4.3785 4.6783 4.44209 5.57184 15.1176 8.16189 16.1622 8.41253 12.3466 7.12457 4.05236 3.67353 4.80629 3.42866 2.35453 1.8673 3.62404 1.0622 0.913007 0.87607 0.825203 2.20794 0.330994 0.0265427
threshold=698.50000000000011 450.50000000000006 501.50000000000006 661.00000000000011 515.50000000000011 551.50000000000011 542.50000000000011 518.50000000000011 589.50000000000011 368.50000000000006 286.50000000000006 435.50000000000006 505.50000000000006 475.00000000000006 477.50000000000006 475.50000000000006 503.50000000000006 654.00000000000011 484.50000000000006 534.50000000000011 459.50000000000006 456.50000000000006 490.50000000000006 359.50000000000006 444.50000000000006 514.50000000000011 409.50000000000006 530.50000000000011 334.50000000000006 465.50000000000006 551.50000000000011 510.50000000000006
decision_type=2 2 2 2 2 2 2 2 2 2 2 2 2 2 2 2 2 2 2 2 2 2 2 2 2 2 2 2 2 2 2 2
left_child=1 2 3 25 5 -4 8 -2 9 23 -11 12 28 14 -13 16 27 26 -14 20 -17 -16 -21 -3 -25 -1 -18 -15 -12 -30 -9 -27
right_child=7 6 4 -5 -6 -7 -8 30 -10 10 11 13 18 15 21 19 17 -19 -20 22 -22 -23 -24 24 -26 31 -28 -29 29 -31 -32 -33
leaf_value=-0.15779477270649522 0.012602292409195479 0.015231708711759821 0.12040257715840806 0.036125203603924197 -0.15149442791514067 -0.078598851090593252 0.13445674379126529 0.20523301260655458 -0.15379341028422699 0.14064869484416398 -0.1363032893604029 -0.094876948750831622 0.17520583991800953 0.13518399484837729 0.10488481387960302 -0.14357486258102167 -0.21042849314743686 0.086673167757295153 -0.021749891783365269 -0.24398319522081136 0.072611987967234531 0.27006137344244202 -0.084874467828030598 0.25473305308080579 0.030753684995267944 -0.24752302349044419 -0.10164218015965498 0.23679857964528495 -0.12926897130758838 -0.28913574969564071 0.27419405069162872 -0.26875552622345961
leaf_weight=7.5022144764661851 5.3975814282894161 6.3020053058862713 11.429911658167844 5.6720751374959937 9.7446199953556043 8.8706201463937742 11.276875570416449 6.7013387382030469 7.1168939620256415 7.8706413507461539 7.915496617555621 11.589678555727003 7.3629385828971889 6.5472953692078573 8.6983545571565646 8.4131164401769691 5.9126263260841387 8.2097889184951764 9.6619072780013067 8.5090197771787626 8.0489386618137342 11.908863514661787 6.6104950159788123 6.2062001228332502 5.4071596637368202 4.5083514750003797 6.454859584569931 7.0462288558483124 6.2870240211486799 7.6732392609119415 4.7626193687319756 4.9308216273784637
leaf_count=42 27 29 58 30 52 46 59 44 33 39 35 53 35 33 43 40 30 38 47 44 36 59 33 37 28 30 32 38 33 37 30 30
internal_value=0 -0.0117358 -0.0800875 -0.151238 -0.0265362 0.0334459 0.00814656 0.163048 -0.000244372 0.00647488 -0.00545988 -0.013863 -0.0778998 0.0115692 0.0940729 -0.0288303 0.0399442 -0.0577677 0.0634299 -0.103243 -0.0378727 0.20034 -0.174418 0.102884 0.150449 -0.213968 -0.153651 0.187856 -0.18789 -0.21714 0.233882 -0.258614
internal_weight=0 233.688 52.6586 22.6135 30.0452 20.3005 181.03 16.8615 169.753 162.636 144.721 136.85 38.9006 97.9493 32.1969 65.7524 34.1708 20.5773 17.0248 31.5816 16.4621 20.6072 15.1195 17.9154 11.6134 16.9414 12.3675 13.5935 21.8758 13.9603 11.464 9.43917
internal_count=1280 1179 288 132 156 104 891 101 832 799 705 666 187 479 155 324 171 100 82 153 76 102 77 94 65 102 62 71 105 70 74 60
is_linear=0
shrinkage=0.2


Tree=7
num_leaves=33
num_cat=0
split_feature=18 5 1 5 1 0 5 9 13 1 13 12 1 13 13 0 9 5 1 8 13 13 4 13 4 9 5 1 18 9 8 13
split_gain=7.79311 9.27316 8.26455 6.63568 6.28042 8.24883 5.53912 5.21951 4.88285 4.77805 4.70799 4.39982 6.31391 9.72948 10.4867 3.79892 3.19445 3.20126 3.31852 11.6388 4.76659 3.46909 3.08633 2.41189 2.52492 2.01895 1.89826 1.49033 1.1212 1.01941 0.2648 0.0265079
threshold=451.50000000000006 453.50000000000006 526.50000000000011 385.50000000000006 468.50000000000006 479.50000000000006 645.50000000000011 396.50000000000006 597.50000000000011 501.50000000000006 459.50000000000006 528.50000000000011 482.50000000000006 399.50000000000006 503.50000000000006 473.50000000000006 285.50000000000006 519.50000000000011 480.50000000000006 502.50000000000006 456.50000000000006 413.50000000000006 486.50000000000006 531.50000000000011 473.50000000000006 611.50000000000011 523.50000000000011 478.50000000000006 535.50000000000011 427.50000000000006 522.50000000000011 546.00000000000011
decision_type=2 2 2 2 2 2 2 2 2 2 2 2 2 2 2 2 2 2 2 2 2 2 2 2 2 2 2 2 2 2 2 2
left_child=1 3 6 27 26 8 11 -4 -6 15 28 16 13 -13 -15 -5 -2 18 20 29 -18 -21 -14 24 -22 -7 -3 -1 -9 -20 31 -28
right_child=2 4 7 9 5 25 -8 10 -10 -11 -12 12 22 14 -16 -17 17 -19 19 21 23 -23 -24 -25 -26 -27 30 -29 -30 -31 -32 -33
leaf_value=-0.010761744968557287 -0.16673464129932086 -0.089041534632389729 0.26734159247376887 0.26088986205661191 0.12594798631051346 -0.10621878762572168 -0.16038893818615385 0.091368685106385253 -0.071866053765738999 -0.034923508918728377 -0.04304090611706804 0.18422051761324476 0.24704874251698972 -0.20165125488468127 0.12399709283154672 0.058912867003618266 -0.080564488625764097 -0.12969988034385266 -0.19986399053027942 0.0028666538980426943 0.066947995062288754 0.2168027603427885 0.07134136293924187 0.015635983852973431 0.22037465549670668 -0.25773107792890898 -0.23812975297020567 -0.14826789419709072 0.22288246205314263 -0.098318573105703744 -0.18752773095880579 -0.25913600036590928
leaf_weight=6.1489942669868451 4.9712310731410971 5.2360833436250713 7.77726533263922 7.8265335783362406 10.978468403220178 10.455544508993624 7.489861048758029 4.91297245770693 9.152607247233389 7.0585144311189643 8.0333299413323385 8.3041148185729998 8.7960017472505587 10.599672436714174 6.3103145435452452 7.1077132672071457 8.0767367631196958 6.945035181939601 8.2090040296316165 6.0884669274091703 9.0482921898365074 6.0391203388571739 7.3318610340356818 9.8593587204813939 8.1595377996563894 5.3018382564187041 4.7583582922816259 6.4704389348626137 5.4911227896809578 7.630039080977439 4.0048810914158812 4.8542579635977745
leaf_count=33 25 28 52 48 50 59 37 29 40 37 41 43 48 51 32 36 38 35 42 29 40 35 42 48 41 33 36 38 39 35 31 29
internal_value=0 -0.0466882 0.027916 0.0343393 -0.0979201 -0.0488199 0.00632379 0.129934 0.0360117 0.100674 0.0719734 0.0170539 0.0694432 0.00693309 -0.0801288 0.164762 -0.0118141 -0.0008207 0.0133619 -0.0380492 0.0542735 0.109399 0.167171 0.0945086 0.139699 -0.157198 -0.191384 -0.0812661 0.16078 -0.150947 -0.230736 -0.248738
internal_weight=0 89.3542 150.073 34.6122 54.742 35.8885 123.859 26.2147 20.1311 21.9928 18.4374 116.369 41.342 25.2141 16.91 14.9342 75.0268 70.0556 63.1106 27.9666 35.1439 12.1276 16.1279 27.0672 17.2078 15.7574 18.8536 12.6194 10.4041 15.839 13.6175 9.61262
internal_count=1280 498 782 192 306 182 621 161 90 121 109 584 216 126 83 84 368 343 308 141 167 64 90 129 81 92 124 71 68 77 96 65
is_linear=0
shrinkage=0.2


Tree=8
num_leaves=35
num_cat=0
split_feature=10 6 1 10 6 1 10 1 1 9 10 1 16 14 13 16 16 16 8 5 5 9 10 13 1 8 16 13 6 16 6 10 10 14
split_gain=6.99606 12.1067 10.5982 6.15319 7.80961 5.67615 5.10334 12.4892 5.46743 7.67351 6.40106 4.5096 4.47622 11.5426 3.83366 3.36777 3.22494 5.13701 3.56687 6.7392 3.29888 2.98416 4.193 2.97143 1.80541 1.54868 1.23687 1.02277 0.78967 0.443102 0.338799 0.394258 0.0453204 0.00630902
threshold=461.50000000000006 495.50000000000006 512.50000000000011 387.50000000000006 545.50000000000011 540.50000000000011 625.50000000000011 485.50000000000006 467.50000000000006 509.50000000000006 555.50000000000011 480.50000000000006 524.50000000000011 477.50000000000006 399.50000000000006 451.50000000000006 505.50000000000006 607.50000000000011 504.50000000000006 508.50000000000006 529.50000000000011 439.50000000000006 438.50000000000006 589.50000000000011 514.50000000000011 472.50000000000006 414.50000000000006 566.50000000000011 452.50000000000006 518.50000000000011 526.50000000000011 418.50000000000006 570.00000000000011 480.50000000000006
decision_type=2 2 2 2 2 2 2 2 2 2 2 2 2 2 2 2 2 2 2 2 2 2 2 2 2 2 2 2 2 2 2 2 2 2
left_child=1 15 3 4 -3 6 8 23 9 10 12 -10 13 -2 -5 26 20 18 19 -18 24 22 -16 -8 -13 -7 -1 -26 32 -25 -4 33 -11 -32
right_child=5 2 30 14 -6 25 7 -9 11 28 -12 16 -14 -15 21 -17 17 -19 -20 -21 -22 -23 -24 29 27 -27 -28 -29 -30 -31 31 -33 -34 -35
leaf_value=-0.10159111252609797 -0.18253253700276539 -0.21052167595644089 0.27189520368435133 0.2265561437566079 0.059493603115138266 0.038492677573828134 0.036630186686507318 -0.18952041791356652 0.1087453713872282 -0.23669071459284355 0.10315489442634469 -0.2261990627948785 -0.20943677844305744 0.18344703349067823 0.013547548308361003 -0.0063201058193077895 -0.13224993043175415 -0.15591875025508106 0.13316685142870943 0.14506387217202285 0.011877405125298808 -0.067466954601488452 0.23366315569078908 0.26179512526334187 -0.023793690146272535 0.18944358152665666 -0.24553869498874162 -0.14621414506468591 -0.16505372665338913 0.17489444725889075 0.23912178131484715 0.15551604096980781 -0.26465679932093977 0.22800122399748235
leaf_weight=4.6053497195243853 8.2435393705964142 7.3096409291029003 4.6071386188268688 7.0317912846803692 10.35334752500057 5.4712309315800649 5.6443053185939815 6.0192047879099837 9.8887186273932439 4.5972270295023936 8.4939853101968747 6.2349730134010377 9.0700743198394758 5.924338109791278 8.459254167973997 9.1139094606041891 8.5770050883293205 6.3160118907690039 10.733197577297686 5.9279927834868422 8.5252815485000593 5.7017571926116934 5.8594023436307898 4.9026117622852308 4.9292417466640455 5.4036917462944984 4.9583439603447914 6.1178707182407379 8.0083344355225545 4.502509631216526 3.5214152708649618 3.8740953132510176 4.6749246269464493 4.8528945222496986
leaf_count=28 47 35 28 38 51 29 30 32 47 37 42 34 44 31 44 51 40 29 59 31 42 30 30 31 31 33 33 34 49 29 29 28 28 46
internal_value=0 0.0477267 0.0905125 0.0395674 -0.0522494 -0.0255904 -0.0366046 0.0539633 -0.0530169 -0.103821 -0.0454218 -0.0159908 -0.0997299 -0.0294971 0.0995166 -0.0933165 -0.0374944 0.00539233 0.0457614 -0.0189156 -0.0899313 0.0548964 0.103622 0.151348 -0.140154 0.113499 -0.176221 -0.0915899 -0.211058 0.220193 0.225662 0.208272 -0.250791 0.232677
internal_weight=0 80.2483 61.5707 44.7152 17.663 148.206 137.331 21.0686 116.263 49.0124 31.7319 67.2503 23.238 14.1679 27.0522 18.6776 57.3616 31.5542 25.2382 14.505 25.8074 20.0204 14.3187 15.0494 17.2821 10.8749 9.56369 11.0471 17.2805 9.40512 16.8555 12.2484 9.27215 8.37431
internal_count=1280 471 359 228 86 809 747 122 625 278 164 347 122 78 142 112 300 159 130 71 141 104 74 90 99 62 61 65 114 60 131 103 65 75
is_linear=0
shrinkage=0.2


Tree=9
num_leaves=34
num_cat=0
split_feature=6 3 2 4 11 3 3 0 15 2 13 17 0 2 13 0 0 17 13 2 3 13 1 17 6 3 0 15 15 15 11 17 15
split_gain=6.2164 6.37798 3.34664 5.35986 3.73379 4.97743 3.83276 3.79169 10.4196 4.87544 6.68667 4.32785 4.75182 3.45408 4.98347 3.60106 2.97304 2.87181 3.97084 2.76278 2.74853 2.62045 4.49157 2.72051 2.54853 2.17296 2.11688 1.92504 1.574 3.88961 1.52289 1.3854 0.579865
threshold=450.50000000000006 698.50000000000011 598.50000000000011 462.50000000000006 518.50000000000011 437.50000000000006 635.50000000000011 489.50000000000006 320.50000000000006 454.50000000000006 543.50000000000011 496.50000000000006 477.50000000000006 457.50000000000006 539.50000000000011 493.50000000000006 467.50000000000006 492.50000000000006 473.50000000000006 521.50000000000011 551.50000000000011 570.50000000000011 486.50000000000006 541.50000000000011 513.50000000000011 492.50000000000006 493.50000000000006 589.50000000000011 587.50000000000011 476.50000000000006 538.50000000000011 456.50000000000006 528.50000000000011
decision_type=2 2 2 2 2 2 2 2 2 2 2 2 2 2 2 2 2 2 2 2 2 2 2 2 2 2 2 2 2 2 2 2 2
left_child=17 2 3 -2 6 -6 7 9 -9 11 24 12 -5 14 -7 25 -13 18 -1 -19 26 -21 23 -23 -11 -15 -10 32 29 -27 -4 -26 -3
right_child=1 27 30 4 5 13 -8 8 20 10 -12 16 -14 15 -16 -17 -18 19 -20 21 -22 22 -24 -25 31 28 -28 -29 -30 -31 -32 -33 -34
leaf_value=-0.035835450786946207 0.18724695567899374 0.16348262762272525 -0.18015611782648278 0.22328811226589088 -0.14214675528522669 0.084957135360574573 -0.12710049358160067 -0.18043099938726351 0.095368244147005815 -0.24153154491586185 0.060853009577256992 0.042488638459446504 -0.0084807984583233267 0.035923317055025279 -0.15351169115198648 -0.03794890005359617 -0.15044186735273221 0.088048491415123054 -0.24456863685913999 0.040750740399504666 0.035871512870243275 -0.1194889814906035 -0.2314526059879469 0.08338706495849206 -0.16907990126962011 0.26455436168323199 0.26162684049379387 0.048613984983122027 0.26730029020421264 0.037016044118170305 -0.031186769609247614 -0.041196870009967274 0.27228811194465669
leaf_weight=7.3872468248009664 6.8809135556220999 4.0267768055200559 5.047844357788561 7.0639722347259539 4.7658192068338385 9.3360175564885122 11.09397181868553 5.576866731047633 5.5562881305813807 7.4068965390324655 8.7551292702555639 6.4310547262430173 7.0897621661424637 5.3574845939874711 5.6126811802387229 5.0994390323758116 6.3491098061203957 6.2139279991388348 7.1972858309745789 7.1265193223953274 7.869269683957099 5.5179905593395251 6.7053921595215789 5.076139785349369 5.9418532699346525 5.5011599883437174 6.827342614531517 4.198314480483532 5.7515028566122046 6.6230005100369453 6.0168089121580124 7.8853482753038406 3.8158143237233162
leaf_count=50 38 37 31 34 23 59 56 26 32 42 53 34 37 29 33 32 33 41 55 45 47 31 38 33 30 43 40 27 27 41 32 39 32
internal_value=0 0.0175433 0.00696918 0.0148613 0.00650179 0.0518436 -0.016712 -0.00191318 0.0616402 -0.0307515 -0.0862217 0.0310111 0.107193 0.0732044 -0.00457905 0.114244 -0.0533581 -0.0657929 -0.138843 -0.0310215 0.128297 -0.0613126 -0.103357 -0.0222816 -0.146863 0.147649 0.18703 0.157912 0.181134 0.140258 -0.0991486 -0.096151 0.216422
internal_weight=0 171.88 159.84 148.775 141.894 48.0471 93.8469 82.7529 25.8298 56.9231 29.9892 26.9339 14.1537 43.2813 14.9487 28.3326 12.7802 45.2245 14.5845 30.64 20.2529 24.426 17.2995 10.5941 21.2341 23.2331 12.3836 12.0409 17.8757 12.1242 11.0647 13.8272 7.84259
internal_count=1280 987 891 828 790 287 503 447 145 302 164 138 71 264 92 172 67 293 105 188 119 147 102 64 111 140 72 96 111 84 63 69 69
is_linear=0
shrinkage=0.2


Tree=10
num_leaves=32
num_cat=0
split_feature=9 5 9 1 6 3 7 14 3 3 6 14 3 2 6 11 14 6 2 3 4 14 2 1 2 9 5 9 7 1 3
split_gain=4.48047 4.14655 3.41715 3.13342 4.91311 3.11537 4.66222 7.86261 13.9717 5.78526 5.72644 5.65733 5.3431 3.63971 4.96608 5.11078 5.45668 2.46045 3.35115 2.25958 2.16152 1.76762 1.64797 1.63336 1.50296 2.61342 1.26684 1.25878 0.99705 0.68752 0.367983
threshold=558.50000000000011 645.50000000000011 656.50000000000011 421.50000000000006 512.50000000000011 354.50000000000006 464.50000000000006 477.50000000000006 435.50000000000006 444.50000000000006 495.50000000000006 473.50000000000006 406.50000000000006 472.50000000000006 566.50000000000011 527.50000000000011 479.50000000000006 435.50000000000006 598.50000000000011 384.50000000000006 472.50000000000006 487.50000000000006 378.00000000000006 486.50000000000006 514.50000000000011 419.50000000000006 389.50000000000006 398.50000000000006 472.50000000000006 521.50000000000011 488.50000000000006
decision_type=2 2 2 2 2 2 2 2 2 2 2 2 2 2 2 2 2 2 2 2 2 2 2 2 2 2 2 2 2 2 2
left_child=1 3 17 4 -1 -5 7 9 -9 -7 11 -8 -12 14 15 16 -14 28 20 -20 -19 24 -11 -13 25 26 -10 -24 -2 30 -15
right_child=2 -3 -4 5 -6 6 10 8 21 22 12 23 13 29 -16 -17 -18 18 19 -21 -22 -23 27 -25 -26 -27 -28 -29 -30 -31 -32
leaf_value=0.05640481381389361 -0.10525529184290808 -0.12964732367928969 0.061418021247226166 0.15340975043638339 -0.20235615798443807 0.033614444372325539 0.099856885714915064 -0.20595937756003826 0.075390252559204313 -0.25595659216703076 -0.11391838875091538 -0.018257529475637347 0.079820467824064753 0.26956692837814361 0.24000792855542069 0.17102754006519558 -0.18761306561777288 -0.048475339955139696 -0.22970976370225005 -0.061118556936794424 0.11475452505283189 0.025989075328430002 -0.041419160366450464 -0.1444718423999593 0.23764870387313067 -0.0018173982882322293 0.20980276547546614 -0.16469109501681581 -0.23538106668936704 0.13629137172671138 0.19352397714000194
leaf_weight=5.6936405524611455 4.7370552495121938 7.5220790579915038 8.1373065710067731 7.79160401970148 6.0579347237944603 9.722130239009859 10.852860979735853 7.1631004735827437 4.4136508516967385 4.8770608976483372 4.0537381470203391 7.6336483098566559 6.5056769922375732 5.663870692253111 6.0046645849943152 6.7561066448688498 5.7483486831188202 7.6789175570011157 4.8689487576484671 9.1668391078710538 5.6200048848986626 8.4218698218464834 5.0906434208154669 8.8633173108100873 4.4408330842852584 5.8685007989406577 7.694578792899847 9.4911112412810308 4.6845254525542259 3.8476115688681594 4.6233164109289646
leaf_count=33 31 45 47 42 29 58 54 37 29 29 22 55 36 34 37 53 29 53 35 56 32 48 28 53 27 35 58 52 33 37 33
internal_value=0 0.0154168 -0.0558542 0.0223546 -0.0769864 0.0303765 0.0234167 -0.0142909 0.0456641 -0.0923707 0.0593233 -0.0122903 0.104658 0.127291 0.0814505 0.0313675 -0.0456323 -0.0818166 -0.0514374 -0.119602 0.0205041 0.104109 -0.155316 -0.0860686 0.133457 0.107718 0.160807 -0.121656 -0.169955 0.208415 0.235391
internal_weight=0 164.802 44.8936 157.28 11.7516 145.528 137.737 67.1835 38.0025 29.1809 70.5532 27.3498 43.2033 39.1496 25.0148 19.0101 12.254 36.7563 27.3347 14.0358 13.2989 30.8394 19.4588 16.497 22.4176 17.9767 12.1082 14.5818 9.42158 14.1348 10.2872
internal_count=1280 993 287 948 62 886 844 401 234 167 443 162 281 259 155 118 65 240 176 91 85 197 109 108 149 122 87 80 64 104 67
is_linear=0
shrinkage=0.2


Tree=11
num_leaves=34
num_cat=0
split_feature=10 10 11 17 12 11 4 8 8 10 11 8 12 11 19 4 8 10 8 12 8 10 17 11 13 10 10 13 19 17 17 0 19
split_gain=2.9029 2.87972 5.80486 7.09557 5.97886 4.78261 4.14584 5.09259 3.04168 2.57371 5.36152 4.63797 5.82533 5.00971 4.69733 5.42057 5.77743 4.18597 3.86114 3.81163 3.08203 2.55594 2.2217 2.03576 1.94958 1.72052 1.11113 1.05142 1.14868 0.825841 0.690743 0.652445 0.15614
threshold=323.00000000000006 625.50000000000011 469.50000000000006 418.50000000000006 482.50000000000006 509.50000000000006 478.50000000000006 507.50000000000006 558.50000000000011 568.50000000000011 536.50000000000011 468.50000000000006 481.50000000000006 506.50000000000006 485.50000000000006 474.50000000000006 496.50000000000006 505.50000000000006 424.50000000000006 507.50000000000006 503.50000000000006 556.50000000000011 523.50000000000011 406.50000000000006 453.50000000000006 475.50000000000006 495.50000000000006 499.50000000000006 518.50000000000011 486.50000000000006 483.50000000000006 467.50000000000006 388.50000000000006
decision_type=2 2 2 2 2 2 2 2 2 2 2 2 2 2 2 2 2 2 2 2 2 2 2 2 2 2 2 2 2 2 2 2 2
left_child=-1 2 3 -2 6 22 7 21 9 11 -11 12 -4 -14 15 -13 -17 19 -15 -16 -21 -5 -3 -6 -22 27 32 28 -25 -27 -20 -24 -18
right_child=1 5 8 4 23 -7 -8 -9 -10 10 -12 14 13 18 17 16 26 -19 30 20 24 -23 31 25 -26 29 -28 -29 -30 -31 -32 -33 -34
leaf_value=0.1619166702139187 0.15546307655393879 0.035612174141034118 -0.06508060754171649 -0.071270457992814895 -0.26344374453675157 -0.073619782626790184 0.11335671499513694 -0.19466530809540833 -0.12459615224232375 0.060288591311771861 -0.1577554557906243 -0.13766410276467844 0.013005791512719096 0.051438818579603099 0.13895120021103047 -0.055199796994498611 0.27229037137727669 -0.20154476096803764 0.19675300662228071 0.056524780684415854 -0.053264498244313535 0.10610677779052023 0.14136631987479567 -0.047478205034723296 -0.2116869546088781 -0.24361369122901111 0.11366971021565075 0.0041045374454914971 -0.18377830476200327 -0.13362648046104611 0.28878435804715363 0.25292309107109617 0.21572289122405586
leaf_weight=4.3432377427816382 5.5940730683505526 5.5536662489175823 7.3291034325957289 6.7189088463783317 4.6338480263948467 6.5323753133416167 7.5445649549365035 7.2489076331257811 5.8572065569460383 9.3081026151776332 8.7524527460336667 3.9904246926307705 9.0711002275347727 5.4341934248805073 5.2036901339888635 5.2277141883969334 3.4453285709023458 5.8378355950117102 5.5231860913336259 6.9304895140230682 9.2017511688172799 6.292985200881958 4.0824524164199811 5.31226644665003 4.6913329362869254 4.5742060020565969 4.2616635113954544 4.671262849122285 4.6278586015105247 6.7754767164587975 7.9687157645821571 4.3120980560779572 4.5026088729500771
leaf_count=35 37 33 43 36 30 43 50 43 34 50 49 20 44 28 38 28 26 36 44 44 57 32 29 29 36 40 28 33 32 52 45 32 44
internal_value=0 -0.00338399 -0.0116201 -0.0597141 -0.0803256 0.0676063 -0.0131994 -0.0603255 0.0157288 0.0234332 -0.0453793 0.0374572 0.0936545 0.135208 0.000205623 0.0726143 0.120735 -0.0484857 0.193779 -0.0141551 -0.0524154 0.0145151 0.133747 -0.141331 -0.10676 -0.119535 0.196064 -0.0741575 -0.110936 -0.177954 0.251109 0.198671 0.240244
internal_weight=0 197.012 176.531 63.9944 58.4003 20.4806 27.8054 20.2608 112.537 106.68 18.0606 88.6191 35.3263 27.9972 53.2928 21.4277 17.4373 31.8651 18.9261 26.0273 20.8236 13.0119 13.9482 30.5949 13.8931 25.9611 12.2096 14.6114 9.94013 11.3497 13.4919 8.39455 7.94794
internal_count=1280 1245 1108 414 377 137 161 111 694 660 99 561 204 161 357 146 126 211 117 175 137 68 94 216 93 186 98 94 61 92 89 61 70
is_linear=0
shrinkage=0.2


Tree=12
num_leaves=34
num_cat=0
split_feature=3 18 6 18 6 18 11 17 6 6 6 17 3 19 8 8 3 17 19 8 18 11 11 19 11 11 11 19 4 8 3 8 8
split_gain=3.1711 3.87845 2.11383 3.4751 1.75821 3.13167 2.31058 4.10419 2.31434 3.43877 2.28723 2.15081 1.56726 5.1661 6.47981 5.73441 3.74319 3.55699 3.31939 2.90827 2.41778 4.78634 4.39362 2.19935 5.30906 4.94433 1.52946 1.52098 0.862957 0.796103 0.561012 0.403512 0.0190367
threshold=698.50000000000011 501.50000000000006 589.50000000000011 587.50000000000011 450.50000000000006 423.50000000000006 443.50000000000006 528.50000000000011 440.50000000000006 434.50000000000006 423.50000000000006 533.50000000000011 492.50000000000006 481.50000000000006 487.50000000000006 516.50000000000011 635.50000000000011 506.50000000000006 599.50000000000011 475.50000000000006 495.00000000000006 442.50000000000006 484.50000000000006 288.50000000000006 466.50000000000006 515.50000000000011 412.50000000000006 392.50000000000006 482.50000000000006 488.50000000000006 579.00000000000011 514.50000000000011 536.50000000000011
decision_type=2 2 2 2 2 2 2 2 2 2 2 2 2 2 2 2 2 2 2 2 2 2 2 2 2 2 2 2 2 2 2 2 2
left_child=2 -2 3 4 6 -6 7 -1 9 10 11 -8 20 14 -14 17 30 19 -19 -15 21 26 -23 -22 27 -26 -7 -25 -16 -10 -17 -3 -30
right_child=1 31 -4 -5 5 12 8 -9 29 -11 -12 -13 13 15 28 16 -18 18 -20 -21 23 22 -24 24 25 -27 -28 -29 32 -31 -32 -33 -34
leaf_value=-0.24474477097430186 -0.07274365563225578 0.24499160682117571 -0.11633797130467977 0.11574432977884817 0.15607140776436354 0.21607828645282892 0.12507684903264196 0.035234507207069686 -0.055137697757358509 0.1556359108027974 -0.11936014999669775 -0.06174455439169068 -0.098790109821639882 0.20073180140284197 0.12962613468303655 0.014331611730004835 -0.23263784294412401 -0.18204614935540131 0.036250721758882935 0.030213567473626565 -0.16224896758382834 -0.15994692336587901 0.045137940734999715 -0.061428831134418105 0.16058753919942845 -0.086435083660642689 0.055078511945881273 -0.19636106894621944 0.22786911634643242 -0.18029053032285938 -0.07959129982015066 0.14788800143154576 0.24906315940551577
leaf_weight=5.3743994608521444 3.1856602281331998 3.2790378034114838 6.6676899455487719 9.5436316281557065 5.1346662379801264 4.5727349855005759 4.9301783777773469 3.4314398989081383 4.7028768435120565 5.2704941779375067 6.7611990720033637 4.9296494759619236 4.1415606811642673 6.6432723067700925 5.1096020080149156 4.7951782271266001 6.1856678277254096 4.4368767440319044 7.4895865470170975 10.058516867458819 6.9399837106466284 7.429252993315461 9.5492654740810377 7.1571340560913104 7.5212735906243307 5.695414811372757 4.8778862468898296 6.2680966854095459 3.3904792293906212 3.5811954289674759 5.4181560799479485 3.5813689045608044 3.3903816305100918
leaf_count=52 19 38 37 59 35 29 31 25 30 36 50 32 24 53 39 26 38 31 39 57 36 55 51 42 37 32 34 40 38 32 34 44 25
internal_value=0 0.109619 -0.00581688 -0.0015994 -0.00837892 0.00308859 -0.0455058 -0.135643 -0.0192019 0.0148703 -0.0297662 0.0316712 -0.00339951 0.0191595 0.116654 -0.0155535 -0.109856 0.0384657 -0.04496 0.0980386 -0.0263526 0.018899 -0.0446006 -0.0619658 -0.035843 0.0541391 0.132979 -0.124427 0.191695 -0.109241 -0.0354943 0.1943 0.238466
internal_weight=0 10.0461 181.398 174.73 165.186 126.205 38.9814 8.80584 30.1756 21.8915 16.621 9.85983 121.07 61.0593 16.032 45.0273 16.399 28.6283 11.9265 16.7018 60.011 26.4291 16.9785 33.5819 26.6419 13.2167 9.45062 13.4252 11.8905 8.28407 10.2133 6.86041 6.78086
internal_count=1280 101 1179 1142 1083 795 288 77 211 149 113 63 760 404 126 278 98 180 70 110 356 169 106 187 151 69 63 82 102 62 60 82 63
is_linear=0
shrinkage=0.2


Tree=13
num_leaves=32
num_cat=0
split_feature=9 10 16 3 8 19 18 3 12 16 0 3 19 16 0 10 0 16 19 18 3 0 10 18 8 16 19 3 18 18 8
split_gain=2.52962 3.7888 2.83033 4.18147 3.27306 2.67403 2.39398 2.38814 2.35884 2.40102 5.61987 4.17788 6.25485 3.35869 4.04034 3.32637 2.88383 3.10244 4.93004 2.67164 2.57294 2.33094 2.18906 3.35777 2.01626 1.7549 6.36712 1.59122 1.76932 1.461 0.238265
threshold=558.50000000000011 626.50000000000011 565.50000000000011 392.50000000000006 519.50000000000011 278.00000000000006 418.50000000000006 739.50000000000011 602.50000000000011 444.50000000000006 489.50000000000006 551.50000000000011 482.50000000000006 434.50000000000006 494.50000000000006 461.50000000000006 461.50000000000006 474.50000000000006 465.50000000000006 554.50000000000011 480.50000000000006 475.50000000000006 397.50000000000006 436.50000000000006 443.50000000000006 576.50000000000011 344.50000000000006 573.50000000000011 538.50000000000011 404.50000000000006 494.50000000000006
decision_type=2 2 2 2 2 2 2 2 2 2 2 2 2 2 2 2 2 2 2 2 2 2 2 2 2 2 2 2 2 2 2
left_child=1 5 4 24 21 -1 -3 8 9 13 15 20 -13 14 22 19 -17 -18 25 -11 -12 29 -7 -24 -4 26 -19 -25 -29 -2 -26
right_child=2 6 3 -5 -6 7 -8 -9 -10 10 11 12 -14 -15 -16 16 17 18 -20 -21 -22 -23 23 27 30 -27 -28 28 -30 -31 -32
leaf_value=-0.11587830874939938 -0.18471640151233515 0.036227372010626549 0.040119775485198711 0.10676188731614616 -0.23342973555596697 0.1401078282257093 0.24761950384336859 0.14941429187250882 -0.11318200467379132 0.18886909578184635 0.09019543559900256 0.19635876508457853 -0.11665526145159043 -0.16374731550044921 -0.15688124426967365 0.10064105784689353 -0.16577832316898147 0.13688854780963497 0.13381222436324866 0.0077118698870769289 0.27528010979797113 0.071239757042061022 0.1143322238005266 -0.15044963524771984 -0.16736733421777669 -0.14961774920905199 -0.13100442538753415 0.043841400171456969 -0.13024490101368558 -0.023475932668747052 -0.097479596423905815
leaf_weight=7.0102815479040137 4.6334002949297446 4.3024612516164762 4.1600589118897933 9.2419828772544843 5.3364776857197276 5.5826181564480093 4.2693014666438103 4.7976908814162007 6.3445977047085753 5.6788720265030843 5.2786264866590518 4.6076269373297674 5.728172279894352 6.1488566771149626 5.6845350302755824 5.8207807019352904 7.4715170674026004 5.7800741046667161 6.381032805889844 7.6333661824464798 6.9730390124022961 4.3921266142278901 7.0841029584407833 4.6041889935731879 3.8859673365950584 6.8801520541310301 9.1930379197001439 7.5180323570966703 3.3875191584229469 4.365871787071228 3.9192788898944855
leaf_count=41 35 36 32 56 41 38 28 57 41 41 35 48 34 45 47 31 51 29 41 53 48 35 44 29 26 38 55 53 30 28 34
internal_value=0 0.0125607 -0.0443218 0.00571306 -0.100981 0.00440835 0.141515 0.0109665 0.00560037 0.0120177 0.032575 0.116532 0.0228842 -0.0277644 -0.00307114 -0.00200607 -0.0298951 -0.0511752 -0.0208482 0.0849918 0.195536 -0.0481999 0.0279597 0.000249478 -0.0723369 -0.0660082 -0.0275896 -0.051858 -0.0102339 -0.106493 -0.132274
internal_weight=0 144.16 39.9352 21.2073 18.7279 135.589 8.57176 128.578 123.781 117.436 77.4263 22.5875 10.3358 40.0099 33.861 54.8388 41.5266 35.7058 28.2343 13.3122 12.2517 13.3914 28.1765 22.5938 11.9653 21.8533 14.9731 15.5097 10.9056 8.99927 7.80525
internal_count=1280 993 287 148 139 929 64 888 831 790 504 165 82 286 241 339 245 214 163 94 83 98 194 156 92 122 84 112 83 63 60
is_linear=0
shrinkage=0.2


end of trees

feature_importances:
Column_11=33
Column_13=33
Column_17=31
Column_18=31
Column_1=30
Column_3=30
Column_5=29
Column_8=28
Column_6=27
Column_15=27
Column_9=24
Column_0=22
Column_10=19
Column_16=19
Column_14=18
Column_19=18
Column_2=14
Column_4=11
Column_12=8
Column_7=6

parameters:
[boosting: gbdt]
[objective: binary]
[metric: custom]
[tree_learner: serial]
[device_type: cpu]
[data: ]
[valid: ]
[num_iterations: 10000]
[learning_rate: 0.2]
[num_leaves: 63]
[num_threads: 0]
[deterministic: 0]
[force_col_wise: 0]
[force_row_wise: 0]
[histogram_pool_size: -1]
[max_depth: -1]
[min_data_in_leaf: 30]
[min_sum_hessian_in_leaf: 0.001]
[bagging_fraction: 0.8]
[pos_bagging_fraction: 1]
[neg_bagging_fraction: 1]
[bagging_freq: 0]
[bagging_seed: 21374]
[feature_fraction: 0.5]
[feature_fraction_bynode: 1]
[feature_fraction_seed: 19300]
[extra_trees: 0]
[extra_seed: 32513]
[early_stopping_round: 0]
[first_metric_only: 0]
[max_delta_step: 0]
[lambda_l1: 0]
[lambda_l2: 0]
[linear_lambda: 0]
[min_gain_to_split: 0]
[drop_rate: 0.1]
[max_drop: 50]
[skip_drop: 0.5]
[xgboost_dart_mode: 0]
[uniform_drop: 0]
[drop_seed: 8886]
[top_rate: 0.2]
[other_rate: 0.1]
[min_data_per_group: 100]
[max_cat_threshold: 32]
[cat_l2: 10]
[cat_smooth: 10]
[max_cat_to_onehot: 4]
[top_k: 20]
[monotone_constraints: ]
[monotone_constraints_method: basic]
[monotone_penalty: 0]
[feature_contri: ]
[forcedsplits_filename: ]
[refit_decay_rate: 0.9]
[cegb_tradeoff: 1]
[cegb_penalty_split: 0]
[cegb_penalty_feature_lazy: ]
[cegb_penalty_feature_coupled: ]
[path_smooth: 0]
[interaction_constraints: ]
[verbosity: -1]
[saved_feature_importance_type: 0]
[linear_tree: 0]
[max_bin: 255]
[max_bin_by_feature: ]
[min_data_in_bin: 3]
[bin_construct_sample_cnt: 200000]
[data_random_seed: 192]
[is_enable_sparse: 1]
[enable_bundle: 1]
[use_missing: 1]
[zero_as_missing: 0]
[feature_pre_filter: 1]
[pre_partition: 0]
[two_round: 0]
[header: 0]
[label_column: ]
[weight_column: ]
[group_column: ]
[ignore_column: ]
[categorical_feature: ]
[forcedbins_filename: ]
[precise_float_parser: 0]
[parser_config_file: ]
[objective_seed: 2120]
[num_class: 1]
[is_unbalance: 0]
[scale_pos_weight: 1]
[sigmoid: 1]
[boost_from_average: 1]
[reg_sqrt: 0]
[alpha: 0.9]
[fair_c: 1]
[poisson_max_delta_step: 0.7]
[tweedie_variance_power: 1.5]
[lambdarank_truncation_level: 30]
[lambdarank_norm: 1]
[label_gain: ]
[lambdarank_position_bias_regularization: 0]
[eval_at: ]
[multi_error_top_k: 1]
[auc_mu_weights: ]
[num_machines: 1]
[local_listen_port: 12400]
[time_out: 120]
[machine_list_filename: ]
[machines: ]
[gpu_platform_id: -1]
[gpu_device_id: -1]
[gpu_use_dp: 0]
[num_gpu: 1]

end of parameters

pandas_categorical:null
