{"learner":{"attributes":{"best_iteration":"212","best_score":"-0.856209"},"feature_names":[],"feature_types":[],"gradient_booster":{"model":{"gbtree_model_param":{"num_parallel_tree":"1","num_trees":"263"},"iteration_indptr":[0,1,2,3,4,5,6,7,8,9,10,11,12,13,14,15,16,17,18,19,20,21,22,23,24,25,26,27,28,29,30,31,32,33,34,35,36,37,38,39,40,41,42,43,44,45,46,47,48,49,50,51,52,53,54,55,56,57,58,59,60,61,62,63,64,65,66,67,68,69,70,71,72,73,74,75,76,77,78,79,80,81,82,83,84,85,86,87,88,89,90,91,92,93,94,95,96,97,98,99,100,101,102,103,104,105,106,107,108,109,110,111,112,113,114,115,116,117,118,119,120,121,122,123,124,125,126,127,128,129,130,131,132,133,134,135,136,137,138,139,140,141,142,143,144,145,146,147,148,149,150,151,152,153,154,155,156,157,158,159,160,161,162,163,164,165,166,167,168,169,170,171,172,173,174,175,176,177,178,179,180,181,182,183,184,185,186,187,188,189,190,191,192,193,194,195,196,197,198,199,200,201,202,203,204,205,206,207,208,209,210,211,212,213,214,215,216,217,218,219,220,221,222,223,224,225,226,227,228,229,230,231,232,233,234,235,236,237,238,239,240,241,242,243,244,245,246,247,248,249,250,251,252,253,254,255,256,257,258,259,260,261,262,263],"tree_info":[0,0,0,0,0,0,0,0,0,0,0,0,0,0,0,0,0,0,0,0,0,0,0,0,0,0,0,0,0,0,0,0,0,0,0,0,0,0,0,0,0,0,0,0,0,0,0,0,0,0,0,0,0,0,0,0,0,0,0,0,0,0,0,0,0,0,0,0,0,0,0,0,0,0,0,0,0,0,0,0,0,0,0,0,0,0,0,0,0,0,0,0,0,0,0,0,0,0,0,0,0,0,0,0,0,0,0,0,0,0,0,0,0,0,0,0,0,0,0,0,0,0,0,0,0,0,0,0,0,0,0,0,0,0,0,0,0,0,0,0,0,0,0,0,0,0,0,0,0,0,0,0,0,0,0,0,0,0,0,0,0,0,0,0,0,0,0,0,0,0,0,0,0,0,0,0,0,0,0,0,0,0,0,0,0,0,0,0,0,0,0,0,0,0,0,0,0,0,0,0,0,0,0,0,0,0,0,0,0,0,0,0,0,0,0,0,0,0,0,0,0,0,0,0,0,0,0,0,0,0,0,0,0,0,0,0,0,0,0,0,0,0,0,0,0,0,0,0,0,0,0,0,0,0,0,0,0,0,0,0,0,0,0],"trees":[{"base_weights":[1.4331078E-2,-5.602819E-1,4.898055E-1,-1.8020622E-2,-1.068064E0,6.885923E-1,-5.5842507E-1,6.678509E-1,-9.001117E-1,-8.9073285E-2,-2.9478028E-1,-4.022253E-1,1.0383718E0,-4.431333E-3,-5.153922E-2,-3.104335E-2,6.896653E-2,-7.0438944E-2,-7.0938854E-3,4.501514E-2,-8.2893685E-2,5.0199954E-3,-3.9835095E-2,5.653049E-1,1.528447E0,9.5395553E-1,1.9345712E-3,4.876837E-2,8.9023285E-2,6.831196E-2,1.6237313E-2],"categories":[],"categories_nodes":[],"categories_segments":[],"categories_sizes":[],"default_left":[0,0,0,0,0,0,0,0,0,0,0,0,0,0,0,0,0,0,0,0,0,0,0,0,0,0,0,0,0,0,0],"id":0,"left_children":[1,3,5,7,9,11,13,15,17,-1,19,21,23,-1,-1,-1,-1,-1,-1,-1,-1,-1,-1,25,27,29,-1,-1,-1,-1,-1],"loss_changes":[6.953259E1,3.1714203E1,2.9400028E1,3.4934216E1,3.2298035E1,4.5248295E1,4.957075E0,3.0654884E1,9.538557E0,0E0,4.9954605E1,5.879378E0,1.9827087E1,0E0,0E0,0E0,0E0,0E0,0E0,0E0,0E0,0E0,0E0,9.582311E0,4.291725E0,6.560314E0,0E0,0E0,0E0,0E0,0E0],"parents":[2147483647,0,0,1,1,2,2,3,3,4,4,5,5,6,6,7,7,8,8,10,10,11,11,12,12,23,23,24,24,25,25],"right_children":[2,4,6,8,10,12,14,16,18,-1,20,22,24,-1,-1,-1,-1,-1,-1,-1,-1,-1,-1,26,28,30,-1,-1,-1,-1,-1],"split_conditions":[4.72E2,5.11E2,5.02E2,4.96E2,4.84E2,4.75E2,5.25E2,5.44E2,4.96E2,-8.9073285E-2,4.79E2,4.47E2,5.21E2,-4.431333E-3,-5.153922E-2,-3.104335E-2,6.896653E-2,-7.0438944E-2,-7.0938854E-3,4.501514E-2,-8.2893685E-2,5.0199954E-3,-3.9835095E-2,4.87E2,4.54E2,5.59E2,1.9345712E-3,4.876837E-2,8.9023285E-2,6.831196E-2,1.6237313E-2],"split_indices":[18,5,17,1,1,4,18,13,16,0,14,11,11,0,0,0,0,0,0,0,0,0,0,19,5,18,0,0,0,0,0],"split_type":[0,0,0,0,0,0,0,0,0,0,0,0,0,0,0,0,0,0,0,0,0,0,0,0,0,0,0,0,0,0,0],"sum_hessian":[2.5249445E2,1.1424749E2,1.3824696E2,5.5748775E1,5.8498714E1,1.1649744E2,2.1749521E1,3.1499308E1,2.4249466E1,2.9749346E1,2.8749367E1,2.8249378E1,8.824806E1,1.1499747E1,1.0249775E1,1.1249753E1,2.0249554E1,1.3999692E1,1.0249775E1,1.549966E1,1.3249708E1,1.274972E1,1.549966E1,4.599899E1,4.224907E1,2.5999428E1,1.999956E1,1.4749676E1,2.7499395E1,1.499967E1,1.0999758E1],"tree_param":{"num_deleted":"0","num_feature":"20","num_nodes":"31","size_leaf_vector":"1"}},{"base_weights":[2.3906672E-2,-4.9645042E-1,5.079239E-1,8.925478E-2,-8.9867604E-1,7.4104106E-1,-3.78763E-2,3.67873E-1,-1.7944533E-2,-3.0547047E-1,-1.3654115E0,-2.7114737E-1,1.0422932E0,6.2504224E-2,-3.8132913E-2,-5.1050585E-2,9.77717E-2,-2.7294204E-2,-8.19317E-2,1.6598491E-2,-3.4066074E-2,5.470248E-1,1.5485673E0,4.848254E-2,-3.913806E-2,2.0186268E-1,5.5272717E-2,4.852201E-2,8.9452446E-2,-1.0447207E-2,4.4360783E-2],"categories":[],"categories_nodes":[],"categories_segments":[],"categories_sizes":[],"default_left":[0,0,0,0,0,0,0,0,0,0,0,0,0,0,0,0,0,0,0,0,0,0,0,0,0,0,0,0,0,0,0],"id":1,"left_children":[1,3,5,7,9,11,-1,13,-1,15,17,19,21,-1,-1,-1,23,-1,-1,-1,-1,25,27,-1,-1,29,-1,-1,-1,-1,-1],"loss_changes":[6.485893E1,2.9321926E1,3.991213E1,6.5555544E0,1.9982224E1,3.478417E1,0E0,3.308515E1,0E0,9.832666E0,8.273964E0,6.8425183E0,2.1068413E1,0E0,0E0,0E0,1.802227E1,0E0,0E0,0E0,0E0,8.590823E0,4.196892E0,0E0,0E0,8.486441E0,0E0,0E0,0E0,0E0,0E0],"parents":[2147483647,0,0,1,1,2,2,3,3,4,4,5,5,7,7,9,9,10,10,11,11,12,12,16,16,21,21,22,22,25,25],"right_children":[2,4,6,8,10,12,-1,14,-1,16,18,20,22,-1,-1,-1,24,-1,-1,-1,-1,26,28,-1,-1,30,-1,-1,-1,-1,-1],"split_conditions":[4.96E2,4.65E2,5.02E2,5.1E2,4.85E2,4.48E2,-3.78763E-2,5.18E2,-1.7944533E-2,4.23E2,4.96E2,4.43E2,5.2E2,6.2504224E-2,-3.8132913E-2,-5.1050585E-2,5.5E2,-2.7294204E-2,-8.19317E-2,1.6598491E-2,-3.4066074E-2,4.71E2,4.84E2,4.848254E-2,-3.913806E-2,4.43E2,5.5272717E-2,4.852201E-2,8.9452446E-2,-1.0447207E-2,4.4360783E-2],"split_indices":[6,8,17,7,7,3,0,11,0,3,8,11,11,0,0,0,3,0,0,0,0,13,8,0,0,9,0,0,0,0,0],"split_type":[0,0,0,0,0,0,0,0,0,0,0,0,0,0,0,0,0,0,0,0,0,0,0,0,0,0,0,0,0,0,0],"sum_hessian":[2.5551678E2,1.23123505E2,1.3239328E2,5.044523E1,7.2678276E1,1.1214811E2,2.0245165E1,3.1216574E1,1.9228657E1,3.2731762E1,3.9946514E1,2.5745327E1,8.640278E1,1.7474545E1,1.374203E1,1.1245301E1,2.148646E1,1.0737488E1,2.9209026E1,1.0498729E1,1.5246599E1,4.47278E1,4.167498E1,1.0745428E1,1.0741032E1,2.848368E1,1.624412E1,1.372205E1,2.7952932E1,1.8243494E1,1.0240187E1],"tree_param":{"num_deleted":"0","num_feature":"20","num_nodes":"31","size_leaf_vector":"1"}},{"base_weights":[-3.0951636E-2,-4.7505084E-1,4.521954E-1,1.349162E-2,-9.3417877E-1,6.9707716E-1,-4.2068165E-2,7.269768E-1,-8.6023414E-1,-1.5043534E0,-7.129257E-2,-1.6572084E-1,1.1242287E0,7.470142E-2,1.5080704E-3,1.2292849E-2,-7.3449366E-2,-8.1031166E-2,-5.4139502E-2,6.023233E-2,-7.672431E-2,-4.4984484E-1,1.3590354E-2,6.907043E-1,1.519189E0,1.2431698E-3,-4.375468E-2,1.0000025E-2,5.352676E-2,4.5896232E-2,8.834265E-2],"categories":[],"categories_nodes":[],"categories_segments":[],"categories_sizes":[],"default_left":[0,0,0,0,0,0,0,0,0,0,0,0,0,0,0,0,0,0,0,0,0,0,0,0,0,0,0,0,0,0,0],"id":2,"left_children":[1,3,5,7,9,11,-1,13,15,17,19,21,23,-1,-1,-1,-1,-1,-1,-1,-1,25,-1,27,29,-1,-1,-1,-1,-1,-1],"loss_changes":[5.4940327E1,2.9931221E1,3.944406E1,4.1524754E1,3.373053E1,3.8400635E1,0E0,1.9548273E1,2.0527729E1,2.7259827E-1,5.4895935E1,4.498944E0,1.0847824E1,0E0,0E0,0E0,0E0,0E0,0E0,0E0,0E0,4.406808E0,0E0,6.301483E0,3.6682053E0,0E0,0E0,0E0,0E0,0E0,0E0],"parents":[2147483647,0,0,1,1,2,2,3,3,4,4,5,5,7,7,8,8,9,9,10,10,11,11,12,12,21,21,23,23,24,24],"right_children":[2,4,6,8,10,12,-1,14,16,18,20,22,24,-1,-1,-1,-1,-1,-1,-1,-1,26,-1,28,30,-1,-1,-1,-1,-1,-1],"split_conditions":[5.01E2,5.14E2,5.02E2,5.16E2,5.15E2,4.79E2,-4.2068165E-2,4.69E2,4.81E2,5.23E2,4.91E2,5.58E2,5.21E2,7.470142E-2,1.5080704E-3,1.2292849E-2,-7.3449366E-2,-8.1031166E-2,-5.4139502E-2,6.023233E-2,-7.672431E-2,5.35E2,1.3590354E-2,4.49E2,4.84E2,1.2431698E-3,-4.375468E-2,1.0000025E-2,5.352676E-2,4.5896232E-2,8.834265E-2],"split_indices":[18,5,17,11,11,3,0,8,15,3,8,18,11,0,0,0,0,0,0,0,0,18,0,17,8,0,0,0,0,0,0],"split_type":[0,0,0,0,0,0,0,0,0,0,0,0,0,0,0,0,0,0,0,0,0,0,0,0,0,0,0,0,0,0,0],"sum_hessian":[2.5405304E2,1.3238454E2,1.21668495E2,6.460799E1,6.777656E1,1.0268959E2,1.8978905E1,3.5657772E1,2.895021E1,4.0362545E1,2.741401E1,3.4207115E1,6.8482475E1,1.6428865E1,1.9228909E1,1.0488667E1,1.8461544E1,2.9407465E1,1.0955083E1,1.4738441E1,1.2675567E1,2.0722248E1,1.3484865E1,3.39578E1,3.4524673E1,1.0236595E1,1.0485654E1,1.5482501E1,1.8475302E1,1.1445144E1,2.3079529E1],"tree_param":{"num_deleted":"0","num_feature":"20","num_nodes":"31","size_leaf_vector":"1"}},{"base_weights":[-3.641036E-2,4.853536E-1,-3.2854563E-1,1.2023487E0,9.984423E-2,-9.472555E-2,-8.492644E-1,3.5496008E-2,7.087111E-2,8.4649664E-1,-7.597615E-1,2.8336266E-1,-5.9403837E-1,-1.5041654E0,1.7455684E-2,-1.4463895E-3,7.3094636E-2,-6.473626E-2,1.2050211E-2,-1.8525412E-2,6.1046846E-2,-1.3948152E0,4.8566467E-1,-5.4806944E-2,-8.594447E-2,-3.0857486E-1,2.7958725E-2,-8.415049E-2,-3.884751E-2,6.9300584E-2,-2.6863724E-2,7.7171475E-3,-3.9283704E-2],"categories":[],"categories_nodes":[],"categories_segments":[],"categories_sizes":[],"default_left":[0,0,0,0,0,0,0,0,0,0,0,0,0,0,0,0,0,0,0,0,0,0,0,0,0,0,0,0,0,0,0,0,0],"id":3,"left_children":[1,3,5,7,9,11,13,-1,-1,15,17,19,21,23,-1,-1,-1,-1,-1,25,-1,27,29,-1,-1,31,-1,-1,-1,-1,-1,-1,-1],"loss_changes":[3.9930515E1,2.5878046E1,2.0357773E1,2.4673195E0,4.0602505E1,2.2250647E1,4.1251743E1,0E0,0E0,1.8246851E1,1.6088072E1,1.9055294E1,4.453688E1,1.072258E0,0E0,0E0,0E0,0E0,0E0,8.860652E0,0E0,3.9247398E0,2.1323088E1,0E0,0E0,7.887381E0,0E0,0E0,0E0,0E0,0E0,0E0,0E0],"parents":[2147483647,0,0,1,1,2,2,3,3,4,4,5,5,6,6,9,9,10,10,11,11,12,12,13,13,19,19,21,21,22,22,25,25],"right_children":[2,4,6,8,10,12,14,-1,-1,16,18,20,22,24,-1,-1,-1,-1,-1,26,-1,28,30,-1,-1,32,-1,-1,-1,-1,-1,-1,-1],"split_conditions":[4.62E2,5.02E2,5.11E2,4.6E2,4.83E2,5.2E2,5.14E2,3.5496008E-2,7.087111E-2,4.88E2,4.96E2,6.25E2,4.9E2,5.24E2,1.7455684E-2,-1.4463895E-3,7.3094636E-2,-6.473626E-2,1.2050211E-2,4.7E2,6.1046846E-2,4.42E2,4.5E2,-5.4806944E-2,-8.594447E-2,5.13E2,2.7958725E-2,-8.415049E-2,-3.884751E-2,6.9300584E-2,-2.6863724E-2,7.7171475E-3,-3.9283704E-2],"split_indices":[10,19,5,11,14,11,11,0,0,4,4,10,8,16,0,0,0,0,0,11,0,7,19,0,0,16,0,0,0,0,0,0,0],"split_type":[0,0,0,0,0,0,0,0,0,0,0,0,0,0,0,0,0,0,0,0,0,0,0,0,0,0,0,0,0,0,0,0,0],"sum_hessian":[2.59921E2,9.3056816E1,1.6686418E2,3.1797998E1,6.125882E1,1.1597117E2,5.089301E1,1.0973678E1,2.082432E1,3.2791454E1,2.8467363E1,6.624319E1,4.9727978E1,3.2743736E1,1.8149275E1,1.3929377E1,1.8862078E1,1.8359488E1,1.0107878E1,5.0850243E1,1.5392948E1,2.8384422E1,2.1343555E1,1.3394974E1,1.934876E1,3.416344E1,1.66868E1,1.8180477E1,1.0203946E1,1.116323E1,1.01803255E1,1.7682774E1,1.6480669E1],"tree_param":{"num_deleted":"0","num_feature":"20","num_nodes":"33","size_leaf_vector":"1"}},{"base_weights":[1.0692243E-1,4.2271875E-3,1.1670651E0,3.65927E-1,-2.671608E-1,7.797985E-2,3.0503094E-2,6.960429E-2,3.831989E-2,1.210377E-2,-7.9785323E-1,3.458018E-1,-4.818402E-1,-4.1353017E-1,3.3843422E-1,2.9392352E-3,-1.2486446E0,-1.5835825E-1,7.523968E-1,-5.6143086E-2,7.998952E-3,3.769782E-2,-9.56203E-1,-5.405922E-2,8.7458414E-1,-3.7657153E-2,-7.5882755E-2,5.7300474E-2,-6.836811E-2,-3.6053106E-3,8.4219925E-2,-3.6822874E-3,-7.366211E-2,1.1027441E0,1.1428631E-2,7.28657E-2,2.2243142E-2],"categories":[],"categories_nodes":[],"categories_segments":[],"categories_sizes":[],"default_left":[0,0,0,0,0,0,0,0,0,0,0,0,0,0,0,0,0,0,0,0,0,0,0,0,0,0,0,0,0,0,0,0,0,0,0,0,0],"id":4,"left_children":[1,3,5,7,9,-1,-1,-1,11,13,15,17,19,21,23,-1,25,27,29,-1,-1,-1,31,-1,33,-1,-1,-1,-1,-1,-1,-1,-1,35,-1,-1,-1],"loss_changes":[2.822737E1,2.3403103E1,4.0549603E0,3.4303093E1,2.019826E1,0E0,0E0,0E0,1.2720989E1,1.2673939E1,1.821655E1,1.0351098E1,1.2349304E1,2.5817162E1,4.024111E1,0E0,2.9662743E0,3.801096E1,2.1487692E1,0E0,0E0,0E0,1.2432253E1,0E0,5.352991E0,0E0,0E0,0E0,0E0,0E0,0E0,0E0,0E0,5.845993E0,0E0,0E0,0E0],"parents":[2147483647,0,0,1,1,2,2,3,3,4,4,8,8,9,9,10,10,11,11,12,12,13,13,14,14,16,16,17,17,18,18,22,22,24,24,33,33],"right_children":[2,4,6,8,10,-1,-1,-1,12,14,16,18,20,22,24,-1,26,28,30,-1,-1,-1,32,-1,34,-1,-1,-1,-1,-1,-1,-1,-1,36,-1,-1,-1],"split_conditions":[6.98E2,4.52E2,5.62E2,4.62E2,5.04E2,7.797985E-2,3.0503094E-2,6.960429E-2,4.44E2,4.76E2,5.33E2,4.86E2,4.65E2,4.88E2,4.65E2,2.9392352E-3,5.16E2,3.66E2,4.92E2,-5.6143086E-2,7.998952E-3,3.769782E-2,4.62E2,-5.405922E-2,6.04E2,-3.7657153E-2,-7.5882755E-2,5.7300474E-2,-6.836811E-2,-3.6053106E-3,8.4219925E-2,-3.6822874E-3,-7.366211E-2,4.73E2,1.1428631E-2,7.28657E-2,2.2243142E-2],"split_indices":[3,15,15,10,8,0,0,0,12,11,5,8,11,12,7,0,15,3,11,0,0,0,10,0,13,0,0,0,0,0,0,0,0,0,0,0,0],"split_type":[0,0,0,0,0,0,0,0,0,0,0,0,0,0,0,0,0,0,0,0,0,0,0,0,0,0,0,0,0,0,0,0,0,0,0,0,0],"sum_hessian":[2.5831738E2,2.3641959E2,2.1897804E1,1.0119749E2,1.352221E2,1.1789513E1,1.0108292E1,2.3703169E1,7.749432E1,8.923923E1,4.598288E1,4.891464E1,2.8579681E1,3.861124E1,5.0627987E1,1.6154367E1,2.982851E1,2.210988E1,2.680476E1,1.3923744E1,1.4655937E1,1.2128685E1,2.6482553E1,1.360036E1,3.7027626E1,1.1832817E1,1.7995693E1,1.066055E1,1.1449329E1,1.4712159E1,1.2092602E1,1.0205231E1,1.6277323E1,2.6840889E1,1.0186736E1,1.6651358E1,1.018953E1],"tree_param":{"num_deleted":"0","num_feature":"20","num_nodes":"37","size_leaf_vector":"1"}},{"base_weights":[1.6974898E-2,-4.3555456E-1,4.5395777E-1,7.239867E-2,-7.8302956E-1,9.002256E-1,-2.824533E-1,2.8902528E-1,-1.9490823E-2,-2.802304E-1,-1.214696E0,4.8206025E-1,7.746693E-2,-7.99221E-1,2.8054962E-2,8.378431E-1,-2.4159355E-2,1.0210148E-1,-4.6317577E-2,-7.170134E-2,-3.5993665E-2,6.5275866E-1,-8.181745E-3,7.2015997E-4,-7.056623E-2,6.397339E-2,1.652565E-2,-3.2690383E-2,4.2554937E-2,3.6734757E-1,6.0101002E-2,3.3786662E-2,4.03304E-3],"categories":[],"categories_nodes":[],"categories_segments":[],"categories_sizes":[],"default_left":[0,0,0,0,0,0,0,0,0,0,0,0,0,0,0,0,0,0,0,0,0,0,0,0,0,0,0,0,0,0,0,0,0],"id":5,"left_children":[1,3,5,7,9,11,13,15,-1,17,19,21,-1,23,-1,25,-1,27,-1,-1,-1,29,-1,-1,-1,-1,-1,-1,-1,31,-1,-1,-1],"loss_changes":[5.0584515E1,2.2240295E1,4.301584E1,5.316202E0,1.5876221E1,2.1309692E1,2.218322E1,1.5644466E1,0E0,8.941922E0,3.2982635E0,5.7139626E0,0E0,1.56238575E1,0E0,4.368596E0,0E0,1.3805484E1,0E0,0E0,0E0,5.8974476E0,0E0,0E0,0E0,0E0,0E0,0E0,0E0,2.4253492E0,0E0,0E0,0E0],"parents":[2147483647,0,0,1,1,2,2,3,3,4,4,5,5,6,6,7,7,9,9,10,10,11,11,13,13,15,15,17,17,21,21,29,29],"right_children":[2,4,6,8,10,12,14,16,-1,18,20,22,-1,24,-1,26,-1,28,-1,-1,-1,30,-1,-1,-1,-1,-1,-1,-1,32,-1,-1,-1],"split_conditions":[5.04E2,4.65E2,4.79E2,5.71E2,5.11E2,5.1E2,4.81E2,5.05E2,-1.9490823E-2,4.83E2,4.74E2,6.14E2,7.746693E-2,4.73E2,2.8054962E-2,5.55E2,-2.4159355E-2,4.72E2,-4.6317577E-2,-7.170134E-2,-3.5993665E-2,4.17E2,-8.181745E-3,7.2015997E-4,-7.056623E-2,6.397339E-2,1.652565E-2,-3.2690383E-2,4.2554937E-2,4.76E2,6.0101002E-2,3.3786662E-2,4.03304E-3],"split_indices":[6,8,10,5,5,1,0,1,0,4,6,5,0,4,0,2,0,4,0,0,0,9,0,0,0,0,0,0,0,5,0,0,0],"split_type":[0,0,0,0,0,0,0,0,0,0,0,0,0,0,0,0,0,0,0,0,0,0,0,0,0,0,0,0,0,0,0,0,0],"sum_hessian":[2.5380351E2,1.2468542E2,1.291181E2,5.096879E1,7.371663E1,8.025863E1,4.8859474E1,3.4959156E1,1.600963E1,3.4814445E1,3.8902187E1,4.9872738E1,3.038589E1,3.0330994E1,1.8528479E1,2.0385803E1,1.4573353E1,2.2400991E1,1.2413452E1,2.5639425E1,1.3262763E1,3.9436275E1,1.0436461E1,1.3441141E1,1.6889853E1,1.0084985E1,1.03008175E1,1.1212306E1,1.1188685E1,2.7049454E1,1.2386823E1,1.2377778E1,1.4671675E1],"tree_param":{"num_deleted":"0","num_feature":"20","num_nodes":"33","size_leaf_vector":"1"}},{"base_weights":[2.286542E-2,-3.7580097E-1,4.6325138E-1,-5.877439E-1,2.3108938E-1,9.143871E-1,-1.0875256E-1,-6.112926E-2,-4.3641406E-1,7.999266E-1,-3.34172E-2,3.6562917E-1,7.556084E-2,-7.0301247E-1,4.3645364E-1,2.773479E-2,-5.867052E-1,4.1385028E-3,7.206192E-2,5.2625258E-2,-8.0475874E-2,6.0571427E-3,-7.468579E-2,-3.176221E-2,5.5802908E-2,1.0966706E-1,-9.081236E-1,-4.7909968E-2,4.2258438E-2,2.9506642E-2,-2.11642E-2,-5.8932555E-1,-1.1500584E0,-5.4755475E-2,-4.049313E-3,-1.9773396E-2,-7.964801E-2],"categories":[],"categories_nodes":[],"categories_segments":[],"categories_sizes":[],"default_left":[0,0,0,0,0,0,0,0,0,0,0,0,0,0,0,0,0,0,0,0,0,0,0,0,0,0,0,0,0,0,0,0,0,0,0,0,0],"id":6,"left_children":[1,3,5,7,9,11,13,-1,15,17,-1,19,-1,21,23,-1,25,-1,-1,-1,27,-1,-1,-1,-1,29,31,-1,-1,-1,-1,33,35,-1,-1,-1,-1],"loss_changes":[4.4192196E1,1.713313E1,3.0955812E1,8.902824E0,1.8401598E1,2.1376709E1,1.767876E1,0E0,1.2371674E1,9.92881E0,0E0,1.1177748E1,0E0,1.7148884E1,2.1524729E1,0E0,1.5926167E1,0E0,0E0,0E0,1.9396305E1,0E0,0E0,0E0,0E0,6.1961694E0,3.0619507E0,0E0,0E0,0E0,0E0,5.817435E0,8.231812E0,0E0,0E0,0E0,0E0],"parents":[2147483647,0,0,1,1,2,2,3,3,4,4,5,5,6,6,8,8,9,9,11,11,13,13,14,14,16,16,20,20,25,25,26,26,31,31,32,32],"right_children":[2,4,6,8,10,12,14,-1,16,18,-1,20,-1,22,24,-1,26,-1,-1,-1,28,-1,-1,-1,-1,30,32,-1,-1,-1,-1,34,36,-1,-1,-1,-1],"split_conditions":[5.01E2,6.11E2,4.62E2,3.82E2,4.95E2,4.97E2,4.73E2,-6.112926E-2,4.83E2,6.04E2,-3.34172E-2,4.48E2,7.556084E-2,4.53E2,4.71E2,2.773479E-2,4.73E2,4.1385028E-3,7.206192E-2,5.2625258E-2,4.71E2,6.0571427E-3,-7.468579E-2,-3.176221E-2,5.5802908E-2,6.17E2,4.96E2,-4.7909968E-2,4.2258438E-2,2.9506642E-2,-2.11642E-2,5.21E2,4.83E2,-5.4755475E-2,-4.049313E-3,-1.9773396E-2,-7.964801E-2],"split_indices":[18,10,10,3,1,1,8,0,15,13,0,15,0,3,3,0,14,0,0,0,13,0,0,0,0,13,1,0,0,0,0,3,14,0,0,0,0],"split_type":[0,0,0,0,0,0,0,0,0,0,0,0,0,0,0,0,0,0,0,0,0,0,0,0,0,0,0,0,0,0,0,0,0,0,0,0,0],"sum_hessian":[2.4971957E2,1.3114508E2,1.1857451E2,9.722349E1,3.392159E1,6.595649E1,5.2618015E1,1.7351896E1,7.987159E1,2.0847462E1,1.3074126E1,3.520224E1,3.0754251E1,2.503792E1,2.7580095E1,1.0162589E1,6.9709E1,1.0374776E1,1.0472687E1,1.3325463E1,2.1876776E1,1.26742525E1,1.23636675E1,1.0727968E1,1.6852127E1,2.222216E1,4.748684E1,1.1211002E1,1.0665772E1,1.1630103E1,1.0592056E1,2.1971207E1,2.5515635E1,1.0434685E1,1.1536521E1,1.0137261E1,1.5378373E1],"tree_param":{"num_deleted":"0","num_feature":"20","num_nodes":"37","size_leaf_vector":"1"}},{"base_weights":[1.9222077E-2,-3.7376702E-1,3.772084E-1,2.3821283E-3,-7.423445E-1,5.5928534E-1,-3.2060917E-2,5.166884E-1,-6.819111E-1,-1.318876E0,-7.828007E-2,2.0159434E-1,1.0024512E0,-2.0354917E-2,5.5975735E-2,3.6044635E-3,-6.024578E-2,-7.453472E-2,-4.6293303E-2,4.6716608E-2,-6.9536895E-2,-1.6597217E-1,6.853378E-1,1.7555963E-2,6.8958394E-2,1.755254E-1,-4.3963183E-2,2.1032099E-2,4.745261E-2,-2.2628384E-2,3.9228335E-2],"categories":[],"categories_nodes":[],"categories_segments":[],"categories_sizes":[],"default_left":[0,0,0,0,0,0,0,0,0,0,0,0,0,0,0,0,0,0,0,0,0,0,0,0,0,0,0,0,0,0,0],"id":7,"left_children":[1,3,5,7,9,11,-1,13,15,17,19,21,23,-1,-1,-1,-1,-1,-1,-1,-1,25,27,-1,-1,29,-1,-1,-1,-1,-1],"loss_changes":[3.5003864E1,1.6448841E1,2.4497637E1,2.1366253E1,2.283813E1,1.7388111E1,0E0,1.9756025E1,1.0360259E1,7.814598E-1,3.972128E1,1.1254707E1,1.1614914E1,0E0,0E0,0E0,0E0,0E0,0E0,0E0,0E0,9.023117E0,1.5028276E0,0E0,0E0,1.0092443E1,0E0,0E0,0E0,0E0,0E0],"parents":[2147483647,0,0,1,1,2,2,3,3,4,4,5,5,7,7,8,8,9,9,10,10,11,11,12,12,21,21,22,22,25,25],"right_children":[2,4,6,8,10,12,-1,14,16,18,20,22,24,-1,-1,-1,-1,-1,-1,-1,-1,26,28,-1,-1,30,-1,-1,-1,-1,-1],"split_conditions":[4.96E2,5.14E2,5.04E2,5E2,4.84E2,4.97E2,-3.2060917E-2,5.06E2,5.67E2,4.61E2,4.84E2,4.69E2,4.81E2,-2.0354917E-2,5.5975735E-2,3.6044635E-3,-6.024578E-2,-7.453472E-2,-4.6293303E-2,4.6716608E-2,-6.9536895E-2,4.48E2,4.61E2,1.7555963E-2,6.8958394E-2,3.54E2,-4.3963183E-2,2.1032099E-2,4.745261E-2,-2.2628384E-2,3.9228335E-2],"split_indices":[6,5,17,1,1,1,0,17,13,6,0,17,0,0,0,0,0,0,0,0,0,15,15,0,0,15,0,0,0,0,0],"split_type":[0,0,0,0,0,0,0,0,0,0,0,0,0,0,0,0,0,0,0,0,0,0,0,0,0,0,0,0,0,0,0],"sum_hessian":[2.4680853E2,1.1763142E2,1.2917712E2,5.8709442E1,5.8921974E1,1.0996766E2,1.9209465E1,3.365768E1,2.5051762E1,3.101185E1,2.7910122E1,6.1657295E1,4.831036E1,1.3418898E1,2.0238783E1,1.0613193E1,1.4438569E1,1.9634783E1,1.1377067E1,1.5917364E1,1.1992759E1,3.5409058E1,2.624824E1,1.8410759E1,2.9899601E1,2.4454885E1,1.0954172E1,1.4394868E1,1.1853372E1,1.2165622E1,1.2289264E1],"tree_param":{"num_deleted":"0","num_feature":"20","num_nodes":"31","size_leaf_vector":"1"}},{"base_weights":[-1.625496E-2,-4.704974E-1,3.6137956E-1,-7.501678E-2,-8.6268497E-1,-1.8824871E-1,6.9476485E-1,5.033305E-1,-8.114E-1,-7.379448E-2,-2.33596E-1,-2.0645604E-2,-3.910825E-2,2.4940155E-1,1.0331227E0,6.2812485E-2,-2.8452396E-3,-6.814214E-2,-1.5945628E-2,4.46857E-2,-5.99668E-2,-2.5805622E-1,2.3453582E-2,7.7872455E-2,3.0953128E-2,2.2611149E-2,7.0315704E-2,-3.115581E-2,5.3076036E-3,-1.54331075E-2,2.0796787E-2],"categories":[],"categories_nodes":[],"categories_segments":[],"categories_sizes":[],"default_left":[0,0,0,0,0,0,0,0,0,0,0,0,0,0,0,0,0,0,0,0,0,0,0,0,0,0,0,0,0,0,0],"id":8,"left_children":[1,3,5,7,9,11,13,15,17,-1,19,21,-1,23,25,-1,-1,-1,-1,-1,-1,27,-1,29,-1,-1,-1,-1,-1,-1,-1],"loss_changes":[4.235959E1,1.7319841E1,2.4843178E1,2.4642584E1,2.1327713E1,5.1307454E0,1.2424503E1,1.37755995E1,6.4673767E0,0E0,3.2556137E1,4.9288955E0,0E0,2.3392515E0,9.662876E0,0E0,0E0,0E0,0E0,0E0,0E0,3.854918E0,0E0,3.6385982E0,0E0,0E0,0E0,0E0,0E0,0E0,0E0],"parents":[2147483647,0,0,1,1,2,2,3,3,4,4,5,5,6,6,7,7,8,8,10,10,11,11,13,13,14,14,21,21,23,23],"right_children":[2,4,6,8,10,12,14,16,18,-1,20,22,-1,24,26,-1,-1,-1,-1,-1,-1,28,-1,30,-1,-1,-1,-1,-1,-1,-1],"split_conditions":[4.89E2,5.14E2,4.92E2,5.01E2,4.84E2,4.96E2,5.01E2,4.74E2,4.16E2,-7.379448E-2,4.8E2,4.56E2,-3.910825E-2,4.88E2,4.81E2,6.2812485E-2,-2.8452396E-3,-6.814214E-2,-1.5945628E-2,4.46857E-2,-5.99668E-2,4.75E2,2.3453582E-2,5.44E2,3.0953128E-2,2.2611149E-2,7.0315704E-2,-3.115581E-2,5.3076036E-3,-1.54331075E-2,2.0796787E-2],"split_indices":[6,5,3,1,1,1,1,0,18,0,0,1,0,14,0,0,0,0,0,0,0,0,0,6,0,0,0,0,0,0,0],"split_type":[0,0,0,0,0,0,0,0,0,0,0,0,0,0,0,0,0,0,0,0,0,0,0,0,0,0,0,0,0,0,0],"sum_hessian":[2.449493E2,1.11084274E2,1.3386502E2,5.5903072E1,5.51812E1,5.0705635E1,8.3159386E1,3.1488686E1,2.4414387E1,2.7261738E1,2.791946E1,4.0352833E1,1.0352802E1,3.665257E1,4.6506817E1,1.2904088E1,1.8584599E1,1.068407E1,1.3730318E1,1.291654E1,1.5002919E1,2.7496042E1,1.285679E1,2.5862555E1,1.0790014E1,1.9056206E1,2.7450613E1,1.3376942E1,1.4119101E1,1.2106826E1,1.3755728E1],"tree_param":{"num_deleted":"0","num_feature":"20","num_nodes":"31","size_leaf_vector":"1"}},{"base_weights":[6.816703E-3,2.2200873E-1,-4.0189484E-1,5.3313583E-2,1.06232665E-1,-7.703502E-1,-1.6229977E-1,1.8260051E-1,-3.6977503E-2,-6.350763E-2,1.3815755E-2,-3.725315E-1,2.4226872E-2,3.610666E-1,-2.1048263E-1,-1.4859135E-1,-4.6995796E-2,6.8695253E-1,-1.2256424E-1,-5.67017E-2,1.8349303E-1,5.018111E-3,-2.7943367E-2,3.1806666E-1,9.4989043E-1,-4.731427E-2,2.3553702E-1,2.7346516E-2,-2.3539819E-2,-3.227167E-2,5.858406E-2,2.6880989E-2,6.8788536E-2,-1.6095653E-2,3.2848723E-2],"categories":[],"categories_nodes":[],"categories_segments":[],"categories_sizes":[],"default_left":[0,0,0,0,0,0,0,0,0,0,0,0,0,0,0,0,0,0,0,0,0,0,0,0,0,0,0,0,0,0,0,0,0,0,0],"id":9,"left_children":[1,3,5,-1,7,9,11,13,-1,-1,-1,15,-1,17,19,21,-1,23,25,-1,27,-1,-1,29,31,-1,33,-1,-1,-1,-1,-1,-1,-1,-1],"loss_changes":[2.1361897E1,1.5436962E1,7.2710075E0,0E0,9.243245E0,1.7480862E1,7.256376E0,9.20546E0,0E0,0E0,0E0,4.9218774E0,0E0,1.424861E1,1.5223501E1,3.0947714E0,0E0,4.920336E0,1.1145177E1,0E0,7.3408904E0,0E0,0E0,2.04217E1,4.6914253E0,0E0,6.462698E0,0E0,0E0,0E0,0E0,0E0,0E0,0E0,0E0],"parents":[2147483647,0,0,1,1,2,2,4,4,5,5,6,6,7,7,11,11,13,13,14,14,15,15,17,17,18,18,20,20,23,23,24,24,26,26],"right_children":[2,4,6,-1,8,10,12,14,-1,-1,-1,16,-1,18,20,22,-1,24,26,-1,28,-1,-1,30,32,-1,34,-1,-1,-1,-1,-1,-1,-1,-1],"split_conditions":[5.21E2,3.68E2,4.76E2,5.3313583E-2,5.77E2,5.11E2,6.35E2,5.56E2,-3.6977503E-2,-6.350763E-2,1.3815755E-2,5.92E2,2.4226872E-2,4.5E2,4.06E2,5.5E2,-4.6995796E-2,4.19E2,4.45E2,-5.67017E-2,5.21E2,5.018111E-3,-2.7943367E-2,4.81E2,5.05E2,-4.731427E-2,4.76E2,2.7346516E-2,-2.3539819E-2,-3.227167E-2,5.858406E-2,2.6880989E-2,6.8788536E-2,-1.6095653E-2,3.2848723E-2],"split_indices":[9,13,11,0,16,17,9,13,0,0,0,2,0,2,9,13,0,10,16,0,11,0,0,11,8,0,11,0,0,0,0,0,0,0,0],"split_type":[0,0,0,0,0,0,0,0,0,0,0,0,0,0,0,0,0,0,0,0,0,0,0,0,0,0,0,0,0,0,0,0,0,0,0],"sum_hessian":[2.408683E2,1.5808911E2,8.27792E1,1.8074724E1,1.4001437E2,3.1745281E1,5.1033916E1,1.2913826E2,1.0876113E1,2.134102E1,1.040426E1,3.883578E1,1.2198137E1,8.8870895E1,4.0267372E1,2.8750267E1,1.0085515E1,5.2843113E1,3.6027782E1,1.1479313E1,2.878806E1,1.8363039E1,1.0387228E1,2.2910603E1,2.993251E1,1.0419002E1,2.560878E1,1.8613132E1,1.0174928E1,1.0877137E1,1.2033465E1,1.6358826E1,1.3573684E1,1.112694E1,1.4481841E1],"tree_param":{"num_deleted":"0","num_feature":"20","num_nodes":"35","size_leaf_vector":"1"}},{"base_weights":[-9.739553E-3,-3.5074475E-1,3.7406138E-1,3.803531E-2,-6.5894246E-1,7.3764986E-1,-9.769087E-2,-1.0017413E-1,3.280567E-2,-2.2638167E-1,-1.0675349E0,3.2172182E-1,6.62159E-2,-5.812462E-1,4.7669318E-1,-4.7663727E-1,2.7343377E-1,-4.4751722E-2,2.1450987E-2,-8.494761E-1,-6.867457E-2,4.8552822E-2,-8.934945E-2,5.224457E-3,-6.8608515E-2,-2.0591093E-2,5.9843995E-2,-5.4586835E-2,1.8384986E-2,5.1624466E-2,-3.651763E-2,-2.778524E-2,-5.0775867E-2,-3.9166722E-2,3.053984E-2],"categories":[],"categories_nodes":[],"categories_segments":[],"categories_sizes":[],"default_left":[0,0,0,0,0,0,0,0,0,0,0,0,0,0,0,0,0,0,0,0,0,0,0,0,0,0,0,0,0,0,0,0,0,0,0],"id":10,"left_children":[1,3,5,7,9,11,13,15,-1,17,19,21,-1,23,25,27,29,-1,-1,31,-1,-1,33,-1,-1,-1,-1,-1,-1,-1,-1,-1,-1,-1,-1],"loss_changes":[3.2860115E1,1.5953432E1,2.0335375E1,5.167943E0,1.2873692E1,1.5882206E1,1.4804089E1,7.1178603E0,0E0,1.6736847E1,1.361229E0,1.0878111E1,0E0,1.5789177E1,1.6142061E1,1.3442438E1,2.0236792E1,0E0,0E0,6.426773E-1,0E0,0E0,1.29522915E1,0E0,0E0,0E0,0E0,0E0,0E0,0E0,0E0,0E0,0E0,0E0,0E0],"parents":[2147483647,0,0,1,1,2,2,3,3,4,4,5,5,6,6,7,7,9,9,10,10,11,11,13,13,14,14,15,15,16,16,19,19,22,22],"right_children":[2,4,6,8,10,12,14,16,-1,18,20,22,-1,24,26,28,30,-1,-1,32,-1,-1,34,-1,-1,-1,-1,-1,-1,-1,-1,-1,-1,-1,-1],"split_conditions":[5.01E2,4.78E2,4.71E2,4.82E2,5.16E2,5.19E2,4.8E2,6E2,3.280567E-2,4.73E2,4.94E2,4.48E2,6.62159E-2,4.76E2,4.79E2,4.87E2,4.91E2,-4.4751722E-2,2.1450987E-2,4.88E2,-6.867457E-2,4.8552822E-2,5.54E2,5.224457E-3,-6.8608515E-2,-2.0591093E-2,5.9843995E-2,-5.4586835E-2,1.8384986E-2,5.1624466E-2,-3.651763E-2,-2.778524E-2,-5.0775867E-2,-3.9166722E-2,3.053984E-2],"split_indices":[18,0,10,4,15,11,0,10,0,4,0,15,0,4,4,11,11,0,0,11,0,0,19,0,0,0,0,0,0,0,0,0,0,0,0],"split_type":[0,0,0,0,0,0,0,0,0,0,0,0,0,0,0,0,0,0,0,0,0,0,0,0,0,0,0,0,0,0,0,0,0,0,0],"sum_hessian":[2.4907172E2,1.3193462E2,1.1713711E2,5.8727997E1,7.320662E1,6.583397E1,5.130314E1,4.8680416E1,1.004758E1,3.6315197E1,3.689142E1,3.9428722E1,2.640525E1,2.7847382E1,2.3455757E1,2.4110193E1,2.4570223E1,1.779489E1,1.8520308E1,2.3744734E1,1.3146686E1,1.4756641E1,2.467208E1,1.5380391E1,1.24669895E1,1.0692404E1,1.2763352E1,1.3779106E1,1.0331087E1,1.39743395E1,1.0595882E1,1.0144026E1,1.3600708E1,1.2330888E1,1.2341192E1],"tree_param":{"num_deleted":"0","num_feature":"20","num_nodes":"35","size_leaf_vector":"1"}},{"base_weights":[-9.21934E-4,3.457187E-1,-1.8450882E-1,1.0469744E0,7.9679176E-2,5.6027058E-3,-5.515822E-1,3.0704722E-2,6.652109E-2,-4.986482E-1,5.83863E-1,2.8479874E-1,-4.4221807E-1,-6.264929E-2,2.9844677E-1,4.2131552E-3,-4.402951E-2,1.1110057E0,-3.085863E-2,-2.3214713E-2,5.1559824E-1,-6.446221E-2,2.4643654E-2,4.5204766E-2,-2.650859E-2,6.485478E-2,4.1593947E-2,1.1424512E0,2.6262872E-2,6.9115095E-2,3.858994E-2,4.4507477E-2,-2.5344167E-2],"categories":[],"categories_nodes":[],"categories_segments":[],"categories_sizes":[],"default_left":[0,0,0,0,0,0,0,0,0,0,0,0,0,0,0,0,0,0,0,0,0,0,0,0,0,0,0,0,0,0,0,0,0],"id":11,"left_children":[1,3,5,7,9,11,13,-1,-1,15,17,19,21,-1,23,-1,-1,25,-1,-1,27,-1,-1,-1,-1,-1,-1,29,31,-1,-1,-1,-1],"loss_changes":[1.5805376E1,1.5959757E1,1.1333708E1,2.0748672E0,1.8784817E1,1.36236515E1,3.340951E1,0E0,0E0,6.7711167E0,2.243022E1,1.18413515E1,3.37826E1,0E0,1.3456232E1,0E0,0E0,1.7933846E-1,0E0,0E0,1.5851194E1,0E0,0E0,0E0,0E0,0E0,0E0,9.488926E-1,1.4314519E1,0E0,0E0,0E0,0E0],"parents":[2147483647,0,0,1,1,2,2,3,3,4,4,5,5,6,6,9,9,10,10,11,11,12,12,14,14,17,17,20,20,27,27,28,28],"right_children":[2,4,6,8,10,12,14,-1,-1,16,18,20,22,-1,24,-1,-1,26,-1,-1,28,-1,-1,-1,-1,-1,-1,30,32,-1,-1,-1,-1],"split_conditions":[4.62E2,4.7E2,4.89E2,4.79E2,4.93E2,5.23E2,4.84E2,3.0704722E-2,6.652109E-2,4.85E2,5.09E2,3.95E2,4.84E2,-6.264929E-2,4.75E2,4.2131552E-3,-4.402951E-2,4.84E2,-3.085863E-2,-2.3214713E-2,4.77E2,-6.446221E-2,2.4643654E-2,4.5204766E-2,-2.650859E-2,6.485478E-2,4.1593947E-2,4.56E2,5.13E2,6.9115095E-2,3.858994E-2,4.4507477E-2,-2.5344167E-2],"split_indices":[10,19,12,2,11,11,1,0,0,0,9,9,8,0,0,0,0,0,0,0,0,0,0,0,0,0,0,1,16,0,0,0,0],"split_type":[0,0,0,0,0,0,0,0,0,0,0,0,0,0,0,0,0,0,0,0,0,0,0,0,0,0,0,0,0,0,0,0,0],"sum_hessian":[2.4635884E2,8.499393E1,1.6136491E2,2.256892E1,6.2425007E1,1.0695593E2,5.440897E1,1.01833935E1,1.2385528E1,2.9079805E1,3.33452E1,6.610592E1,4.085002E1,2.9550913E1,2.4858057E1,1.1819908E1,1.7259897E1,2.3226078E1,1.01191225E1,1.5332006E1,5.077391E1,2.1235605E1,1.9614414E1,1.4308613E1,1.0549445E1,1.1747329E1,1.1478749E1,2.167408E1,2.909983E1,1.1501827E1,1.0172252E1,1.0849752E1,1.8250078E1],"tree_param":{"num_deleted":"0","num_feature":"20","num_nodes":"33","size_leaf_vector":"1"}},{"base_weights":[-3.9319463E-2,-3.5820997E-1,2.7122423E-1,-8.006507E-1,-1.8525422E-2,6.6960496E-1,-1.5823503E-1,-1.0210147E-2,-1.0062922E0,2.1430165E-2,-1.4301084E-1,5.782649E-2,4.774297E-1,-5.9943926E-1,3.5007188E-1,-1.5901363E-2,-6.2282443E-2,5.3434927E-2,-4.167562E-1,6.469269E-4,7.577474E-1,-6.7838944E-2,-1.9444282E-1,3.854121E-2,-1.8849473E-2,1.9629724E-2,-1.1610408E-2,-4.760732E-3,-3.3725176E-2,1.6141858E-2,5.1460482E-2,-3.737622E-2,1.8836573E-2],"categories":[],"categories_nodes":[],"categories_segments":[],"categories_sizes":[],"default_left":[0,0,0,0,0,0,0,0,0,0,0,0,0,0,0,0,0,0,0,0,0,0,0,0,0,0,0,0,0,0,0,0,0],"id":12,"left_children":[1,3,5,7,9,11,13,-1,15,-1,17,-1,19,21,23,-1,-1,25,27,-1,29,-1,31,-1,-1,-1,-1,-1,-1,-1,-1,-1,-1],"loss_changes":[2.3827248E1,1.7817923E1,2.0973804E1,6.112385E0,3.8543642E0,5.386692E0,1.3554861E1,0E0,5.8720284E0,0E0,2.9291368E0,0E0,6.137085E0,9.619863E0,8.9421625E0,0E0,0E0,3.225881E0,1.8168914E0,0E0,3.1415958E0,0E0,7.283118E0,0E0,0E0,0E0,0E0,0E0,0E0,0E0,0E0,0E0,0E0],"parents":[2147483647,0,0,1,1,2,2,3,3,4,4,5,5,6,6,8,8,10,10,12,12,13,13,14,14,17,17,18,18,20,20,22,22],"right_children":[2,4,6,8,10,12,14,-1,16,-1,18,-1,20,22,24,-1,-1,26,28,-1,30,-1,32,-1,-1,-1,-1,-1,-1,-1,-1,-1,-1],"split_conditions":[4.96E2,4.9E2,4.62E2,4.96E2,4.68E2,4.21E2,4.79E2,-1.0210147E-2,4.85E2,2.1430165E-2,4.72E2,5.782649E-2,4.4E2,4.63E2,4.41E2,-1.5901363E-2,-6.2282443E-2,5.37E2,3.98E2,6.469269E-4,5.43E2,-6.7838944E-2,4.97E2,3.854121E-2,-1.8849473E-2,1.9629724E-2,-1.1610408E-2,-4.760732E-3,-3.3725176E-2,1.6141858E-2,5.1460482E-2,-3.737622E-2,1.8836573E-2],"split_indices":[6,17,10,12,15,17,0,0,0,0,0,0,13,16,7,0,0,2,18,0,18,0,13,0,0,0,0,0,0,0,0,0,0],"split_type":[0,0,0,0,0,0,0,0,0,0,0,0,0,0,0,0,0,0,0,0,0,0,0,0,0,0,0,0,0,0,0,0,0],"sum_hessian":[2.3862663E2,1.17655396E2,1.20971245E2,5.0509495E1,6.7145905E1,6.2466267E1,5.8504974E1,1.34607115E1,3.7048782E1,1.4090918E1,5.3054985E1,1.6256983E1,4.6209282E1,3.1223804E1,2.728117E1,1.0160667E1,2.6888117E1,3.1357178E1,2.1697807E1,1.778515E1,2.8424133E1,1.0060557E1,2.1163248E1,1.7242626E1,1.0038545E1,1.4164489E1,1.719269E1,1.0263469E1,1.1434339E1,1.1764865E1,1.6659267E1,1.0595055E1,1.05681925E1],"tree_param":{"num_deleted":"0","num_feature":"20","num_nodes":"33","size_leaf_vector":"1"}},{"base_weights":[-3.385439E-2,-3.6573783E-1,2.4665734E-1,1.1788383E-2,-6.903228E-1,9.832595E-2,5.8149874E-2,3.857526E-1,-2.966548E-1,-2.2467068E-1,-5.9284586E-2,6.3727415E-1,-1.3309543E-1,5.2975696E-2,-2.2484483E-2,1.3090345E-2,-3.879021E-2,-4.7385227E-2,1.1904654E-2,-8.890255E-3,5.627898E-2,-3.1545645E-1,3.690527E-1,-4.661455E-2,-1.5458891E-1,4.1539397E-2,-5.0392128E-3,1.322922E-1,-2.6920646E-2,-2.3629373E-2,2.7080802E-2],"categories":[],"categories_nodes":[],"categories_segments":[],"categories_sizes":[],"default_left":[0,0,0,0,0,0,0,0,0,0,0,0,0,0,0,0,0,0,0,0,0,0,0,0,0,0,0,0,0,0,0],"id":13,"left_children":[1,3,5,7,9,11,-1,13,15,17,-1,19,21,-1,-1,-1,-1,-1,-1,-1,-1,23,25,-1,27,-1,-1,29,-1,-1,-1],"loss_changes":[2.2201588E1,1.3388841E1,1.7462181E1,6.0506344E0,1.3281107E1,1.4102516E1,0E0,1.3814696E1,7.9010205E0,1.0767832E1,0E0,1.3706505E1,7.392262E0,0E0,0E0,0E0,0E0,0E0,0E0,0E0,0E0,5.693121E0,4.775818E0,0E0,5.340827E0,0E0,0E0,7.2355022E0,0E0,0E0,0E0],"parents":[2147483647,0,0,1,1,2,2,3,3,4,4,5,5,7,7,8,8,9,9,11,11,12,12,21,21,22,22,24,24,27,27],"right_children":[2,4,6,8,10,12,-1,14,16,18,-1,20,22,-1,-1,-1,-1,-1,-1,-1,-1,24,26,-1,28,-1,-1,30,-1,-1,-1],"split_conditions":[4.83E2,4.8E2,6.69E2,4.11E2,4.85E2,4.09E2,5.8149874E-2,4.74E2,5.58E2,4.23E2,-5.9284586E-2,4.81E2,4.94E2,5.2975696E-2,-2.2484483E-2,1.3090345E-2,-3.879021E-2,-4.7385227E-2,1.1904654E-2,-8.890255E-3,5.627898E-2,3.84E2,3.91E2,-4.661455E-2,4.84E2,4.1539397E-2,-5.0392128E-3,5.28E2,-2.6920646E-2,-2.3629373E-2,2.7080802E-2],"split_indices":[6,8,3,3,7,13,0,7,10,3,0,2,8,0,0,0,0,0,0,0,0,2,9,0,2,0,0,6,0,0,0],"split_type":[0,0,0,0,0,0,0,0,0,0,0,0,0,0,0,0,0,0,0,0,0,0,0,0,0,0,0,0,0,0,0],"sum_hessian":[2.3650853E2,1.0819515E2,1.2831337E2,5.046397E1,5.7731182E1,1.1138962E2,1.6923748E1,2.2696058E1,2.7767914E1,3.050742E1,2.7223763E1,3.2934956E1,7.8454666E1,1.2415273E1,1.0280786E1,1.3032168E1,1.4735744E1,1.1496724E1,1.9010696E1,1.2577113E1,2.0357841E1,5.782619E1,2.0628477E1,1.0969411E1,4.6856777E1,1.0016475E1,1.0612001E1,2.7189726E1,1.9667053E1,1.0911163E1,1.6278563E1],"tree_param":{"num_deleted":"0","num_feature":"20","num_nodes":"31","size_leaf_vector":"1"}},{"base_weights":[1.5504308E-2,-2.6183158E-1,3.19805E-1,6.1415676E-2,-5.508923E-1,7.4584144E-1,-1.8684688E-1,5.715682E-1,-6.806037E-1,-1.0400819E0,1.483228E-1,2.527592E-1,6.1624903E-2,-5.885034E-1,3.5434687E-1,-9.24015E-3,1.0052079E0,-5.671948E-2,-1.0547725E-3,-1.2063876E0,-3.4298323E-2,5.8995016E-2,-5.2165505E-2,3.477943E-2,-7.3640184E-3,1.8214317E-4,-6.074589E-2,-2.5098184E-2,5.318097E-2,2.8393203E-2,6.5914884E-2,-7.003438E-2,-4.3989904E-2],"categories":[],"categories_nodes":[],"categories_segments":[],"categories_sizes":[],"default_left":[0,0,0,0,0,0,0,0,0,0,0,0,0,0,0,0,0,0,0,0,0,0,0,0,0,0,0,0,0,0,0,0,0],"id":14,"left_children":[1,3,5,7,9,11,13,15,17,19,21,23,-1,25,27,-1,29,-1,-1,31,-1,-1,-1,-1,-1,-1,-1,-1,-1,-1,-1,-1,-1],"loss_changes":[2.0177443E1,1.1724489E1,2.4741928E1,2.3088432E1,2.2781267E1,1.4593815E1,1.16996355E1,1.2019112E1,7.424183E0,1.4719276E0,3.5779957E1,5.791073E0,0E0,1.1399073E1,1.4590614E1,0E0,2.4125748E0,0E0,0E0,3.6997223E-1,0E0,0E0,0E0,0E0,0E0,0E0,0E0,0E0,0E0,0E0,0E0,0E0,0E0],"parents":[2147483647,0,0,1,1,2,2,3,3,4,4,5,5,6,6,7,7,8,8,9,9,10,10,11,11,13,13,14,14,16,16,19,19],"right_children":[2,4,6,8,10,12,14,16,18,20,22,24,-1,26,28,-1,30,-1,-1,32,-1,-1,-1,-1,-1,-1,-1,-1,-1,-1,-1,-1,-1],"split_conditions":[5.01E2,5.11E2,4.71E2,5E2,5.01E2,4.91E2,4.77E2,5.44E2,4.93E2,4.5E2,4.78E2,4.56E2,6.1624903E-2,4.53E2,4.88E2,-9.24015E-3,6.25E2,-5.671948E-2,-1.0547725E-3,4.47E2,-3.4298323E-2,5.8995016E-2,-5.2165505E-2,3.477943E-2,-7.3640184E-3,1.8214317E-4,-6.074589E-2,-2.5098184E-2,5.318097E-2,2.8393203E-2,6.5914884E-2,-7.003438E-2,-4.3989904E-2],"split_indices":[18,5,10,1,1,1,14,13,16,18,14,15,0,3,3,0,10,0,0,3,0,0,0,0,0,0,0,0,0,0,0,0,0],"split_type":[0,0,0,0,0,0,0,0,0,0,0,0,0,0,0,0,0,0,0,0,0,0,0,0,0,0,0,0,0,0,0,0,0],"sum_hessian":[2.370954E2,1.24116615E2,1.12978775E2,5.896523E1,6.515138E1,6.111551E1,5.186327E1,3.5078087E1,2.3887144E1,3.804593E1,2.7105452E1,3.111205E1,3.000346E1,2.9719213E1,2.2144056E1,1.2991551E1,2.2086535E1,1.3724035E1,1.0163109E1,2.4250319E1,1.379561E1,1.4533703E1,1.2571749E1,1.44156475E1,1.6696402E1,1.5788557E1,1.39306555E1,1.0164571E1,1.19794855E1,1.0388689E1,1.1697846E1,1.3142528E1,1.1107791E1],"tree_param":{"num_deleted":"0","num_feature":"20","num_nodes":"33","size_leaf_vector":"1"}},{"base_weights":[7.11009E-3,-2.6542324E-1,2.8770217E-1,-5.2965462E-2,-6.617502E-1,5.787818E-1,-3.95113E-1,-1.7508234E-1,2.5401829E-2,-1.21359326E-1,-1.1564264E0,2.3979081E-1,1.1388443E0,-7.260294E-1,7.6866047E-3,-4.5859614E-1,4.436977E-1,-2.5796939E-2,1.4051308E-2,-4.0797908E-2,-6.901817E-2,4.0230185E-1,-1.8273545E-2,6.602235E-2,3.490179E-2,-1.3607153E-3,-6.438693E-2,-9.2107576E-1,1.183321E-2,4.586131E-2,-3.6646891E-3,1.5637842E-1,5.157702E-2,-3.292398E-2,-5.530109E-2,-2.1211177E-2,3.070055E-2],"categories":[],"categories_nodes":[],"categories_segments":[],"categories_sizes":[],"default_left":[0,0,0,0,0,0,0,0,0,0,0,0,0,0,0,0,0,0,0,0,0,0,0,0,0,0,0,0,0,0,0,0,0,0,0,0,0],"id":15,"left_children":[1,3,5,7,9,11,13,15,-1,17,19,21,23,25,-1,27,29,-1,-1,-1,-1,31,-1,-1,-1,-1,-1,33,-1,-1,-1,35,-1,-1,-1,-1,-1],"loss_changes":[1.8420815E1,1.0255537E1,2.381609E1,5.6140103E0,1.1237631E1,1.5601177E1,6.661736E0,1.1953133E1,0E0,3.552103E0,5.589886E-1,5.3948803E0,1.5806656E0,8.865155E0,0E0,1.5144826E1,5.343587E0,0E0,0E0,0E0,0E0,6.420853E0,0E0,0E0,0E0,0E0,0E0,6.355705E-1,0E0,0E0,0E0,8.699638E0,0E0,0E0,0E0,0E0,0E0],"parents":[2147483647,0,0,1,1,2,2,3,3,4,4,5,5,6,6,7,7,9,9,10,10,11,11,12,12,13,13,15,15,16,16,21,21,27,27,31,31],"right_children":[2,4,6,8,10,12,14,16,-1,18,20,22,24,26,-1,28,30,-1,-1,-1,-1,32,-1,-1,-1,-1,-1,34,-1,-1,-1,36,-1,-1,-1,-1,-1],"split_conditions":[5.04E2,4.83E2,4.96E2,5.29E2,4.85E2,5.29E2,4.82E2,6.04E2,2.5401829E-2,4.52E2,4.94E2,5.37E2,4.42E2,4.73E2,7.6866047E-3,5.06E2,4.65E2,-2.5796939E-2,1.4051308E-2,-4.0797908E-2,-6.901817E-2,5.51E2,-1.8273545E-2,6.602235E-2,3.490179E-2,-1.3607153E-3,-6.438693E-2,5.9E2,1.183321E-2,4.586131E-2,-3.6646891E-3,4.97E2,5.157702E-2,-3.292398E-2,-5.530109E-2,-2.1211177E-2,3.070055E-2],"split_indices":[6,14,10,1,7,11,8,10,0,6,1,7,10,4,0,11,1,0,0,0,0,12,0,0,0,0,0,15,0,0,0,8,0,0,0,0,0],"split_type":[0,0,0,0,0,0,0,0,0,0,0,0,0,0,0,0,0,0,0,0,0,0,0,0,0,0,0,0,0,0,0,0,0,0,0,0,0],"sum_hessian":[2.3888866E2,1.21212E2,1.1767667E2,7.9648636E1,4.156336E1,8.261205E1,3.5064613E1,6.597529E1,1.3673348E1,2.0459002E1,2.1104357E1,5.235258E1,3.0259474E1,2.1673893E1,1.339072E1,4.542243E1,2.0552862E1,1.0187214E1,1.0271788E1,1.0215959E1,1.0888399E1,4.153569E1,1.0816889E1,2.0017305E1,1.0242167E1,1.0125426E1,1.1548466E1,2.708259E1,1.8339838E1,1.0323285E1,1.0229578E1,3.0761705E1,1.0773986E1,1.3076405E1,1.4006186E1,1.35913105E1,1.7170395E1],"tree_param":{"num_deleted":"0","num_feature":"20","num_nodes":"37","size_leaf_vector":"1"}},{"base_weights":[-1.225242E-2,3.561993E-1,-1.6830967E-1,-2.652588E-2,6.5813255E-1,1.2476452E-1,-3.214523E-1,2.957201E-1,6.391307E-2,7.1319014E-1,-3.4384564E-1,-7.1646047E-1,-3.519696E-2,-2.0991273E-2,4.632465E-2,4.785046E-3,5.4608684E-2,2.6155952E-2,-5.9504878E-2,-6.1676586E-3,-1.1260746E0,3.6755496E-1,-4.2583212E-1,2.3706745E-2,-2.4225563E-2,-3.7847217E-2,-6.8786316E-2,-2.1824656E-2,4.199802E-2,2.0524175E-3,-3.58545E-2],"categories":[],"categories_nodes":[],"categories_segments":[],"categories_sizes":[],"default_left":[0,0,0,0,0,0,0,0,0,0,0,0,0,0,0,0,0,0,0,0,0,0,0,0,0,0,0,0,0,0,0],"id":16,"left_children":[1,3,5,-1,7,9,11,13,-1,15,17,19,21,23,-1,-1,-1,-1,-1,-1,25,27,29,-1,-1,-1,-1,-1,-1,-1,-1],"loss_changes":[1.3878633E1,1.9578905E1,7.647692E0,0E0,1.1764156E1,1.6484694E1,1.2594625E1,7.0914183E0,0E0,6.0815907E0,2.5170698E1,1.1241615E1,1.0503062E1,5.8627915E0,0E0,0E0,0E0,0E0,0E0,0E0,1.5007324E0,1.2869497E1,4.632082E0,0E0,0E0,0E0,0E0,0E0,0E0,0E0,0E0],"parents":[2147483647,0,0,1,1,2,2,4,4,5,5,6,6,7,7,9,9,10,10,11,11,12,12,13,13,20,20,21,21,22,22],"right_children":[2,4,6,-1,8,10,12,14,-1,16,18,20,22,24,-1,-1,-1,-1,-1,-1,26,28,30,-1,-1,-1,-1,-1,-1,-1,-1],"split_conditions":[4.47E2,5.01E2,4.35E2,-2.652588E-2,5.29E2,5.23E2,4.68E2,4.43E2,6.391307E-2,3.08E2,5.1E2,4.67E2,4.75E2,4.85E2,4.632465E-2,4.785046E-3,5.4608684E-2,2.6155952E-2,-5.9504878E-2,-6.1676586E-3,5.31E2,4.68E2,4.71E2,2.3706745E-2,-2.4225563E-2,-3.7847217E-2,-6.8786316E-2,-2.1824656E-2,4.199802E-2,2.0524175E-3,-3.58545E-2],"split_indices":[10,18,7,0,11,13,11,9,0,19,11,7,0,0,0,0,0,0,0,0,16,7,15,0,0,0,0,0,0,0,0],"split_type":[0,0,0,0,0,0,0,0,0,0,0,0,0,0,0,0,0,0,0,0,0,0,0,0,0,0,0,0,0,0,0],"sum_hessian":[2.3932672E2,7.082535E1,1.6850137E2,1.7798294E1,5.3027054E1,5.7893654E1,1.1060773E2,3.4400032E1,1.8627022E1,2.5434309E1,3.2459347E1,4.5844E1,6.476372E1,2.3544865E1,1.0855166E1,1.0149668E1,1.528464E1,1.6222069E1,1.6237278E1,1.9258905E1,2.6585098E1,3.1916409E1,3.2847313E1,1.1373227E1,1.2171638E1,1.2352678E1,1.4232419E1,1.1840147E1,2.0076262E1,1.2949148E1,1.9898163E1],"tree_param":{"num_deleted":"0","num_feature":"20","num_nodes":"31","size_leaf_vector":"1"}},{"base_weights":[1.0072172E-2,-3.423947E-1,2.8891993E-1,1.9868944E-2,-7.037365E-1,1.532155E-1,5.0571974E-2,5.6746846E-1,-6.9799197E-1,-1.693308E-1,-5.8698196E-2,2.600507E-1,-3.387601E-2,-1.1888569E-2,4.8854787E-2,-5.618614E-2,-8.8964235E-3,-6.3700445E-2,3.693989E-2,-2.4369118E-1,4.4784E-1,-4.0846054E-2,1.7555803E-2,1.5719494E-1,9.2442554E-1,-1.7702913E-2,4.7577664E-1,2.8846232E-2,5.6892205E-2,3.773915E-2,5.9044394E-3],"categories":[],"categories_nodes":[],"categories_segments":[],"categories_sizes":[],"default_left":[0,0,0,0,0,0,0,0,0,0,0,0,0,0,0,0,0,0,0,0,0,0,0,0,0,0,0,0,0,0,0],"id":17,"left_children":[1,3,5,7,9,11,-1,13,15,17,-1,19,-1,-1,-1,-1,-1,-1,-1,21,23,-1,-1,25,27,-1,29,-1,-1,-1,-1],"loss_changes":[2.342415E1,1.37954855E1,1.2889624E1,2.14452E1,1.3053221E1,1.0221398E1,0E0,1.0433534E1,5.0295677E0,2.6875546E1,0E0,9.664284E0,0E0,0E0,0E0,0E0,0E0,0E0,0E0,9.860033E0,1.009548E1,0E0,0E0,7.8447003E0,1.4054432E0,0E0,2.8511567E0,0E0,0E0,0E0,0E0],"parents":[2147483647,0,0,1,1,2,2,3,3,4,4,5,5,7,7,8,8,9,9,11,11,19,19,20,20,23,23,24,24,26,26],"right_children":[2,4,6,8,10,12,-1,14,16,18,-1,20,-1,-1,-1,-1,-1,-1,-1,22,24,-1,-1,26,28,-1,30,-1,-1,-1,-1],"split_conditions":[4.72E2,5.14E2,6.76E2,5.01E2,4.77E2,5.12E2,5.0571974E-2,5.04E2,4.26E2,4.73E2,-5.8698196E-2,4.37E2,-3.387601E-2,-1.1888569E-2,4.8854787E-2,-5.618614E-2,-8.8964235E-3,-6.3700445E-2,3.693989E-2,4.7E2,4.73E2,-4.0846054E-2,1.7555803E-2,4.57E2,5.55E2,-1.7702913E-2,4.66E2,2.8846232E-2,5.6892205E-2,3.773915E-2,5.9044394E-3],"split_indices":[18,5,3,1,14,17,0,17,18,1,0,3,0,0,0,0,0,0,0,17,2,0,0,17,16,0,1,0,0,0,0],"split_type":[0,0,0,0,0,0,0,0,0,0,0,0,0,0,0,0,0,0,0,0,0,0,0,0,0,0,0,0,0,0,0],"sum_hessian":[2.3632329E2,1.04281876E2,1.3204141E2,5.2546417E1,5.1735462E1,1.1218311E2,1.9858303E1,2.9926983E1,2.2619434E1,2.4851849E1,2.6883612E1,1.0000865E2,1.2174464E1,1.0232201E1,1.9694782E1,1.1799481E1,1.0819953E1,1.1030764E1,1.3821085E1,2.707709E1,7.293156E1,1.3598485E1,1.3478605E1,4.6129425E1,2.6802135E1,1.7666784E1,2.846264E1,1.1606686E1,1.519545E1,1.5366319E1,1.3096322E1],"tree_param":{"num_deleted":"0","num_feature":"20","num_nodes":"31","size_leaf_vector":"1"}},{"base_weights":[-2.5155416E-2,-4.5486066E-1,1.4974895E-1,-8.758682E-2,-7.096974E-1,2.3095397E-2,7.570415E-1,-2.1698175E-2,9.644884E-3,-3.4419456E-1,-5.4320287E-2,-4.977095E-2,3.2756966E-2,4.6282735E-2,2.0086937E-2,-5.121763E-3,-2.8193524E-2,2.0441929E-1,-3.0712008E-1,-3.671409E-2,4.595124E-1,-5.416928E-1,2.0926673E-2,6.5155274E-1,-1.4637071E-2,-6.6473067E-1,-3.7647279E-3,4.5463583E-1,5.609153E-2,-9.575687E-1,-7.578134E-3,4.0834703E-2,5.2349255E-3,-2.5843143E-2,-6.4379424E-2],"categories":[],"categories_nodes":[],"categories_segments":[],"categories_sizes":[],"default_left":[0,0,0,0,0,0,0,0,0,0,0,0,0,0,0,0,0,0,0,0,0,0,0,0,0,0,0,0,0,0,0,0,0,0,0],"id":18,"left_children":[1,3,5,7,9,11,13,-1,-1,15,-1,17,-1,-1,-1,-1,-1,19,21,-1,23,25,-1,27,-1,29,-1,31,-1,33,-1,-1,-1,-1,-1],"loss_changes":[1.7671633E1,6.302724E0,1.2844189E1,2.900932E0,5.134533E0,6.452321E0,1.3549671E0,0E0,0E0,1.0983734E0,0E0,8.299494E0,0E0,0E0,0E0,0E0,0E0,1.5649659E1,1.0944967E1,0E0,7.5434523E0,2.7056274E0,0E0,3.2734756E0,0E0,5.545723E0,0E0,3.7761283E0,0E0,2.8138618E0,0E0,0E0,0E0,0E0,0E0],"parents":[2147483647,0,0,1,1,2,2,3,3,4,4,5,5,6,6,9,9,11,11,17,17,18,18,20,20,21,21,23,23,25,25,27,27,29,29],"right_children":[2,4,6,8,10,12,14,-1,-1,16,-1,18,-1,-1,-1,-1,-1,20,22,-1,24,26,-1,28,-1,30,-1,32,-1,34,-1,-1,-1,-1,-1],"split_conditions":[4.61E2,4.74E2,5.28E2,4.69E2,5.11E2,5.8E2,4.87E2,-2.1698175E-2,9.644884E-3,3.98E2,-5.4320287E-2,4.62E2,3.2756966E-2,4.6282735E-2,2.0086937E-2,-5.121763E-3,-2.8193524E-2,4.96E2,4.9E2,-3.671409E-2,5.83E2,5.34E2,2.0926673E-2,4.63E2,-1.4637071E-2,4.77E2,-3.7647279E-3,4.85E2,5.609153E-2,4.73E2,-7.578134E-3,4.0834703E-2,5.2349255E-3,-2.5843143E-2,-6.4379424E-2],"split_indices":[6,0,1,14,5,10,10,0,0,18,0,10,0,0,0,0,0,18,0,0,12,15,0,2,0,14,0,0,0,4,0,0,0,0,0],"split_type":[0,0,0,0,0,0,0,0,0,0,0,0,0,0,0,0,0,0,0,0,0,0,0,0,0,0,0,0,0,0,0,0,0,0,0],"sum_hessian":[2.3322224E2,6.7004616E1,1.6621764E2,2.7997696E1,3.900692E1,1.3839316E2,2.7824476E1,1.2282529E1,1.5715166E1,2.0769203E1,1.8237719E1,1.2491352E2,1.3479632E1,1.7781025E1,1.004345E1,1.0585678E1,1.0183525E1,6.294592E1,6.19676E1,1.3049051E1,4.9896866E1,4.702118E1,1.4946424E1,3.9856026E1,1.0040843E1,3.686958E1,1.0151598E1,2.9479126E1,1.0376897E1,2.2922768E1,1.3946814E1,1.3833079E1,1.5646048E1,1.0914194E1,1.2008573E1],"tree_param":{"num_deleted":"0","num_feature":"20","num_nodes":"35","size_leaf_vector":"1"}},{"base_weights":[1.0166531E-2,-2.4762303E-1,2.164803E-1,5.7120476E-2,-5.9738946E-1,3.6681724E-1,-2.8946597E-2,4.7660333E-1,-5.6066996E-1,-5.9648212E-2,-2.4986103E-2,9.430265E-2,8.602509E-1,-1.9670872E-2,9.642362E-1,-4.752331E-2,-4.991175E-3,4.2508323E-2,-5.937099E-2,-7.052267E-2,4.515597E-2,1.6190866E-2,6.1706454E-2,3.106235E-2,6.062297E-2,-3.9256807E-2,9.4338186E-2,-7.313618E-2,2.9886404E-2,-2.6298253E-2,2.0282555E-2],"categories":[],"categories_nodes":[],"categories_segments":[],"categories_sizes":[],"default_left":[0,0,0,0,0,0,0,0,0,0,0,0,0,0,0,0,0,0,0,0,0,0,0,0,0,0,0,0,0,0,0],"id":19,"left_children":[1,3,5,7,9,11,-1,13,15,-1,17,19,21,-1,23,-1,-1,-1,-1,25,-1,-1,-1,-1,-1,-1,27,29,-1,-1,-1],"loss_changes":[1.223502E1,1.0936354E1,1.548909E1,1.4668865E1,1.623521E1,1.444917E1,0E0,1.4650612E1,4.0247793E0,0E0,2.6798258E1,9.49366E0,7.286352E0,0E0,1.1067181E0,0E0,0E0,0E0,0E0,7.106051E0,0E0,0E0,0E0,0E0,0E0,0E0,4.2077208E0,8.441885E0,0E0,0E0,0E0],"parents":[2147483647,0,0,1,1,2,2,3,3,4,4,5,5,7,7,8,8,10,10,11,11,12,12,14,14,19,19,26,26,27,27],"right_children":[2,4,6,8,10,12,-1,14,16,-1,18,20,22,-1,24,-1,-1,-1,-1,26,-1,-1,-1,-1,-1,-1,28,30,-1,-1,-1],"split_conditions":[4.84E2,5.18E2,5.02E2,5.23E2,5.04E2,5.22E2,-2.8946597E-2,5.01E2,5.54E2,-5.9648212E-2,4.84E2,5.03E2,4.66E2,-1.9670872E-2,6.25E2,-4.752331E-2,-4.991175E-3,4.2508323E-2,-5.937099E-2,4.63E2,4.515597E-2,1.6190866E-2,6.1706454E-2,3.106235E-2,6.062297E-2,-3.9256807E-2,4.96E2,5.46E2,2.9886404E-2,-2.6298253E-2,2.0282555E-2],"split_indices":[6,5,17,11,11,11,0,17,11,0,0,13,12,0,10,0,0,0,0,8,0,0,0,0,0,0,2,6,0,0,0],"split_type":[0,0,0,0,0,0,0,0,0,0,0,0,0,0,0,0,0,0,0,0,0,0,0,0,0,0,0,0,0,0,0],"sum_hessian":[2.2803621E2,1.0128284E2,1.2675337E2,5.4572098E1,4.6710735E1,1.07057755E2,1.9695621E1,3.2638756E1,2.1933344E1,2.2360712E1,2.4350025E1,6.9735306E1,3.732245E1,1.1792363E1,2.0846392E1,1.130708E1,1.0626264E1,1.4044832E1,1.0305193E1,5.868828E1,1.1047028E1,1.6095303E1,2.1227144E1,1.0223109E1,1.0623282E1,1.0296066E1,4.8392212E1,3.6952938E1,1.1439276E1,1.8940653E1,1.8012285E1],"tree_param":{"num_deleted":"0","num_feature":"20","num_nodes":"31","size_leaf_vector":"1"}},{"base_weights":[-2.0286923E-2,-2.857335E-1,2.119312E-1,8.095131E-2,-5.465467E-1,5.818082E-1,-1.85673E-1,3.3108076E-1,-1.5545437E-1,-1.8018015E-1,-9.1115016E-1,2.2373381E-1,6.1062116E-2,-5.600089E-1,3.306126E-1,6.2425137E-2,-3.5309073E-2,-6.4309224E-2,3.791497E-2,-4.2649418E-2,2.263084E-1,-2.4376428E-2,-5.500583E-2,4.0432487E-2,-1.4902915E-1,-9.121521E-3,-5.1829096E-2,-2.4732273E-2,5.7107545E-2,3.256771E-2,-1.0820198E-2,-3.9904322E-2,2.9980395E-2],"categories":[],"categories_nodes":[],"categories_segments":[],"categories_sizes":[],"default_left":[0,0,0,0,0,0,0,0,0,0,0,0,0,0,0,0,0,0,0,0,0,0,0,0,0,0,0,0,0,0,0,0,0],"id":20,"left_children":[1,3,5,7,9,11,13,15,17,19,21,23,-1,25,27,-1,-1,-1,-1,-1,29,-1,-1,-1,31,-1,-1,-1,-1,-1,-1,-1,-1],"loss_changes":[1.4223465E1,1.0338208E1,1.8215496E1,2.7484248E0,8.254957E0,1.4387167E1,1.179973E1,2.2274559E1,2.590486E1,9.131822E0,1.972702E0,9.336605E0,0E0,6.146511E0,1.7902916E1,0E0,0E0,0E0,0E0,0E0,4.1236234E0,0E0,0E0,0E0,1.3433194E1,0E0,0E0,0E0,0E0,0E0,0E0,0E0,0E0],"parents":[2147483647,0,0,1,1,2,2,3,3,4,4,5,5,6,6,7,7,8,8,9,9,10,10,11,11,13,13,14,14,20,20,24,24],"right_children":[2,4,6,8,10,12,14,16,18,20,22,24,-1,26,28,-1,-1,-1,-1,-1,30,-1,-1,-1,32,-1,-1,-1,-1,-1,-1,-1,-1],"split_conditions":[4.96E2,4.75E2,4.62E2,4.73E2,5.11E2,5.29E2,4.81E2,5.01E2,4.97E2,4.73E2,4.87E2,4.56E2,6.1062116E-2,4.76E2,4.79E2,6.2425137E-2,-3.5309073E-2,-6.4309224E-2,3.791497E-2,-4.2649418E-2,5.2E2,-2.4376428E-2,-5.500583E-2,4.0432487E-2,4.71E2,-9.121521E-3,-5.1829096E-2,-2.4732273E-2,5.7107545E-2,3.256771E-2,-1.0820198E-2,-3.9904322E-2,2.9980395E-2],"split_indices":[6,0,10,7,5,11,0,11,11,4,0,15,0,4,4,0,0,0,0,0,15,0,0,0,13,0,0,0,0,0,0,0,0],"split_type":[0,0,0,0,0,0,0,0,0,0,0,0,0,0,0,0,0,0,0,0,0,0,0,0,0,0,0,0,0,0,0,0,0],"sum_hessian":[2.2876256E2,1.0663665E2,1.2212591E2,4.4609074E1,6.2027573E1,6.302899E1,5.9096912E1,2.1480799E1,2.3128275E1,3.1684273E1,3.03433E1,4.1268875E1,2.1760117E1,3.4208878E1,2.4888035E1,1.1290816E1,1.0189983E1,1.0154698E1,1.2973577E1,1.1519347E1,2.0164927E1,1.0464391E1,1.987891E1,1.5608178E1,2.5660698E1,1.985834E1,1.4350538E1,1.2533317E1,1.2354719E1,1.0047293E1,1.0117633E1,1.3709077E1,1.195162E1],"tree_param":{"num_deleted":"0","num_feature":"20","num_nodes":"33","size_leaf_vector":"1"}},{"base_weights":[4.231923E-2,-2.466939E-1,2.6381832E-1,1.325881E-1,-4.579614E-1,4.088132E-1,-4.7643733E-1,4.0326282E-1,-1.5129863E-2,-1.4158762E-1,-7.1610034E-1,-2.3022792E-1,6.061441E-1,-4.320777E-2,-1.2228256E-3,1.9406163E-3,3.690697E-2,7.5168773E-3,-2.6011411E-2,-5.486694E-2,-2.016908E-2,-3.342305E-2,1.1660767E-2,4.4266158E-1,5.6748338E-2,2.850941E-1,5.2581806E-2,3.2760486E-2,6.2138087E-1,-1.2229274E-2,2.6750052E-2,5.2436717E-2,5.3166705E-3],"categories":[],"categories_nodes":[],"categories_segments":[],"categories_sizes":[],"default_left":[0,0,0,0,0,0,0,0,0,0,0,0,0,0,0,0,0,0,0,0,0,0,0,0,0,0,0,0,0,0,0,0,0],"id":21,"left_children":[1,3,5,7,9,11,13,15,-1,17,19,21,23,-1,-1,-1,-1,-1,-1,-1,-1,-1,-1,25,-1,27,-1,29,31,-1,-1,-1,-1],"loss_changes":[1.4680915E1,8.03983E0,1.4119943E1,4.4095902E0,5.1399364E0,1.3888027E1,3.7836113E0,2.7625165E0,0E0,3.403411E0,3.741436E0,5.5273843E0,6.723196E0,0E0,0E0,0E0,0E0,0E0,0E0,0E0,0E0,0E0,0E0,5.983408E0,0E0,4.5103893E0,0E0,4.526962E0,4.9142447E0,0E0,0E0,0E0,0E0],"parents":[2147483647,0,0,1,1,2,2,3,3,4,4,5,5,6,6,7,7,9,9,10,10,11,11,12,12,23,23,25,25,27,27,28,28],"right_children":[2,4,6,8,10,12,14,16,-1,18,20,22,24,-1,-1,-1,-1,-1,-1,-1,-1,-1,-1,26,-1,28,-1,30,32,-1,-1,-1,-1],"split_conditions":[4.64E2,4.72E2,5.05E2,5.8E2,4.89E2,4.34E2,3.96E2,4.4E2,-1.5129863E-2,5.09E2,4.71E2,4.7E2,4.75E2,-4.320777E-2,-1.2228256E-3,1.9406163E-3,3.690697E-2,7.5168773E-3,-2.6011411E-2,-5.486694E-2,-2.016908E-2,-3.342305E-2,1.1660767E-2,6.98E2,5.6748338E-2,4.69E2,5.2581806E-2,4.89E2,4.68E2,-1.2229274E-2,2.6750052E-2,5.2436717E-2,5.3166705E-3],"split_indices":[18,0,17,9,5,3,9,8,0,1,1,17,9,0,0,0,0,0,0,0,0,0,0,3,0,17,0,1,1,0,0,0,0],"split_type":[0,0,0,0,0,0,0,0,0,0,0,0,0,0,0,0,0,0,0,0,0,0,0,0,0,0,0,0,0,0,0,0,0],"sum_hessian":[2.2731477E2,9.857711E1,1.2873766E2,3.539893E1,6.3178185E1,1.0802616E2,2.071149E1,2.1869799E1,1.3529131E1,2.9082863E1,3.409532E1,2.5448008E1,8.2578156E1,1.0657419E1,1.0054071E1,1.1006826E1,1.0862972E1,1.6762346E1,1.2320517E1,1.4233766E1,1.9861555E1,1.2852382E1,1.2595625E1,6.4481224E1,1.8096931E1,5.239307E1,1.2088152E1,3.0559837E1,2.1833235E1,2.0018362E1,1.0541475E1,1.1366145E1,1.046709E1],"tree_param":{"num_deleted":"0","num_feature":"20","num_nodes":"33","size_leaf_vector":"1"}},{"base_weights":[3.5148963E-2,1.8134347E-1,-3.2547837E-1,1.02219395E-1,4.678275E-2,-4.4550085E-1,1.4570825E-2,-1.3715397E-1,3.2948512E-1,-1.3824055E-1,-7.3322374E-1,-2.6762402E-1,1.617609E-2,-9.2754126E-2,6.4851815E-1,8.377425E-3,-3.046893E-2,-4.994991E-2,-1.8295914E-2,-1.1938746E-3,-6.3673675E-1,-3.620178E-2,2.1908125E-2,3.144979E-1,5.65326E-2,2.8296268E-2,-2.9052413E-1,-1.1688515E-2,-5.236156E-2,-2.0526326E-3,2.7130341E-2,2.016446E-2,-5.110085E-2],"categories":[],"categories_nodes":[],"categories_segments":[],"categories_sizes":[],"default_left":[0,0,0,0,0,0,0,0,0,0,0,0,0,0,0,0,0,0,0,0,0,0,0,0,0,0,0,0,0,0,0,0,0],"id":22,"left_children":[1,3,5,7,-1,9,-1,11,13,15,17,19,-1,21,23,-1,-1,-1,-1,25,27,-1,-1,29,-1,-1,31,-1,-1,-1,-1,-1,-1],"loss_changes":[1.1869917E1,9.456524E0,4.940885E0,7.986351E0,0E0,4.7424364E0,0E0,4.4020247E0,1.0186773E1,4.0968437E0,2.3739195E0,5.5555882E0,0E0,1.1454165E1,6.5604725E0,0E0,0E0,0E0,0E0,5.713111E0,3.6728554E0,0E0,0E0,2.1922157E0,0E0,0E0,1.2111968E1,0E0,0E0,0E0,0E0,0E0,0E0],"parents":[2147483647,0,0,1,1,2,2,3,3,5,5,7,7,8,8,9,9,10,10,11,11,13,13,14,14,19,19,20,20,23,23,26,26],"right_children":[2,4,6,8,-1,10,-1,12,14,16,18,20,-1,22,24,-1,-1,-1,-1,26,28,-1,-1,30,-1,-1,32,-1,-1,-1,-1,-1,-1],"split_conditions":[5.37E2,7E2,6.58E2,4.74E2,4.678275E-2,4.84E2,1.4570825E-2,6.51E2,4.53E2,5.87E2,5.64E2,5.52E2,1.617609E-2,4.74E2,5E2,8.377425E-3,-3.046893E-2,-4.994991E-2,-1.8295914E-2,4.62E2,4.57E2,-3.620178E-2,2.1908125E-2,4.81E2,5.65326E-2,2.8296268E-2,4.83E2,-1.1688515E-2,-5.236156E-2,-2.0526326E-3,2.7130341E-2,2.016446E-2,-5.110085E-2],"split_indices":[9,3,9,16,0,7,0,19,3,9,12,13,0,13,2,0,0,0,0,5,18,0,0,14,0,0,14,0,0,0,0,0,0],"split_type":[0,0,0,0,0,0,0,0,0,0,0,0,0,0,0,0,0,0,0,0,0,0,0,0,0,0,0,0,0,0,0,0,0],"sum_hessian":[2.2302325E2,1.5904517E2,6.397808E1,1.4497357E2,1.4071596E1,5.379049E1,1.0187594E1,7.079912E1,7.417445E1,2.672801E1,2.7062477E1,5.549982E1,1.52992935E1,3.222889E1,4.1945568E1,1.6598948E1,1.0129064E1,1.470352E1,1.2358956E1,3.2816032E1,2.2683788E1,1.455667E1,1.7672218E1,2.5754951E1,1.6190617E1,1.0763129E1,2.2052906E1,1.223886E1,1.0444927E1,1.0386178E1,1.5368774E1,1.1548218E1,1.0504687E1],"tree_param":{"num_deleted":"0","num_feature":"20","num_nodes":"33","size_leaf_vector":"1"}},{"base_weights":[-3.786058E-2,-2.896915E-1,1.5935655E-1,1.2174213E-1,-5.784187E-1,-1.1779897E-1,5.569508E-1,3.282359E-1,-1.6888823E-2,-2.8121054E-1,-8.5357577E-1,-3.9946327E-1,2.0199049E-1,8.604475E-1,-2.8514972E-2,4.0456474E-2,-1.3797765E-2,-3.708828E-2,1.1832885E-3,-2.0216122E-2,-5.412435E-2,-6.3356295E-2,-4.5714453E-2,3.268222E-2,-4.9637254E-2,2.3040814E-2,9.8952657E-1,3.7514664E-2,-4.3539673E-2,2.3213161E-2,-2.566331E-2,3.3399694E-2,5.607335E-2],"categories":[],"categories_nodes":[],"categories_segments":[],"categories_sizes":[],"default_left":[0,0,0,0,0,0,0,0,0,0,0,0,0,0,0,0,0,0,0,0,0,0,0,0,0,0,0,0,0,0,0,0,0],"id":23,"left_children":[1,3,5,7,9,11,13,15,-1,17,19,21,23,25,-1,-1,-1,-1,-1,-1,-1,27,-1,-1,29,-1,31,-1,-1,-1,-1,-1,-1],"loss_changes":[1.0894182E1,1.150814E1,1.363492E1,3.9567485E0,4.401144E0,6.6906652E0,1.7854553E1,8.495758E0,0E0,4.0578413E0,2.542427E0,6.751742E0,4.0136175E0,1.6273079E0,0E0,0E0,0E0,0E0,0E0,0E0,0E0,1.7001488E1,0E0,0E0,5.819833E0,0E0,5.089245E-1,0E0,0E0,0E0,0E0,0E0,0E0],"parents":[2147483647,0,0,1,1,2,2,3,3,4,4,5,5,6,6,7,7,9,9,10,10,11,11,12,12,13,13,21,21,24,24,26,26],"right_children":[2,4,6,8,10,12,14,16,-1,18,20,22,24,26,-1,-1,-1,-1,-1,-1,-1,28,-1,-1,30,-1,32,-1,-1,-1,-1,-1,-1],"split_conditions":[4.89E2,4.65E2,4.97E2,5.71E2,5.1E2,4.71E2,5.14E2,5.01E2,-1.6888823E-2,4.21E2,4.87E2,4.48E2,3.83E2,5.1E2,-2.8514972E-2,4.0456474E-2,-1.3797765E-2,-3.708828E-2,1.1832885E-3,-2.0216122E-2,-5.412435E-2,4.62E2,-4.5714453E-2,3.268222E-2,4.58E2,2.3040814E-2,4.77E2,3.7514664E-2,-4.3539673E-2,2.3213161E-2,-2.566331E-2,3.3399694E-2,5.607335E-2],"split_indices":[6,8,1,5,5,13,10,1,0,3,0,15,15,1,0,0,0,0,0,0,0,10,0,0,10,0,0,0,0,0,0,0,0],"split_type":[0,0,0,0,0,0,0,0,0,0,0,0,0,0,0,0,0,0,0,0,0,0,0,0,0,0,0,0,0,0,0,0,0],"sum_hessian":[2.1742215E2,9.528356E1,1.2213859E2,3.9530827E1,5.5752735E1,7.238446E1,4.9754128E1,2.7471611E1,1.2059216E1,2.777445E1,2.7978285E1,3.8353928E1,3.4030533E1,3.9386528E1,1.03675995E1,1.5107729E1,1.2363882E1,1.0491969E1,1.728248E1,1.0377684E1,1.7600601E1,2.3884111E1,1.4469814E1,1.1604183E1,2.2426348E1,1.0731531E1,2.8654999E1,1.1931541E1,1.195257E1,1.0635864E1,1.1790484E1,1.0101339E1,1.855366E1],"tree_param":{"num_deleted":"0","num_feature":"20","num_nodes":"33","size_leaf_vector":"1"}},{"base_weights":[-4.456003E-2,5.743319E-1,-1.0992982E-1,1.3897826E-2,4.0915698E-2,-3.738326E-1,2.167556E-2,-7.856859E-1,1.6891928E-2,2.1937643E-1,-4.9369317E-1,-9.644058E-1,-1.9213539E-2,3.291232E-2,-2.9308245E-1,5.365531E-1,-3.6307093E-2,-9.384026E-1,5.4939827E-3,-2.9102314E-2,-6.452578E-2,-4.2048607E-2,7.2980607E-3,-1.3531412E-2,8.903146E-1,4.5628317E-2,-4.9558145E-1,-2.7382985E-2,-6.2799E-2,1.931786E-2,6.134195E-2,-1.16397336E-4,-7.5205284E-1,-4.64801E-2,-2.7172485E-2],"categories":[],"categories_nodes":[],"categories_segments":[],"categories_sizes":[],"default_left":[0,0,0,0,0,0,0,0,0,0,0,0,0,0,0,0,0,0,0,0,0,0,0,0,0,0,0,0,0,0,0,0,0,0,0],"id":24,"left_children":[1,3,5,-1,-1,7,9,11,13,15,17,19,-1,-1,21,23,25,27,-1,-1,-1,-1,-1,-1,29,-1,31,-1,-1,-1,-1,-1,33,-1,-1],"loss_changes":[9.051945E0,1.3190084E0,7.0166936E0,0E0,0E0,1.0827577E1,1.3923787E1,1.9780369E0,7.243443E0,8.023109E0,1.0276411E1,1.9908161E0,0E0,0E0,6.0404863E0,1.283725E1,2.4673532E1,2.0331535E0,0E0,0E0,0E0,0E0,0E0,0E0,4.7670784E0,0E0,4.8181324E0,0E0,0E0,0E0,0E0,0E0,4.2309093E-1,0E0,0E0],"parents":[2147483647,0,0,1,1,2,2,5,5,6,6,7,7,8,8,9,9,10,10,11,11,14,14,15,15,16,16,17,17,24,24,26,26,32,32],"right_children":[2,4,6,-1,-1,8,10,12,14,16,18,20,-1,-1,22,24,26,28,-1,-1,-1,-1,-1,-1,30,-1,32,-1,-1,-1,-1,-1,34,-1,-1],"split_conditions":[3.66E2,5.73E2,4.74E2,1.3897826E-2,4.0915698E-2,4.88E2,5.56E2,4.67E2,5.3E2,5.02E2,6.3E2,4.83E2,-1.9213539E-2,3.291232E-2,5.46E2,4.78E2,4.87E2,5.1E2,5.4939827E-3,-2.9102314E-2,-6.452578E-2,-4.2048607E-2,7.2980607E-3,-1.3531412E-2,4.56E2,4.5628317E-2,4.5E2,-2.7382985E-2,-6.2799E-2,1.931786E-2,6.134195E-2,-1.16397336E-4,4.52E2,-4.64801E-2,-2.7172485E-2],"split_indices":[13,5,4,0,0,17,13,1,2,19,19,7,0,0,16,14,8,1,0,0,0,0,0,0,17,0,2,0,0,0,0,0,16,0,0],"split_type":[0,0,0,0,0,0,0,0,0,0,0,0,0,0,0,0,0,0,0,0,0,0,0,0,0,0,0,0,0,0,0,0,0,0,0],"sum_hessian":[2.211827E2,2.0386505E1,2.0079619E2,1.0170823E1,1.0215681E1,6.62025E1,1.3459369E2,3.173771E1,3.446479E1,9.7692245E1,3.6901443E1,2.0989952E1,1.0747759E1,1.0863678E1,2.3601114E1,4.311249E1,5.4579758E1,2.0927454E1,1.59739895E1,1.0943574E1,1.0046378E1,1.0091858E1,1.3509256E1,1.320881E1,2.990368E1,1.7479551E1,3.7100204E1,1.0604416E1,1.0323037E1,1.2833353E1,1.7070328E1,1.3036704E1,2.4063501E1,1.1132195E1,1.2931307E1],"tree_param":{"num_deleted":"0","num_feature":"20","num_nodes":"35","size_leaf_vector":"1"}},{"base_weights":[-3.1248864E-2,-9.3195595E-2,3.7680767E-2,1.05216704E-1,-2.4017E-1,5.284062E-2,-4.2604893E-2,-5.586722E-2,-6.145268E-1,-2.807714E-1,2.9831076E-1,2.6117417E-1,-3.1034112E-1,-4.3575536E-3,-9.3544894E-1,-4.8706692E-1,2.0457378E-2,-4.059909E-2,8.5671896E-1,-1.920905E-2,6.6836876E-1,1.2637935E-2,-5.9313285E-1,-3.2139096E-2,-6.1359663E-2,-4.9482654E-3,-6.3234496E-1,6.0434844E-2,1.9421417E-2,5.200496E-2,9.06349E-3,-4.9643897E-2,-2.4947878E-3,-4.10542E-2,-1.7652525E-2],"categories":[],"categories_nodes":[],"categories_segments":[],"categories_sizes":[],"default_left":[0,0,0,0,0,0,0,0,0,0,0,0,0,0,0,0,0,0,0,0,0,0,0,0,0,0,0,0,0,0,0,0,0,0,0],"id":25,"left_children":[1,3,-1,5,7,-1,9,11,13,15,17,19,21,-1,23,25,-1,-1,27,-1,29,-1,31,-1,-1,-1,33,-1,-1,-1,-1,-1,-1,-1,-1],"loss_changes":[1.1125375E1,6.1969004E0,0E0,1.2811073E1,8.374913E0,0E0,6.539793E0,6.7590666E0,6.7067976E0,6.9350348E0,2.127158E1,1.0084574E1,7.534556E0,0E0,1.3314819E0,2.0172997E0,0E0,0E0,3.250368E0,0E0,4.0295496E0,0E0,6.719137E0,0E0,0E0,0E0,1.1152344E0,0E0,0E0,0E0,0E0,0E0,0E0,0E0,0E0],"parents":[2147483647,0,0,1,1,3,3,4,4,6,6,7,7,8,8,9,9,10,10,11,11,12,12,14,14,15,15,18,18,20,20,22,22,26,26],"right_children":[2,4,-1,6,8,-1,10,12,14,16,18,20,22,-1,24,26,-1,-1,28,-1,30,-1,32,-1,-1,-1,34,-1,-1,-1,-1,-1,-1,-1,-1],"split_conditions":[7E2,4.52E2,3.7680767E-2,4.26E2,5.04E2,5.284062E-2,4.51E2,5.56E2,5.33E2,5.42E2,4.84E2,4.71E2,4.48E2,-4.3575536E-3,5.98E2,4.05E2,2.0457378E-2,-4.059909E-2,5.46E2,-1.920905E-2,4.63E2,1.2637935E-2,6.19E2,-3.2139096E-2,-6.1359663E-2,-4.9482654E-3,3.84E2,6.0434844E-2,1.9421417E-2,5.200496E-2,9.06349E-3,-4.9643897E-2,-2.4947878E-3,-4.10542E-2,-1.7652525E-2],"split_indices":[3,15,0,10,8,0,3,13,5,13,8,1,3,0,3,5,0,0,18,0,8,0,15,0,0,0,3,0,0,0,0,0,0,0,0],"split_type":[0,0,0,0,0,0,0,0,0,0,0,0,0,0,0,0,0,0,0,0,0,0,0,0,0,0,0,0,0,0,0,0,0,0,0],"sum_hessian":[2.2637956E2,2.1063602E2,1.5743544E1,8.975407E1,1.2088195E2,1.1241045E1,7.851302E1,8.177288E1,3.9109066E1,4.6325832E1,3.218719E1,3.6398613E1,4.537427E1,1.5276517E1,2.3832548E1,3.588864E1,1.0437188E1,1.0619051E1,2.156814E1,1.4103212E1,2.2295403E1,1.5204669E1,3.0169601E1,1.3496549E1,1.03359995E1,1.0233002E1,2.5655642E1,1.1410594E1,1.0157546E1,1.2001297E1,1.0294105E1,1.69034E1,1.32662E1,1.415217E1,1.1503471E1],"tree_param":{"num_deleted":"0","num_feature":"20","num_nodes":"35","size_leaf_vector":"1"}},{"base_weights":[1.2978287E-2,-3.7987605E-1,1.24164425E-1,-1.3851309E-2,-7.4987334E-1,3.762615E-2,6.436717E-1,-1.4781232E-2,1.1709354E-2,-2.3617057E-2,-5.0746888E-2,1.0235723E-1,-3.837247E-2,1.508217E-2,4.311108E-2,3.225814E-1,-9.111046E-2,5.4253674E-1,3.1685624E-2,-2.6156285E-1,1.9794477E-2,4.4678126E-2,3.7137383E-1,2.1187268E-2,-2.81561E-2,-4.861934E-1,2.4219023E-2,-3.5526713E-3,3.362539E-2,-5.206048E-3,-7.682407E-1,-1.9175816E-2,-5.477792E-2],"categories":[],"categories_nodes":[],"categories_segments":[],"categories_sizes":[],"default_left":[0,0,0,0,0,0,0,0,0,0,0,0,0,0,0,0,0,0,0,0,0,0,0,0,0,0,0,0,0,0,0,0,0],"id":26,"left_children":[1,3,5,7,9,11,13,-1,-1,-1,-1,15,-1,-1,-1,17,19,21,23,25,-1,-1,27,-1,-1,29,-1,-1,-1,-1,31,-1,-1],"loss_changes":[9.668881E0,6.6035604E0,7.728224E0,1.856283E0,1.3058558E0,7.837163E0,1.5758543E0,0E0,0E0,0E0,0E0,5.938113E0,0E0,0E0,0E0,4.146667E0,6.2965817E0,1.8908911E0,7.02049E0,9.596392E0,0E0,0E0,3.5890043E0,0E0,0E0,4.600662E0,0E0,0E0,0E0,0E0,2.7068062E0,0E0,0E0],"parents":[2147483647,0,0,1,1,2,2,3,3,4,4,5,5,6,6,11,11,15,15,16,16,17,17,18,18,19,19,22,22,25,25,30,30],"right_children":[2,4,6,8,10,12,14,-1,-1,-1,-1,16,-1,-1,-1,18,20,22,24,26,-1,-1,28,-1,-1,30,-1,-1,-1,-1,32,-1,-1],"split_conditions":[4.51E2,4.8E2,5.61E2,4.68E2,3.98E2,6.37E2,4.79E2,-1.4781232E-2,1.1709354E-2,-2.3617057E-2,-5.0746888E-2,4.79E2,-3.837247E-2,1.508217E-2,4.311108E-2,4.91E2,5.76E2,3.97E2,5.04E2,4.9E2,1.9794477E-2,4.4678126E-2,4.43E2,2.1187268E-2,-2.81561E-2,4.72E2,2.4219023E-2,-3.5526713E-3,3.362539E-2,-5.206048E-3,4.52E2,-1.9175816E-2,-5.477792E-2],"split_indices":[6,0,11,0,18,5,0,0,0,0,0,10,0,0,0,0,10,10,15,0,0,0,16,0,0,0,0,0,0,0,9,0,0],"split_type":[0,0,0,0,0,0,0,0,0,0,0,0,0,0,0,0,0,0,0,0,0,0,0,0,0,0,0,0,0,0,0,0,0],"sum_hessian":[2.1927757E2,4.7837303E1,1.7144028E2,2.4569267E1,2.3268036E1,1.4787932E2,2.3560955E1,1.1412611E1,1.3156656E1,1.2725722E1,1.0542314E1,1.3768202E2,1.0197289E1,1.0113553E1,1.3447403E1,6.407646E1,7.360557E1,3.5994698E1,2.808176E1,5.486534E1,1.8740229E1,1.0414927E1,2.5579773E1,1.7098862E1,1.09829E1,4.243488E1,1.2430462E1,1.0668953E1,1.491082E1,1.8603289E1,2.3831589E1,1.1953415E1,1.1878174E1],"tree_param":{"num_deleted":"0","num_feature":"20","num_nodes":"33","size_leaf_vector":"1"}},{"base_weights":[-9.239408E-3,-3.6443132E-1,9.1781266E-2,-1.0242222E-1,-3.9077617E-2,-1.0354066E-2,6.1004484E-1,4.6563763E-3,-1.9941127E-2,-2.782481E-2,3.8604297E-2,4.1497443E-2,1.16716875E-2,3.654545E-2,-2.694155E-2,4.6871983E-2,-2.7622882E-2,2.9452693E-1,-7.676658E-2,5.554295E-1,-1.0181734E-2,-2.1637535E-1,2.4851106E-2,4.159104E-2,1.3469976E-2,-4.11327E-1,1.8831799E-2,1.0114404E-2,-3.0309958E-2],"categories":[],"categories_nodes":[],"categories_segments":[],"categories_sizes":[],"default_left":[0,0,0,0,0,0,0,0,0,0,0,0,0,0,0,0,0,0,0,0,0,0,0,0,0,0,0,0,0],"id":27,"left_children":[1,3,5,7,-1,9,11,-1,-1,-1,13,-1,-1,-1,15,17,-1,19,21,23,-1,25,-1,-1,-1,27,-1,-1,-1],"loss_changes":[7.8442035E0,5.2098827E0,9.019628E0,1.8269677E0,0E0,3.8511565E0,2.1292524E0,0E0,0E0,0E0,6.026805E0,0E0,0E0,0E0,4.754237E0,3.3235493E0,0E0,4.805731E0,5.931199E0,1.670362E0,0E0,6.995382E0,0E0,0E0,0E0,5.5045238E0,0E0,0E0,0E0],"parents":[2147483647,0,0,1,1,2,2,3,3,5,5,6,6,10,10,14,14,15,15,17,17,18,18,19,19,21,21,25,25],"right_children":[2,4,6,8,-1,10,12,-1,-1,-1,14,-1,-1,-1,16,18,-1,20,22,24,-1,26,-1,-1,-1,28,-1,-1,-1],"split_conditions":[4.51E2,5.01E2,5.28E2,5.63E2,-3.9077617E-2,2.83E2,4.92E2,4.6563763E-3,-1.9941127E-2,-2.782481E-2,4.22E2,4.1497443E-2,1.16716875E-2,3.654545E-2,5.37E2,4.61E2,-2.7622882E-2,5.78E2,4.9E2,5.48E2,-1.0181734E-2,5.79E2,2.4851106E-2,4.159104E-2,1.3469976E-2,4.39E2,1.8831799E-2,1.0114404E-2,-3.0309958E-2],"split_indices":[6,8,1,5,0,19,10,0,0,0,17,0,0,0,7,10,0,19,0,18,0,10,0,0,0,8,0,0,0],"split_type":[0,0,0,0,0,0,0,0,0,0,0,0,0,0,0,0,0,0,0,0,0,0,0,0,0,0,0,0,0],"sum_hessian":[2.1668059E2,4.740292E1,1.6927766E2,2.9879835E1,1.7523085E1,1.4222842E2,2.7049246E1,1.8415823E1,1.1464012E1,1.084814E1,1.3138028E2,1.6317621E1,1.0731625E1,1.0485007E1,1.2089528E2,1.0680443E2,1.409085E1,3.5104996E1,7.169943E1,2.29634E1,1.2141597E1,5.816917E1,1.3530264E1,1.0708041E1,1.2255358E1,4.400798E1,1.4161188E1,1.0598206E1,3.3409775E1],"tree_param":{"num_deleted":"0","num_feature":"20","num_nodes":"29","size_leaf_vector":"1"}},{"base_weights":[-2.236987E-2,1.1987558E-1,-3.630491E-1,3.847764E-2,4.7877483E-2,-4.911239E-1,1.0246619E-2,-1.5296341E-1,2.235029E-1,-2.5444525E-1,-8.226401E-1,-4.0007964E-1,4.5998365E-2,4.2879978E-1,-2.8027823E-2,-1.7413532E-2,-3.4603614E-2,-5.685351E-2,-2.1913854E-2,-3.0658951E-2,-7.0054597E-1,1.9473592E-3,6.239086E-1,1.900035E-2,-1.928482E-2,-3.0078968E-2,2.0242361E-2,-4.790622E-2,-1.2774959E-2,4.9481194E-2,1.1346187E-2],"categories":[],"categories_nodes":[],"categories_segments":[],"categories_sizes":[],"default_left":[0,0,0,0,0,0,0,0,0,0,0,0,0,0,0,0,0,0,0,0,0,0,0,0,0,0,0,0,0,0,0],"id":28,"left_children":[1,3,5,-1,7,9,-1,11,13,15,17,19,-1,21,-1,23,-1,-1,-1,25,27,-1,29,-1,-1,-1,-1,-1,-1,-1,-1],"loss_changes":[1.0533622E1,7.141318E0,4.756936E0,0E0,4.944728E0,3.9120083E0,0E0,1.7745104E1,1.2260699E1,3.3171368E0,2.0917664E0,5.9688025E0,0E0,4.5203123E0,0E0,3.3437579E0,0E0,0E0,0E0,6.522149E0,3.161605E0,0E0,5.546854E0,0E0,0E0,0E0,0E0,0E0,0E0,0E0,0E0],"parents":[2147483647,0,0,1,1,2,2,4,4,5,5,7,7,8,8,9,9,10,10,11,11,13,13,15,15,19,19,20,20,22,22],"right_children":[2,4,6,-1,8,10,-1,12,14,16,18,20,-1,22,-1,24,-1,-1,-1,26,28,-1,30,-1,-1,-1,-1,-1,-1,-1,-1],"split_conditions":[5.37E2,3.66E2,6.47E2,3.847764E-2,4.69E2,5.04E2,1.0246619E-2,5.79E2,5.44E2,5.94E2,4.28E2,4.76E2,4.5998365E-2,4.66E2,-2.8027823E-2,4.81E2,-3.4603614E-2,-5.685351E-2,-2.1913854E-2,4.85E2,5.04E2,1.9473592E-3,4.76E2,1.900035E-2,-1.928482E-2,-3.0078968E-2,2.0242361E-2,-4.790622E-2,-1.2774959E-2,4.9481194E-2,1.1346187E-2],"split_indices":[9,13,9,0,1,8,0,10,10,2,18,5,0,5,0,1,0,0,0,8,13,0,8,0,0,0,0,0,0,0,0],"split_type":[0,0,0,0,0,0,0,0,0,0,0,0,0,0,0,0,0,0,0,0,0,0,0,0,0,0,0,0,0,0,0],"sum_hessian":[2.1546893E2,1.524598E2,6.3009148E1,1.4243607E1,1.3821619E2,5.1525845E1,1.1483305E1,6.453947E1,7.367671E1,3.1094288E1,2.0431555E1,5.296723E1,1.1572239E1,5.874747E1,1.4929243E1,2.0844229E1,1.0250059E1,1.0160987E1,1.0270569E1,2.4251842E1,2.8715387E1,1.9994831E1,3.875264E1,1.0010205E1,1.08340225E1,1.0329371E1,1.3922471E1,1.7458261E1,1.1257128E1,1.9393694E1,1.9358946E1],"tree_param":{"num_deleted":"0","num_feature":"20","num_nodes":"31","size_leaf_vector":"1"}},{"base_weights":[-3.3827603E-2,1.2822714E-1,-3.6209217E-1,1.9719711E-1,-2.0757994E-2,-7.363209E-1,-1.8135571E-1,9.2414185E-2,5.381373E-1,-1.8631369E-2,-5.2644845E-2,-3.4782606E-1,2.0668989E-2,-2.2631785E-2,1.5920648E-1,4.094341E-2,-1.2087383E-3,-3.8820293E-2,-1.3448228E-1,2.827826E-1,-6.787526E-2,1.1119276E-2,-3.1063754E-2,1.3893788E-1,5.231472E-1,-3.7612048E-1,2.7363105E-2,-2.1586267E-2,4.825365E-1,1.1922366E-2,3.852857E-2,2.191426E-3,-3.8586643E-2,4.891728E-2,2.7317667E-4],"categories":[],"categories_nodes":[],"categories_segments":[],"categories_sizes":[],"default_left":[0,0,0,0,0,0,0,0,0,0,0,0,0,0,0,0,0,0,0,0,0,0,0,0,0,0,0,0,0,0,0,0,0,0,0],"id":29,"left_children":[1,3,5,7,-1,9,11,13,15,-1,-1,17,-1,-1,19,-1,-1,-1,21,23,25,-1,-1,27,29,31,-1,-1,33,-1,-1,-1,-1,-1,-1],"loss_changes":[1.1665076E1,5.5895877E0,4.766577E0,4.6333094E0,0E0,2.28658E0,5.111911E0,3.7663682E0,4.8517227E0,0E0,0E0,3.530046E0,0E0,0E0,2.5767405E0,0E0,0E0,0E0,4.958564E0,1.9746633E0,6.4488707E0,0E0,0E0,7.7390647E0,1.3524327E0,3.7763364E0,0E0,0E0,5.776767E0,0E0,0E0,0E0,0E0,0E0,0E0],"parents":[2147483647,0,0,1,1,2,2,3,3,5,5,6,6,7,7,8,8,11,11,14,14,18,18,19,19,20,20,23,23,24,24,25,25,28,28],"right_children":[2,4,6,8,-1,10,12,14,16,-1,-1,18,-1,-1,20,-1,-1,-1,22,24,26,-1,-1,28,30,32,-1,-1,34,-1,-1,-1,-1,-1,-1],"split_conditions":[5.25E2,5.37E2,4.68E2,5.58E2,-2.0757994E-2,4.66E2,6.37E2,3.11E2,5.85E2,-1.8631369E-2,-5.2644845E-2,4.74E2,2.0668989E-2,-2.2631785E-2,4.97E2,4.094341E-2,-1.2087383E-3,-3.8820293E-2,5.51E2,4.79E2,5.91E2,1.1119276E-2,-3.1063754E-2,4.74E2,5.28E2,5.23E2,2.7363105E-2,-2.1586267E-2,3.62E2,1.1922366E-2,3.852857E-2,2.191426E-3,-3.8586643E-2,4.891728E-2,2.7317667E-4],"split_indices":[9,7,11,5,0,4,9,9,15,0,0,4,0,0,15,0,0,0,11,4,15,0,0,13,8,11,0,0,15,0,0,0,0,0,0],"split_type":[0,0,0,0,0,0,0,0,0,0,0,0,0,0,0,0,0,0,0,0,0,0,0,0,0,0,0,0,0,0,0,0,0,0,0],"sum_hessian":[2.1740863E2,1.4596118E2,7.144745E1,1.3008687E2,1.5874312E1,2.2267294E1,4.9180153E1,1.00477615E2,2.960925E1,1.1375628E1,1.08916645E1,3.874917E1,1.04309845E1,1.0338103E1,9.013952E1,1.9445131E1,1.0164118E1,1.2001165E1,2.6748001E1,5.8214397E1,3.1925117E1,1.5747022E1,1.100098E1,3.7406647E1,2.080775E1,2.1526667E1,1.0398451E1,1.3961805E1,2.3444843E1,1.0588154E1,1.0219597E1,1.087349E1,1.0653175E1,1.0981421E1,1.2463421E1],"tree_param":{"num_deleted":"0","num_feature":"20","num_nodes":"35","size_leaf_vector":"1"}},{"base_weights":[-3.5739414E-2,1.13043785E-1,-2.8320622E-1,4.8902113E-2,3.369258E-2,-6.183502E-1,-9.56149E-2,-2.0615831E-2,3.1112337E-2,-4.91896E-2,1.4049752E-3,-2.2544825E-1,1.940067E-2,-5.030394E-1,9.4286114E-2,-3.5358343E-2,-1.6781986E-2,-6.659066E-3,-4.1406836E-2,-2.2664614E-1,3.182692E-1,1.3118127E-2,-2.4424601E-2,-6.510073E-1,2.213098E-2,1.2868956E-1,3.6095623E-2,-1.4915896E-2,-4.8429918E-2,4.139824E-1,-1.2922445E-2,3.9581712E-2,2.3891046E-4],"categories":[],"categories_nodes":[],"categories_segments":[],"categories_sizes":[],"default_left":[0,0,0,0,0,0,0,0,0,0,0,0,0,0,0,0,0,0,0,0,0,0,0,0,0,0,0,0,0,0,0,0,0],"id":30,"left_children":[1,3,5,7,-1,9,11,13,-1,-1,-1,15,-1,17,19,-1,21,-1,-1,23,25,-1,-1,27,-1,29,-1,-1,-1,31,-1,-1,-1],"loss_changes":[7.8983345E0,4.7923307E0,5.002284E0,4.8536954E0,0E0,6.8095636E0,3.4027205E0,6.1054063E0,0E0,0E0,0E0,4.2356687E0,0E0,2.4364514E0,6.477468E0,0E0,4.1454167E0,0E0,0E0,1.085643E1,3.9548616E0,0E0,0E0,2.307088E0,0E0,4.216636E0,0E0,0E0,0E0,3.3661387E0,0E0,0E0,0E0],"parents":[2147483647,0,0,1,1,2,2,3,3,5,5,6,6,7,7,11,11,13,13,14,14,16,16,19,19,20,20,23,23,25,25,29,29],"right_children":[2,4,6,8,-1,10,12,14,-1,-1,-1,16,-1,18,20,-1,22,-1,-1,24,26,-1,-1,28,-1,30,-1,-1,-1,32,-1,-1,-1],"split_conditions":[5.09E2,7E2,4.73E2,5.86E2,3.369258E-2,5.11E2,6.37E2,4.34E2,3.1112337E-2,-4.91896E-2,1.4049752E-3,4.68E2,1.940067E-2,4.76E2,4.56E2,-3.5358343E-2,4.83E2,-6.659066E-3,-4.1406836E-2,4.9E2,5.18E2,1.3118127E-2,-2.4424601E-2,4.93E2,2.213098E-2,5.8E2,3.6095623E-2,-1.4915896E-2,-4.8429918E-2,4.67E2,-1.2922445E-2,3.9581712E-2,2.3891046E-4],"split_indices":[9,3,11,10,0,17,9,11,0,0,0,12,0,7,7,0,14,0,0,0,11,0,0,17,0,3,0,0,0,9,0,0,0],"split_type":[0,0,0,0,0,0,0,0,0,0,0,0,0,0,0,0,0,0,0,0,0,0,0,0,0,0,0,0,0,0,0,0,0],"sum_hessian":[2.1264894E2,1.3314316E2,7.950578E1,1.2045363E2,1.2689529E1,2.7707783E1,5.1798E1,1.08287796E2,1.2165834E1,1.7367815E1,1.0339968E1,4.12563E1,1.0541699E1,2.0180523E1,8.810727E1,1.1747502E1,2.95088E1,1.0099803E1,1.008072E1,3.62109E1,5.189637E1,1.8817152E1,1.06916485E1,2.2176641E1,1.4034258E1,3.6208908E1,1.5687464E1,1.1426578E1,1.0750064E1,2.0806612E1,1.5402296E1,1.0334449E1,1.0472163E1],"tree_param":{"num_deleted":"0","num_feature":"20","num_nodes":"33","size_leaf_vector":"1"}},{"base_weights":[-3.7508078E-2,8.305716E-2,-3.4374198E-1,2.3336189E-2,3.3794496E-2,-4.8515248E-1,1.0027966E-2,2.1528566E-1,-1.9379582E-1,-2.541497E-1,-4.5985274E-2,-1.3413991E-1,5.1867115E-1,1.1747596E-2,-6.5206444E-1,-1.3678735E-2,-3.1291306E-2,-4.9768478E-1,3.3281036E-2,-9.266459E-3,8.352954E-1,-2.3638396E-2,2.9721612E-1,-1.4266378E-2,-4.8341945E-2,-2.0786582E-2,1.8771691E-2,-4.2884845E-2,-9.144414E-3,2.8312359E-2,5.9669536E-2,3.644215E-2,-2.5517209E-2],"categories":[],"categories_nodes":[],"categories_segments":[],"categories_sizes":[],"default_left":[0,0,0,0,0,0,0,0,0,0,0,0,0,0,0,0,0,0,0,0,0,0,0,0,0,0,0,0,0,0,0,0,0],"id":31,"left_children":[1,3,5,7,-1,9,-1,11,13,15,-1,17,19,21,23,25,-1,27,-1,-1,29,-1,31,-1,-1,-1,-1,-1,-1,-1,-1,-1,-1],"loss_changes":[8.131477E0,5.5878763E0,4.884124E0,6.0778112E0,0E0,4.751075E0,0E0,8.268873E0,6.4582005E0,3.0127938E0,0E0,1.1013148E1,9.428686E0,6.81541E0,2.1740274E0,3.5270271E0,0E0,2.7704644E0,0E0,0E0,2.1066456E0,0E0,1.1170909E1,0E0,0E0,0E0,0E0,0E0,0E0,0E0,0E0,0E0,0E0],"parents":[2147483647,0,0,1,1,2,2,3,3,5,5,7,7,8,8,9,9,11,11,12,12,13,13,14,14,15,15,17,17,20,20,22,22],"right_children":[2,4,6,8,-1,10,-1,12,14,16,-1,18,20,22,24,26,-1,28,-1,-1,30,-1,32,-1,-1,-1,-1,-1,-1,-1,-1,-1,-1],"split_conditions":[5.44E2,5.35E2,6.33E2,4.89E2,3.3794496E-2,5.08E2,1.0027966E-2,4.9E2,5.15E2,5.9E2,-4.5985274E-2,5.54E2,3.4E2,5.03E2,5.37E2,6.04E2,-3.1291306E-2,4.56E2,3.3281036E-2,-9.266459E-3,4.94E2,-2.3638396E-2,5.37E2,-1.4266378E-2,-4.8341945E-2,-2.0786582E-2,1.8771691E-2,-4.2884845E-2,-9.144414E-3,2.8312359E-2,5.9669536E-2,3.644215E-2,-2.5517209E-2],"split_indices":[9,1,2,15,0,8,0,8,8,9,0,10,15,12,12,10,0,7,0,0,11,0,7,0,0,0,0,0,0,0,0,0,0],"split_type":[0,0,0,0,0,0,0,0,0,0,0,0,0,0,0,0,0,0,0,0,0,0,0,0,0,0,0,0,0,0,0,0,0],"sum_hessian":[2.1846565E2,1.5727484E2,6.119081E1,1.4382547E2,1.344937E1,4.865803E1,1.2532779E1,7.63441E1,6.748137E1,3.2804455E1,1.5853577E1,3.5739193E1,4.060491E1,4.7259033E1,2.0222336E1,2.0547335E1,1.225712E1,2.483E1,1.0909193E1,1.2725339E1,2.7879574E1,1.7277847E1,2.9981186E1,1.0220778E1,1.0001556E1,1.0071986E1,1.0475349E1,1.0778606E1,1.40513935E1,1.7392967E1,1.0486606E1,1.9601826E1,1.0379358E1],"tree_param":{"num_deleted":"0","num_feature":"20","num_nodes":"33","size_leaf_vector":"1"}},{"base_weights":[2.8610991E-2,-1.4997663E-1,1.5754096E-1,2.7671993E-1,-5.6666666E-1,-1.4139429E-1,4.0046883E-1,-2.815406E-2,5.35788E-1,2.5806589E-2,-9.131981E-1,-7.669743E-1,4.0012476E-1,7.8657115E-1,-4.5106284E-2,3.0258697E-1,4.83841E-2,-1.7392894E-2,-5.6569602E-2,-1.6653473E-2,-5.1385235E-2,3.9187167E-2,-1.7307563E-2,9.597041E-1,1.6000196E-2,-2.261609E-2,2.928864E-2,4.366933E-2,-9.093714E-3,3.0767728E-2,6.0861427E-2],"categories":[],"categories_nodes":[],"categories_segments":[],"categories_sizes":[],"default_left":[0,0,0,0,0,0,0,0,0,0,0,0,0,0,0,0,0,0,0,0,0,0,0,0,0,0,0,0,0,0,0],"id":32,"left_children":[1,3,5,7,9,11,13,-1,15,-1,17,19,21,23,25,27,-1,-1,-1,-1,-1,-1,-1,29,-1,-1,-1,-1,-1,-1,-1],"loss_changes":[4.885146E0,1.5987103E1,8.996396E0,1.0018351E1,1.7496494E1,1.9253582E1,1.1764142E1,0E0,3.196475E0,0E0,3.8910103E0,2.632308E0,9.041878E0,2.6476994E0,8.638911E0,6.7822514E0,0E0,0E0,0E0,0E0,0E0,0E0,0E0,1.5724831E0,0E0,0E0,0E0,0E0,0E0,0E0,0E0],"parents":[2147483647,0,0,1,1,2,2,3,3,4,4,5,5,6,6,8,8,10,10,11,11,12,12,13,13,14,14,15,15,23,23],"right_children":[2,4,6,8,10,12,14,-1,16,-1,18,20,22,24,26,28,-1,-1,-1,-1,-1,-1,-1,30,-1,-1,-1,-1,-1,-1,-1],"split_conditions":[4.68E2,4.78E2,4.8E2,4.74E2,4.09E2,4.86E2,4.83E2,-2.815406E-2,4.67E2,2.5806589E-2,4.34E2,5.12E2,4.69E2,5.89E2,5.01E2,4.33E2,4.83841E-2,-1.7392894E-2,-5.6569602E-2,-1.6653473E-2,-5.1385235E-2,3.9187167E-2,-1.7307563E-2,5.03E2,1.6000196E-2,-2.261609E-2,2.928864E-2,4.366933E-2,-9.093714E-3,3.0767728E-2,6.0861427E-2],"split_indices":[1,5,5,13,13,8,8,0,15,0,9,1,15,13,18,1,0,0,0,0,0,0,0,13,0,0,0,0,0,0,0],"split_type":[0,0,0,0,0,0,0,0,0,0,0,0,0,0,0,0,0,0,0,0,0,0,0,0,0,0,0,0,0,0,0],"sum_hessian":[2.1013815E2,8.803419E1,1.22103966E2,4.3660805E1,4.437338E1,5.4928978E1,6.717499E1,1.0016759E1,3.3644047E1,1.0639371E1,3.373401E1,2.5293169E1,2.963581E1,3.5579304E1,3.159568E1,2.2951822E1,1.0692225E1,1.0116481E1,2.3617527E1,1.0348595E1,1.4944573E1,1.9540785E1,1.0095025E1,2.5178984E1,1.0400321E1,1.9373583E1,1.2222097E1,1.01684265E1,1.2783395E1,1.2223625E1,1.29553585E1],"tree_param":{"num_deleted":"0","num_feature":"20","num_nodes":"31","size_leaf_vector":"1"}},{"base_weights":[1.9348996E-2,1.078874E-1,-2.4827743E-1,1.6271226E-1,-2.699796E-2,-4.2801702E-1,1.4419692E-2,2.8078739E-2,1.067928E-1,-6.822769E-1,-4.6792305E-3,2.7040541E-2,6.19428E-2,-1.9471852E-2,-4.680213E-2,-1.7057441E-2,1.2071126E-1,2.50947E-1,-2.6405486E-1,5.2356404E-1,5.629436E-2,-4.136632E-2,3.140373E-2,4.9861204E-2,8.596274E-3,3.503129E-1,-2.8909346E-2,4.6139775E-4,3.99827E-2],"categories":[],"categories_nodes":[],"categories_segments":[],"categories_sizes":[],"default_left":[0,0,0,0,0,0,0,0,0,0,0,0,0,0,0,0,0,0,0,0,0,0,0,0,0,0,0,0,0],"id":33,"left_children":[1,3,5,7,-1,9,-1,-1,11,13,-1,-1,15,-1,-1,-1,17,19,21,23,25,-1,-1,-1,-1,27,-1,-1,-1],"loss_changes":[5.0447683E0,5.764538E0,5.230756E0,3.243797E0,0E0,3.3430452E0,0E0,0E0,2.5193324E0,1.315093E0,0E0,0E0,2.8836708E0,0E0,0E0,0E0,5.3510046E0,4.1789064E0,1.4166302E1,5.310953E0,9.042955E0,0E0,0E0,0E0,0E0,5.051176E0,0E0,0E0,0E0],"parents":[2147483647,0,0,1,1,2,2,3,3,5,5,8,8,9,9,12,12,16,16,17,17,18,18,19,19,20,20,25,25],"right_children":[2,4,6,8,-1,10,-1,-1,12,14,-1,-1,16,-1,-1,-1,18,20,22,24,26,-1,-1,-1,-1,28,-1,-1,-1],"split_conditions":[5.55E2,6.32E2,6.29E2,4.3E2,-2.699796E-2,4.56E2,1.4419692E-2,2.8078739E-2,3.69E2,4.88E2,-4.6792305E-3,2.7040541E-2,4.24E2,-1.9471852E-2,-4.680213E-2,-1.7057441E-2,5.15E2,5.53E2,6.38E2,5.3E2,4.49E2,-4.136632E-2,3.140373E-2,4.9861204E-2,8.596274E-3,5.58E2,-2.8909346E-2,4.6139775E-4,3.99827E-2],"split_indices":[2,5,2,17,0,6,0,0,3,12,0,0,3,0,0,0,17,3,19,18,2,0,0,0,0,19,0,0,0],"split_type":[0,0,0,0,0,0,0,0,0,0,0,0,0,0,0,0,0,0,0,0,0,0,0,0,0,0,0,0,0],"sum_hessian":[2.1077194E2,1.58825E2,5.194694E1,1.4712334E2,1.170166E1,3.906569E1,1.288125E1,1.697825E1,1.301451E2,2.1602097E1,1.7463594E1,1.11534815E1,1.1899161E2,1.1205656E1,1.03964405E1,1.452945E1,1.0446216E2,7.830519E1,2.615697E1,3.1916048E1,4.6389145E1,1.6078184E1,1.0078784E1,1.2816364E1,1.9099684E1,3.200562E1,1.4383525E1,1.8774696E1,1.3230924E1],"tree_param":{"num_deleted":"0","num_feature":"20","num_nodes":"29","size_leaf_vector":"1"}},{"base_weights":[1.0063432E-2,-1.1033625E-1,3.4866387E-1,-3.698693E-1,7.0686424E-3,-1.8018017E-2,7.191462E-1,-7.254556E-1,1.6580386E-2,-3.9213684E-1,1.3852465E-1,-3.3031587E-2,2.3110805E-2,1.4068703E-2,5.5881567E-2,-9.1794795E-1,-1.4031887E-2,4.6112034E-3,-5.1176358E-2,-4.3388277E-2,4.6561253E-1,-2.9548008E-2,-5.7476748E-2,-1.5120049E-1,1.8795967E-2,4.010084E-2,-3.168247E-3,-2.9057732E-2,3.6310673E-2,1.5788587E-2,-9.88306E-3],"categories":[],"categories_nodes":[],"categories_segments":[],"categories_sizes":[],"default_left":[0,0,0,0,0,0,0,0,0,0,0,0,0,0,0,0,0,0,0,0,0,0,0,0,0,0,0,0,0,0,0],"id":34,"left_children":[1,3,5,7,9,11,13,15,-1,17,19,-1,-1,-1,-1,21,-1,-1,-1,23,25,-1,-1,27,-1,-1,-1,-1,29,-1,-1],"loss_changes":[8.384312E0,4.627381E0,7.340639E0,1.2037198E1,5.5899825E0,8.972377E0,4.3703203E0,2.4564972E0,0E0,8.165617E0,4.7858834E0,0E0,0E0,0E0,0E0,9.6268845E-1,0E0,0E0,0E0,2.4249096E0,5.1597757E0,0E0,0E0,3.4380355E0,0E0,0E0,0E0,0E0,2.053621E0,0E0,0E0],"parents":[2147483647,0,0,1,1,2,2,3,3,4,4,5,5,6,6,7,7,9,9,10,10,15,15,19,19,20,20,23,23,28,28],"right_children":[2,4,6,8,10,12,14,16,-1,18,20,-1,-1,-1,-1,22,-1,-1,-1,24,26,-1,-1,28,-1,-1,-1,-1,30,-1,-1],"split_conditions":[5.42E2,4.27E2,4.6E2,5.66E2,4.51E2,4.84E2,4.78E2,6.05E2,1.6580386E-2,5.34E2,5.09E2,-3.3031587E-2,2.3110805E-2,1.4068703E-2,5.5881567E-2,3.67E2,-1.4031887E-2,4.6112034E-3,-5.1176358E-2,5.34E2,5.35E2,-2.9548008E-2,-5.7476748E-2,4.93E2,1.8795967E-2,4.010084E-2,-3.168247E-3,-2.9057732E-2,5.64E2,1.5788587E-2,-9.88306E-3],"split_indices":[6,3,7,13,6,8,1,2,0,11,2,0,0,0,0,3,0,0,0,8,3,0,0,13,0,0,0,0,13,0,0],"split_type":[0,0,0,0,0,0,0,0,0,0,0,0,0,0,0,0,0,0,0,0,0,0,0,0,0,0,0,0,0,0,0],"sum_hessian":[2.0371858E2,1.5077875E2,5.2939835E1,4.6293297E1,1.0448545E2,2.7084518E1,2.5855314E1,3.0697977E1,1.5595319E1,2.5392006E1,7.9093445E1,1.1423197E1,1.5661322E1,1.3133299E1,1.2722015E1,2.0683613E1,1.0014365E1,1.4852264E1,1.05397415E1,5.138343E1,2.7710018E1,1.0048078E1,1.0635534E1,4.1382565E1,1.0000865E1,1.6622648E1,1.108737E1,1.1929495E1,2.945307E1,1.3262472E1,1.6190596E1],"tree_param":{"num_deleted":"0","num_feature":"20","num_nodes":"31","size_leaf_vector":"1"}},{"base_weights":[-1.0476177E-2,2.3054007E-1,-1.2130694E-1,-1.5739024E-2,4.057021E-1,-1.7579511E-1,2.2435365E-2,5.794671E-2,1.5474224E-1,-8.0966875E-2,-5.643924E-1,-8.7001905E-2,2.570255E-2,-3.3802237E-2,-4.1818116E-3,-5.3464204E-2,7.432982E-3,2.041878E-2,-2.7538711E-2,9.985749E-2,-2.4647096E-2,3.261978E-1,-1.6562636E-1,-8.934359E-3,5.112706E-1,1.8679656E-1,-3.6264118E-2,3.939293E-2,9.851682E-3,-1.4081604E-2,3.293119E-2],"categories":[],"categories_nodes":[],"categories_segments":[],"categories_sizes":[],"default_left":[0,0,0,0,0,0,0,0,0,0,0,0,0,0,0,0,0,0,0,0,0,0,0,0,0,0,0,0,0,0,0],"id":35,"left_children":[1,3,5,-1,7,9,-1,-1,11,13,15,17,-1,-1,19,-1,-1,-1,-1,21,-1,23,25,-1,27,29,-1,-1,-1,-1,-1],"loss_changes":[5.625882E0,6.466118E0,4.557848E0,0E0,9.397269E0,4.831195E0,0E0,0E0,3.4457316E0,4.9115286E0,9.444825E0,5.7989073E0,0E0,0E0,4.944371E0,0E0,0E0,0E0,0E0,4.8733597E0,0E0,4.1681194E0,7.546175E0,0E0,2.6421318E0,5.4567657E0,0E0,0E0,0E0,0E0,0E0],"parents":[2147483647,0,0,1,1,2,2,4,4,5,5,8,8,9,9,10,10,11,11,14,14,19,19,21,21,22,22,24,24,25,25],"right_children":[2,4,6,-1,8,10,-1,-1,12,14,16,18,-1,-1,20,-1,-1,-1,-1,22,-1,24,26,-1,28,30,-1,-1,-1,-1,-1],"split_conditions":[4.25E2,3.01E2,4.97E2,-1.5739024E-2,4.39E2,5.37E2,2.2435365E-2,5.794671E-2,5.74E2,3.89E2,4.91E2,4.49E2,2.570255E-2,-3.3802237E-2,5.94E2,-5.3464204E-2,7.432982E-3,2.041878E-2,-2.7538711E-2,5.44E2,-2.4647096E-2,4.72E2,4.77E2,-8.934359E-3,4.84E2,4.83E2,-3.6264118E-2,3.939293E-2,9.851682E-3,-1.4081604E-2,3.293119E-2],"split_indices":[19,19,4,0,17,7,0,0,10,5,1,2,0,0,2,0,0,0,0,15,0,14,14,0,4,4,0,0,0,0,0],"split_type":[0,0,0,0,0,0,0,0,0,0,0,0,0,0,0,0,0,0,0,0,0,0,0,0,0,0,0,0,0,0,0],"sum_hessian":[2.0856548E2,6.535728E1,1.4320819E2,1.5695724E1,4.9661552E1,1.3134445E2,1.1863739E1,1.1506845E1,3.8154705E1,1.065514E2,2.4793062E1,2.326189E1,1.4892817E1,1.1285481E1,9.5265915E1,1.4222752E1,1.0570311E1,1.1305447E1,1.1956443E1,7.920231E1,1.6063606E1,4.26295E1,3.6572803E1,1.14441E1,3.1185402E1,2.285005E1,1.37227545E1,1.5784681E1,1.5400721E1,1.1668602E1,1.1181449E1],"tree_param":{"num_deleted":"0","num_feature":"20","num_nodes":"31","size_leaf_vector":"1"}},{"base_weights":[-2.8417736E-2,-4.088478E-1,6.457385E-2,-4.0988352E-2,-2.4003278E-1,-1.574334E-2,5.4132354E-1,8.946544E-3,-3.4755167E-2,3.613571E-2,-2.9337812E-2,1.3471401E-2,3.6806766E-2,8.9597404E-2,-2.6117727E-2,-5.1697753E-3,3.445774E-2,2.6644647E-1,-2.4862374E-1,9.690191E-2,3.6773942E-2,-4.253388E-1,1.4324238E-2,2.5898725E-2,-1.953891E-1,2.689091E-3,-6.541876E-1,1.5990725E-2,-3.8205452E-2,-4.7680937E-2,-1.7309487E-2],"categories":[],"categories_nodes":[],"categories_segments":[],"categories_sizes":[],"default_left":[0,0,0,0,0,0,0,0,0,0,0,0,0,0,0,0,0,0,0,0,0,0,0,0,0,0,0,0,0,0,0],"id":36,"left_children":[1,3,5,-1,7,9,11,-1,-1,13,-1,-1,-1,15,-1,17,-1,19,21,23,-1,25,-1,-1,27,-1,29,-1,-1,-1,-1],"loss_changes":[7.5356016E0,2.7049584E0,6.5729094E0,0E0,6.0468793E0,4.396255E0,1.1123834E0,0E0,0E0,4.117304E0,0E0,0E0,0E0,7.1213655E0,0E0,7.2850423E0,0E0,4.0703783E0,5.6145043E0,4.95109E0,0E0,4.8670435E0,0E0,0E0,7.2723823E0,0E0,2.4272718E0,0E0,0E0,0E0,0E0],"parents":[2147483647,0,0,1,1,2,2,4,4,5,5,6,6,9,9,13,13,15,15,17,17,18,18,19,19,21,21,24,24,26,26],"right_children":[2,4,6,-1,8,10,12,-1,-1,14,-1,-1,-1,16,-1,18,-1,20,22,24,-1,26,-1,-1,28,-1,30,-1,-1,-1,-1],"split_conditions":[4.15E2,4.47E2,5.59E2,-4.0988352E-2,5.23E2,6.32E2,4.79E2,8.946544E-3,-3.4755167E-2,5.8E2,-2.9337812E-2,1.3471401E-2,3.6806766E-2,5.76E2,-2.6117727E-2,4.62E2,3.445774E-2,5.2E2,4.9E2,5.53E2,3.6773942E-2,4.7E2,1.4324238E-2,2.5898725E-2,3.69E2,2.689091E-3,4.8E2,1.5990725E-2,-3.8205452E-2,-4.7680937E-2,-1.7309487E-2],"split_indices":[18,11,11,0,11,5,0,0,0,9,0,0,0,10,0,10,0,11,0,3,0,0,0,0,9,0,0,0,0,0,0],"split_type":[0,0,0,0,0,0,0,0,0,0,0,0,0,0,0,0,0,0,0,0,0,0,0,0,0,0,0,0,0,0,0],"sum_hessian":[2.1126346E2,4.0830128E1,1.7043333E2,1.0766636E1,3.0063492E1,1.4668803E2,2.3745298E1,1.5968654E1,1.4094838E1,1.3532947E2,1.1358565E1,1.0906416E1,1.2838883E1,1.2427296E2,1.1056505E1,1.0816722E2,1.6105742E1,5.1081863E1,5.7085354E1,3.840568E1,1.2676183E1,4.3067734E1,1.401762E1,1.5419839E1,2.2985844E1,1.4168787E1,2.8898949E1,1.2289992E1,1.069585E1,1.3590386E1,1.5308561E1],"tree_param":{"num_deleted":"0","num_feature":"20","num_nodes":"31","size_leaf_vector":"1"}},{"base_weights":[2.2184279E-2,-1.307454E-1,1.8167096E-1,2.2714187E-1,-4.6445966E-1,-1.749229E-1,4.7594696E-1,-4.2303517E-2,5.226681E-1,2.0454114E-2,-6.868446E-1,-1.1057278E0,6.183249E-1,8.5738975E-1,-9.833449E-2,3.096124E-1,4.8348762E-2,6.320061E-4,-1.0106409E0,-6.6484556E-2,-3.8891524E-2,5.6474645E-2,2.1185488E-3,5.322654E-2,2.833542E-2,-4.2771157E-2,3.1041691E-2,2.729306E-2,-5.257313E-3,-3.271073E-2,-6.64773E-2],"categories":[],"categories_nodes":[],"categories_segments":[],"categories_sizes":[],"default_left":[0,0,0,0,0,0,0,0,0,0,0,0,0,0,0,0,0,0,0,0,0,0,0,0,0,0,0,0,0,0,0],"id":37,"left_children":[1,3,5,7,9,11,13,-1,15,-1,17,19,21,23,25,27,-1,-1,29,-1,-1,-1,-1,-1,-1,-1,-1,-1,-1,-1,-1],"loss_changes":[4.9912E0,1.2592292E1,1.0588905E1,1.6655596E1,1.08549385E1,3.4644855E1,1.2158303E1,0E0,3.553443E0,0E0,9.923864E0,5.46196E-1,7.4519243E0,1.3971348E0,1.2997156E1,2.8970773E0,0E0,0E0,2.5316486E0,0E0,0E0,0E0,0E0,0E0,0E0,0E0,0E0,0E0,0E0,0E0,0E0],"parents":[2147483647,0,0,1,1,2,2,3,3,4,4,5,5,6,6,8,8,10,10,11,11,12,12,13,13,14,14,15,15,18,18],"right_children":[2,4,6,8,10,12,14,-1,16,-1,18,20,22,24,26,28,-1,-1,30,-1,-1,-1,-1,-1,-1,-1,-1,-1,-1,-1,-1],"split_conditions":[4.84E2,4.78E2,4.76E2,4.59E2,4.02E2,4.86E2,4.8E2,-4.2303517E-2,4.8E2,2.0454114E-2,4.27E2,4.48E2,4.07E2,5.25E2,4.83E2,4.81E2,4.8348762E-2,6.320061E-4,5.33E2,-6.6484556E-2,-3.8891524E-2,5.6474645E-2,2.1185488E-3,5.322654E-2,2.833542E-2,-4.2771157E-2,3.1041691E-2,2.729306E-2,-5.257313E-3,-3.271073E-2,-6.64773E-2],"split_indices":[1,5,5,13,13,8,14,0,15,0,9,15,15,9,6,14,0,0,16,0,0,0,0,0,0,0,0,0,0,0,0],"split_type":[0,0,0,0,0,0,0,0,0,0,0,0,0,0,0,0,0,0,0,0,0,0,0,0,0,0,0,0,0,0,0],"sum_hessian":[2.026653E2,1.0355142E2,9.911388E1,5.0120132E1,5.343129E1,4.499546E1,5.411842E1,1.041928E1,3.970085E1,1.0671896E1,4.2759396E1,2.0521454E1,2.4474005E1,3.2222786E1,2.1895634E1,2.7980423E1,1.17204275E1,1.383441E1,2.8924986E1,1.0377868E1,1.0143586E1,1.2457075E1,1.201693E1,1.7260595E1,1.4962189E1,1.0574305E1,1.1321328E1,1.7625021E1,1.0355402E1,1.5099914E1,1.3825073E1],"tree_param":{"num_deleted":"0","num_feature":"20","num_nodes":"31","size_leaf_vector":"1"}},{"base_weights":[-1.0744263E-2,-5.4762505E-2,2.975837E-2,-9.305032E-2,2.6222304E-2,-5.431595E-2,-3.0868066E-2,-2.9609E-2,-1.4889661E-2,3.5514057E-2,-6.90929E-2,1.234032E-1,-2.7941513E-1,5.2048284E-1,-5.751596E-1,-6.838916E-1,3.4364858E-1,3.1959E-1,4.6193764E-2,-5.1081765E-2,1.1841665E-2,-9.182326E-1,-1.5990606E-2,3.469731E-2,-1.2893805E-2,-1.1755677E-3,2.508445E-2,-5.8155127E-2,-2.8031945E-2],"categories":[],"categories_nodes":[],"categories_segments":[],"categories_sizes":[],"default_left":[0,0,0,0,0,0,0,0,0,0,0,0,0,0,0,0,0,0,0,0,0,0,0,0,0,0,0,0,0],"id":38,"left_children":[1,3,-1,5,-1,7,-1,-1,9,-1,11,13,15,17,19,21,23,25,-1,-1,-1,27,-1,-1,-1,-1,-1,-1,-1],"loss_changes":[5.5339336E0,4.3335767E0,0E0,3.6643162E0,0E0,3.6100042E0,0E0,0E0,6.3389993E0,0E0,6.099489E0,2.2187956E1,1.8353312E1,3.8244944E0,1.0782145E1,3.4542446E0,6.2823563E0,2.2276058E0,0E0,0E0,0E0,1.6413593E0,0E0,0E0,0E0,0E0,0E0,0E0,0E0],"parents":[2147483647,0,0,1,1,3,3,5,5,8,8,10,10,11,11,12,12,13,13,14,14,15,15,16,16,17,17,21,21],"right_children":[2,4,-1,6,-1,8,-1,-1,10,-1,12,14,16,18,20,22,24,26,-1,-1,-1,28,-1,-1,-1,-1,-1,-1,-1],"split_conditions":[7E2,5.78E2,2.975837E-2,6.55E2,2.6222304E-2,2.8E2,-3.0868066E-2,-2.9609E-2,3.66E2,3.5514057E-2,4.89E2,5.15E2,5.06E2,4.93E2,4.81E2,4.59E2,4.75E2,4.23E2,4.6193764E-2,-5.1081765E-2,1.1841665E-2,5.5E2,-1.5990606E-2,3.469731E-2,-1.2893805E-2,-1.1755677E-3,2.508445E-2,-5.8155127E-2,-2.8031945E-2],"split_indices":[3,11,0,3,0,19,0,0,13,0,12,11,11,19,0,11,0,7,0,0,0,19,0,0,0,0,0,0,0],"split_type":[0,0,0,0,0,0,0,0,0,0,0,0,0,0,0,0,0,0,0,0,0,0,0,0,0,0,0,0,0],"sum_hessian":[2.0526549E2,1.9221133E2,1.3054141E1,1.810806E2,1.1130744E1,1.6965094E2,1.1429658E1,1.0628886E1,1.5902205E2,1.0217729E1,1.4880432E2,7.79105E1,7.089383E1,4.9836933E1,2.8073566E1,4.292829E1,2.7965534E1,3.446522E1,1.5371713E1,1.7947126E1,1.012644E1,2.5191578E1,1.7736713E1,1.7576326E1,1.0389209E1,1.225184E1,2.221338E1,1.3615496E1,1.1576081E1],"tree_param":{"num_deleted":"0","num_feature":"20","num_nodes":"29","size_leaf_vector":"1"}},{"base_weights":[8.515279E-3,-3.2590124E-1,9.513849E-2,-2.6860015E-2,-3.3359256E-2,4.707554E-3,6.1003494E-1,-1.5803235E-2,1.083176E-2,-2.141144E-1,8.842498E-2,1.8933736E-2,3.737877E-2,1.8601207E-2,-5.8025795E-1,1.9836636E-1,-2.1024507E-2,-9.86036E-3,-4.2956084E-2,2.7926803E-1,-1.8257843E-2,4.7363925E-1,8.51845E-2,-2.389572E-3,7.6533836E-1,-2.112602E-2,2.8946778E-1,2.3790138E-2,5.128619E-2,4.5940983E-3,2.8725808E-2],"categories":[],"categories_nodes":[],"categories_segments":[],"categories_sizes":[],"default_left":[0,0,0,0,0,0,0,0,0,0,0,0,0,0,0,0,0,0,0,0,0,0,0,0,0,0,0,0,0,0,0],"id":39,"left_children":[1,3,5,7,-1,9,11,-1,-1,13,15,-1,-1,-1,17,19,-1,-1,-1,21,-1,23,25,-1,27,-1,29,-1,-1,-1,-1],"loss_changes":[6.027603E0,4.3516517E0,7.688862E0,1.7487975E0,0E0,2.6114845E0,5.019598E-1,0E0,0E0,8.682985E0,5.8501253E0,0E0,0E0,0E0,2.4662867E0,3.9970374E0,0E0,0E0,0E0,2.7994456E0,0E0,5.72388E0,4.1553903E0,0E0,1.3241043E0,0E0,1.5423663E0,0E0,0E0,0E0,0E0],"parents":[2147483647,0,0,1,1,2,2,3,3,5,5,6,6,9,9,10,10,14,14,15,15,19,19,21,21,22,22,24,24,26,26],"right_children":[2,4,6,8,-1,10,12,-1,-1,14,16,-1,-1,-1,18,20,-1,-1,-1,22,-1,24,26,-1,28,-1,30,-1,-1,-1,-1],"split_conditions":[4.17E2,4.81E2,5.3E2,4.44E2,-3.3359256E-2,4.24E2,4.79E2,-1.5803235E-2,1.083176E-2,4.46E2,5.12E2,1.8933736E-2,3.737877E-2,1.8601207E-2,4.51E2,5.83E2,-2.1024507E-2,-9.86036E-3,-4.2956084E-2,5.49E2,-1.8257843E-2,3.65E2,4.85E2,-2.389572E-3,5.03E2,-2.112602E-2,5.12E2,2.3790138E-2,5.128619E-2,4.5940983E-3,2.8725808E-2],"split_indices":[18,8,1,8,0,3,0,0,0,12,17,0,0,0,11,12,0,0,0,3,0,15,18,0,8,0,11,0,0,0,0],"split_type":[0,0,0,0,0,0,0,0,0,0,0,0,0,0,0,0,0,0,0,0,0,0,0,0,0,0,0,0,0,0,0],"sum_hessian":[2.0600598E2,4.1814632E1,1.6419135E2,2.2861517E1,1.8953115E1,1.4052089E2,2.3670452E1,1.0313688E1,1.2547829E1,3.8453342E1,1.0206755E2,1.022459E1,1.3445861E1,1.4778775E1,2.3674568E1,8.4436806E1,1.7630741E1,1.0693298E1,1.2981269E1,7.427763E1,1.0159172E1,3.6391647E1,3.7885986E1,1.3354964E1,2.3036684E1,1.056371E1,2.7322275E1,1.2246494E1,1.079019E1,1.6917784E1,1.0404491E1],"tree_param":{"num_deleted":"0","num_feature":"20","num_nodes":"31","size_leaf_vector":"1"}},{"base_weights":[-1.753108E-2,-3.056115E-1,6.3720934E-2,-3.8158782E-3,-3.3324473E-2,-1.0754931E-2,4.827307E-1,2.4621371E-2,-3.344043E-2,6.061142E-2,-2.8629076E-1,1.1413343E-2,3.2789968E-2,3.7450722E-1,-1.1027822E-1,1.2614778E-2,-3.043443E-2,1.732574E-1,3.6865734E-2,-1.0448452E-2,-2.6270345E-2,2.7573196E-2,-5.3125983E-3,-1.824834E-1,2.4684887E-2,-2.4863612E-2,4.0071425E-3,-1.6840084E-2,1.4686498E-2],"categories":[],"categories_nodes":[],"categories_segments":[],"categories_sizes":[],"default_left":[0,0,0,0,0,0,0,0,0,0,0,0,0,0,0,0,0,0,0,0,0,0,0,0,0,0,0,0,0],"id":40,"left_children":[1,3,5,7,-1,9,11,-1,-1,13,15,-1,-1,17,19,-1,-1,21,-1,23,-1,-1,-1,25,-1,-1,27,-1,-1],"loss_changes":[4.6691923E0,4.7758274E0,4.866217E0,8.545823E0,0E0,2.6374028E0,8.8658E-1,0E0,0E0,5.762457E0,4.9435244E0,0E0,0E0,2.6339784E0,2.8884711E0,0E0,0E0,2.7686346E0,0E0,5.060984E0,0E0,0E0,0E0,2.5534506E0,0E0,0E0,2.891796E0,0E0,0E0],"parents":[2147483647,0,0,1,1,2,2,3,3,5,5,6,6,9,9,10,10,13,13,14,14,17,17,19,19,23,23,26,26],"right_children":[2,4,6,8,-1,10,12,-1,-1,14,16,-1,-1,18,20,-1,-1,22,-1,24,-1,-1,-1,26,-1,-1,28,-1,-1],"split_conditions":[4.51E2,4.84E2,5.29E2,4.95E2,-3.3324473E-2,5.75E2,4.75E2,2.4621371E-2,-3.344043E-2,4.52E2,4.51E2,1.1413343E-2,3.2789968E-2,5.45E2,5.37E2,1.2614778E-2,-3.043443E-2,4.97E2,3.6865734E-2,5.55E2,-2.6270345E-2,2.7573196E-2,-5.3125983E-3,3.88E2,2.4684887E-2,-2.4863612E-2,4.91E2,-1.6840084E-2,1.4686498E-2],"split_indices":[6,7,1,1,0,16,8,0,0,15,11,0,0,16,7,0,0,10,0,12,0,0,0,9,0,0,17,0,0],"split_type":[0,0,0,0,0,0,0,0,0,0,0,0,0,0,0,0,0,0,0,0,0,0,0,0,0,0,0,0,0],"sum_hessian":[1.9764551E2,4.287394E1,1.5477158E2,2.3898573E1,1.8975367E1,1.3224104E2,2.2530529E1,1.3834348E1,1.0064225E1,1.0565534E2,2.6585695E1,1.0059267E1,1.2471261E1,3.6824097E1,6.8831245E1,1.0036507E1,1.6549189E1,2.4636013E1,1.2188086E1,5.6314064E1,1.2517184E1,1.0056078E1,1.4579935E1,4.2462265E1,1.3851798E1,1.5177225E1,2.728504E1,1.2462531E1,1.4822509E1],"tree_param":{"num_deleted":"0","num_feature":"20","num_nodes":"29","size_leaf_vector":"1"}},{"base_weights":[-1.7417857E-2,7.708917E-2,-3.2529277E-1,2.9462263E-2,2.2117777E-2,-5.234858E-1,1.4739364E-2,-6.2655315E-2,4.1910386E-1,-4.320402E-2,-9.151638E-3,-3.1701142E-1,2.1980311E-1,5.4699678E-2,-2.5407288E-2,9.027044E-3,-6.391121E-1,-1.6457658E-1,4.8255414E-1,-1.4037604E-2,2.540475E-2,-1.3240439E-2,-4.2265527E-2,-3.4961525E-2,1.5622337E-2,7.4715155E-1,5.8741955E-4,4.4669278E-2,2.6778448E-2],"categories":[],"categories_nodes":[],"categories_segments":[],"categories_sizes":[],"default_left":[0,0,0,0,0,0,0,0,0,0,0,0,0,0,0,0,0,0,0,0,0,0,0,0,0,0,0,0,0],"id":41,"left_children":[1,3,5,-1,7,9,-1,11,13,-1,-1,15,17,-1,-1,19,21,23,25,-1,-1,-1,-1,-1,-1,27,-1,-1,-1],"loss_changes":[5.8233876E0,4.3025017E0,5.929941E0,0E0,4.7197714E0,4.013212E0,0E0,8.388885E0,1.5994854E1,0E0,0E0,6.447236E0,5.680311E0,0E0,0E0,4.693588E0,2.158637E0,6.151368E0,4.1263466E0,0E0,0E0,0E0,0E0,0E0,0E0,1.7855072E-1,0E0,0E0,0E0],"parents":[2147483647,0,0,1,1,2,2,4,4,5,5,7,7,8,8,11,11,12,12,15,15,16,16,17,17,18,18,25,25],"right_children":[2,4,6,-1,8,10,-1,12,14,-1,-1,16,18,-1,-1,20,22,24,26,-1,-1,-1,-1,-1,-1,28,-1,-1,-1],"split_conditions":[5.55E2,3.66E2,6.33E2,2.9462263E-2,5.76E2,4.51E2,1.4739364E-2,4.93E2,4.89E2,-4.320402E-2,-9.151638E-3,5.1E2,4.82E2,5.4699678E-2,-2.5407288E-2,4.9E2,4.27E2,4.79E2,4.84E2,-1.4037604E-2,2.540475E-2,-1.3240439E-2,-4.2265527E-2,-3.4961525E-2,1.5622337E-2,4.31E2,5.8741955E-4,4.4669278E-2,2.6778448E-2],"split_indices":[9,13,2,0,10,6,0,11,11,0,0,5,12,0,0,0,9,14,0,0,0,0,0,0,0,16,0,0,0],"split_type":[0,0,0,0,0,0,0,0,0,0,0,0,0,0,0,0,0,0,0,0,0,0,0,0,0,0,0,0,0],"sum_hessian":[1.9827974E2,1.5228352E2,4.5996204E1,1.3818699E1,1.3846483E2,3.4973564E1,1.1022644E1,1.1479375E2,2.3671082E1,1.671429E1,1.8259272E1,6.0337242E1,5.4456505E1,1.3595732E1,1.007535E1,3.0468369E1,2.9868874E1,2.2262392E1,3.2194115E1,1.9552715E1,1.0915654E1,1.1421016E1,1.8447857E1,1.0277461E1,1.1984932E1,2.0234924E1,1.19591875E1,1.0059775E1,1.0175149E1],"tree_param":{"num_deleted":"0","num_feature":"20","num_nodes":"29","size_leaf_vector":"1"}},{"base_weights":[1.7104963E-2,5.417931E-2,-2.3017516E-2,2.8475547E-2,-6.5362495E-3,2.2583937E-2,-4.245572E-2,-2.3820293E-1,8.442071E-2,3.6861813E-1,-8.126676E-1,-3.2396264E-2,2.0223941E-1,4.63879E-3,4.019572E-2,-1.308193E-2,-5.331502E-2,-5.0484106E-2,3.5007173E-1,-2.4954284E-2,3.153454E-2,6.994471E-1,-2.013515E-1,5.766688E-3,4.9443003E-2,-1.9928357E-3,-1.7265728E-2],"categories":[],"categories_nodes":[],"categories_segments":[],"categories_sizes":[],"default_left":[0,0,0,0,0,0,0,0,0,0,0,0,0,0,0,0,0,0,0,0,0,0,0,0,0,0,0],"id":42,"left_children":[1,3,-1,-1,5,-1,7,9,11,13,15,-1,17,-1,-1,-1,-1,19,21,-1,-1,23,25,-1,-1,-1,-1],"loss_changes":[3.542181E0,5.8007736E0,0E0,0E0,2.763473E0,0E0,3.8828225E0,2.1712622E1,8.337019E0,3.5948343E0,4.1746445E0,0E0,3.1068995E0,0E0,0E0,0E0,0E0,9.907082E0,1.0215778E1,0E0,0E0,5.3354893E0,4.758519E-1,0E0,0E0,0E0,0E0],"parents":[2147483647,0,0,1,1,4,4,6,6,7,7,8,8,9,9,10,10,12,12,17,17,18,18,21,21,22,22],"right_children":[2,4,-1,-1,6,-1,8,10,12,14,16,-1,18,-1,-1,-1,-1,20,22,-1,-1,24,26,-1,-1,-1,-1],"split_conditions":[5.02E2,3.99E2,-2.3017516E-2,2.8475547E-2,3.15E2,2.2583937E-2,4.72E2,4.67E2,3.89E2,4.56E2,4.23E2,-3.2396264E-2,4.68E2,4.63879E-3,4.019572E-2,-1.308193E-2,-5.331502E-2,4.97E2,4.83E2,-2.4954284E-2,3.153454E-2,5.22E2,5.05E2,5.766688E-3,4.9443003E-2,-1.9928357E-3,-1.7265728E-2],"split_indices":[0,13,0,0,15,0,11,7,5,15,9,0,7,0,0,0,0,8,8,0,0,11,9,0,0,0,0],"split_type":[0,0,0,0,0,0,0,0,0,0,0,0,0,0,0,0,0,0,0,0,0,0,0,0,0,0,0],"sum_hessian":[1.9769902E2,1.842765E2,1.3422524E1,1.853955E1,1.6573695E2,1.1206311E1,1.5453064E2,6.042635E1,9.410429E1,2.9559868E1,3.0866482E1,1.2417757E1,8.168653E1,1.8836514E1,1.0723355E1,1.0369602E1,2.049688E1,3.0390911E1,5.1295616E1,1.8484734E1,1.1906178E1,3.123625E1,2.0059366E1,1.0812407E1,2.0423843E1,1.0055815E1,1.0003552E1],"tree_param":{"num_deleted":"0","num_feature":"20","num_nodes":"27","size_leaf_vector":"1"}},{"base_weights":[1.3407537E-2,-2.2588181E-1,7.798849E-2,-3.6903154E-2,-4.5301374E-2,1.3950768E-1,-2.9149348E-2,1.601036E-2,-2.5460979E-2,8.293568E-2,3.607589E-2,2.3642322E-1,-6.0261454E-2,-6.134898E-3,7.359699E-1,6.748971E-2,-2.644496E-2,-1.4547462E-2,2.327891E-1,2.1200392E-2,4.9170982E-2,2.7023765E-1,-2.4557823E-1,3.367548E-2,-9.084284E-3,4.939084E-4,3.722073E-2,1.10554155E-2,-3.360315E-2,-1.8900221E-2,1.9310497E-2],"categories":[],"categories_nodes":[],"categories_segments":[],"categories_sizes":[],"default_left":[0,0,0,0,0,0,0,0,0,0,0,0,0,0,0,0,0,0,0,0,0,0,0,0,0,0,0,0,0,0,0],"id":43,"left_children":[1,3,5,-1,7,9,-1,-1,-1,11,-1,13,15,17,19,21,-1,-1,23,-1,-1,25,27,-1,-1,29,-1,-1,-1,-1,-1],"loss_changes":[3.1040206E0,3.9161687E0,6.5067863E0,0E0,5.697213E0,4.72655E0,0E0,0E0,0E0,2.95112E0,0E0,7.8437634E0,4.2220454E0,3.0987844E0,1.2160416E0,3.6103318E0,0E0,0E0,4.6485143E0,0E0,0E0,4.3949413E0,4.6208997E0,0E0,0E0,3.489818E0,0E0,0E0,0E0,0E0,0E0],"parents":[2147483647,0,0,1,1,2,2,4,4,5,5,9,9,11,11,12,12,13,13,14,14,15,15,18,18,21,21,22,22,25,25],"right_children":[2,4,6,-1,8,10,-1,-1,-1,12,-1,14,16,18,20,22,-1,-1,24,-1,-1,26,28,-1,-1,30,-1,-1,-1,-1,-1],"split_conditions":[4.51E2,4.47E2,6.08E2,-3.6903154E-2,3.98E2,5.41E2,-2.9149348E-2,1.601036E-2,-2.5460979E-2,4.71E2,3.607589E-2,4.9E2,4.94E2,5.4E2,4.6E2,5.53E2,-2.644496E-2,-1.4547462E-2,5.74E2,2.1200392E-2,4.9170982E-2,5.43E2,4.57E2,3.367548E-2,-9.084284E-3,5.09E2,3.722073E-2,1.10554155E-2,-3.360315E-2,-1.8900221E-2,1.9310497E-2],"split_indices":[6,11,16,0,18,1,0,0,0,15,0,0,0,16,11,13,0,0,16,0,0,18,18,0,0,11,0,0,0,0,0],"split_type":[0,0,0,0,0,0,0,0,0,0,0,0,0,0,0,0,0,0,0,0,0,0,0,0,0,0,0,0,0,0,0],"sum_hessian":[1.9872157E2,4.1703083E1,1.570185E2,1.0065913E1,3.163717E1,1.4437039E2,1.2648098E1,1.786869E1,1.376848E1,1.326219E2,1.1748491E1,6.3696754E1,6.892515E1,4.354225E1,2.0154503E1,5.4833473E1,1.4091678E1,1.976419E1,2.3778063E1,1.01154175E1,1.0039085E1,3.3363518E1,2.1469955E1,1.1221265E1,1.2556798E1,2.1904057E1,1.145946E1,1.0481735E1,1.0988219E1,1.10655575E1,1.08385E1],"tree_param":{"num_deleted":"0","num_feature":"20","num_nodes":"31","size_leaf_vector":"1"}},{"base_weights":[-9.074446E-4,-5.613037E-2,3.7271592E-1,-1.4269767E-2,-3.3540864E-2,3.1902444E-2,-7.7962916E-4,2.5411648E-1,-1.4067341E-1,-9.964013E-2,5.7258594E-1,-2.6060906E-1,1.9524357E-1,-2.9276473E-2,2.2498516E-2,4.139671E-2,1.0716983E-2,-3.9761797E-1,1.3488759E-1,-1.8480632E-2,2.8369462E-2,-5.8144647E-1,-2.5419343E-1,-2.1488985E-2,3.3639956E-2,-1.2593764E-2,-4.5870982E-2,6.832672E-2,-3.369027E-2,-6.560497E-3,1.3803156E-2],"categories":[],"categories_nodes":[],"categories_segments":[],"categories_sizes":[],"default_left":[0,0,0,0,0,0,0,0,0,0,0,0,0,0,0,0,0,0,0,0,0,0,0,0,0,0,0,0,0,0,0],"id":44,"left_children":[1,3,5,7,-1,-1,-1,9,11,13,15,17,19,-1,-1,-1,-1,21,23,-1,-1,25,27,-1,-1,-1,-1,29,-1,-1,-1],"loss_changes":[4.1709275E0,4.5218625E0,2.6920207E0,5.663914E0,0E0,0E0,0E0,6.0814924E0,4.62064E0,7.2562695E0,2.4103346E0,4.605943E0,6.603068E0,0E0,0E0,0E0,0E0,1.5039892E0,7.0814643E0,0E0,0E0,2.7231865E0,5.049181E0,0E0,0E0,0E0,0E0,9.402999E-1,0E0,0E0,0E0],"parents":[2147483647,0,0,1,1,2,2,3,3,7,7,8,8,9,9,10,10,11,11,12,12,17,17,18,18,21,21,22,22,27,27],"right_children":[2,4,6,8,-1,-1,-1,10,12,14,16,18,20,-1,-1,-1,-1,22,24,-1,-1,26,28,-1,-1,-1,-1,30,-1,-1,-1],"split_conditions":[5.61E2,6.39E2,5.07E2,4.62E2,-3.3540864E-2,3.1902444E-2,-7.7962916E-4,4.44E2,6.04E2,5.41E2,4.83E2,4.9E2,5.77E2,