tree
version=v4
num_class=1
num_tree_per_iteration=1
label_index=0
max_feature_idx=94
objective=binary sigmoid:1
feature_names=Column_0 Column_1 Column_2 Column_3 Column_4 Column_5 Column_6 Column_7 Column_8 Column_9 Column_10 Column_11 Column_12 Column_13 Column_14 Column_15 Column_16 Column_17 Column_18 Column_19 Column_20 Column_21 Column_22 Column_23 Column_24 Column_25 Column_26 Column_27 Column_28 Column_29 Column_30 Column_31 Column_32 Column_33 Column_34 Column_35 Column_36 Column_37 Column_38 Column_39 Column_40 Column_41 Column_42 Column_43 Column_44 Column_45 Column_46 Column_47 Column_48 Column_49 Column_50 Column_51 Column_52 Column_53 Column_54 Column_55 Column_56 Column_57 Column_58 Column_59 Column_60 Column_61 Column_62 Column_63 Column_64 Column_65 Column_66 Column_67 Column_68 Column_69 Column_70 Column_71 Column_72 Column_73 Column_74 Column_75 Column_76 Column_77 Column_78 Column_79 Column_80 Column_81 Column_82 Column_83 Column_84 Column_85 Column_86 Column_87 Column_88 Column_89 Column_90 Column_91 Column_92 Column_93 Column_94
feature_infos=[438:520] [382:614] [256:768] [52:999] [438:516] [182:814] [351:653] [317:635] [346:607] [193:828] [228:829] [348:661] [263:719] [207:794] [450:505] [84:785] [296:735] [347:612] [276:677] [142:920] [0.037272845482987545:0.96766747736085645] [0.0044666200003674258:0.99787880111499716] [0:1] [0:1] [0:1] [0:1] [0:1] [0:1] [0:1] [0:1] [0.0035183431936774497:0.99927152305782485] [0.0010537458846836959:0.99932893635253484] [0.0027346193397830114:0.99924284082774473] [0.00064629110965295404:0.99962422321897948] [0.0052507666320513206:0.99688156133314298] [0:1] [0.0075081843676843363:0.99620532174494258] [0.0039794414873805016:0.99810177464091465] [0.014379508170872498:0.99385158219611891] [0.040842301819286088:0.97481719971729752] [0:1] [0.0010472890541547493:0.99967310971025936] [4.3259336796308814e-08:0.9999998357798795] [5.589991074188034e-06:0.99999126834184104] [1.2468564927256678e-06:0.99999496696152523] [1.7132890173998371e-05:0.99998244359395794] [5.1339252598136488e-07:0.9999973278808163] [2.0196197674703874e-05:0.99993678396153796] [0.00071790984018298425:0.99879853215932868] [6.01033866510644e-08:0.99999994476952148] [1.9391933392006245e-05:0.99999828112579969] [0.0001011096901493147:0.99980884790420532] [0.00080827460624277592:0.99949741363525391] [5.7012174320804543e-18:1] [3.9359829937481265e-27:1] [0.00085811852477490902:0.99728274345397949] [2.4696424864579662e-09:0.99999999677849449] [8.7715521065847314e-13:1] [0.0046482039615511894:0.99649733304977417] [6.0524124603321399e-11:1] [0.00029035125044174492:0.99958306550979614] [3.5098515122704958e-20:0.999999999999998] [0.035006933742168608:0.99999999997209232] [0.009519270621240139:0.99504601955413818] [4.308624708619332e-08:0.99999999819032981] [3.5411367094322405e-13:1] [0.001087893033400178:0.99878233671188354] [0.005268558394163847:0.98955976963043213] [0.033568662847345616:0.98430728257373179] [6.166946753899406e-05:0.99999405345797177] [0.0058258059434592724:0.98988360166549683] [0.02068827531012405:0.97212998751660573] [0.032931943301051828:0.98547536252454293] [0.0024096385542168677:0.99892923367472819] [0.0021036411635577679:0.99910718202590942] [0.006329692766707965:1] [0.0032938076416337285:0.99920842349138472] [0.0038140454001189014:0.99940191387559807] [0.032093951309124999:0.96880809852826677] [0.048180871996975183:0.95959551374069008] [0.0092002688172043018:0.9982748184019371] [0.026371163837742968:0.99636786967924873] [0.064149231800819356:0.95697315668091965] [0.013601286828334657:1] [0:1] [0.0093853918738711368:0.99634563090187267] [0.065182105230655707:0.96557779219768303] [0.087266349045332481:0.98666666666666669] [0.044305260187613126:0.96005550299512477] [0.058361572203976218:0.97439663288968925] [0.080158215135502614:0.93242444790033308] [0:1] [0.20598006644518271:0.94117647058823528] [0.20598006644518271:0.78287461773700306] [0.14680717059132273:0.89825319488256195]
tree_sizes=3859 5966 6719 6713 6723 6741 6762 6745

Tree=0
num_leaves=36
num_cat=0
split_feature=20 27 25 77 67 31 67 25 12 40 34 54 94 6 32 58 65 8 37 40 72 13 34 38 37 50 45 6 81 19 1 13 53 11 1
split_gain=812.82 34.4264 26.6936 8.88898 9.27044 7.84182 6.48762 9.22643 5.72024 5.8217 5.40005 4.53805 4.4015 4.34676 3.964 3.23186 3.03485 2.13425 2.13335 1.78507 3.60003 0.999773 0.904233 0.886574 0.860546 2.62567 0.84474 1.23872 0.425345 0.414541 0.566672 0.254835 0.231918 0.209917 0.133335
threshold=0.50021818601305323 0.643837631462164 0.32581710978115735 0.46384247191542477 0.21846301108598712 0.39578316593266821 0.7912576198577882 0.63304024155261052 493.00000000000006 0.61474705228048432 0.41818047016801141 0.89280865039278301 0.52754114985688305 573.50000000000011 0.75981518155771055 0.85953223705291759 0.68150831874359119 424.50000000000006 0.43303059352569856 0.29046777727943168 0.35872101336881718 660.50000000000011 0.7024970990093381 0.37027799405328093 0.71494286439147459 0.86458204714669629 0.29871864325536435 487.50000000000006 0.058453815714941203 628.00000000000011 523.50000000000011 282.50000000000006 0.39446828982487819 408.50000000000006 487.50000000000006
decision_type=2 2 2 2 2 2 2 2 2 2 2 2 2 2 2 2 2 2 2 2 2 2 2 2 2 2 2 2 2 2 2 2 2 2 2
left_child=2 6 5 4 -4 16 8 -8 14 -10 -7 13 -6 15 -2 24 19 -13 -5 21 -21 23 -19 26 25 -3 28 -28 -1 31 -31 -24 33 -30 -22
right_child=1 11 3 18 12 10 7 -9 9 -11 -12 17 -14 -15 -16 -17 -18 22 -20 20 34 -23 29 -25 -26 -27 27 -29 32 30 -32 -33 -34 -35 -36
leaf_value=-0.16679045554230673 0.20562696690288579 0.20562696690288568 -0.10741956210901507 -0.19437693127898767 0.12141561991722841 0.0056250178119491602 -0.11937620036988636 0.098959260721053002 0.11471699004336927 -0.034375372006238199 -0.14437644400625346 0.13895965053924039 -0.016597420975932704 0.05562550508468337 0.072292334175594761 0.10127812389891896 -0.087709225097154703 0.15229311381196953 -0.087709225097154675 -0.061042298551696482 -0.1677100047335294 -0.14220250977700416 0.17896004035742777 -0.14993205370322393 0.20562696690288601 0.098959260721053002 -0.11437615164261294 -0.19437693127898764 -0.17215449249110581 0.15229311381196953 0.20562696690288598 0.20562696690288601 -0.16771000473352946 -0.19437693127898767 -0.19437693127898764
leaf_weight=7.2499291300773612 5.4999462366104179 5.9999413490295499 5.7499437928199795 3.7499633431434622 4.7499535679817182 3.9999608993530256 3.9999608993530265 3.7499633431434631 5.4999462366104108 4.9999511241912842 5.999941349029541 5.9999413490295401 4.4999560117721558 3.9999608993530265 3.7499633431434631 5.7499437928199759 3.7499633431434622 3.7499633431434622 3.7499633431434631 3.7499633431434614 3.7499633431434631 5.7499437928199759 3.7499633431434622 6.7499340176582328 10.749894917011259 3.7499633431434631 3.7499633431434622 3.9999608993530273 4.4999560117721549 3.7499633431434622 4.2499584555625916 80.74921065568924 3.7499633431434622 76.749249756336212 3.7499633431434631
leaf_count=29 22 24 23 15 19 16 16 15 22 20 24 24 18 16 15 23 15 15 15 15 15 23 15 27 43 15 15 16 18 15 17 323 15 307 15
internal_value=0.00625002 0.165627 -0.153127 -0.0521533 -0.00770845 -0.169649 0.0638074 -0.01373 0.0942335 0.0437206 -0.0843759 0.186759 0.0542741 0.152734 0.151572 0.167531 -0.176338 0.196825 -0.141043 -0.179023 -0.141043 -0.182821 0.200432 -0.185009 0.186115 0.164601 -0.187377 -0.155667 -0.190041 0.202384 0.180627 0.204444 -0.192024 -0.193146 -0.181043
internal_weight=0 159.998 159.998 22.4998 14.9999 137.499 27.4997 7.74992 19.7498 10.4999 9.9999 132.499 9.24991 30.2497 9.24991 26.2497 127.499 102.249 7.49993 123.749 11.2499 112.499 96.2491 106.749 20.4998 9.7499 99.999 7.74992 92.2491 92.4991 7.99992 84.4992 84.9992 81.2492 7.49993
internal_count=1280 640 640 90 60 550 110 31 79 42 40 530 37 121 37 105 510 409 30 495 45 450 385 427 82 39 400 31 369 370 32 338 340 325 30
is_linear=0
shrinkage=1


Tree=1
num_leaves=56
num_cat=0
split_feature=20 28 28 53 63 90 59 28 64 42 11 24 65 2 63 90 84 24 19 42 78 43 76 16 65 53 0 0 19 49 89 28 74 91 20 56 5 64 42 65 83 64 10 10 8 19 8 11 10 19 16 20 0 0 0
split_gain=663.85 28.888 22.1947 9.56529 13.9835 6.54503 7.58961 6.4947 5.8457 6.15132 5.80581 7.40762 7.31669 5.16888 11.5515 4.70517 3.1057 1.94856 1.87524 1.5656 1.36231 0.781305 0.689317 0.747781 0.598069 0.487893 0.479681 1.25521 0.504197 0.223175 0.175436 0.0106718 0.00940345 0.00881583 0.00822331 0.00597841 0.00454341 0.0039925 0.00328479 0.00180043 0.00173558 0.0012965 0.00129145 0.000755894 0.00120437 0.000436613 0.000384573 0.000267766 0.000196521 0.00024953 0.000188831 7.86891e-06 2.84217e-14 1.42109e-14 1.42109e-14
threshold=0.50021818601305323 0.59496912787693768 0.35871389572038964 0.9807936816102174 0.5528073012828828 0.54120105674904895 0.022190422247345524 0.81515226744540559 0.2565619216494886 0.0011167831934040765 514.50000000000011 0.68810732123979557 0.96905923256228688 557.50000000000011 0.27065847814083105 0.29687353409567668 0.54911228704051296 0.3128577939648049 650.50000000000011 0.19706249342476392 0.57504693785494587 0.75513117021142817 0.03828014900943038 387.50000000000006 0.48521475303580658 9.2471183769027099e-08 467.50000000000006 466.50000000000006 319.50000000000006 0.99975557076750665 0.089247556030869465 0.78686403286029505 0.16488855332136157 0.38503086419753091 0.2286465782344064 0.91233333607444622 557.50000000000011 0.84841394612981424 0.99905228996400852 0.092856787368941054 0.47380670662570717 0.040826186240307157 326.50000000000006 617.50000000000011 449.50000000000006 591.50000000000011 427.50000000000006 419.50000000000006 379.50000000000006 420.50000000000006 594.50000000000011 0.080543781391610406 500.50000000000006 497.50000000000006 485.50000000000006
decision_type=2 2 2 2 2 2 2 2 2 2 2 2 2 2 2 2 2 2 2 2 2 2 2 2 2 2 2 2 2 2 2 2 2 2 2 2 2 2 2 2 2 2 2 2 2 2 2 2 2 2 2 2 2 2 2
left_child=2 3 8 4 -2 6 -4 10 17 -10 11 20 -13 14 -8 -11 32 19 24 22 -3 -12 -1 -24 -9 -25 27 29 -28 36 -27 -23 -17 -34 39 37 -26 38 -30 40 43 -41 -37 46 -45 48 -32 -48 49 -44 51 -49 -50 54 -53
right_child=1 7 5 -5 -6 -7 13 18 9 15 21 12 -14 -15 -16 16 -18 -19 -20 -21 -22 31 23 25 26 30 28 -29 35 -31 34 -33 33 -35 -36 42 -38 -39 -40 41 -42 -43 45 44 -46 -47 47 50 52 -51 -52 53 -54 -55 -56
leaf_value=-0.13691084882551138 0.076378358508874353 0.18744472611444091 -0.14587845846861688 0.13775075402830864 -0.13206287970519814 -0.15352920043221227 -0.16833990318559328 0.13894276538286118 0.0017151821032820058 -0.041086073608450985 0.13238599825310257 -0.044924292139483984 0.13360729062347729 0.089411617409760086 0.039656068912333163 -0.18307947824766241 -0.082839021404584462 -0.10996156532830813 0.11703600155150869 -0.11250127433072959 0.10656194838414997 0.19038566718731764 -0.13705307375339024 -0.15510975757852516 0.1860374445635965 -0.16401692886209335 0.15440683493863844 0.11561208575453297 0.18351025752974312 0.15562273463494963 -0.18353792984060785 0.18354851090540755 -0.19238351701599549 -0.18582693089821353 -0.18697151097201437 0.18316346609961023 0.1817456078994909 0.18224761412435225 0.18771028575346008 -0.18552316782077949 -0.18491266370409423 -0.18338978736493664 0.18251956503011493 -0.18489341192864953 -0.1825561609129269 0.18262566470007235 -0.1833224415059907 -0.18248863783594765 0.18141366786672677 0.18141366786672675 -0.18298349783196818 -0.18233475160679422 0.18141366786672677 -0.1823347516067943 -0.1823347516067943
leaf_weight=4.2191217094659796 6.9671695828437823 4.7224895358085686 4.7267937660217347 5.4752300679683676 5.981697291135788 5.9606678932905188 4.2355480790138227 4.4625861793756476 3.7270458787679699 3.9839810431003597 3.7215681076049796 5.9722839444875699 3.7287357300519943 4.4850456565618506 7.2244541943073273 3.9656017720699301 3.7350518703460684 4.9781391769647589 5.9541306793689719 3.9792379140853873 3.7249131202697754 4.2311608493328077 4.218468874692916 7.1864546388387671 5.9626924395561236 4.9618445485830298 7.1801437437534323 4.4583606570959082 3.7174421548843366 3.7149013727903357 3.9672591239213935 4.957868292927742 3.985209181904791 4.22468201816082 5.9649275541305533 5.6993958801031104 4.206810787320137 6.6842966973781586 3.7309839576482773 4.7181645780801755 3.9715573638677588 7.1890570670366287 3.9629925638437253 3.9726006686687452 4.954154908657074 3.7150112986564627 3.7188280522823325 3.7154168635606757 37.353754982352257 4.2053896337747574 5.4520781785249701 15.602163881063467 4.2053896337747565 4.4577611088752738 11.3920561671257
leaf_count=17 28 19 19 22 24 24 17 18 15 16 15 24 15 18 29 16 15 20 24 16 15 17 17 29 24 20 29 18 15 15 16 20 16 17 24 23 17 27 15 19 16 29 16 16 20 15 15 15 151 17 22 63 17 18 46
internal_value=0 0.144668 -0.144497 0.0269429 -0.0199106 -0.06121 -0.0345901 0.16013 -0.16127 -0.116185 0.119781 0.0833144 0.0236971 -0.00159944 -0.037218 -0.138272 -0.162608 -0.171075 0.171605 -0.17401 0.151779 0.171041 -0.176466 -0.178215 0.174752 -0.180118 0.176369 0.161776 0.179696 0.176599 -0.182257 0.186697 -0.187078 -0.18901 -0.183401 0.182174 0.184262 0.184022 0.185614 -0.18311 -0.182891 -0.184235 0.181733 -0.182751 -0.183596 0.18158 -0.182595 -0.18251 0.181502 0.18195 -0.182436 -0.182351 0.181414 -0.182335 -0.182335
internal_weight=0 158.697 158.873 18.4241 12.9489 26.6325 20.6718 140.273 132.241 23.6216 31.059 18.1484 9.70102 15.945 11.46 19.8945 15.9105 108.619 109.214 103.641 8.4474 12.9106 99.6619 95.4428 103.26 91.2243 98.7976 18.3428 80.4548 13.8844 84.0379 9.18903 12.1755 8.20989 79.076 73.2747 10.1695 14.1327 7.44843 73.1111 61.2039 11.9072 59.1419 57.2323 8.92676 53.4425 48.3056 44.3383 49.7275 8.16838 40.6195 35.1674 41.5591 31.452 26.9942
internal_count=1280 640 640 74 52 107 83 566 533 95 125 73 39 64 46 80 64 438 441 418 34 52 402 385 417 368 399 74 325 56 339 37 49 33 319 296 41 57 30 295 247 48 239 231 36 216 195 179 201 33 164 142 168 127 109
is_linear=0
shrinkage=0.1


Tree=2
num_leaves=63
num_cat=0
split_feature=24 31 59 61 48 60 72 24 49 30 18 31 65 17 84 62 10 93 18 34 8 64 65 48 4 18 76 57 60 1 11 59 11 35 8 34 40 78 54 8 54 17 67 67 69 42 49 49 53 60 2 2 55 15 65 72 2 57 53 10 8 71
split_gain=514.373 46.0918 25.5127 9.20469 9.00406 10.2283 8.74371 7.94636 7.93716 7.11412 11.2287 8.87761 6.54191 7.04685 4.87353 3.27757 2.89018 2.66086 1.68461 5.95452 1.56364 1.21511 4.08174 1.21414 0.761773 0.737528 0.696778 0.694578 1.77572 0.247024 0.246445 0.229614 0.210516 0.0656943 0.0152057 0.0110503 0.0098818 0.00521947 0.00486725 0.00414583 0.00348118 0.00239041 0.0019964 0.00159048 0.00145301 0.00114845 0.00112515 0.00105208 0.000786068 0.000772989 0.000737467 0.00061596 0.000365447 0.000286127 0.000209162 0.000158641 7.83237e-05 0.000141386 1.15761e-05 1.46623e-06 1.32165e-06 1.26612e-06
threshold=0.35761837327617269 0.48756236843688333 0.63659092033945675 0.78917549293500622 0.28817139446045531 0.7626858949661256 0.53495719156689636 0.26639549399656653 0.47817545334728057 0.84940612702164831 478.50000000000006 0.7791597094247128 0.06534562629488698 473.50000000000006 0.39222360137987128 0.4382199689018435 463.50000000000006 0.51011728892470243 408.50000000000006 0.88848392320799008 447.50000000000006 0.20832302764689506 0.05976361660422954 0.31822274574133175 495.50000000000006 608.50000000000011 0.03828014900943038 0.89131251132770495 0.90966880321502697 452.50000000000006 600.50000000000011 0.32446013884381436 408.50000000000006 0.70000000000000007 485.50000000000006 0.1675374314662311 0.68958522948786682 0.61212064965474122 0.8325604191546585 448.50000000000006 0.87945831680820663 546.50000000000011 0.32601621747016912 0.044744117185473449 0.9769228685152187 0.0212176471628398 0.99945335270575553 0.92037595747926215 1.270450389438821e-07 0.01139157358556986 451.50000000000006 486.50000000000006 0.1725842282176018 370.50000000000006 0.92997973747720342 0.14531014244944548 454.50000000000006 0.0022442481838161458 0.048772300276892118 379.50000000000006 449.50000000000006 0.66983086761984512
decision_type=2 2 2 2 2 2 2 2 2 2 2 2 2 2 2 2 2 2 2 2 2 2 2 2 2 2 2 2 2 2 2 2 2 2 2 2 2 2 2 2 2 2 2 2 2 2 2 2 2 2 2 2 2 2 2 2 2 2 2 2 2 2
left_child=2 6 7 9 -4 -6 8 21 14 10 -3 16 17 -14 -2 -10 -12 35 19 -5 -11 23 -23 24 26 27 -1 28 37 -24 33 32 -28 -29 -31 -9 -35 -20 -22 44 -41 42 43 49 51 48 -21 50 -45 -34 -42 -38 55 -49 -55 -50 57 -57 60 -56 -58 -61
right_child=1 3 4 18 5 -7 -8 12 15 20 11 -13 13 -15 -16 -17 -18 -19 25 46 38 22 29 -25 -26 -27 31 30 -30 34 -32 -33 41 36 -36 -37 39 -39 -40 40 47 -43 -44 45 -46 -47 -48 53 52 -51 -52 -53 -54 54 59 56 58 -59 -60 61 -62 -63
leaf_value=-0.12534481027903702 0.019111563855997733 0.17913530855962609 -0.11826292743422083 0.01720222252058301 0.12630399715067087 -0.083646845979023748 -0.1462909302306343 -0.17526376178036995 0.15806338438422823 0.094948455608242513 0.13331012494411448 -0.10488749004419469 -0.10704801716645723 0.051991113182611161 -0.13616386081137277 0.024741084861771828 0.010153921551978829 -0.077988348419422426 0.17536353854214015 0.16820876215520275 0.17396711153100031 -0.069881363837447169 -0.14659658427288938 -0.10972343804844631 -0.12007927966566537 0.12193066675579203 -0.14645587023916079 0.18142922464549757 0.096126987865264815 -0.17395277108538307 0.14481188863239622 -0.14274656553580084 -0.16974593564701557 0.17426583635049334 -0.18265842068677035 -0.18288313408498874 0.17041289460416142 0.17024582484851936 0.16941104567498808 0.17130832449339284 0.17039557668008359 -0.17152028410343376 -0.17125925929260319 -0.17037419870807208 0.17149710745918789 -0.17044801902851969 0.17051466849495484 0.1686931811010573 -0.16928349971605794 -0.17161914498204806 0.16841059220992993 0.16859910851206153 -0.16980691305442877 0.16862010725008691 0.16783501146893517 -0.16857802525879595 -0.16854132908617314 -0.16942376408587029 -0.16876831869568409 0.16784198648671037 -0.16859537716400411 0.16790043355136208
leaf_weight=4.1509722024202338 4.4423680007457751 5.1383934468030992 4.8949214965105048 3.6645159423351279 6.1852809786796552 3.7135816067457199 4.191629245877265 3.6705669164657611 3.7006042152643195 3.6738365441560736 3.6949226260185224 4.702391654253006 6.4011308550834638 4.9331486374139786 3.7089554071426392 3.6752379536628723 3.9346607327461243 3.9380459934473038 3.6704637110233289 5.0618970394134504 3.6590827256441099 6.5991582721471813 3.6536421924829474 4.4192908257246009 3.8865655213594428 4.1196419298648825 4.1245614588260642 4.6869461834430686 4.8855668157339087 4.3952715396881086 4.107712745666503 3.6337952613830558 5.0827895551919919 3.6580731868743888 3.6913551539182663 3.9536655247211456 3.6353635191917402 4.3601633757352829 6.5280446410179138 4.1269948333501807 3.6345396637916556 6.3190481960773459 5.8261614590883246 3.6364183425903311 6.8042223900556564 5.8137687295675269 3.6360491514205933 6.5170633792877188 5.0766649246215811 3.8880471587181091 3.8588358163833618 3.8606948852539062 3.6306668221950522 4.3429020494222632 6.261264473199847 4.3436560332775107 6.0322530418634477 3.6273754835128784 3.8629150688648215 4.5756269991397884 18.099422931671143 19.509849816560745
leaf_count=17 18 21 20 15 25 15 17 15 15 15 15 19 26 20 15 15 16 16 15 21 15 27 15 18 16 17 17 19 20 18 17 15 21 15 15 16 15 18 27 17 15 26 24 15 28 24 15 27 21 16 16 16 15 18 26 18 25 15 16 19 75 81
internal_value=0 0.12503 -0.132065 0.145149 -0.00732006 0.0475404 -0.018128 -0.145566 0.0164701 0.097381 0.0549369 0.0031869 -0.0918149 -0.0378276 -0.0515407 0.0916315 0.0697971 -0.144738 0.158883 0.124125 0.150878 -0.156382 -0.132807 -0.160911 -0.163396 0.16333 -0.165328 0.165174 0.143665 -0.168177 0.168665 -0.167327 -0.168453 0.169964 -0.177927 -0.179215 0.169204 0.172585 0.171048 0.168929 0.16852 -0.169659 -0.169488 -0.169325 0.170439 -0.16912 0.169173 0.168283 -0.16896 -0.170558 0.169373 0.169479 -0.168845 0.168085 0.167971 -0.16876 -0.168686 -0.168963 -0.168608 0.167878 -0.168582 0.167889
internal_weight=0 160.029 151.484 140.31 14.7938 9.89886 19.7188 136.69 15.5272 31.3313 17.4704 12.332 22.8966 11.3343 8.15132 7.37584 7.62958 11.5623 108.978 12.3625 13.861 113.794 18.3394 95.4544 91.0351 96.6159 87.1485 92.4963 12.9162 11.7403 79.5801 82.9975 79.3637 75.4724 8.08663 7.62423 70.7854 8.03063 10.1871 67.1274 52.8271 75.2392 68.9201 63.094 14.3003 54.1231 8.69795 48.7001 48.3094 8.97084 7.49338 7.49606 44.673 41.2067 34.6896 41.0423 35.9656 7.97103 27.9946 30.3467 24.1317 24.0855
internal_count=1280 658 622 578 60 40 80 562 63 128 71 50 93 46 33 30 31 47 450 51 57 469 75 394 376 399 360 382 53 48 329 343 328 312 33 31 293 33 42 278 219 311 285 261 59 224 36 202 200 37 31 31 185 171 144 170 149 33 116 126 100 100
is_linear=0
shrinkage=0.1


Tree=3
num_leaves=63
num_cat=0
split_feature=28 53 54 56 38 5 28 30 40 54 24 60 59 56 57 64 59 59 48 1 34 5 8 39 16 64 53 90 0 18 81 0 55 57 28 53 39 47 81 18 73 0 28 44 53 44 64 17 8 1 64 73 90 59 5 78 17 94 48 3 86 0
split_gain=441.272 27.6303 25.1455 10.8713 9.75137 7.5327 6.59305 5.58633 5.30605 4.97645 6.3446 5.45288 4.41706 3.26576 2.47721 1.74116 1.89474 4.18903 1.59515 1.25507 1.48579 1.42837 0.809725 0.756873 0.666146 0.562109 1.2408 0.418016 0.31513 0.705516 0.275758 0.17978 0.132946 0.0302932 0.0253839 0.0242958 0.00577187 0.00519135 0.0041435 0.00247611 0.00233741 0.00169263 0.00163966 0.00117553 0.00102168 0.000772205 0.000706638 0.000531798 0.000437987 0.000348087 0.000375184 0.000237345 0.000171101 0.000147642 0.000191676 5.7587e-05 5.50419e-05 4.66648e-05 3.3464e-06 2.54002e-06 1.20769e-06 1.19977e-06
threshold=0.56760372194228614 0.25468471686055311 0.17117490563544621 0.75051192159368407 0.65517219800391702 446.50000000000006 0.63059307548368448 0.52538930483027102 0.29046777727943168 0.82760851480052811 0.33322123225094896 0.1225642003118992 0.15297315031624381 0.12365130217161267 0.3857395527938296 0.9476650542435382 0.99811108067852772 0.99996468456893794 0.31822274574133175 460.50000000000006 0.76407714339029909 433.50000000000006 523.50000000000011 0.36774524468234798 383.50000000000006 0.2565619216494886 0.012146861024328159 0.16914039928137672 466.50000000000006 537.50000000000011 0.43056899768833629 476.50000000000006 0.01433432148769498 0.96128385210341716 0.81515226744540559 0.90121952144679052 0.38479226037265679 0.92208765256753467 0.66552100699080585 602.50000000000011 0.036980782483503928 468.50000000000006 0.18153018854230585 0.8288978390220435 9.2471183769027099e-08 0.25490915808267722 0.83523624327866097 546.50000000000011 556.50000000000011 425.50000000000006 0.1727870245206006 0.073237965804266794 0.48627221378835478 0.99999996356593457 380.50000000000006 0.18960846975669085 439.50000000000006 0.6647552778888185 0.054523277336227798 705.50000000000011 0.7650695475248116 464.50000000000006
decision_type=2 2 2 2 2 2 2 2 2 2 2 2 2 2 2 2 2 2 2 2 2 2 2 2 2 2 2 2 2 2 2 2 2 2 2 2 2 2 2 2 2 2 2 2 2 2 2 2 2 2 2 2 2 2 2 2 2 2 2 2 2 2
left_child=1 8 6 5 -5 30 -2 -4 18 10 11 -7 13 31 -9 16 19 -18 24 34 -21 -22 35 -13 -1 27 -27 -26 29 -17 -3 -10 -29 -30 -16 -23 40 -37 -36 41 -34 -35 44 -43 -42 47 -40 49 53 -46 51 -51 55 54 -45 -53 57 -56 61 60 -58 -57
right_child=2 3 7 4 -6 9 -8 14 12 -11 -12 23 -14 -15 15 28 17 -19 -20 20 21 22 -24 -25 25 26 -28 32 33 -31 -32 -33 36 39 38 37 -38 -39 46 -41 42 43 -44 48 45 -47 -48 -49 -50 50 -52 52 -54 -55 56 58 59 -59 -60 -61 -62 -63
leaf_value=-0.11069081348108861 -0.10958040121358451 -0.13804641179430494 0.049368990787954724 0.11669255840896474 -0.066930652490330075 -0.0018657804929764809 0.052840918156129714 0.083405261627835112 -0.1395703540426699 0.059347993344137366 0.025459788142360676 -0.11140932855110437 -0.0045252477680056812 -0.041857174906327101 0.16920862642005485 0.16006659610960178 0.026011344223586936 0.16070357718010378 -0.09544361078999801 0.082122645941249989 0.081895657450916592 0.16972196504210832 0.11039060382679614 -0.17041579935308993 -0.13209487477446893 -0.084775329182875503 -0.16547169144408699 -0.1440128719914891 0.16646433521406903 0.10382579081705551 -0.17500997224705434 -0.16982208979875735 -0.16143868788149252 0.16003208653245932 0.16208511681368218 0.16308434838266017 -0.16295090868347767 0.15839696959129998 0.1595219976541479 0.16063837382004117 -0.16015106719993408 0.15929231340271247 -0.16059449233340731 0.15822681079198853 -0.15928226972474979 -0.15976420070890754 0.15759597002105272 -0.15953017054204618 0.1588130818266815 -0.15884472127867136 -0.15923639586274196 -0.15829633586358402 -0.15860006936654164 0.15825896942108181 0.15751592549943733 -0.1578853855137341 0.15737911200402718 0.1579668699137321 -0.15785402417938019 0.1574399824943693 0.15731573781052877 -0.15794933899186986
leaf_weight=3.7964190840721121 4.8952512294054014 3.5767966806888598 6.7994269281625739 6.5995309203863126 5.148119643330574 3.5978813767433229 5.1059686094522476 6.7441144436597815 3.5860844552516955 3.692214995622634 5.1496134102344504 3.5786334276199323 4.6272095441818228 3.6517574936151505 3.8470057249069223 6.090948134660719 4.7889501899480802 4.4589236080646515 5.3143964111804953 5.7249755114316967 3.5641167312860516 3.6100513041019466 3.7791591584682456 5.5376083850860596 6.8295066952705374 3.6000273972749701 4.0479708611965179 6.3204951584339133 4.9877178668975821 3.5192620903253555 4.631916880607605 4.3442016094923019 3.5334657728672019 4.2179905474185935 5.4260751307010651 3.7873155325651151 3.782090723514556 6.2816396355628967 3.5042296499013901 4.2275469005107871 4.2207988500595084 5.6049927473068228 4.6939518749713889 3.9534137248992911 3.5042647868394843 4.6802349835634223 4.1737460941076279 3.975539118051528 3.4965877383947364 4.4296430945396414 3.5026140958070746 4.6527493298053768 5.1245192885398856 3.487807407975196 6.7224538922309893 3.715393126010901 8.5715851634740847 3.4841531813144684 6.9653522819280616 5.098064959049224 4.631899267435073 13.936831668019293
leaf_count=16 20 15 28 27 21 15 21 28 15 15 21 15 19 15 16 26 20 19 22 24 15 15 16 23 29 15 17 27 21 15 19 18 15 18 23 16 16 27 15 18 18 24 20 17 15 20 18 17 15 19 15 20 22 15 29 16 37 15 30 22 20 60
internal_value=0 -0.115311 0.126323 -0.0452327 0.0362242 -0.0773825 -0.0266587 0.137691 -0.140211 -0.0463384 -0.0681825 -0.10611 -0.0871135 -0.120109 0.142391 0.145677 0.132076 0.0909541 -0.148764 0.140778 0.127287 0.139586 0.151364 -0.147252 -0.151737 -0.15344 -0.127487 -0.155806 0.156253 0.139471 -0.158904 -0.156142 -0.157908 0.159011 0.162067 0.162684 -0.15915 0.16016 0.15997 0.158316 -0.158936 0.158117 -0.158796 0.157937 -0.158652 -0.158536 0.158475 -0.158421 0.157745 -0.158324 -0.158245 -0.158156 -0.158067 0.157641 0.157574 -0.157974 0.157484 0.15767 -0.157913 0.15738 0.157357 -0.157936
internal_weight=0 158.348 144.585 41.5123 11.7477 29.7647 10.0012 134.584 116.836 21.556 17.8637 12.7141 16.2093 11.582 127.785 121.041 52.9462 9.24787 100.626 43.6983 26.7473 21.0223 17.4582 9.11624 95.3119 91.5154 7.648 83.8675 68.0944 9.61021 8.20871 7.93029 77.0379 58.4842 16.9511 13.679 70.7174 10.069 13.1041 53.4965 66.9354 49.2689 63.4019 45.051 58.7079 54.4871 7.67798 49.8069 39.446 45.8314 42.3271 38.8245 34.3948 35.9494 32.4616 29.2703 28.5082 10.2066 24.6176 18.3015 13.2035 17.6522
internal_count=1280 667 613 171 48 123 41 572 496 89 74 53 67 48 544 516 224 39 429 185 113 89 74 38 407 391 32 359 292 41 34 33 330 251 72 58 303 43 56 230 287 212 272 194 252 234 33 214 170 197 182 167 148 155 140 126 123 44 106 79 57 76
is_linear=0
shrinkage=0.1


Tree=4
num_leaves=63
num_cat=0
split_feature=23 31 31 68 54 36 49 61 47 39 42 65 42 4 52 58 58 18 34 16 18 57 60 17 48 61 84 65 54 36 45 10 58 47 52 23 36 40 57 33 53 78 76 0 90 54 66 16 84 0 4 0 53 74 90 12 0 14 49 55 93 36
split_gain=361.928 35.1297 18.7671 10.1715 8.67037 8.36451 7.92282 7.60266 6.04732 5.38642 7.66033 4.69612 6.3319 4.57283 3.73139 3.71698 2.3826 1.49905 5.0745 1.31703 0.70303 0.640092 1.68386 0.638936 2.3842 0.645904 1.72288 0.546975 1.10415 1.69624 0.237141 0.210558 0.207052 0.20372 0.0469356 0.041579 0.0217206 0.0202525 0.0157494 0.00555461 0.00507343 0.00449024 0.00442351 0.00438689 0.00326151 0.00276895 0.00248464 0.00169387 0.00127702 0.0011494 0.000918986 0.000934355 0.000577458 0.000538208 0.000497547 0.000436349 0.00042025 0.000257448 0.000220167 0.000163763 0.000154576 0.000141719
threshold=0.35761837327617269 0.48756236843688333 0.3859218247046059 0.54875481475291188 0.15668085438455551 0.63625552058201407 0.47817545334728057 0.78917549293500622 0.23128126655635514 0.71165470797822949 0.99572966506769822 0.20499751099421021 0.16551172279208154 474.50000000000006 0.3814720362424851 0.15439814329147342 0.5172153413295747 408.50000000000006 0.88848392320799008 634.00000000000011 608.50000000000011 0.89131251132770495 0.90966880321502697 542.50000000000011 0.063315163641809488 0.00012370724300985952 0.19418329648047525 0.049515517059611415 0.019036887252212968 0.20421085230366334 0.99966466207969507 457.50000000000006 0.068169798702001586 0.13118277113935975 0.34652355313301092 0.89622109737271394 0.80822657119830466 0.30034005062152253 0.055463206084479667 0.080113549771964485 0.13755868225287354 0.61212064965474122 0.041106134235433987 469.50000000000006 0.1966162644686712 0.90411745365707297 0.12170042470097543 417.50000000000006 0.45700520235209968 468.50000000000006 483.50000000000006 462.50000000000006 9.2471183769027099e-08 0.041016025468707092 0.20626599156115019 419.50000000000006 466.50000000000006 486.50000000000006 0.90721715962445659 0.025096686556935314 0.48710131332082557 0.13118120021124705
decision_type=2 2 2 2 2 2 2 2 2 2 2 2 2 2 2 2 2 2 2 2 2 2 2 2 2 2 2 2 2 2 2 2 2 2 2 2 2 2 2 2 2 2 2 2 2 2 2 2 2 2 2 2 2 2 2 2 2 2 2 2 2 2
left_child=2 3 11 6 14 -6 8 9 -2 10 13 19 15 -3 -4 -13 -15 18 -9 23 21 22 41 25 53 26 32 34 39 -30 35 -11 44 38 37 36 -23 40 -17 46 42 -19 -27 50 -1 -45 -29 -44 52 -20 51 -37 -49 -25 -54 57 -53 -47 -57 -56 -60 -61
right_child=1 7 4 -5 5 -7 -8 17 -10 31 -12 12 -14 16 -16 33 -18 20 49 -21 -22 30 -24 24 -26 27 -28 28 29 -31 -32 -33 -34 -35 -36 43 -38 -39 -40 -41 -42 -43 47 45 -46 55 -48 48 -50 -51 -52 56 54 -55 59 58 -58 -59 60 61 -62 -63
leaf_value=-0.1532701350982788 0.039536400467696936 0.013392970788037318 -0.030326495800528666 -0.14698631618295768 0.10481203443045356 -0.058538295109725205 0.10330049410230505 0.00704844057347539 -0.13413225776277279 0.12453742704489666 -0.073156942897335681 -0.049260772571566407 0.035810175003644189 0.065201193988978445 -0.16715782363916135 -0.15277607286093145 0.16173067494768972 0.15686698844431157 0.15160312984485605 -0.080982338592300196 0.10254231746437151 0.1630929907165144 0.077716133212945793 -0.15082258273494831 -0.052456066171607488 -0.15461337668599956 -0.074991296406757169 -0.15036102493433065 -0.062507362475035216 -0.15684027798391292 0.12665437639012159 0.15554842525435736 -0.1232093940592465 -0.12781711674899129 -0.16422898570856503 0.15253974274270393 0.15329920891481769 -0.15822361221912873 -0.16233610893633207 -0.1571165992742031 -0.15509409621593079 0.15195900154108108 -0.1524628057656886 0.15236627312053003 -0.14965557205361166 0.14953975743109113 -0.15407881846367272 -0.15140696489012426 -0.15229222733077344 0.14919343912468505 0.15307578266398353 0.14970197279957054 -0.15118383190658621 -0.15258228622075462 -0.1504372441837083 0.14992744071556249 0.15126298672285793 0.1507450224821853 0.1496753053551719 -0.14948071222793269 0.14906266081237124 -0.15017653069516038
leaf_weight=3.8518801182508486 4.1701475232839602 6.0043615102768042 3.5620937794446963 4.6239028126001349 6.4883362799882871 6.0648797452449799 6.7013113498687735 3.5801738500595084 3.8617950975894928 3.3953939378261548 3.8660647124052039 6.0962496697902742 3.5674629509448996 4.3000655323266965 4.5242588073015213 3.3855545371770841 6.3080219030380249 3.4576152116060239 3.5852371305227262 3.9007447212934485 3.8683929443359366 3.7770116031169874 4.6663614958524704 3.5731700211763364 3.7147014588117599 3.4245104789733878 4.7991891205310813 3.5620354712009448 4.3164939582347861 3.41361403465271 4.2278011888265601 6.1646915525197983 3.5752155631780616 3.4291812032461166 3.5421268641948691 3.383807420730589 5.6547999233007431 5.0989195108413687 3.5096466541290283 3.4535202383995056 3.654439002275466 4.0446062982082367 5.4078857451677314 3.3776120245456687 7.0936881005764008 3.765685409307479 3.6289783865213394 3.8115251362323823 3.5950212180614463 4.4195780754089355 3.3944353908300391 3.3256456255912781 3.3571488112211254 3.3842989504337311 3.7873581349849728 4.2174645066261283 3.5823918431997299 3.3478388637304306 4.8763144761323955 9.5220518708229047 26.496144846081734 4.2262389957904807
leaf_count=17 17 25 15 19 27 25 28 15 16 15 16 26 15 18 19 15 27 15 16 17 17 16 20 16 16 15 21 16 19 15 19 27 16 15 15 15 25 22 15 15 16 18 24 15 32 17 16 17 16 20 15 15 15 15 17 19 16 15 22 43 120 19
internal_value=0 0.108159 -0.114299 -0.0175914 -0.0261276 0.025892 0.023018 0.126728 -0.0439643 0.0825577 0.0536248 -0.129254 -0.0849424 0.0831296 -0.106883 -0.111176 0.122602 0.139858 0.106011 -0.137964 0.144241 0.146126 0.124883 -0.140236 -0.117142 -0.143065 -0.126935 -0.147662 -0.13293 -0.104165 0.149646 0.144534 -0.144103 -0.147736 -0.153138 0.151051 0.157221 -0.152282 -0.157642 -0.15382 -0.151539 0.154221 -0.151189 0.150077 -0.150928 0.14961 -0.152237 -0.150841 -0.150531 0.150273 0.151649 0.151178 -0.150275 -0.151679 -0.150069 0.149392 0.150511 0.150107 0.149249 -0.149855 0.149158 -0.149695
internal_weight=0 150.445 142.322 19.3572 20.6396 12.5532 14.7333 131.088 8.03194 30.0386 20.4785 121.683 19.9881 16.6124 8.08635 16.4206 10.6081 101.049 11.585 101.695 89.4639 85.5955 12.1686 97.794 10.6722 87.1218 19.32 67.8019 18.3746 7.73011 73.427 9.56009 14.5208 10.3244 49.4272 69.1992 9.43181 45.8851 6.8952 10.6445 40.7862 7.50222 37.1317 59.7673 10.9456 46.0811 7.19101 33.7072 28.2993 8.00482 13.6863 10.2918 24.7043 6.95747 20.8928 42.7034 6.90804 7.11352 35.5899 17.5356 31.3725 13.7483
internal_count=1280 658 622 80 86 52 61 578 33 128 86 536 86 70 34 71 45 450 51 450 399 382 53 433 47 386 86 300 81 34 329 42 65 45 219 310 41 204 30 47 182 33 166 269 49 208 32 151 127 36 61 46 111 31 94 193 31 32 161 79 142 62
is_linear=0
shrinkage=0.1


Tree=5
num_leaves=63
num_cat=0
split_feature=20 29 29 64 54 64 12 15 49 23 41 57 6 1 33 43 89 64 21 1 23 47 89 31 94 89 41 45 63 54 94 29 11 36 65 20 20 57 16 19 61 6 88 65 19 64 16 15 14 73 43 73 49 11 30 21 64 6 65 64 64 5
split_gain=331.554 17.6404 13.5308 4.14894 3.90741 4.86195 3.91787 4.89788 3.69808 4.93037 4.56764 3.61297 3.61906 2.89327 1.83215 5.76938 2.55836 1.37034 3.66846 4.74428 1.63493 1.51707 4.25992 1.30843 0.939287 0.435319 1.50983 0.360569 0.804928 0.358014 0.763339 0.257075 0.244907 0.0298858 0.0183232 0.0121454 0.00960714 0.00506164 0.00328134 0.00325588 0.00315507 0.00267877 0.0025148 0.0023236 0.00177622 0.00157299 0.000766098 0.000553058 0.000521785 0.000433713 0.000630059 0.000564494 0.000373692 0.000273665 0.000245978 0.000163396 0.000147052 0.000131636 0.000116029 7.54303e-05 8.89795e-05 4.91737e-05
threshold=0.50021818601305323 0.643837631462164 0.35871389572038964 0.67559856339815683 0.0031818901311294998 0.073997895781577339 500.50000000000006 393.50000000000006 0.91111149144190129 0.39369292809977346 0.53601097063948666 0.54726457289980568 558.50000000000011 485.50000000000006 0.91960491422437785 0.9864974486644168 0.77010687251855769 0.2565619216494886 0.1845075082614914 492.50000000000006 0.3128577939648049 0.17175238698917625 0.39596615785871697 0.79622415130638713 0.30753098110185989 0.1050744154594679 0.046611038069566402 0.99861430978383858 0.95400831103324901 3.3962899950136523e-06 0.4987328894317431 0.13147700005746649 440.50000000000006 0.6966797694962571 0.54385426749223609 0.77249022414275903 0.74093591200572229 0.88106525399765145 392.50000000000006 616.50000000000011 0.75812953035831476 580.50000000000011 0.14328986433825763 0.11161112637347251 319.50000000000006 0.12552988616494157 614.50000000000011 465.50000000000006 467.50000000000006 0.15082407763080777 0.0013810377850385633 0.24552352352972837 0.99994542930573227 545.50000000000011 0.19447187278788855 0.044195989188989572 0.0025096100492816311 557.50000000000011 0.96639364359634417 0.98934651799033235 0.99832551300487749 591.50000000000011
decision_type=2 2 2 2 2 2 2 2 2 2 2 2 2 2 2 2 2 2 2 2 2 2 2 2 2 2 2 2 2 2 2 2 2 2 2 2 2 2 2 2 2 2 2 2 2 2 2 2 2 2 2 2 2 2 2 2 2 2 2 2 2 2
left_child=2 8 3 17 -4 -6 7 -7 10 -10 -2 12 23 -12 15 16 32 20 19 -19 21 25 -23 -3 -16 26 42 35 -29 30 -27 -20 -13 -34 38 -26 -35 -37 -31 40 -39 44 -1 45 -42 46 49 -30 -46 56 51 -51 57 54 55 -52 -40 58 -50 -60 -61 -58
right_child=1 11 4 -5 5 6 -8 -9 9 -11 13 14 -14 -15 24 -17 -18 18 31 -21 -22 22 -24 -25 27 29 -28 28 47 34 -32 -33 33 36 -36 37 -38 39 43 -41 41 -43 -44 -45 48 -47 -48 -49 52 50 53 -53 -54 -55 -56 -57 61 -59 59 60 -62 -63
leaf_value=-0.14818390966395667 -0.0019029921148269867 0.15489040711632979 -0.13130420715461177 -0.043737925667495202 0.05461247661339013 -0.078062501928783085 -0.11363121332209905 0.069576512709693727 -0.10598578887360538 0.039200409788761999 0.052723823172569823 0.12013146938822233 -0.008216690422090861 0.16256202527449101 0.086417532015019075 -0.012386193423266098 0.056985984929798408 0.037130584594651878 -0.12379609877799735 -0.12655737162732139 -0.07348929229193539 -0.0073171629525736678 -0.15074195871463003 0.068504425342011108 0.14999386346852228 -0.14536709883544852 -0.068574115514827186 0.082391735475287428 0.14481823013679104 -0.14719673518399609 -0.084262546714544626 -0.15917914385758072 0.15673427027833745 0.1508819919204154 -0.15172763085032012 0.14726226556815977 0.14436073648619224 0.14623811665095315 -0.1434773105640515 0.14594224893270877 0.14516478073215927 0.14563728784837757 -0.14453483490309579 -0.14590336372337676 0.14375089819125461 -0.14526171471721727 -0.14499188052759732 0.14295247988737472 0.14283914087858196 -0.1435599929322546 -0.14341309352726517 -0.14544050334878533 0.14357691578262888 -0.14418187552877759 -0.14386897742795043 -0.14260123421698065 -0.14263035944436761 0.14292679528924571 0.14211143675952406 0.14284210163370181 0.14229139258584644 -0.14304599215184455
leaf_weight=3.7220026552677137 6.2011905163526562 3.6374804675579053 4.0796406567096737 6.3188889920711508 5.6898478567600277 4.9700266569852811 6.3704560846090308 4.1012442409992218 3.6207937300205213 6.6071044355630875 4.7465951889753324 3.4600278735160925 3.7695511430501938 4.8471803367137909 3.2355421483516684 3.429661512374877 4.1902355104684821 3.4654545187950125 3.5645682066678983 3.6206120699644089 4.60501505434513 3.3898517191410047 5.3222428411245346 3.3849218785762787 3.3134971410036078 5.5745804458856565 3.7296707034111023 3.1993762105703336 3.2033708691596985 3.2601141780614844 3.2284063994884491 4.8434770554304123 4.3356770873069754 3.5668832510709745 3.3462152481079093 3.912185162305831 6.1613776385784149 3.4483394026756278 4.4336643964052227 5.1692047566175452 3.2099909335374823 3.8671896308660498 3.8340287506580353 5.3764218240976325 4.4432669281959525 5.7823109924793235 3.2077200710773459 3.1521566361188889 5.2471628040075329 3.1694149672985104 4.0096655488014239 3.2160226404666901 3.5894475579261771 3.1854766309261313 3.6001554131507865 6.4939651638269424 6.9151044487953168 6.0897120684385291 10.008645519614221 4.4081375002861014 8.7727143466472608 4.8380309790372849
leaf_count=17 26 16 18 27 24 21 27 17 15 28 20 16 16 21 15 15 19 15 16 16 20 15 24 15 15 26 17 15 15 15 15 21 19 16 15 18 29 16 21 24 15 18 18 25 21 27 15 15 25 15 19 15 17 15 17 31 33 29 48 21 42 23
internal_value=0 0.108952 -0.108107 -0.122532 -0.0417053 -0.0244075 -0.0535241 -0.0113129 0.0346493 -0.0121972 0.0649843 0.125882 0.0708231 0.108219 0.131628 0.108144 0.127181 -0.127069 -0.0995088 -0.0465055 -0.1316 -0.134585 -0.0949358 0.113251 0.139172 -0.138854 -0.120635 0.141447 0.1233 -0.141807 -0.122958 -0.144179 0.143966 0.149829 -0.144534 0.144095 0.146752 0.14378 -0.144115 0.143546 0.143313 0.14311 -0.146332 -0.14393 0.142896 -0.143713 -0.143505 0.143893 0.142725 -0.143385 -0.143658 -0.144507 0.142606 -0.143345 -0.143156 -0.142911 -0.142987 0.142505 0.142414 0.142318 0.142476 -0.142801
internal_weight=0 140.229 141.264 116.053 25.2112 21.1316 15.4417 9.07127 26.0229 10.2279 15.795 114.206 10.792 9.59378 103.414 25.1439 21.7142 109.734 15.4941 7.08607 94.2401 89.6351 8.71209 7.0224 78.2699 80.923 11.2857 75.0344 9.5549 69.6373 8.80299 8.40805 17.524 14.0639 60.8343 65.4795 9.72826 62.166 57.4881 58.2538 53.0846 49.6363 7.55603 54.228 45.7691 48.8515 43.0692 6.35553 42.5591 39.8615 23.6747 6.38544 38.1158 17.2893 14.1038 10.5036 16.1868 34.5264 28.4367 23.1895 13.1809 11.7531
internal_count=1280 640 640 533 107 89 65 38 110 43 67 530 47 41 483 114 99 506 68 31 438 418 39 31 369 379 52 354 45 327 41 37 80 64 286 309 45 294 271 276 252 236 35 256 218 231 204 30 203 189 112 30 182 82 67 50 77 165 136 111 63 56
is_linear=0
shrinkage=0.1


Tree=6
num_leaves=63
num_cat=0
split_feature=27 53 33 90 88 43 88 33 53 38 76 88 61 33 88 13 49 14 59 12 33 67 13 94 56 61 94 43 74 76 46 27 27 27 26 52 87 27 64 64 19 43 33 64 53 38 42 55 64 12 0 78 84 10 49 76 17 15 2 80 61 2
split_gain=269.217 19.9934 15.0942 7.76386 7.56331 7.52673 6.76119 5.89787 5.10623 4.79466 4.55395 3.78173 3.3428 6.03619 3.45362 2.58233 1.94446 1.77154 1.58409 2.1785 3.37116 2.21871 0.900049 0.882448 0.636957 0.550223 0.493916 0.227039 0.890155 0.244873 0.13549 0.0538276 0.0482929 0.0377237 0.0255215 0.0160579 0.0155825 0.00723085 0.00657743 0.00483086 0.00298558 0.00271967 0.0018234 0.00159987 0.00142308 0.00136227 0.00112531 0.000860268 0.000840475 0.000812574 0.000808715 0.000746833 0.000692865 0.000676729 0.000394046 0.000389791 0.000166989 0.000153201 0.000101207 7.50445e-05 7.04222e-05 6.03841e-05
threshold=0.56760372194228614 0.25468471686055311 0.50121259043403554 0.45308081368393444 0.50117436877508104 0.51432014835278028 0.54467760364425732 0.92849133801233774 0.93350677945053084 0.47940168828962287 0.32376985255661106 0.43678577412939634 0.78917549293500622 0.84556449407162793 0.55519979133965902 600.50000000000011 0.58259757839798654 468.50000000000006 0.01637884548566584 564.50000000000011 0.023763491409635854 0.34709928929805761 660.50000000000011 0.30753098110185989 0.99999275498177465 0.58631734398702939 0.55873138155034896 0.011867611696861654 0.16488855332136157 0.054506742391678735 0.99994855127613158 0.20135859593172903 0.77214912792826962 0.18284240582029557 0.26639549399656653 0.18426042050123217 0.52570139086303824 0.82398663973881237 0.20418200001410577 0.87807011087864517 650.50000000000011 0.0026662644618127176 0.099570865472171269 0.0033944328471464361 0.95554892510380796 0.78499621886749693 0.014135872772547723 0.89723974466323864 0.00043876778368876379 514.50000000000011 467.50000000000006 0.17989046399060174 0.20636138127465711 352.00000000000006 0.99991897898810633 0.11006501019059022 500.50000000000006 319.50000000000006 425.50000000000006 0.70660327896167952 3.4115152445865015e-05 553.50000000000011
decision_type=2 2 2 2 2 2 2 2 2 2 2 2 2 2 2 2 2 2 2 2 2 2 2 2 2 2 2 2 2 2 2 2 2 2 2 2 2 2 2 2 2 2 2 2 2 2 2 2 2 2 2 2 2 2 2 2 2 2 2 2 2 2
left_child=1 9 11 5 31 10 -6 12 16 18 -3 -2 13 14 25 17 -8 -14 22 21 -21 26 27 -9 30 -4 33 28 29 -1 32 -5 -25 38 35 42 -19 -38 46 45 44 48 43 -29 -41 -34 55 -47 -31 -39 -46 -45 58 -52 57 -20 61 -55 -50 -59 -60 -53
right_child=2 3 7 4 6 -7 8 23 -10 -11 -12 -13 15 -15 -16 -17 -18 36 19 20 -22 -23 -24 24 -26 -27 -28 34 -30 41 -32 -33 39 -35 -36 -37 37 49 -40 40 -42 -43 -44 51 50 47 -48 -49 52 -51 53 56 -54 54 -56 -57 -58 59 60 -61 -62 -63
leaf_value=-0.10842944817186105 -0.095268699542061464 0.03248404020370995 0.15615380248298436 -0.14551906994038175 0.062739893520623286 0.14059748357765325 -0.065639242211279272 0.080470218482011191 0.022625992479038817 -0.0094635643907569362 -0.10019045781316015 0.033026724026228207 0.061577181344159085 -0.024966476404288545 0.03546446375978822 0.044081194776001309 -0.16318792726395723 0.14850696174528052 -0.13917410517286974 -0.13976944473015479 -0.016836992461196441 -0.061918896931682947 -0.081455391068111324 0.15148650334729147 0.10117249562238671 0.10328577777639301 -0.10923334598029802 -0.14016479610835808 -0.077814693263765083 -0.13933196859424385 0.12283851139509049 -0.16267360491558014 0.14191833876527615 -0.15223238681800838 -0.14830497576975804 -0.14636616541860845 0.14473488958322731 0.14033874648236219 -0.14428614132807746 0.13931902416883679 0.14074743788416752 -0.14105126673085319 -0.14079868932256709 -0.13928221744621652 0.138443089887958 0.13812940445246866 -0.14058773462881591 0.14044210454212189 -0.13778035642997125 0.13824499540006355 0.13827119536529511 -0.13755198060004303 -0.13883886558984099 0.13746680988736146 0.13775103752679363 -0.13765094191405738 -0.13814141241265956 0.13711509835625901 -0.13747142833737694 0.13663176374735786 -0.13687170680758773 -0.13694326232569801
leaf_weight=3.0837463438510957 3.5560958087444288 6.5105927586555463 4.9216353446245211 3.8380943983793285 5.2076896429061916 3.9822448939084998 3.8112774491310102 3.1326688528060904 3.770050883293151 3.9130024015903464 4.2930013835430145 6.4919819235801697 3.2330377101898256 6.2774409949779502 6.0607417523860923 4.4682420939207068 4.4053006917238235 3.9288010746240607 3.0281691104173749 3.6404045820236188 5.7607129067182541 5.3052370101213446 3.3071537464857093 2.849936142563819 5.2488173246383658 3.2808825671672821 6.0094959139823905 4.4873628020286693 3.0651626139879218 3.8427815139293733 5.8492288291454306 3.4945613294839859 3.109886631369589 3.3210411518812171 4.3529036641120902 3.4353931546211234 3.8201731741428357 4.0776589959859848 3.1677653193473807 4.0407519042491904 3.0822548270225516 3.4852198958396903 4.513004705309867 3.2342525422573081 5.8105663657188407 2.9946641623973846 3.264130026102066 3.4745524227619171 2.9838445782661429 3.3984025567770004 4.7973284125328055 3.1744152307510358 3.8228334486484519 3.1719072461128297 5.5669264644384375 3.7740902900695801 2.9954393059015274 3.9465846270322826 3.1714822202920896 17.266725763678551 5.1172379404306412 3.3487758934497833
leaf_count=15 15 28 22 18 22 17 17 15 16 17 19 28 15 28 27 20 19 18 15 18 26 24 16 13 26 15 29 22 15 19 29 15 15 15 20 16 18 20 15 20 15 17 22 16 29 15 16 17 15 17 24 16 19 16 28 19 15 20 16 88 26 17
internal_value=0 -0.0947932 0.105272 -0.0341556 -0.0686599 0.0230806 -0.0323962 0.115306 -0.0737288 -0.118026 -0.0202365 -0.0123781 0.0860444 0.0567467 0.0927096 0.112294 -0.11794 0.128806 -0.122331 -0.106067 -0.0644403 -0.120108 -0.1322 0.132415 0.1347 0.135007 -0.133789 -0.135087 -0.128732 -0.134851 0.137368 -0.153694 0.138781 -0.142703 -0.141234 -0.140013 0.143082 0.141196 -0.140312 0.138149 0.137737 -0.138484 -0.139009 -0.138541 0.137529 0.140198 -0.139061 0.139372 -0.138012 0.139387 0.137351 -0.137969 -0.137675 0.137169 0.136992 -0.138329 -0.137523 0.136819 -0.137281 0.136722 -0.137101 -0.137239
internal_weight=0 141.918 127.858 39.3128 24.527 14.7858 17.1943 117.81 11.9866 102.605 10.8036 10.0481 43.467 20.5407 14.2633 22.9263 8.21658 18.4581 98.6921 37.271 9.40112 27.8699 61.421 74.3428 71.2101 8.20252 22.5647 58.1139 28.5723 25.5071 65.9613 7.33266 60.1121 16.5552 29.5415 25.1886 15.225 11.2962 13.2342 57.2621 47.683 22.4234 21.7533 17.2402 44.6008 9.5791 10.0664 6.46922 18.9382 7.47606 40.56 12.7529 15.0954 34.7495 29.9521 6.80226 9.51863 24.3852 11.2726 21.2133 8.28872 6.52319
internal_count=1280 667 613 171 107 64 74 570 52 496 47 43 200 92 64 108 36 88 479 177 44 133 302 370 355 37 109 286 142 127 329 33 300 80 144 124 73 55 65 287 240 112 108 86 225 47 50 32 95 37 205 64 76 176 152 34 48 124 57 108 42 33
is_linear=0
shrinkage=0.1


Tree=7
num_leaves=63
num_cat=0
split_feature=28 23 31 28 42 46 74 62 5 53 34 50 2 94 53 12 11 47 38 13 42 62 38 51 18 16 39 34 5 31 8 70 23 38 52 94 13 42 53 81 53 48 30 50 8 55 73 30 14 74 49 10 14 38 8 46 49 42 5 41 19 37
split_gain=229.682 18.5754 14.0407 6.40952 5.49827 7.22505 5.62732 4.30665 4.13622 3.88716 3.78348 6.73361 3.5583 3.53797 3.49749 4.11231 3.27584 2.39569 1.80979 1.72161 1.93358 1.68977 1.13199 2.73564 0.786369 0.703072 0.503961 1.35332 2.90267 0.363794 0.268453 0.770457 0.0226642 0.0155133 0.0141126 0.00713025 0.00508365 0.00427109 0.00303888 0.00302764 0.00222057 0.0017583 0.00179851 0.00160248 0.00232556 0.00154085 0.00108744 0.00140083 0.000599577 0.00052756 0.000477217 0.0004533 0.000417375 0.000413792 0.000380445 0.000307989 0.000214183 0.000212127 0.000193744 0.000152679 0.000124543 6.87894e-05
threshold=0.56760372194228614 0.25827117084445655 0.49770756585827219 0.63059307548368448 0.50395829570341555 0.70646595881143182 0.39169868826866155 0.60233369747112508 608.50000000000011 0.27547099216592269 0.75070762965422388 0.85417022947953836 488.50000000000006 0.54332906733078012 0.34671224564368158 461.50000000000006 504.50000000000006 0.058864641289118773 0.55035862705169347 660.50000000000011 0.19706249342476392 0.28542930441489439 0.68210232715300889 0.96139526367187511 608.50000000000011 634.00000000000011 0.1642442640086324 0.047135056387137865 564.50000000000011 0.78555117901379423 438.50000000000006 0.90801507234573375 0.89622109737271394 0.84606672117814252 0.16887423396110537 0.31256728612470858 568.50000000000011 0.02280330761147591 0.11541032933401249 0.063696115161789704 0.88851801690323307 0.1406565293673345 0.15061556297538334 0.9807269315042807 474.50000000000006 0.11058348789811136 0.10484870276660931 0.054076062216316757 469.50000000000006 0.93751293420791637 0.99985774537053607 500.50000000000006 483.50000000000006 0.035814241040272685 542.50000000000011 0.014654674043242756 0.92469026537899324 0.99511512286636583 498.50000000000006 0.10549757124650658 350.50000000000006 0.052058215610979196
decision_type=2 2 2 2 2 2 2 2 2 2 2 2 2 2 2 2 2 2 2 2 2 2 2 2 2 2 2 2 2 2 2 2 2 2 2 2 2 2 2 2 2 2 2 2 2 2 2 2 2 2 2 2 2 2 2 2 2 2 2 2 2 2
left_child=1 14 3 -2 6 -6 8 12 9 17 11 -9 -4 -7 19 -16 -17 -3 -5 20 25 -11 23 -12 29 26 27 39 -29 -24 31 36 33 -32 38 -34 -31 -36 41 -1 -37 42 45 44 -42 46 47 51 -45 57 56 -28 55 -41 58 -48 -50 -46 -52 -44 -58 -55
right_child=2 4 7 18 5 13 -8 10 -10 21 22 -13 -14 -15 15 16 -18 -19 -20 -21 -22 -23 24 -25 -26 -27 34 28 -30 30 32 -33 35 -35 37 40 -38 -39 -40 53 43 -43 59 48 49 -47 52 -49 50 -51 54 -53 -54 61 -56 -57 60 -59 -60 -61 -62 -63
leaf_value=-0.13625272910830635 -0.077201968229019549 -0.036641236884666646 -0.036662321010403343 0.1164211101694836 0.10820863565751559 0.013846306272520474 -0.14489621835063668 0.13051785557147033 0.061821256663930325 -0.049963840360419287 0.14373440115509414 -0.028906657731883625 0.096067276676440869 -0.11717234316740358 -0.14504265508108688 0.032725612779369209 -0.097910266534283419 -0.14504717416924098 0.016860256582114021 -0.063505771259416005 -0.058948361874482269 0.048865413562995397 0.1048999111728183 0.035027763601265534 0.081806892541801776 -0.083210007128306965 -0.13326139996468123 -0.1333071017304093 -0.0062960563939324608 0.13337082446770138 0.14474889676212205 0.075924910243353891 0.13824661652116874 0.13527584532975792 -0.13679017872153962 0.13590611305328532 0.13896675941634989 -0.14149119077009362 -0.13730522454607194 -0.13380467458866335 0.13568704276181084 -0.13638550902021812 -0.13240661913191723 0.13403662585796031 0.13192688039043768 -0.13668066361748574 -0.13353596224225167 -0.13674857934855014 0.13298971197604717 0.13408464056768996 0.13221430904419529 -0.13504768938689779 -0.13271035834459285 -0.13231505148119493 0.13399303965808437 -0.13479199792735624 0.13272173775834237 0.13311026680305077 0.13315919420467642 -0.13330158576769355 0.13198764022212192 -0.13288575223224705
leaf_weight=2.9243255555629792 5.755345940589903 3.4182099699974113 3.3811555206775648 3.4551736116409302 5.5032684952020636 5.1523892283439618 5.8809933960437766 6.0932127684354764 3.7057885974645606 3.4402409791946402 4.7544015496969205 4.6874559968709946 5.0164614915847778 3.435172438621521 3.9885936230421049 4.7023044675588608 3.243642121553421 5.05076764523983 3.8716647177934647 5.0708055645227423 4.372991055250167 3.4801745712757111 5.4332333803176871 4.5118577480316162 3.5658404082059851 3.4446790218353263 2.8080665171146482 4.4899194687604895 3.0026787370443344 3.5606166124343854 3.1445341110229483 3.1805273294448853 2.9818330556154242 3.8394730240106583 3.4982959330081931 2.8999374061822882 2.9838786870241165 4.3183906376361847 4.1237619519233695 2.8276617377996436 5.0079134702682486 4.0928716957569113 3.8810098916292182 3.0277872532606116 3.3017179667949659 3.1254222840070716 4.8857633173465711 3.3277521580457687 3.3536485731601777 3.0268185585737228 4.0536954551935178 2.8752674162387848 3.3408907502889624 8.6736522912979108 3.2126952409744254 3.2514127939939499 2.7847375869751003 2.7987724542617798 4.6700835675001144 3.7461340874433517 13.586539432406424 2.7918795049190512
leaf_count=15 25 16 15 15 24 22 26 29 16 15 23 21 24 15 19 21 15 24 17 25 20 15 27 22 18 17 15 24 15 19 15 16 15 20 18 15 15 21 21 15 26 21 21 16 18 16 26 17 18 16 22 15 18 47 17 17 15 15 25 20 74 15
internal_value=0 -0.0893905 0.0996581 0.00177404 -0.0311868 0.0187594 -0.059365 0.111421 -0.0330229 -0.0558615 0.117172 0.0611998 0.042626 -0.0385634 -0.112879 -0.0621906 -0.0206017 -0.101293 0.0638109 -0.120006 -0.123596 -0.000264071 0.123901 0.0908038 0.127714 -0.127344 -0.129456 -0.117883 -0.0824071 0.129845 0.131742 0.1163 0.134177 0.139541 -0.135505 0.133492 0.135922 -0.139387 -0.134736 -0.133321 0.133218 -0.134437 -0.134181 0.133058 0.133955 -0.134612 -0.134297 -0.135119 0.132692 0.133005 0.132564 -0.134165 -0.133651 -0.132721 0.133063 -0.134038 0.132262 0.13247 0.13272 -0.132846 0.132113 -0.132454
internal_weight=0 135.875 121.941 13.0822 39.067 14.0908 24.9762 108.859 19.0952 15.3894 100.461 10.7807 8.39762 8.58756 96.8082 11.9345 7.94595 8.46898 7.32684 84.8736 79.8028 6.92042 89.6805 9.26626 80.4143 75.4298 71.9852 24.7101 7.4926 76.8484 71.4152 9.72502 61.6902 6.98401 47.275 54.7062 6.5445 7.81669 39.4584 17.2175 51.7243 35.3346 31.2417 48.8244 14.1352 23.6146 20.4892 9.01109 34.6892 9.12731 31.6614 5.68333 11.4781 14.2932 11.9365 8.13718 19.7249 6.10049 8.72378 7.62714 16.3713 11.4655
internal_count=1280 667 613 57 173 61 112 556 86 70 517 50 39 37 494 55 36 40 32 439 414 30 467 45 422 394 377 131 39 404 377 50 327 35 246 292 34 39 207 92 277 186 165 262 75 124 108 47 187 49 171 30 61 77 64 43 107 33 47 41 89 62
is_linear=0
shrinkage=0.1


end of trees

feature_importances:
Column_64=19
Column_53=18
Column_0=14
Column_8=12
Column_49=12
Column_65=12
Column_42=11
Column_28=10
Column_54=10
Column_19=9
Column_5=8
Column_10=8
Column_11=8
Column_16=8
Column_18=8
Column_31=8
Column_34=8
Column_38=8
Column_57=8
Column_59=8
Column_94=8
Column_1=7
Column_2=7
Column_20=7
Column_33=7
Column_61=7
Column_90=7
Column_12=6
Column_13=6
Column_17=6
Column_23=6
Column_27=6
Column_43=6
Column_48=6
Column_76=6
Column_6=5
Column_14=5
Column_24=5
Column_30=5
Column_36=5
Column_40=5
Column_47=5
Column_55=5
Column_60=5
Column_67=5
Column_73=5
Column_74=5
Column_78=5
Column_84=5
Column_88=5
Column_15=4
Column_39=4
Column_52=4
Column_56=4
Column_58=4
Column_81=4
Column_89=4
Column_4=3
Column_29=3
Column_37=3
Column_41=3
Column_45=3
Column_46=3
Column_50=3
Column_62=3
Column_63=3
Column_72=3
Column_21=2
Column_25=2
Column_44=2
Column_93=2
Column_3=1
Column_26=1
Column_32=1
Column_35=1
Column_51=1
Column_66=1
Column_68=1
Column_69=1
Column_70=1
Column_71=1
Column_77=1
Column_80=1
Column_83=1
Column_86=1
Column_87=1
Column_91=1

parameters:
[boosting: gbdt]
[objective: binary]
[metric: custom]
[tree_learner: serial]
[device_type: cpu]
[data: ]
[valid: ]
[num_iterations: 10000]
[learning_rate: 0.1]
[num_leaves: 63]
[num_threads: 0]
[deterministic: 0]
[force_col_wise: 0]
[force_row_wise: 0]
[histogram_pool_size: -1]
[max_depth: -1]
[min_data_in_leaf: 15]
[min_sum_hessian_in_leaf: 0.001]
[bagging_fraction: 0.8]
[pos_bagging_fraction: 1]
[neg_bagging_fraction: 1]
[bagging_freq: 0]
[bagging_seed: 32123]
[feature_fraction: 0.5]
[feature_fraction_bynode: 1]
[feature_fraction_seed: 10596]
[extra_trees: 0]
[extra_seed: 3672]
[early_stopping_round: 0]
[first_metric_only: 0]
[max_delta_step: 0]
[lambda_l1: 0]
[lambda_l2: 0]
[linear_lambda: 0]
[min_gain_to_split: 0]
[drop_rate: 0.1]
[max_drop: 50]
[skip_drop: 0.5]
[xgboost_dart_mode: 0]
[uniform_drop: 0]
[drop_seed: 26750]
[top_rate: 0.2]
[other_rate: 0.1]
[min_data_per_group: 100]
[max_cat_threshold: 32]
[cat_l2: 10]
[cat_smooth: 10]
[max_cat_to_onehot: 4]
[top_k: 20]
[monotone_constraints: ]
[monotone_constraints_method: basic]
[monotone_penalty: 0]
[feature_contri: ]
[forcedsplits_filename: ]
[refit_decay_rate: 0.9]
[cegb_tradeoff: 1]
[cegb_penalty_split: 0]
[cegb_penalty_feature_lazy: ]
[cegb_penalty_feature_coupled: ]
[path_smooth: 0]
[interaction_constraints: ]
[verbosity: -1]
[saved_feature_importance_type: 0]
[linear_tree: 0]
[max_bin: 255]
[max_bin_by_feature: ]
[min_data_in_bin: 3]
[bin_construct_sample_cnt: 200000]
[data_random_seed: 195]
[is_enable_sparse: 1]
[enable_bundle: 1]
[use_missing: 1]
[zero_as_missing: 0]
[feature_pre_filter: 1]
[pre_partition: 0]
[two_round: 0]
[header: 0]
[label_column: ]
[weight_column: ]
[group_column: ]
[ignore_column: ]
[categorical_feature: ]
[forcedbins_filename: ]
[precise_float_parser: 0]
[parser_config_file: ]
[objective_seed: 12434]
[num_class: 1]
[is_unbalance: 0]
[scale_pos_weight: 1]
[sigmoid: 1]
[boost_from_average: 1]
[reg_sqrt: 0]
[alpha: 0.9]
[fair_c: 1]
[poisson_max_delta_step: 0.7]
[tweedie_variance_power: 1.5]
[lambdarank_truncation_level: 30]
[lambdarank_norm: 1]
[label_gain: ]
[lambdarank_position_bias_regularization: 0]
[eval_at: ]
[multi_error_top_k: 1]
[auc_mu_weights: ]
[num_machines: 1]
[local_listen_port: 12400]
[time_out: 120]
[machine_list_filename: ]
[machines: ]
[gpu_platform_id: -1]
[gpu_device_id: -1]
[gpu_use_dp: 0]
[num_gpu: 1]

end of parameters

pandas_categorical:null
