tree
version=v4
num_class=1
num_tree_per_iteration=1
label_index=0
max_feature_idx=94
objective=binary sigmoid:1
feature_names=Column_0 Column_1 Column_2 Column_3 Column_4 Column_5 Column_6 Column_7 Column_8 Column_9 Column_10 Column_11 Column_12 Column_13 Column_14 Column_15 Column_16 Column_17 Column_18 Column_19 Column_20 Column_21 Column_22 Column_23 Column_24 Column_25 Column_26 Column_27 Column_28 Column_29 Column_30 Column_31 Column_32 Column_33 Column_34 Column_35 Column_36 Column_37 Column_38 Column_39 Column_40 Column_41 Column_42 Column_43 Column_44 Column_45 Column_46 Column_47 Column_48 Column_49 Column_50 Column_51 Column_52 Column_53 Column_54 Column_55 Column_56 Column_57 Column_58 Column_59 Column_60 Column_61 Column_62 Column_63 Column_64 Column_65 Column_66 Column_67 Column_68 Column_69 Column_70 Column_71 Column_72 Column_73 Column_74 Column_75 Column_76 Column_77 Column_78 Column_79 Column_80 Column_81 Column_82 Column_83 Column_84 Column_85 Column_86 Column_87 Column_88 Column_89 Column_90 Column_91 Column_92 Column_93 Column_94
feature_infos=[439:520] [367:614] [256:768] [0:999] [435:516] [182:814] [333:653] [317:635] [346:598] [193:828] [216:829] [347:661] [263:719] [238:794] [450:505] [153:771] [265:735] [347:612] [276:677] [142:848] [0.041838970952580018:0.96190000958532784] [0.0074485068632990578:0.99358025196113253] [0:1] [0:1] [0:1] [0:1] [0:1] [0:1] [0:1] [0:1] [0.0035183431936774497:0.99927152305782485] [0.0010537458846836959:0.99953182301714061] [0.0034154778163877821:0.99924284082774473] [0.00064629110965295404:0.99937447221078035] [0.0052507666320513206:0.99688156133314298] [0:1] [0.0075081843676843363:0.99620532174494258] [0.0039794414873805016:0.99810177464091465] [0.015442700414020684:0.99385158219611891] [0.040842301819286088:0.97481719971729752] [0:1] [0.0035145819392261488:0.99794206965753862] [4.3259336796308814e-08:0.9999998357798795] [5.589991074188034e-06:0.99999126834184104] [1.2468564927256678e-06:0.99999496696152523] [1.7132890173998371e-05:0.99998244359395794] [5.1339252598136488e-07:0.9999973278808163] [2.0196197674703874e-05:0.99993678396153796] [0.00071790984018298425:0.99936361248370897] [6.01033866510644e-08:0.99999994476952148] [1.9391933392006245e-05:0.99999828112579969] [0.0001011096901493147:0.99980884790420532] [0.00080827460624277592:0.99949741363525391] [3.6329178899577358e-10:1] [2.9365820028172794e-10:0.99999999999997979] [0.00085811852477490902:0.9979020357131958] [2.4696424864579662e-09:0.9999999989164261] [8.7715521065847314e-13:1] [0.0046482039615511894:0.99649733304977417] [6.0524124603321399e-11:1] [0.00029035125044174492:0.99958306550979614] [3.5098515122704958e-20:1] [0.035006933742168608:0.99999999997209232] [0.009519270621240139:0.99504601955413818] [4.7506450347173669e-10:0.99999999373040271] [3.5411367094322405e-13:1] [0.001087893033400178:0.99934655427932739] [0.005268558394163847:0.98955976963043213] [0.044804012562971812:0.98094470527315003] [8.3861588999935378e-11:0.99999999995580868] [0.0058258059434592724:0.99632120132446289] [0.02068827531012405:0.97212998751660573] [0.032931943301051828:0.98547536252454293] [0.010092951396803688:0.99897119341563789] [0.0021036411635577679:0.99910718202590942] [0.006329692766707965:1] [0.017418969454832536:0.99920842349138472] [0.012464078505005275:0.99883975351274101] [0.064105989509686878:0.97207870429805088] [0.048180871996975183:0.96486569191385296] [0.018418790247229689:0.9982748184019371] [0.016898548948590924:0.99636786967924873] [0.064149231800819356:0.95697315668091965] [0.013601286828334657:1] [0:1] [0.016269341555456604:0.99634563090187267] [0.065182105230655707:0.96557779219768303] [0.09859185060370329:0.95694505034594834] [0.044305260187613126:0.96005550299512477] [0.058361572203976218:0.97439663288968925] [0.080158215135502614:0.93242444790033308] [0:1] [0.19366197183098591:0.94117647058823528] [0.19366197183098591:0.78287461773700306] [0.11289310481353662:0.89825319488256195]
tree_sizes=3655 5243 6511 6730 6739 6743 6743 6724 6743 6740 6747

Tree=0
num_leaves=34
num_cat=0
split_feature=20 27 25 74 31 19 48 27 9 71 45 72 37 31 53 42 14 3 13 3 15 1 50 12 15 27 6 6 42 3 1 1 1
split_gain=861.347 26.2788 26.2046 12.1084 9.12176 7.53902 7.19161 6.21859 5.95716 3.95034 6.37892 4.52642 2.92214 2.48638 2.30983 5.75123 1.14589 2.05719 1.02074 0.824261 0.76379 0.718856 0.69505 0.608571 2.65767 0.253685 0.231718 0.254288 0.221217 0.177782 5.68434e-14 7.10543e-15 7.10543e-15
threshold=0.49618612445414817 0.59451882725921101 0.34116963711480985 0.80703184008598339 0.39204627296930394 573.50000000000011 0.27229949510800905 0.83210635435643521 425.50000000000006 0.69126414926848501 0.95377762104799391 0.60468800950972079 0.53860387234103324 0.50295987082621829 0.31137695297888413 0.00081211017256180697 468.50000000000006 510.00000000000006 660.50000000000011 409.50000000000006 681.50000000000011 501.50000000000006 0.48302765654506929 559.50000000000011 498.50000000000006 0.36763510328128407 591.00000000000011 422.50000000000006 1.4592714266991617e-05 316.00000000000006 543.50000000000011 507.50000000000006 505.50000000000006
decision_type=2 2 2 2 2 2 2 2 2 2 2 2 2 2 2 2 2 2 2 2 2 2 2 2 2 2 2 2 2 2 2 2 2
left_child=2 3 4 12 14 6 -4 9 -6 10 11 13 -2 -3 18 -16 17 29 20 -15 22 -17 23 25 -25 30 27 -18 -26 -9 -1 -11 -21
right_child=1 7 5 -5 8 -7 -8 16 -10 31 -12 -13 -14 19 15 21 26 -19 -20 32 -22 -23 -24 24 28 -27 -28 -29 -30 -31 -32 -33 -34
leaf_value=-0.19156686041096713 0.058438645689195767 0.10843974690922813 -0.0058484844508460872 -0.039839380846730318 0.021771171461171909 0.083439196299212107 -0.15678348564920533 0.18177469536527621 -0.13442274473092988 0.20844194934929358 0.037009602309181835 0.075105679429206679 0.16558386258926561 0.15510744138125865 -0.031563336506862855 -0.19156686041096718 0.18177469536527618 0.11955110273590229 -0.13939179826832443 0.20844194934929355 -0.13823235244293239 -0.13823235244293233 -0.14450700043917178 -0.10267601379757578 -0.16489960642694959 -0.16489960642694976 0.18177469536527618 0.20844194934929355 -0.19156686041096713 0.20844194934929353 -0.19156686041096713 0.2084419493492935 0.20844194934929355
leaf_weight=69.498471409082413 3.9999120235443133 3.9999120235443213 6.9998460412025469 7.2498405426740637 3.7499175220727903 3.9999120235443106 5.7498735338449478 3.7499175220727903 6.9998460412025452 6.249862536787985 5.249884530901908 5.249884530901908 6.9998460412025452 3.7499175220727947 3.7499175220727912 7.7498295456171018 3.7499175220727912 4.4999010264873496 5.7498735338449469 8.4998130500316602 3.7499175220727912 3.7499175220727921 4.2499065250158301 4.4999010264873531 3.7499175220727947 3.7499175220727912 3.7499175220727912 76.998306453227997 18.249598607420921 7.4998350441455841 3.7499175220727912 4.249906525015831 4.2499065250158301
leaf_count=278 16 16 28 29 15 16 23 15 28 25 21 21 28 15 15 31 15 18 23 34 15 15 17 18 15 15 15 308 73 30 15 17 17
internal_value=0.00937507 0.173441 -0.154691 0.0604935 -0.16853 -0.0363396 -0.0739172 0.187983 -0.0799365 0.155429 0.137473 0.157955 0.126622 0.179173 -0.175717 -0.139107 0.201459 0.176695 -0.180479 0.19632 -0.182598 -0.174175 -0.184142 -0.18577 -0.172699 -0.190268 0.206075 0.207204 -0.187021 0.199553 -0.191567 0.208442 0.208442
internal_weight=0 159.996 159.996 18.2496 143.247 16.7496 12.7497 141.747 10.7498 41.4991 30.9993 25.7494 10.9998 20.4995 132.497 15.2497 100.248 15.7497 117.247 16.4996 111.498 11.4997 107.748 103.498 26.4994 76.9983 84.4981 80.7482 21.9995 11.2498 73.2484 10.4998 12.7497
internal_count=1280 640 640 73 573 67 51 567 43 166 124 103 44 82 530 61 401 63 469 66 446 46 431 414 106 308 338 323 88 45 293 42 51
is_linear=0
shrinkage=1


Tree=1
num_leaves=49
num_cat=0
split_feature=20 28 24 70 53 69 64 28 65 65 19 19 64 56 86 69 24 2 69 80 0 49 49 76 64 0 11 5 6 56 89 10 53 70 55 53 87 5 69 6 86 10 10 63 41 0 0 28
split_gain=703.634 21.7334 21.5737 11.3849 12.0412 10.9446 6.87938 5.2067 4.73027 4.11612 3.5741 3.20159 2.55593 5.12416 5.52534 1.37965 2.19256 1.16098 1.22744 1.98511 1.04787 1.46972 2.51956 0.733122 0.721703 0.685833 0.229827 0.226903 0.218306 0.190456 0.165806 0.00924577 0.00870024 0.00723157 0.00405834 0.00387469 0.00278864 0.00259296 0.00228874 0.00113766 0.000885648 0.000680765 0.000625269 0.000557599 0.000322719 0.000245735 0.000224695 7.22826e-06
threshold=0.49618612445414817 0.59451882725921101 0.34116963711480985 0.55649679899215709 0.74992724399904309 0.38955577784345435 0.61655129259236408 0.83210635435643521 0.22856321534961718 0.67458854128045742 309.50000000000006 509.50000000000006 0.67261091250771576 0.92198637251152482 0.61249180282083582 0.10642857517233806 0.30583333540267216 417.50000000000006 0.17130006294355091 0.27601159677537651 467.50000000000006 0.98950554359105714 0.92652071220463184 0.040168527991448134 0.91361885218318928 503.50000000000006 525.50000000000011 353.50000000000006 591.00000000000011 0.99980770642946593 0.089678593267471116 444.50000000000006 0.2935794387717956 0.66102477908134472 0.24228039383888247 0.31881848428238402 0.61034331448788992 580.50000000000011 0.032979116632720185 425.50000000000006 0.44039546946169944 451.50000000000006 616.50000000000011 0.056191256269812591 0.14510336436232243 474.50000000000006 468.50000000000006 0.15712850142588244
decision_type=2 2 2 2 2 2 2 2 2 2 2 2 2 2 2 2 2 2 2 2 2 2 2 2 2 2 2 2 2 2 2 2 2 2 2 2 2 2 2 2 2 2 2 2 2 2 2 2
left_child=2 3 6 -2 -5 8 9 10 -4 15 -3 -8 26 14 -14 23 17 -17 19 -19 21 22 -9 -1 -15 27 33 -25 39 36 -29 -26 34 -12 37 40 -23 42 41 -22 45 -39 44 -43 47 -20 -41 -32
right_child=1 7 5 4 -6 -7 11 20 -10 -11 12 -13 13 24 -16 16 -18 18 35 -21 28 29 -24 25 31 -27 -28 30 -30 -31 32 -33 -34 -35 -36 -37 -38 38 -40 46 -42 43 -44 -45 -46 -47 -48 -49
leaf_value=-0.13643303756022079 0.14652221801382759 0.045302422194149053 -0.039948142476146753 -0.12690907790890815 0.080703945061501831 -0.14625169811329783 -0.13347024850233555 0.18263623002165735 0.095026155244311281 -0.083549865699306947 0.18382618586287361 -0.002434603742805548 0.12980824588444975 0.13163452539072512 -0.011662622370103017 -0.11501229698865308 -0.095927419143191098 -0.18345394056906861 -0.18360276437084558 -0.090137386500348221 0.18296839195326317 0.1811848224178737 0.071144517644657984 -0.1572094977696491 0.18118482241787373 -0.14208265564445752 0.15670951410428602 -0.16609484209495073 0.15649136433531677 0.1563878498571237 -0.1825664357046049 0.18780864528662389 -0.18851899390639751 0.18948760240431883 -0.1863069782045009 -0.1864218018553141 0.18459304289603362 -0.18266367537913397 -0.18572383707149259 0.18198426996898462 -0.18466780457474641 -0.18331142750795992 -0.18382302278309254 -0.18494031697510493 -0.18342188523761727 -0.1825664357046049 0.1811848224178737 -0.18271552833580768
leaf_weight=4.2162532210350028 6.9717535525560406 4.2254054248332968 5.7375255823135394 5.2380492240190488 5.9861450642347336 6.2274888157844535 3.725886106491088 3.7150966376066226 4.7427808046340942 5.720246657729148 5.7025984078645688 3.7325386703014374 7.1974762827157992 3.7218654304742804 4.4785869866609573 4.2206969112157813 5.4677837193012229 4.9586837291717547 3.7196006327867526 4.2194408476352692 3.9652125537395468 4.4514726698398572 4.4606183767318726 3.7200708240270606 4.2041686326265317 4.714160978794097 3.7174088209867469 5.7030766457319251 3.7191928178071967 3.7175436019897452 26.010636314749721 4.2250687479972839 3.7298200577497473 3.7333019226789474 4.9697164148092261 6.7096416801214209 5.2110340446233749 5.6981557905674007 6.9563713520765296 3.7126496732234946 4.4678809046745291 4.4624932408332807 5.9525923877954474 3.9721953123807907 5.454190105199813 5.9452883005142212 66.277481973171234 3.7163930237293235
leaf_count=17 28 17 23 21 24 25 15 15 19 23 23 15 29 15 18 17 22 20 15 17 16 18 18 15 17 19 15 23 15 15 105 17 15 15 20 27 21 23 28 15 18 18 24 16 22 24 268 15
internal_value=0 0.148987 -0.148748 0.0461568 -0.0161838 -0.041256 -0.161381 0.16231 0.0211334 -0.166557 0.13243 -0.067894 0.142385 0.122852 0.0755443 -0.170238 -0.154731 -0.16412 -0.171025 -0.140554 0.174718 0.155211 0.121807 -0.177135 0.168311 -0.179153 0.177769 -0.181328 0.180132 0.175623 -0.182499 0.184505 -0.183818 0.186066 -0.183557 -0.184443 0.183023 -0.183337 -0.184239 0.181321 -0.183504 -0.183508 -0.182875 -0.184079 -0.182715 -0.182965 0.181227 -0.182585
internal_weight=0 158.632 158.872 18.1959 11.2242 16.7078 142.164 140.436 10.4803 134.705 41.2059 7.45842 36.9805 23.8272 11.6761 128.985 39.709 34.2412 30.0205 9.17812 99.2303 21.5558 8.17572 89.2761 12.1511 85.0599 13.1533 80.3457 77.6745 13.3801 76.6256 8.42924 70.9226 9.4359 67.1927 20.8424 9.66251 62.223 21.0892 73.9553 14.1328 14.1328 41.1338 8.43469 35.1812 9.66489 69.9901 29.727
internal_count=1280 640 640 73 45 67 573 567 42 543 166 30 149 96 47 520 160 138 121 37 401 87 33 360 49 343 53 324 314 54 309 34 286 38 271 84 39 251 85 299 57 57 166 34 142 39 283 120
is_linear=0
shrinkage=0.1


Tree=2
num_leaves=61
num_cat=0
split_feature=24 31 65 61 54 24 33 37 63 64 57 61 57 59 42 8 55 37 32 37 54 78 31 76 61 61 17 74 2 17 11 35 24 53 35 15 64 2 87 2 69 18 8 18 15 32 8 12 69 7 18 48 33 37 18 15 49 41 2 8
split_gain=551.768 40.8883 26.4659 9.17763 8.98527 8.88125 11.0259 6.59469 5.83363 4.09963 3.36441 3.73728 2.07886 1.54552 5.0734 1.02909 2.92593 0.765945 1.37323 0.724465 0.706236 1.72245 3.39215 0.682612 0.470576 1.29215 0.377139 0.360979 1.08613 0.270227 0.146432 0.0679089 0.0150879 0.0117971 0.00826069 0.00800784 0.00544093 0.00402852 0.00262876 0.00253216 0.00194593 0.0035541 0.00146565 0.00145813 0.00143222 0.00127092 0.000762817 0.00045129 0.000839615 0.00040403 0.000296678 0.000140266 0.000132381 0.000156033 7.64243e-05 3.85647e-05 3.36059e-06 9.81435e-07 3.36262e-07 4.27696e-09
threshold=0.35731396019554917 0.49427021960697254 0.67458854128045742 0.26058422339397064 0.1699662238519907 0.69955795989621461 0.24135842445791192 0.53860387234103324 0.65324440598487865 0.67261091250771576 0.65145520227465215 0.70490939876100611 0.5372402346533719 0.12884460332412609 0.00072193115861850655 443.50000000000006 0.83240643143653881 0.18071505736278742 0.10016193454920851 0.86528420647915583 0.89233093339200076 0.62403066138750518 0.90681634540507938 0.040168527991448134 0.99799842737405386 0.95882833536604839 550.50000000000011 0.20963772386312488 471.50000000000006 387.50000000000006 408.50000000000006 0.70000000000000007 0.76337956368338 0.24943094641392211 0.90000000000000013 395.50000000000006 0.15063390024056253 482.50000000000006 0.15607574930821957 547.50000000000011 0.12259516321839607 517.50000000000011 435.50000000000006 598.50000000000011 672.50000000000011 0.86771299800385326 448.50000000000006 559.50000000000011 0.039010226005979337 409.50000000000006 400.50000000000006 0.024942980057243162 0.02712560782400562 0.17149736491358911 580.50000000000011 449.50000000000006 1.8604181558639606e-05 0.13317982933454656 575.50000000000011 455.50000000000006
decision_type=2 2 2 2 2 2 2 2 2 2 2 2 2 2 2 2 2 2 2 2 2 2 2 2 2 2 2 2 2 2 2 2 2 2 2 2 2 2 2 2 2 2 2 2 2 2 2 2 2 2 2 2 2 2 2 2 2 2 2 2
left_child=2 5 7 -4 -3 6 -2 9 -5 13 11 -6 -8 23 -15 16 -12 18 -16 -13 21 32 -23 -1 25 -18 27 30 -29 -22 -25 -31 -17 38 35 -33 -19 -38 -32 -30 44 -42 -26 46 47 -37 -36 49 51 -40 -48 -49 53 55 59 -51 -54 58 -58 -52
right_child=1 4 3 8 10 -7 12 -9 -10 -11 15 19 -14 14 17 20 24 36 -20 -21 29 22 -24 26 42 -27 -28 28 39 31 33 34 -34 -35 43 45 37 -39 40 -41 41 -43 -44 -45 -46 -47 50 48 -50 52 54 -53 56 -55 -56 -57 57 -59 -60 -61
leaf_value=-0.12178129878444904 0.070700647528719088 0.0042623158173184994 -0.12441972115093856 0.094800450665871963 0.056085891172539419 0.090512676194930419 -0.18492149729083149 -0.03857911556939346 -0.060274857391961027 -0.066416083215033603 0.06924074963208765 0.17384263444868181 -0.080676320195797069 -0.049138571522359106 -0.17136388852757897 0.17531248989799977 0.17322303041278897 -0.17007616122988867 -0.088182039867195305 0.11698794598097223 0.14225002128090122 0.040209447553437541 0.16925973674525222 -0.15364288498732542 0.17135646240966351 0.094653968383249409 -0.14084393850631444 -0.11318898930382591 -0.16914346169113401 0.18107757756505494 -0.17220075525333559 0.17489305295179533 0.16802378003282961 -0.17548788643211821 0.16926548471349878 0.17058647219685136 -0.17691330133028038 -0.172530090514879 -0.17005191868617783 -0.17233620286925871 -0.16948354042519828 -0.17329786197176641 0.16909269942746072 0.16996968520724684 -0.17125772984207091 0.16809493490571359 0.168684964598977 -0.16960994001527907 -0.17100330521413509 -0.16923179591139115 0.16772736243546232 -0.16874411195144762 -0.16886376679961548 -0.16973309063680916 0.16821074120901885 -0.1688527184828823 -0.16878620265861066 -0.16871070369712643 -0.16874765894746316 0.16773097078883328
leaf_weight=3.9015096276998511 3.9736216962337512 4.178453564643859 4.9451522827148429 6.9180217683315259 7.1076191067695644 5.4201129376888266 3.9613227546215057 5.178867280483245 3.7357174158096313 5.1812091022729865 4.6442458480596569 5.8375652432441694 3.6995735317468643 5.3972153812646892 4.3694816678762454 6.1183153539896029 4.8705125898122805 4.3591668754816046 3.6362893730401993 3.6379370987415314 3.8564224541187277 3.6633394211530668 4.5875424295663834 5.8213228136301032 6.5562990158796293 3.6708093881607056 6.3299207985401145 4.8815429061651221 4.8332598209381086 4.6733838170766822 4.3806714713573447 3.6631499677896491 5.3005049079656601 3.9082985967397681 4.1073202937841407 3.8774390220642072 3.6818498373031598 4.8706687241792679 3.8756283521652213 5.1107495576143265 6.5295637398958188 3.9030441790819168 5.072993740439415 3.8743087351322165 3.88656923174858 4.3375925570726395 3.8619368374347678 3.8712569624185544 3.8832074254751205 4.3510501533746702 3.6111668944358817 3.6213407814502716 3.622484207153323 3.8721634298562995 3.615675523877143 7.0032593309879303 6.0362532585859281 3.6210147440433493 3.6213751137256622 36.352786466479301
leaf_count=16 16 17 20 28 29 22 16 21 15 21 19 24 15 22 18 25 20 18 15 15 16 15 19 24 27 15 26 20 20 19 18 15 22 16 17 16 15 20 16 21 27 16 21 16 16 18 16 16 16 18 15 15 15 16 15 29 25 15 15 151
internal_value=0 0.131036 -0.135278 -0.011835 0.148716 -0.0152144 -0.0644689 -0.149279 0.0404235 -0.15361 0.153125 0.110899 -0.13458 -0.157162 -0.13558 0.158945 0.140802 -0.157884 -0.133582 0.152014 0.16366 0.146775 0.111962 -0.162793 0.157279 0.139456 -0.164443 -0.166091 -0.15182 0.168039 -0.168882 0.169421 0.171929 -0.170149 0.168612 0.171005 -0.172952 -0.174417 -0.169834 -0.170784 -0.169666 -0.170911 0.170369 0.168099 -0.169412 0.169271 0.167958 -0.169261 -0.16981 -0.169087 0.167845 -0.169191 -0.168971 -0.169185 0.16777 -0.168998 -0.168778 -0.168755 -0.168772 0.167731
internal_weight=0 158.132 153.139 15.5989 141.077 17.0546 11.6345 137.54 10.6537 132.361 136.899 16.5831 7.6609 127.18 26.3147 120.316 24.8149 20.9175 8.00577 9.4755 95.5009 19.6697 8.25088 100.865 20.1706 8.54132 96.964 90.6341 14.8256 75.8312 75.8085 71.9748 11.4188 69.9872 67.3014 11.8782 12.9117 8.55252 66.0789 9.94401 61.6982 10.4326 11.6293 55.4232 51.2656 8.21503 51.5489 47.379 11.3758 36.0032 47.4416 7.4926 32.1276 15.2265 43.5796 11.3543 16.9011 13.2786 9.65763 39.964
internal_count=1280 651 629 63 582 69 47 566 43 545 565 68 31 524 108 497 102 86 33 39 395 81 34 416 83 35 400 374 61 314 313 298 47 289 279 49 53 35 273 41 255 43 48 230 212 34 214 196 47 149 197 31 133 63 181 47 70 55 40 166
is_linear=0
shrinkage=0.1


Tree=3
num_leaves=63
num_cat=0
split_feature=24 54 38 44 44 90 53 18 57 28 90 57 90 0 0 55 0 8 24 48 45 87 40 38 56 1 17 1 55 17 54 56 28 39 8 59 17 28 68 90 17 28 41 18 81 69 94 5 48 57 18 17 87 18 39 56 56 0 47 5 54 18
split_gain=461.534 31.4189 26.9503 8.8198 11.6692 8.06529 7.10599 8.20661 6.67436 5.91662 5.76583 3.51683 2.71374 5.33105 2.33612 3.10732 5.62885 1.40379 1.0681 1.76705 0.929097 2.62143 1.12987 0.462899 1.29955 0.673883 0.263063 0.250592 0.23037 0.202798 0.074175 0.037755 0.0274541 0.0161079 0.00586066 0.0055162 0.00529775 0.00441709 0.00348171 0.00209733 0.00215465 0.00205707 0.00174761 0.00119375 0.00119336 0.00112978 0.000894448 0.000838231 0.000518626 0.000511817 0.000428998 0.000398299 0.000242565 0.000147193 5.99661e-05 4.25916e-05 8.00923e-05 1.18505e-05 3.66765e-06 3.20124e-06 1.40361e-06 1.27301e-06
threshold=0.35731396019554917 0.1699662238519907 0.50409409206155698 0.50414495044015828 0.38960512999563418 0.45257158936160735 0.29866006156628028 541.50000000000011 0.95299574991138736 0.62309137624337485 0.37176963277210923 0.5372402346533719 0.63505672323355988 477.50000000000006 467.50000000000006 0.93103158473968517 465.50000000000006 418.50000000000006 0.69547339409571385 0.86535044761145141 0.20784773824525088 0.32492414144103826 0.31574105628792171 0.087293601681931857 0.080723886186834778 433.50000000000006 384.50000000000006 451.50000000000006 0.97489869594573986 427.50000000000006 0.18699208687667723 0.30540871016633403 0.80839481183128303 0.3865492351165723 435.50000000000006 0.14636964632109936 472.50000000000006 0.83210635435643521 0.4261569963605043 0.18547258458697666 530.50000000000011 0.82002549670554503 0.80099611015156802 598.50000000000011 0.06956068397721607 0.088979132792294566 0.44385503095486478 408.50000000000006 0.059260247964734433 0.90302179003404304 460.50000000000006 528.50000000000011 0.22270856700835182 398.50000000000006 0.26998983719103392 0.9996512367344208 0.99995466983057069 489.50000000000006 0.015509829578673777 409.50000000000006 0.93626540729257501 469.50000000000006
decision_type=2 2 2 2 2 2 2 2 2 2 2 2 2 2 2 2 2 2 2 2 2 2 2 2 2 2 2 2 2 2 2 2 2 2 2 2 2 2 2 2 2 2 2 2 2 2 2 2 2 2 2 2 2 2 2 2 2 2 2 2 2 2
left_child=2 9 6 4 -3 -4 20 10 -7 -2 -8 12 13 -5 15 16 17 -13 19 -16 23 -22 33 24 25 -1 -20 -12 34 -25 -29 35 -28 45 -17 38 -37 41 44 -27 50 -34 46 49 -31 -23 -39 51 52 -44 57 -46 -49 -51 58 60 -57 -41 61 -58 -55 -54
right_child=1 3 5 11 -6 8 7 -9 -10 -11 27 14 -14 -15 18 28 -18 -19 26 -21 21 22 -24 29 -26 39 32 30 -30 31 -32 -33 37 -35 -36 36 -38 42 -40 40 -42 -43 43 -45 47 -47 -48 48 -50 53 -52 -53 54 55 -56 56 59 -59 -60 -61 -62 -63
leaf_value=-0.11785172700171653 -0.10923817585029137 0.12276515993219357 0.12624457496242394 0.12632830199067721 -0.098699764842189786 -0.098271095459922672 -0.031657506014815623 0.017434092275286899 0.067449356368788224 0.044975635968025479 -0.14065832194405736 0.083407714591473128 0.16319612684943482 -0.032647790601686009 0.16618265473117502 0.16436300706941714 -0.0039898238648505774 0.16402738767314309 0.13050188323431811 0.085999563057739592 -0.052428223246802907 -0.15887347265002377 -0.10398539940540562 -0.1358267677197362 -0.092729292004311167 -0.16156320365126642 0.16519052443515589 -0.16269401633457403 0.13182534142908461 -0.1605746811081894 -0.18235500982911229 -0.16972130093415375 0.15869384671755607 -0.16766113463402527 0.15948934625858588 -0.16500238534502515 -0.15994502309669686 0.15812044273723005 -0.16179745732509887 -0.15827223330437648 -0.1610938020577401 0.16206067181579675 0.15856844560466085 0.15928386182736501 -0.15908657796995659 -0.16115844462949333 0.16034504535946881 -0.15896478164486952 -0.15945879026543777 0.1579818716016812 -0.15940237204769792 -0.16048073038078262 -0.15806693316000997 0.15720578835454571 -0.15851055715765452 0.15784159469437703 0.15721811619071258 -0.15804182374313078 -0.15798903053140761 0.15734957326094537 0.15726352267935156 -0.15814395748209698
leaf_weight=4.6929180324077668 6.148725822567938 6.8082260191440565 3.9055707305669776 5.0068460404872877 3.6572628766298294 7.0900614410638791 4.8073944598436418 5.577565371990203 3.6977894753217697 4.1785794347524643 3.5900474488735181 3.5745453983545321 3.5488392412662497 3.64494389295578 5.2458449602127057 4.2716867923736555 4.5786724090576163 5.4572111666202545 3.5011116713285437 5.7730702608823776 3.5590842217206982 5.5960466116666812 4.5629008263349524 3.5523446500301352 4.2641837149858466 4.4766007363796261 5.7141463160514823 3.7836325615644455 3.5136751234531394 4.2266133427619925 3.8934353291988373 4.0785486400127402 3.7257840484380713 3.5938298255205146 5.8415053635835648 3.5786974728107435 4.9174541831016541 3.7184624075889579 4.9510623812675467 3.7218843549489993 4.2358142584562293 3.5379249304533005 3.7255030721426001 3.7371585071086875 4.9012851417064649 3.5281456857919693 3.5166971534490585 4.6663270145654741 4.9082000255584708 3.4845050722360602 3.7391488254070273 3.5216010063886642 5.5777362138032931 4.8609573841094962 3.7256905734539023 3.9459370821714383 3.7038037031888962 5.5770923942327499 4.8787705600261679 3.7060723304748535 31.489146500825882 3.4872960299253464
leaf_count=20 25 28 16 21 15 29 20 23 15 17 15 15 15 15 22 18 19 23 15 24 15 24 19 15 18 19 24 16 15 18 16 17 16 15 25 15 21 16 21 16 18 15 16 16 21 15 15 20 21 15 16 15 24 21 16 17 16 24 21 16 136 15
internal_value=0 0.121616 -0.125463 0.133758 0.0453722 0.00311177 -0.139543 -0.0870809 -0.0414665 -0.046841 -0.123346 0.140722 0.089558 0.0593527 0.145897 0.120128 0.0863315 0.13212 0.153412 0.124173 -0.149638 -0.130579 -0.146675 -0.153971 -0.143958 -0.152219 0.157324 -0.162467 0.153884 -0.159013 -0.172665 -0.160448 0.158515 -0.161991 0.161548 -0.159739 -0.162075 0.157993 -0.159296 -0.159634 -0.159134 0.160334 0.157735 0.157554 -0.158986 -0.159757 0.159202 -0.158798 -0.158528 0.157437 -0.158498 -0.159669 -0.158324 0.157354 -0.158154 0.157309 0.157478 -0.158134 -0.158059 0.157284 0.157256 -0.158097
internal_weight=0 153.617 148.865 143.29 10.4655 14.6934 134.171 21.6521 10.7879 10.3273 16.0745 132.824 12.2006 8.65179 120.623 27.2373 13.6104 9.03176 93.3861 11.0189 112.519 20.84 17.2809 91.6793 30.7076 26.4435 82.3672 11.2671 13.6269 60.9716 7.67707 57.4193 78.8661 12.718 10.1132 53.3407 8.49615 73.152 44.8446 21.7505 17.2739 7.26371 65.8882 58.6531 39.8935 9.12419 7.23516 35.6669 27.244 54.9159 13.0381 8.42289 22.3358 51.1904 17.6695 47.7059 11.3558 9.29898 13.9438 7.40988 36.3501 9.06503
internal_count=1280 651 629 609 43 60 569 90 44 42 67 566 51 36 515 115 57 38 400 46 479 88 73 391 131 113 354 47 58 260 32 245 339 54 43 228 36 315 192 93 74 31 284 253 171 39 31 153 117 237 56 36 96 221 76 206 49 40 60 32 157 39
is_linear=0
shrinkage=0.1


Tree=4
num_leaves=63
num_cat=0
split_feature=31 23 23 61 54 36 49 74 84 65 57 45 90 23 33 33 33 40 33 50 4 4 17 39 34 10 90 58 54 23 40 53 10 47 14 0 34 12 60 90 49 42 33 18 12 17 44 4 57 58 61 61 68 87 52 18 14 52 58 76 34 42
split_gain=389.803 29.7503 22.0227 6.68733 6.51624 6.12053 7.07451 5.24784 6.00987 5.01789 2.36708 3.94217 2.35863 1.69099 3.66435 1.64572 1.53149 1.07588 0.958065 2.42473 1.66792 0.8053 0.690773 0.735093 1.71415 3.81952 0.482315 0.456683 0.23061 0.0402187 0.0275913 0.0236676 0.016255 0.00914579 0.00802873 0.00780657 0.00481164 0.00317714 0.00307609 0.00226806 0.0018513 0.00210748 0.0018336 0.0013514 0.00119982 0.00095876 0.00093547 0.000885344 0.00159742 0.00073793 0.00073401 0.000709264 0.000592329 0.000471703 0.000311507 0.000287222 5.45875e-05 3.57903e-05 3.16863e-05 3.05898e-05 1.94901e-05 9.33905e-06
threshold=0.49427021960697254 0.35887722916670511 0.34209959016457619 0.91830795457519421 0.1699662238519907 0.24922156135595439 0.5521453692463093 0.80703184008598339 0.4988376754140334 0.67458854128045742 0.74905358020870783 0.95619095113368813 0.59600155406236166 0.30339748466321198 0.082963261736626326 0.31521581265561177 0.89202357857559844 0.38739279532788162 0.89202357857559844 0.97507539152934264 466.50000000000006 488.50000000000006 558.50000000000011 0.16458530545190048 0.045862816966458254 512.50000000000011 0.46103985744586423 0.76264145970344555 0.86876368612106092 0.7012364059167272 0.70969447502305349 0.31137695297888413 532.50000000000011 0.13842704351678711 469.50000000000006 467.50000000000006 0.2222562917595805 397.50000000000006 0.047729402780532844 0.19344985638377346 0.99990945430554801 0.99965661206481815 0.12826636498521457 456.50000000000006 531.50000000000011 387.50000000000006 0.047420711800440669 477.50000000000006 0.0013640775955405251 0.73245608806610119 0.068831350919137904 0.88702506464862518 0.16097068329550979 0.38803228813188412 0.070189036428928389 596.50000000000011 469.50000000000006 0.92218059301376354 0.039658891037106521 0.11178145995235209 0.86984348967412495 0.98592865478949021
decision_type=2 2 2 2 2 2 2 2 2 2 2 2 2 2 2 2 2 2 2 2 2 2 2 2 2 2 2 2 2 2 2 2 2 2 2 2 2 2 2 2 2 2 2 2 2 2 2 2 2 2 2 2 2 2 2 2 2 2 2 2 2 2
left_child=2 7 9 5 -3 -4 17 8 -2 12 11 16 13 15 -15 22 28 -7 19 20 -12 30 23 24 39 -26 -20 -28 -6 -29 -22 33 -33 38 -32 40 -35 -37 44 -1 41 -31 50 -44 -25 -39 -27 48 -41 -36 52 -47 -40 58 -55 56 -53 -58 -54 -49 -59 -62
right_child=1 4 3 -5 10 6 -8 -9 -10 -11 18 -13 -14 14 -16 -17 -18 -19 26 -21 21 -23 -24 31 25 46 27 29 -30 35 34 32 -34 36 49 37 -38 45 42 47 -42 -43 43 -45 -46 51 -48 59 -50 -51 -52 55 53 54 -56 -57 57 60 -60 -61 61 -63
leaf_value=-0.15309896866697534 -0.06502244989157821 0.0075842158817523682 0.067164996421418655 0.10140437051619688 0.16157375608469424 -0.1814774119216663 0.011433273542541457 -0.095496361879445643 0.10186498180307922 -0.045145657683004485 0.070924323377869553 0.02499408726502542 -0.054533156466115042 -0.015263409539681284 -0.14268580622047297 -0.090409483485637085 0.072681150481509749 -0.10445754263336621 0.11876363573471459 0.046361844536625008 0.15960715698976197 0.10145533129681841 -0.10184588348978903 -0.15171748918311856 -0.037284464820860001 -0.14990098029701004 0.12251485655104587 0.16137146190366694 0.12942804142355466 0.15162049475798192 0.15548066864157897 -0.16262210872170454 -0.15292878412008878 -0.15240901959685249 0.15083536883936982 0.15236956977052216 -0.15695874801126772 0.1509237080625159 -0.15127797068490645 -0.15027704602656461 0.15053367793353353 0.15488317042621069 -0.15074151451978321 -0.15333108929172645 -0.15429367216716403 0.1505278547173792 -0.15218817120235595 -0.14958162929634572 -0.15299131210141217 0.1489413865574972 -0.15142352660719588 0.14937153711716089 -0.14991122743164606 -0.14993928022203321 -0.15122366433437009 0.14995058036795003 0.14924969408572733 0.14868449887045432 -0.14955779314317591 -0.14999753925456757 0.14909887742405414 0.14892052349476673
leaf_weight=4.7527200430631664 3.8702650964260084 4.1565205156803122 3.6945795714855221 3.8311420232057563 6.2765601426363009 3.6146649420261365 5.0365374088287354 5.6685345917940131 4.8769108057022095 6.5125156342983237 3.4481477290391984 4.923551231622695 3.5120461434125891 3.4649203270673734 6.4731011390686035 5.9766211807727805 3.4585916548967353 3.6401251405477524 6.0292698889970771 3.4753933250904074 6.2708539962768599 3.4380979239940634 3.6716397255659095 3.5894255936145774 5.0233173668384534 3.5524899214506149 6.3470413684844962 3.2757745236158362 3.4629729837179184 4.0354121029376966 3.4344412237405786 3.5346239209175101 3.3884003758430481 4.9553102254867536 3.5704176872968656 3.5955191701650611 4.3782081305980682 3.3529304265975943 4.2548705786466661 6.0102212131023425 3.789274588227272 3.8864794820547104 3.791837200522421 4.3012028485536575 3.6423831880092621 3.5625539273023596 3.6007868051528931 3.7671216875314704 3.3919661492109299 4.8535827100276947 6.0502671003341666 3.3183799088001242 3.3311616927385357 3.5535914599895468 4.0295999050140381 3.3312725573778144 3.5372045189142218 3.3032011687755576 10.634768903255461 3.3329734206199646 3.312710881233218 25.808753803372383
leaf_count=21 16 17 15 16 27 15 21 23 20 27 15 21 15 15 28 26 15 15 27 15 27 15 16 16 22 16 28 14 15 18 15 15 15 22 16 16 19 15 19 27 17 17 17 19 16 16 16 17 15 22 27 15 15 16 18 15 16 15 48 15 15 117
internal_value=0 0.115817 -0.115276 -0.0172575 0.130794 -0.0456958 -0.0796199 -0.0205465 0.0280242 -0.130634 0.134823 0.101357 -0.135275 -0.13771 -0.0982596 -0.141391 0.129845 -0.142832 0.140389 0.124629 0.135503 0.145828 -0.144421 -0.146035 -0.134035 -0.104119 0.145967 0.14817 0.150144 0.150561 0.154242 -0.152359 -0.157878 -0.151683 0.151406 0.150015 -0.154543 0.149499 -0.151117 -0.151174 0.152352 0.153221 -0.150774 -0.152118 -0.153015 0.149291 -0.151052 -0.15062 -0.151256 0.149744 -0.150432 0.149172 -0.1502 -0.149987 -0.150622 0.149059 0.148983 0.148948 -0.149642 -0.149777 0.148915 0.148941
internal_weight=0 145.671 146.295 19.817 131.255 15.9859 12.2913 14.4157 8.74718 126.478 127.098 18.1217 119.966 116.454 9.93802 106.516 13.1981 7.25479 108.977 28.4909 25.0155 21.5674 100.539 96.8672 33.4316 12.1766 80.4858 74.4565 9.73953 68.1095 18.1293 63.4357 6.92302 56.5126 11.8584 64.8337 9.33352 53.1225 47.1791 21.255 11.7112 7.92189 39.9473 8.09304 7.23181 49.527 7.15328 16.5023 9.40219 8.424 31.8543 46.1741 25.804 21.5491 7.58319 42.6115 39.2803 35.9619 13.9659 7.1001 32.4247 29.1215
internal_count=1280 640 640 82 581 66 51 59 36 558 564 78 531 516 43 473 57 30 486 125 110 95 447 431 149 54 361 334 42 306 80 282 30 252 53 292 41 240 211 95 52 35 179 36 32 224 32 74 42 38 143 209 116 97 34 193 178 163 63 32 147 132
is_linear=0
shrinkage=0.1


Tree=5
num_leaves=63
num_cat=0
split_feature=20 29 29 60 31 36 30 71 33 64 65 60 29 31 64 61 54 14 14 3 11 45 74 47 45 1 61 94 6 6 57 63 78 30 31 23 57 65 31 71 43 33 57 55 57 89 6 57 12 45 94 14 73 16 41 65 70 6 16 5 6 21
split_gain=354.523 13.2345 12.7296 7.7655 6.90556 7.65694 5.16429 5.60483 4.80596 4.49831 3.23501 2.66595 2.64879 2.75563 4.98135 3.46601 2.35872 1.57375 0.958238 1.94038 0.813238 0.647658 3.1263 0.380907 1.77458 0.315045 0.589886 0.241974 0.239776 0.260803 0.232097 0.229754 0.213708 0.178089 0.0997455 0.0274092 0.017337 0.00745877 0.00703616 0.00595521 0.00526315 0.00311501 0.00303411 0.00294689 0.00283916 0.001672 0.00225869 0.00235022 0.00127596 0.0012228 0.00248668 0.000684188 0.000671193 0.000514271 0.000416269 0.000408935 0.000302931 0.000283808 0.000251058 0.000211999 0.00018366 0.000124382
threshold=0.49618612445414817 0.39007801702635342 0.64452486124956188 0.79886043071746837 0.49427021960697254 0.33609855587348514 0.71998405599154769 0.55685834555563485 0.86764673091267708 0.67261091250771576 0.68150831874359119 0.58747440576553356 0.83210635435643521 0.9027272066191282 0.6813813122212834 0.91441788997290152 0.07644581813470476 491.50000000000006 468.50000000000006 510.00000000000006 593.00000000000011 0.0053712467931197527 0.034899884834885604 0.0049856273201206993 0.031936747540275638 429.50000000000006 0.0055009666392327643 0.71967620614275407 422.50000000000006 591.00000000000011 0.017193956181626755 0.93686172366142284 0.71656320879766433 0.73021191258644869 0.44976499281373966 0.31133070664984247 0.68134002443209785 0.93913891121541249 0.86528753679079817 0.49812074770464754 0.8851223988709922 0.26436282786510873 0.0094879202347833754 0.88349911570549022 0.00011342795759237535 0.093167361449905992 516.50000000000011 0.037742207577067276 415.50000000000006 0.19407186094000958 0.45522907903834936 469.50000000000006 0.39138070686559295 429.50000000000006 0.87810643044239833 0.007931296407857084 0.83591821789741527 439.50000000000006 593.50000000000011 441.50000000000006 470.50000000000006 0.87241661083865496
decision_type=2 2 2 2 2 2 2 2 2 2 2 2 2 2 2 2 2 2 2 2 2 2 2 2 2 2 2 2 2 2 2 2 2 2 2 2 2 2 2 2 2 2 2 2 2 2 2 2 2 2 2 2 2 2 2 2 2 2 2 2 2 2
left_child=1 9 3 6 5 16 7 11 -5 10 17 -2 13 14 33 -16 -3 20 19 32 21 22 30 24 42 26 -25 34 -20 36 44 37 43 -4 35 39 -30 -15 40 41 -38 45 59 -14 55 -27 48 52 -47 53 -51 -40 -48 -50 56 -1 -53 -55 61 -23 -59 -56
right_child=2 4 12 8 -6 -7 -8 -9 -10 -11 -12 -13 18 31 15 -17 -18 -19 28 -21 -22 23 -24 25 -26 27 -28 -29 29 -31 -32 -33 -34 -35 -36 -37 38 -39 51 -41 -42 -43 -44 -45 -46 46 47 -49 49 50 -52 54 -54 57 58 -57 -58 60 -60 -61 -62 -63
leaf_value=-0.14463966045102591 0.131513516692425 -0.053164187438740788 0.15282367963293797 -0.12006706029471642 0.072366860543228412 -0.14834646760036249 0.16233135242644248 -0.054193939328174567 0.044005481643959073 -0.040762666863874308 -0.048064750195038475 0.021811804179110644 0.14877850762973849 0.15224477391249439 -0.025181635501815153 0.092492496408750596 0.058722507029403043 -0.079860003794876344 0.11412816405876434 0.053714659018167771 -0.085222960362100017 -0.14408098973011754 -0.03114170762200686 -0.091641242803134682 -0.060770147631405008 -0.14653379833148361 -0.14721777848817683 -0.11868486467411572 0.14989614321094108 0.11433268765680155 -0.11490902988474626 0.11740838880976112 0.11516767976331299 0.12153175247896331 -0.16239647998006096 -0.15427793264675918 0.14840525362689974 0.14609084907740896 0.14373274701683972 -0.14908996224645052 0.14352790698795645 -0.14768187984749845 -0.14712567144982677 0.14451676103892172 -0.1469931594758129 -0.14579096283683082 -0.14356213118505529 -0.14782368553341904 -0.14441500143769323 -0.14663601594774697 -0.14287336448081239 0.14260891903088121 -0.14557944113466648 -0.14367988272000282 0.14286585258905388 -0.14303479162078894 0.14389557568621764 -0.1426123772609478 0.14305653558839151 -0.14295833220509815 -0.14349518947048598 0.14222547050766024
leaf_weight=3.1964686959981936 5.8677416145801597 3.9742433428764361 4.0312071740627351 3.6111314445734015 4.6306300014257422 6.4675688594579697 5.7670455127954474 3.7681360840797415 3.5309292674064636 6.1722068190574637 4.8077707290649405 3.5588343590497971 3.2987790405750257 3.7992484718561155 5.3042728602886182 4.7396177649497986 3.5827140063047409 5.5328106284141532 3.204975262284278 4.0327091962099066 3.2369946539401999 3.6058538407087308 3.3114588856697074 3.2917311042547217 3.3085400611162177 3.6759932935237876 4.5490364879369736 3.2751349061727515 3.9710899740457526 3.2189708948135367 3.2218064963817588 3.2348811626434326 3.2185962647199631 3.3138622939586639 3.7476783841848365 3.3740875571966162 3.9299756437540037 4.0895614773035049 5.0745443105697623 3.3010843098163596 5.0625679790973663 3.2734457254409781 3.680359736084938 3.1930071115493774 5.2033895403146744 3.22437959909439 3.3800892233848554 3.2733990252017975 3.6182404607534471 3.6806414723396292 3.3597351014614105 3.9802091717720023 3.2209877967834473 5.9187088459730175 3.3583758920431128 3.1547064036130905 3.3869964778423309 9.2185211628675443 4.8373934626579276 3.1527393907308578 3.1658523827791205 31.310749962925911
leaf_count=15 25 17 18 15 19 28 25 16 15 26 20 15 15 17 23 21 15 25 15 18 15 17 15 15 15 17 21 15 18 15 15 15 15 15 16 15 18 19 24 15 24 15 17 15 24 15 16 15 17 17 16 19 15 28 16 15 16 44 23 15 15 150
internal_value=0 -0.111965 0.11289 0.049919 -0.0335156 -0.0684759 0.0833928 0.0488909 -0.038952 -0.123947 -0.128375 0.0900976 0.127361 0.100982 0.076118 0.0303477 -0.00011929 -0.131849 0.136201 0.112022 -0.134572 -0.136132 -0.118962 -0.139816 -0.124589 -0.142784 -0.123885 -0.145147 0.140859 0.142116 -0.138643 0.139852 0.136237 0.138706 -0.146605 -0.145542 0.143494 0.149055 0.143077 -0.144979 0.145659 -0.144702 -0.144815 0.146682 -0.145261 -0.144489 -0.14431 -0.145633 -0.143904 -0.143694 -0.14484 0.14263 -0.144546 -0.143326 0.14251 -0.143843 0.1432 -0.14311 0.142382 -0.143557 -0.142838 0.142288
internal_weight=0 140.789 139.695 26.1038 18.6552 14.0245 18.9618 13.1947 7.14206 122.134 115.962 9.42658 113.592 28.5127 17.389 10.0439 7.55696 111.154 85.0789 13.7431 105.621 102.384 18.0878 84.2962 13.7475 70.5487 7.84077 62.708 71.3358 68.1309 14.7764 11.1237 9.71038 7.34507 59.4328 55.6852 64.9119 7.88881 60.9408 52.3111 8.99254 49.01 10.439 6.49179 11.5546 45.7365 42.0606 9.87448 32.1861 28.9617 7.04038 51.9483 6.60108 21.9213 46.8737 6.35118 7.36721 18.3031 39.5065 6.75859 12.3844 34.6691
internal_count=1280 640 640 111 79 60 81 56 30 561 535 40 529 128 77 44 32 515 401 63 490 475 84 391 64 327 36 291 338 323 69 51 45 33 276 260 308 36 290 245 42 230 49 30 54 215 198 46 152 137 33 248 31 104 224 30 35 87 189 32 59 166
is_linear=0
shrinkage=0.1


Tree=6
num_leaves=63
num_cat=0
split_feature=26 39 38 53 27 90 56 56 61 61 70 67 39 42 10 66 15 3 2 13 10 10 39 70 94 82 33 43 61 87 12 38 94 27 56 27 75 2 0 43 14 27 75 56 27 59 74 80 53 13 61 17 53 70 88 10 15 53 59 94 94 53
split_gain=282.191 21.9336 18.797 7.1534 7.05723 6.53767 5.62625 5.33146 4.74575 4.37745 3.97043 3.57121 2.90171 5.22339 2.36666 2.04363 1.92112 1.62548 1.10312 1.08557 1.03093 2.31093 0.939429 0.811001 2.91488 0.359366 1.96713 0.687113 0.254123 0.14949 0.150413 0.17796 0.122761 0.0728443 0.0476894 0.0179425 0.0138776 0.00794985 0.00623869 0.00440748 0.00356399 0.00272739 0.00293022 0.00260336 0.00206973 0.00116612 0.00110294 0.00109111 0.000804319 0.00064535 0.000625226 0.000513526 0.000435955 0.000544713 0.000402232 0.000372166 0.0003569 0.000336697 0.000324677 0.000144325 0.000215736 0.000134213
threshold=0.35887722916670511 0.50592736543962513 0.50409409206155698 0.29866006156628028 0.63903392328639619 0.45257158936160735 0.64362200470192488 0.89085666523732798 0.91830795457519421 0.89193234290614976 0.14709615707397464 0.35647684335708624 0.71251445854332174 0.99572966506769822 472.50000000000006 0.4454087913036347 614.50000000000011 540.50000000000011 454.50000000000006 660.50000000000011 476.50000000000006 464.50000000000006 0.63577651149772407 0.17273364961147311 0.44885532766115671 0.69317881950246518 0.90635675645184854 0.93596971498012793 0.51023197518686281 0.51192952213940524 568.50000000000011 0.13025734905614469 0.45049527977184828 0.79936253503721588 0.33124118075051545 0.22065788348722939 0.60119486285841173 476.50000000000006 467.50000000000006 0.97565048067373483 468.50000000000006 0.18562470509212453 0.066797238521625849 0.083140005486959087 0.83545085334236824 0.00024999987796105568 0.81416004896163952 0.34675906503208664 5.563714347534001e-05 501.50000000000006 0.053116585744481998 389.50000000000006 0.99250869030265798 0.94376564025878917 0.62109246646858363 488.50000000000006 414.50000000000006 0.0039154990279875361 0.00091707111033736033 0.32025577092710605 0.54830558052615019 0.95547218188341421
decision_type=2 2 2 2 2 2 2 2 2 2 2 2 2 2 2 2 2 2 2 2 2 2 2 2 2 2 2 2 2 2 2 2 2 2 2 2 2 2 2 2 2 2 2 2 2 2 2 2 2 2 2 2 2 2 2 2 2 2 2 2 2 2
left_child=2 4 3 19 11 -4 10 17 9 12 -5 -2 13 15 -13 -3 25 -7 -12 20 21 23 -17 43 -25 33 -27 -28 -14 30 34 -32 -20 36 35 41 -10 -30 39 -35 -29 42 -22 45 -42 -1 -40 48 -44 -49 -47 -46 53 -53 61 -50 -56 58 -57 -59 -61 -48
right_child=1 8 5 6 -6 7 -8 -9 16 -11 18 14 28 -15 -16 22 -18 -19 32 -21 29 -23 -24 24 -26 26 27 40 37 -31 31 -33 -34 38 -36 -37 -38 -39 46 -41 44 -43 47 -45 51 50 54 49 55 -51 -52 52 -54 -55 56 57 -58 59 -60 60 -62 -63
leaf_value=-0.1404016648982167 0.020432575286383575 0.036663384517875312 0.11706840012179053 0.0015806552034486972 0.10063329373169075 -0.13607624355065542 0.047149739285285687 0.062568121603700344 0.14598994061482432 -0.013010744571095975 -0.076658187706379527 -0.14471055207248709 0.10926350022106233 -0.02683061463167237 -0.030023738801599639 0.15020569004204443 0.070300799050592666 -0.039777520025765956 -0.12246719941049336 -0.081769408104366781 -0.14116165177714121 -0.041975791258265678 0.090410297967194797 -0.025797218224911357 -0.14336798274651083 0.051228196718365995 0.097006614299603264 0.14057848411481197 0.14533477356196589 -0.11632286608436798 -0.1063166409754959 -0.14051796974363756 -0.14776248906728826 0.14396209251966993 -0.15018198751895484 -0.14561977072243212 0.15491336459650151 0.13964759697665075 0.1394395689572667 0.13893779273380083 0.13987579324684429 -0.14145195210758557 -0.13941689741087529 -0.14212493122246436 0.1382933755310371 -0.13752228602951161 0.13759469389602833 -0.14025508900429029 -0.13885146793842654 -0.13839733721026798 -0.13932528496305444 0.13868383148813723 0.13675104505807595 0.13691547801042822 0.13737251273216494 -0.13772742642741245 0.13891692636555028 -0.13804374779224851 -0.13903194987899339 -0.13700072392863202 -0.13779141499858313 0.13682282320663056
leaf_weight=4.0897694379091316 4.792315676808359 3.6456249207258287 3.783574551343917 3.8109364509582582 4.4734114557504645 3.4291807115077955 3.7888822257518759 3.6203396767377853 3.6158588826656333 3.9828517585992804 4.7533034682273847 3.834928423166275 3.0651001781225196 4.0970440059900275 3.3897898495197296 5.8682229965925199 5.1550650596618643 3.5856291651725769 3.2214255034923553 4.8372801393270484 3.7060222178697577 3.8054225593805304 4.7575354278087616 3.2393929660320264 6.0416523367166519 3.1448643803596488 4.6619755476713172 3.8919022530317298 4.4603269547224027 3.2147120386362067 3.0241965949535361 3.0615274608135223 4.7439158260822296 3.36831867694855 4.3134532868862143 4.0481440722942343 3.3644613325595856 5.4749068915843964 3.639148578047755 3.6250225752592087 3.0281952172517768 3.3030633926391593 3.4420824199914923 3.5346298664808264 3.4018494784832027 4.3634448349475861 3.5731082409620267 3.6796869784593573 3.0176452100276974 3.8019395023584366 3.4392129480838776 3.0112169981002834 20.04140430688858 4.1324811428785324 2.9679780453443518 5.168777748942377 3.0176415592432022 3.1919530183076885 3.0241067409515381 9.0676329731941205 5.5706394612789145 6.0960366874933243
leaf_count=20 20 16 16 17 20 15 16 15 17 18 21 16 15 18 15 27 24 15 15 23 18 18 22 15 29 15 23 19 21 15 15 15 22 16 20 19 15 27 18 18 15 16 17 17 17 22 18 18 15 19 17 15 102 21 15 26 15 16 15 46 28 31
internal_value=0 0.1015 -0.103623 -0.116761 -0.00658777 0.00417495 -0.0627608 -0.0359882 0.116467 0.085744 -0.0879543 -0.0465014 0.0982827 0.0726957 -0.0909003 0.101268 0.129438 -0.086853 -0.114782 -0.127958 -0.130357 -0.114517 0.123433 -0.12569 -0.102332 0.133318 0.127523 0.133213 0.134435 -0.137344 -0.138444 -0.123522 -0.137532 0.14121 -0.140085 -0.139232 0.150291 0.142201 0.138799 0.141358 0.137714 -0.138681 -0.138472 -0.139742 0.137382 -0.139034 0.137871 -0.138222 -0.137972 -0.139311 -0.138317 0.137135 0.13699 0.137661 0.137507 -0.1378 0.138151 -0.137678 -0.138209 -0.137434 -0.137302 0.137108
internal_weight=0 135.579 132.724 118.305 16.4904 14.4187 20.3185 10.6351 119.088 35.3516 16.5296 12.017 31.3688 18.3684 7.22472 14.2714 83.7365 7.01481 12.7186 97.9864 93.1491 28.5135 10.6258 24.7081 9.28105 78.5815 45.3139 42.169 13.0003 64.6356 61.4209 6.08572 7.96534 33.2676 55.3351 51.0217 6.98032 9.93523 26.2873 6.99334 37.507 46.9735 43.6705 15.4271 33.6151 11.8924 19.2939 39.9645 32.4828 7.48163 7.80266 30.587 27.1851 7.1437 15.6548 29.0408 5.98562 26.0231 8.19288 17.8302 14.6383 9.66914
internal_count=1280 649 631 570 71 61 91 45 578 164 75 51 146 83 31 65 414 30 58 479 456 138 49 120 44 390 227 212 63 318 303 30 37 163 273 253 32 48 131 34 189 234 218 76 170 59 97 200 163 37 39 155 138 36 79 146 30 131 41 90 74 49
is_linear=0
shrinkage=0.1


Tree=7
num_leaves=63
num_cat=0
split_feature=31 23 23 94 49 28 62 51 53 47 62 5 5 87 74 73 10 50 40 46 70 86 38 15 39 50 10 52 18 94 62 11 8 28 21 62 51 14 28 94 16 38 18 17 13 41 3 47 46 70 10 94 53 53 10 51 2 47 49 47 53 18
split_gain=242.613 20.6019 15.3025 7.28854 7.2108 5.7774 4.7685 7.62642 4.50152 3.83497 3.68279 3.28173 3.26331 3.92222 3.1727 6.3781 3.18546 1.98005 1.30817 3.61193 1.06614 4.15982 1.14132 2.11008 0.608622 1.80097 0.878308 1.36672 0.576006 0.349181 0.75122 0.339639 0.249284 0.0521613 0.0162069 0.00674394 0.00612654 0.00564533 0.00415241 0.00284317 0.00166561 0.00188055 0.00158916 0.001531 0.00150282 0.00121079 0.0013024 0.00117653 0.00113064 0.000579713 0.000561585 0.000745953 0.000539351 0.000426534 0.00030319 0.000282813 0.000280061 0.00027049 0.000230898 0.000158906 9.92926e-05 6.87971e-05
threshold=0.49427021960697254 0.35887722916670511 0.34209959016457619 0.54830558052615019 0.5314669801947155 0.4047437780734216 0.17548932078024057 0.8192829191684724 0.31137695297888413 0.22959155181298016 0.81042822443994489 437.50000000000006 539.50000000000011 0.45425030308604913 0.5589454472064973 0.6842160873285692 484.50000000000006 0.5195848295262816 0.29767626130557495 0.078441109967901226 0.6029697358608247 0.53615491988590125 0.68100359805698396 522.50000000000011 0.16458530545190048 0.055886548859151959 476.50000000000006 0.017218466848134998 602.50000000000011 0.36144534087975683 0.99953486689162163 599.50000000000011 421.50000000000006 0.80689230292721115 0.28841224987891295 0.98561178623290402 0.27611403167247778 469.50000000000006 0.83143960805906036 0.5412246162750346 392.50000000000006 0.092113501384419705 413.50000000000006 540.50000000000011 466.50000000000006 0.88106302165661499 556.50000000000011 0.1294079979492537 0.98212606612973152 0.097752545028924956 506.50000000000006 0.42252237864460207 0.90266163287891954 0.035358734918135119 507.50000000000006 0.010832360014319422 520.50000000000011 0.010056843032820883 0.99989984837677437 0.97289977421842833 0.00048108847041779691 508.50000000000006
decision_type=2 2 2 2 2 2 2 2 2 2 2 2 2 2 2 2 2 2 2 2 2 2 2 2 2 2 2 2 2 2 2 2 2 2 2 2 2 2 2 2 2 2 2 2 2 2 2 2 2 2 2 2 2 2 2 2 2 2 2 2 2 2
left_child=2 6 8 4 9 -3 -2 -8 17 -4 14 -10 13 -13 -7 16 -16 18 24 -20 21 -12 23 -22 25 26 27 -1 29 30 -24 33 -26 35 36 -31 40 39 -39 -35 -34 42 -42 44 -28 46 -40 50 -41 -44 51 -43 -47 -53 -46 -56 59 -52 -58 -54 -57 -59
right_child=1 5 3 -5 -6 10 7 -9 11 -11 20 12 -14 -15 15 -17 -18 -19 19 -21 22 -23 28 -25 32 -27 43 -29 -30 31 -32 -33 34 37 -36 -37 -38 38 45 48 41 47 49 -45 54 52 -48 -49 -50 -51 57 53 56 -55 55 60 58 61 -60 -61 -62 -63
leaf_value=-0.042544387933064302 -0.11316285673769758 -0.17042240176292267 0.025324915740862722 -0.11973425175109172 0.12593329793225005 0.13405419877230135 0.082916735657846907 -0.097817789759424387 -0.14726590540996931 -0.10350139875937275 0.14000135862723548 -0.062020758880995043 -0.1230011715394789 0.070095687929057959 -0.08679729283287281 0.13894416074595348 0.04639298468225389 -0.047269020596031552 -0.0086023849370987279 -0.13920292830377137 0.047968915186998841 -0.0025939842571318095 0.070852268500223373 0.14022090926363295 -0.10515575458002935 -0.044130370482865021 -0.13554426066252584 -0.13585681481698783 0.093721358390641218 0.14510018427916335 0.1347082084149121 0.099330608820507163 -0.13645511863904947 0.13373501204827898 -0.14094703027215202 0.1394203250660887 -0.13886180753498364 0.13598777773021578 0.13272163655505229 0.13830810145117819 -0.13671365381481446 -0.13477215441245249 -0.13313978776671473 -0.13622668310638672 -0.13407518079571562 0.13360379448000631 0.13532796740735123 -0.13532826505385917 0.13557627316430523 -0.13501889689491972 -0.1335411012734786 -0.13245265536750045 0.13276039876310985 -0.13403623815469276 -0.13379023521930331 -0.13303152681757643 0.13224860787509865 -0.1323577189502414 0.13353495930366097 0.13199356929632963 -0.13223658516865855 -0.13295689909527242
leaf_weight=3.0026927441358628 3.7624406069517127 0.72061559557914634 5.69095426797867 4.8604493290185919 4.5471845120191565 5.3128593862056759 6.5587890148162824 3.625207707285881 3.5939046591520336 3.8904101103544235 5.61485907435417 5.5448458194732648 3.3940305262804022 3.778216764330864 3.4022111147642118 4.1658284366130829 3.8027366399765015 3.6140578240156165 3.5686254501342756 5.2081402093172073 5.1269621849060041 3.2184733152389526 2.9423336684703818 4.8013264983892441 2.9631745219230643 3.1743559688329688 3.8582111001014772 3.2889183610677719 4.4628622680902472 3.8176191449165326 4.9278412163257599 2.8421367704868308 2.9206233620643607 4.708264619112013 4.2311238944530478 4.6205643117427826 2.9616564214229575 4.2500850707292548 4.6371633112430564 3.1858979463577271 3.9107958972454053 4.7700371295213753 2.988702729344368 3.1143957227468482 3.5955693274736396 3.3819990307092693 3.2687829881906509 3.2688604742288581 2.8887006938457489 3.6428601443767548 3.944979950785636 3.8830895721912384 3.1580215543508592 3.0265791267156601 3.0179482996463758 2.9845950305461884 2.7652473598718634 6.0937840193510038 2.8168657422065735 18.728937119245529 3.3180662840604782 2.7952719330787659
leaf_count=15 16 3 24 21 20 25 28 15 17 17 28 26 16 17 15 21 18 17 17 26 25 15 15 24 15 16 20 17 23 18 26 15 15 25 21 23 15 22 25 16 20 25 16 16 19 18 17 17 15 19 21 21 17 16 16 16 15 33 15 102 18 15
internal_value=0 0.0977408 -0.096975 -0.0141061 0.0222317 0.111826 -0.016961 0.0185805 -0.111351 -0.0269836 0.113629 -0.0628894 -0.0390442 -0.00847992 0.0702572 0.0404489 -0.0165001 -0.119837 -0.122767 -0.0861009 0.121153 0.088046 0.124502 0.092582 -0.126752 -0.115264 -0.123889 -0.0913231 0.128596 0.13073 0.110835 0.133136 -0.133312 0.13468 -0.135034 0.14199 -0.134469 0.133533 0.133021 0.135579 -0.134153 -0.133978 -0.135115 -0.13419 -0.133812 0.132695 0.133799 -0.133546 0.137009 -0.134172 -0.133309 -0.13381 0.132412 -0.133146 -0.133295 -0.132994 0.132265 -0.132852 0.132898 0.132104 -0.132613 -0.132546
internal_weight=0 127.516 128.447 18.989 14.1285 113.569 13.9464 10.184 109.458 9.58136 112.849 16.311 12.7171 9.32306 16.6836 11.3708 7.20495 93.1471 89.5331 8.77677 96.1649 8.83333 87.3316 9.92829 80.7563 29.3548 26.1804 6.29161 77.4033 72.9405 7.87017 65.0703 51.4015 62.2281 48.4384 8.43818 44.2072 53.79 43.0071 10.7829 41.2456 38.325 10.5424 19.8888 16.7744 38.757 7.90595 27.7826 6.0746 6.63156 24.5137 11.6797 30.8511 6.90967 12.9162 9.32061 27.4691 12.834 5.58211 21.887 6.30266 8.88906
internal_count=1280 640 640 82 61 581 59 43 558 41 578 76 59 43 79 54 33 482 465 43 499 43 456 49 422 153 137 32 407 384 41 343 269 328 254 41 233 287 231 56 218 203 55 105 89 209 42 148 31 35 131 62 167 37 69 50 149 69 30 119 34 48
is_linear=0
shrinkage=0.1


Tree=8
num_leaves=63
num_cat=0
split_feature=20 61 27 27 60 27 31 77 65 27 42 79 94 44 84 42 24 14 8 16 58 86 13 11 37 61 37 61 17 13 24 24 37 61 40 27 53 53 41 2 32 86 47 94 58 47 21 41 9 65 34 34 84 37 42 21 91 32 59 5 46 61
split_gain=224.911 10.632 9.52809 6.47941 5.42821 4.63836 4.51605 4.83107 4.09533 2.82163 4.1328 6.49596 5.41552 2.75372 2.49852 2.37031 1.91336 1.46161 1.04453 2.22003 1.13891 1.02923 1.00333 0.809888 0.693147 2.49884 0.652766 1.83393 0.68391 0.293273 0.219643 0.73373 0.0896441 0.0534015 0.0288979 0.0179785 0.0165651 0.00937256 0.00592525 0.00482187 0.00372679 0.00259056 0.00218176 0.00176649 0.0017545 0.00156733 0.00108505 0.000786734 0.000720411 0.000656658 0.000603723 0.000529134 0.000755582 0.000512391 0.000476881 0.000415368 0.000362042 0.000303313 0.000175619 0.000156802 0.000129908 8.95411e-05
threshold=0.49618612445414817 0.91830795457519421 0.39007801702635342 0.59451882725921101 0.7621247172355653 0.43175686846399142 0.49427021960697254 0.42639872285643615 0.68150831874359119 0.83285657457144036 0.95748543913910444 0.65528923815402662 0.54499435441632427 0.24558032618966438 0.61058822731703344 0.65104580956343472 0.30715737678522587 491.50000000000006 443.50000000000006 425.50000000000006 0.74111524224281322 0.67245041151629736 659.50000000000011 408.50000000000006 0.23083024029604113 0.26440322739767147 0.1852557001148695 0.00019402335541973196 442.50000000000006 283.50000000000006 0.64892455837185337 0.69375448188585609 0.47331107304503878 0.99482769653848224 0.30920975884441215 0.79936253503721588 0.29866006156628028 0.15756307632637406 0.75154805754675957 474.50000000000006 0.83554010090643216 0.14900181014787553 0.15191469503055913 0.47734908783728552 0.76264145970344555 0.030885148890407672 0.032221471271315319 0.955508752496944 513.50000000000011 0.95280543371224569 0.081887845543378412 0.12134590256052515 0.14035497779942888 0.88835780509564255 0.010507226082203331 0.95239896819879732 0.71222927986530971 0.016266421858326583 0.0016031718178880121 601.50000000000011 0.98546303053021689 0.99999999457973454
decision_type=2 2 2 2 2 2 2 2 2 2 2 2 2 2 2 2 2 2 2 2 2 2 2 2 2 2 2 2 2 2 2 2 2 2 2 2 2 2 2 2 2 2 2 2 2 2 2 2 2 2 2 2 2 2 2 2 2 2 2 2 2 2
left_child=2 3 8 4 5 -2 7 13 14 10 15 12 -12 -4 17 -5 -3 22 19 -18 -21 40 23 -1 25 26 28 -28 -25 -20 -31 -32 34 -22 36 -33 42 41 -37 -17 -11 46 54 -42 -40 48 -30 49 51 -46 -47 52 -43 -35 58 56 -51 -50 -26 61 -58 -49
right_child=1 16 6 9 -6 -7 -8 -9 -10 21 11 -13 -14 -15 -16 39 18 -19 29 20 33 -23 -24 24 32 -27 27 -29 37 30 31 35 -34 53 -36 38 -38 -39 44 -41 43 45 -44 -45 47 50 -48 59 57 55 -52 -53 -54 -55 -56 -57 60 -59 -60 -61 -62 -63
leaf_value=-0.082467035193105706 0.12822016177369797 0.0037476678001310011 0.039671656095887166 0.031627329074110248 -0.10364605421505546 -0.037531778147711574 0.059175051990946831 -0.13488542122462505 -0.023093110488728367 0.13628922443472632 0.051100647357164991 0.13509794586348081 -0.12962085831123571 -0.077394239476560656 -0.023517004362593855 0.13931147305929345 0.028509062697230792 -0.061620033980519733 0.095504094429338951 0.073248440000859241 0.14602756887335253 0.06417011926694538 -0.071161369545789818 -0.088300572977855207 -0.12938818557720774 -0.038905150454473229 -0.030281777214730084 -0.13122765228197361 -0.13009339144833162 0.15467511792854682 0.078662531422368231 0.13789604140972203 -0.14967298876443322 0.12920799664535662 -0.14185482300594041 0.13371969252226848 -0.13718572818843167 -0.13579453733862143 0.13099649306936614 0.13377241940821444 0.13028996498121534 -0.12940630994678345 -0.1324243430364363 0.1337698032427041 0.13030054698524482 -0.13200915522085407 -0.13261030261400428 0.12813723029710253 -0.12965043797946374 0.12963922505394562 -0.13007691027746215 -0.12881881740470111 -0.13138506967877872 0.13089321306548155 -0.13033981460744939 0.12978792983051474 0.12883914864281693 -0.12843632070024322 -0.12838174427672303 0.12900158385629934 0.12807427338511432 0.12877369938683675
leaf_weight=5.478424906730651 3.3050604015588743 1.4323488026857365 4.7370615750551242 3.2196344435215014 3.9817791432142258 3.4512699991464615 4.4827703386545172 4.9663839489221564 5.5229571759700766 3.2738759815692919 3.1040385365486127 2.8434807062149048 3.5596586912870407 3.4895772635936737 3.1215698421001425 3.575453132390976 3.556298270821574 4.9715266823768607 2.8586721569299689 4.2654907852411261 2.97529488801956 2.78964078426361 4.4818774461746207 4.2477362602949134 3.3319857418537229 3.906937599182128 2.7990990579128256 5.0407240986824036 2.6636844575405112 2.9975578337907782 2.9832560420036307 2.5360629558563224 4.0707958489656439 3.3178175389766693 3.4150953888893119 2.804302141070365 4.2890572696924201 3.0680929571390143 3.9544903337955466 2.8042198270559311 2.8450461328029633 4.3833701014518791 2.9379977434873572 2.9939196556806564 4.4438286572694805 3.1139436662197104 4.7982709407806396 14.732742592692381 2.6417782455682746 2.8145795762538937 3.3637385219335556 3.6445361077785492 3.4474027901887894 3.9548844993114471 3.2003402262926102 4.2359497845172873 3.4720219522714597 9.305772662162779 3.6146416068077087 3.1317386776208869 6.1603893339633942 2.6005493998527518
leaf_count=29 15 6 21 15 17 15 19 23 24 17 15 15 15 16 15 18 18 25 16 21 15 15 23 23 19 20 15 28 15 14 15 13 19 19 17 15 22 16 22 15 16 25 16 16 25 17 26 86 15 16 19 21 19 22 18 24 20 54 21 18 36 15
internal_value=0 0.0967564 -0.0954572 0.0559164 -0.011031 0.0435507 -0.0275388 -0.0570028 -0.106906 0.0790997 0.0552911 0.00855783 -0.0454384 -0.00998538 -0.111566 0.101576 0.118276 -0.114422 0.120384 0.0993182 0.116669 0.117319 -0.117299 -0.119682 -0.122191 -0.116061 -0.121801 -0.0951863 -0.126471 0.126758 0.128329 0.126863 -0.136103 0.134742 -0.133445 0.129689 -0.131792 -0.130481 0.129258 0.136877 0.133589 -0.130045 -0.130025 0.132074 0.128984 -0.129629 -0.131712 0.128792 -0.129248 0.12922 -0.131006 -0.129814 -0.130277 0.130124 -0.12933 0.128933 0.128642 -0.128705 -0.128864 0.12835 0.12835 0.128233
internal_weight=0 120.975 122.537 41.7471 10.7381 6.75633 17.6758 13.193 104.861 31.009 19.1065 9.50718 6.6637 8.22664 99.3384 9.59931 79.2283 96.2168 77.7959 18.0698 14.5135 11.9025 91.2453 86.7634 81.285 56.4251 52.5181 7.83982 44.6783 59.7261 56.8675 53.8699 24.8599 10.248 20.7891 50.8867 17.374 40.4306 48.3506 6.37967 9.11284 37.3625 13.085 5.83897 45.5463 29.9005 7.46196 41.5918 23.4229 21.1268 6.47768 11.4753 7.83077 7.2727 10.147 16.6829 12.447 11.9476 6.94663 20.465 9.63241 17.3333
internal_count=1280 640 640 204 47 30 79 60 561 157 93 45 30 37 537 48 436 522 430 95 77 64 497 474 445 313 293 43 250 335 319 305 132 56 113 290 96 227 277 33 49 211 74 32 262 170 41 240 134 121 36 65 44 41 58 96 72 69 40 119 56 101
is_linear=0
shrinkage=0.1


Tree=9
num_leaves=63
num_cat=0
split_feature=20 28 28 64 53 67 25 30 54 88 40 37 2 38 37 3 11 64 42 0 48 87 25 42 3 89 70 43 6 25 38 25 52 53 31 13 38 38 20 13 54 11 2 20 34 6 2 11 43 53 2 48 54 89 6 3 46 39 83 64 13 53
split_gain=193.324 9.44556 8.72025 4.87004 4.31315 6.05022 7.26095 4.26987 8.45013 4.7344 3.77734 5.42221 2.23606 2.14045 1.8691 1.64772 1.43082 1.65197 5.691 1.25602 1.87815 3.96961 1.08848 2.45716 1.05113 0.805068 1.59597 0.801269 0.314503 0.135973 0.0467804 0.0264919 0.0179491 0.00991642 0.00857736 0.0060671 0.00306646 0.00267676 0.00255282 0.0019755 0.00140217 0.00126792 0.00119404 0.00104512 0.000713784 0.000657873 0.00048713 0.000494448 0.000404867 0.00045826 0.000402499 0.000311817 0.000288653 0.000200429 0.000188719 0.000188615 0.000128054 8.62316e-05 8.0059e-05 7.81678e-05 3.17643e-05 3.3604e-05
threshold=0.49618612445414817 0.83210635435643521 0.38065657522134028 0.67261091250771576 0.97869818496529837 0.55961251258850109 0.42504179292415772 0.44428563468409321 0.17891157030083024 0.46472026406089623 0.69412570951692565 0.73617638125517271 559.50000000000011 0.78141099773535994 0.4912761211534093 522.50000000000011 581.50000000000011 0.25273086180544707 0.0013613925487446163 467.50000000000006 0.96895207316525922 0.61696390156329606 0.2943064800681458 0.031813058545795303 683.50000000000011 0.10395667325265652 0.051343020051717765 0.091054514690450158 591.00000000000011 0.66895922023226828 0.39922586950771338 0.66964743122109527 0.25512626767158514 0.31881848428238402 0.68658997234755614 663.50000000000011 0.092113501384419705 0.6774305039819627 0.24220337552107041 387.50000000000006 0.10730030727536242 419.50000000000006 459.50000000000006 0.7609919007057363 0.12403773564120031 567.50000000000011 574.50000000000011 543.50000000000011 0.060657628260074849 0.0013753219256670414 517.50000000000011 0.93675501191758759 0.96528184819163498 0.21687009450217529 481.50000000000006 347.50000000000006 0.13088496767165844 0.88897068888264441 0.70960606980280516 0.8897420811098623 362.00000000000006 0.99992290317005617
decision_type=2 2 2 2 2 2 2 2 2 2 2 2 2 2 2 2 2 2 2 2 2 2 2 2 2 2 2 2 2 2 2 2 2 2 2 2 2 2 2 2 2 2 2 2 2 2 2 2 2 2 2 2 2 2 2 2 2 2 2 2 2 2
left_child=2 4 3 16 5 14 -7 8 9 12 15 -12 -4 -6 -2 -8 17 22 -19 20 21 -3 24 -24 25 26 36 -20 34 -15 33 -16 -29 35 -21 38 -1 -36 39 -27 41 -41 -22 -39 46 50 47 48 49 -43 51 -45 -52 -51 -46 -48 -56 58 -54 -53 61 -61
right_child=1 19 7 -5 13 6 10 -9 -10 -11 11 -13 -14 29 31 -17 -18 18 27 28 42 -23 23 -25 -26 30 -28 32 -30 -31 -32 -33 -34 -35 37 -37 -38 43 -40 40 -42 44 -44 45 54 -47 55 -49 -50 53 52 59 57 -55 56 -57 -58 -59 -60 60 -62 -63
leaf_value=-0.13076990518104809 0.048607233807337537 0.11125136133875368 -0.15553344143416925 -0.011120630869851898 0.060103742522487083 -0.084898334003008169 0.12521037768928156 -0.10816740531946681 0.11350879953605815 0.040592075599398834 -0.085223204746119649 0.06555859774496374 -0.039201477426124107 0.15798318077866352 0.14629984656237879 0.041524009201964335 -0.056227654668823901 0.036472768838159711 -0.075031250708044547 0.13149516130870978 0.12921506102030836 -0.03666318315122815 -0.01121847357162218 -0.13739420155414103 -0.060101670681557987 -0.12876221636539154 -0.039643835279699099 -0.13047225225587963 0.09027089938160375 0.13064622336654222 -0.13983924695292607 0.13323667617622673 -0.14100971399558704 -0.13311310340885574 0.12817156793437959 -0.13149290292725238 -0.12601428752850394 0.1272859918729031 -0.12969308485444694 -0.12775433186037929 -0.12852969895263841 -0.12759843535116838 0.12659279080123306 0.12590681208041851 -0.12487041836237696 0.12644754707733372 -0.12498538654310881 -0.12558615993581812 -0.12791758667505357 -0.12546453660004711 0.12655157612372786 0.12530987923830383 0.12562814096193978 -0.1265570537664617 -0.12521001139231699 -0.12603922367223799 -0.12621873941931369 0.12585232476439204 0.12490571984772339 0.12464809987657764 0.12462067336465495 0.12516966366158444
leaf_weight=2.6452870815992338 3.5239362716674787 4.9788662344217283 3.6018166840076464 5.4465054869651786 5.655561298131941 5.7371363043785122 5.2919659763574618 5.1780523508787146 4.3925393372774115 3.5688959062099457 4.2537504434585554 5.4285874962806702 3.0526527315378189 2.953504353761673 3.1142491847276688 4.236007496714592 4.959893360733985 3.2298924475908271 3.1265742480754835 2.6743516623973838 2.7768864631652832 2.854642316699028 2.9547740668058387 3.2312315255403519 2.7230645269155493 3.4557117670774451 3.2406525164842606 2.8311487287282944 2.5965285897254935 4.7388646304607391 3.1143086850643149 3.0955891460180283 3.7677098512649536 2.7143650949001303 3.9128222763538352 2.727593168616294 2.7816926389932632 2.8507761508226386 2.5927920788526526 4.2391669899225226 2.5812591314315787 2.8753753155469948 4.6345285624265671 2.7737777233123806 5.9005374461412412 4.4524891823530188 3.357831358909606 4.2133440822362891 2.7215022146701804 2.9089225679636002 2.6423763930797568 2.4155768305063274 2.4339777380228025 3.9721829444169998 2.5707188546657562 3.4365106225013733 2.4653801620006561 2.6074700951576233 4.1487805098295212 2.3793989270925548 12.840500041842459 2.5691213309764862
leaf_count=15 16 28 17 25 29 25 27 24 19 16 19 29 15 14 15 21 27 16 17 15 16 15 15 17 15 20 18 16 15 27 16 17 19 15 23 15 17 17 15 25 15 17 28 17 37 27 21 26 16 18 16 15 15 24 16 21 15 16 26 15 81 16
internal_value=0 0.0922984 -0.0906131 -0.102981 0.0585018 0.0399107 0.0138212 -0.0301358 -0.00249117 -0.0523314 0.0433037 -0.00068451 -0.102168 0.106806 0.106778 0.0880046 -0.108459 -0.111458 -0.0785359 0.116692 0.0914901 0.0573492 -0.117267 -0.0771258 -0.12096 -0.123529 -0.0951735 -0.116731 0.124182 0.141142 -0.12793 0.139788 -0.136489 -0.127226 0.12599 -0.126907 -0.128332 0.12567 -0.126643 -0.126466 -0.126273 -0.126122 0.127575 0.125437 -0.125921 0.125303 -0.126232 -0.126523 -0.126839 -0.126538 0.125157 0.124913 0.12563 -0.126095 -0.125254 -0.125518 -0.125704 0.125366 0.125173 0.124776 0.124704 0.124919
internal_weight=0 114.572 116.58 96.7859 48.0292 34.6812 24.9474 19.794 14.6159 10.2234 19.2103 9.68234 6.65447 13.3479 9.73377 9.52797 91.3394 86.3795 12.9553 66.5429 15.2449 7.83351 73.4242 6.18601 67.2382 64.5151 8.66763 9.72543 51.2979 7.69237 55.8475 6.20984 6.59886 52.7332 48.7014 50.0188 5.42698 46.0271 47.2912 44.6984 41.2427 38.6615 7.41142 42.1142 34.4223 39.2635 23.4857 16.6913 12.478 9.75648 34.811 22.9784 11.8326 6.88111 10.9366 6.79434 5.0361 9.19023 6.58276 20.2046 17.789 4.94852
internal_count=1280 640 640 549 239 169 121 91 67 48 96 48 32 70 48 48 524 497 68 401 87 43 429 32 397 382 50 52 314 41 332 32 35 316 299 301 32 284 286 271 251 236 44 261 211 244 143 101 75 59 217 144 73 42 68 42 31 57 41 127 112 31
is_linear=0
shrinkage=0.1


Tree=10
num_leaves=63
num_cat=0
split_feature=20 27 20 42 23 4 65 42 53 88 71 51 58 67 76 45 38 6 0 0 51 81 1 76 67 77 16 58 6 5 2 23 27 20 38 58 27 53 77 38 70 27 43 0 38 18 10 53 43 53 43 45 5 15 45 71 6 2 70 4 58 1
split_gain=166.395 9.08238 8.18906 7.61515 4.0303 5.03219 4.72975 4.15009 3.78755 5.42123 9.16241 3.54876 4.82486 4.09592 4.04809 2.22374 2.02851 1.83505 1.57544 1.26998 1.76214 4.40009 1.08689 0.788253 0.546025 2.17695 0.520134 2.07781 0.322895 0.319899 0.189251 0.0940933 0.0433245 0.0408974 0.011356 0.00693213 0.00666528 0.00480457 0.00406049 0.00384151 0.00298064 0.00262235 0.001908 0.00172386 0.00172318 0.00100132 0.000727425 0.000698819 0.000441609 0.000421322 0.000403243 0.000362546 0.00049268 0.000321804 0.000311181 0.000267281 0.000258224 0.000186985 0.000117311 7.15994e-05 6.87091e-05 2.70765e-05
threshold=0.49618612445414817 0.83210635435643521 0.19446983449146737 0.0010027563303650767 0.3300573787486365 487.50000000000006 0.20763059929812816 0.11668510750342649 0.97869818496529837 0.64064045110346435 0.69126414926848501 0.62354612350463878 0.55892530083656322 0.68693390488624584 0.63309651409547596 0.36008906170086508 0.78141099773535994 487.50000000000006 459.50000000000006 467.50000000000006 0.95480957627296459 0.81623178018289322 433.50000000000006 0.040168527991448134 0.042136598378419883 0.13568601096346913 430.50000000000006 0.14454211294651034 591.00000000000011 484.50000000000006 452.50000000000006 0.66895922023226828 0.61096931513528696 0.38438786624760463 0.28978523265232564 0.6483733355998994 0.17262403943884377 0.17897571541536814 0.35182399102846862 0.73446126964421488 0.040904249995946891 0.18674245782635873 0.0087031701669979169 500.50000000000006 0.6774305039819627 383.50000000000006 488.50000000000006 0.87345053848970255 0.93596971498012793 0.0065000158931874073 0.074027510943458316 0.024710090236484725 407.50000000000006 462.50000000000006 0.039292367596471665 0.66849747776885826 568.50000000000011 520.50000000000011 0.8397623896598817 475.50000000000006 0.91083425283432018 546.50000000000011
decision_type=2 2 2 2 2 2 2 2 2 2 2 2 2 2 2 2 2 2 2 2 2 2 2 2 2 2 2 2 2 2 2 2 2 2 2 2 2 2 2 2 2 2 2 2 2 2 2 2 2 2 2 2 2 2 2 2 2 2 2 2 2 2
left_child=2 8 23 -4 5 18 15 -7 9 11 -11 12 -2 30 -15 -6 -10 -8 -5 20 29 -22 -20 -1 25 40 27 42 35 -3 -13 -18 -32 34 38 -21 -36 41 -24 -31 -25 43 49 45 -37 -28 54 -46 55 -26 51 -48 -53 -54 -47 -49 57 58 -50 -55 -59 -60
right_child=1 19 3 4 6 7 17 -9 16 10 -12 13 -14 14 -16 -17 31 -19 22 28 21 -23 33 24 26 -27 37 -29 -30 39 32 -33 -34 -35 36 44 -38 -39 -40 -41 -42 -43 -44 -45 47 46 50 48 56 -51 -52 52 53 59 -56 -57 -58 60 61 -61 -62 -63
leaf_value=-0.062022429752917586 0.068168266866166435 0.084421055996414862 0.054528596833574944 -0.044804845911691565 -0.13203125752585088 -0.087613932306305098 0.081270463722422567 0.069287423594937919 0.05549675905134735 -0.14791549240303528 0.074764597298875315 0.10941863299824657 -0.079085546571365684 -0.038491765497115624 0.10310925140092937 -0.02255028075285246 0.15038909933534053 -0.015322932151054985 -0.062847502277230835 0.12802391539910213 -0.049264743129089114 0.12589388840292004 -0.12849556896815029 -0.12348520091905271 -0.12440468142790231 -0.01080529519399877 -0.1251099628400435 -0.028256084823666094 0.085761181199813685 0.13028320907574867 0.1494116037759117 0.12694650926913972 0.13286056430512061 -0.14031493618152854 -0.12852336946808934 0.12475353315294047 -0.1346884355244739 -0.12865380316046091 -0.12385466082231694 0.12528029404595292 -0.12825316504558978 -0.12727840975489332 -0.12670304445686115 -0.12628406709551476 0.12376438181611721 -0.12511194440353926 -0.12212711592591091 0.12226955500481099 0.12250561123268695 -0.1227475960154058 -0.12410416100190841 -0.12449127358172057 -0.12361119119186353 -0.12270304569197771 -0.12360011505543052 0.12357042881072725 0.12305281876944103 0.12285244616017832 0.12172785341827841 -0.1219497778511284 0.12221172283115851 0.12210238144051314
leaf_weight=3.0147128403186789 5.476442292332651 2.3913876712322217 5.44867019355297 2.9791451096534791 4.4178680181503287 3.6615677624940863 3.2846268564462644 3.1241632550954819 5.519859626889227 3.7630784958600989 3.6303676813840866 2.7041962593793887 3.7479122579097748 3.9680550545454008 4.1100851446390152 3.1984546482563019 2.8002665340900421 4.9019916355609894 2.668768152594569 2.5112663954496375 2.6857387125492087 3.0775564610958099 3.5454100519418734 2.7628508806228629 2.9767908006906492 2.3997346609830856 4.1369337290525499 2.9920041710138312 2.4665952026844016 2.6386516839265823 3.1210738122463226 4.4063672125339508 3.2062761783599854 3.8380877226591101 3.5000088661909103 3.4685833156108847 3.5146179050207138 2.5590483248233786 4.0261799693107605 3.6688668876886368 2.4952623695135117 2.4928517639636985 2.7926013618707657 2.7773001790046683 3.5570035278797141 3.0407808721065548 4.2997649461030987 2.6759613752365103 2.5437612086534598 3.1664643585681915 3.4348883330821982 2.356859326362609 3.3865957260131818 2.7100976705551147 2.4652519375085831 3.8543519824743271 2.73086193203926 2.8720817118883124 14.662820890545847 2.3613211661577225 4.0111521631479263 2.2229396104812613
leaf_count=18 27 15 26 16 21 19 15 15 29 17 20 15 17 19 21 15 14 22 15 15 15 19 21 18 19 14 26 18 15 15 15 27 18 19 21 22 19 15 26 23 15 15 17 17 23 19 29 18 17 21 22 15 22 18 16 25 18 19 100 16 27 15
internal_value=0 0.0880671 -0.0861848 -0.057341 -0.0704041 -0.091436 -0.0293358 -0.0153763 0.0546306 0.0370906 -0.038574 0.0583339 0.00833813 0.0852881 0.0335536 -0.086055 0.101115 0.0234322 -0.112877 0.113104 0.0871531 0.0442687 -0.122491 -0.111824 -0.114524 -0.0897284 -0.118484 -0.100385 0.120992 0.115565 0.131561 0.136056 0.141025 -0.13113 -0.128713 0.122918 -0.131612 -0.124478 -0.126028 0.127373 -0.125748 -0.124158 -0.124536 -0.123907 0.122617 -0.123673 -0.123426 0.122428 0.122294 -0.123551 -0.123126 -0.122904 -0.123213 -0.122856 -0.124435 0.123037 0.122127 0.122031 0.121873 -0.122352 0.122479 0.121777
internal_weight=0 108.494 110.732 52.1096 46.6609 30.8579 15.8029 6.78573 46.454 33.7275 7.39345 26.334 9.22435 17.1097 8.07814 7.61632 12.7265 8.18662 24.0722 62.0396 14.4622 5.7633 21.0931 58.6221 55.6074 7.65785 47.9496 11.9279 47.5774 8.69891 9.03155 7.20663 6.32735 18.4243 14.5862 45.1108 7.01463 36.0217 7.57159 6.30752 5.25811 33.4626 8.93586 30.9698 42.5995 28.1925 24.0556 39.1309 35.5739 6.14326 18.5495 15.1146 10.8149 8.45801 5.50603 6.53031 29.0436 26.3128 19.4295 5.07142 6.88323 16.8858
internal_count=1280 640 640 270 244 171 73 34 239 169 37 132 44 88 40 36 70 37 137 401 87 34 121 370 352 47 305 75 314 53 48 41 33 106 87 299 40 230 47 38 33 215 57 200 284 183 157 262 239 40 122 100 71 56 35 43 196 178 132 34 46 115
is_linear=0
shrinkage=0.1


end of trees

feature_importances:
Column_53=26
Column_61=18
Column_27=17
Column_2=15
Column_6=15
Column_18=15
Column_0=14
Column_10=14
Column_38=14
Column_42=13
Column_94=13
Column_17=12
Column_28=12
Column_31=12
Column_57=12
Column_37=11
Column_54=11
Column_70=11
Column_5=10
Column_20=10
Column_24=10
Column_33=10
Column_56=10
Column_64=10
Column_65=10
Column_1=9
Column_3=9
Column_13=9
Column_14=9
Column_15=9
Column_23=9
Column_45=9
Column_47=9
Column_58=9
Column_8=8
Column_11=8
Column_39=8
Column_43=8
Column_87=8
Column_90=8
Column_41=7
Column_49=7
Column_69=7
Column_12=6
Column_34=6
Column_40=6
Column_48=6
Column_74=6
Column_4=5
Column_16=5
Column_25=5
Column_51=5
Column_55=5
Column_59=5
Column_71=5
Column_76=5
Column_86=5
Column_21=4
Column_32=4
Column_44=4
Column_46=4
Column_50=4
Column_52=4
Column_60=4
Column_62=4
Column_67=4
Column_89=4
Column_19=3
Column_29=3
Column_30=3
Column_63=3
Column_77=3
Column_84=3
Column_88=3
Column_9=2
Column_35=2
Column_36=2
Column_68=2
Column_73=2
Column_75=2
Column_78=2
Column_80=2
Column_81=2
Column_7=1
Column_26=1
Column_66=1
Column_72=1
Column_79=1
Column_82=1
Column_83=1
Column_91=1

parameters:
[boosting: gbdt]
[objective: binary]
[metric: custom]
[tree_learner: serial]
[device_type: cpu]
[data: ]
[valid: ]
[num_iterations: 10000]
[learning_rate: 0.1]
[num_leaves: 63]
[num_threads: 0]
[deterministic: 0]
[force_col_wise: 0]
[force_row_wise: 0]
[histogram_pool_size: -1]
[max_depth: -1]
[min_data_in_leaf: 15]
[min_sum_hessian_in_leaf: 0.001]
[bagging_fraction: 0.8]
[pos_bagging_fraction: 1]
[neg_bagging_fraction: 1]
[bagging_freq: 0]
[bagging_seed: 32123]
[feature_fraction: 0.5]
[feature_fraction_bynode: 1]
[feature_fraction_seed: 10596]
[extra_trees: 0]
[extra_seed: 3672]
[early_stopping_round: 0]
[first_metric_only: 0]
[max_delta_step: 0]
[lambda_l1: 0]
[lambda_l2: 0]
[linear_lambda: 0]
[min_gain_to_split: 0]
[drop_rate: 0.1]
[max_drop: 50]
[skip_drop: 0.5]
[xgboost_dart_mode: 0]
[uniform_drop: 0]
[drop_seed: 26750]
[top_rate: 0.2]
[other_rate: 0.1]
[min_data_per_group: 100]
[max_cat_threshold: 32]
[cat_l2: 10]
[cat_smooth: 10]
[max_cat_to_onehot: 4]
[top_k: 20]
[monotone_constraints: ]
[monotone_constraints_method: basic]
[monotone_penalty: 0]
[feature_contri: ]
[forcedsplits_filename: ]
[refit_decay_rate: 0.9]
[cegb_tradeoff: 1]
[cegb_penalty_split: 0]
[cegb_penalty_feature_lazy: ]
[cegb_penalty_feature_coupled: ]
[path_smooth: 0]
[interaction_constraints: ]
[verbosity: -1]
[saved_feature_importance_type: 0]
[linear_tree: 0]
[max_bin: 255]
[max_bin_by_feature: ]
[min_data_in_bin: 3]
[bin_construct_sample_cnt: 200000]
[data_random_seed: 195]
[is_enable_sparse: 1]
[enable_bundle: 1]
[use_missing: 1]
[zero_as_missing: 0]
[feature_pre_filter: 1]
[pre_partition: 0]
[two_round: 0]
[header: 0]
[label_column: ]
[weight_column: ]
[group_column: ]
[ignore_column: ]
[categorical_feature: ]
[forcedbins_filename: ]
[precise_float_parser: 0]
[parser_config_file: ]
[objective_seed: 12434]
[num_class: 1]
[is_unbalance: 0]
[scale_pos_weight: 1]
[sigmoid: 1]
[boost_from_average: 1]
[reg_sqrt: 0]
[alpha: 0.9]
[fair_c: 1]
[poisson_max_delta_step: 0.7]
[tweedie_variance_power: 1.5]
[lambdarank_truncation_level: 30]
[lambdarank_norm: 1]
[label_gain: ]
[lambdarank_position_bias_regularization: 0]
[eval_at: ]
[multi_error_top_k: 1]
[auc_mu_weights: ]
[num_machines: 1]
[local_listen_port: 12400]
[time_out: 120]
[machine_list_filename: ]
[machines: ]
[gpu_platform_id: -1]
[gpu_device_id: -1]
[gpu_use_dp: 0]
[num_gpu: 1]

end of parameters

pandas_categorical:null
